3327 64
1422 -0.138526 0.391711 -0.141686 -0.091275 0.081620 0.213926 0.277669 0.041310 -0.345273 -0.509511 0.586112 0.777110 -0.193397 0.294381 -0.429924 -0.255473 0.102686 -0.144437 -0.267760 -0.203020 -0.118354 -0.114041 0.097097 0.424218 0.106432 0.052873 -0.225167 -0.377551 0.226403 -0.107143 -0.310296 -0.091122 0.113855 -0.304536 0.221351 -0.790537 -0.102190 -0.647070 -0.094017 0.219528 0.149520 0.145989 -0.079808 0.019013 -0.156033 -0.314977 0.137947 -0.382650 0.177122 0.137110 0.038744 0.033643 -0.603908 -0.431666 -0.511468 -0.271072 -0.086705 0.026494 0.485833 -0.250999 0.780571 -0.053358 0.030767 0.062994
582 -0.035499 0.134501 0.290462 -0.010471 -0.147003 0.091678 0.171053 -0.092632 0.138953 -0.382070 0.620631 -0.045746 0.212438 0.105831 0.855477 -0.011246 0.138050 -0.622157 -0.104262 0.282518 0.009460 -0.766796 0.470043 -0.287577 -0.185370 -0.302204 0.624148 0.523652 -0.025165 -0.080362 -0.558415 -0.177323 -0.261780 -0.183408 -0.363051 -0.087938 -0.320515 -0.325178 0.118834 0.032657 0.098143 -0.242346 0.765648 0.049508 -0.008930 -0.450962 -0.589127 -1.297377 -0.380271 0.526766 -0.618351 -0.062097 -0.401387 -0.588213 0.171639 -0.455735 0.235937 -0.395600 0.342946 0.407032 -0.075257 -0.313146 0.591480 0.196339
468 0.294163 0.930019 -0.533036 0.512437 0.158151 0.076887 0.013932 -0.317933 -0.106702 -0.166223 0.442207 0.497452 0.201777 0.467278 0.412873 -0.470754 -0.077701 -0.838553 -0.722075 0.439732 -0.899222 0.058275 -0.375120 0.568467 0.020488 0.301227 -0.157655 0.033508 -0.205093 -0.651728 -0.119667 -0.140129 -0.204881 0.277789 0.407710 0.054778 -0.306795 -0.112062 0.485031 0.155162 0.248533 0.255899 0.379736 0.190026 -0.136267 0.153513 -0.418808 -0.196781 0.395928 -0.229857 -0.191545 -0.061528 -0.770515 0.259333 0.353362 -0.104698 0.003319 0.369881 -0.095945 -0.150026 0.799939 -0.309509 0.541616 -0.271874
1214 0.067205 0.865584 -0.362947 -0.468284 0.301514 -0.173732 -0.070536 -0.056995 0.342936 -0.674888 0.414627 0.345635 0.036866 0.605508 -0.667147 -0.171662 0.333577 0.077879 -0.204114 -0.113171 -0.516671 -0.159193 -0.219223 0.504281 0.122193 0.158109 -0.136445 -0.014729 0.183378 0.171661 -0.240949 -0.343851 0.601198 -0.106295 0.202913 -0.803079 0.608636 -0.324021 -0.227386 0.201198 0.282243 0.153236 0.233117 0.686694 -0.360835 -0.006985 -0.145062 -0.296397 0.879674 0.548950 0.075370 -0.066897 -0.090873 -0.530336 0.226311 0.129882 0.025805 -0.175112 -0.086858 0.563650 0.588793 0.015551 0.366488 0.222338
1625 -0.027860 0.429088 -0.395737 0.034580 0.608200 -0.277352 0.113124 -0.392267 -0.510422 -0.283629 0.466065 0.187639 -0.555100 -0.471650 -0.029922 0.189519 0.158357 -0.641084 -1.084063 -0.045833 -0.994845 0.549497 0.081847 0.584363 0.225421 0.131885 0.618959 0.394359 0.278130 -0.209523 0.081592 0.139188 -0.285483 0.432857 -0.455679 0.178379 -0.169481 0.014721 -0.229113 0.126144 -0.232857 -0.173530 0.643739 0.034946 -0.004825 -0.471667 -0.315954 0.399520 -0.098210 -0.084748 0.123822 -0.129335 0.149172 -0.415340 0.378171 0.049189 -0.379524 0.086330 0.363322 0.256254 0.266207 0.149192 0.263528 -0.140763
2782 0.158226 0.710074 0.030973 -0.371817 0.027327 -0.205126 0.599863 -0.032921 -0.092640 -0.297420 -0.025175 0.004193 -0.716509 0.756189 -0.496777 -0.165266 0.729606 0.343583 -0.006547 -0.078329 -0.155403 0.167129 -0.329463 0.188838 0.037097 -0.276954 -0.212665 -0.104071 0.467660 -0.445511 0.039474 0.250140 0.298318 -0.037734 0.317790 -0.477336 0.450265 -0.675096 0.298764 0.324961 0.790514 0.155329 -0.314283 0.226900 -0.609981 -0.185208 -0.395626 -0.593267 -0.043432 0.100833 0.054436 -0.435892 0.167929 -0.031759 -0.149288 -0.425347 -0.023207 0.122809 0.281976 0.441936 0.637584 0.130899 0.571276 0.158986
1943 0.115714 -0.092160 -0.062537 0.399413 0.163624 -0.081009 0.696451 0.499123 -0.476542 0.081633 0.309217 0.947639 -0.039209 0.402617 -0.314508 -0.158226 0.479829 0.147113 -0.444524 -0.464901 -0.034523 -0.100902 0.307680 0.425290 -0.091115 0.019695 -0.051453 -0.230861 0.080549 -0.292204 0.039067 -0.342658 -0.221098 -0.144490 0.142212 -0.469993 -0.058928 0.027689 -0.322624 0.117475 0.421312 0.171812 0.034538 -0.118727 0.081929 -0.429889 0.358457 -0.627647 0.005004 0.270438 -0.561438 0.342483 -0.871737 -0.063332 -0.300284 0.386016 -0.027955 -0.033964 0.341751 -0.431455 0.886863 -0.941525 0.406861 0.117435
1896 0.948059 0.135899 0.162052 0.274962 -0.193612 0.258959 -0.509203 0.750647 0.117927 -0.024622 0.467561 -0.786519 0.087701 0.045232 0.479580 -0.195163 -0.060531 -0.113311 -0.126140 -0.178379 -0.647247 0.425756 0.723479 0.907611 -0.295262 0.739113 -0.171600 0.309520 0.471547 0.212777 -0.683311 -0.892069 -0.177296 0.036161 0.057256 -0.190401 -0.223086 0.517196 1.021396 0.432372 -1.093595 -0.129960 -0.122282 -0.138054 -0.822326 0.435162 -0.486724 -0.799534 -0.706488 0.708551 -0.228830 0.141356 -0.776890 0.357923 0.116235 0.402570 0.050930 -0.239559 0.817478 0.138565 0.573417 0.273500 0.423674 0.294758
968 0.354182 0.484521 -0.417782 -0.093772 -0.419255 -0.018437 0.535618 0.255645 0.057884 -0.692197 0.734182 0.378197 -0.106120 0.956679 -0.019112 -0.481369 0.394326 -0.001686 -0.387523 -0.123278 -0.514715 -0.365339 -0.194285 0.422215 -0.314962 0.043806 -0.196728 -0.219582 0.308904 -0.282242 -0.329616 -0.119278 0.408283 -0.217856 0.239809 -0.405759 0.230543 -0.716821 0.356696 0.368924 0.192847 0.136135 -0.049506 0.010111 0.048000 -0.126933 -0.350537 -0.007681 0.122010 -0.079943 -0.433763 -0.100572 -0.343113 -0.130124 0.372683 0.190049 -0.019450 0.295934 -0.057295 0.150072 1.128072 -0.228119 0.762330 0.145789
450 0.636924 0.068833 -1.153268 0.104233 0.469015 0.033500 0.463830 0.178385 -0.600098 -1.028267 0.653566 0.190745 0.370106 0.259461 -0.111021 0.289493 -0.271824 -0.498403 -0.621776 -0.159514 -0.091120 0.446438 0.123515 -0.006760 -0.004197 0.394974 0.446242 -0.468283 -0.143010 -0.272015 0.421444 0.820436 -0.704512 0.184219 -0.374816 -0.093410 -0.406387 -0.177055 0.186926 0.068402 -0.315841 0.776249 0.624335 0.351042 -0.081038 -0.115297 -0.173901 -0.232925 0.138974 -0.108100 0.118397 0.175767 -0.324811 -0.000749 0.687737 0.427459 -0.103247 -0.104941 0.368226 0.614337 0.279563 0.356477 0.113827 0.541230
1666 -0.045977 0.800269 0.004329 0.070275 -0.069548 0.123471 0.714271 -0.686807 0.161138 -0.219546 -0.279862 0.176694 -0.409354 0.149984 0.279673 -0.661002 0.416349 -0.196715 -0.805407 -1.097932 -0.329791 -0.060717 0.498793 0.637850 0.199024 0.371159 0.850613 0.311091 0.681475 -0.021225 -0.130933 -0.362348 -1.083073 0.997487 -0.164441 -0.029239 -0.313463 0.291537 -0.366734 0.044822 0.734596 -0.070029 -0.268543 0.054468 -0.106851 0.134214 -0.303946 -0.104426 0.169935 -0.188366 -0.285157 -0.417064 -0.051608 0.246969 -0.574196 0.079150 0.298550 0.320250 0.096851 0.504538 -0.634371 -0.060848 0.472396 0.244224
755 -0.207744 -0.052229 -0.370961 -0.140294 0.210406 -0.019627 0.241080 -0.137385 -0.022325 -0.916426 0.892031 0.519888 -0.723913 0.959460 -0.549019 -0.080465 0.415798 -0.545381 -0.533771 0.164426 -0.199240 -0.169082 0.315371 1.035602 0.269861 -0.112249 -0.238418 0.306680 0.450770 0.507509 0.447312 -0.425223 -0.185350 0.188603 0.095725 -0.462274 -0.542504 -0.452731 -0.243741 0.006399 0.168246 -0.047435 -0.616421 0.526940 -0.196310 -0.645890 -0.440311 -0.172209 0.120651 0.112087 0.207330 -0.054982 -0.194872 -0.463004 -0.673567 -0.323760 -0.257433 0.760399 0.100930 0.366456 0.378807 0.221820 0.283223 0.617698
98 0.833929 0.621495 0.869980 0.172597 0.354806 0.326104 -0.368085 0.570387 -0.673085 0.937520 0.420046 0.539291 -0.056082 -0.430297 0.368077 0.004917 0.603803 -1.477527 -1.256613 -0.766936 -0.146121 0.179968 -0.314539 0.161914 1.097603 -0.418648 0.503694 -0.674036 0.595465 0.258246 -0.700048 -0.888000 0.137111 0.432775 -0.749364 0.456353 0.336725 0.062713 0.833796 -0.578940 0.294905 -0.028886 -0.554166 0.504987 0.066293 -0.114764 -0.101744 -0.805169 -0.130116 0.082605 0.253201 0.123980 -0.763004 -0.137137 0.965684 0.186268 -0.706046 -0.478561 -0.711762 0.166583 0.509030 0.251134 0.421467 0.258058
314 0.024923 -0.211362 -0.265486 -0.391884 0.776612 0.149710 0.644099 0.097089 0.276553 -0.366182 0.521527 0.539731 -0.512601 -0.184350 -0.808134 0.059841 0.420457 0.072876 -0.506209 -0.363733 -0.306580 -0.191813 0.400550 0.752616 0.357177 -0.300940 0.431447 0.251046 0.414985 -0.629282 -0.090393 -0.662546 0.396374 0.034366 0.499158 -0.224332 0.462545 -0.260518 -0.398314 -0.412743 -0.229842 0.698471 -0.042535 -0.159079 -0.032350 -0.512952 0.069844 -0.715469 -0.349855 0.193085 -0.282929 0.353830 -1.022315 -0.040428 -0.361141 0.310783 0.237400 0.028331 -0.215438 -0.538950 0.672246 -0.315944 0.375852 -0.132009
2829 -0.146613 0.365770 -0.584890 0.124596 0.011186 -0.959107 -0.045210 0.325758 -0.515943 -0.181304 0.361435 0.296899 -0.260467 1.159381 -0.327323 -0.773729 0.081075 0.107510 -0.256199 -0.248122 -0.056749 0.500213 0.236018 0.485316 0.127404 -0.580867 0.203346 -0.058494 0.244959 -0.424594 -0.370584 0.023192 0.244285 -0.511407 0.089931 -0.052143 -0.089780 -0.131267 -0.510922 0.189226 0.330358 -0.127382 0.048321 0.328431 -0.749380 0.211356 0.388067 -1.100594 -0.189963 -0.372059 0.332577 -0.126516 -0.504912 -0.570747 -0.507072 0.215012 -0.156248 -0.517289 0.642250 -0.074673 -0.241941 -0.429614 0.817165 -0.490804
622 0.538043 0.119816 -0.045067 0.013513 0.573480 0.280877 0.666545 0.443740 0.108135 0.087492 0.874216 0.630922 -0.506083 0.225615 -0.650677 0.315243 0.524903 0.097400 -0.521993 -0.468188 -0.056545 -0.092866 0.376293 0.794125 0.265091 -0.367757 0.351353 0.390733 0.206297 -0.291892 0.199204 -0.853827 0.258057 -0.001631 0.421944 -0.406805 0.257408 0.039585 -0.564039 -0.327364 0.083869 0.627726 -0.059559 0.097916 0.069302 -0.603554 0.151207 -0.605026 -0.287094 0.267244 -0.629139 0.595072 -0.990795 0.093655 -0.579848 0.479021 0.273160 -0.020259 -0.164875 -0.253683 0.608141 -0.906794 0.463293 -0.103165
2867 -0.743425 -0.068570 -0.472493 -0.596782 -0.485522 -0.202455 -0.075334 0.022730 -0.510443 0.211881 0.380936 -0.073962 -0.542129 0.799520 -0.078547 -0.539438 0.162210 -0.114417 -0.317275 -0.773023 -0.228015 0.492347 0.151176 1.042636 0.182286 -0.259987 -0.592742 0.502887 0.029402 0.111222 0.466527 0.051435 -0.662388 0.706201 -0.986793 -0.907634 0.278009 -0.210054 -0.445874 -0.433547 0.922108 -0.035638 0.697294 -0.536894 0.053267 0.253812 -0.174088 0.210079 -0.454263 0.065759 -0.083314 -0.029317 -0.819717 -0.148304 -0.248599 0.250299 -0.444368 -0.107209 0.043254 -0.423031 1.211520 -1.091825 -0.176654 0.680991
2342 0.548603 -0.460132 -0.136418 -0.880789 0.278778 -0.027307 0.236741 -0.107961 -0.860543 0.054675 -0.903128 0.514430 -0.207915 -0.071243 0.677266 0.409985 0.123521 0.449852 -0.335539 -0.029320 -0.795680 0.259939 -0.173829 -0.291131 1.296708 0.361879 -0.091544 -0.066593 0.673997 0.052054 0.409004 0.231380 0.117697 0.537082 -0.894744 0.117567 -0.616934 0.161238 0.149020 -0.179382 0.975024 0.139515 0.642903 -0.212221 -0.978880 -0.278892 -0.001117 -0.161651 -0.295242 -0.105402 -1.000100 0.031696 -0.502413 0.435312 0.825193 -0.798765 -0.999417 -0.493309 0.066380 -0.053676 0.328670 -0.802042 0.769219 0.077367
1251 -0.038528 0.308379 -0.416038 0.254184 0.495417 0.539891 0.371901 -0.299096 0.010691 -0.358079 0.605333 1.081738 -0.108218 0.508577 0.346153 -0.313727 -0.484881 -0.748434 -0.430268 -0.075153 -0.354234 -0.195650 0.044058 0.542246 0.598422 0.468223 0.009783 -0.269059 -0.412600 -0.497070 -0.281743 0.338784 -0.176381 0.271104 0.128677 -0.284738 -0.367229 -0.270581 -0.073000 0.048700 -0.230005 -0.180559 0.260760 -0.040055 -0.375240 -0.545893 0.046549 -0.186887 0.623277 -0.437258 -0.105803 -0.259495 -0.337798 0.177980 0.367082 -0.245621 0.103735 0.004978 0.378660 -0.386765 0.992493 -0.089731 0.020212 0.109868
1620 -0.760278 -0.007017 -0.170040 0.049405 0.744788 0.226758 -0.005227 0.521116 -0.491805 0.301477 0.057246 0.098224 0.228329 -0.047462 -0.191628 0.141825 0.868433 0.041795 -0.056655 0.497560 -0.350427 -1.207286 0.414288 0.127014 1.077405 0.251466 -0.789559 -1.035988 0.219869 -0.484114 -0.390432 -0.070904 -0.534936 0.464350 0.367708 -0.672140 -0.847174 0.200872 -0.113305 -0.467280 -0.047250 -0.524333 -0.124389 0.164456 -0.775127 0.400404 -0.590100 -0.315144 -0.650038 -0.295053 -0.082025 0.174989 0.156995 0.283137 -0.069543 0.068266 0.666321 -0.367466 0.625219 1.023559 -0.052691 0.814787 0.773330 0.079046
3193 -0.191253 0.751673 -0.799152 0.361818 -0.086066 0.190087 0.040335 0.831128 -0.161026 -0.621138 -0.304658 0.785009 0.103301 0.282751 -0.060697 -0.027560 -0.310888 0.271278 -0.964482 -0.476668 0.994720 0.157575 0.370238 0.641086 0.857483 -0.560654 -0.421087 0.488419 0.071680 -0.077193 0.494384 -0.155666 -0.854980 -0.291185 -0.395705 -0.193664 -0.137914 0.296823 0.204475 -0.372259 -0.458053 0.251942 -0.217461 -0.393573 0.234732 0.398352 -0.948104 0.470956 -0.415260 0.435773 0.369366 0.256142 -0.329125 -1.034024 0.662340 -0.124461 0.135512 0.238112 0.966103 0.468004 0.403578 -0.029351 0.121912 -0.943006
251 -0.274432 0.253353 -0.499837 0.215327 0.017825 0.022184 -0.090176 0.320082 0.392264 0.717259 0.307697 0.444281 0.206939 0.681854 0.174128 -0.197531 1.379977 0.223190 -0.419843 -0.323807 0.250502 0.032339 0.242729 -0.129333 -0.154913 0.041734 0.123228 0.289671 -0.122530 -0.197799 0.445712 -0.079226 -1.030072 0.369023 -0.233637 -0.014239 -0.965885 0.089512 0.084140 -0.301074 -0.518888 -1.263290 -0.035427 1.072136 -1.136553 -0.484756 0.401216 0.379373 -0.847624 -0.188405 -0.527441 -0.063352 -1.206957 0.152550 0.065472 -0.174876 0.212029 -0.486681 0.907147 0.665585 -0.363801 -0.000522 0.742857 -0.340632
2622 -0.253345 0.436826 -0.499742 0.361776 0.234761 0.104312 0.061427 -0.218424 -0.369265 -0.463222 0.417506 0.805903 0.534608 0.293833 0.344854 -0.440825 -0.398999 -0.397104 -0.589787 0.044147 -0.279246 -0.455168 -0.027483 0.469034 0.804924 0.366240 0.086274 -0.302725 -0.070289 -0.019898 -0.120720 0.027739 -0.088989 0.380781 0.178455 -0.391789 -0.563972 -0.585173 0.480368 0.658005 0.134280 0.038109 -0.032719 0.146630 -0.497763 -0.397555 -0.042831 -0.020224 0.156890 -0.037680 0.078333 -0.004589 -0.740719 0.265742 -0.285254 -0.478707 0.460453 0.220489 0.366285 -0.780417 1.072231 -0.145053 -0.052786 -0.144383
1202 -0.027405 0.744864 -0.224484 -0.552790 0.271136 -0.343900 0.734812 0.612609 -0.013600 0.146028 0.710274 -0.187607 0.161806 -0.480105 0.020510 0.829578 0.063909 -0.768343 -0.659876 0.259386 1.004263 -0.063767 -0.121035 0.043999 0.209467 0.194245 0.113564 1.535929 0.340784 0.009088 -0.261610 -0.257817 -0.614388 0.256316 -0.013217 0.136017 -0.363991 0.036621 0.675673 0.255000 1.147220 0.364774 0.466820 0.422699 -0.569605 0.025225 0.657030 -0.111168 -0.467207 0.278612 -0.202613 -0.932517 -0.922783 -0.777320 0.610891 0.084084 -0.306012 -0.648567 0.527851 -0.110564 0.424948 -0.277357 -0.133652 -0.349580
1587 0.937295 0.469709 -0.121572 -0.401423 0.906851 0.032100 -0.013087 -0.193103 -0.343513 -0.033085 0.833040 0.170289 -0.323230 -0.546511 -0.324010 0.085719 -0.062115 -0.041746 -1.056804 0.142537 -0.307479 0.619412 0.248257 0.762511 0.562488 0.171545 0.330072 0.057164 0.412357 -0.094747 0.261417 0.220370 -1.075572 0.360464 0.288224 0.449705 -0.575098 -0.335390 -0.611634 -0.024755 -0.448332 -0.433183 0.415834 0.068863 0.265231 -0.566868 -0.075083 0.148187 -0.327093 0.280625 0.308597 0.572898 0.076460 -0.565453 1.126632 -0.300752 0.299768 0.303524 0.571201 0.473690 0.684980 -0.288885 -0.606982 -0.393973
2925 0.340004 0.447394 -0.052864 0.369356 0.103204 -0.482522 0.276241 0.171074 -0.500141 0.335822 0.509975 0.181348 -0.420628 0.624632 0.035244 -1.023851 0.287040 -0.109661 0.384217 -0.230028 0.437472 -0.118977 0.749119 0.580961 0.077348 -0.347297 0.392712 -0.075165 0.698938 -0.006510 -0.523953 -0.123801 -0.315806 -0.552946 0.500267 -0.247505 -0.471600 -0.922095 -0.352908 0.173281 0.548561 0.268753 -0.274145 0.202647 -0.068015 0.650809 -0.277017 -1.135569 -0.256365 -0.064339 -0.159952 -0.033403 -0.222212 -0.217312 -0.214834 0.407252 -0.470560 0.085769 0.452811 0.071961 0.051135 -0.403843 0.366975 -0.541966
1429 -0.200971 1.199977 -0.330196 0.670282 0.396213 0.532796 0.457761 -0.121857 -0.707379 0.029082 0.650412 -0.065008 -0.140508 -0.152288 0.629214 0.163393 -0.002198 -0.555398 -0.806878 0.200200 -0.418462 0.194092 0.104425 0.310020 0.337885 0.567292 0.734180 0.632599 0.326501 -0.118261 -0.164616 -0.224567 -0.677283 0.600941 -0.287416 0.438689 -0.292568 -0.441635 0.146568 -0.235582 0.073817 -0.042664 -0.226414 -0.130063 -0.232878 -0.113783 -0.524781 -0.227666 0.395493 0.280287 -0.016257 0.654520 -0.622956 -0.057717 -0.194467 -0.243909 -0.034259 0.239693 0.128315 0.096901 0.463086 -0.301998 -0.518279 -0.458359
2597 0.957258 -0.041015 -0.048280 -0.092855 1.155442 0.048896 0.771775 0.411849 0.306454 -0.278550 0.407884 0.725521 -0.617933 0.098711 -1.139226 0.243376 0.883348 0.287101 -0.107679 -0.606862 -0.241426 -0.367831 0.448776 0.818205 0.450743 -0.203875 0.653492 0.252404 0.334495 -0.212628 0.146645 -1.209550 0.098902 -0.004916 0.215728 -0.261429 0.286172 0.062002 -0.921062 -0.475862 -0.394006 0.418562 -0.096883 0.092645 0.082878 -0.660659 0.018210 -0.507590 0.256952 0.229605 -0.563190 0.204341 -1.503371 -0.046505 -0.283022 0.082545 0.618151 -0.262419 -0.237983 -0.715422 0.923894 -0.311183 0.444701 -0.225284
965 0.342551 0.122899 -0.477423 0.301569 0.224840 -0.733770 0.162848 0.203779 -0.172892 0.034879 0.785609 0.791242 -0.131609 0.676733 0.270204 -0.440918 -0.222753 0.017489 -0.347934 -0.186329 -0.413926 -0.389145 0.566278 -0.042490 -0.297864 -0.202452 0.228511 0.084572 0.334565 -0.009347 -0.234385 -0.172830 -0.016745 -0.913450 0.363908 -0.043739 -0.506580 -0.444833 -0.215223 0.007103 0.421660 -0.054908 -0.212670 0.109251 0.020550 -0.464505 0.408088 -0.978649 0.027436 -0.345931 -0.219461 0.092737 -0.935081 -0.085222 -0.129678 0.482895 0.019164 -0.183089 0.396501 -0.052245 0.502768 -0.682674 0.857201 -0.524634
886 -0.218254 -0.252546 -0.772657 -0.805065 0.611406 -0.829123 -0.335025 -0.093127 0.329420 -1.072469 0.330778 0.137241 -0.333497 0.410427 -0.499088 -0.506666 0.673455 -0.149735 -0.294526 -0.201510 -0.083270 0.280907 0.373744 0.879781 0.396821 0.175260 0.243185 -0.009394 0.349128 -0.459070 0.108555 -0.053731 -0.392514 -0.151444 0.301908 -0.450124 1.447145 0.048263 -0.003894 -0.612016 -0.287621 0.240608 0.045442 0.057802 -0.728999 -0.041737 0.307415 -0.804033 -0.585820 0.245235 -0.800004 -0.000398 -0.470213 0.311062 0.084911 0.337206 0.377699 -0.086108 -0.056800 -0.408598 -0.654222 0.085972 0.640766 0.214554
1583 0.394078 0.500548 -0.177847 0.803384 0.680337 0.689281 0.637208 0.453923 0.442308 -0.105123 -0.062340 0.848770 -1.005657 0.150471 0.532132 0.156461 -0.672645 -0.376603 -0.436806 0.060818 0.167031 -0.314171 0.171934 0.543667 0.788755 0.543811 -0.446928 0.206224 -0.229129 -0.160687 -0.112420 0.718775 -0.470934 0.210043 -0.638879 0.046829 0.145154 -0.442670 -0.380361 -0.317814 -0.585315 -0.397389 0.214303 0.402434 -0.421023 -0.223043 -0.407283 -0.628192 0.411321 -0.505263 -0.323174 -0.131248 -0.755991 -0.076387 0.149226 -0.021731 -0.820272 0.171714 0.573277 -0.447463 1.004489 -0.007862 -0.250625 0.651585
1633 -0.104729 0.115374 -0.099947 -0.051883 0.494766 -0.287758 0.037798 0.054939 -0.462241 -0.338498 -0.065438 0.362157 0.619782 -0.063924 0.596123 -0.245433 -0.617118 0.401016 -0.443722 0.107745 -0.254475 -0.789859 -0.159866 0.868717 0.850369 -0.337838 0.198841 0.311061 0.301610 -0.357608 0.211441 0.378310 0.123852 0.551879 -0.241338 -0.204606 -0.358723 -1.025762 1.004308 0.868776 0.377464 -0.448156 -0.027786 0.428208 -0.783628 0.438561 -0.461562 -0.730992 0.052312 0.017905 0.190461 -0.038301 -0.728484 0.992551 0.241870 -0.309360 0.104684 0.106297 0.153932 -0.851316 0.176291 -0.257307 0.323203 0.358678
2774 -0.339120 0.281228 -0.497190 0.273770 -0.190817 -0.380705 -0.441206 0.012613 -0.381783 0.414925 0.668893 0.287973 -0.596776 1.360099 0.113820 0.133295 0.219714 0.811244 0.037790 0.328393 -0.487465 0.107795 0.440460 0.058866 0.386656 -0.517569 0.666170 0.880547 0.766710 0.320862 0.362454 0.432954 -0.228759 -0.205088 0.249819 -0.771514 -0.598956 -0.004141 -0.786617 -0.171170 0.257936 -0.081389 0.211162 0.093780 -0.422573 -0.069774 -0.473776 -1.457028 0.038081 -0.451423 -0.228617 -0.061060 0.273487 -0.942359 -0.084146 1.007754 0.082715 0.127840 0.332113 -0.519263 -0.011390 0.865645 0.761095 -0.663863
2633 0.156732 0.718318 -0.638599 0.510604 0.518724 -0.045199 0.735489 0.403282 -0.251821 0.074253 0.541823 0.363203 0.128803 0.072755 0.090018 -0.073029 -0.005920 -0.291368 -0.228293 0.224591 0.186306 0.067893 0.231086 0.381070 0.402666 0.826963 0.045394 0.824968 0.016277 0.039101 -0.428932 -0.121001 -0.797706 0.120665 0.140888 -0.181963 -0.696625 0.136325 1.282565 0.522089 0.535998 0.940601 0.182794 -0.181036 0.117582 -0.439936 -0.254786 -0.245828 -0.203326 0.269677 0.399275 -0.942924 -0.301481 0.284691 -0.106631 -0.275944 -0.131584 0.319182 0.123092 -0.190271 0.757622 -0.677507 0.598386 0.066049
3046 0.681901 0.009553 -0.366990 -0.135213 0.203741 -0.012293 0.126106 -0.133455 0.024701 0.225470 -0.076864 -0.109048 0.339334 0.010444 0.359848 0.316566 0.092396 -0.682845 -0.657154 -0.683908 -0.098556 -0.163872 0.086363 -0.485019 0.989737 -0.553023 -0.286528 0.369085 0.148297 -0.478482 -0.561759 0.040198 -0.313341 -0.646511 0.283717 -0.891305 -0.031403 -0.778403 0.849022 -0.914468 0.344469 -0.638023 0.400457 -0.858558 -1.545255 -0.192719 -0.050497 0.525817 -0.628445 0.868847 -0.328565 -0.001302 -0.364350 -0.571566 -0.367307 0.524991 -0.901649 0.105226 0.027615 1.254890 0.986167 0.587806 0.442353 -0.056185
561 0.175544 0.944072 -0.366972 -0.506773 -1.045903 0.986615 0.551397 -0.215900 0.158201 0.708538 0.971133 0.427010 0.663795 -0.254794 0.326547 -0.232735 0.511058 -0.356148 0.186060 -0.328405 -0.111711 0.232916 0.836178 0.188645 0.605304 0.764547 0.528518 0.133753 0.448284 0.418662 -0.172076 0.102148 0.044356 0.104342 -0.623175 -0.345312 0.508999 0.001301 -0.184751 0.445613 0.073162 0.021128 1.007716 -0.054154 0.050314 -0.153682 -0.211356 -0.904175 -0.705891 -0.614508 -0.312253 0.148048 -0.071792 0.009505 0.174267 0.355839 0.484583 0.300063 -0.001109 0.430088 0.676380 0.221928 0.145420 -0.366127
709 0.361120 0.414544 0.214023 -0.285185 0.056460 0.986139 0.144900 1.029478 0.108861 0.552366 -0.027094 0.701481 0.290315 -0.461845 -0.608585 0.237744 0.269182 -0.304192 -0.834784 -0.245707 0.391814 -0.698259 0.486768 0.082340 0.956577 -0.034499 -0.462476 -0.598115 1.207435 0.095904 0.518060 -0.485913 0.762688 0.589933 -0.942460 -0.009616 0.555360 -0.203867 0.319600 0.086945 -0.013028 -0.189040 0.056434 -0.427055 -0.181519 0.116739 -0.442353 -0.453336 -0.021518 0.903499 0.828803 -0.552926 -0.282926 -0.167983 1.018655 -0.081436 0.369261 0.065043 0.386378 0.508193 -0.182109 0.294648 -0.044275 0.690487
1822 0.262078 0.632506 -0.644488 -0.160813 0.504201 -0.626147 -0.993058 0.133238 -0.166803 0.550137 0.117505 0.706164 -0.630825 0.071733 -0.805327 0.693736 0.520082 -0.638119 0.223351 1.082779 0.399112 0.985553 0.118251 0.537351 0.499491 -0.231958 0.039571 0.404575 0.439374 0.182206 0.633273 -0.213316 0.229633 0.089276 -0.017468 0.398045 0.002811 -1.133892 0.604865 0.418925 0.166143 -1.301666 -0.030981 -0.463833 -0.015507 0.322042 -0.735529 -1.590529 -0.255746 0.129090 -0.057380 -0.847246 0.533997 -0.119050 1.058627 0.464764 -0.504421 0.097869 1.084928 0.479558 0.935890 0.603265 -0.053284 -0.512427
245 -0.219349 -0.997848 -0.204294 0.252719 0.674071 -1.202877 -0.151669 -0.370749 -0.083708 -0.102220 -0.004109 0.458409 -0.396153 -0.056332 0.393672 -0.137164 -0.128253 0.271130 -0.789739 -0.334061 0.338795 0.361311 0.532079 0.342819 0.654818 -0.670512 -0.013381 -0.126553 0.095152 -0.447358 0.522485 0.543851 -0.030955 1.077677 0.018090 -1.046882 0.067571 0.125761 0.812340 0.413839 -0.334112 0.327606 0.212261 0.247734 -0.105083 0.458612 -0.096965 -1.703774 0.587547 1.167569 -0.381919 -0.352227 -0.406920 0.604868 0.960009 -0.893926 -0.069922 0.520833 -0.028050 -0.176935 0.625427 -0.335388 0.476322 -0.242142
2980 -0.142061 -0.927585 0.540379 0.206361 0.144819 0.051225 -0.326008 0.051299 0.260919 0.128724 1.039498 0.492129 0.248147 0.218253 0.353843 0.519009 0.144092 -0.789188 -0.135774 -0.162617 0.059016 -0.611721 0.398670 0.104186 0.509448 0.771432 0.323219 0.045036 0.990075 -0.478470 -0.960636 0.022994 0.079915 0.139355 -0.294150 -0.248597 -0.744536 -0.112815 -0.258571 -0.125126 0.305989 -0.209305 0.901089 1.182714 -0.212456 -0.379168 -0.476223 -1.597504 0.035731 -0.086257 -1.015829 -0.928523 -0.105078 -0.780023 0.629387 -0.547443 -0.246962 0.517776 0.369771 0.822222 -0.714825 -0.362032 1.019967 0.323868
2418 0.558035 0.105169 -0.004788 0.320351 0.708076 0.172814 0.892497 0.467111 0.149036 0.107733 0.710285 0.936565 -0.565754 0.312028 -0.582278 0.230434 0.070290 0.316586 -0.136230 -0.030010 -0.123012 -0.389104 0.233125 0.556209 0.358612 -0.197963 0.419168 0.181988 0.103348 -0.216768 0.602169 -0.910675 0.361768 0.098043 -0.032407 -0.268536 0.292077 0.166948 -0.408977 -0.081748 0.177012 0.176092 -0.129216 -0.304819 0.059306 -0.506854 0.537618 -0.739873 0.023189 0.365376 -0.928797 0.251528 -0.877070 0.114343 -0.310939 0.440540 0.521134 0.195895 -0.162101 -0.235037 1.413790 -0.754662 0.669063 -0.034434
541 -0.447785 0.243557 -0.057788 0.027505 -0.047345 -0.235783 -0.148220 0.813924 0.166786 -0.212735 0.332629 0.620780 0.426122 0.714450 -0.058443 0.559147 1.049933 -0.091833 -0.189940 -0.036759 0.042922 -0.729736 0.310320 0.290120 0.613534 -0.515578 0.301797 0.278576 0.905438 -0.058880 0.314748 0.761450 -0.230094 1.012144 -0.224814 0.084440 -0.781037 1.118644 -0.176638 -0.391774 -0.381968 -0.293898 0.539059 0.527419 -1.132870 0.393309 -0.055187 0.338652 -0.302427 -0.137193 0.179331 0.197319 -0.871281 -0.297801 -0.186626 1.036500 -0.030462 -0.511317 1.314068 -0.674205 0.085880 0.790830 1.275133 -0.372633
78 0.057775 1.111291 -0.201595 -0.389083 0.077975 -0.592749 0.131992 0.624136 0.417232 -0.667652 -0.085891 0.069616 -0.272721 0.310060 -0.319136 -0.430447 0.223473 0.482639 -0.434017 0.574079 -0.987579 0.043251 0.238924 -0.241849 0.943364 0.179945 -0.008594 -0.226905 0.483827 -0.003938 0.040610 -0.074046 -0.783375 0.227444 -0.413169 0.324703 0.216880 -0.106723 0.345097 0.475001 0.914095 -0.454071 -0.528191 0.496905 -0.219171 0.036045 -0.905101 -0.288316 -0.168786 1.348494 -0.933168 -0.514862 0.072575 0.628661 -0.077568 0.044416 0.777018 0.372425 0.548129 -0.732572 -0.606230 -0.118411 0.875159 0.463112
1582 0.679664 -0.185794 -0.349902 -0.915454 0.486458 0.553195 0.279905 1.159608 0.238972 -0.421623 0.072982 -0.089880 0.099190 0.671832 -0.254476 0.502842 0.440875 -0.727611 -0.046106 0.315958 -0.768463 0.022406 -0.335170 0.870996 0.658639 -0.488978 0.012466 -0.189256 -0.251324 -0.469182 -0.449439 1.332379 -0.497312 0.281029 -1.072337 -0.338396 0.541691 1.156927 -0.368968 0.118702 0.357729 -0.344960 0.304722 -0.378819 0.121616 -0.410990 -0.354341 -0.729537 -0.839324 1.125678 -0.653903 0.799937 -0.296852 -0.617605 1.267294 -0.047925 -0.533249 -0.063451 -0.083914 0.316607 0.560145 -0.718800 0.347689 -0.514598
1001 0.518151 1.000990 0.509095 -0.171792 0.293523 0.217322 -0.049660 0.434147 -0.639425 -0.652790 -0.404223 -0.355859 1.205884 0.494838 -0.278471 -0.230158 0.607405 0.176083 -1.006910 0.150604 -0.283273 0.038905 -0.028496 0.156667 1.128171 0.129650 1.002409 1.372329 0.063800 0.394509 0.171647 -0.578883 0.795491 0.153513 1.142062 0.044090 0.099581 0.055128 -0.895832 0.009365 0.044908 -0.798654 -0.248876 0.353532 -0.682452 0.760689 -0.502663 -0.542631 -1.284249 -0.753983 -0.493841 0.691288 -0.736373 -0.253130 0.987205 -0.346204 -0.383691 -0.026000 -0.207016 0.704677 0.424670 -0.152697 0.204441 0.556832
265 0.094562 0.118135 0.554266 0.180420 0.790904 -0.703325 -0.372062 -0.098544 -0.350763 0.034297 -0.332339 0.400954 -0.479633 0.607467 0.561077 -0.063519 0.055379 -0.088437 -0.468817 -0.056958 0.000361 0.540806 1.464344 0.150357 0.279811 -0.801036 0.435210 0.062046 -0.063440 0.342134 0.798036 0.137128 -0.081521 0.406591 0.984004 -0.499895 -0.049203 0.655316 0.042372 0.180277 0.162075 0.439787 -0.049664 -0.055929 0.054804 0.642533 -0.016563 -1.021409 0.104835 1.307554 0.208198 -0.580676 -0.581054 0.320160 0.831366 -0.394983 -0.173684 -0.431620 0.019522 -0.148748 1.067602 -0.880522 0.054700 -0.244358
616 0.177815 0.374957 -0.203735 -0.211295 0.083824 0.036000 0.432870 0.467096 0.227920 -0.140248 0.761708 0.855711 -0.092523 0.220621 -0.784926 -0.108578 0.755269 -0.246107 -0.078077 -0.656756 -0.102520 -0.418940 0.511027 0.550585 -0.057849 -0.067081 0.131995 -0.224134 0.378985 -0.494750 -0.050620 -0.260318 0.150598 -0.261740 0.347033 -0.354661 0.297771 -0.256924 -0.255065 0.129154 -0.027881 0.319192 -0.438778 0.201798 0.348991 -0.901188 0.246370 -1.220941 -0.046255 0.192288 -0.135968 0.393884 -0.579208 0.019902 -0.178710 0.575033 0.036908 0.189826 0.116159 -0.364461 0.881877 -0.627600 0.414083 0.041491
690 1.008978 0.576468 -1.082193 -1.382043 0.425471 -0.793177 -0.725010 0.322825 0.713902 -0.953705 0.962301 -1.121942 0.485370 -0.121679 -0.050789 0.338037 0.519103 -0.087126 -0.881979 1.090790 0.384394 0.288496 -0.382215 -0.318041 0.960382 0.371409 1.025381 0.277569 1.169686 0.045999 0.550282 0.180869 0.451811 1.068589 -0.536450 -0.873324 -0.430520 -1.349566 -0.865405 0.549840 0.872847 0.726734 -0.174668 -0.625910 -0.270006 0.445635 -0.143463 0.076240 -0.091028 0.420630 -0.800269 -1.388230 -1.177144 -1.254754 -0.069436 1.070015 0.531520 -0.264389 -0.664472 -0.101341 -0.076985 0.871222 0.110663 -0.089986
1938 0.181261 0.141388 -1.394230 0.184319 -0.305357 0.020832 0.297278 0.564447 0.315026 -0.370682 -0.149530 0.218361 0.565738 1.093104 0.328021 0.141518 0.340720 0.380906 -0.467214 -0.579778 0.033352 0.676827 0.447901 0.523682 0.129099 0.662945 -0.263988 0.537549 0.732153 -0.624582 0.256382 0.593240 0.470108 -0.100158 -0.070486 -1.005266 0.228308 -0.236286 0.146261 0.030944 0.540812 -0.343984 -0.273431 0.008113 0.636937 -0.215364 -1.264554 0.666048 0.014602 0.334299 0.116696 -0.032781 -0.598803 -0.441981 -0.149973 -0.011841 0.665484 -0.279222 0.467430 -0.035980 -0.090080 0.051340 0.408331 -0.675530
3025 -0.050757 1.504837 -0.787677 -0.172756 -0.672882 1.229322 0.043556 -0.711832 -0.276574 0.555052 0.915001 0.826786 -0.146539 0.070859 1.002557 -0.562235 0.169124 -0.236634 -0.121439 0.042704 -0.058936 0.619167 0.984356 0.519578 0.813368 0.708277 0.425157 -0.442507 0.465080 0.401629 0.195357 0.464703 0.252677 0.131778 -0.883866 -0.315725 0.643065 0.379005 -0.181610 0.182932 -0.980036 0.361951 1.123119 -0.107690 0.210731 0.011720 -0.624254 -0.735531 -1.207379 -0.781374 0.185812 -0.283313 -0.465974 -0.404785 0.002283 0.257828 -0.023393 0.301768 -0.360649 0.344330 0.545164 0.579296 -0.142939 -0.145335
1097 0.447919 1.001535 -0.536569 0.883014 0.134512 -0.160822 0.378735 -0.201042 -0.289681 -0.311451 0.458126 0.193788 -0.119869 -0.579347 0.447057 -0.227206 0.210602 -1.178041 -0.760059 0.560170 -0.663580 0.343597 -0.114336 0.536697 0.223578 0.320771 0.113478 0.091632 0.441413 -0.475075 0.397299 -0.363594 -0.180020 0.847223 0.107338 0.512736 -0.212276 -0.390629 -0.108878 -0.580690 -0.033953 -0.141693 0.352429 0.293603 -0.540222 0.071168 -0.415668 0.083550 0.316577 0.316536 -0.380456 0.310156 -0.458327 -0.366684 0.073563 0.135000 -0.271701 0.387611 -0.062717 -0.147113 0.119217 -0.335452 0.349590 0.212907
109 0.364499 0.403975 0.436881 -0.052239 0.425477 -0.427232 -0.205075 -0.164845 -0.364328 -0.120312 -0.417539 0.123355 -0.211886 0.284814 0.187451 0.320738 1.044741 -0.365190 -0.350655 -0.253306 -0.363771 0.978735 1.460023 0.653062 0.167504 -0.041768 -0.123140 -0.029457 -0.564646 0.005909 0.581890 0.152483 -0.350658 0.111692 0.347966 -0.997196 -0.353380 0.725106 -0.242766 -0.205934 0.067103 0.042458 0.172779 -0.424641 -0.150132 0.781985 0.263166 -0.964038 0.039617 0.668210 -0.213046 -0.370077 -0.342133 -0.302045 0.030293 -0.444509 -0.087259 -0.747652 -0.408470 -0.824126 0.612843 -0.382479 -0.080496 0.077495
1247 0.445240 0.528363 -0.121914 -0.212387 -0.186868 0.344775 -0.125847 0.011273 0.209506 0.055290 0.188277 -0.258778 0.348640 0.384994 -1.166215 0.995302 -1.019225 0.445231 -1.034742 -0.044171 -0.187429 -0.691827 0.811988 0.840246 -0.060774 -0.476159 0.758711 -0.675716 0.204344 -0.512967 -0.145638 0.021366 0.244884 0.895067 -0.340058 -0.400893 0.071819 -1.307911 0.719338 -0.483480 0.363731 -0.071446 0.214861 -0.242928 0.256775 -0.339068 0.132142 -0.421714 -0.396488 0.395651 -0.048315 -0.294607 -0.912251 -0.687836 -0.205306 0.142690 0.285507 0.551118 0.620575 0.268495 -0.160003 -0.358605 0.716643 -0.235528
1992 0.378392 0.147971 0.631444 -0.328131 0.240921 0.305940 0.588602 0.036788 -0.558194 -0.331921 0.111802 -0.593635 0.621165 -0.440975 -0.198331 0.056732 0.335930 0.958540 -0.022453 -0.814628 0.258651 -0.737379 0.498390 0.526567 0.922751 0.420677 0.210667 1.492316 -0.167927 0.716237 0.798939 0.068698 -0.396659 -0.183427 0.384413 -0.275274 0.187430 0.380220 0.445739 -1.078395 1.088981 -0.845033 0.564899 0.081312 -1.010906 0.724873 -0.433266 -0.400651 -0.073419 -1.088582 -0.158717 -0.409819 -0.528838 0.324804 0.153204 0.418520 0.631360 -0.374295 0.380775 0.605438 0.760544 0.162302 0.590454 -0.431688
624 0.217220 -0.313619 -0.587653 -0.419468 0.327363 0.221235 0.176033 0.290474 -0.405353 -0.224290 1.004065 -0.505709 0.215547 0.062378 0.118303 -0.244938 0.856363 -0.644054 -0.686725 0.427087 0.055130 -0.767467 0.486220 -0.025690 0.539551 0.022011 -0.248042 -0.372067 -1.239005 -0.945632 0.361503 0.447546 0.045518 0.668236 -0.493248 -0.294653 -0.041939 -0.388754 0.025985 -0.307426 0.571145 -0.363209 0.748186 -0.533617 -0.017523 0.079100 -0.473034 -1.211478 -0.971834 0.604906 -0.532383 -0.574867 -0.040709 0.131527 -0.741269 -0.210474 -0.286266 -0.347388 0.212200 0.378332 -0.689576 -0.294734 -0.129226 0.540306
2264 0.208744 0.961606 -0.561173 -0.408547 -0.067248 0.459800 -0.227386 0.393107 -0.096109 0.336561 0.094482 0.036277 -0.961096 0.072713 0.408076 -0.185990 0.430050 -1.235978 0.218737 -0.086812 -0.506996 -0.097048 0.537744 -0.273303 0.203825 -0.354648 -0.506267 -0.568326 -0.267205 -0.912572 0.534795 0.100566 -0.816174 0.015452 -0.692393 0.018965 0.918883 -0.137052 -0.524676 -0.621758 -0.143156 -0.411952 0.985057 0.289944 -0.621750 0.751506 0.294587 -0.530108 0.226554 -0.235328 -0.515536 -0.868501 -1.121922 0.591041 0.245226 -1.114722 -0.696033 0.494630 0.451105 0.882868 -0.038315 -0.716999 0.897039 -0.511406
609 -0.416924 -0.370907 -0.283923 -0.527338 0.288742 0.116214 -0.689249 0.770970 0.081751 0.569446 0.415655 -0.219534 -0.092824 0.494190 0.088321 -0.201171 0.030515 0.062789 0.423492 0.014468 -0.359971 0.097190 1.194216 0.305428 0.228169 0.256251 -0.558165 0.798893 1.549074 -0.188079 0.188711 0.209108 -0.285172 0.171820 0.019559 0.178972 -0.818919 -0.195263 0.364266 0.598823 0.135215 -0.392117 0.503464 1.026657 0.308001 0.575291 -0.249345 -0.405440 -0.198870 0.658972 0.246032 0.008846 -1.498544 0.645576 -0.312812 0.085078 0.484248 0.574713 -0.144262 0.088508 0.672853 -0.074427 -0.058124 0.046708
303 -0.296168 0.100895 0.119956 -1.346917 0.192014 0.157627 0.223866 0.273361 0.441739 -0.636477 0.310893 0.352343 -0.882890 0.159081 -0.932200 -0.168791 0.573890 0.402934 0.009945 -0.168488 0.017333 -0.148829 0.799736 1.176590 0.294687 -0.479068 -0.367954 0.201331 -0.122849 0.340527 -0.322202 0.084696 -0.498426 0.521591 0.916010 -0.469703 -0.308547 -0.428592 0.504615 0.064612 0.372613 0.227727 -0.049759 0.438500 -0.123949 -1.008632 -0.072860 -0.833430 0.278292 -0.207108 0.364791 -0.330944 -0.579299 -0.194118 -0.082371 0.621996 0.269115 0.295365 0.469307 0.540198 0.581370 -0.173864 0.698166 0.774517
1324 0.468293 0.206758 0.044496 -1.590124 1.105860 -0.410685 -0.220256 0.021475 -0.440920 -0.226723 0.176806 -0.452124 -0.219568 -0.310546 0.279085 -0.630186 -0.596936 -0.725607 -0.365636 0.346699 -0.955171 0.706294 0.075032 0.774715 0.853221 -0.575345 -0.090271 0.621759 0.737008 -0.545914 -0.487079 -0.578804 -1.373971 0.000001 -0.290235 -0.360970 -0.271736 0.245569 -0.797321 0.276202 0.036433 -0.408105 1.713727 0.224511 0.212356 -0.417703 -0.359246 0.271690 -0.221076 0.480959 0.329818 0.337620 0.421392 -0.532137 0.652838 -0.230002 0.104951 -0.278486 0.336569 0.950691 0.315733 -0.124910 0.565109 -0.701910
637 0.212735 0.581756 -0.496016 -0.605446 -0.307996 -0.220436 -0.645272 -0.490265 0.904326 0.223739 -0.982490 -0.772404 0.282586 0.626342 0.240364 0.164503 -0.627727 -0.122452 -0.557624 -0.028027 -0.564479 0.074005 0.322041 0.019389 0.578511 -0.040957 0.423795 0.248877 0.378305 0.534825 0.316158 0.473814 -0.726610 -0.685620 -0.061023 0.353135 -0.747073 -0.298810 -1.005479 0.181225 0.629463 0.453624 1.108431 0.290254 0.044573 -0.895340 -0.465115 -1.431927 0.381289 0.415174 -0.899648 -0.273564 0.426759 -0.175282 0.259895 -0.864784 -0.109035 -1.260266 0.889521 0.738158 0.779210 0.037949 0.703795 0.576463
351 0.201567 0.484375 0.339566 -0.315274 0.192794 0.503375 -0.405415 0.185735 -0.857626 -0.367336 0.384331 -0.678672 0.181463 -0.038644 -0.353026 0.312966 -0.336407 -1.689071 -0.380771 0.332570 -0.283088 0.285308 0.807734 0.496555 1.033854 -0.104827 -0.901523 0.042229 0.171916 -1.036014 0.817521 0.421051 -0.292425 -0.548386 -1.074199 -0.208751 0.344309 -0.767624 -0.326322 -0.484902 0.675921 0.132522 0.577310 0.495932 -0.781532 -0.098849 0.213562 -0.714367 0.462756 -0.515369 -0.409183 0.035913 -0.451188 0.118844 0.131561 0.204456 0.457807 1.278005 0.397926 0.647628 0.196761 0.081579 0.105073 -0.151108
1112 0.330083 0.709887 -0.051535 0.471120 0.280404 0.242119 0.195483 -0.035870 -0.679487 -0.559746 0.562799 0.034658 -0.249740 0.135831 -0.310069 0.249302 -0.549193 -1.160683 -0.167176 -0.110355 -0.272567 0.417304 0.961785 0.369295 0.111268 0.274532 -0.394626 -0.136985 -0.038232 -0.503106 0.412641 0.397782 -0.508190 -0.185084 -0.586728 0.342999 -0.077456 -0.802529 -0.131487 -0.754654 0.126172 -0.189081 0.055860 0.743041 -0.588028 0.127549 -0.220326 -0.134080 0.334382 0.342083 -0.237898 -0.032330 -0.076741 -0.275284 -0.524230 0.255582 -0.186354 0.236194 0.028929 0.505599 0.435040 0.265451 -0.092269 0.587140
2196 0.808363 0.173917 -0.348505 0.158758 -0.134722 0.251776 0.427385 0.058067 -0.527745 -1.052775 0.912886 0.605647 0.196966 0.521263 -0.046256 -0.413918 0.333354 -0.524788 -1.109751 0.135527 -0.123612 -0.301929 -0.178145 -0.011803 -0.148908 -0.000141 0.260873 -0.079220 0.204034 -0.288915 -0.588005 0.803015 -0.362745 -0.175185 -0.064636 -0.179422 -0.572964 -0.186201 0.812060 -0.032396 0.412656 0.917598 0.530479 0.176800 0.398859 -0.583716 -0.757668 -0.109498 0.160275 -0.164900 -0.367655 -0.211672 -0.175026 -0.086714 0.640548 0.215529 0.018063 0.303394 0.347011 0.734679 0.546162 -0.136077 0.059812 0.634291
336 0.555773 0.605206 -0.489869 -0.472984 -0.905177 0.738921 0.104926 -0.516164 -0.080087 0.549991 0.746627 0.886315 0.317294 0.114069 0.738485 -0.407292 0.383571 -0.007136 0.557946 -0.544879 -0.071642 0.494645 0.104781 0.070499 0.731260 1.034582 0.267029 -0.120677 0.955791 -0.117320 -0.136055 -0.282605 0.027405 0.400203 -0.487500 -0.159834 0.635707 0.139004 0.431070 0.104333 -0.386466 0.094263 1.097799 -0.186973 -0.202658 -0.234691 -0.178973 -0.882558 -1.291629 -0.729527 -0.197103 -0.038973 -0.375944 0.535416 0.391203 0.200602 0.200884 0.158466 0.079292 0.910504 0.431659 0.116431 -0.024692 -0.397184
2677 0.891006 0.735199 -0.222279 0.565086 -0.543273 -0.154712 -0.288798 0.395110 -1.767125 0.119583 -0.152156 0.586189 -0.100278 -0.259540 0.262176 0.626614 0.644509 -0.310243 -0.664111 -0.216048 -0.685839 -0.267058 0.718375 -0.599610 0.119967 0.213920 0.785743 1.057596 0.659137 0.020596 -0.297999 0.616550 0.370770 0.648384 -0.878434 0.041910 -0.036413 0.383025 -0.450572 -0.049244 -0.219539 -0.746656 -0.302889 -0.245029 -0.287739 -0.174986 0.577639 -0.188432 0.138096 -0.210851 0.202718 0.506389 -0.645101 0.027409 -0.298631 -0.743258 0.531653 -0.024611 0.877505 0.215917 0.966029 0.387789 0.338742 0.109004
453 -0.589331 0.281281 -0.540825 -0.288825 -0.129541 -0.294682 0.525691 -0.073157 0.150674 -0.632602 0.448187 -0.189462 -0.570069 0.309972 -0.618697 -0.448473 0.616852 -0.586546 -0.288401 -0.194926 0.354401 0.054033 0.258213 0.337211 0.354266 0.206403 -0.671508 0.123674 0.379319 0.415109 -0.117866 -0.112186 0.051883 0.625756 0.302258 -0.371111 0.744607 -0.503091 -0.467432 0.490535 0.361857 -0.323059 -0.347894 0.081024 -0.768081 -0.497854 -0.159325 -0.259659 0.356900 0.876447 -0.192871 0.010444 -0.292937 -0.298109 -0.145790 -0.078456 -0.259944 0.033105 0.329745 0.685359 0.765828 0.563431 0.297478 0.541000
263 0.312702 0.572975 -0.948233 -0.326771 0.805000 -0.246332 0.206217 -0.119465 -1.006457 -0.028939 0.478710 0.224142 -0.814361 -0.720387 0.031392 0.520873 0.398849 0.378833 -1.299908 0.245008 -0.764335 -0.017077 -0.125096 0.301316 0.553847 -0.175673 0.716389 0.855682 -0.478304 0.228069 0.114313 -0.436014 -0.313024 -0.036906 -0.841625 -0.059510 0.299040 0.068093 0.411846 -0.016675 0.292256 0.307026 0.725746 0.037721 0.062759 -0.638992 -0.211375 -0.039904 -0.564755 0.084997 0.145089 -0.439508 0.455435 -0.067756 0.304263 -0.424283 0.149380 -0.041794 0.052264 -0.386314 0.407573 -0.561164 0.922296 0.132911
2646 1.271841 0.145416 -0.107877 0.103002 -0.407798 0.532375 -0.210799 -0.902668 0.706615 -0.227894 -0.311788 -0.154125 0.356807 0.492281 -0.828396 0.838006 0.238388 -0.103457 -0.199432 -0.807043 -0.408283 -0.041180 0.161340 0.656635 0.304222 -0.763343 0.296244 -0.340845 -0.209019 -0.477154 -0.665729 -0.076164 -0.892322 0.002661 -1.150843 -0.225677 -0.021500 -1.056415 1.472379 -0.771917 0.420725 -0.686446 1.011397 0.388257 -0.242002 -0.208388 -0.203360 -0.300733 -1.266080 0.644349 -0.495014 -0.360356 -0.597727 -0.528609 0.210242 -0.434875 -0.701245 -0.015958 -0.153864 0.649528 0.831633 0.630118 0.358574 0.252046
3241 0.853360 0.937157 -1.236888 -0.601952 1.267157 0.106467 0.744202 -0.923796 -0.185314 0.158686 0.759387 -0.473313 1.072879 0.242564 -0.913863 0.185531 -0.100166 0.138134 1.095275 0.537310 -1.393784 -0.072665 1.406399 0.028573 1.050178 -0.677957 0.362614 0.585146 -0.555301 -1.147549 0.620780 0.559237 1.031499 0.742399 0.148664 -0.330057 -0.323063 -0.475173 0.068520 -0.626034 0.491621 -0.477524 0.725056 1.051450 0.317771 0.610412 0.522340 -1.175200 -0.698910 0.741026 0.270235 0.992566 -1.116474 -0.096850 0.018952 -0.755365 0.902076 -0.448528 0.488093 0.088176 -0.081453 0.503211 -0.241366 0.329420
1724 -0.086266 0.857410 -0.997879 -0.510876 0.157437 -0.563379 -0.137113 -0.249984 0.095385 -0.089964 0.314416 0.695889 -0.085538 -0.069976 -0.823682 -0.228579 0.856419 -0.128116 -0.194761 -0.024672 -0.090684 0.113650 -0.342831 0.149951 0.273247 0.245304 -0.459478 0.399990 -0.196405 -0.377275 -0.375166 -0.129275 0.410079 -0.814540 0.119824 -0.586976 -0.528546 -0.379775 0.188196 0.066555 0.012961 0.434745 0.297462 0.527500 -1.030689 0.183126 -0.276712 -0.628590 0.686032 0.225412 0.358511 -0.045677 -0.702462 -0.502455 -0.043116 -0.421697 -0.033475 -0.279854 -0.113563 0.304285 0.823863 -0.334973 0.098600 0.384484
482 -0.398223 0.090815 -0.957290 0.907836 0.315274 0.019042 -0.513350 0.591858 0.425787 0.420635 0.221063 -0.916575 0.062583 -0.579623 -0.106363 -0.529854 -0.697726 0.218960 -0.282217 -0.006484 -0.389290 -0.451388 0.823592 1.277285 -0.633512 -0.269497 -0.156388 -0.120136 -0.092807 -0.827856 0.600503 0.634560 0.418444 0.593508 -0.495020 -0.239965 -0.357390 -1.017464 -0.233302 -0.291595 -0.032012 0.392609 -0.160899 0.099161 0.371771 0.254594 -0.482423 -1.302834 -1.220989 0.295278 -0.258828 -0.606943 -0.796623 -0.592580 0.016732 -0.661665 0.144131 -1.449180 0.446355 0.703241 -0.078115 -0.334963 0.469102 0.563595
869 0.413944 0.825449 -0.312205 0.289618 0.514323 -0.207108 0.159206 0.166319 0.221287 -0.499553 0.052982 -0.077972 0.485037 -0.437812 -0.020529 -0.318551 0.255570 -1.041699 -0.328991 -0.191834 -0.667235 0.306456 0.457526 0.135088 0.342167 0.166803 0.442081 -0.269554 0.088673 0.445453 0.671223 1.073358 -0.959678 0.135411 -0.635503 -0.219732 -0.420797 0.175612 -0.060450 0.185590 -0.979743 1.125403 0.323818 -0.280647 -0.067675 0.348361 -0.020760 0.694566 -0.580096 0.183113 -0.686395 -1.551069 -0.657762 1.092515 0.301396 0.925541 -0.089601 -0.801033 0.835318 1.450699 1.275517 0.072996 -0.318500 -0.027444
2406 -0.402317 -0.226046 0.009708 0.386028 0.359664 -0.015358 0.078797 1.033993 -0.632903 0.071318 0.009947 -0.407359 0.820708 0.254136 0.641664 -0.447446 0.199895 -0.987282 -0.601090 -0.427140 -1.230810 0.290730 1.321730 0.030571 -0.425991 0.208395 -0.887630 0.178168 0.567819 0.045141 -0.378687 -0.754979 0.035308 0.227644 0.389272 -0.036477 -0.018775 -0.119792 0.918532 0.937177 -0.842068 -0.284489 0.592466 -0.129627 -0.202775 -0.016836 -0.383615 -0.709667 -0.958413 0.942272 0.057243 -0.336448 -0.719512 0.928982 0.542901 0.397561 0.387399 -1.101782 0.799570 0.637555 0.780260 0.264604 0.175466 -0.237719
3203 -0.405387 -1.035819 -0.191151 0.340630 0.665759 -1.534960 0.103178 -0.529390 -0.503823 0.196395 -0.198769 1.000955 -0.532616 0.083634 0.015051 -0.849877 -0.334590 -0.421926 -1.282614 -0.118767 0.223974 0.738781 0.695943 0.928834 1.040411 -0.510238 -0.619702 0.089565 -0.300511 -0.423029 0.090958 0.488182 0.565368 1.332183 -0.645623 -1.036522 -0.009354 0.189442 0.500319 -0.046697 0.076819 0.123537 0.143395 0.812410 -0.140278 0.142657 -0.099179 -1.542456 0.802266 0.861624 -0.075801 0.031443 -0.229315 0.696110 1.008395 -0.822241 0.620528 0.138006 0.010929 0.416331 0.311062 0.774366 0.578133 -0.542988
661 -0.018092 -0.029902 0.457752 -0.434678 0.045190 -0.060962 -0.799644 0.525821 -0.500647 -0.487228 0.597103 -0.023202 0.175726 0.426060 0.033597 -0.445091 -0.151314 -1.049429 -0.094337 0.285774 0.109358 -0.029077 0.411814 0.291484 0.855409 0.199582 -0.590865 0.209723 0.324328 -1.031065 0.846735 0.366441 -0.461005 -0.194973 -1.022678 -0.520718 0.548799 -0.945130 -0.446382 -0.599749 0.451644 0.156194 0.801416 0.667478 -0.187691 0.196640 -0.065326 -0.366735 0.556513 -0.107004 -0.242991 0.721569 -0.686620 -0.613044 0.463259 -0.100649 0.145664 0.618253 0.207653 0.592064 0.282118 -0.046440 -0.069836 -0.934070
2329 0.840086 -0.210714 0.361413 -0.128769 -0.284097 -0.386159 0.300283 0.123736 -1.419502 -0.291637 0.030221 0.372734 0.416923 -0.098061 -0.208395 -0.101951 0.426056 -0.064365 -0.165070 -0.665622 0.289942 0.086514 0.808754 -0.170171 0.029825 -0.541781 1.001596 1.001151 0.647163 -0.184601 0.507373 -0.494891 0.015122 0.343280 -0.506699 -0.526669 0.727288 0.596559 -0.389507 0.351035 0.040996 -0.663092 -0.826078 0.056975 -0.319886 -0.101211 -0.509342 -1.019407 -0.317149 0.214318 -0.346404 -0.467284 -0.549219 0.389376 -0.681470 0.292140 0.207207 -0.100912 -0.491983 1.258460 0.710568 0.350057 -1.381859 0.189916
1875 0.864224 0.294525 0.013376 -0.194366 0.048274 0.060161 0.019581 -0.097014 0.091245 -0.647212 0.661526 -0.068590 -0.391045 -0.360007 -0.593906 -0.201504 0.045878 -0.460010 -0.714126 -0.100860 -0.124986 0.621729 0.255101 0.835085 0.336127 0.404637 0.172151 0.229382 1.280294 -0.169382 -0.226317 0.767168 0.508710 1.400104 -0.529203 -0.163976 -0.603592 -0.236214 -0.181161 -0.211414 0.715240 -0.473757 0.154970 1.169528 0.796419 -0.670325 0.318276 -0.659275 -0.538243 -0.359987 -0.932176 -0.553130 0.871124 -0.312158 0.307694 -0.294960 -1.003070 -0.012733 -0.315325 0.033537 -0.157056 0.268955 1.124411 0.139773
2647 -0.185507 0.959319 0.190752 0.475125 0.606697 0.099823 0.405367 0.056105 0.492150 0.019757 0.141642 0.580658 -0.595295 -0.186982 -0.146230 -0.101263 -0.239515 -0.541440 -0.239152 -0.001718 0.047687 0.111021 0.818116 0.034706 0.236636 -0.085349 -0.546200 0.962622 0.743285 -0.029829 0.311484 0.395649 -1.077043 -0.291810 -0.059909 -1.052543 -0.085703 -0.687610 0.074887 0.106041 -0.793900 -0.555311 -0.022034 0.992721 0.445476 0.171963 0.027335 -0.559466 -0.306576 -0.009346 -0.104483 0.882969 -0.934557 0.183256 0.076058 -0.013659 -0.153238 0.142433 0.355674 0.181053 0.189789 0.087265 -0.941195 0.723390
3011 0.074094 -0.593187 -0.611693 -0.101690 -0.007765 -0.935023 0.870926 -0.320487 0.667536 0.692084 0.762851 0.420334 -0.013519 0.174341 0.493094 0.451796 0.025483 0.639688 -0.459682 -2.086360 -0.410247 -0.649888 0.426699 -0.396400 -0.035612 0.424360 -0.636891 0.543124 2.346146 -0.526775 -0.126589 -0.345615 0.185884 0.414092 -1.214546 -0.238096 -0.685793 0.233294 0.082988 -0.989886 0.965218 0.368295 0.444383 0.952705 0.081334 0.260987 -0.320046 -1.044961 -0.194096 0.812054 -1.594758 -0.708439 -0.311475 0.246593 0.156627 0.053089 1.152171 0.034690 -0.618179 0.743027 0.184126 -0.010226 0.026175 0.498883
318 0.065072 0.150346 -0.628016 -0.385921 -0.020805 0.095522 0.698112 0.409598 -0.357663 0.498907 0.392859 0.834436 -0.463665 0.299532 -0.514976 -0.890401 0.199112 -0.125206 -0.319294 0.203808 0.254340 0.343920 0.663030 0.383082 0.075854 -0.625858 0.491401 0.228908 0.786301 -0.352573 0.605936 0.088291 -0.480423 0.109268 0.181935 -0.536169 0.608338 -0.524151 0.767850 -0.360843 -0.828678 0.699390 0.153530 0.770621 -0.171375 -0.514525 -0.371462 -0.533010 -1.114864 0.140447 -0.435931 0.408422 -0.325868 0.202644 -0.267943 -0.985168 0.323265 -0.190033 -0.786396 -0.322066 -0.702798 -0.390137 1.201707 1.029071
1013 0.052270 0.147325 -0.148165 -0.018516 0.272975 0.014710 0.621326 0.408101 -0.169412 -0.250255 0.809326 0.772274 -0.479612 0.622735 -0.418475 -0.349461 0.495683 -0.283339 -0.188581 -0.196234 -0.014258 -0.223970 0.494858 0.733100 0.154865 0.111772 0.039504 0.172026 0.273968 -0.027956 -0.084693 -0.542657 0.107553 -0.217901 0.358516 -0.230126 -0.093798 -0.511539 -0.044940 0.220977 0.192826 0.494277 -0.224719 0.061449 0.183241 -0.599559 -0.170386 -0.805299 0.127614 0.157990 -0.118909 0.186964 -0.690120 -0.024275 -0.522615 0.112228 -0.305584 0.461928 0.077173 -0.286227 0.906987 -0.695453 0.284252 0.271785
2896 1.060306 -0.147117 -0.582939 -0.678597 0.305742 0.498435 -0.717048 0.203182 0.227976 -0.293914 -0.126659 -0.040715 0.501128 -0.279848 0.729672 -0.314166 0.230116 0.378431 -0.147134 0.511629 0.087070 0.290174 0.010879 -0.865806 0.561503 0.552694 -0.069771 0.983981 1.156478 -0.554838 0.539546 0.068571 0.781727 0.241116 -0.017439 -0.154462 0.002301 -0.549839 -0.427269 -0.264479 0.649261 0.188062 -0.436247 0.048261 -0.556053 -0.342627 -1.383019 -1.343055 -0.519989 0.618134 1.044640 -0.716795 -0.028742 0.835279 -0.499744 -0.284649 0.294919 0.010451 0.908066 -0.197701 1.001481 -0.187767 0.065394 -0.761769
1605 0.018092 -0.105668 -0.178004 0.096564 0.650645 -0.058295 0.642486 0.047752 0.035378 -0.126999 0.678141 0.858669 -0.255257 0.058649 -0.654318 0.185092 0.392234 0.192270 -0.545827 -0.147402 0.078634 0.195013 0.445092 0.711557 0.400871 -0.009563 0.156250 0.401897 0.223478 -0.562585 0.220543 -1.029542 0.313473 0.081610 0.231754 -0.148276 0.391621 0.204078 -0.398697 -0.113558 -0.037679 0.530724 0.202258 -0.255990 -0.340246 -0.193497 0.349380 -0.707288 -0.611795 0.259031 -0.659080 0.633236 -1.098549 0.499921 -0.309066 0.624261 0.092410 0.110586 -0.163276 -0.036730 0.351398 -1.053362 0.716153 -0.154264
3080 0.229280 0.230777 -0.540663 0.867420 0.556818 0.525852 0.679750 0.676281 0.736062 -0.411883 -0.308957 0.404189 -0.611023 0.489725 0.523987 0.017540 -0.559072 -0.329362 -0.187362 -0.008529 0.299550 -0.536779 0.136936 -0.050675 0.702091 -0.027787 -0.737706 0.294800 -0.328181 -0.084639 -0.519145 0.860856 -0.322521 0.382085 -1.299587 -0.019954 0.342837 -0.258792 -1.031585 -0.706940 0.030206 -0.145829 0.154965 0.304374 -0.586801 -0.458233 -0.779846 -0.588240 -0.380896 -0.459592 -0.032661 0.341439 -0.790052 -0.368960 -0.051125 0.559111 -0.303974 -0.748872 0.196909 0.076055 1.360010 -0.927469 -0.155649 1.039492
1211 0.229020 0.232886 0.587214 0.423636 0.220886 -0.365292 0.280563 -0.902339 0.135885 0.216519 -0.225503 -0.097250 0.055600 -0.480143 -0.420596 0.185888 0.043492 0.232831 -0.307274 1.054489 -0.371406 -0.696010 1.369240 0.188704 1.123669 -0.206557 -0.337523 0.409610 1.216015 0.012871 0.686190 0.383777 -0.147201 0.514365 0.398683 -0.361013 -0.148389 0.613011 0.180293 0.427883 0.093931 -0.966882 1.173641 -0.228576 -0.431642 0.828870 -0.609862 -0.648452 -0.488584 0.187656 0.251703 0.190437 -0.624747 -0.367627 -0.357877 0.655388 -0.751472 -0.664810 0.181703 -0.301727 -0.067112 -0.963930 0.098886 0.538001
2502 0.386812 0.389339 -0.657861 0.024978 0.253763 -1.014190 0.696411 1.008885 0.245795 -0.072010 -0.706831 -0.102879 -0.219835 1.187661 -0.091591 0.177519 0.551082 -1.309082 0.067587 -0.567649 -0.508314 -0.745717 -0.416106 -0.251912 -0.250646 0.591371 1.109738 -0.550204 0.272616 -0.483368 0.598066 -0.348512 -0.960192 1.043159 0.279798 -0.791984 0.349866 -0.390613 -0.251423 0.018867 0.051166 -0.664084 0.331177 0.691001 -1.213522 -0.007801 -0.873741 0.178505 -0.438953 -0.280090 -0.040490 -0.287518 -0.923399 -0.723357 0.094104 1.012557 -0.136011 -0.779333 0.505524 -0.606154 0.242494 0.032820 1.260348 0.255566
887 0.565252 0.808959 -0.322735 0.299422 0.440973 -0.582777 0.363922 -0.002265 -0.061118 -0.449551 0.613925 0.218683 -0.273614 -0.065639 0.523585 -0.049252 -0.127097 -1.146910 0.092883 0.247990 -0.157010 0.211177 -0.033158 0.186468 0.095332 0.403011 -0.027965 -0.110253 0.197884 -0.929084 0.551006 -0.477510 -0.243544 0.483749 -0.403501 0.035975 0.484869 -0.477586 -0.023310 -0.552292 0.687576 -0.411509 0.241132 0.760148 -0.686288 -0.171879 -0.341836 0.066254 0.422995 0.427824 -0.097978 0.074257 -0.182550 -0.603278 -0.361116 -0.060134 -0.317268 0.160078 0.103613 0.601341 0.052476 -0.046149 0.051855 0.576717
2861 0.237694 -0.291247 0.052006 -0.154863 0.617698 0.090455 -0.501624 0.315195 -0.691811 0.425249 0.175601 0.015638 0.035652 0.584372 0.095962 0.269139 0.238599 -0.048196 0.293102 -0.273293 0.377724 0.614771 0.400832 0.061956 0.622645 0.858703 -0.396659 0.986600 0.590252 -0.327498 0.447482 0.515818 -0.080752 -0.368856 0.039359 -0.151962 -0.014685 0.060865 0.556818 0.136505 0.249166 -1.110903 0.300808 -0.377716 0.184128 -0.014389 -0.531865 -0.815180 -0.517722 0.359621 0.452521 0.317585 -0.719875 0.155868 0.471314 0.188081 0.714685 -0.265438 -0.238325 0.110255 -0.325790 -0.263860 0.948315 0.611637
2581 0.483662 1.003000 -0.504998 -0.515813 -1.032586 0.462484 0.433380 -0.835901 0.179625 0.151046 0.413818 0.927717 0.149968 -0.228844 0.656759 -0.293708 0.518678 -0.382328 -0.061933 -0.688219 0.121636 0.234074 0.123108 0.303503 0.866483 1.242660 0.054397 -0.672400 0.413157 0.248278 0.195496 -0.313088 0.071611 0.214400 -0.372567 -0.444252 0.204811 -0.036691 -0.059648 0.810528 -0.190947 -0.322875 0.905143 -0.118219 -0.684947 -0.188478 -0.278144 -0.497579 -1.241696 0.049191 0.034959 0.194940 -0.084315 0.259509 0.011463 0.329546 0.635718 0.004301 0.066909 0.656422 0.853786 0.251321 -0.254040 -0.070234
557 -0.276220 -0.126492 -0.652665 -1.218738 -0.169683 -0.472667 -0.260644 -0.195729 -0.490603 0.379621 0.393840 -0.628182 -1.098014 0.073728 -0.129746 -0.732735 0.095289 -0.303728 -0.229988 -0.736826 0.660750 -0.026387 0.710953 0.717846 -0.143393 -0.140546 0.026092 0.534535 0.038658 -0.429781 0.206924 0.073552 0.042106 0.837485 -0.458592 -0.696371 0.032693 -0.283540 0.073914 0.106216 0.332219 -0.124018 0.728225 0.204467 0.186565 -0.312755 0.039023 0.440553 -0.091461 0.449264 -0.453567 0.198403 -0.858774 0.204650 0.484011 0.696908 -0.684950 0.312499 0.594042 0.033472 0.698453 -0.312301 0.108437 0.330933
1944 -0.248548 0.390529 0.143615 -0.219346 -0.008603 -0.491408 1.138896 -0.353350 1.120678 0.473107 0.667827 0.062868 -0.531601 -0.060272 0.056107 0.235214 -0.526236 0.799866 -1.386467 -0.358143 0.880870 -0.329175 1.165281 -0.944303 1.075621 0.386823 -0.031659 0.203569 0.761162 -1.115350 1.246776 -0.064320 0.696778 -0.516360 -1.622443 -1.259744 -0.850837 0.163829 0.727802 0.435361 1.058252 0.602301 0.268058 -0.196772 -1.283233 0.812970 0.046383 -0.490780 -0.598869 -0.066130 -0.529438 -0.438122 -0.526611 0.484219 0.283235 0.231410 0.532615 -0.912664 -0.637885 -0.201862 1.075536 0.547614 -0.648092 1.223729
2398 0.319284 0.366073 -0.670730 0.292984 -0.214026 -0.851511 0.128860 -0.126957 -0.543492 0.633946 0.924628 0.449856 -0.078195 0.771610 -0.319505 -0.782362 -0.030621 -0.317133 -0.223112 -0.218444 -0.062015 0.197689 0.522962 0.965565 0.296812 -0.501272 0.028423 0.205670 0.152935 -0.448732 -0.268976 -0.067357 0.028992 -0.153308 -0.006709 0.063979 -0.171171 -0.537671 -0.065862 0.022234 0.019926 0.059272 0.344793 -0.009196 -0.833656 0.737493 0.113484 -0.570564 -0.703698 -0.348263 0.432193 -0.090689 -0.115722 0.020969 -0.249225 0.077667 -0.565192 0.438095 0.230079 0.471558 -0.090868 -0.681622 1.222722 -1.110821
830 0.020865 0.168976 -0.846224 0.118174 0.510170 -0.090606 0.431120 -0.150559 -0.080149 -0.191781 0.797794 -0.425269 0.743385 -0.577311 -0.756498 -0.599779 -0.647966 -0.529007 -0.495546 -0.107763 -0.362879 -0.261108 0.620976 0.690293 -0.139973 -0.214791 0.075327 -0.434666 -0.735993 -1.359605 0.711632 0.945176 0.674417 0.880795 -0.171593 0.009142 -0.510063 -0.601695 0.198013 -0.099480 0.164109 0.097992 0.151316 0.138110 0.225897 0.027450 0.075452 -1.243825 -1.404371 0.643116 -0.108868 -0.483795 -0.710581 -0.062113 -0.362478 -0.472663 -0.157429 -0.758710 -0.210430 0.526447 -0.300859 -0.078083 -0.110012 0.707713
1986 -0.208902 0.332260 -0.309872 -0.196276 0.703573 -0.434931 1.196490 -1.034175 -0.066323 0.555135 -0.264865 -0.265778 -0.655107 0.600296 0.443856 -0.757129 0.123132 -0.589553 -0.325045 0.174765 0.312594 -0.786235 -0.734118 0.277381 0.455685 0.011889 0.041199 -0.497111 -0.038861 0.122239 0.706200 0.285143 -1.009867 0.050345 -0.202194 -0.497821 -0.770649 -0.312921 0.352444 0.297224 -0.174477 -1.180895 -0.451228 -0.156645 0.524032 -0.459488 -0.774910 -1.607498 -0.786891 0.613923 0.140411 -0.256496 -0.747280 -0.062864 -0.332248 0.321065 -0.066174 0.814763 0.000325 0.727093 0.698554 0.502100 0.779489 0.374297
1367 -0.199889 0.156280 -0.100291 0.274833 0.100109 0.720896 0.127778 0.336459 0.588128 -0.386867 0.195206 -0.126615 -0.251135 0.090553 0.034217 0.077636 0.070050 -0.901039 -0.264333 0.558057 -0.506760 -0.300493 0.251413 0.875116 0.580175 -0.274778 0.085231 0.145743 -0.041089 -0.916375 -0.203990 1.396529 0.037123 -0.134516 -0.926377 -0.316077 0.349829 0.306099 -0.889447 -0.362674 -0.347708 -0.308380 -0.208581 -0.450704 0.146544 -0.825938 -0.360202 -0.839287 -0.565781 0.381365 -0.960164 0.624233 -0.396365 -0.324192 0.277756 -0.516938 -0.752050 -0.773349 -0.169386 0.461385 0.600926 -1.077050 0.087623 -0.063818
2596 0.628396 -0.271902 0.176465 -0.470135 1.477144 -0.344117 0.633090 0.143846 0.378529 -0.360147 0.358673 0.439145 -0.151346 -0.020329 -0.686539 -0.133274 0.787866 0.173318 -0.471413 -0.406276 -0.524362 -0.205459 0.382683 0.739484 0.265526 -0.196711 0.263765 0.790049 0.147984 -0.334674 -0.121260 -1.269738 -0.135633 0.089475 0.314116 -0.421964 0.663162 0.162439 -0.596557 -0.760080 -0.514736 0.279784 0.414782 -0.031513 -0.292533 -0.218340 -0.091547 -0.194525 -0.142812 -0.010529 -0.606489 0.564364 -1.265605 0.192256 -0.537026 0.129290 0.308627 -0.318219 0.090877 -0.534803 0.352885 0.013045 0.353986 0.082087
1094 0.020223 -0.171174 -1.290534 -0.596742 -0.000887 0.540145 -0.161527 0.268834 -0.243120 -0.621174 -0.044796 -0.442451 0.090059 -0.150565 -0.335310 0.453029 0.180671 -0.756592 -0.461940 -0.069686 0.000286 0.011440 -0.221816 0.313336 0.630606 -0.321785 -0.738141 0.067951 0.463323 0.309373 -0.548436 0.047221 -0.028637 0.626934 -0.385990 -0.317635 -0.544921 1.103220 0.108683 0.327597 0.950446 -0.546006 -0.948551 1.260950 0.309677 0.550445 -0.364056 -0.234227 -0.636863 0.046505 -0.459263 0.801276 -0.937699 -0.007513 0.332656 -0.566801 -0.747669 0.161567 0.798291 0.320645 0.778507 -0.518664 0.089612 0.023968
12 -0.061130 -0.121984 -0.897265 -0.620572 0.233000 0.347469 0.262119 -0.397977 -0.099541 -0.227638 -0.215279 -1.346152 -1.125790 0.359004 -0.721366 -0.650383 -0.302670 -0.401506 -0.679898 -0.668609 0.501337 0.436085 0.359142 0.491272 -0.397636 0.091651 1.029537 0.633760 0.149666 -0.562117 0.861122 -0.680542 0.010082 0.256768 -0.956068 -0.537643 0.442668 -0.090803 0.214750 0.126325 -0.151206 -0.379401 0.151155 0.522645 0.322031 -0.125481 -0.372232 -0.210490 0.033192 0.503988 0.110228 -0.269599 -0.894349 0.162326 0.630327 0.438279 -0.576444 -0.084638 0.630312 0.056693 0.798743 -0.155905 0.494589 0.386975
2404 0.212254 0.230398 -0.376667 -0.305205 0.011120 -0.340519 -0.044369 0.094493 -0.333827 -0.262212 0.890156 0.500622 -0.531958 0.112030 0.570790 -0.777444 -0.362360 -1.143277 0.010438 0.243938 0.051302 -0.269817 0.202706 -0.345067 0.495839 0.128098 -0.423018 0.520836 -0.357610 -1.076388 1.293286 -0.131964 -0.331494 -0.109427 -0.175703 -0.054119 0.522535 -0.570774 -0.041182 -0.355008 0.514535 -0.325573 0.478108 0.471637 -0.805786 -0.069952 -0.423330 -0.135088 0.542711 0.146943 -0.363143 0.084179 -0.710865 -0.215135 0.163624 -0.696638 -0.280285 0.531903 0.288125 1.241478 0.046196 -0.223871 0.253093 -0.447764
2067 -0.304533 0.588763 -0.474441 -0.422550 0.584502 -0.680906 -1.284863 -0.156497 0.847031 -0.142475 -0.014534 0.192433 -0.881037 0.976973 -0.599835 -0.652667 0.249450 -0.603752 0.245885 -0.101207 -0.021354 -0.306875 0.827372 0.324971 1.025114 0.421415 0.373586 0.191170 0.329160 -0.302621 0.660533 0.473673 -0.062258 0.339004 -0.010967 -0.760653 1.694537 -0.276298 0.467126 -0.252308 0.029090 0.476373 0.089643 -0.352936 -1.043911 0.700861 -0.070128 -0.602320 -0.505882 0.230511 -0.964108 -0.543410 0.305847 0.354095 -0.087907 0.964563 0.621809 0.152466 0.013137 -0.356668 -0.099852 -0.072433 0.948505 0.052269
106 1.086809 -0.154297 -0.648627 -1.381466 0.563474 0.141077 -0.751951 0.034087 0.379618 0.383881 -0.192808 1.583079 -0.155360 -0.175339 0.844384 0.015759 -0.053814 0.616381 -0.339915 0.342088 -0.406125 0.163095 0.373725 -0.107886 -0.018181 0.523887 0.517232 0.563932 0.927911 -1.201226 0.598469 0.355665 -0.681791 -0.833777 -0.199502 -0.417495 0.277622 -0.585532 -0.894263 -0.138372 0.101172 0.228374 0.028634 -0.169705 -0.737822 -0.454241 -0.911316 -0.836300 -1.303533 0.045806 -0.277486 -0.511047 0.263589 0.606184 0.124969 -0.459257 0.414330 0.284256 0.369717 -0.666312 0.590675 0.214490 -0.107321 -0.549179
2643 0.594537 -0.338547 -0.832130 -0.901990 -0.069315 0.946759 -0.499946 -0.203893 -0.020450 -0.041132 0.144869 1.543891 0.081843 -0.312043 1.240103 0.207549 -0.136732 -0.091877 -0.215925 0.116832 -0.155587 0.399371 0.548465 -0.100457 0.857932 0.867504 0.307938 0.309836 0.443128 -0.623732 0.608452 -0.243254 -0.511879 -0.322916 -0.164654 -0.604063 0.519116 -0.251091 -0.273374 0.078598 -0.215236 -0.034068 0.417048 0.350999 -0.337763 0.029808 -0.848474 -1.079222 -0.815690 -0.016434 0.058449 -0.700895 0.465565 0.444463 -0.397352 -0.193112 0.232520 -0.157717 0.294086 -0.667558 0.475606 -0.186244 -0.157144 -0.379203
2416 0.067269 0.273323 -0.280213 0.230698 0.420514 0.323912 0.488059 0.275417 -0.493568 0.424603 1.003305 0.368883 -0.734454 -0.316023 -0.399519 0.486462 0.513480 0.177005 -0.724289 0.420654 0.120973 0.050132 0.297317 0.721496 0.326338 -0.087684 0.258020 0.452057 -0.072874 -0.342323 0.262054 -1.252599 0.127750 -0.247499 0.273475 -0.262170 -0.097416 0.486650 -0.320304 0.053524 0.884177 0.909214 0.439702 -0.046510 -0.068017 -0.209970 0.350147 -0.511182 -0.845602 0.380531 -0.962566 0.178250 -0.633119 0.065358 -0.186995 0.520190 0.243597 -0.061997 0.024616 0.095097 0.370325 -0.663364 0.679722 -0.054753
2519 0.767550 0.023963 -0.862044 -0.424599 0.478745 -0.273856 0.611502 0.531319 -0.575902 -0.998968 0.794833 0.486011 0.393229 -0.003895 -0.363788 -0.360102 -0.189027 -0.820232 -0.871195 -0.443864 0.169693 0.214055 -0.081897 -0.242165 0.187341 0.060251 0.553906 -0.248932 -0.055722 -0.223808 0.471049 0.430689 -0.235060 0.212443 -0.247127 -0.078712 -0.468550 -0.281714 0.326345 0.041446 0.245487 0.550265 1.028401 0.076183 0.459103 -0.387739 -0.348698 -0.220535 0.126337 -0.004430 0.616046 0.047305 -0.505256 -0.173904 0.213025 0.564856 0.198131 -0.490882 0.315567 0.432126 -0.033993 -0.182823 0.214281 0.669903
2632 0.148678 0.322456 -0.192346 -0.435090 0.357640 -0.431850 0.482625 -0.078561 -1.554906 -0.152960 0.632358 0.163043 -0.229327 0.062000 0.088457 0.200632 -0.026076 -0.554093 -0.794993 -0.304257 -1.031647 0.085992 0.123732 0.752412 0.245272 0.541605 0.927182 0.363368 0.102226 -0.175278 0.068406 0.284442 0.233655 0.411833 -0.427294 -0.150283 -0.196426 -0.102203 0.254411 0.098316 0.001218 -0.482522 0.238811 -0.244851 -0.492871 -0.224075 0.169743 0.054335 -0.540193 -0.141835 0.389587 -0.287847 -0.284309 -0.900944 -0.471789 -0.536291 -0.927624 0.315305 0.549031 0.554197 0.175672 -0.234189 -0.004080 0.036762
1738 -0.834561 1.449517 0.900723 0.366362 -0.064958 -0.334244 -0.186302 0.517608 -0.342954 0.751977 -0.259542 0.522418 0.586031 0.740252 -0.632874 0.041072 0.559094 -0.028194 -1.443048 -0.485640 -0.351167 -0.121036 -0.387965 -0.194444 1.280782 0.149172 0.071376 0.071948 0.737903 -1.376962 -0.363917 0.496015 0.694056 0.775079 -1.807727 -0.400693 -0.641305 -0.170506 -0.205193 -0.204548 -0.838855 -0.028241 1.309824 1.679096 -0.222230 1.203920 -0.630489 -0.026267 1.139177 0.495485 -0.778933 -0.663110 -1.107059 1.215984 0.127464 0.199692 0.507590 -0.050759 1.092381 0.964047 0.141814 -0.036479 -0.762818 -0.498747
1617 0.172529 1.062897 -0.611961 -0.512610 0.224258 -1.342770 0.402809 0.259962 -0.218508 0.147235 0.453590 0.291536 -0.215745 0.070606 -0.926097 -0.533315 0.888373 -0.441330 -0.146345 -0.091402 0.449073 0.480969 -0.097094 0.212761 0.517064 0.488190 0.153349 0.305815 -0.595213 -0.313641 -0.513270 0.443699 0.343962 -0.939101 -0.113006 -0.134411 -0.629592 -0.485527 0.192824 -0.277119 0.390136 0.476880 0.043362 0.191410 -0.277895 -0.109301 -0.086583 -0.800633 0.255423 0.549029 0.097649 -0.892362 -0.616388 0.094487 -0.452163 -0.497457 -0.663997 -0.610636 -0.408362 0.280197 0.963832 -0.059828 0.479211 -0.192131
150 -0.258141 0.393836 -0.885681 -0.725862 -0.162225 0.028651 -0.389711 -0.082161 -1.117725 -0.093247 0.246842 -0.702142 -1.031465 0.033786 -0.250651 -0.636202 0.317046 -0.697232 -0.884130 -0.444663 0.816728 0.094035 0.654251 0.528217 -0.036325 -0.844048 0.419717 0.547908 -0.059387 -0.380899 0.503162 -0.278693 0.103645 0.186224 -0.525347 -0.398049 -0.018597 0.503363 -0.467646 1.005013 0.055236 0.068904 0.520575 0.071184 0.484683 0.035457 -0.166680 0.321731 -0.392736 0.162337 -0.785085 0.102573 -0.963785 0.415079 0.340308 0.541948 -0.714169 0.269799 0.420777 0.323203 0.821215 -0.083606 0.133228 0.202027
335 0.336582 0.175824 -0.366682 -0.318651 0.074092 0.505933 -0.167754 -0.270925 -1.132040 0.351530 0.666139 0.439098 0.530860 -0.554151 0.043129 -0.025984 -0.765547 0.406030 0.680143 -0.500619 0.016841 0.675826 0.393536 -0.149812 -0.133972 -0.350194 0.210593 0.300370 0.515256 -0.870404 0.070794 -0.293734 0.542369 0.127875 0.053735 -0.896511 -0.849012 0.432131 -0.686922 -0.169072 0.554700 -0.890873 -0.473169 0.110669 0.461675 0.016949 -1.436668 -0.938684 -0.288831 0.467848 -0.409171 -0.852326 -0.794186 0.203767 -0.717215 -0.329065 0.129595 0.563822 0.094140 0.352198 0.040932 0.122543 0.264433 0.343086
1035 0.091032 0.160490 0.423367 -0.335782 0.348267 0.490067 -0.271072 0.672001 -0.158010 -0.118883 0.890195 -0.322621 -0.235884 -0.287903 0.561416 0.131201 -0.042042 -0.768193 0.511716 -0.220673 0.270681 0.619083 1.506381 0.515485 0.257809 1.347954 -0.291948 0.298670 0.239708 -0.379096 0.578638 0.249114 0.289131 -0.702376 -0.335408 0.040690 -0.544296 0.435449 1.445110 -0.136979 0.580365 -1.326980 -0.472059 -0.001694 -0.084355 0.101491 -0.021459 -0.884495 -0.700308 0.592362 -0.205396 0.098827 -1.223763 -0.390874 0.296764 0.794383 0.080882 -0.338222 -0.251459 0.362106 0.028692 -0.022461 0.880580 0.018304
28 1.118521 0.273644 -0.431150 -0.791468 -0.174764 -0.481473 -0.370627 -0.236102 0.427608 -0.021069 0.103690 -0.322828 0.161821 0.440310 0.032816 0.973379 -0.380827 -0.185195 -0.985691 -0.568419 -0.431623 0.107900 0.481163 0.319064 -0.021122 -0.316219 0.337992 -0.993711 -0.384081 -0.294924 0.306847 -0.062146 -0.976457 0.183017 -0.325388 -0.408545 -0.175575 -0.477088 -0.597260 0.456333 0.092789 0.111894 0.581454 -1.204085 -0.512517 -0.944161 -0.397403 -0.665656 -0.491028 -0.565892 -0.196621 -0.547026 -0.974026 0.543305 0.336955 0.288425 0.123344 0.840863 0.735529 0.192559 0.320308 0.145200 0.115485 -0.494120
1971 0.574211 1.742842 -0.982105 -0.812429 0.906877 0.010250 -0.253058 0.339775 -0.610191 -0.218907 0.595126 -0.298357 -0.012108 0.002695 -0.174167 0.271244 0.463522 -0.048245 -0.752367 -0.929061 -0.072594 0.199462 -0.188383 0.023980 -0.096976 -0.441362 -0.562866 -0.314498 -0.691327 -0.115498 -0.157393 0.580171 -0.378841 0.703454 0.288639 -1.736683 -0.450814 -0.840045 -0.428602 -0.212571 -0.196223 -0.400866 -0.761337 0.147532 0.137561 -0.163124 0.696659 -1.143006 -0.629926 -0.375364 0.877044 -0.194480 0.364696 -0.492059 -0.544924 0.402781 0.788606 -0.394492 0.179388 0.144763 -0.112696 -0.925437 1.523778 -0.304778
2673 0.573337 1.299882 -0.732315 -0.225987 0.021414 0.465629 -0.420289 0.624305 0.849901 0.391749 -0.308935 -0.551322 -0.118009 0.587333 -0.031896 0.902536 -0.582781 0.142302 -0.827604 -0.100758 -0.283146 0.292277 0.512232 0.396782 -0.407994 -0.426809 0.284046 -0.225846 0.917559 0.270906 -0.159169 -0.469694 -0.513671 0.031157 -0.376693 0.503040 -0.979784 -0.495132 -0.291510 -0.630943 0.139631 -0.713085 1.129656 -0.558953 -0.446844 -0.584264 0.070874 -0.172046 -0.172574 -0.769957 -0.995630 -1.444441 -0.488473 0.050545 -0.641759 -0.075142 -0.214674 -0.110396 0.479347 -0.073394 0.468466 -0.232738 1.424299 0.079734
2435 -0.035804 0.593084 -0.189156 -0.085956 -0.234154 0.177322 0.458389 -0.766324 -0.375701 0.110353 -0.052249 -0.284081 -0.672263 0.768924 0.581651 -0.668438 0.374057 -0.234540 -0.816692 -0.386263 -0.075109 -0.078777 0.414047 0.547625 -0.187102 0.343848 0.771776 0.539505 1.045401 0.046051 -0.179135 -0.235013 -0.636646 -0.092391 0.016914 -0.545727 -0.567340 0.202460 -0.510844 0.536223 0.205020 -0.099054 -0.239154 -0.158421 0.064533 0.261515 -0.726769 -0.256552 0.196384 0.250678 -0.442637 -0.026273 0.027321 -0.073060 -0.644361 0.555725 0.008519 0.771077 0.770446 0.117689 0.043420 0.273539 1.305514 -0.375692
1942 -0.004646 0.535666 -1.035843 -0.074240 -0.036120 0.491605 -0.427521 0.553553 0.138627 0.838998 -0.656107 0.180024 0.036956 0.430111 -0.191696 0.224275 -0.553809 -0.678401 -0.301654 -0.193119 -0.035879 -1.025950 -0.320436 0.562326 1.169939 1.205114 0.324264 -0.097865 0.143931 0.215326 0.244236 -0.829069 0.183882 0.622452 0.488955 -0.295140 -0.654179 -0.179285 0.430458 0.083959 -0.254756 -0.223714 -0.213188 0.173260 -0.481490 0.090959 -0.555645 -0.412046 -0.596533 -0.531203 -0.624459 -0.028922 -0.736811 -0.273992 -0.848237 0.017940 0.775239 -0.441500 0.148085 0.450823 0.434664 0.299390 -0.515474 -0.021898
113 0.309153 -0.797520 -0.021193 0.455513 0.179329 0.160721 -0.179255 -0.485633 -0.007814 -0.098820 0.856653 0.102074 0.154489 0.238864 -0.374814 0.032901 0.313896 -1.077674 -1.089791 -0.319910 0.535142 -0.173981 0.487994 0.828836 0.245692 0.251417 -0.201964 -0.035049 1.223822 -0.451203 -0.517803 -0.050914 -0.002038 0.649591 -0.206136 -0.219627 -0.614511 -0.036844 -0.154196 -0.400264 0.287203 -0.352698 0.241801 1.619743 0.368384 -0.667161 0.206153 -0.765256 -0.213155 -0.631461 -0.797687 -0.322051 0.185328 -0.787638 0.475952 -0.243360 -0.608941 0.598763 0.140688 0.582430 -0.354576 -0.356687 0.767252 0.572335
148 0.347138 0.493236 -0.933243 0.100802 0.492228 -0.572597 0.210896 -0.546305 0.099770 0.122716 0.258092 0.641289 0.055436 -0.520879 0.390018 -0.870860 -0.422545 -0.813720 -0.145848 0.552533 -0.166367 -0.185260 0.128201 0.277174 0.393011 0.433315 0.032275 0.190183 0.342384 -0.459183 0.060272 -0.218665 -0.056584 -0.352064 0.476374 -0.171389 -0.625572 -0.281863 -0.106648 0.001423 0.651852 -0.061729 0.204415 -0.074750 -0.104338 0.257053 -0.254055 -0.382979 1.033735 -0.821426 -0.516097 0.282751 -1.607284 -0.319644 0.183437 0.221206 0.704583 0.858260 0.116921 0.713825 1.081927 -0.720317 0.561044 -0.161364
2899 -0.096948 0.248904 -0.836789 -0.136960 -0.155886 -0.160945 -0.285215 -0.094625 0.192625 -0.978710 -0.264138 0.121491 0.019578 0.484559 -0.338362 0.496716 -0.373888 -0.684858 -0.797957 0.053692 0.093288 0.502019 0.116931 0.330261 0.382833 -0.819515 -0.872257 0.818631 0.323438 0.025005 -0.828075 -0.448875 -0.535143 0.704064 0.156140 -1.337698 -0.312247 0.241796 -0.102861 0.130046 0.061225 0.049860 -0.590955 0.728130 0.238151 0.388653 -0.998863 0.174806 -0.635099 0.247146 -0.550385 0.449217 -0.258752 0.320270 -0.279952 -0.601480 -0.807877 0.061238 0.393098 0.624861 0.463341 -0.718545 -0.218662 -0.318596
902 0.026272 1.018807 -1.166206 0.150282 0.149688 -0.108359 0.496119 0.476156 -0.232263 0.028296 0.054237 -0.776589 -0.161929 -0.142359 0.170176 -1.001810 -0.178251 0.090041 -1.204295 -0.232150 -0.910687 -0.611265 0.272844 0.274715 1.357962 -0.161664 1.024806 0.515805 0.293487 0.730735 1.631533 0.023590 -0.228434 -0.572558 -0.205785 -0.121816 0.027684 -0.226965 0.361115 0.550588 0.643458 0.169827 -0.513472 0.557428 0.147785 0.438806 -0.185559 0.105676 -0.398982 -0.946665 -0.354477 -0.598877 -1.578028 0.383081 0.555181 -0.380766 -0.363351 -0.667318 -0.211749 0.468075 -0.878040 0.664293 -0.003368 -1.119816
2866 -0.155240 -0.421279 -0.273551 -0.106602 0.256157 0.052314 -0.252687 0.487017 -0.843796 0.497011 0.132457 0.212013 0.169407 0.790941 0.105779 -0.163081 0.243200 0.385173 0.258932 -0.192408 -0.143145 0.059891 1.230595 -0.195065 0.071335 0.184340 -0.789315 1.267122 1.120636 -0.267898 -0.194045 0.121475 0.046326 -0.116755 0.384486 0.072110 -0.766677 -0.583899 0.158474 0.605922 -0.110225 -0.570613 0.556528 0.036264 0.709768 -0.047874 -0.413129 -0.753491 -0.087866 0.591398 0.286782 -0.375980 -1.214355 0.503374 0.204234 0.777490 0.332199 -0.181716 0.325347 0.262599 0.154111 0.058382 0.675868 -0.501758
962 -0.012989 0.687967 -0.665649 0.465808 0.286552 -0.314803 -0.329876 -0.188524 -0.066661 0.657396 0.461587 -0.051774 -0.956182 0.081003 -0.402607 0.456673 1.168985 0.511486 -0.749703 0.100248 -0.378327 -0.537055 0.278995 0.953980 -0.006520 0.317166 0.687235 0.807785 0.240011 -0.660597 0.033560 -1.075439 -0.264842 -0.603608 -0.193545 -0.472048 -0.733388 0.299395 -0.678530 0.106936 0.987021 0.340987 -0.067747 0.196339 -0.128062 0.821753 0.421581 -0.791328 -0.054922 0.341144 -0.589838 0.093712 0.071497 -0.270925 0.020002 0.792385 -0.238987 0.377286 0.444695 0.528215 0.067812 -0.192645 0.265926 -0.022082
2909 0.309285 0.901001 -0.986458 0.516690 0.519867 -0.752242 -0.734958 0.094001 -0.482597 0.401276 0.332493 -0.514516 -0.138681 -0.308179 0.095627 -0.021805 0.802317 0.856738 -1.120914 -0.278828 -0.468576 -0.819606 0.108573 0.970710 0.435591 0.695933 0.065756 0.689600 0.867951 -0.790099 0.004133 -1.074378 -0.660323 -0.230143 -0.281055 0.016160 -0.440251 0.210702 -1.488402 0.092870 0.752874 0.277478 0.049015 -0.061916 0.184954 0.272027 1.088149 -0.675211 0.142810 0.474359 -0.497387 -0.092068 -0.459710 -0.348671 -0.002868 0.543887 0.656415 -0.114899 0.469295 0.867154 -0.462006 0.425805 0.150261 -0.027073
347 0.320300 0.538422 -0.432464 0.083843 0.781798 -0.041864 0.425217 0.737050 -0.148691 0.870558 0.451956 0.117346 0.521470 -0.268651 0.222615 0.118982 0.055633 0.055428 -0.010902 -0.157642 0.363865 0.434802 0.299117 0.869145 0.506395 0.520060 -0.344497 1.426184 0.146078 -0.187150 -0.331694 -0.517268 -1.078151 0.048602 -0.199245 -0.171501 -0.974430 0.439158 1.301869 0.743198 0.863641 0.922539 0.176691 0.278035 -0.312372 -0.185701 0.187696 0.280407 -0.620036 0.545385 0.177610 -1.170139 -0.600568 -0.510848 0.073473 0.158099 0.137467 -0.246958 0.452307 -0.084011 0.500999 -0.292221 0.125369 -0.177481
254 -0.069418 1.122071 0.123949 -0.251485 0.092119 -0.794767 0.061591 -0.392998 0.076976 -0.344473 0.107851 0.055168 -0.865306 0.931778 -0.963151 -0.192228 0.356961 -0.433276 -0.181885 0.430097 -0.185674 0.343008 -0.045465 0.013943 1.134493 0.170359 -0.273215 -0.049205 0.659370 -0.147542 0.439803 -0.314008 -0.193520 0.051656 0.039963 -0.327918 0.579282 -0.326829 1.169230 0.142650 1.358743 0.032996 -0.067042 -0.125069 -0.299459 0.341973 -0.103199 -0.319478 0.152319 0.072238 -0.952624 -0.603897 0.683580 -0.084491 0.374143 -0.037544 0.536539 -0.598958 0.914647 -0.077647 0.140982 0.094123 0.193816 -0.535960
381 0.745705 -0.205911 0.192550 -0.583758 -0.052735 0.057603 0.200268 0.387264 -0.002597 1.019956 0.376405 0.751218 -0.200725 0.152869 0.454686 0.241792 0.054879 -0.266565 -0.126466 -0.323645 -0.093405 -0.128591 0.167411 1.312931 1.063098 -1.256214 -0.777222 -0.107727 0.960734 -1.455728 -0.247919 0.211843 0.117264 1.025082 0.826472 -0.708768 -0.593623 -0.545226 -0.720209 0.500238 -0.685630 -1.152161 0.084898 0.445664 -0.134052 0.162757 -1.397790 0.346814 0.608964 -0.804099 0.141944 -1.229031 -0.567768 -0.604657 0.380356 -1.001876 -0.040650 0.369178 0.051589 0.107719 0.445448 -0.403230 0.275926 -0.030618
478 0.316497 -0.194603 -0.189618 -0.768188 0.925576 -0.354580 0.376740 0.537732 -0.647415 0.023234 0.691667 -0.656853 0.815575 -0.475495 0.222235 0.104955 0.732988 -0.674098 -0.514768 -0.396312 -0.744938 -0.712961 -0.367298 -0.275108 0.249028 0.098277 -0.127172 0.706504 0.281687 0.130553 0.093810 -0.242850 -1.274825 -0.511535 -0.105804 -1.044957 0.482527 0.072268 0.415228 -1.154332 0.221396 -0.172360 0.441318 -0.030013 -1.436196 -0.250557 -0.264600 -0.141025 -0.337394 -0.610269 -0.249461 0.189966 -0.216289 -0.859164 -0.687282 -0.070569 -0.710603 0.454654 -0.555665 1.011250 1.747286 0.486491 0.308681 0.283435
667 0.818737 -0.388765 0.207836 -0.770856 0.724171 -0.326549 -0.055188 -0.348057 0.641319 0.192145 0.324711 -0.149923 0.141354 0.121477 0.334121 -1.347122 0.803955 0.878972 -1.190853 1.063973 0.114354 0.011995 1.871066 -0.559426 0.608878 0.577063 0.289002 0.429863 -0.043430 -0.477069 -0.578115 -0.297229 0.186866 0.602987 -0.984530 -0.812653 0.098993 0.234842 -1.162980 0.012438 -0.553264 -0.652487 0.186171 0.569611 -0.427894 1.411628 -0.097467 -0.167670 0.703314 -0.747840 0.801202 -0.439622 -0.342521 -0.500421 -0.007002 -0.024296 -0.240661 -0.395198 1.113469 0.075365 1.062263 -0.471948 0.241572 -0.102267
1093 0.108391 -0.044610 0.046128 -0.032033 0.059261 -0.413535 1.041068 -0.222450 0.293731 0.420185 0.759318 -0.027094 -0.500441 -0.081813 0.368036 0.083238 -0.545453 1.194216 -0.981579 -1.084894 0.658795 -0.428776 0.123844 -0.119647 0.003467 0.457450 0.323956 -0.340547 0.953998 -0.437020 0.957641 -0.309297 0.323344 0.185450 -1.048565 -1.139162 -1.342592 0.765348 0.215322 0.100476 1.050454 -0.067759 0.880871 0.484978 -0.742291 0.371168 -0.635347 -0.548520 0.171462 0.954747 -0.126424 -0.709449 -0.058183 0.114872 0.515749 0.123415 0.708510 -0.200061 -0.705208 0.208404 1.439250 0.642342 -0.358638 0.792622
2269 -0.119832 0.051075 -0.416590 0.034003 0.141570 -0.366948 0.174008 0.826055 -0.296466 0.213086 0.664529 0.220676 0.294495 1.277658 -0.189948 0.229584 0.878633 0.085877 -0.418339 -0.378306 0.132053 -0.476505 0.262670 0.020852 0.268495 -0.102868 0.135373 -0.230861 0.396850 -0.314584 0.423193 0.405625 -0.708761 0.491482 0.003945 0.356515 -0.515119 0.663263 -0.592531 0.207383 -0.177282 -0.640768 0.058927 1.071282 -1.458797 0.093373 0.416635 0.159023 -0.417703 -0.096344 -0.236960 0.166396 -0.803747 -0.290126 0.136181 1.150889 0.094474 -0.366085 1.000910 -0.420229 -0.262596 0.664427 1.080664 -0.453345
2186 -0.020227 0.337235 -0.146054 -0.676943 0.499398 -0.075973 -0.533623 1.481303 0.286967 -0.333981 0.330082 -0.476692 -0.654401 0.220024 1.290175 0.011695 0.917755 0.431103 -0.503788 0.704349 -0.771633 1.160724 -0.095522 0.879580 0.758204 1.132329 0.266789 -0.077669 0.317127 -0.914260 0.961845 -0.495255 0.249029 0.268937 -0.852265 -0.062981 -0.459424 -1.424600 -1.139277 0.966278 0.126800 0.561125 -0.221589 -0.739074 0.068640 0.593697 0.132502 -0.347616 -0.379799 0.049555 -0.687369 -0.747571 -1.122764 -0.432228 0.200953 0.092145 0.428176 -0.807025 0.444102 0.471295 0.383603 0.824350 0.110159 1.309661
1879 0.173580 0.544397 -0.263899 -0.116917 0.948552 -0.288076 1.012812 -0.137733 0.410413 0.601850 0.226321 0.336548 -0.392208 0.491355 0.343894 -0.702234 -0.383557 -0.618714 -0.626669 -0.536932 -0.780308 0.061769 -0.155244 -0.550749 0.525078 0.218305 0.328807 -0.364118 0.057854 -0.163504 0.517381 0.697708 -0.674802 0.096615 -0.619418 -0.140664 -0.322772 0.070991 0.284728 0.864201 -0.509064 -0.878089 -0.326416 0.234601 -0.229235 -1.178750 -0.341979 -0.652339 -0.454964 0.143941 0.103133 -0.160755 -0.393472 -0.194258 -0.210736 0.702810 -0.287534 0.379740 -0.121981 0.431695 0.573497 0.810833 0.420200 -0.061717
2192 0.646853 0.489853 -0.115516 -0.631877 0.984828 0.038625 -0.435906 -0.472760 0.262030 0.817798 1.396263 -0.375850 -0.039117 1.396009 0.822247 -0.309791 1.629265 -0.389485 -0.831441 -0.080905 0.488299 1.239627 0.845441 -0.422088 -0.143272 0.241452 -0.075029 -0.296923 0.179974 -0.131350 0.847540 0.520734 -0.802091 -0.708147 -0.022704 -0.492381 -1.227839 0.623170 -0.285300 0.010296 -0.514518 -0.441459 -0.038939 0.665177 0.081789 0.372495 -0.657515 -0.272198 -0.482311 0.385198 -0.116986 -1.608127 -0.170608 -0.442432 0.243688 -0.056405 0.520442 -0.568012 -0.656993 -0.709492 0.377998 -0.438949 0.681306 0.625572
2564 -0.838273 0.689027 -0.660862 -0.270008 -0.042476 0.293125 0.503662 -1.148553 -0.418083 -0.275302 0.042751 -0.257849 -0.964075 0.666528 0.466990 -0.980733 0.472028 -0.722751 -0.650426 -0.161178 0.441519 -0.686561 -0.068787 0.471749 -0.008738 0.116829 -0.137748 0.090988 0.648779 0.258582 0.210961 0.126332 -0.343320 -0.010920 -0.043313 -0.532515 -0.617518 -0.438271 -0.235961 0.165757 0.061139 -0.825788 -0.604702 -0.508091 -0.255627 -0.448992 -0.682378 -0.814827 -0.096901 0.681315 -0.379192 0.148539 -0.712772 0.036323 -0.622353 0.286600 -0.268388 0.795575 -0.025438 0.181010 0.761954 0.554173 0.690319 0.039203
2945 0.795198 0.798701 -0.010371 0.746608 0.358824 -0.023323 0.445429 0.464805 -0.189430 0.489368 -0.722266 -1.107224 0.124491 0.562310 -0.703159 -0.973027 0.352005 -0.193363 -0.780947 0.345562 -0.109606 0.044463 0.557405 0.614798 0.156354 -0.352273 0.455476 0.377351 0.472167 0.187821 1.158355 -0.028436 0.245649 0.014041 -0.725360 -0.799379 0.328843 0.890419 -0.063747 0.058280 -0.439929 0.614534 0.337183 -0.267936 0.248908 0.235275 -0.274149 0.270391 -0.240878 -0.077903 -0.750312 -0.038234 -1.084369 1.255403 -0.002631 0.128850 0.017275 -0.549773 0.831674 0.666722 0.698154 0.010966 -0.499734 0.683870
2183 0.856628 0.794973 0.147240 -0.147798 -0.058558 0.448793 -0.265284 -0.049559 -0.177468 0.187337 0.961336 0.011390 0.350481 0.366349 0.097352 -0.195564 0.552512 0.196138 -0.245162 0.185620 0.550166 -0.473723 -0.438730 0.167396 0.260966 -0.698541 -0.079194 0.407482 0.293855 -0.098632 0.336896 -0.288595 0.053263 0.204645 -1.288041 -0.110630 0.023999 0.272276 -0.046089 -0.291669 -0.116905 0.379685 -0.269005 0.094904 -0.570478 -0.602671 -0.668463 -0.463583 -0.131391 0.266108 -0.058907 -1.183650 -0.221475 -0.901932 -0.617795 -0.873140 -0.538411 -1.009350 0.540160 0.355980 -0.844938 0.010750 0.652025 0.161681
1726 0.199946 1.574376 0.846996 0.323214 0.796112 0.091831 -0.122611 -0.089903 0.327063 -0.267170 -0.735606 0.081807 0.444351 0.940795 0.562097 -0.795136 1.085887 -0.089353 -1.448791 0.375401 -0.415738 -1.100368 -0.063010 0.752918 0.470066 0.061262 0.417389 0.355323 -1.028807 -0.900882 -0.605185 0.043812 -0.300376 -0.176682 0.543976 -0.125186 -0.753713 -0.069643 0.282602 -0.283890 -0.383057 -0.289112 0.985928 0.316577 -0.439753 -0.103981 -2.275497 0.360551 -0.411671 -0.730711 -0.918849 -0.141444 -0.621067 -0.040814 0.026867 0.245101 -0.059042 -0.218067 -0.677091 0.896678 0.049433 -0.319589 0.452043 0.151142
155 0.825230 -0.236742 -0.801053 -0.852694 0.703380 0.517168 -0.926572 0.272502 -0.227657 -0.291286 0.492662 1.252700 -0.227738 0.321499 1.514221 0.021173 -0.150223 0.344208 -0.291400 0.253731 0.190213 0.651151 0.222842 0.112742 0.561368 1.050905 0.009055 0.506364 0.699030 -0.863897 0.149574 0.202039 -0.465846 -0.523310 0.179503 -0.447750 0.163643 -0.336637 -0.769934 -0.234548 -0.098810 -0.172497 0.075990 0.401313 -0.576099 -0.198461 -1.149779 -1.133849 -1.348220 0.788487 0.376102 -0.017473 0.526181 0.645923 -0.273468 -0.428008 0.864508 -0.043195 0.148476 -0.571989 -0.087263 -0.173499 0.256458 -0.388752
118 0.217017 1.019686 -0.949678 -0.029651 0.284628 0.273080 0.338800 -0.304297 0.393061 -0.590514 -0.049427 -0.229954 -0.351012 -0.502704 0.329263 0.396584 0.867849 -0.798045 -0.543734 -0.436213 -0.282240 -0.511364 0.837362 0.279741 1.255751 -0.347101 -0.635823 1.040246 0.491051 -0.160024 0.054044 0.506519 -0.913371 -0.763515 0.784463 -0.763981 0.224086 -1.063997 0.442034 0.702774 -0.671863 -0.652498 -0.304233 0.871400 1.015712 0.245066 -0.246608 -1.035387 -0.653323 -0.368210 -0.567930 0.432752 -0.630281 0.609388 0.278332 0.255088 0.114234 0.021461 0.188213 0.361160 0.483590 -0.004931 -1.571248 1.738257
2379 -0.415785 0.023474 -1.115904 -0.644226 1.351377 -0.063621 -0.588528 0.541087 0.245075 -0.080641 -1.076024 0.713786 0.086193 0.407957 1.326655 0.175860 0.133934 0.096087 -1.150873 -0.240758 -0.207697 0.191021 0.641812 0.403910 -0.944583 -0.130358 0.403382 0.181997 1.317164 0.156081 0.086927 1.137199 -0.245036 0.935006 -0.387867 -1.452634 -0.089720 -0.624630 0.911175 -0.363578 -0.209273 -0.591163 0.069468 0.518767 0.519855 0.295402 -0.212331 -1.236607 0.109252 0.280581 -0.116645 -0.150472 -0.963233 0.380429 -0.501329 -0.473663 -0.004735 0.149088 -0.015049 -0.272271 -0.478106 -0.157834 0.048875 -0.152533
517 0.337018 0.755117 -0.070048 0.663518 0.684172 0.480021 0.104778 0.375472 0.225983 0.149884 -0.302891 1.166622 -1.308403 -0.132051 -0.371443 -0.042652 -0.487162 -0.314578 -0.210387 -0.098818 0.131367 0.329224 -0.039116 -0.261644 0.544554 -0.042819 -0.384396 0.808741 0.042043 -0.036714 0.103187 0.400478 -0.535023 -0.138909 -0.191262 -0.568750 -0.069510 0.045739 0.076427 -0.270415 -0.953052 -0.619486 0.101011 0.628729 0.143433 -0.121601 -0.447116 -1.027193 -0.214208 -0.226849 0.103858 -0.502633 -1.081580 0.162396 0.071807 0.021029 -0.920919 0.090059 0.388533 0.213549 0.141223 0.234970 -0.736798 0.391996
742 0.808376 1.030142 0.447156 -0.290980 -0.555662 0.473561 0.166929 0.222678 -0.958191 -0.306389 -0.012776 0.454059 -0.094785 0.686496 0.758346 0.430256 0.168993 -0.624801 -0.082271 0.020197 -0.148259 -1.141092 0.808555 -0.975529 0.606951 0.106319 0.870113 0.926524 0.258150 0.188658 0.193897 0.049937 -0.032151 -0.129005 -0.177333 -0.442734 -0.699073 0.030077 -0.017472 -0.426599 -0.585393 -0.495420 -0.097552 -0.045891 -0.047478 -0.625236 0.373192 -0.395022 -0.489425 -0.000603 -0.433898 0.167435 0.027985 -0.028692 0.450042 -1.238465 0.673450 0.009733 0.271002 -0.028197 0.877478 0.218340 1.514301 0.565222
1585 0.685669 0.113290 0.146206 -0.234561 0.130135 -0.282723 -0.118637 -0.813757 -0.089853 -0.149298 0.013796 0.101422 0.340590 -0.736224 -0.550358 -0.171735 0.351343 0.442100 -0.417933 0.617844 -0.786279 -0.481852 1.358966 -0.402038 0.311375 -0.238633 -0.877133 0.501801 0.630738 -0.096163 -0.579521 0.496356 0.338895 0.802474 -0.130793 -0.503701 0.693278 0.602279 -0.728154 0.363447 0.483534 -1.152555 0.435620 0.094128 0.233457 0.807451 -0.468259 -0.860319 -0.321618 -0.245774 -0.050517 -0.488550 -0.997876 -0.888225 0.501237 0.713971 -0.592796 -0.599736 0.044768 -0.741980 0.525213 -0.062812 -0.385083 0.824628
2826 -0.006826 1.088379 -0.717012 -0.739101 0.358231 0.212686 0.404974 -0.345772 0.266317 -0.283677 0.179233 0.614693 -0.033779 0.363642 -0.277924 -0.593106 -0.085855 0.199390 -0.273006 -0.486786 -0.538704 -0.446924 -0.347064 0.533639 0.024132 -0.072355 -0.925213 0.078677 0.507102 0.611751 -0.011950 -0.569124 -0.059243 -0.596889 -0.198291 -0.702586 0.422575 -0.465762 0.146209 -0.079965 0.420054 0.030922 0.169338 -0.025508 -0.286116 0.004766 0.464432 -0.618984 0.368612 0.169651 -0.273349 -0.197279 -0.532577 -0.734707 0.111027 0.219895 -0.409511 -0.547254 0.222096 0.207516 0.374775 0.071263 -0.174265 0.182825
819 0.878607 0.080259 0.169167 0.400220 0.010808 0.510478 -0.451080 -0.463536 0.485455 -0.180450 -0.025096 -0.554023 0.428473 0.413868 -1.219786 1.145135 -0.545808 -0.126535 -0.858721 -0.500374 0.088036 -0.655977 1.018959 0.986737 0.042088 -0.301605 0.448120 -0.967709 0.089036 -0.263552 -0.290390 -0.278807 -0.357295 0.487252 -0.939939 -0.143217 -0.366358 -1.104929 0.506892 -0.880295 0.822026 -0.155660 1.341157 0.250358 -0.054249 -0.459403 -0.077788 -0.368347 -0.702119 0.024455 -0.556558 -0.667291 -0.609487 -0.453372 0.038079 0.187293 0.122939 0.586858 0.296135 0.494786 0.096790 0.287864 0.617365 -0.072368
1449 0.697349 0.333907 0.299656 -0.966866 0.644974 -0.634952 -0.296401 -0.008602 -0.234798 0.249596 0.250401 -0.428734 -0.173957 -0.491439 -0.320777 -0.184054 -0.838135 -0.467217 -0.371779 0.184863 -0.718861 0.644435 0.887151 0.522488 0.807876 -0.221396 -0.138303 0.203305 0.726781 -0.884724 -0.534290 -0.364885 -0.841417 0.402114 0.580012 0.190766 -0.593511 -0.237559 -1.284754 0.037552 -0.368141 -0.692084 1.138561 0.707625 0.177827 -0.496354 -1.193891 0.483182 -0.048259 0.298983 0.295024 0.330821 0.161627 -0.469453 0.662363 -0.475978 -0.156037 -0.105524 0.381863 0.466788 0.977142 -0.496015 -0.143806 -0.694229
257 -0.004559 1.120916 -0.199391 0.839796 0.748225 -0.405705 0.182596 -0.267323 0.481247 -0.134080 0.139365 0.514495 -0.585616 0.313036 -0.051724 -0.172703 -0.095073 -0.148552 -0.320268 0.095567 1.120070 -0.179264 1.205616 0.156351 0.238245 -0.318657 -0.585609 0.597474 0.962137 0.077125 -0.056477 0.008772 -1.129013 0.041477 0.549096 -1.567325 -0.502497 -0.329249 -0.293845 -0.038821 -0.228746 -0.480609 -0.028966 0.721451 0.664925 0.900495 -0.348164 -0.218316 -0.176721 -0.076101 -0.144969 0.822311 0.027966 -0.290922 0.154583 -0.159491 -0.648801 0.215563 0.581030 0.107015 0.392546 -0.520217 -0.432341 0.456398
1340 0.813335 1.361733 -0.436136 -0.635365 -0.151013 0.337984 -0.459222 0.622730 0.594871 -0.317331 -0.968813 -0.483719 -0.487725 0.271717 -0.053038 0.460092 -0.164778 -0.330866 -0.362300 0.485426 -0.378135 0.967947 0.647211 0.255006 0.318190 -0.185140 -0.453738 -0.097592 0.713035 0.387167 -0.593459 0.275403 -0.625988 0.007756 0.043537 0.268707 -1.161761 -0.329309 0.013760 0.263041 0.452981 -0.069568 1.299156 -0.755278 -0.253920 0.197355 0.051099 -0.616147 -0.135982 -0.633690 -1.459329 -1.700557 0.055317 0.231463 -0.433821 -0.637901 0.364153 -1.212859 0.623779 -0.197479 0.864851 0.506370 0.675407 0.600016
2730 0.911077 1.318750 -0.727867 -0.925647 -0.120567 -0.085501 -0.676112 -0.596663 -0.931531 -0.428812 -0.057089 0.452967 0.421355 -0.446047 -0.617339 -0.377159 -0.522986 -0.340249 -0.198488 -0.237698 -0.756457 -0.220063 0.739910 -0.290610 0.098189 0.381507 0.234268 0.648894 0.436140 -0.519673 0.561962 -0.584846 0.634905 -0.164629 -0.258875 -0.390468 0.051614 0.512159 -0.648608 0.280674 -0.012637 -0.109209 0.608367 0.693310 0.298774 -0.229393 -0.750182 -0.015365 -0.721209 0.176777 0.635626 -0.768976 0.010323 -0.467366 0.305956 0.055379 -0.597352 -0.965934 0.544162 -0.588570 -0.057809 -0.141021 0.115029 0.142866
1087 0.140966 0.614447 0.384510 -0.916387 -0.374135 0.174054 0.080631 0.176760 0.515554 -0.052204 0.571551 0.228152 0.150655 0.330826 -0.018085 0.000627 0.369048 0.401295 -0.102428 0.592006 -0.147659 -0.873049 0.785451 -0.445782 -0.196960 -0.016017 0.197439 -0.316102 0.437081 -0.892506 0.369462 0.169807 -0.503562 -0.057879 0.315301 -0.421497 -0.072741 -0.372476 -0.483170 0.000190 0.749858 0.217570 -0.391589 -0.345657 -0.589081 -0.752109 -0.205390 -0.826052 -0.786530 0.024440 0.038564 0.076577 0.266006 -0.299133 0.233091 -0.872425 0.193381 0.640003 0.547804 0.596512 1.108835 0.388959 0.084513 -0.061097
2617 0.422579 0.097345 -0.904546 0.836077 0.660686 -0.518745 0.193105 -0.107002 0.424506 -0.768451 0.953613 0.313659 0.785818 1.189801 0.023384 0.658994 -0.588604 0.062155 -0.155667 -0.353390 -0.827350 0.401297 0.242417 -0.136050 0.276151 -0.299377 0.624647 -0.223598 0.512768 0.446278 0.438416 1.337565 -1.203406 0.428487 0.225375 -0.533422 0.762098 -0.480226 0.195085 0.522365 0.820958 0.262346 -0.235028 0.618774 0.128117 0.347768 -0.373774 -0.568229 0.313053 0.524918 -0.375203 -0.124189 -0.283779 0.835296 0.182052 0.346676 -1.384565 -0.440836 0.548854 1.137524 0.506392 -0.824986 0.538207 0.482999
1758 0.713836 1.151912 0.445595 0.653808 0.503875 -0.247864 -1.102293 -0.176977 -1.163505 0.123458 0.081446 1.076362 0.448668 0.950271 0.442935 -0.334544 0.265852 -0.014127 0.233555 0.272382 0.411140 -0.093637 0.561403 1.167462 -1.049294 -0.451260 0.370900 0.609273 2.154138 0.077034 0.853246 0.968138 -0.942988 1.048307 0.369475 0.312635 0.023582 -0.073451 0.678627 -0.319367 1.301900 -0.010643 0.067688 -0.251378 -0.840954 -1.375709 -0.041446 -0.185643 -0.022632 0.387164 -0.675548 -0.011416 -0.314686 0.853820 -0.059402 0.256525 0.338491 -0.180489 0.369585 0.339914 0.839398 -0.982706 0.428476 0.842431
881 -0.042092 0.174895 -0.832337 -0.664015 0.403104 0.098034 -0.027045 0.908507 -0.011795 0.077846 -0.630957 0.650541 0.051354 0.297317 1.084055 0.577827 0.006547 0.165567 -0.439388 -0.708329 -0.588184 0.447301 0.510747 0.397760 -0.453446 -0.459836 0.257384 0.381089 1.190100 -0.380305 0.555880 0.530245 -0.714119 0.840002 -1.108079 -1.876293 0.052300 -0.394206 0.712111 0.093802 -0.355228 -0.922969 -0.525490 0.388042 0.545961 0.532424 -0.563544 -0.746413 0.278456 0.008965 -0.026736 -0.519892 -0.369840 0.109781 -0.621864 -0.472324 0.005687 0.063522 -0.246983 -0.025856 -0.220140 0.689181 -0.607571 -0.640924
1130 -0.037692 0.768305 -0.225301 0.017633 -0.304326 0.569698 0.438398 0.080429 0.136647 -0.249103 -0.418516 0.484281 0.307024 0.164617 0.643386 -0.763378 -0.001876 -0.366821 -0.525084 -0.958816 -0.045241 0.327627 0.636684 0.841485 0.286926 0.746834 1.583911 0.088524 0.356022 0.262286 0.113798 -0.128804 -0.954404 1.006753 -0.298111 -0.033513 0.685963 0.827687 -0.111510 0.651884 0.942671 -0.089151 0.340038 0.042101 0.056768 0.286682 0.056938 -1.082733 -0.683187 -0.182324 -0.238754 -0.001126 0.213986 0.737760 -0.395456 -0.111420 0.485841 0.363927 0.425530 0.295361 0.239223 -0.508516 -0.060888 0.056806
2460 -0.569843 1.235253 -0.202887 0.514874 -0.210949 -0.081523 -0.618148 0.348850 -0.209349 0.044169 -0.407605 -0.146350 0.173506 0.468849 -0.329336 0.774031 1.191336 1.148624 -0.426068 1.037894 -0.354019 0.214449 0.094870 -0.005771 0.812996 0.979214 0.608339 0.091383 0.403932 -0.666514 0.502156 -0.585203 -0.760519 -0.152280 -0.357504 -0.197481 0.258348 0.188587 0.386233 -0.457896 0.712827 -0.129843 -0.118626 0.020860 0.594511 0.542878 1.163464 -1.243035 -0.737572 0.516697 0.134274 -0.066786 -0.554747 0.209935 -0.144627 -0.591201 -0.176749 -0.471377 0.236242 0.494623 0.811365 0.039446 -0.018709 0.863458
3049 -0.612710 0.561988 -0.172270 0.232919 0.053317 0.349428 -0.742719 0.668845 -0.523302 -0.349058 -0.027392 0.682796 0.234224 0.335266 0.470389 1.398329 0.386947 -0.066740 -0.617895 0.626976 -0.396317 -1.129466 -0.143679 0.306629 -0.041349 0.299531 0.690415 1.046456 1.075942 -0.106275 -0.216414 0.474129 0.443907 1.568546 -0.203497 -0.593348 -0.886050 0.419058 -0.138499 -0.431561 -0.745413 -0.224000 0.463605 -0.078462 -0.846508 0.322449 -0.069388 -0.283846 0.612636 -0.131166 0.413358 0.695022 -0.929220 -0.434378 0.176322 0.980238 0.278253 -0.116695 1.152639 0.249943 0.800788 1.059628 1.050226 -0.816183
2651 0.044660 0.151208 -0.047953 -0.315257 0.826732 -0.155500 0.708876 0.197445 -0.589358 -0.648991 1.146106 0.281340 -0.074304 0.082540 0.013661 0.174670 0.359134 -0.056382 -0.124394 -0.146854 -0.546862 0.474637 0.150267 0.866491 0.571798 0.541122 0.544883 0.041951 0.106977 -0.827268 -0.059888 0.270326 0.236252 -0.029450 -0.245435 -0.412437 0.146699 -0.508906 0.438547 0.110202 0.226823 -0.497465 0.134815 -0.435626 -0.483589 -0.445701 0.170141 -0.247805 0.140684 0.037267 -0.470136 -0.166027 -0.061328 -0.822876 -0.823508 -0.199263 -1.003704 0.277786 0.806417 -0.032929 0.597745 -0.004878 -0.403732 0.171330
2842 -0.341366 0.159065 0.714645 -0.150623 0.972690 0.512038 0.484010 0.688738 0.545717 -0.372262 0.174927 0.398262 -0.857701 0.395963 0.831691 0.406628 0.498054 -0.457391 -0.051100 0.569266 -0.591191 1.019426 0.524545 0.763212 0.983234 0.455645 0.247494 0.215435 0.211717 -1.001229 0.201840 0.459748 0.026394 0.330512 -0.925472 -0.055383 -0.577882 -0.824436 -0.643145 0.503954 0.199753 -0.088611 -0.082579 -0.195175 -0.130608 0.485263 0.085002 0.721065 -0.559774 0.054172 -0.159754 -0.966173 -0.783221 -0.299027 0.484410 -0.199307 0.397081 -0.780419 1.655746 0.735868 0.588695 0.563427 -0.613265 0.410205
2886 -0.845979 0.312244 -0.262335 0.054664 0.692456 0.282460 0.133194 -0.496772 -0.226768 -0.395863 0.312848 0.494436 -0.612944 0.303839 -0.800921 0.094936 0.066966 -0.665841 -1.057554 0.005230 -0.923550 0.374164 0.123517 1.044824 0.201087 -0.064364 0.501648 0.243164 0.210398 0.198519 -0.243447 0.275983 0.159603 0.700003 -0.143894 0.298651 -0.152943 0.282727 -0.265831 0.726098 0.441264 -0.316446 0.742683 -0.520652 0.359539 -0.330607 0.012622 -0.012144 -0.321877 0.142690 -0.475653 -0.084755 -0.188623 -0.553250 0.317637 -0.236714 0.444960 -0.145822 0.955893 0.509147 0.393121 0.370762 -0.023449 -0.255056
1638 -0.908707 1.543001 -0.436490 1.040438 -0.264415 0.159137 -0.986643 0.264834 0.226925 0.611661 0.502528 -0.138115 -1.096840 0.335785 -0.454039 1.013528 2.132695 1.050676 -0.610099 0.601509 -1.168855 -0.142377 0.296610 0.512884 0.817297 0.861839 0.676619 0.491357 0.191923 -0.775771 0.066374 -0.564953 -0.460336 -0.818288 -0.341527 -1.220419 -0.327841 0.278293 0.133152 -0.338051 1.477488 -0.133952 0.072380 0.222711 0.364699 1.470586 0.476065 -1.096321 -0.815425 0.363709 -0.305278 -0.650592 0.019719 0.283152 0.006079 0.330228 -0.567729 0.030485 0.414115 0.494446 0.217710 -0.322853 0.106224 0.770199
895 0.403000 0.785225 -0.287509 0.018745 0.527839 -0.332784 0.720116 0.346586 0.261049 -0.647759 0.722994 -0.081548 -0.023283 0.278609 -0.320776 -0.032171 0.110878 -0.134804 0.198558 0.316449 -0.233700 0.565513 -0.244115 -0.148133 -0.079012 -0.070687 0.168225 -0.046931 1.058430 -0.663925 -0.025496 0.244783 0.250557 -0.200560 0.073526 -0.472832 0.793711 -0.448763 0.320102 0.618815 1.036938 -0.392822 -0.237686 0.347108 -1.165745 -0.134027 -0.018127 -0.481630 0.128821 0.684974 -0.345419 -0.309898 -0.057734 -0.600033 -0.175224 -0.209350 -0.424679 -0.081626 0.197279 0.243886 0.196335 0.043163 0.395551 0.203041
2543 0.556669 0.583856 -0.247179 -1.033167 0.348847 0.460825 -0.860865 -0.687519 -0.085002 -0.346070 0.432575 0.460631 0.411187 0.201295 -0.478745 -0.445387 -0.141610 0.316962 0.332860 0.188146 0.160965 0.206163 0.515235 0.258943 0.787162 0.080132 0.630765 1.083634 -0.176575 -0.070160 0.252483 -0.844442 0.487254 1.015198 -0.595739 -0.588159 0.190719 -0.118768 -0.082114 -0.138512 -0.707948 0.446602 0.128790 0.428710 -1.080358 0.662446 0.811621 -0.356410 -0.708650 0.030539 -0.089911 0.536851 -0.271718 0.611199 0.233307 0.634595 -0.026812 -0.067248 0.470265 0.440819 -0.128843 0.688428 0.934370 0.100274
1517 0.718950 0.437461 -0.173408 -0.190513 0.724369 -0.458656 0.425453 0.416895 0.280911 -0.248435 -0.007315 0.467456 -0.892139 -0.453143 -0.316994 -0.544040 0.233819 -0.877086 -0.563328 -0.615222 0.005308 0.829172 0.650531 0.343094 0.146033 0.343358 -0.314352 -0.281515 1.111811 -0.319500 -0.183856 0.534367 0.609123 0.932692 -0.205345 -0.155361 -0.203164 -0.133496 0.582137 -0.442864 0.920709 -0.698406 -0.046555 0.426184 -0.210206 -0.281684 0.015224 0.253793 -0.301758 0.303074 -0.832315 -0.316645 0.610832 -0.301044 0.430365 -0.351732 -0.966071 -0.051942 -0.256174 0.032846 0.285297 -0.223301 0.388547 0.078600
1064 -0.100121 1.385838 0.095700 -0.285707 0.494344 0.679757 0.144233 0.865143 0.136738 0.427985 0.534574 -0.022203 0.722888 -0.242769 -0.275391 0.326699 -0.523762 -0.547782 0.079092 0.277132 0.878240 0.573783 -0.036701 0.064021 -0.453669 0.637864 0.386053 1.144814 0.795661 0.592521 0.032389 -0.241568 -1.153571 0.484780 -0.119426 -0.065940 -0.409003 -0.166740 0.441507 0.148659 1.349588 -0.015913 -0.132682 0.326106 0.018173 -0.497194 -0.493487 -0.716195 -0.145432 0.407271 -0.269922 -0.527210 -0.768874 -0.308599 0.323068 0.183302 -0.534158 -0.399892 0.879018 -0.294867 0.212482 -0.256600 -0.007578 0.046300
