3327 64
1422 -0.49765265 0.32542357 -0.051635914 -0.2317384 -0.1835076 -0.066329345 -0.5917337 -0.20569018 -0.24021718 -0.59856206 -0.05024531 0.16248967 0.2694204 0.05903036 -0.90194166 0.20621261 -0.022160942 0.6236285 0.4653612 -0.10928876 -0.012053083 0.3727923 -0.10150451 -0.017131155 0.05806707 0.23783445 0.27604294 0.2850059 -0.5440023 -0.004628424 -0.27351832 -0.60910857 0.5204836 0.21292803 -0.12989828 0.03403539 -0.33922064 -0.06374286 -0.31184322 0.09596263 0.10254677 -0.3622425 0.640111 0.3303674 0.37938166 0.09236406 0.18724565 -0.18629387 -0.09726692 0.33920345 0.33582625 0.5330924 -0.54626536 0.0048671784 -0.39386806 0.058761917 0.29032946 0.23830757 -0.0066595543 0.49402744 -0.25706908 0.053484343 0.285783 0.38405272
582 0.7365666 -0.17101482 0.014125594 0.24438073 0.80626297 0.526586 0.14184336 0.29182065 -0.4478226 0.2084382 0.20068222 0.11770174 0.33339238 -0.68474495 -0.36677253 0.2791532 -0.7331926 -0.2566937 0.43474984 -0.78434694 0.5245515 0.23017761 -0.21517542 -0.6714657 0.42391205 0.2774937 0.325766 0.25218332 -0.31690028 0.49334136 0.33921918 -0.09521245 0.44663194 0.43881914 -0.19690259 -0.43853748 -0.3117803 -0.019447489 0.34936273 -0.124532595 0.38539276 -0.16143338 0.93066907 0.035247386 -0.0600434 -0.055232167 0.26198804 0.43357283 -0.10060572 0.06356185 0.06893029 0.2096004 -0.16063747 -0.5416709 0.71641815 -0.08317114 -0.22107962 0.5045331 -0.024384048 -0.3633596 -0.48595288 0.6533972 -0.3267977 -0.32205868
1214 -0.40699878 0.47755685 -0.29081935 0.079863094 0.14374946 -0.014330272 -0.66240424 -0.7020329 -0.60651594 -0.40883958 0.40406233 -0.27650324 0.2041645 -0.03021549 -0.5578049 0.23696639 0.21511126 0.48241448 0.22512817 -0.6092473 0.058658574 0.6220836 0.120288715 0.18740213 0.16606544 0.5382215 0.1542151 0.011601847 -0.2146055 -0.115027525 0.030711563 -0.4746437 0.37105435 0.043385684 -0.2911306 -0.048283286 -0.13567063 0.26978737 -0.53591126 -0.079840586 0.009374797 0.12152398 0.82238233 0.34196326 0.35042036 0.25556418 -0.08366243 -0.2998892 0.48721224 0.32190597 0.9129822 0.6745796 -0.35410574 0.014683902 -0.44408426 -0.22093144 0.6222721 -0.009319207 -0.067343816 0.31687248 -0.36396486 0.46572942 -0.09793304 0.42600536
2782 -0.2886512 0.56713015 -0.31110328 0.0338039 -0.10968641 0.046249215 -0.61992747 -0.51460385 -0.35455948 -0.5131583 0.19393164 -0.10029884 0.10699103 0.045400236 -0.48593953 0.22898251 0.19992456 0.81204164 0.16250284 -0.61899394 -0.09895757 0.8123257 0.079567105 0.16934471 0.18280132 0.42700318 0.2064485 0.33954063 -0.08269255 -0.10515743 -0.13623512 -0.48363647 0.760565 0.28092915 -0.36794826 -0.106635235 -0.053485993 0.07177573 -0.362667 -0.053514495 0.05421198 0.03015486 0.6121362 0.33267903 0.1541913 0.40809554 -0.12539014 -0.11080731 0.44239303 0.23928785 0.6879177 0.64541024 -0.42815968 0.15496425 -0.5082171 -0.22609511 0.53707796 0.19040866 0.1943097 0.51601535 -0.461539 0.33658475 -0.094069704 0.16617762
1625 0.45927244 0.40347835 -0.07299006 0.31569788 -0.24876717 -0.32154855 0.059537113 -0.32648245 0.42693275 -0.56246686 -0.18710448 -0.3612324 0.30470806 0.39932668 -0.4279355 0.2139472 -0.034521747 0.5133842 0.49001852 -0.5113808 0.4000682 0.31003147 0.45748565 -0.14298348 -0.46675378 -0.092829995 0.015173099 0.012419529 -0.31830654 0.8368976 -0.5691551 -0.76821107 0.1415797 0.47097912 0.04103296 -0.021892946 0.03317178 -0.11799654 -0.15369648 -0.21643674 0.36751273 -0.31535897 0.5994464 0.1173324 -0.12787655 0.14646667 0.17496142 0.13248293 -0.4563636 0.07504275 0.6110616 0.057923272 0.049002234 0.06766018 -1.0961816 -0.2082217 -0.34244224 -0.03464907 0.42840016 0.095793925 -0.35083365 0.38945317 -0.37348998 0.4501987
1620 0.7356679 -0.07709034 0.5834915 0.4603793 -0.34463137 0.58684176 1.0364791 0.069977045 -0.682777 -0.22484541 -0.42337763 0.036140274 -0.016161712 -0.5986963 -0.4896475 0.5877524 -0.073650174 -0.30322385 0.6032128 -0.4029702 -0.6268466 -0.27429202 0.30885535 -0.3899876 0.096245795 0.100079395 0.3939025 0.04475907 0.011163453 0.30879447 -0.6133422 -0.79910433 -0.026419528 0.77696973 -0.20965755 -0.24108532 0.17773917 0.08048207 -0.25267363 -0.19561389 -0.12625733 -0.5421422 0.52695036 0.37625945 -0.13084868 -0.070042394 0.0238667 0.097678535 -0.06468096 0.098552525 0.259639 0.30970827 -0.55817705 -0.89582825 0.19309014 -0.26195356 0.5452089 0.15570386 -0.194768 -1.2212616 -0.29625776 0.3047918 -0.10724699 -0.5663842
3193 0.31224227 1.1415105 -0.5208845 0.929896 0.08587069 -0.01795876 0.48671123 0.6310464 -0.46207103 -0.25434408 0.055895276 0.58070385 -0.84158343 -0.18496369 0.3631223 0.30510458 -0.71256286 0.45492837 -0.53483415 -0.101593465 -0.97218114 -0.09807701 -0.5243078 0.007952269 0.16117841 0.30843663 0.39542884 0.03196784 -0.6440016 0.1002136 0.25281855 -0.38058022 -0.0306376 -0.17515166 0.5512098 -0.8768967 -0.009172517 0.3507364 -0.11329358 0.12271907 -0.14674751 -0.13289677 0.9487392 0.28855065 1.2477498 -0.36400384 0.1542264 0.535353 -0.8978506 -0.14901766 0.58265066 0.32442304 -0.12837046 0.030496156 -0.72123945 -0.9293383 0.2541904 -0.7384614 1.414181 -0.053581644 -1.1181868 -0.4688598 -0.25556478 -1.0780277
541 0.7983666 0.32463354 0.24203528 0.5770461 0.535555 0.28695342 0.7547548 -0.0113988705 -1.1211159 -0.31074572 0.24326278 0.42750776 0.13950172 -1.0358613 -0.28431714 0.5395265 -0.51803076 -0.09300973 0.72143245 -0.56859446 -0.63547784 0.19154711 0.10730298 0.16882628 0.7627949 -0.6435078 0.10568798 0.08497062 -0.29243207 1.221511 -0.11311341 -0.66910607 -0.29076844 0.024775157 -0.4691283 -0.41399062 0.65879375 0.11639283 -0.7890436 0.2961134 0.17982611 -0.24917673 0.9029768 -0.847631 -0.08071731 0.13799165 -0.19083579 -0.15999179 0.20757833 1.0126972 0.002764712 0.28557885 0.034469165 -0.33324704 -0.007249621 0.02351191 0.12658714 -0.090481035 0.051778752 -0.81081605 -0.50441635 -0.15052621 0.3792881 -0.11353589
755 -0.45952567 0.06615064 0.002491362 0.22659214 0.12691575 -0.29327542 -0.16459759 -0.22957288 -0.12247689 -0.5290488 -0.04995282 -0.6436458 -0.03750143 0.39053333 -0.5666403 0.47917295 0.04932242 0.68213826 0.18420081 -0.4198886 -0.30928928 0.51997197 -0.51992166 0.24204111 0.23493217 0.56390905 0.20766808 -0.067015216 0.09648367 0.33720553 -0.0824898 -0.38662687 0.37158784 0.17474273 -0.2946353 0.31282288 0.08678377 0.064453 -0.20486334 -0.2693332 0.19951208 -0.24691282 0.3190012 0.24888757 -0.26599535 0.73739827 0.42300764 0.21424608 0.10544332 0.6968897 0.29510844 0.7148406 -0.30193645 0.25401154 -0.35663983 -0.37697828 0.4364164 0.3562843 0.47615492 0.45423177 -0.31148085 0.24420531 0.35958886 0.29183337
1943 -0.61571425 -0.008162268 -0.28171238 -0.29398492 -0.32613605 -0.25969148 -0.7220741 -0.18509737 -0.2526695 -0.9627401 -0.018966543 -0.27943462 -0.37864056 0.31059968 -0.70230645 0.56862146 -0.1690155 0.5078002 0.37766123 -0.38294387 -0.34264833 0.21560673 0.27084568 -0.04988205 0.3262299 0.25617835 0.39872622 -0.23413241 -0.8759999 0.20821755 -0.010215057 -0.6000009 0.6210723 -0.23038349 -0.21142964 -0.14938898 -0.09967119 -0.124936834 -0.43631855 -0.14489688 -0.24462952 0.08136881 0.860682 0.022951731 0.16780882 0.27387244 0.09586263 -0.23236737 -0.076914944 0.074741 0.7301928 0.89921325 -0.2537676 0.20054911 -0.243712 -0.29673386 0.118017375 0.17630425 0.25843635 0.055372123 -0.43420625 0.0461357 -0.16484372 0.34378454
968 -0.21244717 0.21039961 -0.27766123 -0.19094215 -0.049842376 -0.46091095 -0.39635304 -0.66574067 0.0021608796 -0.54869896 -0.05328225 -0.1514749 -0.29131916 0.05220003 -0.28819793 0.30401847 0.512867 0.42654353 0.16935241 -0.19856547 0.041026108 0.23107028 0.35848686 -0.058479328 0.21727492 0.10531487 0.5597044 -0.3124655 -0.46095076 0.28582186 0.115690604 -0.93605804 0.60998815 0.22706722 -0.17481123 -0.082062505 0.2911196 -0.1955846 -0.32722318 -0.309476 -0.10489336 -0.065998 0.52333426 0.1925005 -0.11401599 0.12105444 0.075792715 -0.089593545 0.19556251 -0.036858343 0.6957748 0.53209007 -0.5137518 -0.0997342 -0.6526652 -0.24540216 0.13735971 0.4260793 0.61444485 0.20470896 -0.110244334 -0.06927138 0.13174619 0.05031984
468 -0.0067391954 0.32617807 -0.31870311 -0.61591256 -0.028357716 -0.16884959 0.40509564 -0.65716195 0.37741965 -0.426355 0.011714075 -0.2580918 -0.5039615 -0.23714933 -0.4220962 0.2793952 0.3329913 -0.03840633 0.30819947 -0.49893206 0.16401796 0.35663325 -0.18238966 0.51040393 0.111453496 0.20516217 0.5637279 0.40119755 -0.62893236 0.48001596 -0.25749013 -0.73844445 0.1321745 -0.088385016 0.19206652 -0.17961594 0.1892058 0.08668886 -0.2652152 -0.38220212 0.36232397 -0.71366364 0.3276525 0.5056976 -0.45200598 0.29349685 -0.15499172 0.48236665 -0.15642193 -0.2741056 0.6025752 0.34756535 0.04648713 -0.46889165 -0.68089205 -0.7349293 0.19144116 0.31238866 0.68676364 0.22056565 0.106524155 0.23767501 0.8275264 0.1757468
83 0.46316153 0.021173561 -0.26270494 0.47675985 -0.020054083 0.04011372 0.6097928 0.88721555 0.9303426 -0.5580044 0.68727857 0.016250104 0.37315398 -0.71411276 -0.20136043 0.26355898 -0.050162002 -0.06456859 0.65255976 -1.2101997 0.11538752 -0.4068255 -0.23308283 -0.7720745 0.7515439 0.6941604 0.22622791 0.026772598 -0.7058231 0.5025706 0.5820733 -0.2984828 0.085332744 -0.031026628 -0.6777641 -0.353726 -0.71468246 0.33208713 -0.0901311 0.79588956 0.3506538 0.0013646698 1.1219026 -0.77985626 -0.25940064 0.15300256 -0.046576392 0.39569435 0.64488906 0.0477246 0.39641815 -0.4019553 -0.8116157 -0.1579726 0.014334686 -0.8149467 0.4776846 0.029436577 -0.26315853 -0.29207408 -0.488422 -0.1085051 0.16242075 -0.7343377
2646 1.1423563 0.45047015 0.063231274 0.28044924 -0.2897626 0.21292986 0.36273718 0.59251016 0.801802 -0.30438069 0.21712232 0.12241826 0.53670156 -0.21187858 -0.15878366 0.05415231 0.0461774 0.33116394 0.29630604 -0.6771829 0.42990357 -0.14695667 0.2470291 -0.66163105 0.9944244 0.66491354 -0.0023694157 0.5113294 -0.5890686 0.7351355 0.41825128 -0.89162904 -0.088497266 -0.06094853 -0.87731576 0.103570044 -0.037987467 0.7174437 -0.21733792 0.7378996 -0.38347086 0.45594698 0.81989044 -0.784407 -0.48247802 -0.34348416 0.025569087 0.43098703 0.06621392 0.11149003 0.14318593 0.24272968 -0.35473529 -0.18010412 0.42236555 -0.20905082 -0.17291586 0.060096014 -0.56038064 -0.41715717 -0.6489754 0.32107338 0.44842187 -0.5541761
1896 -0.36670414 1.1701045 0.36873245 0.04489561 -0.85461926 1.1444564 0.44962388 -0.65376014 0.45837036 0.05261158 0.31481105 -0.8795033 0.12852252 -0.39058205 -0.44154993 -0.08799064 -0.39558956 -0.12870076 0.94703555 0.3088409 -0.49221995 -0.15018205 -0.7840977 -0.60840976 0.6101519 0.34424958 -0.076315746 -1.0935795 -0.13557106 0.8660387 0.3141529 -0.59359217 -1.0184791 -0.24043052 0.31928438 -0.08694213 -0.24606888 0.74825954 -0.03811723 0.7558338 0.5002739 -0.68288153 1.4770852 -0.24028566 0.5910079 -0.4804158 0.4222892 0.5688548 -0.0516276 -0.009306237 0.16703825 0.1455461 0.5826545 0.0039754026 -0.31910008 0.60101604 -0.04616722 0.4205528 0.8641683 0.66065013 0.07971169 0.6378806 -0.0220696 -1.1849858
1097 -0.18495658 0.43112978 0.14977254 -0.08989824 -0.018728761 -0.22766142 0.54359406 -0.6369896 0.4739004 -0.33609423 -0.1260996 0.0116714 -0.33596277 0.07955791 -0.41949037 0.049272418 0.14808522 0.13259947 0.12910548 -0.86040586 0.16729645 0.9042086 0.15642622 -0.12799108 -0.26932883 0.6172498 0.42466018 -0.5634924 -0.73235905 0.76088613 -0.23265693 -0.14977369 -0.29017487 0.015241543 0.32025367 -0.096203975 -0.045064088 0.26001635 0.21878687 -0.09376339 -0.1654038 -0.304026 0.1544262 0.12970121 -0.4754998 0.48985025 -0.38573822 0.4466505 -0.15733184 -0.47370365 0.8762771 -0.06514961 0.2884841 0.18528455 -0.6312036 -0.28134918 -0.47489825 0.029211523 0.3958613 -0.036049977 0.020272255 0.58863163 0.025050454 0.07947658
2174 -0.28984246 0.6265399 0.42048207 0.24637386 0.034495585 -0.085886724 0.23469348 -0.8276384 0.15880856 0.04180114 0.30796742 -0.31852347 -0.29713354 -0.1223749 0.039733473 -0.21798669 0.40592176 0.18033916 0.18961723 -0.92409116 -0.26357934 0.1595246 0.10415184 -0.576146 1.2396971 0.570951 0.5175393 0.29758456 -0.7953181 -0.6273626 -0.07160384 -0.58077055 0.5314254 1.2423326 0.5306562 -0.8829407 0.4816194 0.09619186 -0.09325967 -0.29202896 0.6026603 -1.0895132 -0.3947884 -0.50287145 0.37418216 -0.3390688 -0.09265585 -0.6678632 -0.05990645 0.3046357 -0.121330425 0.0010238902 -0.42306936 0.2756676 -0.20184858 0.54509807 -0.3849074 0.2850435 -0.17414814 -0.016929537 -1.2288984 -0.22821839 -0.28927252 0.3611463
3046 0.91600734 0.19379053 -0.17029601 0.28275985 0.11913435 0.1698624 0.48127612 0.5328282 0.21652962 -0.16691063 0.22381735 0.33470675 0.43577117 -0.6275096 -0.3748073 0.2132794 0.24935123 0.09280651 0.3433291 -1.0098984 -0.15819168 -0.1604179 0.6105442 -0.25195625 1.1780736 0.51085734 -0.00029357852 0.5483458 -0.49596322 0.6842632 0.50195223 -0.6670791 0.061926592 -0.2853081 -0.3914642 0.09838007 -0.5284735 0.32727382 0.049011465 0.86150104 0.13126831 0.24096154 0.355372 -1.0026209 -0.3246091 0.15421376 0.24820931 0.26104236 -0.094310224 0.30896586 0.2951337 0.008356007 -0.6431302 -0.26662037 0.13359605 -0.35412058 0.05752929 0.56026644 -0.5091542 -0.25500128 -0.8423288 0.17951013 0.038927794 -0.5163833
1822 -0.24269035 1.1350542 -0.4026094 0.45193413 -0.17653945 0.009096401 0.4933038 0.80330086 -0.35294467 -0.14522985 -1.1646987 -0.5724767 -0.39005294 0.21140273 0.48656353 0.018910374 -1.1426319 0.095747925 0.020403692 -0.8501787 -0.95493317 0.87920386 -0.33057946 0.51854664 0.0022121484 0.59744906 0.18487665 -0.32290977 -1.3023955 0.060079988 0.004635052 -0.019335253 0.07205654 0.045297395 0.85914224 -0.17390266 -0.3860783 -0.6385012 0.13610567 -0.13239291 -0.045825142 0.39582 0.49789655 -0.45841533 0.6673246 -0.118030354 0.13132526 -0.44477415 -1.0832316 -0.20953588 0.046534464 -0.124357045 -0.012203116 0.030002808 0.05139708 -0.701858 0.03463001 0.06838268 0.22288516 -0.37560168 -0.78146327 0.45202452 0.30577067 -1.005453
2899 -0.3894042 0.443065 0.7639651 0.5223652 0.2128475 0.5783413 0.70291406 1.2692469 -0.68794346 -0.51674354 0.42473903 0.30801797 -0.050878126 -0.4784784 -0.77627265 0.56614923 -0.2151468 0.2331146 0.10864951 -1.6438894 -0.17668991 0.40278885 -0.08838909 -0.8446333 1.0092876 0.79276025 0.5111955 -0.22641796 0.71356803 0.25822386 -0.6944975 -0.34203857 0.7099616 0.6427641 0.614176 -0.08018705 0.35416138 0.81214345 -0.24373008 -0.20508672 -0.5618225 -0.37959373 0.13457958 0.025048159 -1.0208029 -0.093860306 0.08958537 -0.49848676 -1.2000118 -0.5697775 0.76027024 0.23651552 -0.28950325 -0.8535077 -0.4650044 0.38110763 0.4805706 -0.39690128 0.51433676 -0.75517267 -0.49313572 -0.47401527 0.34728885 -0.5719282
624 0.7559594 0.5854254 -0.26867932 -0.23682895 0.24160896 0.90171367 -0.12780064 0.34186104 0.12034957 -0.26573032 0.27175778 0.6362178 0.46346918 -0.4151806 0.16397254 0.146697 0.38630557 -0.5840972 0.47216892 -0.8787777 -0.38097814 0.6651442 0.2586487 -0.61814773 -0.0568024 0.08400092 -0.47800127 0.046050075 -0.049144518 0.6993794 1.4011475 -0.8877244 0.98581886 0.33748195 0.15183361 0.6015204 -0.23096618 0.8515474 0.6807181 0.19404712 0.16686021 -0.39431792 0.8109516 0.14998244 -0.46105006 -0.2529829 -0.51250243 -0.024565915 -0.31602538 0.4059858 -0.2563676 0.62136215 0.3354343 0.74401015 0.52432185 -0.51403934 0.5718866 0.7031993 0.021562707 -0.61736023 -0.6010332 0.29118803 -0.22858968 -0.49063286
667 -0.23421146 1.1164464 0.49487904 0.835242 -0.5454127 -0.69633317 0.56321555 0.6880111 -0.44737378 -0.68223184 -0.47060525 0.8253048 0.17943566 -0.061279222 0.38340262 -0.26672053 -0.039488494 0.5434127 -0.7456992 -0.2351544 0.65633744 -0.06211083 -0.6563875 -2.0617607 0.17579353 0.7190708 1.2116324 0.41697234 -0.9847253 0.50980496 -0.077557065 -0.53512603 0.1934082 0.07981901 -0.07511006 0.2208865 0.5775045 0.6983047 0.78084433 -1.1657242 -0.014421202 -0.7692922 -0.10590633 -0.46792704 0.6880313 -0.15557602 0.14413933 0.15602717 -0.14124948 1.3306546 2.169066 1.1429597 0.09002386 0.42159835 0.37447736 -1.0821854 1.0131464 -0.017482495 -0.030612353 -0.8291397 0.1787981 0.54862154 0.10016109 -0.88970333
2339 0.42966005 -0.42515448 -0.40941268 0.19930965 -0.3497209 -0.21076229 0.46965396 -0.5053202 0.7733277 0.08684255 0.3935712 -0.53705734 0.30076578 -0.43697995 -0.25833383 0.78266466 -0.148893 -1.390782 0.049691103 -0.10237187 -0.51503175 1.0890244 -0.3482675 -1.078994 0.88328475 0.1424865 0.28891048 -0.4314658 -1.3847586 -0.123308174 -0.5132595 0.093700275 -0.30550227 0.29489955 -0.17287153 0.50230986 -0.0074964864 0.6142925 0.79626477 -1.0373398 -0.051238887 0.062360413 1.1817411 -0.5645511 0.051537175 0.14817673 0.2718282 -1.3532823 0.2568856 1.3052297 0.3742343 0.7372642 0.21498677 0.05355518 -0.18194085 -0.6541223 0.18606415 -0.42810574 -0.042512085 -0.28343934 0.33244494 -0.59753495 -0.252281 -0.51306945
1429 0.425707 0.39478904 -0.31663823 -0.19750932 0.26650187 0.16994157 0.3821755 -0.012713354 -0.011193844 -0.81229955 -0.12210076 0.016874572 0.043525387 0.73509675 -0.3747735 0.0069376444 0.09600364 -0.05730709 -0.064147346 -0.21541916 0.27856877 0.8270584 0.13170756 0.1106438 -0.14052056 0.46588048 -0.008780329 -0.49294662 -0.71721226 0.5910396 -0.6478253 -0.60362214 0.031701155 0.06442115 0.21399613 -0.117238835 -0.014154333 -0.05335216 -0.2782375 -0.19556114 0.2268177 -0.1775273 0.36346295 0.32001963 -0.21781223 0.5624276 -0.13519658 0.07813902 -0.24531554 0.08419369 0.12110372 -0.076938204 -0.13594757 0.46108243 -0.9822686 -0.46150506 -0.24063538 -0.19599025 1.2518795 -0.15879707 -0.3804619 0.7247398 -0.22002192 0.23098306
2458 -0.3130394 1.1173062 0.30870143 0.9404111 0.13037816 0.280118 0.5697913 -0.8156101 -0.77885836 -1.6397694 0.26905942 -0.21972586 -0.04924335 -0.76477957 0.5135193 1.1405905 -0.019744718 -0.25628364 -0.016083768 0.14803603 0.8797296 1.2984202 -0.3295488 0.007908815 0.51126724 1.2035136 -0.5882977 0.7138198 -0.6048657 -0.5176778 0.17941885 -1.163498 0.1485498 -0.23893186 -0.9342144 0.342982 0.10479654 -0.6523944 1.0898036 -0.6423482 0.37823626 -0.88916963 0.8896683 -1.4360131 0.6402924 0.20448765 0.22561571 -0.39327082 -0.21813321 0.66226315 0.7275339 -1.3129947 0.2988559 -0.085046306 -1.0055065 -0.70463437 -0.21508397 0.21975262 -0.37264255 0.22802371 0.8024969 0.29545304 -0.4586586 -0.77391094
637 0.36820477 0.076822706 0.46621102 0.6171579 0.4120235 0.82268876 0.21155031 -0.3075804 -0.58314323 0.119383655 -0.32362127 -0.23605056 0.15267491 -0.47220743 0.11674329 0.7543601 -0.33402574 -0.101853035 0.63561416 -0.78878087 -0.030108303 -0.3262537 0.29202163 -0.62400484 0.22464748 0.33450985 0.36844486 0.29083428 -0.08741365 0.4844117 -0.22271107 -0.42666006 0.23479159 0.5721802 -0.6341141 -0.38211206 -0.29248974 0.21337657 0.08093448 -0.31357983 0.023388296 -0.5586326 0.7495577 0.6898447 -0.26411614 -0.36273274 0.45487365 0.04697029 0.049416192 0.31790608 0.25740916 0.049294274 -0.0957066 -0.5726817 0.6077298 -0.58447695 0.13223709 -0.17711653 0.07601647 -1.179356 -0.60918266 0.74196297 -0.45845884 -1.0233719
1875 0.4409131 0.5899029 0.04710657 0.6428406 -0.6346303 0.07102645 0.22300026 -0.3689648 0.7109979 -0.79896706 0.014035202 -0.10705128 0.03938653 0.5329342 0.14351206 0.18187653 0.07575295 -0.046691246 0.13980526 -0.56441796 0.5557005 0.8741317 0.37919733 -0.17579818 -0.13804033 0.3516352 0.13374403 -0.028354255 -0.7314985 0.9019204 -0.7399269 -0.07698372 0.25487176 0.34860367 0.07829804 -0.12555675 -0.4165797 0.34755608 -0.3884243 0.15148385 -0.071178235 -0.20563151 0.5348533 0.20975116 0.058170646 -0.089142755 -0.4817828 0.5089752 0.036546897 0.22195223 0.57804614 -0.09052871 0.07244846 0.2309951 -0.9059698 0.27331144 -0.76536375 -0.037270024 0.662082 0.22182818 -0.19640067 -0.066831015 -0.30705824 -0.007483604
2829 -0.2871479 0.26060385 0.037842683 -0.3292913 -0.093492515 -0.08365728 -0.84053683 -0.54602337 0.02217096 -0.7429614 -0.0689381 0.44280306 -0.5508907 -0.04336892 -0.57962435 0.34573507 0.11934848 0.32976934 0.18854952 -0.2738496 -0.064661145 0.3331102 0.24970165 -0.058451094 0.87696874 0.041201703 0.392334 0.08543785 -0.38825002 0.59468687 0.27141732 -0.27073833 0.3787892 0.13117175 -0.12158308 0.025613548 0.08721949 -0.2817131 -0.20962375 -0.4867937 -0.45610666 -0.023169812 0.968089 0.4058414 0.1720167 -0.23146346 0.23895822 -0.34711742 -0.19301586 0.326715 0.63967025 0.7688405 -0.53959996 0.19220926 -0.7592268 -0.40841267 0.26343518 0.064257525 0.5503657 0.5853086 -0.4352646 -0.2421646 0.26898983 0.22907457
2925 -0.5283352 0.059757356 -0.013355304 -0.39788195 0.25319868 -0.101696 -0.5097313 -0.41204396 0.34222132 -0.4522202 -0.1664729 -0.022332586 -0.60500026 0.45344803 -0.21950354 0.51261544 -0.12498121 0.49937648 0.30272034 -0.36194992 -0.35825896 0.16652045 0.14534327 0.20359826 1.0892371 0.54487246 0.49807402 -0.41320446 -0.39927197 0.32964507 0.4488861 -0.29461378 0.3296726 -0.26000485 -0.41110325 -0.2735942 0.19581127 -0.025275644 -0.58068275 -0.54527 -0.07745603 -0.07621501 0.5891782 0.028414693 -0.23995538 -0.10327355 0.22941652 -0.4122233 -0.033861723 0.9885748 0.97981185 0.7970285 0.12119036 0.0068149734 -0.59732884 -0.20042156 0.24734867 0.34603304 0.51028204 0.50248474 0.054463655 0.087234296 0.2687124 0.039811842
2703 -0.1204185 1.6208858 0.35089988 0.3062256 -0.76163715 0.9617047 0.5093149 -0.61435705 0.6644214 0.10973317 0.7232467 -0.8364224 0.18632025 -0.8351248 -0.14592412 -0.05573827 -0.4779965 0.033164054 1.3043839 0.21089478 -0.74821544 0.40048283 -0.41993082 -0.59098595 0.6121611 0.7717257 -0.13381615 -1.7785281 -0.07787217 0.27387953 0.37563676 -0.6902326 -0.8235842 -0.20375603 0.35475546 -0.10278684 -0.63486886 0.53069955 -0.20337397 0.2599114 0.693423 -0.4383132 1.2950742 -0.020524867 0.13298103 -0.7642752 0.49773747 0.04819066 0.15080963 0.10461485 0.28585336 0.34936062 -0.033975206 0.20546673 -0.69383734 0.7987865 -0.17888707 0.13592727 0.7234292 0.27947697 0.009916812 0.2998223 0.26930088 -0.814154
453 -0.17052394 0.7348664 -0.2683001 -0.02386276 -0.004823039 -0.012284583 -0.60488313 -0.5993299 -0.5035046 -0.34580758 -0.08357123 0.09910529 0.051008083 0.13842826 -0.7671202 0.14336288 -0.02860833 0.3196265 0.111086585 -0.3785754 0.11427517 0.8297297 -0.2610424 0.05448573 0.41055563 0.7569212 0.31995174 0.31599984 -0.18338957 -0.2112045 -0.03125057 -0.55835295 0.34325084 0.14090309 -0.3970843 0.19099006 -0.38333258 0.29460445 -0.28518066 0.06355261 -0.03595355 -0.14039202 0.61320436 0.649028 0.31635708 0.7461751 -0.058443885 -0.03511965 0.2808322 0.71077067 0.5940444 0.4348587 -0.6053402 0.27655205 -0.67728823 -0.3916634 0.48720533 0.08536065 -0.2184956 0.5728831 -0.40083915 0.47601175 0.19453286 0.17859359
254 -0.5952024 0.79929256 -0.4232206 0.07280893 0.010302862 -0.096896775 0.17917413 0.484609 -0.22711132 -0.13445434 -0.70983577 -0.6650903 0.54870635 -0.0314271 0.45228896 -0.3730481 -0.8753815 -0.40712634 0.12628967 -0.97129905 -0.6807285 1.1475654 0.15467674 0.38276514 -0.10317191 0.47610313 0.5801485 -0.1908195 -0.94559336 -0.60022944 -0.04329951 -0.31922847 -0.037259575 0.44585758 0.6273683 0.2891338 -0.009907648 -0.5342549 -0.2997875 -0.29816493 -0.6252114 -0.13001904 0.63519144 -0.41528338 0.24309754 -0.14702272 -0.19371879 0.467006 -0.29489827 0.27964687 -0.37357274 -0.5312899 -0.17436555 -0.52342474 0.19407937 -0.7511095 0.054879908 -0.06777664 0.27934495 -0.08245037 -0.8180098 -0.07310807 0.45008633 -1.3073173
1585 0.22149192 0.6507836 0.32207185 -0.26435626 -0.052828994 0.6699441 0.4808373 -0.20713656 0.22589444 -1.2610388 -0.055314366 0.3852832 -0.2919872 -0.18845926 0.46143523 0.24726222 0.37867358 -0.27413577 1.0852332 -0.114219084 -0.6086832 0.2459163 0.84127706 -0.13227277 1.0942101 0.13111469 0.050033756 0.20427008 -0.21343565 -0.77033085 0.40573248 0.46572497 0.7437118 0.9657287 -0.117427364 0.10640397 0.76134616 1.5572381 -0.07323461 0.28698656 -0.73820126 -0.6279533 1.3767914 -0.9876865 -0.66003555 -0.34536558 0.6371856 -0.42677802 0.23319906 -0.042159405 0.25100678 0.6389073 0.8643646 -0.878907 0.6299919 -0.46676624 -0.5259217 0.74699455 0.8705233 0.51573247 0.05448437 0.6970939 0.21140587 -0.4572683
887 -0.26402286 0.4738533 0.28040975 -0.09543746 -0.33249247 -0.011071986 -0.3238636 -0.33042112 -0.11875296 -0.59854245 0.15292402 -0.18886903 -0.11037997 0.32325473 -0.48050612 0.16910069 0.009392456 0.38234016 0.06924734 -0.40936086 0.023297815 0.4840601 0.42203242 0.051317982 0.19798742 0.34761655 -0.029398888 0.27471542 -0.067161106 -0.2232294 -0.026223177 -0.47915468 0.20763235 -0.036178812 -0.20140527 0.13025105 -0.26558158 -0.12795831 -0.51000684 -0.15719542 -0.02032453 -0.1002535 0.75752604 0.48509827 -0.21387474 0.62884593 0.09216493 -0.002565995 -0.2756716 0.39265957 0.8098572 0.98856664 -0.3091583 0.27772388 -0.8709974 -0.33367214 0.27959514 -0.035204228 0.10431118 0.29369947 -0.76486784 0.97191715 -0.18873401 -0.017687779
450 1.0100623 0.37466812 0.20230879 0.0846496 -0.10694745 -0.524721 0.08998485 -0.5456578 0.044180304 -0.33373412 -0.4332906 -0.9913414 -0.29839587 0.047861833 -0.55679137 0.9040901 1.1085566 -0.12785463 0.8578836 0.024956176 -0.0022848607 -0.04567794 -0.8731637 -0.18296693 0.004538209 -0.18175453 0.4409274 0.28594807 -0.16498066 -0.03403313 -0.40510267 -1.1033326 0.4148243 0.3403731 0.77988136 -0.29757127 -0.057691563 0.16569234 -0.16826421 0.45431018 -0.01676663 -0.5651508 0.48450598 0.22139046 -0.05210655 0.70453185 -0.0888264 0.08092155 -0.4462033 0.26386103 0.7095269 0.3019153 0.0066758743 -0.45674852 -0.29745668 -0.64089674 0.022546077 -0.25059292 0.2224668 -0.021595092 0.4096963 0.1848625 -0.29642603 -0.5125968
1992 -0.17166096 0.28849372 -0.6100348 -0.35318342 -0.6948101 -0.055806566 -0.20040496 0.7704859 0.6474505 0.6781506 -0.0802898 -0.6878574 1.4344381 0.050355792 -0.2297364 -0.15513405 -1.2372248 -0.68773156 0.13196768 -0.46654806 -0.2764698 0.78056985 -0.26169607 -0.118456975 0.51457727 0.15266255 0.7989777 0.053041846 -0.40834308 0.19951247 0.717282 -0.5533178 -0.12380272 0.3943971 0.04488043 0.17297596 0.16306035 0.10513855 0.19937238 0.4691981 0.56259066 -0.5300451 0.33455452 -0.6403911 1.130285 0.7355793 0.20228201 -0.1899855 -0.057331786 -0.57112724 0.7409567 0.13849634 -0.7136076 -0.47685447 0.21307968 -1.3703599 0.26098767 0.6789871 -0.25580698 -0.8993478 -0.24357837 0.19058207 0.010761126 -0.756518
1112 0.29705906 0.51893026 0.2010993 -0.38459143 -0.7067119 -0.1774206 -0.78773487 -1.0349445 -0.087262526 -0.6028661 0.70746 -0.21938774 0.25842774 0.4000973 -0.5799638 0.6640997 -0.14608501 0.4663237 0.101429865 -0.8573258 0.41020682 0.19806558 0.2134043 -0.069877096 0.294737 0.10511121 0.26222458 0.1440195 -0.18596247 0.019130591 -0.039120745 -0.030869985 -0.05444503 0.0065094144 0.20462132 0.0049526994 0.32479262 -0.21141256 -0.44623047 -0.18416478 -0.59708893 -0.3830011 0.5118295 0.35340706 -0.01922661 0.71090263 0.1125738 -0.35260943 -0.39865848 0.44436684 0.8543766 0.34137064 0.44137475 -0.12948601 -0.55477893 -0.29187196 0.17143302 0.3466312 -0.16145502 0.3146061 -0.65868294 0.08315266 -0.2625991 -0.029520646
2911 0.5378249 0.34724736 -0.20351255 0.14007571 0.06931017 0.20391688 0.41525736 0.5966731 0.28720784 -0.03247067 0.24392079 0.3075494 0.9010227 -0.1897125 -0.44341654 0.196719 0.43332496 0.45687503 0.56350017 -1.1479377 -0.007306657 -0.091903254 0.20366533 -0.75903374 0.86236143 0.4423386 0.39212963 0.2850225 -0.60017216 0.7379614 0.7419469 -0.99425006 0.28398955 -0.046611227 -0.37548372 0.33755773 -0.3534304 0.43514132 0.08682192 0.78799605 -0.089214064 0.4371569 0.9169652 -0.5630525 -0.094002396 0.118774615 -0.42180327 0.3974439 0.3965917 0.1897609 -0.018768774 0.02742097 -0.44657573 -0.2514281 0.8672477 -0.27879742 0.045494962 0.34362355 -0.05043489 -0.6665435 -0.5447625 -0.07064606 -0.1936048 -0.8610457
1605 -0.4872524 -0.09447404 -0.22375235 -0.2978791 0.27826896 -0.2515121 -0.56709474 0.054765645 0.20938066 -0.59060025 -0.42080584 -0.414603 -0.6621512 0.5567871 -0.1437682 0.77745587 0.00035519488 0.49371243 0.56850547 -0.34997222 -0.39701977 0.49855688 0.014199412 -0.5801547 0.58383197 0.8109378 0.57985353 -0.43926406 -0.85113406 -0.06827681 0.23436272 -0.868345 0.48907155 -0.34241867 -0.53458196 -0.09767837 0.17191015 -0.39984703 -0.69963795 -0.20528536 -0.15262887 -0.3953973 0.68391204 -0.06467192 -0.057395436 0.18763183 0.19727705 -0.03230244 0.17106397 0.37835893 0.6421561 0.91557616 -0.05663518 0.025285672 -0.33720964 0.050465263 -0.07877627 0.45699412 0.36883488 -0.093663745 -0.04372114 0.034578804 0.021539513 0.2333564
1567 -0.222973 -0.3205511 -0.29394007 -0.40278205 0.12786339 -0.06988474 -0.6298619 0.16451766 0.24302629 -0.777289 0.037614048 0.046623126 -0.56599706 0.5236176 0.030311432 0.4819455 0.13420121 0.27366695 0.44166705 -0.23958196 -0.12835896 0.30354157 -0.14553928 -0.6389092 0.5834963 0.6103288 0.73360157 -0.45835844 -0.7846884 0.18253131 0.25273752 -0.87714225 0.40603006 -0.1073634 -0.23683167 -0.30890635 0.3126969 -0.45226136 -0.8231295 -0.5104291 -0.32987896 -0.36841437 0.45344776 -0.020424597 -0.15757452 0.13794996 0.24203731 -0.038155243 0.009014161 0.09892946 0.674852 0.68952113 0.031100275 0.11922871 -0.40506804 0.17260921 -0.12488522 0.53750515 0.42431366 -0.13612732 -0.15017918 -0.010742733 0.008317213 0.24864793
2316 0.5780439 -0.21876918 -0.515524 0.38184798 0.12568603 0.16492178 0.37340692 0.66956127 0.41919413 -0.23329099 0.41668692 0.050830267 0.4478942 -0.20780472 -0.4188382 0.53599644 -0.23216191 0.40982458 0.5114039 -0.9669068 -0.54818165 -0.20793052 -0.38621822 0.09308377 0.621122 0.3323763 0.4514719 -0.0913488 -0.38807395 0.34122074 -0.029613793 -0.33440995 0.41221815 0.21968725 -0.9820086 0.5068153 -0.13040097 0.5180944 0.23812225 0.07791875 0.18502547 -0.61288613 0.75519115 0.093209736 -0.8475406 0.066743486 0.92049915 0.075182356 -0.123203404 -0.21897662 -0.05148422 -0.23947361 -0.2934361 -0.041304298 0.07184451 -0.60048693 0.013549904 -0.5016142 -0.4452417 -0.30426717 -0.21056688 0.29304978 -0.98283875 -1.188757
2622 -0.027711699 0.44848207 -0.30997655 -0.28786427 -0.41923708 0.02349573 -0.043568622 -0.3860665 0.12943597 -0.38263604 0.005413139 -0.006913163 0.08912863 0.3831514 -0.43421277 0.5184356 -0.34708348 0.5275843 0.4033753 -0.6084645 0.40073252 0.4875976 -0.25673106 0.7894956 0.0038584396 0.16750641 0.117137685 0.46339574 -0.38059556 0.02703931 -0.06188741 -0.6576496 1.040244 0.01920199 0.18405241 -0.31140795 0.14334197 0.1887842 -0.76100504 -0.44095263 0.36802343 -0.53952515 0.3496131 0.15547322 -0.46882245 0.59519804 0.18490459 -0.13633344 0.05837006 0.26701605 0.46096295 0.22399075 -0.0062158257 -0.25821915 -0.46276888 -0.48385438 0.77109903 0.33550718 0.74747634 0.1476749 -0.22546259 0.45117873 0.3414166 0.35876554
2196 0.30641875 0.45330042 -0.5363083 -0.036637414 0.23206072 -0.39422706 0.009467639 -1.0267164 -0.041468803 0.12177694 -0.15263574 -0.50809383 -0.34711432 -0.050761357 -0.11478018 0.6113746 1.2971288 -0.2531769 0.7375648 -0.01369329 -0.028589303 0.123629846 -0.38907894 -0.11005691 0.21356846 -0.112114735 0.4735772 0.3215886 -0.69385624 -0.03049077 -0.64502287 -0.94616437 0.56616485 0.25223064 0.1462181 -0.005868763 0.08178403 0.0696583 0.24682519 -0.043074246 -0.19781661 -0.23732215 0.34975854 0.38015008 -0.147937 0.25732914 0.010795206 0.60122585 0.024384497 -0.04106212 0.48195142 0.44431165 -0.26534224 -0.5213095 -0.76597923 -0.5722882 0.06541565 0.1621538 0.4355789 0.2460181 -0.0011474541 0.36172032 0.32383794 -0.2530391
28 0.098567374 -0.14247413 -0.06373886 -0.009188792 0.19401842 -0.12815861 0.74689525 0.15420954 0.6969505 -0.36204582 0.5332645 -0.13626596 -0.32261854 0.056986477 -0.3360155 0.3603205 -0.63658947 -0.25897023 0.20010002 -0.75950366 -0.42435133 0.23592609 -0.66646737 0.2538443 0.3201369 0.51857996 0.6252922 -0.062872216 -0.13830495 0.22450782 -1.003303 -0.33610463 0.8070393 0.45180207 -0.5975402 0.7333238 -0.011844858 0.8284815 0.21449028 -0.21884847 -0.20761782 -0.35986236 0.5148587 -0.4212087 -0.790098 -0.26234227 0.7098751 0.15308885 -0.05125052 0.36497 -0.6422167 0.7155971 -0.05269038 -0.13532116 -0.38247317 -0.8276291 -0.13452302 -0.27352962 -0.5409814 -0.39584315 0.114317514 0.32775477 -1.1413031 -0.98663795
1410 -0.53354573 0.2129554 0.38400924 0.030883482 0.94831735 0.27901855 0.102271944 0.26115012 0.055125225 -0.16231807 -0.11717764 0.31842056 0.79686785 -0.5045452 -0.32023144 0.4249799 -0.4079962 -1.0274849 0.40471402 -0.5585234 0.3406546 0.8067101 -0.5228348 -0.35026613 0.006289564 0.009457581 -0.35343972 -0.41247892 -0.36768457 0.17322713 0.8940398 -0.5138525 0.5699174 0.16811371 -1.013988 -0.9020429 0.43646643 0.31347388 0.55202323 0.60805035 0.20885421 0.07346138 0.31386474 -0.6784708 -0.3793619 0.30078757 0.23394166 0.4556269 -0.63812965 -0.17141543 -0.04525613 0.689786 -0.05234314 -0.47169745 0.3210216 -0.44576603 -0.0384464 1.0177606 0.37156308 -0.29757035 -0.90225106 -0.3382513 -0.8863284 -0.52130604
2067 -0.6161217 0.506262 -0.27320433 -0.009170011 0.009173722 0.060998857 0.33978033 0.58637327 -0.6304319 -0.40174162 -0.32099888 -0.6629127 -0.13112178 0.20148908 0.66777885 -0.39669615 -0.76630986 -0.82994366 0.049767826 -1.0717201 -0.7205648 0.9548391 0.090426095 0.07151999 -0.5634957 0.6130532 0.3127385 -0.07225451 -1.2490839 -0.6120608 -0.10727519 -0.4245736 0.24907793 0.44423595 0.64605665 0.6773552 0.3645772 -0.24634904 -0.39351216 0.082264535 -0.8427057 -0.3780004 1.0171081 -0.20571627 0.13948613 -0.0476543 -0.06974763 0.6817395 -0.5386885 0.7167079 -0.5861165 -0.54852355 -0.26112375 -0.33442485 0.14391276 -0.4974597 -0.025156906 -0.08873693 0.22032109 0.12463673 -0.78716123 -0.17440489 0.41467714 -1.2490402
2861 -0.12031392 0.67468727 0.16722032 0.41817072 -0.52550876 -0.56259435 -0.022198975 -1.1199512 0.41442055 -0.6487757 0.08459233 -0.4454936 -0.056687936 -0.11572987 -0.49014854 -0.0194476 0.46253553 -0.027626466 0.2464081 -0.6222406 -0.4585288 0.63385177 -0.03219317 -0.33007362 0.8776606 0.5992819 -0.19001478 0.6153801 -0.2706746 0.2331091 -0.19674635 -0.29959443 0.1139166 0.764975 0.659796 -0.39816824 -0.1443655 -0.07410399 -0.28762874 0.056855336 0.34496927 -0.7426554 -0.5968187 -0.023354257 0.23031512 -0.27122927 0.1056314 -0.59966666 0.27748597 0.78349525 -0.32659 -0.03400122 -0.33396995 -0.30603686 -0.26015824 0.21535277 -0.9798094 0.75304186 0.2612739 -0.2801716 -0.9772511 -0.27555728 -0.046034336 0.13694096
2189 0.78797245 0.27120703 0.6009518 0.5573914 0.72441125 0.8320056 -0.08209641 -0.25552237 -0.36874446 0.20268586 -0.34341693 0.075657144 0.36642227 -0.3759918 -0.50416493 0.12851694 0.014272203 -0.9254136 0.85555595 -0.73922914 0.22815254 -0.10392796 -0.24813251 -0.3456315 0.47749203 1.4078987 0.64667016 0.20829782 0.025430229 0.70480084 0.55354863 0.28765297 0.15713091 0.09686987 -0.41962394 -0.3599973 -0.28590196 0.45732763 -0.19506963 -0.33766404 -0.023416921 0.036507037 0.6297914 0.19078124 0.13263723 -0.21481188 0.5122506 0.27436796 0.35977146 0.51545763 0.2516215 0.15640983 -0.21474417 -0.97999275 0.35091314 -0.47255552 0.065184824 0.05496222 -0.34275115 -0.56774485 -0.52609 0.1534943 -0.061804984 -0.62452495
670 0.73544586 0.24396914 -0.13690488 0.09042268 0.05810806 0.7562017 -0.1488058 0.011903573 0.6018439 -0.5918292 0.15143347 0.03643233 0.38705012 -0.18742757 -0.5653296 0.010367936 0.4804894 -0.42165363 0.58120555 -0.708386 -1.0045643 0.5183595 1.0594864 -0.14413156 0.6277659 -0.15055636 -0.7669522 0.039397117 -0.18069221 -0.078306146 0.9090206 -0.4793755 1.0038985 -0.1169864 0.1199545 0.8430334 -0.09826166 1.0176357 0.29023156 0.45267642 -0.13189632 -0.20539388 0.7637927 0.05736031 -0.32793978 -0.13764122 0.63255316 0.38304707 -0.24084932 -0.12003993 -0.04890594 0.2130759 -0.19509591 0.7096147 0.21039775 -0.79991406 0.026948286 0.72577065 -0.14374056 -0.49215817 -0.4083128 0.039937455 -0.4845561 -1.2995101
1034 -0.26429415 0.4914628 0.098682106 -0.26809457 0.09149972 -0.20371646 -0.4163737 -0.7060215 -0.1712623 -0.46223965 0.16329455 -0.09927153 0.11986431 0.16847083 -0.43757662 0.2312156 0.007143797 0.3909206 0.055457506 -0.44598508 -0.013563966 0.5278528 0.23578213 0.31099957 0.45866546 0.4203646 0.3273878 0.252786 -0.08778095 -0.22638437 -0.15218823 -0.21264645 0.07104423 0.23176862 -0.42573774 -0.16580115 -0.027066512 0.026403597 -0.4824256 0.10045605 -0.040828656 -0.15824433 0.9297662 0.5468546 0.12035674 0.5523084 0.11137644 -0.13272844 0.14592321 0.51788384 0.9437368 0.93988025 -0.6107898 0.13255942 -0.7140715 -0.009068713 0.32809594 0.16987664 -0.06553921 0.64530057 -0.4707399 0.5837932 -0.13647024 -0.059335213
12 -0.12684889 0.3249317 0.57827556 0.19494621 -0.5214071 -0.06447854 0.5673162 -1.0017288 0.39535558 -0.46745503 0.27357796 0.28936714 -0.26020572 -0.54310447 -1.0962187 0.45903155 0.36682707 -0.36576572 -0.022372983 -1.2033262 -0.18232055 1.0565263 -0.41143352 -0.34317395 -0.72696215 0.21097241 0.7034123 -0.5904387 -1.0155146 0.9990536 -0.101241216 -0.09624596 -0.009251145 0.1139978 0.16562435 0.17637523 -0.63617706 0.27575314 0.21798281 0.21504761 -0.7764321 -0.10995466 0.062528804 -0.38460657 -0.18885024 0.49642396 0.9755223 0.568846 0.4115465 -0.4129375 0.46487412 -0.062414 0.4749767 0.27663 -0.50728035 -0.23474646 0.2781482 0.0018261999 0.881862 0.35921255 -0.27801883 0.353291 0.22632158 0.11362326
540 0.42099205 0.5780571 -0.17397988 0.19217779 0.19007865 0.25768593 0.5693312 0.7967467 0.5665201 -0.32134196 0.47304052 0.38517708 0.8414424 1.8039456e-05 -0.41796002 -0.13304 0.3513344 0.13634168 0.6734411 -1.3705482 -0.35537696 -0.2867538 0.25118718 -0.6455492 1.2175393 0.76199865 -0.073755346 0.27120158 -0.80989844 0.8288802 0.2770656 -0.5692422 0.052228544 -0.076731704 -0.66256964 0.10760096 -0.8842119 0.25487047 -0.2408124 0.8725756 -0.1523511 0.65953636 0.9745682 -0.6195756 -0.41739795 0.2592004 -0.42934954 0.3765824 0.44893447 0.31372178 0.32026273 -0.24353966 -0.55100644 -0.20300415 0.48900786 -0.5004841 0.2936324 0.17269939 -0.27560702 -0.3802168 -0.51218826 0.10076508 -0.024240967 -0.62352484
3274 0.8073375 0.4842307 0.2939353 0.9625431 0.45799997 -0.03857337 0.35090595 0.12822908 -1.0440364 -0.25312454 0.38282308 0.45449227 0.17700097 -0.75275725 -0.37688676 0.30652034 -0.9550472 -0.0039639627 0.4804395 -0.6047104 -0.17136478 0.58384085 -0.28249875 -0.3963021 0.74379605 -0.7528508 0.52920157 -0.09876444 -0.53498334 0.36398283 0.14401475 -0.6397176 -0.83457613 0.18344791 -0.3254482 -0.022294747 0.8110727 -0.22675107 -0.66078955 0.47944295 0.22651081 -0.022178857 0.77837807 -0.7896609 -0.358858 -0.44447955 0.07321539 0.20526887 0.2555194 0.65278226 -0.57520956 0.9313386 0.18226424 -0.65859866 -0.112203635 0.28735325 -0.17066157 0.075007185 0.49072653 -1.1392754 -0.51577663 0.32422516 0.013723645 -0.047076162
1879 -0.2386977 -0.049455564 -0.20466167 0.14291297 0.7202041 0.32524908 0.65064615 -0.72836745 0.8199537 -0.46806672 0.03319753 -0.26682687 0.043896977 0.34412414 -0.13737944 0.10961294 -0.024846518 -0.44158813 0.83922815 -1.2293328 0.043571338 1.2899836 -0.09054416 0.14823803 0.058425922 0.6272219 0.7889035 0.22094388 -0.19242543 0.7693304 -0.20700677 -0.16516773 -0.5032757 -0.54050034 0.5212252 0.08801831 0.46233135 -0.06519042 0.52301115 0.60491955 -0.15326568 -0.8293813 0.6335973 0.19034092 0.305361 0.3874896 -0.8403327 1.1564004 -0.0153952055 -0.40172392 1.027526 0.22453146 -0.031219136 0.03844003 -0.87087506 0.47526917 0.12636177 -0.7926203 0.3527152 -0.031332523 -0.50391597 -0.19603491 -0.78209597 0.44244653
98 -0.15062071 0.47984478 0.02052143 0.25115848 -0.20914538 0.18211785 0.32335693 -0.53075475 -0.72501045 -0.2065814 0.0031008818 -0.17690255 -0.1995006 -0.6113888 -0.31481344 -0.28903708 0.76519126 -0.6880527 -0.26964408 -1.2036704 -0.33808094 0.056060683 0.7501734 -0.32157373 0.95926625 0.44355798 0.4704048 0.4673987 -1.1841581 -0.3806202 -0.32723618 -0.7196241 0.3594369 1.2171676 -0.2096882 -0.6620614 0.37102354 0.69419295 -0.2798647 0.29026613 0.98987126 -1.158354 -0.37849185 -0.95413154 0.38381207 -0.7648286 0.6441215 -0.881674 -0.73185474 0.043367278 -0.20359188 -0.14229392 -0.13401113 0.33614877 0.15185586 0.57014674 -0.03293776 0.017255412 0.058458522 0.24228932 -0.6382949 0.55016595 -0.6444486 0.97353005
616 -0.4705917 -0.11807335 -0.029462872 -0.15823099 0.19692554 -0.20797077 -0.69079363 0.13049357 0.23202603 -0.58004534 -0.35263762 -0.35737252 -0.33332062 0.25300145 -0.34517264 0.80093765 -0.11825593 0.38340518 0.61932635 -0.52696353 -0.44054794 0.5017303 0.0008621879 -0.45700327 0.2959578 0.7684249 0.5571238 -0.23001675 -0.752646 0.0893134 -0.040469065 -0.82636595 0.44269624 -0.4646249 -0.25390705 0.112312384 -0.06626305 -0.45350295 -0.6818872 -0.094437405 -0.22253226 -0.36457697 0.3121898 0.07327076 0.1798413 0.27778062 0.5255425 0.074772984 0.03677226 0.30854738 0.3666425 0.8431977 -0.30843148 0.08303169 -0.33291695 0.1122262 0.0078034974 0.4532969 0.34426582 0.13718098 -0.2551248 0.10728656 0.19845437 0.50058
1033 0.2603889 0.65908384 -0.4939025 -0.47427297 0.5466527 1.4216403 0.2476656 0.5796392 0.115908295 -0.22637753 0.14500041 -0.19053295 1.5162032 -0.94786686 0.38825324 0.1449526 -0.682449 -1.0187953 -0.11935301 -0.52919626 -0.70308644 -0.2766676 -0.29296207 -0.3210635 -0.31226653 0.853276 0.13718168 0.43391365 -0.91745067 -0.12058552 1.0759702 0.10613356 1.1955087 0.9147441 -0.70171076 -0.53067327 -0.07565951 -0.01763209 0.4296386 1.1911399 -0.31792364 -0.4863453 0.38997403 -0.24197665 -0.1313164 0.12625678 -0.28602257 0.23222548 -0.548819 0.5108955 0.92470294 0.4811793 -0.46853715 -0.03652906 -0.6542929 -0.83021617 -0.13937744 1.177936 -0.1993305 -0.38198105 -0.5902503 -1.0949582 0.3046434 -0.45836926
2361 -0.052610863 0.5116665 -0.0150597645 0.6809564 -0.92193764 0.44107705 -0.38386124 -1.0878992 0.24343902 -0.64555824 -0.3846506 -0.3730115 -0.06779538 0.12446313 -0.5045383 -0.23029941 0.07272027 -0.074766986 -0.3374652 -0.2926509 0.24205165 0.9810915 -0.10973455 -0.025514081 -0.052161884 0.20160963 0.26753774 0.40009344 -1.0648985 0.6941557 -0.5271007 -0.336303 1.1083279 -0.122226864 -0.9610698 -0.36604187 -0.50404775 -0.20456618 -0.1547513 0.00035546764 -0.19611852 0.14758994 0.7989702 -0.1045854 0.36640462 -0.14700723 0.159359 0.914525 -0.1973046 -0.07388048 0.16721988 0.5412036 -0.32294643 0.7100573 -0.16644081 0.30993566 0.15504074 -0.29162672 0.6174568 0.04293658 -0.22607884 0.10346744 0.3964078 0.08586487
47 -0.088951975 -0.20737594 -1.3581855 1.5300227 0.24003184 0.82408094 0.06745869 0.32989416 -0.29208344 -0.7380281 -0.39156398 -0.34299967 0.005321713 -0.16592216 -1.8834555 1.1488298 0.6351694 -0.5397414 -1.2123398 -1.0699452 -0.02431813 1.1188179 0.27093259 -1.512844 0.9385715 1.6054317 -0.33573264 0.0966157 0.20895511 -0.5788176 0.11321125 0.46742237 -0.038850438 0.5457831 -1.3450938 0.121423826 0.28353179 0.32794574 -0.33090648 0.15566196 0.41227654 -0.79262614 -0.47585595 -0.41586122 1.3784553 0.01706591 -0.41965413 0.38614643 -2.208413 0.25116327 0.97616553 1.3073189 0.83012724 -0.2575746 0.12920488 -0.26182207 -0.36208493 0.028382126 0.8771389 -0.69357276 -0.646442 -0.10796298 1.0841967 -0.19392797
2597 -0.688078 -0.3138563 -0.08194418 0.12415388 0.243862 -0.05827146 -0.9854188 0.16120142 0.17245625 -0.6019756 -0.318714 -0.56912357 -0.42574975 0.45452788 -0.22623765 0.71461606 0.090129256 0.22165106 0.61674654 -0.9445397 -0.14052276 0.3466192 0.021163076 -0.6842348 0.29841074 1.1367953 0.361551 -0.6451139 -0.9559961 0.08526407 0.10532002 -1.2451762 0.22122216 -0.78457063 -0.20070761 0.14680019 -0.07186156 -0.24259184 -0.5319582 -0.41372362 -0.29229993 -0.48671004 0.36258635 0.030131657 0.11693811 0.08545319 0.65300167 0.04029748 0.030315315 0.072153784 0.26878148 0.6682891 -0.26123053 -0.091553286 -0.47913554 0.14775267 0.2538516 0.25053233 0.34325784 -0.12150239 -0.39905557 -0.23791803 0.042623162 0.4015286
2447 0.9609377 0.6348697 -0.68844676 0.76935923 0.54681903 0.548101 0.20212455 -0.03086883 0.0073824693 -0.35252243 0.46571702 -0.4525938 -0.17238384 -0.6167716 -0.747669 0.084980026 -0.057840973 -0.29916608 0.0009945544 -0.42308772 0.6241377 0.083174855 0.68274873 -0.6416385 0.8110545 0.5351574 -0.4337092 0.09503465 -0.38597974 0.28651962 0.5621876 -0.725129 0.26305798 0.23738131 -0.43937168 -0.016910395 -0.14407326 0.37027702 0.54655164 0.24026199 -0.025360752 0.03716052 1.2789054 0.13923627 -0.27396852 0.026731772 -0.31274477 0.22530244 -0.40515536 0.13493443 -0.67981225 0.09297908 -0.72076434 -0.12097384 0.8239295 -0.22643489 -0.39611444 1.0592695 -0.13116212 -0.36510712 -0.8048501 0.3805606 -0.08284295 -0.4918188
622 -0.5446426 -0.31332934 -0.09425908 -0.2072414 0.2860926 -0.08795849 -0.7456441 0.02194536 0.13110001 -0.60104126 -0.5465572 -0.40829328 -0.56278616 0.6096901 -0.19308269 0.64012074 -0.096832894 0.5437049 0.5211408 -0.54817003 -0.39338988 0.39345244 -0.024365742 -0.4876498 0.6989706 0.8220915 0.592147 -0.3945728 -0.94419515 0.017587569 0.13705622 -0.8947982 0.50233895 -0.46247894 -0.5421698 0.10384175 0.15078537 -0.2851716 -0.63413966 -0.28682593 -0.19773254 -0.3800337 0.68453056 -0.13947476 0.12598959 0.28332585 0.56668335 -0.037298538 0.056020357 0.45043686 0.4472034 0.84469384 -0.10751852 0.065254375 -0.31849855 0.026536942 0.017928224 0.41568202 0.5749458 0.1030414 -0.109926924 -0.09669685 -0.04255392 0.24265116
2519 0.7338427 0.01465238 -0.090195045 -0.26755852 -0.04704429 -0.35359424 0.52055377 -0.6526832 0.20174794 0.02401057 -0.11271505 -0.901515 -0.5034002 0.023520194 -0.28439817 0.46469572 0.9240055 -0.23908286 0.66282755 0.04818894 0.31692216 0.2813362 -0.71226716 0.30850768 0.42305657 0.17228818 0.4784192 0.54592097 -0.7213508 -0.24144067 -0.3048145 -1.2911289 0.4912935 -0.3062111 0.62256396 -0.21199384 -0.12007405 0.018749695 0.14993384 -0.57814574 0.10807355 -0.29728413 0.077230334 -0.03935566 -0.41498727 0.4133628 0.3672618 0.5205193 -0.6080614 0.49316773 0.686512 0.67910975 -0.11039301 -0.4747722 -0.45922428 -0.6897175 0.3061731 0.33923793 0.448942 0.15476105 -0.10248991 0.41869646 0.10103073 -0.030448187
1933 -0.39170688 0.88455194 1.2418995 0.58070946 -0.39678544 1.0377231 0.16648893 -0.5199308 0.51549894 -1.9966296 -0.11302281 -1.484505 0.027483875 -0.39191073 1.3165716 -0.41836646 -1.4887989 0.7319949 -0.2191239 0.14793707 0.81665426 0.6390765 -0.19846992 -0.42935014 1.1021701 0.9299242 -0.49263343 0.24309252 -2.1843243 0.30044362 -0.15152377 -0.8629107 -0.64623034 0.43800062 0.05518304 0.30356365 -0.13007626 0.19879584 0.33300802 0.759037 -0.26984596 -0.8987603 0.15003452 -0.7718857 -1.2444297 0.68922555 0.43610817 -0.9091001 0.72816455 0.5651999 0.99701446 0.07413988 -0.21928938 -0.52596325 0.8234353 -1.0102991 1.0390536 -0.39794827 -0.1132467 -1.1382861 -0.14406832 0.16422138 0.16287792 0.65880966
1944 0.05367774 1.3761736 0.6199395 0.30229732 -0.6671231 0.17693987 0.11902756 -1.1982791 -0.36741787 -0.8084074 -0.90464276 1.0106566 0.18296985 -0.6756023 -0.7555965 0.36296573 -0.70308065 0.56612366 -0.016140098 -0.54737294 -0.0981471 -0.45878682 -0.10815391 -0.19360586 0.50077325 1.0928332 0.36961836 -0.8549451 -1.1397475 -0.7887246 -0.37409768 -0.92134225 0.04511202 -0.3473411 0.021175623 0.33601287 0.18295637 0.2604257 0.6486014 0.28020117 -0.8493543 -0.0009715336 -0.11663696 0.23563369 -0.76053226 -1.1288322 -0.52369213 0.46463785 -0.47793314 0.329408 -0.276438 0.22098793 -0.15738538 0.03667943 -0.26624697 -0.902091 -0.15392967 -0.041297913 -0.18091327 0.08892911 -0.5083741 0.55335706 0.46591866 1.2300067
1981 0.18727753 -0.4752887 -0.37573063 -0.34455955 -0.29453522 0.52070415 0.7052513 -0.5810771 0.9064052 -0.28529996 0.989984 -0.18330514 1.1705532 -0.63437223 0.38279256 1.4089044 -0.2348802 -1.0084416 -0.96615857 -0.06917288 -0.8275615 0.8051028 -0.2935868 -1.0140227 0.14050424 0.8033936 -0.6118154 -0.046715427 -1.9310449 -0.2637889 0.012197735 -0.42934725 -0.5456712 0.99823624 0.32426772 0.6721011 -0.37091842 0.026869811 0.4149628 -1.1485863 -0.6718411 0.0297187 1.2256501 -0.30939728 -0.3315207 0.19286287 0.01263369 -1.1446432 0.7908791 1.2301131 0.049651824 1.1407455 0.5812385 0.19027153 -0.076202616 -1.1180981 -0.4175122 0.19700618 0.13162361 0.12276865 -0.26658016 0.28285807 -0.098285526 -0.5409142
114 1.8291728 0.45450294 -0.31307048 0.38668028 -0.0068726246 0.14164703 -0.05952294 -1.2042685 1.0725267 -0.45817912 1.3732773 -0.5444688 0.62472457 0.15526888 0.6004973 -0.6191145 -0.5907065 0.17784216 -0.25653234 -0.5807935 -0.7296348 1.2173721 -0.07819889 -0.830403 1.0967114 -0.7968348 1.2376151 -0.76714104 -1.5571104 -0.9376089 -0.50466776 -0.43282348 0.30295753 -0.46345216 -0.43450224 0.22459976 -0.6678687 0.5037655 1.2114564 -0.5079377 0.24630323 0.086752616 0.58081955 -0.8655207 0.2483859 -0.16810513 0.6689752 -1.64346 -0.39569223 1.0120398 1.2228116 -0.41329843 0.9229716 -0.4160432 0.039296526 0.20599307 0.69860727 0.41551143 0.7260771 -0.3907208 0.3087424 -0.34972936 -0.34663504 -0.18891396
1708 -0.37303135 -0.23676175 -0.12909366 -0.37460896 0.30508775 -0.10608897 -0.53566027 0.012273682 0.11880355 -0.7018959 -0.5204163 -0.36948696 -0.54971504 0.53814924 -0.25882018 0.62394994 -0.14428389 0.6084872 0.49526376 -0.31502822 -0.53506386 0.32159036 0.024842326 -0.5024487 0.80661136 0.77243364 0.7325432 -0.31745592 -1.0464983 0.0053112567 0.24606434 -0.9540289 0.4382386 -0.42702085 -0.58033156 -0.038946744 0.09885445 -0.47410488 -0.703631 -0.30404037 -0.17482793 -0.34758103 0.7383256 -0.23003207 0.19526146 0.11481419 0.6154469 0.05401215 -0.008628353 0.43228164 0.5400998 0.8974516 -0.06822658 0.10699937 -0.46986905 0.19121811 -0.02389168 0.41741216 0.55630076 0.022561824 -0.08505495 -0.12888272 -0.047793765 0.18882123
2348 -0.7852772 0.37908518 -0.863744 1.034091 -0.96448576 -0.32969132 0.8458864 0.20146209 -0.8385661 -0.7024161 1.0573443 0.5189909 1.4119676 0.07399842 0.67206085 -1.3391466 -0.02554886 -0.7917558 -0.5631771 -1.5722291 -1.8838816 -0.104831055 -0.77334 -0.29411092 1.4828359 -0.55762666 0.8304301 0.5727591 -0.4002241 0.90121365 0.17375052 -0.77822036 0.37643573 0.20673297 0.10065806 -0.75597787 0.020177493 0.057351474 0.1944814 -0.21043062 -0.3637377 -0.9753096 -0.16638237 -0.07305517 0.34925568 0.31959066 0.2598713 -0.20204972 -1.0566716 1.9073782 0.8118244 1.2664306 0.4435466 -0.7629531 -1.1620439 -0.08751568 0.1477271 0.5117137 0.31156382 0.61353165 -0.5589567 1.0757734 -0.008850836 1.2496587
567 1.0238266 -0.071089484 0.41008282 0.14622836 -0.24450566 1.2873297 0.48076367 0.66069144 0.09451824 0.1964136 -0.3997484 -0.11854703 -0.203078 0.5725058 -0.60670924 -0.16701783 0.039006893 0.05818003 -0.83064854 -0.7060233 -0.30018595 1.1973912 -0.6934405 -0.21049193 0.9064491 -1.1544045 0.24537937 -0.2549598 -0.94160146 0.3677322 -0.17836672 -0.28743574 -0.58385533 1.1190909 0.030820506 -0.09501436 0.030650679 -0.363804 -0.020220429 0.61007583 -0.04333553 -0.18383858 0.6654571 0.1669614 -0.0008905131 -0.42226082 -0.2909614 -0.373573 0.5276499 0.12565717 1.3875391 -0.28029972 -0.32428238 -0.85277 -0.16481954 -0.46714586 0.32119787 0.3080778 -0.34679577 0.588983 -1.9109355 -0.14803916 -0.4000354 -0.7666402
1894 -0.604204 0.79062295 0.2811335 0.23228386 0.23624018 0.24198566 0.2965264 -0.5177394 0.35294455 -0.5106502 -0.35164806 -0.081291795 -0.21541443 -0.24470642 -0.23693165 0.22520776 0.2169331 -0.3044554 -0.10237218 -1.0914599 0.2059525 0.4888606 -0.7402297 -0.95673865 -0.39225057 0.54206777 0.9821122 -0.07027641 -0.24338137 0.5981333 -0.3225768 -0.1391896 -0.3534126 -0.54880327 0.5419988 -0.13578537 0.47095153 0.4818949 0.5792437 0.77355576 -0.36007658 -0.00047543782 0.98977697 0.6029335 -0.22971301 -0.5812708 -0.6053417 -0.66973025 -0.52990687 -0.19211827 0.9764741 -0.4854936 0.22772676 -0.45107284 -0.3274046 -0.25111285 -0.18739398 0.3142455 0.3647236 -0.25271606 0.50622994 0.928223 -0.36211407 0.58169943
1143 0.18817933 0.7465758 -0.39610463 1.0382122 -0.093488455 -0.37254983 0.49919817 0.2008373 0.4327605 -0.7918967 0.50109166 0.7845207 -0.40176877 -0.23192823 0.16210912 -0.14451393 -0.54971534 0.00064177904 0.34017384 -0.30862013 -0.92316335 0.17633186 -0.7833758 -0.06643611 0.51952434 0.528989 0.3635304 0.21449658 -0.39113513 -0.03327063 0.4081833 -1.0671942 -0.1247673 0.23395728 0.09190273 -1.3750591 0.4633122 0.55899626 -0.5830733 0.5124747 -0.41636577 1.2101432 0.7778839 0.96620053 0.9976274 -0.2440811 0.6377432 0.26788437 -1.4457775 -0.45879337 0.7690481 -0.16390683 0.5296141 -0.33991435 -0.32155052 -0.40311253 0.5667676 -1.0359893 0.5961236 -0.20163861 -1.3493346 0.16545877 0.30854014 -0.14238411
16 -0.58941054 -0.19078636 -0.33000964 -0.3753228 -0.023896102 -0.06605829 -0.7918763 0.13335076 0.15654513 -0.71068156 -0.37874877 -0.2595824 -0.3630566 0.47208598 -0.36202252 0.8160718 0.124191806 0.30053926 0.53885806 -0.5288262 -0.38609764 0.49509197 0.07014682 -0.70749897 0.5577598 0.861425 0.6115677 -0.104298785 -0.7357143 -0.0061869686 0.029534582 -1.0295957 0.33986026 -0.5066995 -0.26287046 0.087573655 0.0075652897 -0.32741705 -0.6835704 -0.22278903 -0.053977393 -0.5760394 0.5496969 0.05200922 0.17543991 0.19309305 0.54021925 0.1377651 0.09344692 0.13378572 0.3838571 0.84269726 -0.22517192 -0.032030065 -0.2435626 0.2477178 0.08674833 0.36061895 0.35655445 0.055758107 -0.27957585 -0.07455743 0.074578635 0.4569592
1259 -0.63759357 0.6422127 0.27194992 0.58511466 0.037123773 -0.5063252 0.6240431 -0.43989927 -0.87482524 -0.886893 -0.37832078 0.58871406 0.33803564 -0.20173217 1.0241541 0.8048051 1.3883832 -0.80656683 0.36226663 -1.2127267 -0.3974834 0.054825503 1.0036955 -0.38384855 1.005811 -0.1491131 1.1470909 -0.36886993 -1.3136495 -0.66241825 0.5241581 -0.9442778 0.403557 0.36767596 0.011837438 -0.8987609 0.91160595 0.6447809 0.06884953 0.6416499 0.67906606 -1.368066 -0.3820849 -0.7863317 -0.19078737 -0.07436975 0.86465794 -0.9514153 -0.42230773 0.07389391 0.23632416 -0.3530631 0.12142225 0.24889931 -0.20920926 0.37997586 0.38830245 -0.054535374 0.8756491 0.7786865 -0.6095326 1.2543417 -0.8804498 -0.06985665
1666 0.6875174 0.28767553 -0.25323042 -0.21755207 -0.46888754 -0.2276185 0.038381435 -0.30672413 -0.0035880168 -0.6848715 -0.13932966 -0.3990096 0.35985163 0.28919658 -0.3124862 -0.2973206 -0.0839491 0.22374588 -0.0017566534 -0.50462 0.25574076 0.623728 0.27432445 0.03713663 0.186135 0.60637516 0.16948415 -0.5312151 -0.50262713 0.39197516 -0.64932346 -0.5485231 0.3024579 0.36737546 -0.08897684 -0.21323642 0.00012775304 0.08025183 -0.53494626 -0.3331288 0.45070085 0.04432319 0.6335622 0.4345787 -0.36412334 0.34885886 -0.05961863 0.042083718 -0.22359116 0.39394975 0.46329704 -0.0053728092 -0.063918404 0.4569474 -1.2662201 -0.08425365 -0.44849563 -0.20358446 1.1039283 0.104420334 -0.16424225 0.6878765 -0.21593346 0.29869083
2596 0.0047801877 -0.23170477 -0.19901995 0.18217362 0.57121277 -0.37406048 -0.6212447 -0.1688224 0.11767892 -0.3855467 -0.37560013 -0.5842226 -0.7720514 0.20477095 -0.12622964 0.55614704 0.046963032 0.36965054 0.3677265 -0.54020625 0.09633115 0.4085191 -0.2867574 -0.50133926 0.52417266 0.6944442 0.37615833 -0.5888445 -0.88529265 -0.10875723 0.101709366 -1.0248778 0.6953471 -0.024262015 -0.27749705 0.055329554 -0.30524808 -0.6428613 -0.66524565 -0.59942836 -0.58936304 -0.15727703 0.27458212 -0.41053176 -0.035280067 -0.066853136 0.75556445 0.28696215 0.05696392 0.31082165 0.41526675 0.89471084 -0.048124447 0.113545276 -0.6507143 0.11981789 -0.11490767 0.4609788 0.50968015 -0.08630021 -0.050808597 -0.105798766 -0.23402156 0.14472342
1366 0.17298628 0.53987277 0.65424794 0.61973274 0.46358818 0.301202 0.33524278 -0.14430362 -0.121833436 -1.1052542 -0.502872 -0.74778455 0.78092647 -0.15681319 -0.7426676 -0.25633013 0.7727381 -1.2236238 1.2023216 -0.4983006 0.6943042 -0.17774749 0.6125835 0.26039097 0.46910378 0.6986056 1.7737908 -0.4775028 -0.97311586 0.41519722 0.6635737 0.71901333 0.45462778 0.39110678 -0.21836403 0.44560853 0.37238434 0.084327616 0.27693158 0.26225197 -0.045427363 -0.080159746 -0.1298533 -0.058146067 0.7248955 -0.6877473 0.5946284 -0.61197025 -0.50918734 0.047060467 0.0808026 1.1575011 -0.28567418 0.10070459 0.18202835 -0.3167418 0.33399627 -0.2634578 0.2346833 -0.105114646 -0.5965338 1.0087073 0.3990261 -0.58524114
150 -0.20845889 0.25093308 0.4742756 0.18351623 -0.5885139 0.13386057 0.6548001 -1.0441828 0.28047848 -0.38857865 0.28051075 0.2115495 -0.25990108 -0.5830744 -1.0588737 0.34283972 0.3594912 -0.19602627 0.13504036 -1.1813186 -0.1741504 0.9344593 -0.4084324 -0.38281366 -0.7324841 0.21740618 0.6452344 -0.41035828 -0.9594633 1.0095711 -0.2259018 -0.22030133 0.13928814 0.1908348 0.10389285 0.25612906 -0.76406145 0.24778824 0.2828647 0.30055353 -0.740594 -0.17333695 -0.06524925 -0.33153027 -0.11691468 0.47252807 0.97185177 0.6162113 0.34131968 -0.23773779 0.5220658 -0.10273164 0.5042088 0.26439902 -0.53938246 -0.1524973 0.1471311 0.043368086 0.8821173 0.47956336 -0.25128075 0.31733537 0.20354798 0.06907808
620 -0.3674281 0.29486844 0.894182 0.62299955 0.2692679 0.24939111 0.4698836 -0.9035264 0.6017673 -0.28457204 0.35361153 -0.07789958 -0.21058206 0.46684128 0.67582065 0.028021654 0.24111985 0.2930808 0.096623965 -0.84524107 -0.48471493 0.5801649 -0.16208635 -0.5834293 1.6380715 0.67934006 0.79337645 -0.14600176 -0.9432725 -0.4791231 0.1026703 -1.1141217 0.73300654 1.6082897 0.5978674 -0.58663636 0.27072948 0.4705343 0.46566093 -0.30105412 0.62628645 -1.2036084 0.46351886 -0.06444516 0.8507843 -0.057826575 0.261605 -0.8342155 0.31463575 0.049569704 -0.5652005 0.04230761 -0.8071015 0.29742885 -0.57149225 0.7799955 -0.4660704 0.18531507 -0.43861783 -0.28045565 -1.3456882 -0.652842 -0.06803698 0.08935382
661 0.14987212 0.61300445 0.68008167 0.3637471 -0.3722195 -0.06003423 -0.4427637 -0.41028172 0.39729047 -0.5280601 0.37176177 -0.6155253 0.48316053 0.1491494 -0.4762634 0.027845798 -0.19871859 0.4535534 0.35712174 -1.1621283 0.017737761 -0.14508173 0.1485169 -0.23780397 -0.41828278 0.1030849 0.27895734 0.18646528 -0.354785 0.63360965 -0.5529788 -0.61480445 0.2008343 0.1046472 -0.080032684 0.21972111 0.15445757 -0.9702021 0.26279813 0.045376424 -0.01556606 -0.51586187 0.59401655 -0.042014215 0.2139064 1.0204083 -0.16528845 0.5667531 -0.30492035 0.17223173 0.5340332 0.9629314 0.9397784 0.2092424 -1.2509309 -0.43759528 0.24023157 0.3433395 0.18961765 -0.52922523 -0.89758015 0.5895744 -0.95666665 0.42897218
3249 0.07560128 0.33241132 -0.9297822 -0.07150209 0.26187873 -0.08322002 0.10376116 -0.18810411 -0.025709692 -0.1375403 -0.48793113 -0.84432894 0.51385415 -0.20059521 0.101654254 -0.47895598 -1.1394151 -0.38403457 0.13409345 -1.1737857 -0.43756887 1.6318036 0.642715 -0.08940397 0.24097298 -0.27315393 0.7881928 -0.12577897 -0.4509081 -0.24557756 0.21598569 -0.29689524 -0.14557701 1.0848233 0.24741386 0.31891483 0.01752984 -0.5575822 -0.37755987 -0.47684938 -0.7512563 -0.7566024 0.9888009 -0.5352626 0.48488435 -0.7668561 -0.66437465 0.31753826 -0.16193183 0.6580606 -0.5426601 -0.53867 0.07885137 -0.5528436 -0.24683996 -0.5497705 0.8544136 -0.86126643 0.7192323 -0.109047614 -0.18444079 -0.20666368 0.6858373 -1.2392551
1811 -0.29178968 0.24003513 0.549038 0.4137918 1.4176654 -0.17634235 0.8996437 -0.5837042 1.3181442 -0.94120073 -0.059808828 -0.076395266 0.19217643 0.29269308 -0.2704133 0.3501021 -0.8671688 -0.1412111 0.64220935 -1.5305207 -0.7457469 1.5403162 -0.1596051 -0.26094845 -0.1096843 0.14144355 1.3785408 0.2619101 -0.9811189 0.9554192 -0.04700583 -0.4514284 -0.10081547 -0.07783058 0.1739239 0.24133798 1.1573343 -0.83658415 0.30231786 0.6247019 0.20085138 -0.8268975 0.24597162 0.64569974 0.45120582 0.5091249 -0.6753783 0.8759311 0.78500175 -0.47042984 1.003079 0.1578828 0.25394982 -0.48125467 -0.6287455 0.052042138 1.344761 -1.3041047 0.028903918 0.26947245 -0.7600633 -0.30309615 -1.2785902 0.38437378
1251 -0.05106148 0.883602 -0.4803819 -0.32961935 -0.54399437 -0.04345205 0.059891254 -0.7173313 0.5090099 -0.2812774 0.20671616 0.15225184 0.15788287 -0.09653396 -0.59299904 0.5914223 -0.26387075 0.54433995 0.5562098 -0.7569004 0.44401374 0.07948152 0.0622007 0.29869676 -0.09174323 -0.082258075 0.3643131 0.30962834 -0.22585498 0.24677698 -0.11995498 -0.5492368 0.32190412 0.29256952 0.2977554 -0.19452015 0.19897324 -0.19474132 -0.57352614 -0.29924464 0.26610783 -0.3634668 0.28440195 0.32827392 -0.30961755 0.4275778 -0.24926993 -0.025087623 -0.48055065 0.045168146 0.716673 0.41475806 0.25317505 -0.2180006 -0.7015196 -0.4054189 0.16104801 0.14194536 0.05170342 0.2878548 -0.2485456 -0.070174314 0.07813816 0.20597598
1971 0.389339 0.2527505 -0.5437396 -0.56213474 -0.12968291 1.0650356 0.6723579 0.08249529 -0.14085004 0.061104275 0.18098198 -0.10736754 -0.29058948 0.23439798 0.29596433 0.36417395 -0.25026682 -0.58367354 -0.037741758 -1.051277 -0.33139777 0.15870705 -0.628679 -0.46334016 0.6298587 0.9789858 0.7368911 -0.2059921 -0.27493328 1.0981851 -1.586311 -1.0288525 0.5974495 0.77197737 1.0233343 -0.18328868 1.0155346 -0.6842916 0.46877912 0.6585529 0.13088202 0.453607 0.44606617 -0.6926606 0.25164965 -0.9573184 0.73047185 -0.56124246 -0.22696503 -0.35011157 0.24664173 0.3340634 0.37597695 0.26364738 0.18096055 -0.09180176 1.3494976 0.57550955 -0.72480565 -0.015585287 0.012545368 0.50388795 0.025487075 -0.15964904
1180 -0.009066505 0.77287245 0.5745083 0.57094234 0.2555554 0.19779734 0.5604929 -0.42751807 -0.41911358 -0.94212705 -0.6822833 -0.3352776 0.8666365 -0.2159541 -0.55800045 -0.25108853 0.81144863 -1.3069637 1.468361 -0.5415573 0.83065593 -0.119609974 0.45122084 0.41716903 0.8539584 0.32024616 1.3111693 -0.6339545 -1.3463707 0.25746596 0.38925084 0.41254056 0.5449434 0.33526328 -0.21824297 0.6634678 0.49487844 0.43240649 0.2717526 0.02613392 -0.15304476 -0.053409103 -0.24567388 0.057797883 0.73767334 -0.6561742 0.39808622 -0.63011193 -0.19664748 0.060063437 0.1601469 0.6196053 0.021072201 -0.12459501 0.21493302 -0.3821976 0.69080657 -0.30884355 0.09126972 -0.18752521 -0.8360005 0.98905265 0.31256413 -0.37292796
2217 0.28034943 0.16374764 -0.588923 -0.3783423 0.057533458 -0.17167613 0.78889316 -0.6836468 -0.22037789 -0.06258135 -0.089821324 -0.9497674 -0.38096723 0.16634084 -0.66584206 0.49518472 0.63965017 -0.44529635 0.21239713 -0.6206328 0.28309488 -0.015384654 -0.6222864 0.46120417 -0.08967282 -0.1942877 0.80532956 0.12123934 -1.0758644 0.14308691 -0.24745265 -0.8841218 0.6452348 -0.08465447 -0.22097129 -0.15939592 0.056350324 0.1703005 0.1723822 -0.36291945 0.30083 -0.30944404 0.4388017 0.28330413 -0.3209992 -0.4842698 -0.060601566 0.58722335 0.030494213 -0.10248658 0.78357583 0.20447378 -0.27329266 -0.5010262 -0.8173115 -0.84009033 0.29080522 0.7534214 0.51492506 0.08017969 0.12639937 0.6943045 0.8069258 0.22702646
865 1.2711232 0.49104896 0.24998456 0.18988603 0.22510351 0.9896305 -0.5178502 -0.33119076 -0.099364564 -0.55302685 0.41092953 0.23566672 0.75274384 -0.07582737 0.089144364 0.2299137 0.44255784 -0.6366372 0.21234639 -0.5511411 -0.88397235 0.6711581 1.0534264 -0.5943972 0.26706392 -0.17194548 -0.10789925 -0.19701119 -0.23202395 0.16766329 1.2980726 -0.72586846 0.448714 0.0970196 0.20937686 0.45593977 -0.21969019 0.86470073 0.63417065 0.2972807 0.17468919 -0.08396509 1.1120158 0.26437655 -0.354902 -0.033642367 -0.010338016 0.5303147 -0.9037117 -0.2786483 -0.39933062 0.4217837 -0.45963147 1.0661769 0.36989096 -0.83756995 0.52158344 1.195999 0.2697721 -0.514678 -0.7132686 0.014987324 -0.48211354 -0.83068585
886 0.1360597 0.050212275 -0.88900733 -0.07846465 0.25983143 0.10079308 -0.40824053 0.43351942 0.48533863 -1.1070243 1.0296955 0.26158953 -0.66504884 0.59579253 0.18556629 0.0790377 0.15063468 0.59006184 0.74555796 0.27040955 0.06571225 0.68317556 -0.9193298 -0.9189137 0.88905823 0.9868926 0.8611203 -1.1109571 -1.119424 0.08762828 -0.04419672 -0.87967265 0.3434425 0.18800214 -0.53666097 -0.5350423 0.40775123 -0.6430733 -1.0590192 -0.34891805 -0.49248677 -0.27228945 0.22340116 0.30965528 0.6063942 0.06754857 -1.0235891 0.16322167 -0.24299563 0.032951497 0.36856654 0.38163182 -0.5425961 0.4028025 -0.23500349 -0.07311402 -0.10040598 0.52955514 0.50102603 -0.35692388 -0.5179347 0.29354745 0.2308856 0.2917011
1411 -0.2438854 0.95957446 0.23026994 0.2690231 -0.3632143 -0.21094708 -0.0067862356 0.34638026 -0.48246813 0.10991609 0.8462379 -0.46628445 -0.36976296 0.066406235 0.6982588 -0.33982676 -0.46949703 -1.2492872 0.46323913 -0.93844926 -0.17323638 0.7075094 0.40505838 -0.20650816 -0.86941254 0.7878316 -0.40666226 -0.59933835 -1.0559876 -0.3557799 -0.30616307 -0.67006606 0.26733732 0.6028055 0.33824268 0.9173349 1.0185262 0.021268219 -0.2821902 -0.09718556 -0.30204675 -0.48797232 1.0563927 -0.29464233 0.20667608 -0.23771854 -0.15042824 0.28595722 -0.9177752 1.1796572 -0.49236044 -0.22323364 -0.4840337 -0.76107144 0.1584154 -0.99190056 0.63137794 0.615991 0.16100802 0.7574423 -0.45738998 -0.45186654 0.68496644 -0.66520905
1887 0.98187596 0.6294154 0.67518365 -0.22322816 0.30309123 0.10085701 -0.27713794 0.7960455 -0.8281412 -0.69373786 1.2890263 -0.2953163 0.28682888 0.24289283 -0.8064157 0.25224346 -0.0008271358 -0.46268898 -0.02492432 0.21334276 -0.7752577 0.2816943 -0.18602821 -0.45203587 0.73786986 1.0248079 0.2770755 -0.81733555 -0.525969 0.04633712 -0.5894821 -0.9603861 0.8320911 0.19091429 0.5863014 -1.3361531 0.9470325 0.19238143 -0.53097814 -0.79029423 -0.086336374 -1.5579716 0.31585252 -0.052176908 0.49539155 -1.1574913 -0.33938608 1.1929297 -0.28910726 -0.55492073 0.4956029 -0.23230565 0.14356247 0.8749429 0.060479525 0.03213875 0.6446394 1.1547049 -0.8579213 1.1504545 0.60257745 0.72663605 -0.663708 -1.028773
847 0.61042744 0.066980876 -0.10702618 0.32292554 -0.11930952 -0.14293331 0.47713348 -0.5438733 0.563577 -0.9768429 -0.1014964 -0.6068622 0.023057839 0.60719144 -0.15583679 -0.1606816 0.23956108 -0.06355007 -0.28508154 -0.5062873 0.53057575 0.9039768 0.21476434 0.42655253 0.34904134 0.30440214 0.046859637 -0.13600573 -0.99120784 0.47949874 -0.46187449 -0.3084562 0.58019173 0.15117116 -0.07796128 -0.12886415 -0.25984022 0.18241033 -0.45933056 0.19466382 -0.025842257 -0.2627316 0.7446792 0.09175325 -0.112908736 0.12502128 -0.3872548 0.9705133 -0.082352445 0.09960463 0.32544604 -0.21760976 -0.1573305 0.49794438 -0.943566 0.13237411 -0.087956205 0.032751136 1.3447099 0.061060894 0.04851391 -0.032893375 -0.29533374 0.095529765
314 -0.51932275 -0.12805903 -0.14192924 -0.29613787 0.18107048 -0.13370842 -0.67379534 0.051228087 0.15100552 -0.6256488 -0.44410983 -0.25611463 -0.39597562 0.32104227 -0.26613578 0.7342628 -0.10052216 0.58673763 0.41085294 -0.36325267 -0.39402583 0.45179167 -0.08219773 -0.42954838 0.5685484 0.78593206 0.62732327 -0.17148076 -0.8838516 -0.01364927 0.045481015 -0.92733294 0.3836088 -0.32225487 -0.32996416 0.05244552 -0.057767063 -0.32962736 -0.6788425 -0.18652765 -0.19643818 -0.3649138 0.6132974 -0.0153792435 0.21360883 0.13995995 0.6705849 -0.07748321 0.0027475387 0.36805573 0.30785242 0.82717013 -0.16581284 -0.0072648246 -0.25407046 0.20457412 -0.005199971 0.56757367 0.3198631 -0.0011301148 -0.20713319 -0.10961069 -0.018786257 0.31805587
1587 0.46295297 0.632482 0.009946696 0.001160971 -0.058346223 0.5201905 0.26703662 -0.0011727016 -0.13020416 -1.1591258 -0.14712425 0.29634565 0.2698022 0.7514881 -0.43575162 0.031746704 0.060705487 0.26563445 0.10223202 -0.1758263 0.10674727 0.4234894 0.18520002 -0.22358695 -0.38909587 0.7262136 0.11531788 -0.6287431 -0.7328623 0.577912 -0.84202003 -0.70204216 -0.45939457 -0.012592451 0.117915146 -0.5897927 -0.06351258 0.0458023 -0.12533517 -0.33149865 0.26699063 0.0811477 0.3052253 0.10654949 0.011670864 0.37634024 -0.21820119 0.043681134 -0.04771533 0.012121805 -0.15423952 0.045800813 0.031597175 0.47367185 -0.9077003 -0.8054103 -0.24532636 -0.259006 0.93081886 0.066072546 -0.6294806 0.63315713 -0.37683642 0.21668434
2063 0.102617845 0.16268687 -0.71198404 0.40814593 -0.19045903 -0.43194807 0.23357728 -0.7443117 -0.30561957 -0.085750245 0.1281766 -0.62789536 0.5403125 0.3796422 -0.11598682 0.76662236 1.1724786 -0.9061541 1.218131 0.509785 0.064330265 0.22640796 0.1818304 -0.49734402 0.13585328 0.2430166 0.99839276 -0.38696587 -0.9020918 0.18654908 -0.2784979 -0.28352252 0.6982765 0.46981534 -0.116019174 -0.34628105 0.06022784 -0.05513451 0.5661891 -0.5604381 -0.19353244 -0.26488757 0.5022497 -0.21891542 0.13585834 0.29437318 -0.022386039 0.4010444 0.3029715 -0.10995566 -0.12376062 0.6382393 0.12397358 -1.0703481 -0.97721624 -0.042505752 -0.19238536 0.1564331 0.45649847 0.13606746 -0.94317853 0.4301871 0.5992844 -0.3525338
2638 0.07319017 0.6675943 0.69221044 0.4027184 -0.31977764 -0.11373532 -0.5000435 -0.3746385 0.34413484 -0.49032852 0.2854278 -0.66725016 0.44733018 0.13044402 -0.46769708 -0.041947942 -0.19319683 0.560635 0.41083366 -1.0423577 -0.047635164 -0.19569543 0.18621753 -0.26034924 -0.3721056 0.12973747 0.25361606 0.23021077 -0.3713855 0.7444058 -0.5784707 -0.6213771 0.16245344 0.18897283 -0.15526168 0.25154245 0.18878324 -0.92401206 0.29860893 0.047451783 0.009269344 -0.5889774 0.59754306 -0.060153168 0.12840219 1.030693 -0.09725452 0.5323868 -0.4100863 0.23841648 0.506862 0.93867385 0.87248814 0.261077 -1.2936491 -0.39445674 0.25319824 0.3961114 0.28243068 -0.41292405 -0.9023027 0.599757 -0.8536601 0.4553385
2868 -0.41144395 0.48595944 0.20444234 -0.776374 -0.02910818 -0.22935787 0.15134732 0.08438094 0.73851585 -0.8412677 0.65044534 -0.42352954 0.29317397 0.12870465 -0.32574356 0.046964012 0.14001817 -0.05029715 0.3199729 -0.8936365 -0.022782555 -0.4304585 -0.047020137 -0.28711015 0.72487205 0.42670035 0.4903065 0.16941166 0.2704432 -0.28042388 -0.8707018 -0.05257024 0.3887298 -1.0340003 -0.4638292 0.035247255 -0.69613206 0.055925548 0.8745056 0.17669405 -0.52616847 -1.6123992 1.1599709 -0.18545048 0.7739861 -0.2812711 -0.25442865 0.9343874 -0.08260988 1.0266489 0.5294688 0.14263265 -0.063880384 0.2675245 -0.43218777 -0.33728874 0.37436238 -0.35430476 0.49821818 -0.15731648 -1.2916505 -0.35567576 -0.35974574 0.76453364
1644 -0.2812559 0.5563674 0.22558801 -0.13387428 -0.30974123 -0.068562314 -0.37782294 -0.58925194 -0.05487363 -0.44577152 0.33642247 -0.021673543 0.109582715 0.3348097 -0.7265231 0.14522487 0.07187211 0.35633978 0.15975505 -0.5169654 0.017865295 0.44106477 0.3067947 0.009207767 0.20813014 0.51361454 -0.04577388 0.32957378 -0.09465574 -0.2611577 -0.061927494 -0.4976716 0.12970865 0.039487273 -0.22365858 0.027608607 -0.3305104 -0.12684606 -0.45469597 -0.06559225 -0.07556612 -0.20898998 0.7976541 0.53203297 -0.011706634 0.66591907 -0.023888562 -0.019064039 -0.057665017 0.38848534 0.67231625 0.76241785 -0.29429817 0.14196385 -0.91671854 -0.17835781 0.43024126 0.077745505 -0.3816552 0.5821237 -0.86260563 0.8241807 -0.06213647 -0.21527067
1583 -0.2669223 1.3998319 -0.24645878 0.47139698 -0.46985158 0.46723327 0.21714228 -1.0588535 0.6233317 -0.09452653 -0.4512018 0.8059555 -0.0058348193 -0.2906377 -0.43831486 0.5388022 -0.96094567 -0.37310982 0.0076475083 -0.882237 0.075094216 -0.5592832 -0.9724591 -0.4645601 0.78187925 0.8088658 0.71488583 0.09145964 -0.538613 0.3452218 -0.2150231 -0.7582736 -0.17779435 0.29018342 0.14894065 0.30480236 0.2478161 0.18235698 0.20798282 -0.0912243 -0.9565529 -0.1304756 -0.40302598 0.41532055 -0.94994545 -0.35086432 -1.1204082 0.047337763 -0.8973294 -0.21868806 0.52378255 0.21200944 0.41085544 -0.79423785 -0.3511878 -0.4756036 -0.057419073 0.32805824 0.2009875 0.58019435 -0.10597512 -0.012081742 -0.59043676 0.74843025
2955 -0.62663263 1.7778887 -0.31242514 0.33589685 -0.024954421 -0.046950597 -0.70841944 0.6332378 0.11192562 -0.45388958 -0.3466497 0.25962797 0.8972758 0.050118532 0.3394942 0.3950158 -0.34291723 -1.2740867 0.29063913 -0.22914979 -0.4570894 -0.23054208 -0.23332676 -1.6718644 1.0232993 -0.24728078 0.2353705 0.10769497 0.06932924 0.6291057 -1.3188567 -0.2826664 -0.21761888 1.0754447 1.7363431 0.71971625 -0.31037763 0.44124925 0.007587168 -0.13486509 -0.55519986 -0.20304322 1.1775243 -1.0381434 0.17914501 0.13878043 0.6168599 0.8000221 0.58127534 0.5569974 1.3321909 -0.36248934 -1.0967478 0.37898308 -1.1179123 0.16888301 -0.36704725 0.8429187 0.58018035 0.090745725 -0.7133198 0.11079865 -0.9704083 0.616041
2655 0.6606062 0.20273507 -0.4694213 0.10284824 0.3294522 0.25728354 -0.36017063 0.4705083 0.40693435 -1.9189731 0.6408923 0.61007684 -0.91916734 0.8271247 -0.1948909 -0.0069175796 0.12157499 0.1784637 0.37454993 0.3152144 0.06043649 0.41819796 -0.7057857 -0.58633715 0.6995692 0.84946793 1.1970785 -1.0890993 -0.8564869 0.37082344 -0.10179441 -0.48871338 -0.1094424 0.33051035 -0.41585526 -0.4460926 0.29538426 -0.5847204 -0.8985487 -0.7083352 -0.13255233 -0.02956515 0.100337766 0.037909433 0.7054883 0.49028444 -0.94280285 -0.024750652 -0.21423721 0.2951982 0.49727407 0.5429074 -0.30130735 0.34017956 -0.099993296 -0.1129469 0.122277215 0.594073 0.62864137 -0.13474517 -0.44765416 0.413216 -0.108334675 0.44789666
709 -0.50831366 0.69730926 0.9468705 0.38961986 0.38579863 0.09993507 0.35993373 -1.201687 -0.002269131 -0.36150706 0.18572311 -0.5439233 -0.29575312 0.20501935 -0.08653275 -0.35833335 0.31039932 0.16404618 -0.004180004 -0.68534887 -0.82303303 -0.046926808 -0.17078833 -0.71880096 1.3023853 0.3743686 0.58255047 0.36456618 -0.94177556 -0.3110137 -0.5209885 -0.8898644 0.5505244 1.7382689 0.16080296 -0.39686182 0.27849936 0.26542774 0.8566407 0.15117654 0.54600906 -0.9608619 0.42155248 0.22318746 0.57051754 0.14926109 0.17423005 -0.6902875 0.22244366 0.66228116 -0.40779296 -0.4697968 -0.4464456 0.2890903 -0.05247714 0.7955654 -0.253504 0.43750104 -0.18772954 -0.29281786 -1.0079964 -0.72978103 -0.31535298 -0.1467563
2398 -0.3980633 0.2885064 -0.11553802 -0.45047653 -0.12628277 -0.19662784 -0.31502584 -0.58089274 0.0124503095 -0.6013546 0.21779226 -0.06799275 -0.08889506 0.16893278 -0.8187385 0.13450968 -0.38657194 0.68802243 0.56415445 -0.55030274 -0.07836785 -0.1685134 0.14807594 0.24178372 0.22716945 0.3420044 0.13567661 0.13150685 -0.6763581 0.17477053 0.3681365 -0.5083651 0.67944026 0.23300302 -0.02645008 -0.24527377 0.13512856 -0.072658636 -0.31386384 -0.29338488 0.2133355 0.18625827 0.75598955 0.24088009 0.2838926 0.074095994 -0.18819974 -0.45740634 -0.06688526 0.2643229 1.0125551 0.8524151 0.10711123 -0.07064997 -0.41839302 -0.21613865 0.32168755 0.10382934 0.26165503 0.37636727 -0.27321857 -0.08065784 0.15945147 0.45644772
648 -0.113927245 0.7927502 -0.67026305 0.45578626 0.16150467 -0.52128625 0.6612181 -0.05339677 0.71722555 -1.3543023 0.17483571 0.7032861 -0.5298504 0.10015572 -0.15410556 0.07876439 -0.41536075 -0.19865263 0.48542598 0.056511343 -0.791168 0.023278827 -1.1464945 0.15380304 0.9169396 0.66871226 0.5356055 -0.348191 -0.55628014 0.34338742 0.62384367 -0.8600128 -0.27126503 0.8935771 0.4071647 -1.189748 0.5758306 0.46260607 -0.39194313 0.7755699 -0.417677 1.1324314 0.35371864 0.68595034 0.1976734 -0.33630407 0.496666 0.99340117 -1.3914737 0.036026374 0.46023977 -0.2064335 0.694291 -0.1907023 -0.25755164 -0.41347608 0.3809209 -0.76147723 -0.018625608 -0.44814634 -1.5127144 0.009531933 0.22226262 0.7688079
3156 0.048164424 0.5819781 -0.92110914 -0.087984376 -0.8985601 0.47069764 0.965321 0.56259346 -0.24715026 -0.39480677 -0.21176358 0.09163776 -0.084744506 -0.4730189 -0.2290854 0.41236946 0.48406914 0.2240051 -0.0065693883 -0.122213125 -0.24860522 1.0306585 0.008997209 0.8122133 0.61167425 0.9507321 -0.086703874 -1.4652892 -0.077443436 0.33045608 0.6251286 -0.79263574 -0.8549768 1.3818766 -0.17418322 -0.8396513 0.59486383 0.42516983 0.20630203 -0.14113568 -0.5921015 -0.2805444 1.2939368 -0.42439252 0.77454996 -0.39209464 1.0055592 0.80074745 -1.4439663 0.058220983 1.2994124 0.36503014 -0.67578155 0.57051164 1.6186469 -0.5449217 -0.47127822 -0.97664255 0.5093137 0.7431475 -0.07261844 -0.2177349 0.19973001 -0.2746316
2506 -0.23537986 0.645646 -0.32991996 0.7098164 -0.43272594 0.44884616 -0.12672873 -1.172487 -0.12454159 -0.60764915 -0.2809662 -0.040013693 -0.1701066 0.57114446 -0.7149196 -0.2854182 0.4102978 -0.298896 -0.27725202 -0.033527147 0.7606932 0.5834327 -0.5867021 -0.16726862 -0.11803707 0.17642577 0.00739943 0.2782625 -1.093292 0.2640594 -0.99671113 -0.6659543 1.0443729 0.08689559 -0.45657244 -0.10642762 -0.35679427 0.10093757 -0.1971953 0.22933604 -0.36064073 0.13837884 0.37463123 0.017051727 0.2965224 0.13458864 0.6164991 0.5734052 -0.01371643 0.07716715 0.24668832 0.34339905 0.2508313 0.44083863 -0.13199694 -0.26110083 0.39977646 -0.29175413 0.6660611 -0.062401302 -0.44589603 0.0011214876 0.24794057 -0.31461743
1131 0.7667734 0.5519649 -0.44082147 0.36927235 -0.30055964 -0.512654 -0.026199192 -0.66891485 0.48120692 -0.41025457 0.0855952 -0.31319967 0.24398641 0.09739016 -0.53236943 0.40788272 -0.07444576 0.35572454 0.8283568 -0.5151361 0.5688252 0.5097959 0.15039118 -0.14623293 -0.4069698 0.0045002634 0.15848954 -0.22656457 -0.38214827 0.50480485 -0.341689 -0.47371706 0.21881439 0.63103074 0.5965905 -0.066610925 -0.08846548 -0.15862134 -0.29745987 -0.2020951 0.09278902 -0.10675781 0.45340514 0.34162983 -0.18106817 -0.16552779 0.06275409 0.17445235 0.009021535 0.32817444 0.788952 0.07564889 -0.120462246 -0.09238009 -1.1192832 -0.28081173 -0.091244385 -0.027801739 0.2294769 -0.031727817 -0.18931901 0.21646304 -0.011983405 0.54872674
486 -0.50257707 0.55668724 0.39435068 -0.3315712 0.6004689 0.24176861 0.78532255 -0.44238472 0.0073164892 -0.12421743 0.03402274 -0.10773195 -0.6115158 -0.3199811 -0.095094346 -0.31200707 0.07383933 0.55350745 -0.08353684 -1.2241141 0.33130607 1.2387812 -0.005621318 0.20430622 0.028233342 0.7295287 -0.031112278 0.05559301 -1.9819679 0.6423676 -0.39705956 -0.3104065 -0.6461657 -0.2133723 -0.016067527 0.31025368 0.1665263 0.605922 0.064370565 -0.6876536 0.3785435 -0.6930927 0.042424873 0.3351368 -0.39777493 0.67172927 -0.3332141 0.6461754 -0.44920263 -0.048244715 1.0085918 -0.83442914 0.047105514 0.23804319 -0.8315409 -0.4895299 -0.2421592 0.1638752 0.066491015 0.026838768 -0.53335327 0.34389704 0.58123475 0.052563112
2945 0.11246789 0.69362044 -0.41551 -0.83261347 0.40794832 0.21605326 0.4176613 -0.5669026 0.4016664 -0.5390659 -0.40549937 0.09296272 0.95444906 -0.2644171 0.14372747 0.13278884 0.13843489 0.25801262 0.52868766 -1.7697816 -0.43368292 0.4544253 -0.034015168 -0.6753833 2.0987382 -0.0034082131 0.59559774 -0.80197984 -1.2486051 1.4261101 -0.8551237 -0.13438222 0.7557836 1.1092393 -0.9744993 -0.6697742 -0.88028264 1.4173847 -1.2672396 -0.37786984 -0.51191586 -0.54686564 -0.15885147 -0.5382959 0.95806265 0.89413166 -0.78681755 1.0311104 -0.8224838 -0.16145852 -0.065546624 0.26306987 0.3711381 -0.037099462 -0.59395677 -1.3048205 0.14741246 1.0731398 -0.9230496 -1.3279277 -0.415835 0.3204289 0.79407275 0.8842678
136 0.53605443 -0.20744126 -0.39140517 0.067473434 0.18482077 -0.10536004 0.4142004 -0.5109288 0.10862508 -0.47586164 -0.23531479 -0.619219 -0.3520468 0.46001303 -0.57700247 -0.036547184 0.58185226 0.34084862 0.04744754 -0.16660705 0.511155 0.36768946 -0.19440734 0.16695338 0.05659487 0.050305888 0.06199894 -0.4068194 -0.35004857 0.29919338 -0.5425261 -0.87797236 0.8908431 0.25222978 0.9645497 0.3818248 -0.23490827 -0.08590787 0.03204704 -0.11715716 -0.33725387 -0.5841619 0.23630442 -0.5691946 -0.3095698 0.518798 0.7599429 0.43456426 -0.56188345 0.86041874 0.13443348 0.8075135 -0.112293854 -0.23166125 -0.86078435 -0.5490533 0.22815631 -0.04812889 0.3466173 -0.5299669 0.020531168 0.13329583 -0.9758764 -0.11591366
2790 -0.2137553 0.9700979 0.2653735 0.40771222 -0.383368 -0.25216642 -0.031044662 0.4180933 -0.5227701 -0.07115108 0.84574264 -0.43004495 -0.4791253 0.044418752 0.6801883 -0.2572697 -0.3464271 -1.2062147 0.32168645 -0.972863 -0.21691895 0.6694124 0.31214046 -0.29501083 -0.83752495 0.74446166 -0.432484 -0.49375057 -1.0261146 -0.25394404 -0.25640604 -0.6984777 0.2644161 0.6754839 0.4122796 0.97675234 0.96498287 -0.15920982 -0.35671005 -0.13549736 -0.3735352 -0.44359002 1.0633636 -0.27700758 0.11596505 -0.2526793 -0.13024539 0.31048003 -0.9649436 1.0412182 -0.57598454 -0.22865304 -0.5424965 -0.7257542 0.27133095 -0.8940095 0.58350194 0.54606223 0.1828749 0.7323821 -0.48597708 -0.4370319 0.6966588 -0.67886454
101 0.060780212 -0.19574924 1.492366 0.817999 -0.45571533 0.7742497 -0.09603267 0.75456053 0.47833064 0.51735026 1.0582027 0.3080328 0.8599121 -1.0476246 -1.3710803 1.4691744 -0.23820533 -0.42629686 -0.4224592 -0.93961763 -0.1835428 0.51702744 0.3313496 -0.8621976 0.5845957 0.7028337 0.69489276 0.069854304 -0.24327329 0.69070727 -0.26960692 -0.45607126 0.93003666 0.978816 0.15170325 1.0748699 0.17439078 0.30194694 -0.8433239 -0.22827962 0.02965281 -0.12348696 -0.28915784 -1.5120126 0.593882 -1.1696386 -0.7236086 -0.3475916 -0.34647748 0.6095761 0.62438715 -0.13139117 0.69593364 -0.3858751 -1.2496008 -1.1742445 0.23801278 -0.40529677 0.7805976 0.3143326 0.2266006 1.1697108 -0.4541459 1.0171875
1004 0.19548465 -0.16979234 0.4273817 0.15802959 0.78857934 0.45910665 0.36871678 0.27160713 0.35878834 -0.3881392 0.29924208 0.8574396 0.11252303 -0.6077473 -0.17675889 0.87470806 -0.8366777 -0.7227707 0.31655747 -0.73814595 -0.17555706 0.34751981 0.19685696 -0.5367294 0.7452786 0.123261146 -0.21690284 -0.122019306 -0.2588099 0.286835 0.45085165 -0.14250705 1.175318 0.28710672 0.41244867 -0.5340372 -0.46714893 -0.24217704 0.16328603 -0.25098315 0.73333454 0.1638099 0.6845258 -0.01423345 0.15738136 0.5432976 -0.21224804 1.1643741 -0.67908096 0.2738181 -0.17878798 0.5751081 -0.57935417 -0.7767175 1.042472 -0.50870687 -0.043794658 0.5695541 0.10144214 0.47571424 -0.7072136 1.4126953 -0.5518463 -0.71365863
109 -0.6623385 -0.35529128 0.8521593 -0.04542744 0.5491327 -0.18116748 -1.3213516 -0.38693026 -0.29662275 -0.40796 -0.061750263 -0.642857 0.4858348 -1.1529207 -0.266077 0.15369616 0.6381867 -0.022959664 -0.2616873 -0.30020565 -0.2625227 1.2090334 -0.8120715 -0.77297795 2.1501012 0.219634 0.33835757 -1.2700683 -1.1808105 1.7778511 -0.14739695 0.25483724 -0.47786984 0.23631106 -1.0146258 0.49178582 0.049610496 -0.2269741 -1.3283131 0.96099126 0.8266323 -1.1751623 1.0797092 -1.7536075 0.91008407 -0.21460685 -0.92162097 -0.17919295 -1.8958722 -0.49910876 0.61222774 -0.286742 0.7343361 0.10883625 -0.119017005 -0.87995535 1.3743256 -0.5155633 1.2393613 -1.3522298 0.7214831 -0.3469381 0.9115287 -0.22940035
2434 -0.057355184 0.25170445 0.40141156 -0.33239454 -0.15169306 0.37672937 0.06751798 -0.5915094 0.53881675 -1.078771 0.7366042 -0.4235639 -0.70136595 0.52523875 -0.43383372 0.5564009 0.8275974 -0.49475622 0.024838721 -0.2691491 -1.0737423 1.2038869 0.78629845 -0.60338175 0.5020162 0.7969873 0.6515754 0.84524196 -1.3001479 -0.24703269 0.21488395 -0.056580592 -0.56399196 1.176931 0.0687647 -1.4978825 0.8187038 0.17404667 -1.1878235 0.58215094 0.7698747 -1.3542622 0.13520518 -1.0165843 0.6131649 -0.2938587 0.28403273 -0.48506665 -0.236997 -0.034608994 -0.7088874 -0.6630016 -0.3066577 -0.25340298 0.36591965 -0.5877366 -0.0026058452 -0.0038997915 -0.31769598 -0.06422456 -0.6707331 0.4802134 -0.5445507 0.09868329
1130 0.7279698 0.346205 -0.21483837 -0.40056342 -0.021408068 0.031918112 0.20439427 -0.0660911 0.28697655 -1.1001112 -0.38427988 0.44274655 0.22723846 0.38399622 -0.23054865 -0.278368 0.11207025 -0.15042488 0.09308798 -0.43694445 0.5342774 1.1222659 0.17871487 0.38612443 0.5559085 0.578185 0.057946604 -0.58365124 -1.155274 0.4999486 -0.8058614 -0.55368906 0.018248416 0.03290235 0.23930036 -0.9871243 -0.12162267 -0.010012788 -0.4749248 -0.3647477 0.75516105 -0.2045098 0.0053777555 0.68400073 -0.08069475 0.5782346 -0.22648712 0.065096006 0.100038595 0.26909912 0.1613448 0.056034375 -0.19208333 0.28393206 -0.81251687 -0.57897425 0.20198825 -0.32190436 1.1500448 -0.1305704 0.02919091 0.66362107 0.07110299 0.050841436
1117 -0.4786152 -0.27312708 -0.22929713 -0.45520073 0.31634483 -0.117885195 -0.4451068 -0.07475139 0.060912892 -0.6310365 -0.42294088 -0.2832499 -0.35487035 0.27096853 -0.22835676 0.51493376 -0.19222651 0.5853175 0.49298245 -0.3330325 -0.31060785 0.1877537 0.01367671 -0.2989914 0.6502054 0.89017195 0.6017702 -0.13729969 -0.8123995 0.09262529 0.10620737 -0.93549985 0.4898229 -0.21025082 -0.3268797 -0.006562685 0.12953067 -0.5080734 -0.79950625 -0.22848575 -0.18155219 -0.34803268 0.47866815 -0.02530703 0.0023130062 0.077977486 0.5874574 -0.050031986 -0.039976157 0.47007132 0.5327434 0.92973393 -0.22758389 -0.033647776 -0.41493556 0.229535 0.0040228344 0.45241714 0.34510863 0.106716305 -0.1477368 -0.061352257 0.089682356 0.21209285
3241 0.5921161 0.9023021 -0.025829917 -1.3381557 -0.021478433 0.38984355 0.61690104 -0.45100597 -0.9952417 -0.6824816 0.52585906 0.7793159 0.088429324 0.11789377 -1.0593696 0.89604133 0.6140049 0.16361538 -0.6006962 -0.8343512 -1.1216578 1.5687741 0.16542977 -0.5941536 1.5712283 1.5184929 -0.40078592 -0.6134074 -0.9987826 0.42240027 -0.32439366 0.012404613 1.2734233 -0.7868676 -0.9856614 -1.2673308 -0.6542159 1.0998062 -0.16110446 -0.66923094 -0.6617396 -0.30112204 -0.32485276 -0.31447545 0.8443686 0.56873703 -0.07184692 0.35435522 -1.2411381 0.30554605 -0.3748627 -0.90383613 -0.28772178 -1.1307092 0.020574182 -0.37430307 -0.5117146 -0.27804056 0.73890597 -1.0011216 0.67214096 1.0831721 -0.6238733 -0.67183733
1227 -0.20909299 0.47365478 0.43718317 0.1479972 -0.6058691 0.5053582 0.7818915 -0.20859577 -0.32559812 -1.0241444 0.8489899 -0.78768784 1.0730518 0.02896342 0.5697805 1.3010234 -0.44032487 -1.2252046 0.16179596 0.1085998 -0.51743805 -0.2548595 -1.2938582 -0.78006244 1.5249009 0.51465744 -0.83944315 -0.8972542 -0.43425432 0.035053715 0.5216936 -1.3931099 0.18507013 0.21654373 -1.0156759 0.3883528 -0.46853712 0.81980914 -0.946072 -0.57669854 -0.9652229 -0.7648749 0.019015247 0.24529804 -0.13952802 -0.0057204636 0.5721596 -0.6070302 -0.41282192 -0.23377772 0.099799946 0.08573741 -1.0533048 -1.5818765 -0.54171443 1.040924 0.5873276 -0.10068056 0.12013675 -0.58647066 -0.820226 0.8107195 0.7264303 -0.037420414
247 0.02259447 0.066566214 0.5500934 0.5455607 -0.2545568 -0.51274395 0.5272198 0.11004403 -0.35302874 -0.5332362 -0.01894456 -0.54002094 0.43302906 0.05965083 -0.01772199 0.10568626 1.5616733 -1.2348963 1.3599201 -0.71850526 0.36925837 -0.04105321 0.49248374 -0.235744 0.66539633 0.6326841 1.3015448 -0.55664873 -1.0264581 0.0071091643 0.46868378 0.4030489 0.91081834 0.5465398 -0.35028437 -0.050150942 0.03440845 0.015920047 0.37382174 0.32687828 -0.11855297 -0.5393206 0.41938928 0.1281359 0.4924613 0.12341536 -0.05539308 -0.33697274 0.03260342 0.3960081 -0.16833934 0.74678826 0.011638484 -0.6944483 -0.74385935 -0.21742712 0.06670424 -0.18474983 -0.039232116 0.34391603 -0.5270647 0.44336048 0.0435602 -0.99431354
2853 0.9374408 0.016262677 0.22525768 -1.2357768 -0.1757614 1.2385159 -0.67465895 -0.5865963 0.7639482 -0.31598538 -0.2711037 -0.91395104 -1.0725276 -0.9719997 -0.48563185 0.53998095 0.09396649 -0.19308463 1.2192223 -1.0324509 0.051934022 1.0551847 -1.3331838 0.22304581 0.4875694 -0.12289757 -0.13789456 -1.0953512 -1.7086625 -0.52376866 0.6796611 -0.20184554 -0.23172097 0.87014 0.48075292 -0.27255145 1.1187929 1.2545302 0.008532574 0.13763297 0.36462045 0.7387631 0.3123347 -0.69794804 0.16141888 -0.3588892 0.6122446 1.3137538 -1.7475027 0.97833633 -0.14604796 -1.3885169 -0.38204214 -0.19296007 0.01722969 0.5783247 0.06665396 0.703904 0.4720832 0.8038034 -1.6051402 1.198247 1.0631562 0.27478644
2385 0.57213116 0.36213046 0.3868324 -0.40656126 0.38188252 0.87355345 0.64428264 -0.8276466 0.090134494 0.5049104 0.12909414 -0.25621286 0.73819697 -0.28789502 -0.9076215 1.315017 0.882333 -0.23325568 0.74638206 -2.522269 0.5679824 0.111416526 -0.75232893 -0.8730372 1.5414819 -0.504738 0.44341958 -1.6590946 -1.0446306 -0.0725264 -0.3591633 0.029153192 -0.72688025 0.66015214 0.2026067 0.84673685 -1.1689936 0.15385373 -1.4095073 0.3000752 0.73454577 -0.16235907 1.2532619 -0.903206 -0.5788124 0.08899332 -0.58149475 1.1776098 -1.0202186 -0.57926786 -1.0440533 0.20617518 0.21110761 0.46712396 -1.0052086 -0.6941092 -0.28440055 0.82123786 0.08031376 1.0100785 -1.4259801 0.19713083 -0.19328581 -0.34688655
487 -0.39653295 0.48471296 -0.908142 -0.033893667 -0.831917 0.73149335 0.2771254 0.022441369 0.6568837 -0.5644887 -0.8161117 -0.030802606 1.2532141 -1.0156463 0.14370334 -1.1172192 -0.46733826 0.29064843 -0.25030228 -0.7866905 -0.43085757 -0.037716635 -0.28139913 -0.52222 0.262392 0.6479054 1.9354476 0.04096995 -0.52734995 0.60686016 -0.504619 -1.2368119 -0.3369763 0.0465287 -0.23460275 0.07612658 0.5533703 2.299101 -0.7798199 -0.07770969 -0.22954614 0.5074636 -0.35706386 -1.3246049 0.97525406 0.73407316 0.2765205 0.84825593 -0.7421889 0.5475874 0.55179465 -0.006854432 -1.1151052 -0.9432679 -0.7270296 -0.40163997 0.30963343 0.4070964 0.77265614 -0.7718412 -0.15291864 1.9409525 0.37457412 -0.60884064
2427 0.4119803 0.33761823 0.011511845 -0.12686914 -0.024575584 0.34032616 0.20558411 -0.22568655 0.39296487 -1.0462284 -0.01972902 0.31686673 -0.2191894 0.4196734 0.06614963 -0.08738009 -0.23800114 0.11854621 -0.11628168 -0.5487375 0.23467338 0.8013385 -0.09578072 -0.1983469 0.14399192 0.67526853 0.3930013 -0.49997443 -0.629373 0.4425449 -0.46586293 -0.05785348 -0.19957206 0.22769405 -0.10368242 -0.34106016 0.08634575 0.22710207 -0.46516222 -0.16784705 0.21533826 0.666719 0.35842 0.37264144 -0.16854024 0.22153683 -0.4035006 0.21261087 -0.08879332 0.025287416 0.39885595 0.109936975 -0.009065716 0.2932025 -1.1009495 -0.26420406 -0.21686259 -0.23295502 1.463887 0.09766827 -0.25276318 0.1535091 -0.5431504 0.10125773
2848 0.14444953 0.43569806 0.18211026 0.19175944 -0.12011489 -0.0054179793 0.46152267 -0.38069624 -0.4488531 -0.91745126 -0.15657139 -0.28369352 0.74073654 -0.4294851 -0.16572131 -0.31294605 1.1802974 -1.2080442 0.9967346 -0.806481 0.59569854 -0.2657108 0.748104 -0.09381678 0.79439557 0.015681095 1.2919457 -0.44373477 -1.4109457 -0.07185404 0.5935499 0.2652657 1.0894618 0.7546295 -0.321026 0.55943453 0.4916904 0.48850852 0.3711856 0.15673737 0.1836056 -0.6574126 -0.35902792 -0.42998448 0.5208524 -0.55175835 0.007476295 -0.8640182 -0.2647433 0.03887579 0.31091845 0.5007931 0.5598661 0.2789744 0.0742259 0.3239246 0.48284408 -0.16739966 0.26301864 0.14397207 -0.7057286 0.6901184 0.26426488 -0.27319407
3295 0.35058144 0.24637893 -0.3124453 -0.28151593 0.68906856 0.706256 0.30746412 -0.60125256 -0.25480074 -0.14499928 -0.24112077 -0.188929 0.36520198 -0.06838201 -0.9000188 -0.15180519 0.4120048 0.3290804 -0.3759685 -1.1741207 1.0301247 1.1669873 -0.8704733 -1.643946 1.1668718 -0.16388988 -0.4348798 -0.5956007 -1.4047755 0.1076014 -0.083339915 -0.7153016 -0.91903937 0.97568303 -1.6263174 -0.24998574 -1.4429291 0.8823984 -0.16895697 -0.6212851 0.4650071 -1.5961463 0.04838453 -0.8325748 0.7187436 -0.420121 -1.8653964 -0.38387316 -1.4705925 0.5740856 0.3125147 1.0221246 -1.1325434 1.4996188 0.42098626 -1.8644453 -0.36420077 0.14925317 0.60867244 -0.7787322 -0.29346234 -0.26108047 0.24534816 -0.88183355
2633 0.22379224 -0.17184946 -0.41120416 -0.04386703 -0.13581628 -0.27083513 0.57730925 -0.5367039 0.04488792 -0.23364095 0.003837262 -0.28917918 -0.4794635 0.37059987 -0.17719556 0.20367971 0.4672131 -0.11279697 0.015719423 -0.5976846 0.5101922 0.37249756 -0.20275687 0.3347549 -0.15321356 0.033693362 0.20108186 -0.25191107 -1.1033125 0.4862752 0.1483982 -0.7467623 0.84021646 -0.013440186 0.11680988 0.10711958 -0.08691351 -0.0312836 -0.5435147 -0.22359757 0.15353711 -0.72761345 0.69542056 0.1979129 -0.38811967 -0.081104785 -0.18709652 0.3578199 -0.028359914 0.23100105 0.48118186 -0.024603654 -0.29157147 -0.06619173 -0.857983 -0.19020443 0.25544834 0.79258424 1.0127167 0.09864354 0.06264669 0.47317335 0.12082265 0.49000525
2507 0.602355 0.41207856 -0.112002954 0.31918395 0.31273824 -0.19531076 -0.043798044 -1.1038412 -0.3337535 -0.15600002 -0.52855307 -0.3487148 -0.45281276 0.6929119 -0.509137 0.2837911 0.8931352 0.10775913 0.12177884 0.24669984 0.09821921 0.16256636 -0.4519115 -0.04056024 0.29847986 0.20332257 -0.015059377 -0.24632968 -0.67142385 -0.10682869 -0.6332167 -0.83085704 1.2703547 0.23401868 0.43231496 0.28796497 -0.37316754 0.13083348 -0.22245248 0.33759004 -0.4013746 -0.24498336 0.2348297 -0.19259591 -0.039296385 0.37621653 0.62764716 0.61566794 -0.009259908 0.46373674 0.41797885 0.24962507 -0.3328259 0.07891178 -0.68392247 -0.66218835 0.18617696 -0.18616287 0.4899449 -0.10995711 -0.061600186 0.007488958 -0.32125416 -0.55418426
266 -0.3116977 0.44359452 -0.7830233 -0.03832477 0.87912124 0.26770684 0.44997022 -0.063345715 -0.17643668 -0.5729942 -0.17436776 -0.3180442 0.4531016 0.022736408 0.523389 -0.55810696 -0.90045893 -0.36180374 0.0019641786 -1.035382 -0.1527165 1.4502878 0.3798606 0.105664425 0.14710598 -0.024618188 0.29875353 -0.015210734 -0.81237185 -0.60888654 -0.33796585 -0.35349706 0.18849652 0.7394514 0.711414 0.643963 -0.07173916 -0.60256594 -0.97001016 0.13422 -1.0923738 -0.60391116 0.60305023 -0.7644454 0.13053256 -0.7345011 -0.07573512 0.59010893 -0.43961972 0.14421864 -0.33945417 -0.63936204 0.07725711 -0.44360152 -0.021325624 -0.18682621 0.1400563 -0.5011407 0.40926373 -0.232911 -0.6859712 -0.24154301 0.7448489 -1.4922527
2166 -0.3579983 -0.431828 -0.25778967 -0.4565119 0.09155168 -0.3084925 -0.75076056 -0.12386685 0.06663349 -0.7540201 -0.33465046 -0.13118598 -0.2961776 0.22593124 -0.26452303 0.51766074 0.20631021 0.32623997 0.44900486 -0.54146516 -0.25279602 0.44615737 0.04633288 -0.50888 0.48817852 0.89532477 0.6371087 -0.19228588 -0.9621296 0.21463431 0.13996871 -1.147108 0.3929225 -0.20056021 -0.253316 -0.012444022 0.14588778 -0.33880848 -0.86830616 -0.3587008 -0.233619 -0.46641812 0.4160671 -0.14699948 -0.07346938 0.30210707 0.6735454 -0.0851282 0.21025944 0.11348123 0.5790273 0.88921744 0.045641772 0.0666397 -0.5928196 0.081412055 -0.11897644 0.38905996 0.36627868 -0.037833437 -0.074402034 -0.1515381 -0.015753593 0.22741665
2259 1.6887794 0.6136894 0.01663919 0.5820062 0.64958096 0.40395686 -0.15402392 0.3068122 0.53361183 0.36728546 -0.1201926 0.34021148 0.18585552 -0.59007955 0.012153591 -0.06433821 0.48406625 0.24164699 0.36798045 -0.58435774 0.4753563 0.6703859 0.87617326 -0.38891625 1.0901482 1.3202403 0.76503325 0.016575454 -0.27381045 0.5174783 0.55014706 -0.84540284 -0.40306857 0.02008024 0.12145259 -0.12400374 -0.7623621 0.4865412 0.021242935 0.70879734 -0.3600525 0.6858877 1.6021999 -0.61605155 -0.5237232 -0.28024733 0.32215792 0.33636037 -0.4163862 0.14775261 -0.015481777 -0.47866482 -0.44727376 -0.74903226 -0.6069873 0.05292119 0.1749452 0.6289159 -0.21549898 -1.0425318 -1.3111413 -0.14116691 -0.008126153 0.015068853
923 0.22235079 -0.0051629795 -0.59555507 0.06716227 -0.20481914 0.2502063 0.49316034 0.74092054 0.55397105 -0.25672874 0.57078487 0.21344535 0.851781 -0.27313972 -0.4727895 0.32054093 -0.08253636 0.044319805 0.85167646 -1.1878127 -0.12625046 -0.30022913 -0.28362164 -0.56948376 0.55140644 0.40156236 0.4588442 0.32254332 -0.67073756 0.47869155 0.5510212 -0.36932373 0.17070074 0.28520367 -0.45584294 -0.13223322 -0.41930884 0.06259423 -0.06181891 0.73231846 -0.3749549 0.19501187 0.94110996 -0.27276778 -0.46456712 0.18374309 -0.02590014 0.018532876 0.22628962 -0.079408444 0.06011026 -0.22103654 -0.25461257 -0.51597023 0.6262757 -0.5436302 0.20619203 -0.044105556 -0.22636425 -0.61190987 -0.25117058 0.46203458 -0.26247716 -1.06459
3080 -0.97120374 0.9150355 -0.41549847 0.30998445 -0.52385837 1.0061045 0.5144106 -0.8823836 -0.05171419 -0.38273707 -0.20331588 0.53424466 0.14663006 -0.10363339 -0.47457206 0.6056017 -1.7917291 -0.94529074 -0.4139218 -1.0704303 0.15246171 -0.0712685 -1.2314323 -0.52210134 1.79403 0.46047243 0.68296075 0.21782608 -0.31916347 0.34935027 -0.45384973 -1.819365 -0.016746942 0.7168499 0.79079705 0.44385707 -0.04855626 0.3213111 0.65651107 -0.11385321 -0.82263404 -0.47941634 -1.0325176 0.750818 -0.6181068 0.27754232 -1.5232391 -0.40257847 -0.8555818 -0.63520247 0.71840394 1.0471362 0.49943143 -0.14386265 -0.034515142 -0.54347944 -0.26875365 0.1934251 0.93922246 0.59277654 -0.3747049 0.054994598 -0.5307449 0.70807385
2404 -0.34918693 0.42947894 0.7048999 0.021036338 -0.40034604 0.06445006 -0.30965626 -0.30654186 0.24149305 -0.4761871 0.23299727 -0.3811772 0.021713866 0.09457529 -0.8100703 -0.07546128 0.16552977 0.5000546 0.017779429 -0.3806245 -0.13867925 -0.04240057 0.30469495 -0.23321965 -0.12117445 0.8795757 0.04045087 0.09839466 -0.08612083 0.2227418 -0.52986807 -0.66557336 -0.33600768 -0.30018523 -0.3153667 0.25087428 0.008784207 -0.49631432 0.3503606 -0.42968976 -0.110004745 -0.66560674 0.60386026 0.12217607 0.19620445 1.112931 -0.078291774 0.5525209 -0.45148522 0.14411305 0.20557849 0.6916048 0.30713156 0.20086733 -1.0272375 -0.6183295 0.4696475 0.27125788 -0.0013714506 0.070064716 -1.1214358 0.7663863 -0.35580775 0.20462276
208 -0.11352001 1.9186642 0.2732642 0.45560363 -0.60622853 1.0021887 0.685922 -0.9125314 0.7299113 -0.14929208 0.77769434 -0.5418895 0.01766133 -0.8311462 -0.4204018 -0.09629659 -0.6232911 -0.1722039 1.5096669 0.29362732 -0.43723363 -0.013167412 -0.4444668 -0.45047733 0.4385434 1.1174432 -0.42057118 -1.7277827 -0.077100895 0.008778605 0.35566455 -0.6724305 -0.7839 -0.11942268 0.6080513 -0.004258856 -0.4780137 0.61853826 -0.46790934 0.08523286 0.8301173 -0.49584183 1.2278047 0.043393146 0.32888547 -0.8178444 0.60908955 -0.010665322 0.20560396 0.23567453 0.38946158 0.49900135 0.23216411 0.28663358 -0.79883564 0.50785697 0.059497036 0.16391192 0.25038156 0.24189687 -0.3568601 0.29286134 0.25217217 -1.0407652
825 -0.010509929 0.36636868 1.6473119 0.58267474 -0.29009697 1.072333 0.03893448 0.565169 0.5430937 0.0626559 0.39655122 0.07433007 0.62740415 -0.3293689 -1.1692257 1.274558 -0.5746092 -0.6714075 -0.57142466 -0.6762115 -0.095588624 0.7898171 -0.1769891 -0.7694127 0.4437478 0.50227636 0.6861563 0.18177864 0.41915432 0.12842758 -0.47511685 -0.44100094 0.9153583 1.0867274 -0.19080187 1.0404117 0.07240335 0.22918339 -0.46846598 0.33857346 -0.24934961 0.23201087 -0.063442186 -1.1253402 -0.034827113 -0.6362367 -0.58961964 -0.52525955 -0.5575105 1.1143801 0.46983707 0.17651583 0.2651769 0.01292725 -1.1359477 -1.2040129 -0.61601335 -0.33769423 0.685615 0.08649089 0.31287113 1.3466522 -0.38854933 0.39836234
2475 -0.07380688 0.44316474 0.024614371 -0.25173083 -0.053214412 -0.2667477 -0.63404757 -0.8432899 -0.0630977 -0.42681006 0.1437418 0.12223974 -0.030884275 0.31672505 -0.4517323 0.2343773 -0.029334996 0.3438958 0.004338816 -0.51084137 0.23579782 0.3749427 0.2303399 0.17590994 0.4047136 0.42113388 0.38536775 0.2691275 -0.178362 0.042815242 0.09005011 -0.13232338 0.1229122 0.25782466 -0.31598642 -0.10314419 0.115615495 -0.08620829 -0.4151173 0.11121633 -0.38551015 -0.17725885 0.9650274 0.48721504 -0.00731903 0.29905197 0.28130102 -0.34480286 0.12781788 0.6778081 0.9078877 0.7968223 -0.5173252 0.16379143 -0.6683329 -0.0775017 0.23441324 0.18916988 -0.10912782 0.6621172 -0.46338883 0.35875675 0.049162004 -0.039157227
303 -0.014064934 0.95394367 -0.2497105 0.13703254 -0.25323996 -0.06440759 -1.1378908 -0.072686754 -0.5256961 -0.5744347 -0.055709608 -0.3195237 0.2562551 0.6292904 -0.6059442 0.48128766 0.19502027 0.6984033 0.19370072 -0.8182372 -0.21689674 0.885245 -0.32023767 -0.448915 0.28201464 0.48170862 0.22580601 0.48193568 -0.038819216 -0.1475036 0.21790533 -0.13881025 0.5613544 0.3399 -0.31038505 -0.32674095 -0.5573869 0.20380487 -0.1439606 -0.1651799 -0.05662745 -0.21552782 0.7877902 0.22726004 -0.007468501 0.46148977 -0.2763434 -0.0006483367 0.27755153 0.914762 0.58681226 0.7309666 0.25916833 -0.1441085 -0.1551098 0.13597897 1.0982702 0.510523 -0.015782963 0.750645 0.078382425 -0.20330538 0.41501373 0.25056502
2228 0.14646454 0.7660562 0.6339703 0.19068497 -0.19872682 0.004410717 0.13704643 -0.41475126 -0.16168481 -1.0771377 0.19714004 -1.0667182 0.20121494 0.078995764 -0.1452831 0.2627659 1.3179221 0.5291323 -0.28965533 0.12549545 -0.08681917 0.94654983 -1.4229958 -0.3212019 0.7595397 -0.023362694 0.18460152 -0.11066501 -0.34554863 0.062453832 0.38745326 -0.74148124 0.28641114 0.6878228 0.57353723 0.6409774 -0.8431149 -0.33081612 -0.036829226 -0.67235124 0.4918424 -0.03366103 -0.13256668 0.22822376 0.23542419 -0.0118857175 0.270244 -0.57125366 -0.7832658 0.60000354 0.42624626 0.5774435 0.4495474 -0.47132275 -0.2836619 0.076628774 -0.30627218 0.027450807 0.32437405 -1.0709075 0.107395336 0.23267397 -0.46883094 -0.88781106
