3327 64
1422 -0.081483 -0.426016 0.207161 0.913426 0.638659 0.039152 0.550541 0.487086 -0.108195 0.286084 -0.250459 -0.358243 0.068664 0.253832 -0.285977 -0.094579 0.090466 -0.108978 -0.226826 -0.195382 0.289741 -0.410764 -0.008659 0.037757 0.485372 0.671248 0.466188 0.604829 -0.713579 0.480047 -0.299531 -0.125764 0.161139 -0.413637 -0.662292 -0.057548 0.883181 -0.281182 -0.627383 -0.313486 -0.489519 0.473065 0.017347 0.107408 0.084672 -0.317564 0.026392 -0.194892 -0.392867 -0.050239 0.349989 -0.126652 0.473593 -0.368818 0.340293 0.080338 0.240561 0.344640 0.183516 0.193693 0.467406 -0.346907 0.298569 0.237826
582 0.514910 0.160755 -0.260686 -0.055367 -0.390049 -0.322062 1.646252 -0.103658 0.078155 0.101013 -0.152451 -0.189801 -0.489233 -0.091861 -0.410427 -0.268738 -0.567650 -0.412662 0.357186 0.431558 -0.510167 0.021255 -0.484036 0.013837 0.099076 0.638665 0.759226 0.069139 0.143461 -0.149942 0.376588 0.499122 0.469934 0.529332 -0.342148 -0.429600 0.023834 -0.844412 0.410852 -0.051558 -0.394436 0.680578 -0.072626 0.368091 0.092708 -0.341810 0.115478 -0.540756 0.291384 0.039106 0.332343 0.263331 0.060966 0.311557 0.038483 0.247454 0.256275 0.214525 1.094460 -0.508276 -0.920724 -0.482113 0.233969 0.085943
468 0.589546 -0.089722 -0.013670 -0.433056 0.303081 0.124744 -0.311381 -0.639798 -0.051023 0.308902 -0.324490 -0.020816 -0.442391 0.128030 -0.535335 -1.280002 0.391939 -0.049873 -0.177830 0.412636 0.306751 0.081319 0.048444 0.446419 -0.339374 0.382255 0.206146 0.820719 -0.123111 0.533343 0.539070 -0.152042 -0.641213 0.140810 -0.076628 0.462965 -0.235036 -0.364366 0.108911 -0.266083 -1.003221 0.865896 0.560473 0.113983 -0.640325 0.383896 -0.309837 0.015009 0.257102 0.233644 0.818472 -0.434221 -0.129631 -0.564094 -0.318320 0.215391 0.666168 -0.150763 -0.446334 -0.330065 -0.079198 0.145890 0.594792 0.294921
251 0.181257 0.025089 0.038853 -0.227767 0.417387 0.005216 1.401468 0.301985 -0.731250 -1.118920 0.395637 -0.098906 0.786483 -0.023226 -0.552640 0.422576 -0.385826 1.041383 -0.459498 1.281504 -0.084573 0.119916 -0.227593 -0.297848 0.417043 0.637054 0.602817 -0.361714 0.186496 0.426915 0.484143 -0.008765 -0.315121 0.435910 0.567661 -0.525884 0.836328 -0.057188 -0.028845 0.258372 -0.100867 0.665913 0.687685 -0.145655 0.053356 -0.074961 0.533707 0.312921 -0.549442 0.361033 -0.200435 -0.302594 0.197119 0.977268 0.532420 1.072260 0.085764 -0.243116 -0.071121 -0.787557 -0.141698 0.844143 -0.406622 -0.271625
2758 0.328659 0.742182 0.587388 -0.336286 0.019219 0.220473 -0.152054 0.363875 -0.186065 -0.073873 -0.195479 -0.978408 -0.657683 0.422749 -0.148028 0.343252 -0.545163 0.818799 0.363433 -0.376546 -0.040414 0.340886 0.123001 0.482045 0.280111 0.784088 -0.122548 0.250800 0.271401 0.316619 -0.071078 0.504959 -0.425582 -0.412584 0.686568 0.654739 -0.389568 0.568911 0.249829 -0.447588 -0.128195 -0.065631 0.113244 0.833297 0.375102 -0.715289 0.010775 -0.121802 -0.765633 0.720733 0.322071 -0.890494 0.132524 -0.262163 0.107051 -0.169778 0.263708 0.288314 0.870473 -0.102823 -0.093819 0.462573 0.292435 0.156211
1367 -0.231193 0.951085 0.363050 -0.596686 0.299433 0.608010 -0.006003 -0.259799 -0.559141 0.601153 -0.117756 -0.442564 -0.394781 0.924958 -1.278007 -0.269197 -0.329596 -0.000682 0.552473 0.920016 1.270867 -0.383689 -0.731361 -0.483960 0.343150 0.497900 -0.120124 0.474543 -0.031774 -0.039726 0.480165 -0.571529 0.669649 -0.033422 0.246245 -0.640928 -0.183088 -0.459493 -0.320765 0.200903 -0.283263 0.818918 -0.076358 -0.296639 -0.548863 -0.086087 -0.684570 -0.986637 -0.086748 0.286687 0.736800 -0.110955 -0.103701 -0.117113 -0.688203 0.374436 -0.020088 -0.025867 -0.006329 -0.145991 0.451597 -0.486663 0.248603 0.200132
2867 -0.442520 -0.031908 0.016718 -0.436580 -0.138118 0.433522 0.584480 -0.180537 -0.676463 0.211974 0.331181 -0.293634 -0.412636 0.189447 0.521881 -0.079312 -0.673094 0.053944 -0.168395 -0.091812 -0.820388 -1.042755 -0.827439 0.741198 -0.434523 0.507862 -0.034289 -0.071521 -0.132647 -0.559922 -0.086913 -0.590493 1.118658 0.353889 -0.903724 1.398897 -0.354508 -0.702087 -0.288872 0.299423 -0.502865 0.544571 1.285754 -0.295644 -0.404451 -0.004055 -0.710272 -0.038690 0.096093 0.730818 0.239618 -0.693477 0.593587 0.168491 -0.047021 0.506401 0.120336 0.645713 0.584230 -0.558576 0.403661 -0.496935 0.536516 -0.249276
1214 0.410515 -0.430972 0.396657 -0.191003 0.322856 -0.152026 0.059681 0.248777 0.059974 -0.183989 -0.226390 -0.371088 0.045724 0.118395 -0.619797 -0.586862 -0.557130 -0.209180 0.363086 -0.580527 0.126343 -0.466878 0.264022 0.589284 0.053368 1.033362 -0.355036 -0.015770 -0.196811 -0.087441 0.170643 -0.159151 -0.182666 -0.884791 0.039498 0.284563 1.170740 -0.133410 0.055965 0.123722 0.088531 -0.052131 0.226079 -0.352232 0.420654 -0.072569 0.311954 -0.403825 -0.341524 0.099124 1.052300 -0.212876 0.070707 -0.158242 -0.279513 -0.427200 0.297898 0.987855 -0.415007 -0.306941 0.609630 -0.171870 0.160698 0.881199
1247 0.576538 -0.084289 -0.243240 0.407096 -0.270548 -0.652093 0.234990 1.139168 0.598081 -0.303294 0.793887 -0.541040 -0.886939 -0.038768 0.176111 -0.147509 -0.040376 0.274609 -0.071753 0.124904 0.456279 -0.204742 0.528286 -0.147518 0.801048 1.217409 -0.121619 0.126898 -0.768117 -0.364474 -0.069765 -0.552391 0.080164 -0.639200 0.000098 0.226543 0.353004 -0.459359 -1.187250 -0.459755 -0.145489 0.366070 0.560565 0.389689 -0.118535 1.031634 -0.018889 0.350011 -0.228221 0.348097 0.053801 0.203440 -0.231851 -0.100291 -0.461856 -0.004346 -0.047984 -0.126914 0.370830 -0.759156 0.593576 0.019404 0.496750 -0.041954
2829 -0.250400 0.196478 0.096622 0.337831 -0.139924 -0.458978 -0.008733 0.142590 -0.049017 -0.167765 -0.458331 -0.260602 -0.344496 0.253016 -0.631825 -0.362572 0.084024 -0.126168 -0.209567 0.942107 -0.305728 -0.067092 -0.590484 -0.443262 0.295800 0.515849 0.868326 0.859271 0.326308 1.241020 -0.599777 -1.097648 -0.418323 -0.159656 -0.006251 0.248998 1.314381 -0.331416 -0.785185 0.059572 -0.844636 0.231368 0.549575 0.292038 0.261973 0.053752 0.130701 0.826784 -0.102198 -0.184404 -0.000285 -0.085480 0.389926 0.557583 -0.597521 0.117134 0.380985 0.370608 1.028772 0.108460 -0.099180 -0.147045 0.000523 -0.164749
98 -0.337475 -0.628226 -0.168349 -0.511095 0.504504 -0.724263 0.422961 -0.357551 0.249236 -0.155174 0.283375 -0.889693 -1.234303 0.889419 -0.177341 -1.102814 0.388746 0.049141 0.628345 0.456657 0.028080 0.668527 0.808950 0.248988 -0.177270 -0.935161 0.481498 0.168019 0.114677 -0.457838 -0.331273 0.060016 0.332918 -0.282079 0.108262 -0.586830 -0.613704 -0.496699 -0.781646 0.729987 -0.142472 -0.114233 0.906589 0.840708 0.065887 0.125716 0.596429 0.302005 -0.468710 0.134008 0.582051 -1.703382 0.698693 -0.314405 0.064788 0.331252 -0.340044 0.206799 0.951611 -0.072623 -0.286787 0.230805 0.149683 0.226543
303 -0.131706 0.112243 -0.056305 -1.078686 0.264806 0.521647 0.214696 0.430968 -0.302535 0.220754 -0.652226 -0.383639 -0.484069 -0.095053 -0.513088 -0.157607 -0.674108 -0.618288 -0.159122 -0.280988 -0.331004 -0.155067 1.392633 -0.033822 -0.308552 0.852935 -0.431276 0.997556 -0.760338 -0.140292 0.562672 0.628902 -0.041479 -0.075020 0.461136 0.611701 0.425357 0.389910 -0.514244 0.330726 0.178967 0.323347 -0.009583 -0.006926 -0.627516 -0.318518 0.984099 -0.072355 -0.146082 0.351656 0.324141 0.064835 0.890252 0.097152 -0.554527 0.267143 -0.191394 0.332795 1.451333 -0.463165 0.431949 0.391058 -0.060997 0.292222
1180 -0.195518 -0.391211 -0.093992 -0.157333 -0.432519 1.090534 0.304868 -0.399882 0.247821 -0.664834 -0.236698 -0.624292 -0.019999 0.877842 -0.176373 0.067708 -0.198908 -0.053978 -0.150153 0.251177 0.107963 0.642566 0.185567 0.046463 0.527868 -0.043652 0.042695 0.542868 -0.236154 0.310146 -0.650329 0.514306 0.575415 -0.037270 -0.400146 0.340881 0.381329 -0.831509 0.291902 -0.149935 0.375218 -0.092568 0.392710 -0.448877 -0.473274 -0.016425 0.235706 -0.493163 -0.478533 0.202485 0.610352 -1.284660 0.131980 -0.211095 0.765360 -0.068221 0.564357 0.546506 -0.336684 -0.438418 -0.224328 1.136488 0.121745 0.260402
2633 0.264617 -0.174626 0.202846 0.367097 -0.745885 0.090987 0.685970 0.143177 -0.411851 -0.495944 -0.540773 0.479582 -0.047260 0.516277 0.303504 -0.241301 0.130641 1.218915 -0.433796 0.356153 -0.181032 -0.256918 0.002795 0.260271 -0.197556 -0.208143 -0.708323 0.663118 -0.566295 0.026303 0.511545 -0.829747 -0.257018 -0.763647 -0.324641 -0.123870 -0.800730 -0.296752 -0.609596 0.074379 -0.624332 0.855113 0.591187 0.004513 -0.342932 0.669792 0.161539 -0.344586 0.426660 -0.356235 0.680296 -1.264316 0.194753 -0.250568 -0.195795 -0.128036 0.853536 -0.134819 0.189897 0.702832 -0.037464 0.198546 0.184455 -0.104489
557 -0.299654 -0.191725 -0.365891 -0.266878 0.445486 0.799534 0.340052 -0.338593 -0.140512 -0.219239 0.131155 0.160774 -0.315811 -0.480173 -0.195467 0.090987 -0.674920 0.002345 -0.126645 0.279977 -0.572154 -0.656383 -0.718533 0.237907 -0.030496 0.560145 -0.673048 -0.293486 -0.662275 -0.039290 0.187586 -0.176551 1.167696 -0.165788 -0.539792 1.397107 -0.574730 -0.376363 -0.487485 0.682757 -0.201540 0.028195 0.724269 0.588819 -0.369567 0.213046 -0.689544 -0.520743 -0.498080 0.589727 0.214555 -0.556629 -0.090769 0.060936 -0.332357 0.017546 0.332283 0.616487 0.168909 -0.479272 0.063573 -0.636906 -0.133682 -0.232918
1638 -0.056911 0.508511 -0.804773 -1.029290 -0.223345 -0.270004 0.280233 -0.637641 0.235208 0.453339 0.265074 -0.391830 -0.524577 0.003236 -1.536026 1.201155 -0.203806 1.143084 -0.044167 0.242777 0.543891 -0.640862 0.093808 0.528019 0.879107 -0.534649 -0.202508 1.418408 -0.729167 0.663245 -0.685017 0.494376 -0.267832 -0.241841 -1.039904 -0.644398 0.873302 0.039500 0.343872 0.888411 -0.424416 0.317219 1.872683 0.318449 0.077142 0.142764 0.790977 0.326805 -0.556871 -0.964425 0.622633 -0.868907 0.151836 1.136483 0.527417 1.183320 0.624761 0.837702 -0.186841 0.328562 -0.122451 -0.690260 -0.021494 0.765146
1202 -0.209614 -0.117280 0.018379 -0.117948 0.129752 0.184509 1.003971 0.235597 -0.534801 -0.826034 -0.154712 0.653532 0.360066 0.078351 -0.211042 -0.984309 -0.636540 -0.050939 0.530852 0.655821 0.023880 -0.839558 -0.564381 0.237616 -0.764977 0.051221 -0.446695 -0.077310 -0.602863 0.109925 1.018137 0.028819 0.851470 -0.347508 -0.128911 -0.667207 -0.091835 -1.286098 -0.632662 1.154732 -0.139039 0.715915 0.670434 0.119879 0.765677 0.356978 -0.727729 -0.535726 -0.056328 0.002947 0.134664 -0.817434 0.348997 -0.627122 0.483993 -0.250082 0.091999 -0.485983 0.131312 0.528165 -0.403763 0.089447 0.641156 -0.807823
2626 0.421695 -0.017067 -0.482455 -0.384664 0.286617 -0.257791 -0.394605 -0.488812 -0.498204 -0.834516 0.759443 -1.014614 0.137757 -0.018722 -0.309441 0.148095 -0.385676 0.619011 -0.112853 0.882131 0.156518 0.074757 0.507715 0.491965 -0.428983 0.642052 0.314944 -0.165857 -0.357698 -0.741338 -0.349451 0.001676 -0.240042 0.258181 -0.679886 0.321135 0.712192 -0.384063 0.145665 -0.278269 -0.287248 -0.684333 -0.334458 0.762604 0.322276 0.270644 -0.072037 -0.665353 -0.234989 0.210568 0.061170 -0.014118 -0.418461 -0.007174 -0.397105 -0.994949 0.862014 0.384750 0.500177 -1.053236 0.623353 1.044374 -0.275404 0.560823
318 0.825815 0.067267 0.057913 -0.123500 0.885422 0.257118 0.363366 -0.433016 -0.246401 0.224701 -0.286335 0.116273 -0.007593 0.092896 -0.756503 0.268321 -0.236290 0.077968 -0.262895 -0.144162 -0.264005 0.025551 -0.451775 0.901172 -0.658270 0.462878 0.605861 -0.114285 -0.965744 0.419596 -0.118787 0.389632 -0.045347 0.144062 -0.412028 -0.434241 0.242875 -0.718022 -0.156003 -0.730393 -0.693338 -0.175698 0.149169 -0.014077 -0.047085 0.455095 0.626987 -0.275300 0.035587 0.593235 -0.262270 0.148097 -0.256122 -0.260252 -1.154695 -0.348540 0.311691 0.093450 0.164629 0.642293 0.049565 0.543663 0.559725 0.279697
2342 -0.114123 0.677988 -0.499004 0.316082 -0.780407 0.188532 0.564128 0.031242 0.726486 -0.270528 0.796557 -0.710139 1.037044 0.558382 -0.110231 -0.309614 -0.358479 0.053204 -0.644667 0.808822 0.346562 -0.192754 0.242747 1.146722 -0.062858 1.143857 -0.282308 0.490811 -0.739441 0.790972 0.311897 0.226655 -0.379530 0.489474 0.868606 -0.298817 0.065987 -0.300748 -0.084930 -0.186883 -0.028527 -0.050125 0.592645 0.368491 0.100891 -0.872491 0.034286 0.073205 0.189331 0.174445 0.199883 -0.552121 -0.071857 0.019549 0.207428 -0.281049 0.396092 -0.214679 0.243333 0.568752 -0.334678 0.038432 0.168634 0.526994
1943 -0.604292 0.405045 -0.329279 -0.430560 0.520713 0.457092 0.119261 -0.276413 -0.783069 0.052895 -0.764125 0.187163 0.244953 -0.025068 0.393342 -0.118893 -0.116842 -0.141813 0.147119 0.794069 -0.099365 0.064256 -0.729053 0.921283 0.252111 1.279299 0.100534 0.376169 -0.304455 -0.423595 0.125603 -0.749131 -0.213369 0.247691 -0.337372 0.406785 -0.498613 -0.060434 0.322927 -0.600250 -0.405934 0.373117 0.094717 0.306849 0.533695 -0.158047 -0.479308 -0.365486 -0.099047 0.270227 1.244426 -0.380759 0.136268 0.490265 0.053792 0.090663 -0.286584 0.614850 0.296130 -0.473602 0.299983 -0.416417 0.505513 0.190943
690 -1.014952 0.350969 0.165608 0.350523 -0.538525 -0.064223 0.501041 0.469697 0.191071 -1.328490 0.207139 -0.053590 -0.568768 0.031735 -0.807485 -0.378746 -0.741579 0.630539 0.580493 0.271307 0.851358 -0.151736 0.418052 0.274273 -0.395001 -0.219800 -1.075727 0.302271 -0.782377 -0.663668 -0.249659 0.223620 -0.190870 -0.476618 0.155914 1.306288 -0.458595 -0.779928 0.502043 0.454626 -0.723948 -0.226257 1.279953 0.513128 0.943885 -0.561421 -0.332493 0.080130 -1.067453 -0.214423 0.853503 -0.420812 -0.942939 0.321260 0.954772 -0.753308 0.579937 0.141388 0.330301 -0.519435 0.311251 -0.360225 -0.054920 -0.582714
1896 0.219241 -0.270310 -0.437313 0.232140 0.488834 -0.088571 1.057732 -0.603339 -0.300279 -0.464384 -0.280360 -0.305839 -0.058252 1.019422 -0.590816 -0.444809 -0.078519 0.207983 -0.060522 0.522285 0.269083 0.591605 1.100206 -0.166176 -0.477964 0.233189 -0.131614 1.058031 -0.119656 -0.134851 -0.277534 0.445210 -1.312354 -0.016121 0.130007 0.000659 0.199358 0.382987 0.385129 0.272743 0.247548 -0.203375 -0.101546 0.879652 -0.381075 0.916184 -0.444677 -0.037223 -0.351940 1.035769 0.133873 -0.598990 0.169311 0.511974 -0.144824 -0.057438 -1.004734 0.629340 0.659049 -0.325316 -0.840722 0.591596 0.493280 0.206972
2925 0.278838 0.250201 0.401328 -0.473265 0.620221 0.090757 0.166995 0.361030 0.192555 -0.495397 -0.127559 -0.425674 0.261858 0.109986 -1.076261 -0.280039 -0.476021 0.434274 0.030900 -0.304943 -0.096490 0.316966 -0.071891 -0.407589 0.378388 0.601080 0.787189 0.539428 0.360911 0.995163 -1.000734 -0.736763 -0.647227 -0.832544 -0.471104 0.999048 0.112311 -0.194348 -0.558749 0.319553 -0.425095 -0.144822 0.529587 0.415113 -0.323545 -0.444000 0.321743 0.314125 -0.676095 0.647220 0.001876 -0.126345 -0.619678 0.319981 0.027039 -0.550466 0.100296 0.314758 0.310244 0.215995 -0.209262 0.918335 -0.138472 0.086530
845 -0.300195 0.732027 0.434565 0.382476 -0.725217 0.631731 -0.428493 0.235766 0.247949 -0.267780 0.051980 0.732801 -0.146146 0.411535 0.132610 -0.190058 0.126113 0.174292 0.099514 0.386063 0.083810 0.543607 -0.073164 0.424942 0.002640 0.933101 0.672194 0.496483 0.411347 0.155322 0.654757 -1.089836 0.468645 -0.199712 -0.719333 0.488669 0.712082 -0.990799 -0.336697 0.284526 -0.777071 -0.442061 0.771286 0.133491 0.057044 -0.276566 0.665040 0.038867 -0.532922 0.613013 -0.242791 -0.295589 -0.111855 0.277226 -0.546549 -0.264010 -0.335159 0.174467 0.744287 0.176957 -0.539721 0.009590 0.466321 0.738953
2418 -0.735876 0.393280 -0.289268 -0.040301 0.288404 0.396340 0.741058 -0.299230 -0.162292 0.177046 -0.042714 0.255655 0.297515 -0.266772 0.306279 0.051546 -0.284591 0.054053 -0.172576 0.469855 0.317933 -0.911735 -0.369088 0.943998 0.125435 1.204700 0.365502 -0.100479 -0.539174 -0.228591 0.399033 -0.815273 0.324616 -0.538794 -0.129831 0.348957 -0.640449 -0.067773 0.014565 -0.105330 -0.399165 0.521568 -0.124926 0.494288 0.504723 0.124078 -0.041956 0.046911 -0.239235 -0.195083 0.750244 -0.609165 0.117186 0.598234 0.158182 -1.147977 -0.056853 0.674738 0.127987 0.132374 0.255091 -0.641709 0.650283 -0.133425
1001 -0.262194 0.124861 -0.122446 -0.059260 -0.210511 -0.715213 0.250090 0.164022 0.182359 -0.895534 0.853265 -1.109402 -0.533251 0.030103 -0.586497 0.041510 -0.692337 0.064517 -0.029053 0.145061 -0.114013 -0.176757 -0.063369 0.784551 0.251086 0.326451 -0.019583 0.784333 0.651197 0.439955 1.083577 -0.235958 -1.027218 -0.369012 -0.807905 0.030127 0.446518 0.706461 0.925648 0.341646 0.297043 1.165686 0.715895 0.767341 -1.021329 0.256005 0.300340 0.677041 -0.138615 0.281865 1.088084 -0.615058 0.372954 -0.152343 0.048375 -0.526149 -0.630606 0.683566 -0.176457 0.646980 -0.426376 0.086684 0.352176 0.765967
1587 0.139490 0.611501 -0.289278 0.117998 0.303218 0.514224 -0.300711 -0.085942 0.328389 -0.287741 -0.901406 -0.135819 -0.541602 0.166503 0.504445 -0.079234 -0.587474 0.782864 -0.021967 0.523488 0.522042 -0.209310 -0.613440 0.321423 -0.016442 -0.033084 -0.012500 0.086275 -0.483569 0.491237 0.197344 -0.516911 -0.742036 0.840187 -0.659405 0.344724 0.780204 -0.806377 0.215939 0.594542 0.044505 0.239779 -0.281626 0.193668 0.467679 0.911067 0.090380 -0.170562 0.503437 -0.169386 0.485654 0.041040 0.395032 0.033298 0.171951 0.100096 0.120399 0.187260 0.837403 -0.396275 0.446604 1.155101 0.267044 0.479923
265 -0.771099 0.871845 -0.126742 -0.660262 -0.518679 -0.594899 -0.565840 -0.100709 -0.454950 0.311068 -0.419407 -0.323480 -0.191509 0.524435 -0.426409 -0.189130 -0.560270 0.022255 0.810372 0.229992 -0.158058 -0.008778 -0.094529 -0.487636 -0.193387 0.495918 -0.193530 0.979775 -0.376516 -0.045554 -0.058841 -0.270752 -0.511186 0.827779 -0.954276 0.040299 -0.550995 0.029864 0.316024 0.366723 0.331977 0.040055 0.783492 0.763956 0.086987 -0.084559 0.371762 -0.983774 0.275012 -0.130618 -0.315617 -0.703728 -0.229345 0.059987 -0.170562 -0.545769 1.766228 0.400972 -0.119683 -0.486388 -0.001406 0.069816 0.181496 0.061106
3210 0.044226 0.453455 0.408610 -0.219469 0.307632 0.346389 0.968580 -0.413073 0.804679 -0.140831 -0.378717 -0.793760 -0.552367 0.638647 -0.529160 -0.637795 -0.358509 0.530946 0.866334 0.800288 0.176826 -0.610596 0.178044 1.033967 0.949726 -0.381435 0.427446 0.430379 -1.821465 0.070903 0.285822 0.344353 -0.053391 0.846785 -0.708633 -0.069038 0.350309 0.612217 0.136015 0.778967 0.371678 -0.032381 -0.517051 0.300299 -0.880759 0.421939 0.252710 0.131119 -0.448427 0.260749 -0.399312 -0.563363 0.851719 -1.265649 -0.861374 -0.471284 0.541228 0.066640 -0.200994 -0.080710 -0.392971 -0.521849 -0.425241 -0.248010
2581 -0.013217 -0.051703 -0.953880 -0.759973 -0.177213 0.457872 0.402586 -0.669923 -0.489055 -0.920649 0.473124 -0.213541 0.333475 0.808063 -0.420511 0.255381 -0.271268 0.308542 -0.332334 -0.511782 0.192876 0.905348 0.367922 -0.417664 0.121635 -0.357213 -0.281255 0.440466 -0.644202 0.044233 -0.295916 0.415657 0.208254 0.243982 -0.448734 -0.119235 0.339521 -0.801942 -0.347599 -0.656293 -0.375304 0.059887 0.305059 -0.109921 -0.239706 0.142068 0.056414 -0.271734 -0.040930 -0.062436 0.815979 -0.422238 0.439510 -0.424972 0.103783 -0.098299 0.752337 0.173898 0.252535 -0.766715 -0.576676 0.584723 0.307154 0.530864
1633 -0.677394 0.312301 0.049646 -0.395956 0.542525 0.632182 0.212272 0.642477 -0.093574 0.660189 0.155814 0.321706 0.705881 0.586137 -0.412366 0.271556 -0.404792 0.024546 -1.207318 0.992260 -0.285064 -0.124719 0.367397 0.270086 -0.004660 0.401656 0.482939 0.505677 -0.252231 0.407991 0.858975 -0.118376 0.292609 0.823009 -0.276657 0.384253 0.146418 0.011592 0.450553 0.274586 0.046658 0.212710 1.171401 0.286965 0.102356 0.211725 0.987282 -1.065097 0.000006 0.328044 -0.120513 -0.150217 -0.055274 0.382807 0.440324 -0.750346 -0.266311 -0.600719 0.671041 -0.569588 0.694876 0.122128 -0.722757 -0.280083
2647 -0.194175 -0.372157 -0.261779 0.511034 -0.369298 -0.079622 0.445703 0.007805 0.423939 -0.159639 -0.060684 -0.341920 -0.234896 -0.508857 -0.764487 -0.789448 -1.078662 0.291473 -0.146810 0.062337 -0.575510 -0.437294 0.471648 0.894396 0.802802 0.299543 0.903999 0.074963 -0.370535 0.121956 1.128766 0.405618 0.311369 -0.371525 -0.343870 -0.482472 -0.158960 -0.343536 0.741010 0.063453 0.572941 -0.258155 0.502784 0.939363 -0.793247 0.833241 0.136607 -0.296586 -0.589065 0.219222 -0.316004 -0.216111 -0.573263 0.679431 0.600837 -0.266297 0.086774 0.510692 -0.499295 -0.665670 0.479708 0.412892 0.392768 0.713054
2494 0.132428 -0.088527 -0.314320 -0.085212 -0.489587 0.691231 0.026932 0.141282 0.182551 0.056382 -0.328040 -0.722927 -0.384808 0.526893 0.215010 -0.794509 -0.164819 1.001374 -0.194796 -0.297323 0.380027 -0.093501 -0.489697 0.439471 0.628160 0.011842 -0.029359 0.334052 -1.306798 0.345294 0.169246 -1.217269 -0.747347 -0.490594 -0.386493 -0.893661 -0.217134 0.134183 0.157449 0.779934 0.776248 0.488973 -0.647125 0.421208 -0.382445 0.757432 1.039435 -0.835853 0.028714 0.304107 0.742476 -0.730138 0.075013 -0.711513 -0.023097 0.107383 0.814373 0.575861 0.797822 0.281595 -0.819205 0.056907 0.154373 -0.021783
2988 -0.957226 -0.364965 0.109738 0.170479 0.353688 -0.687441 -0.083614 0.242028 0.080000 -0.343608 -0.310796 -0.119783 0.204947 0.130903 -0.005666 -0.806954 1.241825 1.332815 0.070319 0.045367 -0.112363 -0.207608 0.441728 0.130779 0.015277 0.571942 -0.347528 -0.020137 -0.813629 -0.117303 -0.008459 0.246613 0.296972 -0.219837 -0.519798 0.771831 0.232593 -1.336428 0.004243 -0.158200 -0.389579 0.117249 -0.111815 0.641126 -0.403989 0.720099 0.641918 -1.270395 -1.166397 -0.277436 0.299445 0.514810 -0.415213 0.680679 0.168256 0.175791 -0.096581 -0.311575 0.939089 0.556826 -0.729407 0.375191 0.208117 -0.513134
1582 -0.522597 0.382101 0.084543 -0.286987 -0.469023 0.322526 -0.091508 -0.081370 0.207392 0.223605 -0.020379 -0.988701 -0.376776 0.068666 -0.929933 -0.286004 -1.262568 0.066745 0.103593 1.196736 0.712974 -0.688613 -0.344226 -0.104392 -0.203045 0.590848 -0.418526 0.684131 -0.610607 0.197292 0.321029 -0.561636 0.420956 -0.559192 0.571947 -1.038988 0.180425 -0.047291 -0.154505 -0.259126 -0.013290 0.504313 0.243002 0.162465 -0.894925 0.318683 -0.795738 -0.897225 -0.302054 0.150535 0.319689 0.604323 0.376476 -0.275182 -0.901244 0.927744 0.192660 -0.241803 0.079908 -0.742696 0.531745 -0.333749 0.349944 -0.500895
4 -0.359224 0.166540 -0.104046 0.156566 0.835852 -0.315531 1.707320 0.379698 -0.579720 -0.143663 -0.307261 -0.433856 0.181539 0.497045 0.169820 1.227649 -0.247941 1.397748 0.737023 0.581717 0.060310 -0.522572 0.037786 -0.213946 0.430799 0.473067 -0.146953 0.163672 0.436744 0.076539 0.185092 -0.094025 -0.326664 0.621369 0.769771 0.500623 -0.046258 -0.008488 -0.342956 -0.761245 -0.041614 0.535870 0.184189 0.503439 -0.107636 0.476864 -0.270534 -0.103020 -0.513641 0.223618 0.047975 -0.103919 0.562042 0.382345 -0.113393 0.074536 0.260868 0.298835 0.770834 0.212287 -0.465345 0.643473 -0.019944 0.874160
1340 0.752547 -0.296133 -0.762559 0.181415 -0.178660 0.151968 0.705691 -0.196118 -0.163115 -0.610562 0.436299 -0.170463 -0.101316 -0.550316 -0.810925 -1.083776 -1.048506 1.087605 1.295017 0.735930 -0.295864 -0.420021 -0.123246 -1.166963 0.022025 -0.444529 0.381714 -0.269561 -1.232563 1.054064 -0.532195 0.070233 -0.591989 -0.377070 -0.293213 -0.139082 0.658650 -1.034206 -0.191452 0.393236 -0.340829 -0.218283 -0.194125 0.313957 0.606891 -0.699801 0.159755 -1.150670 -0.081773 -0.104126 0.107391 -1.042133 0.296021 1.394761 -0.483815 0.419001 -0.073775 0.011466 0.745048 0.131910 0.274224 0.054646 1.307192 -0.441413
2063 0.188419 -1.186570 1.112762 -0.075907 0.347758 0.286686 0.798700 -0.289187 -0.208696 -0.242354 0.222706 -0.658631 0.135435 0.259317 -0.669985 0.034097 0.006642 0.497125 0.619224 0.036184 0.109909 0.161690 -0.443800 0.440826 -0.656176 0.083801 0.907086 -0.078466 -1.295752 0.196069 -0.069871 -0.455559 0.001773 -0.404259 -1.122030 0.092402 0.655065 -0.618257 1.120286 -0.285686 0.321226 0.569697 1.002646 -0.094567 -0.811247 -0.613388 1.045254 0.375775 0.558825 -0.868221 -0.531991 -0.588361 0.312539 -0.060366 0.279797 -0.388200 -0.425591 0.362347 1.093097 -0.729359 0.566206 0.136000 0.836787 -0.512991
2980 0.302137 0.475696 -0.662684 -1.008438 -0.668625 -0.412874 0.578047 0.070829 0.128155 0.317263 -0.186322 -0.765992 -0.159098 0.197843 -0.664886 0.007439 -0.667676 0.525203 0.259646 0.460275 -0.517111 -0.752685 -0.129612 0.477423 0.641229 1.198433 0.757547 -0.383057 0.076000 -0.233738 0.268077 1.490585 0.200633 0.242838 -0.170099 -0.179424 0.236791 -0.076856 0.091228 0.042315 -0.938741 0.346177 -0.236430 0.123545 -0.773488 -0.131809 -0.308896 -0.777967 0.517814 -0.365007 0.528981 0.206978 0.495237 -0.129789 -0.303435 0.626382 -0.074259 0.553587 0.595300 -0.351388 -1.030726 -0.399543 -0.108336 0.004587
335 0.070268 0.262748 0.488546 -0.584259 -0.150674 0.088171 -0.137760 -0.632632 -0.237974 -0.331612 -0.439562 0.518302 -0.195823 0.932357 0.272896 0.502070 -0.505921 -0.568150 0.605735 1.188203 0.020450 -0.427447 -0.374278 0.762199 0.203978 0.056419 0.072183 0.628345 -0.395379 0.030656 0.316384 -0.627182 -0.623874 -0.254914 -0.489356 -0.582712 0.353892 -0.682384 0.119581 -0.028144 -0.799084 0.519830 1.052472 0.476841 -0.305857 -0.411208 -0.635617 -1.046710 -0.496229 0.218188 -0.679617 -0.144666 0.275643 -0.703659 0.130107 0.142909 -1.205102 0.314455 0.016470 -0.545910 -0.559253 -0.241112 -0.428425 -0.138348
1738 -0.619049 0.970672 0.271771 -0.170420 1.343308 -0.094536 -0.112310 -0.279739 0.658254 -0.277534 -0.288302 -0.047053 -1.315353 0.870386 1.384308 -0.141298 -0.338409 -1.007187 0.869896 1.371697 -0.591466 0.635799 0.730591 -0.080036 0.295060 -0.136447 0.172410 0.114413 -0.677011 -0.073716 1.344869 -0.176125 -0.851579 0.073818 0.520578 -0.031771 0.532756 -0.523137 -0.029164 0.347468 -0.305523 0.323976 0.432344 1.113652 0.088232 0.292686 0.166678 -0.528565 -0.634634 -0.018591 0.321049 -0.992182 -0.175901 0.426944 -0.489246 -0.987175 0.070572 0.561228 0.335290 0.726633 0.088464 -0.104376 0.373793 0.058020
1459 -0.488645 0.534316 -0.418464 0.137922 0.061527 0.931520 0.668452 -0.926517 0.232799 -0.436959 -0.504490 -0.562626 0.273081 0.600372 -0.813110 -0.135807 -0.100353 0.194135 0.799066 0.283622 -0.265675 0.200627 -0.074684 -0.989577 -0.540286 0.059678 -0.301218 -0.031506 -0.494186 -0.106754 -0.367190 0.605313 -0.003215 0.290721 0.411327 -0.497440 0.000498 -1.075639 -0.429406 -1.057247 -0.151262 0.491471 0.100721 0.607462 -0.488898 -0.768202 0.072095 -0.315641 -0.604316 0.523585 1.305817 -0.176626 -0.471757 0.306467 -0.641268 -0.394448 0.293492 0.071209 0.757305 -0.471998 -0.519598 -0.625749 -0.284586 0.768343
2224 -0.376742 0.513126 0.191715 -0.025162 -0.199738 0.380627 1.267184 -0.233942 0.288294 -0.667777 0.053338 -0.871553 -0.004031 -0.207203 -0.008035 -0.569262 -0.213569 0.834802 0.643076 1.667944 -0.495970 -0.463327 0.727501 0.477272 0.719568 0.498168 -0.090568 0.367829 -0.714929 -0.062031 -0.185296 0.968530 0.238812 0.746872 -0.326855 0.133992 -0.688447 -0.440763 0.425290 -0.337286 -0.326565 0.728758 0.175716 -0.513074 -0.693830 0.700141 0.396207 0.552557 -0.218029 0.642819 -0.276870 0.494591 0.147931 -1.107572 0.018366 -0.546913 0.385592 0.736448 -0.483663 -0.197156 -0.337681 0.013522 -0.107936 0.110007
2235 -0.186557 -0.723957 -0.298709 0.052893 0.875433 -0.335147 -0.360068 -0.329976 -0.229989 -0.403441 0.274520 -0.402002 -0.636871 0.947827 -0.212336 -0.999153 0.630302 1.012311 0.856804 0.281357 -0.362113 0.318657 0.525840 0.626059 0.130852 -0.187053 0.803347 -0.034205 -0.768924 -0.196419 -0.749461 0.033908 0.241893 -0.027442 0.287103 -0.728099 -0.607301 -0.570445 -0.325341 -0.077704 -0.456105 0.352609 0.706668 0.469515 -0.669935 0.767282 0.184411 0.474897 0.140366 0.222309 0.379785 -0.676593 0.326724 -0.352867 0.361382 0.207121 -0.310757 -0.401616 0.876107 -0.363658 -0.358356 -0.269311 0.298470 -0.528395
2986 0.741032 0.712700 -0.591506 -0.265609 -0.213620 0.019184 -0.162394 0.280380 -0.193884 -0.676092 -0.078576 -0.409555 -0.509846 0.869652 -0.158951 -0.531673 -0.291305 -0.050502 -0.119798 0.313413 -0.640034 0.125300 -0.231384 -0.012842 0.565893 1.773432 0.243031 0.189625 -0.301434 -0.391669 0.972580 1.217738 -1.252068 -0.311200 -0.361594 -0.175992 0.609459 0.066320 -0.498348 0.465154 -0.529801 0.302402 0.472925 -0.708955 -0.661186 -1.058068 -0.165703 -0.567498 -0.077175 -0.134632 -0.140558 -0.324399 0.388944 0.501586 -0.153465 -0.276662 -0.573645 -0.058725 0.103297 -0.226604 0.058557 0.472620 0.891063 -0.033769
3217 0.676219 -0.081685 0.268583 -0.161722 0.148232 -0.607767 0.787233 0.015756 0.437802 0.638909 -0.383936 -0.168123 -0.300109 -0.475821 -0.378884 -0.938852 -1.201216 -0.516717 0.358623 0.380310 -0.120795 -0.439173 0.116309 -0.396461 0.083773 1.082443 0.942399 0.223716 0.618069 0.030117 0.520930 -0.337218 0.592933 0.725806 -0.925121 -0.515461 -0.696265 -0.736879 0.587417 0.031843 -0.679867 0.191326 0.204204 0.732095 -0.222092 0.369115 0.312219 -0.642905 0.279182 0.073122 -0.100095 0.076855 0.045540 0.441742 0.113250 0.360306 0.429051 0.214583 0.238829 -0.650559 -0.431245 0.734333 -0.334155 0.641362
1428 0.184221 -0.169999 0.399242 0.422695 -0.056443 0.029408 0.644435 0.478282 0.131274 -0.122567 0.094374 -0.265052 -0.415420 0.769193 -0.108713 -0.552937 -0.152835 0.253850 -0.035135 -0.408546 0.447061 0.029249 1.015185 0.708153 -1.053285 -0.209154 0.863283 0.359962 -0.714483 0.246586 -0.351709 -0.544943 -0.074459 -0.009122 -1.497968 -0.503821 1.094819 -1.334847 0.333409 -0.334069 1.376306 1.393072 1.252076 0.351909 -0.142546 -0.169269 0.944387 -0.334563 -0.539301 -0.067926 -0.881806 -0.381047 -0.191987 -0.655800 -0.871661 0.124629 -1.074106 0.549513 0.439503 -0.875609 -0.162051 -0.360620 -0.099032 -0.559891
3046 -0.415363 0.178543 -0.013900 -0.325561 1.080142 -0.987629 0.154754 0.114288 -0.429156 -0.730178 -0.675444 -0.067213 0.334585 -0.266534 0.251243 -0.982064 -0.581531 0.320585 -0.226602 -0.070936 1.036764 0.229094 0.956904 -0.622422 1.009614 1.201361 0.912159 0.479185 0.026005 -0.326499 0.821228 -0.207574 0.161480 -0.733500 0.885466 -0.177791 -0.003991 -0.901384 0.521610 -0.206401 -0.336710 0.515751 1.148179 0.598043 0.019025 -1.163576 0.390421 -0.512596 0.415004 -0.139511 -0.468947 -1.083600 0.934968 -0.247011 0.753291 0.084954 0.208590 -0.360868 0.051154 -0.646877 0.145250 0.015330 -0.071193 -0.224151
2502 -0.015286 -0.180427 0.758731 1.263015 0.642688 -0.368906 1.206830 0.606480 0.329451 -0.701344 -0.194296 0.209381 -0.085483 0.129900 0.174235 -0.043430 -1.058765 0.748936 -1.112038 0.782056 -0.349103 0.508711 0.250337 -0.747336 -0.618102 1.522914 0.414507 -0.090701 -1.303879 0.190384 0.609941 0.153199 -0.626525 0.111829 -0.281550 -0.845810 0.157460 -0.149711 1.033604 -0.206357 -0.015796 0.684133 1.390042 -0.029782 0.554466 -0.685931 -0.022429 0.199755 -0.176634 -0.075902 0.054450 0.164811 0.321613 0.120822 -0.765822 -0.021902 1.398587 0.194301 -0.145443 0.030219 -0.518219 -0.235115 0.708315 -0.844656
245 -0.721996 0.667900 0.378873 -0.253244 0.180802 -0.252013 -0.103738 0.058292 -0.418747 0.168342 0.049866 -0.316296 -0.552514 0.772965 -0.068655 0.509602 -1.258149 -0.458149 0.014504 0.396806 0.405466 0.055194 0.365634 -0.716387 -0.117431 0.053988 0.964615 0.540314 -0.485470 -0.002367 0.106143 0.382754 0.159815 1.174230 -0.622455 0.431860 -0.344652 0.043679 -0.282070 0.111775 0.057465 0.534626 0.726661 0.449365 -0.043896 0.108947 0.220163 -0.729071 0.270409 0.043057 -0.107859 -1.022881 -0.637938 0.062287 -0.366217 -0.735057 1.581863 0.125577 0.438072 0.213798 0.324347 -0.056378 -0.034088 0.331739
2886 -0.317608 0.285392 0.567356 0.509431 0.792732 -0.004067 0.585622 0.050188 0.165629 0.861860 -0.352260 -0.315134 0.210567 0.195454 -0.719848 -0.433131 0.130606 0.904955 0.339168 0.612920 1.079303 -0.040103 0.006153 -0.077999 0.650255 0.184398 -0.050825 0.054702 0.118318 0.679574 0.243633 -0.035378 -0.454282 -0.458202 -0.730723 -0.531430 0.408512 -0.653358 -0.752774 0.732713 -0.139124 0.039075 0.555204 0.113289 -0.173369 0.219587 -0.986449 -0.329130 -0.319065 0.448381 -0.037501 0.132464 0.584192 0.201181 0.388791 0.680870 0.464807 -0.125774 0.125375 0.046410 0.137210 0.702932 0.735603 0.108359
3025 -0.682141 0.290002 0.386208 -0.676860 0.239550 0.813717 0.669782 0.200294 0.248718 -0.545836 -0.899682 -0.472928 0.712663 1.099849 -0.456775 -0.284355 -1.245460 0.260293 0.314242 -0.231704 0.130620 0.714511 0.083552 0.172847 0.176007 -0.336073 0.383298 0.679297 0.321648 0.198872 -0.896978 0.037444 0.646731 0.064507 -0.447006 0.427869 0.295738 -0.738516 0.145398 -0.177299 -0.092749 0.096913 0.095576 -0.441468 -1.013579 0.267308 0.179037 -0.162300 -0.561717 0.342764 0.654241 -1.188310 0.272626 0.374712 1.004864 -0.180972 0.160801 0.652986 -0.226692 -0.055247 -0.765189 0.595779 -0.487706 -0.645503
1625 0.026272 0.310252 -0.105474 0.575119 0.741811 0.237810 0.434004 0.075960 0.075726 0.432342 -0.567556 -0.035613 -0.036840 0.354949 -0.067295 -0.108888 -0.640855 1.139687 0.158008 0.499557 1.021168 -0.060255 -0.228461 0.418274 1.018600 -0.021440 -0.361844 0.171055 -0.080789 0.162395 0.699032 0.530723 -0.843808 0.242023 -0.815465 -0.117820 0.036213 -0.534062 -0.379025 0.753499 -0.158055 0.294531 0.149400 -0.008011 0.417322 0.573055 -0.628148 0.065513 0.615264 -0.322902 -0.368560 -0.129955 -0.223028 0.235096 0.189590 -0.031551 0.506427 0.105529 0.607662 -0.648385 -0.025428 0.873194 0.674790 0.447356
1895 -0.667814 0.881585 -0.609115 0.239769 0.196991 0.534020 0.932155 0.078780 -0.002810 0.349820 -0.090823 -0.783560 -0.180827 0.738052 -0.340700 -0.068522 -0.374196 0.521157 -0.224184 1.044090 -0.365127 -0.274237 0.217116 0.652899 1.019498 0.185298 -0.314544 0.027665 -0.136560 0.234706 -0.506404 -0.247153 -0.563564 0.705282 -0.529261 -0.031515 0.595508 -0.917508 -0.703306 -0.891519 0.006484 0.068444 0.215936 0.305730 0.522218 0.596064 0.526577 0.942689 0.607740 0.662268 0.371840 -0.224834 -0.836220 -0.590577 0.271180 0.006217 0.648569 0.027579 0.461503 0.895258 0.029763 0.741040 0.325220 -0.486506
2632 0.249193 -0.933113 -0.395519 -0.337090 1.046023 0.609691 0.630195 0.326134 -0.145602 0.253829 0.271516 0.015261 -1.087389 0.465611 -0.400997 -1.004537 -0.788299 0.897577 0.023122 0.576313 -0.556121 0.170598 -0.912187 -0.159757 0.462824 0.441001 0.300390 -0.563445 -0.180633 1.104862 -0.066752 -0.352414 0.539593 0.000086 0.270918 0.050860 0.596443 -0.344169 0.258670 0.393163 -0.468108 -0.104985 1.251629 -0.004474 0.161455 0.025261 0.435102 0.223027 0.237059 0.298776 0.356411 -0.907057 0.674528 -0.103834 0.812132 -0.559511 -0.545427 0.191706 0.198558 0.888788 -0.229577 0.354459 0.170029 -0.484067
1429 0.080288 0.552788 0.346440 -0.670838 0.543167 0.130007 -0.455038 -0.469676 0.477287 -0.224219 -0.791095 0.078348 -1.150926 0.999211 -0.306604 -0.367174 0.011260 0.569456 0.595184 0.769770 0.581015 0.292635 -0.201441 0.286971 0.292551 0.316559 0.945283 -0.076985 -0.157949 0.393788 -0.225888 -0.142653 -0.182361 0.629078 -0.327477 0.177817 -0.355189 -0.131171 0.237469 -0.417896 -0.769080 0.335597 -0.120560 0.072108 -0.104893 -0.101780 -0.024958 0.928097 0.247601 0.699473 0.585807 -0.753225 0.214964 -0.196394 0.152911 0.164312 -0.256335 0.172661 0.507266 0.316161 0.173435 0.575091 0.803429 0.116068
945 -0.244946 0.314242 -1.036717 0.018649 0.030576 -0.020973 -0.067970 0.438896 -0.712436 -1.521545 0.090257 -0.501093 -0.642037 -0.359508 -0.396279 -0.406047 -0.424315 0.003524 -0.233156 0.403981 -0.335017 0.012330 0.639858 -0.463194 1.432502 1.398470 -0.078924 0.481147 -0.936161 0.244201 -0.534490 -0.353590 0.307975 -0.228550 0.378372 -0.844509 -0.193081 -0.412656 -0.265091 0.051905 -1.013365 0.213573 0.386629 0.702739 -0.285650 0.615069 -0.019163 1.290900 -0.695874 -0.198839 -0.312655 0.549221 -0.045991 0.360831 -0.188134 1.162555 0.321809 0.594693 -0.012265 -0.787569 -0.191723 0.409968 0.466401 0.500747
2559 -0.229691 1.479966 -0.061129 0.051141 -0.348972 1.063304 -0.366282 -0.486783 0.353444 -0.791105 -0.135422 0.871056 -0.049727 0.599583 -0.095100 -0.149410 0.160352 0.286711 -0.122146 0.493161 -0.294464 0.416061 0.351359 -0.027502 -0.848399 1.070593 0.054156 -0.014109 0.217918 -0.061515 -0.155984 -0.989575 -0.012396 -0.111047 -0.520585 0.458139 1.397828 -0.938496 -0.328483 0.294694 -0.099830 -0.498585 0.774860 0.039442 -0.232762 -0.423882 0.697346 0.123129 0.030999 0.350261 0.810184 -0.600337 0.219225 0.355490 -0.109218 0.215187 0.015626 0.565494 1.090574 0.538367 -0.553942 0.654934 0.580809 0.065735
2909 -0.781238 0.211732 -0.467904 -0.156571 -0.478256 1.223078 0.770837 0.918430 0.318041 0.233410 -0.078840 -0.309261 -0.421295 -0.502883 -0.492933 0.412584 0.390158 1.037282 0.275076 -0.561822 0.228103 -0.511943 0.123658 0.203252 -0.357156 -0.465652 -1.096175 0.903775 -0.506709 1.185510 -0.291311 1.090784 -0.021330 -1.043964 -0.394870 0.083037 0.966859 -0.928416 0.459206 0.558815 -0.278568 0.288220 1.825387 -0.128729 0.411375 0.133057 1.149946 0.666743 -0.641318 0.815015 -0.187318 -1.253940 0.124961 0.736162 0.141178 0.512332 0.509892 0.575875 -0.328773 -0.106904 -0.527565 0.229338 0.409580 0.863049
2861 -0.454054 1.049757 -0.185310 -0.293443 -0.288265 0.414683 -0.061237 0.014230 0.021645 -0.785199 0.217613 -0.613560 -1.176839 0.414315 -0.844747 0.018507 -0.593752 0.613563 -0.941368 0.348254 0.171707 0.257091 0.469171 -0.633549 -0.562120 1.033463 0.193604 0.094334 0.442071 -0.564083 0.711977 0.095923 -0.404389 -0.096217 -0.366432 0.026712 0.611674 -0.712291 0.946069 0.496868 0.329562 0.486598 0.737578 -0.117356 0.186121 0.935829 -0.244030 -0.841337 0.079370 0.565647 -0.254841 -0.591016 0.005107 -0.466927 0.437668 -0.435419 -0.626648 0.278725 0.263288 -0.013470 0.574929 -0.630850 -0.655183 -0.343306
2976 -1.117659 -0.236847 0.429069 0.382248 0.511254 -0.745117 0.101748 0.561200 0.054645 -0.404065 -0.457113 -0.446686 -0.504600 0.767247 -0.714889 -0.055904 -0.263602 0.043314 -0.160565 0.292044 0.155748 0.637724 -0.144996 0.354493 -0.959883 0.728968 0.482532 0.293282 -1.018558 -0.405583 -0.503641 0.153306 -0.357911 -0.527208 -0.383626 -0.006991 -0.185155 -0.274864 1.841347 0.075047 -0.669436 0.286619 -0.000829 0.354371 0.724646 -0.035110 0.428300 -0.038775 -0.294836 0.215937 0.306560 -0.012475 -0.347854 0.178334 -0.479550 0.143395 -0.049734 0.655089 0.106567 0.682349 -0.277402 -0.362355 0.728519 -0.330099
1232 -0.336973 0.120715 0.339961 -0.313956 0.543585 0.357217 0.100779 0.590549 -0.360207 -0.370885 -0.676087 -0.298449 -0.139246 1.703164 -0.442144 0.610888 -0.364034 -0.418918 -0.219206 0.244990 -0.223239 0.944198 0.455318 0.527121 0.232367 1.223368 -0.170271 0.675365 -0.969878 0.058904 -0.003640 0.449666 -0.202243 -0.128717 -1.118171 0.529723 0.211320 -0.624704 0.835213 -0.187597 -0.497876 0.508040 0.006240 0.165360 1.189183 -0.138900 -0.184358 -0.167101 -0.117939 -0.022040 0.124585 0.318301 -0.963273 -0.333740 0.222644 0.187120 -0.009448 0.436581 -0.407226 0.578609 -0.366784 -0.916507 0.742868 0.025992
279 0.112882 -0.218808 0.272374 0.680812 -0.498020 -0.229376 -0.278696 0.616885 0.055712 0.575469 -0.123984 -0.683428 0.548819 0.692848 -0.363453 -0.228816 0.137671 1.130627 -0.079624 0.004360 0.096055 -0.411202 -0.635522 0.709608 0.195384 1.348350 0.576896 0.515747 -1.566865 -0.923612 0.550976 -1.014661 -0.630801 -0.307077 0.539048 -0.632133 0.600524 0.145886 0.035510 1.632949 0.283625 -0.456125 0.059606 0.909516 -0.534525 0.790255 1.028348 -0.031480 0.080309 0.755129 0.649831 -0.629564 1.149637 -0.654393 -0.559095 0.037211 0.674130 0.418170 -0.140395 0.207674 -1.402136 -0.548144 0.195381 -0.122550
1994 -0.511992 0.132443 -0.534062 -0.172973 0.118248 1.165910 1.053177 -0.322180 0.113880 0.096308 0.223973 -0.354467 -0.351084 0.260820 -0.466919 -0.752683 -1.019171 0.762827 0.641844 -0.004921 0.829974 -0.623471 0.860416 0.458922 -0.141598 -0.389728 -0.084581 0.727801 -0.634683 -0.733184 0.026545 -0.515894 0.818760 -1.120278 -0.511095 -0.121306 0.162315 0.723161 0.315693 -0.310779 -0.172275 0.637786 0.744352 0.102098 0.731498 -0.440925 -0.196475 0.319404 0.175644 0.479137 0.221392 -0.459240 0.969992 0.759314 -1.469660 0.515439 0.777740 -0.166661 -0.066430 -0.129511 -0.247051 1.233771 -0.416173 0.696297
1942 -0.456741 0.167786 -0.030886 0.094179 -0.073015 -0.089739 0.478579 0.019861 0.217832 -0.068546 0.507059 0.044603 0.604395 0.484246 -0.007827 0.850415 -0.243245 0.145781 0.025230 -0.859321 0.167233 0.867393 -0.184688 0.119084 0.985763 0.401865 0.732952 -0.120939 -0.497971 -0.711650 0.330196 -0.101335 -1.352642 -0.985358 0.094493 0.126463 0.416944 -1.075083 -0.190155 0.286683 -1.126982 0.355198 0.080500 -0.628398 0.208875 0.797559 0.101172 -0.154739 -0.284104 0.560035 0.850454 -0.347568 0.908718 0.994930 -0.240807 0.104227 0.472749 0.783195 0.451772 -0.366029 -0.406536 0.134518 0.534957 0.387303
968 0.760369 -0.228000 0.440699 0.232545 0.148587 -0.182789 0.694916 0.187675 -0.061268 0.491545 -0.349729 -0.527293 -0.094847 0.117949 -0.091675 -0.471986 0.169088 0.552820 0.089126 -0.689384 0.368855 -0.437089 -0.129977 0.320570 -0.047908 0.978948 0.253448 0.551281 -0.197579 0.212432 -0.025715 0.036796 0.092350 -0.522401 -0.227345 0.078086 0.723475 -0.397949 -0.213442 0.126914 -0.556066 0.676130 0.293906 -0.215655 0.200242 -0.306970 -0.167789 -0.869262 -0.216214 -0.009328 0.430358 -0.467698 0.219660 -0.330107 -0.327670 -0.121472 0.470036 1.229979 -0.778407 0.097955 0.018251 -0.779060 0.319077 0.982440
478 -0.189416 -0.604022 -0.420183 0.173615 0.835719 -0.536316 0.738648 -0.457792 -0.366797 -0.506340 -0.644710 -0.117722 -0.564529 0.103644 0.706859 -0.618779 -0.403085 1.284990 -0.110662 -0.283599 0.516879 -0.022878 0.769506 -0.684580 0.622468 1.104385 -0.013101 0.535512 -0.599803 -0.248024 0.443225 -0.090332 0.255697 -0.032100 0.577791 0.649881 -0.302440 -0.986989 0.434794 -0.060761 -0.448051 0.671903 0.725870 0.119986 0.486389 -1.372378 0.662845 -0.051909 0.503430 0.129224 -0.094462 -0.493692 0.766761 0.031696 0.707131 -0.058085 0.094478 -0.176299 -0.745777 -0.486291 0.373876 0.141878 0.312307 -0.175324
2406 -0.447243 0.881256 0.179208 0.104267 0.712763 0.057541 0.769059 -0.450346 0.425775 -0.214981 0.222268 -0.581620 -0.053936 1.149072 -0.588688 -0.792367 -0.127788 -0.259456 -0.040734 0.354232 -0.165068 0.211035 0.201144 0.115928 -0.372218 0.456382 0.476449 0.855083 -0.476004 -0.569486 -1.142668 -0.143038 -1.011197 0.195616 0.114199 -0.410574 0.320542 -0.246913 0.904157 0.463607 -0.117350 0.119418 -0.627658 0.779439 0.090672 1.112825 -0.071924 0.100005 0.045335 0.718837 -0.521498 -0.469947 0.275643 0.427782 -0.515542 -0.426961 -0.528968 0.097588 0.608800 0.104277 -0.417345 0.347440 0.709315 0.138772
1784 0.110296 0.772090 -0.354746 0.392622 0.659090 -0.264786 0.037475 0.095812 0.383877 0.818315 -0.435860 -0.098153 -0.467404 0.945907 -0.351311 0.363168 0.530019 -0.125738 -0.659146 0.888673 0.435000 -0.865446 -0.474392 -0.057812 0.200074 0.388306 -0.840240 0.594903 -0.552612 0.191044 0.432503 -0.969625 -0.026329 -0.728182 -0.276331 -0.137207 -0.094411 -0.609037 0.176647 0.626059 -0.439317 -0.561302 -0.122298 0.498340 -0.833059 -0.178823 0.270605 -0.161328 -0.781382 -0.080367 -0.151939 0.394275 1.088593 0.457995 0.368670 0.256680 0.631328 -0.047471 1.288944 0.097164 -0.936387 0.219700 0.510151 -0.164792
2557 -0.181344 -0.006925 -0.728040 -0.455777 0.463570 -0.977080 0.050195 0.058475 -0.636581 -0.243985 -0.816084 0.255022 -0.531300 0.243825 0.476986 -0.890795 -0.860644 1.202462 -0.014624 1.201494 0.451357 0.044452 0.879669 0.918319 -0.135617 0.730948 -0.167607 -0.211774 -0.241519 -0.033514 0.337291 -0.234637 -0.289296 0.051057 0.160628 -0.367504 0.764758 0.006964 -0.287433 -0.020928 -0.003852 0.143463 0.234904 -0.147612 0.956526 0.073663 0.573580 -0.538252 -0.642248 -0.209700 0.406707 -0.319826 0.803318 0.130750 -0.902116 -0.088414 0.692673 -0.269694 -1.245595 -0.326220 0.130406 0.372668 0.820606 -0.519699
314 0.217674 -0.557034 0.133282 -0.220448 0.833643 0.291411 0.285232 -0.223162 -0.317625 0.595322 -0.448228 0.037719 0.143083 0.018458 0.214184 -0.012266 -0.546735 -0.022517 -0.413998 0.037722 0.740834 -0.763223 -0.537286 0.918838 0.422301 1.141773 0.370480 0.369609 -0.470985 -0.387018 -0.425979 -0.123292 0.293198 -0.311341 -0.721885 0.178880 0.784431 -0.968451 -0.658908 0.032982 0.284211 0.716383 -0.123264 0.286062 0.021826 -0.540809 0.223824 -0.737692 -0.753181 0.693981 0.882521 -0.099312 0.700833 0.354857 -0.494110 -0.247226 -0.112912 0.363838 -0.148976 0.617223 0.490037 -0.137207 0.797572 -0.036039
2092 0.115886 0.080227 -0.871092 -0.582134 -0.051384 0.312842 0.321733 0.243744 -0.987758 -0.146391 -0.252470 -0.227604 -0.353435 0.268809 -0.264766 -0.397087 -0.922113 0.656948 0.588014 0.065675 -0.415371 -0.447504 -0.120424 1.218352 0.340941 -0.059117 0.608839 -0.689961 0.620189 0.743320 -0.235889 -0.280633 0.760451 0.147051 -0.136847 0.028851 0.187055 -0.739507 0.302672 -0.023126 -0.807009 -0.039423 0.618848 -0.049189 -0.753897 -0.264381 0.439712 -0.670549 -0.136873 0.469317 0.122550 0.358649 0.673174 0.692331 -0.092148 -0.576517 0.803245 -0.511817 0.955217 -0.454564 0.153568 -0.528409 0.327203 -0.835403
2596 -0.480688 0.123623 -0.342555 -0.124836 0.096117 -0.441477 0.215844 -0.234607 -0.807056 0.781182 -0.606311 0.136291 -0.024106 0.283039 0.000254 -0.466611 0.026198 0.656770 0.536796 0.740489 0.387429 -0.772239 0.410568 1.369369 0.020337 0.875522 0.343515 -0.046221 -0.201362 -0.185252 0.025347 -0.270129 0.023056 0.264076 -0.593946 -0.427024 0.439579 -0.581521 0.154404 0.021711 -0.132560 0.281581 -0.192246 -0.052758 0.806185 0.070697 0.331612 -0.136029 -1.365014 0.387004 0.581109 -0.369485 0.664404 0.558018 -0.150717 0.119569 0.424320 -0.402587 -0.879091 -0.017975 0.348511 0.478053 0.192618 -0.219925
109 -0.439447 0.382984 -0.419647 -1.246229 -0.048370 0.081120 -0.455577 -0.078956 -0.917609 0.106665 -0.583923 -0.597453 0.349914 0.543685 -0.344651 0.128042 -0.248414 0.764401 0.278132 -0.329823 -0.359785 0.502654 0.072052 -0.095771 -0.215601 0.983563 -0.166931 1.406648 -0.741750 -0.443326 -0.134452 -0.717686 -0.408541 0.186206 -1.223932 0.156818 -0.257519 0.028363 0.544162 -0.057165 0.269097 0.059207 0.796105 0.620840 0.752332 -0.021825 -0.252866 -0.379975 0.157309 -0.373957 0.345579 -0.187272 0.083623 0.138586 -0.048462 0.071776 1.173099 -0.148681 -0.067948 -0.585104 0.335541 -0.921400 0.318354 -0.004057
1583 0.240524 1.001307 0.359723 -0.744817 0.222756 -1.092718 0.940336 -0.308574 -0.124515 0.074043 -0.366733 -0.235097 0.041731 -0.280514 -0.638525 -1.343150 -0.693611 0.134382 0.992130 0.260958 0.203847 -0.321673 -0.146435 0.840998 0.131926 0.195130 -0.238404 -0.007495 -0.607627 0.022953 0.305268 -0.015204 -0.615006 -0.280484 0.182415 0.447743 0.273795 -0.293081 -0.246584 0.271864 0.498395 0.253724 0.153528 0.320198 0.355497 -0.281867 0.577776 0.244129 0.129287 0.459543 0.859446 0.378643 -0.533052 -0.657558 -0.026112 -0.349938 -0.355482 -0.795318 -0.046857 -0.559164 -0.448340 -0.115901 0.205217 0.374691
1986 -0.441542 0.416336 -0.021041 -1.168187 -0.704589 -0.872181 0.083720 -0.230276 -0.685030 -0.124560 -0.360651 0.565094 -0.169487 0.499268 -0.752474 -0.023644 -0.209028 0.875657 0.410795 0.349190 -0.527056 -0.360063 0.340221 -0.031628 0.847475 1.432770 0.092086 -0.767828 -0.077867 0.529262 0.254604 -0.897131 0.030510 -0.485723 -0.511919 0.110285 0.077261 -0.824347 -0.912957 0.417161 -0.186021 0.533493 -0.267407 0.532771 0.033506 -0.629234 1.206054 0.358560 0.355794 -0.295534 1.069325 0.150431 -0.082784 0.442902 0.095220 0.351389 0.024446 -0.009493 0.229152 0.563639 0.582394 1.168462 -0.040216 -0.524792
830 0.046133 0.122101 0.168863 -0.143423 0.475853 0.180924 0.273338 -0.000013 -0.954252 0.087338 -0.537527 -0.262857 -0.176719 0.645219 -0.395336 -1.042377 0.514384 -0.010487 -0.101900 0.479806 0.109048 -1.031696 -0.111714 -0.617761 0.291599 1.235115 0.297662 0.102821 -0.635693 -0.699160 -0.640655 0.621026 0.089495 0.853801 -1.191051 -0.213449 -0.267287 -0.234344 -0.482670 0.458021 -0.278252 0.202005 0.256479 0.201090 0.168090 0.496357 0.395218 -0.018096 -0.287252 0.488749 -0.261641 -0.222189 -0.720744 -0.512258 -0.595699 -0.165000 -0.162552 0.688766 0.393112 -0.055287 -0.716315 0.879142 -0.332267 -0.586180
113 1.332961 0.414656 -0.513956 -0.634789 0.020413 -0.373794 -0.206223 0.045824 0.264219 -0.263539 -0.316961 -0.924386 0.170614 0.823774 0.296358 -0.186104 -0.398444 0.790130 0.178400 0.465295 -0.505087 -1.197975 -0.266934 0.331128 0.431930 1.570807 0.342497 -0.053118 0.132664 -0.571845 0.584851 1.163402 0.071262 0.167198 -0.159499 -0.067328 0.637560 -0.443251 -0.305477 0.232837 -0.517978 0.620332 0.453950 -0.638508 -0.851843 -0.692369 -0.145541 -0.433553 0.029927 -0.506676 0.376131 0.642518 0.631280 -0.359110 -0.352995 0.123632 -0.140692 0.368481 0.450270 -0.088049 -0.589949 -0.296751 0.531794 0.796789
2067 -0.028019 0.136808 0.586568 0.035990 0.832674 -0.075542 0.069143 -0.955568 0.409764 -0.037731 -0.503825 -0.724560 -0.821258 -0.555815 -0.085984 0.001557 -0.609462 0.310838 0.640085 0.020440 0.040438 0.482258 -0.331504 1.037007 -0.496780 0.187387 -0.671096 0.663489 -1.194532 -0.175847 -0.594549 -0.408563 -0.242475 -0.161776 0.011754 -0.369284 0.612810 -0.287257 0.120520 0.196484 -1.123798 1.824195 0.097420 -0.014122 -0.381192 0.212047 0.025195 0.415944 -1.004367 0.833877 0.251479 -0.138641 0.122537 1.012256 -0.192815 -0.603041 -0.639626 0.271278 -0.777609 0.439238 -0.362474 0.039194 0.157473 0.395791
605 -0.566190 1.217346 0.267902 0.505609 0.829604 -0.640875 0.920999 0.408228 -0.876794 0.352988 -0.449789 -0.186732 -0.459316 0.122544 -0.579258 1.492146 -0.094218 0.439908 0.263777 0.762419 0.946600 -0.137635 0.355535 0.077011 -0.292860 1.044428 0.056718 -1.071990 -0.845310 -0.333495 -0.156416 0.069877 -0.441861 0.629493 -0.027067 0.833376 0.210546 -0.400845 -0.609222 -0.864454 0.073372 0.780313 0.552580 -0.216784 -1.643577 0.314270 -1.028203 -0.665100 -0.326372 0.716931 0.192918 -0.964004 0.073987 1.281604 -0.603423 -0.644770 0.894441 0.080943 0.444209 0.424589 -1.482096 0.345535 -0.382905 0.066335
1119 0.047627 -0.274228 0.096974 0.363231 -0.969980 0.166350 -0.238731 0.359668 -0.227581 -0.429327 -0.412964 -0.612146 -0.085801 0.529742 0.218982 0.188178 -0.089971 0.686844 0.142102 -0.129497 -0.102465 -0.126336 -0.471048 0.611975 0.335697 -0.033632 0.679074 0.870966 -1.216715 0.596126 1.033771 -0.602546 -0.400908 -0.606805 -0.265272 -0.509595 0.266454 0.183834 0.669485 -0.482982 -0.248993 0.293236 0.047484 0.127647 -0.172502 -0.170811 0.365212 0.295267 -0.134720 0.820983 0.703865 -0.782812 -0.035778 0.107122 -0.173775 -0.376147 -0.034102 0.517554 0.500843 1.271166 -0.307444 0.260535 -0.028758 0.409547
243 0.533973 0.479611 -0.315063 -0.670793 0.115513 -0.543683 0.997201 0.884293 0.133445 -1.054917 -0.072191 -0.483458 -0.356277 0.215725 -0.146666 -0.506894 0.146149 -0.170449 0.530603 0.184214 -0.845112 -0.194987 -0.237276 0.474595 -0.882943 0.050685 0.939160 -0.105269 -1.592712 -0.283174 0.307386 -0.974930 -0.590218 -0.811450 0.182475 -0.181121 -0.106661 -0.340726 0.667114 -0.078071 -0.656638 1.513239 -0.570257 0.213037 -0.310824 0.438302 0.157412 -0.575943 0.163029 0.961355 -1.367377 -0.148657 0.422587 0.495165 0.668745 0.513644 0.536923 0.118629 0.697778 0.293462 -0.078027 -0.003753 -0.026833 -0.653828
3156 -0.876163 -0.748723 0.231035 0.383904 0.113665 -0.714764 -0.063928 0.221801 -0.309469 -0.492436 -0.730346 -0.428049 -0.209290 0.179780 -0.776412 -0.619845 0.720280 0.574622 -0.727413 0.789853 0.320900 -0.239953 -0.196579 0.049091 -0.368511 0.942426 -0.267630 -0.221314 -1.376294 0.095735 -0.600419 0.667483 0.322559 -0.191793 -0.639271 0.818351 0.028313 -0.458338 1.055471 0.559630 -0.277127 0.313692 -0.211453 0.351739 0.323746 0.085893 0.748289 -1.397578 -1.265301 -0.502697 0.331438 0.360985 -0.654694 0.087808 -0.353600 0.295761 -0.247427 0.034726 1.087297 0.268738 -0.883834 0.171597 -0.032670 -0.538368
1938 0.134864 0.154087 -0.703333 0.846308 0.558897 -0.271734 -0.367764 -0.401400 0.354564 0.579083 -0.437898 -0.094907 -0.506750 0.476651 0.043071 0.326541 -1.124468 0.597540 -0.187647 0.378293 -0.317221 -0.237750 -0.003236 -1.008789 -0.384800 0.353606 -0.174349 0.506588 -0.941411 -0.454619 0.127848 -0.275478 0.176088 -0.784428 -0.531281 0.329612 -0.224673 -0.486088 -0.042129 -0.862570 -0.387622 0.369020 0.686517 0.074631 -0.226024 -0.323920 0.436259 0.170942 -0.481979 0.330629 0.556338 0.011338 0.546955 -0.028289 0.430371 0.337812 0.169674 0.441362 -0.376363 -0.521881 -0.695004 0.501088 -1.254245 -0.832546
742 -0.136050 -0.452845 0.472757 0.313815 0.163526 0.242890 0.279517 -0.429101 -0.214377 -0.105830 0.705726 -0.303696 -0.500386 0.256490 -0.198955 -0.505646 0.185391 0.995014 0.023947 -0.484669 0.616778 -1.320939 -0.590002 0.389128 0.145630 0.840568 -0.193842 0.004396 -1.336823 -0.229125 0.149866 -0.077410 -0.078988 1.310417 0.282731 -0.285458 0.820893 0.192815 -0.110169 -0.053746 -0.100188 -0.413946 1.300465 0.508907 -1.142261 0.305577 1.622696 0.670688 -0.249065 0.069416 1.109218 -0.348805 0.377877 0.030884 0.483112 -0.036199 0.164458 0.555446 0.371188 -0.173107 -0.446852 0.009119 0.591228 -0.651488
1094 -0.045022 -1.020001 0.313385 -0.021905 0.621734 -0.640640 -0.054958 0.088816 -0.133418 0.249974 -0.895604 -1.085668 -0.194402 -0.195746 -0.789923 -0.644384 0.017484 0.708925 -0.040161 1.110327 -0.654359 -0.068002 0.496818 0.548908 -0.316734 0.152367 0.018131 0.208285 -0.304064 -0.668434 0.407831 -0.839515 0.119587 -0.113226 0.261633 0.601538 -0.932605 -0.719724 -0.487519 -0.081074 0.262265 -0.496385 1.106277 0.315149 -0.525901 -0.332347 0.254153 -0.008774 0.424216 1.335450 0.292787 0.352084 0.406624 -0.218862 -0.250484 -0.182643 0.407530 0.442272 1.042988 -0.433644 -0.810723 -0.329047 -0.656181 -0.435322
819 -0.350761 0.188000 0.384567 -0.086279 -0.065007 -0.282321 0.458700 1.285122 0.439512 -0.488503 0.831023 -1.000350 -0.063775 -0.396695 0.053755 -0.671493 -0.025443 -0.225689 0.366789 0.290636 0.265212 -0.333047 0.025537 0.243361 0.591635 1.099393 0.052152 0.221569 -0.383110 -0.335928 -0.006735 -0.923818 -0.029456 -0.963415 0.241227 0.354607 0.470491 -0.652011 -0.070095 -0.171508 -0.055760 -0.279144 0.360258 0.151444 0.012482 1.704455 -0.009422 -0.429699 -0.331618 0.002725 0.415410 -0.015633 0.174759 -1.020888 -0.713404 0.708010 -0.126747 -0.593004 0.608989 -0.985383 0.187256 -0.042788 0.649441 0.597827
1030 0.121291 -0.233757 0.578978 0.356022 0.594104 -0.117587 0.262445 -0.227917 -0.366098 0.369542 -0.455624 -0.256177 0.237483 0.311615 -1.128972 -0.789076 -0.554769 0.483776 0.283477 0.140581 0.133871 0.164737 -0.014579 0.176873 0.855457 -0.314916 -0.933034 1.011879 -0.665513 -0.252022 0.806508 0.982409 -0.023812 0.186548 -0.700584 0.098447 0.822890 -0.228555 -0.309886 0.161742 0.009171 -0.348730 0.364750 -0.724568 -0.390228 0.601666 0.742364 -0.048054 -0.128453 -0.032940 -0.417433 -0.671544 -0.562608 0.538423 -0.506533 0.064025 -0.560585 -0.238353 0.925902 -0.175355 0.152093 -0.241430 0.254900 0.671742
1791 -0.815456 -0.649339 -0.193827 0.754112 0.003892 -0.143908 -0.240603 -0.158165 -0.562490 0.717087 -0.230426 -0.174372 0.646980 0.642170 -0.141765 -0.548732 0.045365 0.832872 0.332748 0.788882 -0.263121 0.091931 0.498955 0.659306 -0.426352 0.231594 1.024941 0.403799 -0.901995 -0.055392 0.832180 -0.784560 -0.367937 -0.142759 0.035253 -0.386112 -0.035631 -0.491520 -0.714802 0.449959 -0.447206 -0.123048 0.299383 0.047788 -0.687001 0.998820 -0.379102 0.330852 0.279254 1.112896 0.831215 0.126473 0.507798 -0.535278 0.233095 0.164579 -0.070334 0.798805 0.498021 -0.386666 -0.698503 -0.990002 0.206828 0.102970
661 -0.659025 0.623456 0.562642 0.049041 0.172100 0.673775 -0.235010 -1.208752 1.324277 -0.566145 0.088107 -0.883169 -0.198101 0.111387 -0.853090 -0.033515 0.123717 0.305417 -0.168173 -0.024296 -0.283001 -0.135597 0.007030 -0.034359 0.712804 0.063726 0.001548 -0.102115 -0.273985 0.360414 1.267230 0.133890 0.265018 -0.177266 0.282835 0.451782 -0.650707 -0.347626 0.158274 0.181244 0.100462 0.268378 0.149999 0.620563 0.146796 0.627472 -0.111256 -0.475714 -0.105816 0.168677 0.141704 0.211411 1.052392 0.324959 -0.695592 0.040635 0.551895 0.188572 0.315196 -0.478632 -0.548082 1.124620 0.195296 -0.046521
734 -1.016417 0.251720 0.016016 -0.102306 0.347138 -1.112131 0.345471 -0.478775 -0.203218 -0.260046 -0.786020 -0.259798 0.146709 -0.440676 -0.010081 0.058779 -0.432562 0.147340 0.252166 -0.040407 1.109445 0.933214 0.741591 -0.734533 -0.248057 1.309421 0.692985 -0.046870 -0.807478 0.534216 0.777867 0.911973 0.525095 -1.419986 -0.010906 0.183296 -0.063134 -0.527888 0.217833 -0.323376 0.177420 0.220964 1.004074 0.168833 0.022848 0.563874 -0.122728 -0.435887 -0.279721 -0.039567 -0.309474 -0.429394 1.301163 -0.836932 0.490531 -0.422688 0.335956 -0.893498 0.154802 -0.390586 0.313442 0.374171 0.342981 0.333029
2398 0.164088 0.118100 -0.193104 -0.376770 0.230620 -0.115340 0.024541 0.320534 -0.255126 0.047356 0.018513 -0.563206 -0.247699 0.039520 -0.913026 -0.126222 -0.546829 0.374568 -0.043699 0.522864 -0.353260 0.172076 -0.512856 -0.169624 0.254974 0.732763 0.601009 0.483640 0.147340 1.171537 -0.697383 -0.599287 -0.508101 -0.607298 -0.405669 0.342540 0.633680 -0.032807 -0.681731 0.360693 -0.645154 -0.271046 0.491246 -0.032462 0.094728 -0.225242 0.394074 0.567306 -0.125154 0.607492 -0.756162 -0.312747 0.153753 0.678007 -0.344386 -0.499268 -0.368820 0.155445 0.550572 0.761896 -0.445407 0.284800 0.184382 -0.526992
1808 0.127873 0.447210 -0.532128 -0.176718 0.869062 -0.697481 0.576943 1.013154 -0.937862 0.507114 -0.387770 -0.397080 0.282078 -0.736816 0.061598 0.800999 -0.776589 0.180639 1.260624 0.031693 0.013485 0.279448 0.013059 0.861998 0.364285 -0.056886 -0.152485 0.480365 -0.940169 0.830536 -0.291761 -0.561898 0.276086 0.102025 -1.074116 0.072283 -0.674181 -1.440085 -0.227116 -0.548338 -0.559571 0.203833 0.777309 0.570689 0.112112 1.091312 0.252623 0.108271 0.368670 -0.820301 0.038026 -0.581881 0.163707 0.398854 -0.626721 -0.186962 -0.906798 0.491085 0.872953 0.216719 0.492101 0.103802 -0.378721 0.550498
1517 0.664301 0.193606 -0.770731 -0.204996 -0.002851 0.146434 -0.732268 0.386210 0.379439 0.016874 0.847002 -1.004649 0.563918 -0.056855 0.417929 -0.287435 -0.768983 0.382139 0.211981 0.670159 0.755632 -0.483296 0.363718 0.092140 0.469904 1.328019 0.038986 0.334636 0.024954 -0.372426 0.277020 0.007377 0.377384 0.099557 0.485382 0.120257 -0.035369 -0.453092 -1.225845 0.023963 -1.028073 0.642534 0.927030 0.130049 -0.299489 0.453984 0.304968 -0.200190 -0.355924 0.342346 0.136423 1.028271 0.754701 0.176574 0.425960 0.003862 -0.242158 0.728234 0.331345 0.025255 0.169149 -0.444985 -0.321183 0.014542
1324 -0.601372 0.749613 -0.316148 -0.007460 -1.296292 0.741468 0.509912 0.155757 0.421519 0.147666 -0.786166 -1.065408 -0.215810 0.138479 0.765751 -1.185864 -1.600137 0.650609 0.068674 0.717577 0.557820 -0.251693 -0.150719 0.507681 -0.186100 0.647785 -0.268603 0.368652 0.044410 0.114096 0.705831 -0.515653 -0.603325 0.154058 -0.167703 0.466337 0.048595 -0.693429 0.346576 -0.142490 0.277752 0.746904 0.352896 -0.000923 0.391802 0.319003 -0.640451 0.277382 0.346238 -0.539391 -0.429211 0.037484 -0.235949 0.354716 -0.080587 0.142883 -0.082393 0.042588 0.947483 -0.808989 -0.851564 1.006863 -0.180085 -0.094088
2524 0.286867 1.098221 0.795322 -0.278738 -0.238107 0.297478 -0.575571 -0.896158 -0.411635 -0.063207 -0.115619 -0.817891 -0.942629 -0.128515 -0.479697 -0.056193 -0.371717 0.764033 -0.223773 0.051567 -0.451940 0.532129 0.144939 0.476250 -0.409004 0.519244 -0.350753 0.075992 0.597283 0.177331 0.091823 -0.018899 0.259952 -0.310177 0.312653 0.379588 0.306604 -0.224892 0.527304 -0.616760 -0.370477 0.701629 0.036365 1.035922 0.002129 -0.662843 -0.224314 0.020909 -0.585727 0.167720 -0.042771 -0.793400 0.340517 0.130381 -0.077714 0.089111 1.026013 0.035587 0.953555 -0.575826 -0.613170 0.033714 -0.043673 0.702195
1022 -0.445613 0.137451 -1.002719 -0.093963 0.095619 -0.313979 0.644455 -0.983068 0.350442 0.494330 -0.467200 -0.915687 0.118956 0.229688 -0.495030 0.051715 0.067230 0.847912 -0.290330 -0.462549 -0.086325 1.144955 0.144363 -0.308690 -0.930022 0.928182 0.060147 1.015515 -0.661568 -0.028365 0.876927 -0.266162 -0.110178 0.003075 0.050133 -0.132106 0.449798 0.250830 0.332048 0.562649 0.116176 0.297601 0.623637 -0.239178 0.410428 -0.020792 -0.024866 0.450678 -0.444369 0.905976 -0.446989 -0.248146 0.450930 0.450117 -0.130656 -0.530658 -1.022311 0.011224 1.191046 -0.144670 0.025740 0.506828 0.079910 -0.114579
1922 0.768391 -0.293871 -1.160581 -0.694469 -0.105637 0.000188 -0.336956 0.926355 0.412369 -0.709276 -0.668995 0.253790 -0.305251 -0.062852 -0.798279 0.062634 -1.570735 0.880125 0.552653 0.792785 -0.066142 0.854085 -0.833514 0.406936 0.697208 0.541269 -0.530352 -0.215791 -0.393972 0.859474 -0.252560 -0.275137 -0.040697 -0.428683 -0.126011 0.504224 0.750951 -0.092282 -1.125017 0.594049 -0.433055 0.357354 1.665092 0.351125 0.115760 0.065013 0.219312 -0.229762 0.075038 0.553169 -0.696883 -0.715346 0.715480 -0.179743 -0.097135 -0.346004 -1.184830 0.589011 0.844527 0.882444 0.057882 -1.010719 -0.000991 -0.499500
834 -0.554378 0.123506 0.936037 -0.530357 1.045948 0.920652 0.491247 1.281583 0.153929 0.203789 -0.871821 -1.105341 0.218433 0.219829 -0.282695 0.466657 0.387187 -0.222792 0.231880 -0.527617 0.479606 -1.195239 0.349631 0.275846 0.338554 0.789274 -0.144356 -1.486467 -1.223943 0.144066 0.305031 -1.266828 0.837651 -0.636364 -0.652399 -0.112419 1.270228 -0.348084 -0.389253 -1.108264 0.205224 1.030771 0.705601 0.461618 0.096358 0.157698 0.015070 -0.651622 -0.204793 -0.514794 -0.000991 -1.862948 0.118384 1.177732 1.458422 -0.228337 -0.171823 0.375238 0.390297 0.340994 -0.951380 0.051541 0.400620 -0.131640
2311 -0.151595 -0.082410 0.614162 -0.454022 0.090221 -0.382773 0.693088 -0.456045 0.094004 -0.338018 -0.753067 -0.278083 -0.206077 1.232200 -0.064497 -0.569375 0.405613 0.009268 1.406042 0.748520 -0.186655 -0.687395 0.413834 0.083876 -0.592329 0.342139 0.183123 -0.777362 -0.349951 0.711770 0.503566 -0.392197 0.861441 -0.166190 -0.274317 0.422664 0.163812 0.057310 0.358205 0.057994 -0.172858 0.655900 0.566030 -0.533749 0.700860 0.056921 0.639690 -0.328573 0.986863 -0.323358 -0.258120 -0.534375 -0.317226 -0.079979 0.887949 0.019554 0.369918 0.561031 1.297629 0.136350 0.691838 -0.718331 0.767618 0.141580
644 -0.111709 -0.195952 -0.245055 -0.666399 -1.593487 -1.071864 -0.989540 -0.986073 0.827164 -0.818577 -0.806850 -0.746863 0.478485 0.836801 -0.270045 -0.555633 -0.449195 -0.612734 0.705978 0.331792 -0.813387 0.824054 0.540697 -0.138421 0.727993 -0.192981 -1.336241 0.177515 -1.291942 -0.013974 0.405469 0.155909 0.139152 0.517345 -0.659863 0.695688 -0.352992 -0.842570 0.838019 0.558928 -0.427428 1.298594 0.563721 0.564983 -0.735710 0.607846 0.430102 0.047845 -0.038704 0.554933 -1.020964 -0.521113 0.240719 -0.258386 -0.133074 0.464906 0.389026 0.541633 0.811777 -0.462611 -0.665773 -0.465332 0.911722 -0.121128
2583 -0.895251 -0.059271 -0.066280 -1.545081 0.779465 -0.134172 0.001691 -0.044994 -0.516112 -0.308554 0.932184 -1.289760 0.286257 -0.169134 -0.655078 -0.125240 -0.470409 0.378832 0.617624 0.594444 -0.562613 -0.524312 1.360616 1.246775 -0.446755 0.248817 0.408222 -0.608624 -0.864708 0.024065 -0.049555 -0.776035 -0.797377 0.801690 -1.234749 0.931728 1.761719 0.117804 -0.330620 0.588574 0.149979 0.070509 1.231745 -0.206517 0.200452 0.810823 0.224068 0.228641 -0.224696 0.871340 -0.502270 -0.074955 -1.662747 0.293382 -0.496744 0.363664 0.321982 0.947621 -0.469514 0.117587 -0.298539 0.345219 0.527656 0.500270
287 0.198450 -0.870676 0.227377 0.463791 -0.031252 -0.742704 0.604414 -0.707762 0.551519 0.525381 0.049623 -0.104500 0.277830 0.669262 -0.979557 -0.605575 -1.766818 0.078830 0.803821 0.116737 0.180820 -0.498817 0.053072 -0.064268 0.494859 0.175442 -0.726329 1.272647 -0.321218 -0.103660 0.562613 -0.073689 -0.494202 -0.312880 -0.231382 0.200403 0.591642 -0.341907 -0.586898 0.300809 0.092613 -0.542360 0.392414 -0.618484 -0.471690 0.477468 1.247765 -0.043017 -0.291131 -0.245925 -0.696772 -0.749367 -1.089839 -0.167008 0.619591 0.222888 -0.107813 -0.761118 1.008726 -0.338284 -0.210217 0.086655 0.643716 0.236672
3009 -0.460590 0.435438 0.904873 -0.703559 -0.244928 0.125006 0.276046 0.126632 -0.114275 0.076283 -1.121481 -0.787635 -0.357739 0.399717 -0.598579 -0.000662 -0.778451 -0.245603 -0.480050 0.288173 -0.634939 0.202161 1.424700 0.333811 0.641122 1.352292 -0.749469 0.149925 -0.305757 0.091345 -0.105617 0.324398 0.610695 0.046947 0.404697 0.366411 -0.246640 1.095830 -0.310342 0.086592 0.706442 0.338850 0.367543 -0.383324 -0.326883 -0.073513 0.866705 0.374360 -0.561051 0.534829 0.271728 -0.385326 0.534307 -0.115152 -0.310627 -0.144437 0.508459 0.468548 1.270013 -0.656167 0.485729 0.130785 -0.493976 -0.097279
1220 -0.327904 0.120882 -0.085212 -0.488267 0.249091 -0.473371 1.197413 -0.408770 0.707875 0.215398 -0.981558 0.720893 0.752456 -0.241397 -0.766810 0.771927 -0.424864 -0.126741 0.274961 -0.236740 0.821927 -0.001636 0.408460 -0.028742 0.311727 0.448776 0.934334 -0.162170 -0.245713 0.573471 1.002266 -0.366355 -1.091088 -1.081407 -0.159341 -0.157252 0.204734 -0.443054 -0.552184 -0.286239 0.077672 1.142490 0.776905 -0.093819 -0.213862 0.443281 0.386940 0.000590 0.056553 -0.667465 0.701348 -0.597692 -1.041387 0.395372 -0.061039 0.911002 0.590925 0.876407 0.634127 -0.618129 0.204189 -0.232047 0.341089 -0.811753
2024 -0.220600 -0.024215 0.186993 0.315632 0.568008 -0.400617 0.225114 0.254349 -0.893601 -0.420569 1.023270 0.455872 -0.226679 -0.100513 0.334347 0.158243 -1.043003 0.835099 -0.305481 0.929087 -0.586734 0.155524 -1.236198 -0.186302 -0.151142 0.973204 0.055833 0.073916 -0.743491 -0.090912 0.670531 0.194943 -0.254200 0.173755 -0.067256 0.348280 -0.299319 -0.247004 0.207865 -0.155751 0.114261 -0.539090 1.124968 0.460161 0.021959 0.024637 1.561338 0.384363 -0.189046 -0.327492 0.424542 -0.476538 0.496276 0.113360 0.428325 0.392963 0.876769 -0.091387 -0.029189 -0.055108 -0.654104 0.038211 0.037341 -0.454058
1908 -1.008162 -0.355860 0.146539 -0.289129 0.547826 -0.356120 0.521317 -0.069524 1.000933 -0.244222 0.160853 -0.266835 -0.465160 0.686076 0.195670 -0.710344 -0.781870 0.507947 -0.261762 -0.367362 1.245391 -0.871220 -0.732753 0.174826 0.318400 0.580845 -0.454145 0.092183 -1.000240 -0.218414 1.080002 0.470609 -0.164337 0.241814 -0.245770 -0.291049 0.492601 0.502296 -0.345415 -0.038488 0.587669 0.032468 0.367155 0.874347 -0.798446 0.301652 -0.090089 0.218745 0.160446 0.507347 0.574068 -0.595487 0.043870 -0.589275 -0.528931 0.020765 -0.425660 0.310033 0.085261 -0.318000 -0.116601 0.315517 -0.276433 0.248757
2379 0.743720 0.254406 0.543706 0.225216 -0.400428 -0.136853 0.498632 -1.449229 -0.301378 -0.582129 -0.454021 0.436098 -0.474116 0.548692 -0.656742 -0.968959 -1.421792 -0.133564 0.040919 0.305130 -1.376389 -0.865174 1.311165 -0.078750 0.746006 1.091582 -0.271471 0.833850 -0.807237 0.646052 0.005953 -0.603712 -0.574420 -0.235866 -0.587676 -0.630686 0.815859 0.688783 -0.174761 -1.568141 -0.589678 -0.256168 0.679712 0.818204 0.547133 0.732799 0.170176 -0.650756 -0.591641 0.128769 -0.446001 -1.142473 1.107368 -0.153903 0.000193 0.264294 -0.205254 0.117541 -0.044447 0.442351 -0.795769 0.750632 -1.817363 -0.839513
482 -0.078286 0.033269 0.006268 -0.271179 0.176975 0.004447 0.093918 -0.205955 -1.066465 -0.939612 -0.430133 -0.344740 0.158509 0.294652 -0.513875 -0.542082 1.071767 0.590602 -0.493510 0.539982 0.521831 -0.822834 0.031079 -0.885856 0.268443 1.311252 -0.062218 0.024888 -0.960194 -0.019715 -0.758265 0.655112 0.362305 0.224283 -0.748624 0.614375 -0.480726 -0.059711 0.157581 0.606707 -0.291155 -0.026304 -0.095719 0.112861 0.092699 0.717144 0.344701 -0.871183 -0.931205 0.012743 -0.042628 -0.435257 -0.700411 -0.531855 -0.915112 0.188921 -0.053418 0.497478 0.752445 -0.043423 -0.983918 0.482386 -0.041739 0.306451
242 -0.589938 0.115702 0.473587 0.480496 -0.663091 0.356361 0.603404 0.069250 -0.045355 -0.103213 -0.582599 -1.089054 0.090306 0.062536 -0.822753 0.617855 -0.998969 -0.062880 0.382910 1.449634 0.391178 -0.406456 -0.164868 -0.387237 -0.673138 0.329021 -0.513190 0.995400 -0.846055 -0.131799 0.706435 -0.810670 0.183004 -0.887504 0.442633 -0.679066 0.166823 0.177589 0.076512 -0.827020 0.063609 0.596838 0.404344 0.785351 -1.128218 0.443923 -0.843705 -1.294519 -0.180327 1.277556 0.966416 1.084180 -0.150325 0.067751 -0.598063 0.963403 0.735722 -0.137055 1.545135 -1.343006 0.096204 -0.717350 0.388376 -1.396010
1395 0.062447 0.922321 -0.017469 -0.060382 -0.473719 0.444413 0.229121 0.616265 -0.358809 -0.613173 -0.338665 -0.608111 -0.473102 0.596790 -0.313516 0.163740 -0.156056 -0.334580 -0.562072 0.029112 -0.339747 0.372747 0.163549 -0.088756 0.047066 1.237249 0.347933 0.139639 0.190662 -0.683404 0.119172 -0.027006 -1.132385 -0.184388 0.028531 0.146051 0.936344 -0.617309 0.567753 0.885852 -0.451297 0.477911 0.760888 0.046804 0.007372 0.570796 -0.287217 -0.599252 -0.459326 0.758200 -0.764752 -0.509850 -0.441569 0.085009 0.379649 -0.703729 -0.429122 0.055959 0.110587 -0.336334 -0.194122 -0.591079 -0.170669 -0.236764
2681 -0.428846 0.740254 0.159087 0.645638 0.882166 -0.267938 -0.187397 0.091488 0.762374 0.738283 -0.237080 -0.202396 0.446959 0.448858 -0.782340 0.337627 0.206111 0.800184 0.076154 0.873152 0.629541 -0.022786 0.077466 0.021556 0.365152 0.333420 -0.485861 0.422865 0.071851 0.612396 0.415310 -0.264577 -0.549883 -0.684700 -0.500717 -0.368062 -0.050344 -1.121864 -0.076469 0.695012 0.379013 -0.466044 0.595004 0.127753 -0.258960 0.423366 -0.278658 -0.473737 -0.031338 0.355190 -0.547973 0.214745 1.138735 0.414309 0.599380 0.562693 1.008956 0.103293 0.551226 -0.140161 -0.287637 0.343732 0.673934 0.132986
3061 0.231857 1.114259 0.084986 0.433220 0.386315 -1.096023 0.617466 0.576671 -0.124670 0.337822 -0.222601 -0.287619 -0.583205 0.504609 -0.773159 0.621508 0.367814 0.260649 0.062180 0.501675 1.223657 -0.401176 -0.385524 0.706294 -0.285577 0.384255 -0.518166 -0.198075 -0.928876 -0.523041 -0.011142 -0.079385 0.158101 0.133226 -0.659805 0.708321 0.106376 -0.526333 -0.836600 -0.636588 -0.149234 -0.040127 0.270661 0.027129 -1.403034 0.184557 -0.231783 -0.606441 -0.640022 0.383652 -0.088710 -0.223705 0.310054 1.189451 0.236896 -0.283112 0.415764 0.030741 0.496114 0.130522 -1.439369 0.327224 -0.348584 0.143765
2198 0.779371 1.697381 0.203178 -0.802771 0.214063 0.256169 1.204875 0.262867 -0.557795 -0.034645 -0.194096 0.099545 -0.448368 0.025213 -0.966869 -0.636029 -0.392550 1.440282 0.323179 0.646444 -0.310449 -0.512948 0.285872 0.596552 -0.518973 1.286981 -0.265358 -0.021261 -1.100094 0.792435 0.511049 0.631295 0.163623 -0.085299 0.733655 0.738804 0.941818 0.190392 0.064055 -0.107448 -0.322525 0.032920 -0.798403 1.292437 -1.315719 0.111646 0.123069 -0.124084 0.675606 -1.299361 0.351811 -0.082783 -0.158700 -0.735891 0.251962 0.153093 -0.434694 0.689752 0.448657 -0.653422 0.443191 0.250007 0.032737 -0.644629
1035 -0.066554 1.166114 -0.037566 -0.499350 -0.390097 0.463712 0.076362 -0.092135 -0.583677 -1.333524 0.309557 0.103321 -0.461351 0.334616 -1.554248 -0.459478 -0.073502 0.562547 -1.236761 0.726434 0.489246 0.110284 0.138156 -0.149833 -0.382180 0.408636 0.237731 -0.227107 0.223025 -0.758592 0.957688 -0.332219 0.103562 0.057734 -0.549543 -0.658919 0.402484 -1.451017 0.789239 0.423733 0.167068 0.479322 0.892665 0.439442 0.308794 0.342340 0.232783 -0.321567 0.420584 0.036723 -0.432459 -0.502819 0.358859 -0.494054 0.091038 -0.186776 -0.071216 0.350134 0.203938 0.019186 0.237503 -0.641359 -1.073787 -0.362767
1599 -0.165265 -0.284612 -0.086245 0.123631 0.602139 1.304138 -0.705018 0.237857 0.414879 -0.369614 -0.244877 0.254370 -0.168354 -0.792828 -0.729108 -0.322057 -0.885353 0.186231 -0.046929 0.227117 -0.390425 -0.725637 0.248978 0.967559 -0.324509 0.635390 -0.598528 -0.396060 -0.636931 -0.003235 0.756052 0.585675 1.202012 0.070911 0.219224 1.511788 -0.234849 -0.748834 -0.902817 0.850775 -0.301641 0.216616 0.655978 0.852554 0.274808 0.552720 -0.056616 -0.743248 -0.758992 0.763586 0.557227 -0.221158 -0.089207 -0.047812 0.573795 0.417157 0.217683 0.696704 0.335442 -0.638830 0.260163 -0.835177 -0.464477 -0.031928
902 -0.628275 0.315272 0.317633 0.444197 -0.699034 -0.729619 0.002020 0.299641 0.634327 -0.480123 -0.061559 1.161877 -0.249845 0.884673 0.302401 -0.356248 -0.299484 0.458963 0.263456 -0.271794 0.394372 0.229670 0.333260 0.745305 -0.602964 1.253005 0.719712 0.920493 0.083104 0.895039 0.932879 -0.543894 0.700249 -0.593320 -1.167281 0.163081 -0.258712 -0.766595 -0.053681 0.405659 -0.888873 -0.254115 0.326295 0.365724 -0.245515 0.259886 0.590517 0.490001 -0.341338 0.238949 -0.459724 -0.282810 -0.295073 0.342645 -0.445022 0.117181 -0.343149 0.802652 0.118094 0.363467 -0.177177 -0.253533 0.060363 0.825535
2826 -0.692611 -0.149556 0.388651 0.652603 -0.315722 -0.260165 -0.506114 0.785824 -0.432848 0.007365 -0.473159 -0.559819 0.475347 0.478836 0.060600 0.123883 -0.440847 0.297955 -0.289932 0.148195 -0.020875 0.082401 -0.120748 0.345501 0.385227 0.202345 0.760963 0.741959 -1.013467 0.267678 0.130442 -0.159500 -0.158668 -0.154054 -0.914046 -0.922694 0.166875 -0.244959 -0.183525 -0.669854 -0.426625 0.228883 0.396285 0.306620 -0.043793 -0.010855 0.103038 -0.034966 0.243097 0.635406 0.636086 -0.021123 0.424354 -0.357300 -0.131008 -0.016754 0.160506 0.257336 0.683845 0.736516 -0.019201 -0.296756 -0.076523 0.729329
2329 -0.371024 -0.087819 0.569891 -0.070083 0.198664 -0.124359 0.151972 0.334330 -0.497291 -0.283674 -0.401617 0.594081 -0.192822 1.412279 0.261666 -0.581283 -0.335561 0.303121 0.107417 0.371133 -0.009958 -0.691283 1.229940 0.178010 -0.622807 0.034660 0.759292 -0.094931 -0.270050 0.822397 0.695941 -0.627869 -0.137822 -0.082010 -0.887576 -0.192593 1.354397 -0.728402 0.461022 -1.145932 0.888897 1.744645 1.300360 0.581321 -0.238967 0.538158 -0.422607 -0.368457 -1.312054 -0.052193 -0.056803 0.158304 -0.015048 0.076031 -0.998571 0.105091 -1.403539 0.516501 -0.384486 -0.223820 -0.507907 -0.340395 -0.219866 -0.316886
2432 0.988022 0.490902 0.350300 -0.231187 -0.212943 0.070928 0.114333 -1.248570 0.010787 0.244558 0.257023 0.390475 -0.140984 -0.379156 -0.183461 -0.439537 -0.294579 -0.371632 0.643727 -0.259715 -0.241560 0.065206 -0.473085 0.793540 -0.573251 -0.067433 -0.254491 0.486403 0.066990 0.889113 0.975072 -0.206274 -0.297803 -1.345980 0.174538 0.433142 0.096492 -1.798325 0.632266 -0.784055 -1.347953 0.817349 1.695109 -0.303048 -1.153007 0.447301 0.088719 -1.218182 -0.727354 -0.124182 0.087395 -0.074031 0.183664 -0.459415 0.336001 -0.325478 0.709201 0.447786 0.097826 -0.727367 -0.416054 -0.164066 -0.041063 -0.440659
2196 1.384031 -0.284253 0.478533 0.379564 0.097310 0.080061 -0.034114 0.040420 0.186699 0.520561 -0.803566 -0.654624 -0.658984 0.191950 0.249159 -0.241369 -0.060490 0.954682 -0.513545 0.090403 0.367494 -0.591413 -0.101608 -0.063534 0.214027 0.681432 -0.085451 0.857591 -0.311840 -0.252179 0.392878 -0.249927 0.099729 -0.407269 -0.095339 0.657211 0.152118 -0.354989 -0.164273 0.440421 -0.312191 1.249196 0.615453 0.223176 -0.613755 -0.329862 -0.109401 -0.734274 -0.128644 0.097246 -0.212722 -0.183565 0.464007 -0.298775 -0.515804 0.396235 0.651740 0.954507 -0.822271 -0.080511 -0.248152 -0.740834 0.563790 0.761990
2343 0.536584 -0.161130 -0.098308 -0.543043 -0.014290 0.490075 -0.572020 -0.245306 0.351637 -0.190408 0.196215 -0.612488 -0.058175 0.577267 0.705942 -1.030334 0.070174 1.148953 -0.509924 0.524552 -0.081271 -0.248565 -0.484234 0.582757 0.821811 -0.028267 -0.365365 0.395724 -1.050417 0.335398 0.484755 -1.379065 -0.243858 -0.925107 -0.319850 -0.873355 0.137271 -0.521154 0.165972 0.052974 0.721370 0.382455 0.188445 0.343552 0.137807 0.209791 1.247360 -0.950397 -0.239902 0.607292 1.146186 -0.076969 -0.452159 -0.246248 0.442898 -0.725306 0.334867 0.821635 0.201058 0.847336 -1.347419 0.238943 -0.029659 0.033415
702 -0.382172 -0.442941 0.048334 0.047989 0.995276 0.551819 0.363619 -0.565557 -0.622868 0.577996 -0.430402 -0.014438 -0.078917 -0.069848 -0.112181 -0.589784 0.033943 -0.131656 0.353870 0.587989 0.339496 0.288021 0.292065 0.375442 -0.556802 0.605365 0.067929 0.561416 -0.221581 0.469697 0.786356 -0.757653 -0.914349 -0.056612 0.154723 0.859198 -0.599793 -0.378212 -0.159257 -0.554416 -0.530725 0.242629 -0.194315 0.373496 -0.791469 0.711353 0.154581 -0.153328 0.289625 0.545918 0.469483 -0.429732 0.142032 -0.167474 -0.554872 0.086701 0.821341 0.209954 -0.071297 -0.666834 0.318994 0.161372 0.820976 0.371247
3289 0.811334 -0.089896 -1.291036 -0.524352 0.132779 -0.012878 0.769308 0.976835 -0.257434 0.783832 -1.297896 -0.098162 -1.089758 0.589988 -0.778651 -0.237314 -1.083557 1.787575 0.654678 -0.039503 -0.337189 -0.095247 0.389142 1.807670 -0.155280 -0.033720 0.708802 0.614210 -1.182305 0.182506 0.288420 -0.461600 0.352043 0.007668 0.941901 -0.156397 -1.164988 -0.429001 -0.082476 -0.144847 0.064132 0.328217 1.826471 0.818917 0.419926 1.007304 -0.551201 0.192575 -0.547239 0.523377 0.244069 0.635421 -0.736318 0.377568 0.636313 0.303145 -0.182843 0.489848 -0.496949 -0.663675 1.704060 -0.153637 0.238314 -0.102265
2724 -0.160624 0.465976 0.123494 0.284675 0.429974 -0.362939 0.149900 0.391777 0.206098 0.406802 -0.198756 0.110262 -0.057363 0.417023 0.348960 -0.420124 0.942825 0.728737 -0.219048 0.490926 0.443871 -0.510752 0.226161 0.472380 0.478141 0.420021 -0.106813 0.756231 -0.783863 -0.330459 0.034394 -0.238446 0.080271 -0.521043 -1.176130 0.533353 0.352053 -0.708023 -0.393843 -0.507890 -0.462488 -0.393752 0.248798 0.652763 -0.841881 0.402433 0.230392 -0.714809 -1.296892 -0.541497 0.011223 0.221787 0.004091 0.569879 0.436271 0.202742 0.348783 -0.507057 0.234689 -0.161336 -0.805095 0.969860 0.458782 -1.105474
1623 0.077305 0.560611 0.157665 -0.119935 -0.070037 0.224702 0.223729 0.417375 -0.018915 0.170896 -0.094509 -0.544675 0.460111 1.230455 -0.903931 -0.120390 -0.059870 -0.036133 -0.641064 0.046801 -1.090936 0.257443 -0.078548 0.012492 0.327457 0.968934 0.410631 -0.751865 0.095139 -0.310407 -0.209980 -0.319750 -0.824693 -0.156301 -0.167009 0.556202 0.124804 -0.217826 0.364191 0.363803 -0.781473 1.284301 0.429578 0.254857 0.174052 0.969244 -0.249452 -0.720935 -0.120359 0.624276 -0.511845 -1.125526 -0.716608 0.057357 0.515701 -0.685873 -0.046204 0.104469 -0.113823 -0.714269 0.131760 -0.580248 -0.244143 -0.476092
1268 -0.366116 -0.157213 -0.162283 0.467099 0.743842 0.821823 0.589552 0.253571 -0.252569 0.892596 -0.080799 -0.400503 -0.280501 0.254777 0.410026 -0.156119 0.529690 0.174837 0.244345 0.700866 -0.192537 -0.619038 0.633487 0.547735 -0.255417 0.169833 -0.572657 0.444505 -0.423398 0.843384 0.669342 0.128989 -0.819030 0.468604 -0.001526 0.792261 0.139146 -0.383051 0.339646 -0.353501 -0.232051 0.603193 -0.246716 0.210461 -0.658418 0.288213 1.116475 -0.872629 0.494630 0.226832 0.458694 -0.291284 0.232657 0.071103 -0.462989 0.180740 0.645370 0.532220 0.259689 -0.682303 0.578963 0.181337 0.440764 0.682438
3035 -0.966723 0.607504 0.234588 -0.214943 0.180244 -0.707588 0.093502 0.980459 -0.514754 -0.650997 0.065586 -0.716425 -0.659039 0.576201 -0.666477 -0.281722 0.072962 0.175757 0.380878 0.176918 0.385096 -0.081843 0.070732 0.774884 -0.394343 0.230989 -0.410921 -0.266192 -0.885498 -0.688691 -0.349781 0.248336 -0.601571 -0.202328 -0.217665 0.904080 -0.431252 -0.008347 1.020473 -0.338119 -0.649295 -0.402944 0.847836 0.340887 0.815159 -0.952647 -0.066082 0.031588 -0.523959 -0.239646 1.118039 -0.710593 -0.567800 0.250409 0.346125 0.241821 -0.175607 0.533579 0.548436 -0.498539 -0.025816 0.379783 0.366320 -0.013064
1833 1.709686 1.729916 0.459451 0.673804 -0.445424 -1.020275 0.380916 0.137183 0.262118 -0.914144 1.169708 -0.328850 -1.222213 0.773881 0.036454 1.133092 0.936861 1.286644 0.415464 0.757702 0.664204 0.436711 0.487688 -0.098858 0.012372 0.285027 0.209404 0.888592 -0.983434 0.461043 -0.019234 -0.474766 -0.383878 -0.919216 0.225209 0.378983 0.609498 -0.714315 0.990241 0.090111 0.021911 0.351795 1.563991 2.072194 -0.752408 0.212683 0.976682 -0.802179 0.396734 0.736359 -0.402791 -0.088410 0.168265 0.999587 0.046722 -0.050268 0.138143 -0.816013 0.850781 -0.827192 1.547735 -1.244765 -0.437492 0.937446
2543 0.110978 0.556982 0.613076 -0.183541 0.336062 -0.455103 0.158813 0.466192 0.040603 -0.236867 0.082810 -1.358217 0.207020 0.198441 -0.119514 -0.219325 -0.147262 0.094852 0.577191 -0.038059 -0.663916 -0.127864 0.304122 0.670577 -0.352288 0.666479 -0.492182 -0.364896 0.204208 0.070473 0.144291 0.102295 -1.062091 -0.594638 -0.010458 0.938536 0.115662 1.164198 0.287310 -0.448061 -0.543081 0.446142 0.745520 1.060279 0.579452 -0.718535 0.260254 -0.324083 -0.088930 0.481590 0.914858 -0.841280 -0.124975 -0.334544 0.523728 -0.500166 0.134248 0.483987 0.230472 -0.043054 -0.738642 0.396969 0.416162 0.158209
2750 -0.719209 0.079160 0.182580 -0.283311 -0.070347 -1.075162 0.281756 0.391439 -1.424290 -0.205837 0.261411 0.821340 -0.065241 0.188252 0.232482 0.318512 -1.037080 0.949734 0.296584 0.348358 -1.388708 0.203269 -0.971800 0.096558 -0.015669 0.449779 -0.206366 -0.376775 -1.278848 0.459496 0.836401 -0.073762 0.073369 -0.169535 0.033363 0.422398 0.162808 -0.447098 -0.451689 -0.306284 -0.446687 0.093514 0.144800 0.756850 -0.548597 -0.324395 1.190202 0.241364 0.695940 -0.003334 0.389863 -0.757881 0.752944 0.049221 0.240290 0.204234 0.542447 0.167667 -0.029059 0.085432 -0.211450 0.272995 -0.288853 0.156332
2791 -0.283960 -0.147553 -0.041557 0.234222 0.187952 -0.069130 0.273681 0.726121 -0.181916 1.408168 0.109820 -0.337188 0.456228 0.214899 -0.315763 -0.051115 -0.154772 0.288417 0.288116 0.594786 0.406837 0.148584 0.312574 -0.555861 0.417319 0.128274 -0.813495 0.341399 -0.660358 0.774843 0.275361 0.151841 -0.553249 0.366226 -1.090916 -0.668592 -0.644260 -0.396589 -0.134566 -0.257444 -0.686207 -0.553063 1.351321 0.422195 0.139627 0.171812 -0.085718 0.564870 -0.303697 0.698788 0.255623 -0.924995 0.669377 -0.225393 -0.879466 -0.092525 -0.113953 0.376167 0.979279 -0.068697 0.398698 -0.437717 -0.339779 1.142183
2186 0.310037 0.515873 0.447891 -0.766061 -0.277504 0.757153 0.394175 0.854549 -0.017049 -0.518607 -0.315462 -0.516192 -0.826251 0.524037 -0.432531 -0.374623 -0.293342 0.962137 0.976029 0.214427 0.238493 -0.144653 -0.275297 0.323271 -0.121274 -0.240353 -0.678938 0.163949 -0.177142 -0.351129 0.134278 0.559949 -0.473173 -1.397167 -0.078514 0.034239 0.609762 -0.682461 -0.281133 0.352220 -1.555871 -0.830471 0.927592 0.950075 0.715996 -0.302970 -0.804099 0.092089 -0.423158 0.223941 0.712640 -0.132563 -0.544520 0.246446 0.695086 -0.277809 0.191343 0.670943 0.121867 0.165166 0.748783 0.349753 -0.551606 -0.080638
625 -0.685265 0.573329 0.168147 -0.494457 0.535402 -0.568086 -0.511508 -0.063388 -0.170410 -0.348523 0.516307 -0.315562 0.346657 -0.083901 0.383006 -0.578708 0.352152 1.131782 0.586351 0.581464 -0.139097 -0.470334 0.813478 0.459078 -0.187990 0.193452 0.092270 -0.223026 -0.733528 0.331441 0.333220 0.356351 0.609225 -0.097003 -0.649146 0.324989 1.120722 0.448556 0.561767 0.379749 0.339504 0.004772 0.967228 0.330200 -0.285249 0.303772 -0.159654 -0.025987 -0.878209 1.199736 0.469555 -0.203435 -0.292094 0.200247 -0.087655 -0.000025 -0.130898 0.416461 -0.154560 -0.224248 0.097539 -0.176490 1.128463 -0.704744
2226 -0.536788 0.576781 -0.071022 -0.711867 0.571976 0.036436 -0.115218 0.255891 -0.962663 0.171756 -0.836658 0.032772 0.395373 0.329867 -0.429485 0.166306 -0.247084 -0.062577 0.558086 0.032243 -0.341825 0.495303 0.089593 0.287929 0.172513 1.455000 -0.620639 1.068255 -0.685495 -0.446260 -0.041167 -0.294672 -0.513739 0.170433 -0.755907 0.444595 -0.200750 -0.194397 0.626319 -0.621839 -0.196030 0.327288 0.400160 0.819581 1.082875 0.001740 -0.513147 -0.047712 0.170575 0.386607 0.308772 -0.143780 -0.368534 -0.086545 0.276343 0.219538 0.004728 0.453216 -0.182627 0.077832 0.318114 -0.854623 0.655809 0.007698
2505 0.901648 0.097288 -0.258835 -0.623665 0.845416 0.690676 0.720572 0.473379 1.297291 -2.259539 -0.435645 -0.057506 -1.355956 0.796635 0.925614 -0.298428 0.758687 0.849402 0.546785 1.020423 0.473309 0.456145 0.309632 -0.778886 -0.853759 0.767475 0.557247 0.063077 -0.606892 1.136609 1.095842 0.688049 -0.482068 -0.343095 -0.538997 0.696554 -0.544095 -0.630817 -0.582860 0.247605 1.016143 -0.120467 1.362893 1.209584 -0.009785 1.369228 0.446129 0.584485 0.579628 2.332901 0.722839 -1.268955 -0.104152 -0.035564 -0.260366 1.114534 -1.102293 -0.491763 0.386992 0.292548 0.070823 0.806717 0.938735 0.814546
2842 0.210914 0.405510 1.091738 -0.991174 0.622553 0.066640 0.151422 0.473497 -0.270871 -0.533347 -1.002770 -0.494464 -0.977290 0.291039 -0.154093 -0.146394 -0.204604 0.519753 1.067100 1.155406 0.467228 0.248566 0.933263 0.262990 0.548963 -0.091752 -0.250024 -0.677773 -0.111467 0.211304 0.416304 0.215849 -0.443293 -1.216939 -0.330697 0.577572 0.764308 -0.400814 -1.207153 0.042236 -0.805553 -0.525269 0.578620 0.865047 0.940435 -0.772833 -0.760084 -0.552498 -0.746779 0.286827 0.684451 -0.014934 0.016554 0.533854 0.632716 0.168840 -0.165941 0.103069 -0.037852 -0.296354 0.128651 0.567940 0.034617 -0.170404
1251 0.311114 0.498002 -0.045389 -0.577649 -0.210683 0.445854 0.871560 -0.782848 -0.503109 0.009287 0.212958 -0.198248 0.236047 0.025119 -0.427316 -1.250356 -0.330192 0.433914 0.731203 -0.089886 0.464586 -0.055971 0.122554 0.668541 0.257736 0.649440 -0.315941 0.189505 -0.362448 0.240671 0.631317 0.131807 -0.551368 -0.204031 0.082051 0.338388 0.141041 0.129506 0.017828 0.042207 -0.048414 0.328192 0.522280 0.922634 -0.672052 -0.209804 0.520696 0.473601 -0.306112 -0.218817 0.928639 -0.258878 -0.290257 -1.504960 -0.781099 0.437341 0.008229 -0.926439 -0.345789 -0.474162 -0.448259 0.098343 -0.102896 -0.444996
3197 -0.714962 -0.554266 -1.387797 -0.171527 -0.449245 1.909163 1.536095 -0.417776 -0.865287 -1.039152 -0.123792 -1.115080 -1.416372 1.740043 0.953134 -2.229428 -1.175822 0.060388 0.207415 0.339635 -0.563910 -0.119362 2.017835 1.388972 -0.523403 0.243747 0.184807 0.174752 -1.427030 -0.437024 0.636917 1.108939 -0.005752 -2.028047 -0.152072 -0.327456 0.283648 -0.896986 -1.479378 0.051557 -0.392412 0.705600 0.179032 0.823518 -0.127377 0.100869 0.430586 0.227441 -1.019585 0.712782 -0.352600 1.092620 -0.211678 1.011289 1.258827 1.073108 0.748081 -0.585624 0.091072 -0.911342 0.143146 -0.517591 -0.428762 0.914859
1277 0.383157 0.351160 -0.718313 0.134264 0.210842 1.295582 -0.619359 0.330993 0.123329 -0.396910 0.671329 -0.482025 0.701947 -0.133353 -0.399065 -0.363208 -1.012173 0.303361 0.278544 0.262412 -0.118891 -0.146286 0.200121 0.587601 0.536486 0.607412 -0.010842 0.245911 -0.087736 -0.406155 0.560276 0.283734 0.638305 0.206092 0.252584 1.119691 0.464522 -0.395160 -1.089637 0.122352 -0.435721 0.028471 0.221346 0.713549 -0.039355 0.352776 0.428057 -1.055775 -0.524849 0.768301 0.305083 0.278025 0.534173 -0.435218 0.538858 0.090670 0.106584 0.549246 0.550723 -0.509872 0.441853 -0.747577 -0.763654 -0.313165
1408 -0.425561 1.280907 -0.486560 -0.757514 0.313765 -0.194340 -1.149986 0.012654 0.114579 0.328558 0.418412 -0.685198 -1.509680 1.097945 0.231523 -0.730737 -0.317915 -0.404628 0.623763 0.809857 -0.275320 0.257134 1.690031 -1.054734 -0.338156 0.034808 0.370680 0.271039 -0.651822 0.230683 1.618095 0.478983 0.223088 -0.585028 0.901406 0.306901 0.498679 -0.647008 -0.225114 -0.103336 -0.136506 -0.487012 1.563731 0.045135 0.042382 1.308611 0.804350 -1.941973 -0.118016 0.073554 1.105899 -0.405418 -0.253082 1.255196 -0.418264 0.082050 0.162919 -0.345477 -0.256963 -0.080450 -0.933066 -0.030398 -0.484498 0.077780
1096 -0.714963 0.575338 -0.455700 0.020642 0.178283 0.365177 -0.349136 -0.450175 -0.336040 0.309474 0.770844 -0.241667 -0.921466 1.706808 -0.307861 -0.640543 0.198793 0.022770 0.515142 0.206614 0.044427 -0.176923 -0.420336 0.409596 0.864864 -0.232852 0.355508 -0.646968 -0.900173 0.925777 -0.579427 -0.573433 -0.112695 0.988790 -0.713374 -0.533803 -0.273635 0.189541 -0.047057 0.480376 -0.202850 -0.003820 0.443979 0.936549 -0.275925 0.527776 0.701385 0.105274 -0.179620 1.460900 0.307465 -0.543143 0.321080 -0.398488 0.982807 0.285169 0.359264 0.545755 0.162656 -0.086201 -0.150836 -0.181080 0.652532 -0.367487
118 0.670523 -0.145717 -0.772459 -0.007443 0.348953 -0.507931 0.760588 -0.282429 0.278213 0.221336 -0.428333 -0.254158 -1.039974 -0.043251 -0.369833 -0.235374 -1.252590 1.016289 -0.106781 0.337591 -0.480026 -0.513076 0.355531 1.644016 0.385609 0.145855 1.141317 0.385375 -0.514636 -0.021672 -0.031390 0.174434 0.532942 0.013807 0.452531 -0.103028 -0.342350 -0.528880 0.351763 -0.886140 0.425900 0.058684 0.424100 0.473521 -0.121523 0.534887 0.155782 -0.054449 -0.781571 0.397961 -0.012191 0.185184 -0.575518 0.377348 0.761250 0.161751 0.309414 -0.246712 -0.663539 -1.024950 0.419858 0.168292 0.910578 0.085834
438 0.527227 0.818507 1.228277 -0.860659 -0.169076 0.820281 0.038715 -0.282225 -1.031773 0.302992 0.196066 -0.050753 -0.491259 1.612309 -1.040594 -0.060654 -0.331030 0.467675 -0.039262 1.079586 -0.308581 0.480183 -0.347157 0.595132 -0.293469 0.156462 -0.503231 -0.029825 -0.217574 -0.069200 0.721258 -0.492299 0.416133 -0.512504 0.119791 0.453324 0.094612 1.112119 0.368232 -0.239293 0.017608 1.070416 1.225538 0.257206 -0.257030 -0.336807 0.232923 -0.190560 -1.931724 -1.176887 -0.465822 -0.743051 0.389204 1.116181 0.261421 -0.087759 1.586916 0.115941 0.850705 -0.117382 0.668209 -0.808011 0.002505 0.870985
2527 -0.019611 -0.237116 -0.324979 -0.322974 -0.333891 -0.321979 0.468405 0.306189 -0.562508 -0.356730 -0.346517 0.817443 0.254514 0.787335 -0.012998 0.185940 -0.540547 0.928559 -0.920509 0.723793 -0.297803 -0.014780 0.171302 0.120634 -0.477608 -0.069073 -0.435387 -0.077451 -0.571545 -0.577437 0.919505 -0.885261 0.382676 -0.665681 0.145572 -0.661789 -0.608871 -0.489348 -0.557585 0.063185 -0.469523 0.846464 0.527557 0.477288 0.072594 0.639029 0.286072 -0.311664 0.277508 -0.180393 -0.066654 -1.458240 0.608200 -0.221619 0.449771 -0.278070 0.930747 -0.544380 -0.244218 0.600361 -0.062898 0.274190 0.080492 0.336908
78 0.498304 0.400606 -0.295620 0.185119 0.589508 0.346664 0.710355 0.206246 -0.218097 0.364440 -0.138141 0.117624 0.099862 0.226348 -0.327064 0.364929 -0.375027 -0.497579 -0.680738 1.268741 0.184692 -0.431028 -0.402316 -0.025300 -0.045872 0.528432 -0.230742 -0.053505 -0.527979 -0.190831 0.415736 -0.367662 0.236463 -0.825338 0.368999 0.251293 -0.064933 -0.352123 0.271629 0.184149 0.329548 -1.095340 0.193248 0.701794 -0.765466 -0.244820 1.218739 -0.080972 -0.757060 0.191964 0.585133 -0.063279 0.642010 0.491098 0.203186 0.418313 0.643710 0.765734 0.469264 0.338117 -0.577861 0.133661 0.690542 -0.739217
1036 0.136764 0.112071 0.589633 0.577229 1.101166 -0.290449 0.568952 -0.434548 -0.081020 -0.259229 -0.060207 0.219341 0.698532 0.659924 -0.291696 -0.021115 -0.351944 0.604009 1.061283 0.473950 0.105300 -0.576850 -0.037030 0.330828 -0.130650 -0.103647 -1.027576 0.708266 -0.064432 0.776838 0.572767 0.264619 -0.163975 -0.022565 -0.419860 -0.790266 -0.259687 0.052170 -0.375830 -0.042127 -0.970979 0.159013 0.124324 0.879412 1.136632 0.051541 1.245236 -0.505955 -0.040946 0.835466 -0.149999 0.493558 0.454881 0.912583 -0.273181 0.614892 0.256385 -0.068817 0.012041 0.462446 -0.378714 0.856381 -0.107506 0.711680
148 0.758999 -0.065705 0.103615 -0.511270 -0.158330 0.140585 0.040726 -0.609564 -0.306476 0.227324 0.167162 -0.421390 -0.663110 0.546903 -0.480981 -1.017621 0.464724 -0.841758 -0.563576 0.950596 -0.065198 0.572780 -0.485022 -0.170639 -0.015882 0.783615 0.133683 0.614151 0.024339 0.211892 0.233347 0.068053 -0.278203 -0.339205 -0.064970 0.629764 -0.118795 -0.237892 0.269830 -0.009999 -0.748894 0.918489 0.835213 0.187022 -0.553952 0.462378 0.227083 -0.116058 0.404371 -0.028336 0.896679 -0.303606 0.224144 -0.196985 -0.022688 -0.296680 0.604856 -0.759994 -0.449176 -0.642773 -0.180041 0.491417 0.086495 0.702228
2331 -0.118679 0.796827 0.454934 -0.150251 0.656575 0.127445 -0.278923 -0.460212 0.492717 -0.425782 -0.652282 -0.193057 -1.170156 0.586229 -0.019454 -0.168381 -0.373701 0.600134 0.394120 0.767705 0.290600 0.705344 -0.473592 0.627300 0.053595 0.366148 0.760554 0.545258 -0.501812 0.801685 -0.498097 -0.595008 0.117778 0.409444 -0.342664 0.149085 -0.012576 -0.243887 0.292507 0.442451 0.057929 0.037754 -0.480843 0.133070 0.131817 1.178564 0.294130 0.001730 0.550037 0.313459 0.451479 -0.202696 0.527309 -0.161066 0.227084 0.131736 -0.344951 0.044424 0.637768 0.279936 0.439292 1.283019 0.471411 1.088794
316 -0.231393 1.709948 0.123194 -0.688974 0.668050 -1.161029 0.618238 -1.134483 0.529274 -0.289799 -0.574382 -0.601595 -0.303891 0.958806 -0.056777 -1.266226 0.645671 0.916713 0.095617 -0.551859 1.389422 -0.457108 -0.873486 0.291591 -1.012076 0.342844 -0.282842 0.278993 -1.244374 1.090350 1.049763 -0.418637 1.141437 0.373431 0.270703 -0.054755 1.059344 -0.572993 0.617268 0.497136 -0.629758 -0.713884 0.596768 0.188528 -0.493709 -0.415739 0.826330 0.708111 -0.795417 -0.249222 -0.102549 -0.555605 -0.119199 -0.968963 0.686293 -0.506241 -0.207390 1.175429 0.175138 -0.330297 -0.164212 0.599138 -0.778046 -0.308370
577 0.157422 0.816896 0.132093 0.229731 0.497993 0.244533 0.861861 0.163406 -0.127283 0.177437 0.185475 -0.504646 -0.123500 1.101311 0.356162 0.233738 -0.010950 0.941892 -0.480353 0.894228 -0.550413 0.170138 0.282927 -0.089730 0.171258 0.811517 -0.025964 0.035477 -0.030459 0.648770 -0.088709 -0.087508 0.671354 -0.649753 -1.299394 1.092494 1.088086 -1.304796 -0.090035 -0.083651 -0.189189 -0.075141 -0.030447 1.056042 0.211551 0.577136 -0.147216 0.933143 -0.296549 -0.660473 1.503232 0.274605 0.288207 -1.447756 -0.076449 0.412419 0.788753 0.455988 0.503053 1.216192 0.251367 0.527263 0.650970 -0.436445
3321 0.917325 0.756190 0.621050 -0.485019 0.447106 0.276691 0.561537 0.767951 0.368904 0.037796 -0.045038 -0.058496 -0.009229 0.575981 -0.202901 -0.413926 -0.342656 0.799510 0.600258 0.840692 0.170979 -0.532773 0.194688 0.683138 -0.224222 0.212470 0.078964 0.868294 -0.386466 1.653192 -0.124666 0.255418 0.044900 0.802566 -0.120337 0.260915 0.421610 -0.508131 0.030315 -0.319070 -0.642329 0.448133 -1.359475 0.539648 0.001461 0.419686 0.620015 0.321668 -0.247114 -0.457023 0.039053 -0.607866 1.076087 -0.346938 0.451639 0.184360 0.885364 0.458761 0.195939 -0.811241 0.103388 -0.335319 -0.052683 -0.956039
2677 -0.222279 -0.138506 0.653346 -0.453132 0.694516 0.256580 0.087265 -0.019521 0.025031 0.475013 0.424564 -0.655555 -0.169591 0.874971 -0.785355 -1.115548 0.496381 0.798859 0.915827 0.068212 -0.102935 -0.013587 -0.694853 0.769945 -0.234710 0.415166 0.157512 0.495868 -0.840034 0.034149 0.045633 0.285195 0.371096 0.302953 -0.087575 -0.804715 0.792382 0.408607 0.904784 -0.124057 -0.567883 -0.497351 0.658128 0.102137 -0.285068 0.332191 0.764109 0.348859 -0.119635 0.373045 0.592586 -0.620586 1.011528 0.121665 1.036304 0.242513 -0.527465 0.237095 0.151970 0.344357 0.264448 0.140058 0.650635 -1.384444
2769 0.846194 0.352028 0.326820 -0.160523 -0.912977 -1.449889 0.978746 0.014905 -0.101731 -1.038347 -0.476736 0.193515 -0.188162 1.795064 -0.750141 -0.285462 -1.326599 0.447813 -0.428032 1.478632 0.417032 0.238471 0.423928 -0.850707 0.775347 0.319253 0.713147 0.834030 0.164267 0.787173 -0.360663 0.097766 0.125678 0.415883 0.328541 0.918209 0.848013 -0.196753 0.122237 1.144157 -1.290696 -0.694559 -0.060516 -0.184356 0.180599 0.384777 -0.060062 1.125040 -0.366027 0.334330 -0.041037 -0.642939 0.734104 0.725825 -0.548899 0.253155 1.500280 0.371931 0.683147 -0.027714 0.284403 -0.759363 -0.258414 -1.098246
869 -0.805030 -0.333575 0.520132 -0.573449 0.932188 0.010016 0.216647 -0.678728 0.746386 0.041347 -0.101264 0.155274 -0.405124 0.854630 -0.037625 0.075538 -0.863166 -0.151767 0.282894 0.889187 -0.882680 -0.523671 0.385260 -0.274691 0.319567 0.425252 0.210057 0.530544 -0.696484 -0.112996 0.196675 0.233882 -0.399476 -0.094086 0.511658 0.340931 -0.063882 -1.249943 -0.302533 -0.111185 0.423103 -0.073814 -0.535097 1.334365 0.653046 0.616878 0.839409 0.412373 -0.645161 -0.181908 -1.227677 -0.833783 -0.210018 0.080585 -1.181004 -0.208026 -0.054498 0.523454 0.068434 -0.327775 0.711960 -0.791075 0.206178 0.378477
389 -0.839423 -0.393405 0.340243 0.144711 0.009305 -0.499655 0.478013 -0.176641 0.688433 -0.804957 0.203089 0.132523 -0.799107 1.377286 -0.856489 -1.128759 -0.543993 0.003177 0.678290 0.764940 -0.059473 -0.738542 0.272702 0.084914 -0.943416 0.587343 0.625014 -0.430990 -0.496871 0.459154 0.127345 -0.101842 -0.347099 -0.328186 -0.760417 0.455136 -0.119984 0.428957 1.018045 -0.797967 -0.954333 0.383648 -0.263946 -0.752573 0.987465 0.377310 0.018403 0.772189 0.054985 0.401035 0.770728 -1.356584 0.077139 0.032329 0.539206 0.300278 0.450677 0.518986 1.130634 0.618086 0.532417 -1.163087 0.745815 0.320261
844 0.350256 -0.792314 0.216027 0.818280 -0.681087 -0.553143 0.232796 -0.959227 0.136582 0.284088 0.003710 -0.284085 0.353129 0.923642 -1.454866 -0.080661 -0.694672 -0.022431 -0.348377 0.820010 0.643065 -0.355868 -0.000259 0.157880 -0.525943 0.130847 0.026497 0.982452 -0.158034 -0.348626 0.867464 0.605998 -0.004974 -0.387222 -0.247552 0.205120 0.258206 -0.503109 -1.029056 0.188314 -0.237343 0.571950 -0.334252 0.482307 0.466706 0.315761 0.490247 0.796803 -0.284331 0.511451 0.180988 -1.037346 0.096716 0.138706 0.808152 -0.289071 -0.050745 -0.470319 0.548786 0.314422 0.581437 -0.313994 0.484282 -0.589633
881 0.385685 -0.034453 0.124710 0.607766 -0.154003 -0.904549 0.045029 -0.932881 -0.252090 0.218198 -0.208572 0.594690 -0.009427 0.816011 -0.056878 -0.433936 -0.561772 -0.579545 0.217161 0.076762 -0.992804 -0.162764 0.696163 0.340575 0.072387 0.877442 -0.487990 0.591266 -0.849607 0.590511 0.379271 0.061695 -0.796139 -0.530800 -0.234687 -0.523288 0.366493 -0.134028 0.641321 -1.678482 -0.680091 0.598173 0.643015 0.395473 -0.029413 0.487949 -0.310957 -0.874857 -0.562292 0.762593 -0.253596 -0.701229 1.171419 -0.487175 0.063024 0.268251 -0.004768 0.623040 0.472056 -0.261763 -0.267119 0.732102 -1.591460 -0.635141
2709 1.181837 -0.253319 -0.047157 0.202991 0.731751 0.146528 0.233217 -0.104511 -0.300924 -0.357307 -0.324353 -1.086944 -0.211311 1.425024 0.443640 -0.814454 -0.483947 -0.330886 -0.240705 -0.276129 -0.648550 -0.633923 0.746442 0.665332 0.480592 0.480106 -0.930215 -0.087742 -0.628423 -0.147461 0.332236 -0.265074 0.091426 0.147981 0.782549 0.606091 0.018560 -1.225359 0.866326 -0.109197 -0.572323 0.287982 1.262529 -0.445221 0.478365 0.558757 -0.487358 0.041892 -0.039783 -0.590102 -0.304314 -0.344851 -0.096100 -0.067214 0.199653 -0.488523 -0.307745 -0.433875 0.884319 -0.501303 0.071504 0.299749 -0.621332 0.806673
3260 0.202464 -0.371861 0.674435 -0.050016 0.424178 -0.516969 1.431259 -0.562573 -0.775557 -0.477470 0.095299 -0.521190 -0.030662 0.136627 -0.002326 -0.614024 0.348151 -0.265398 0.846876 -0.427856 -0.059342 -0.837655 0.115812 -0.123072 0.302244 0.427470 0.706207 -0.212551 -0.620399 0.550492 0.946072 -0.477329 0.791642 -0.530496 -0.737419 0.285379 -0.049479 -1.037278 0.625623 0.463930 -0.555670 0.358603 0.542696 -0.372845 0.243355 -0.559345 0.928156 0.734437 1.403182 0.221331 -0.370951 0.170130 0.142158 -0.094035 0.315117 -0.245134 0.506873 0.100060 0.648035 -0.555731 -0.089515 0.584519 0.333974 -0.112827
1449 0.053821 1.129325 0.047472 -0.043898 -0.940181 0.237909 0.062204 0.053870 0.373526 -0.597270 -0.924061 -0.328943 -0.910123 0.088340 1.022193 -0.310629 -1.249258 1.030498 0.014804 0.586800 0.547378 -0.494380 -0.321369 0.783912 -0.092563 0.251380 -0.005059 0.543557 -0.257519 0.184304 0.579389 -0.755668 -0.289680 0.914397 -0.071658 0.184360 0.493365 -0.711519 0.346264 0.842219 -0.051613 0.780768 0.149206 0.190394 0.390867 1.049604 -0.821673 0.281612 0.180128 -0.545752 -0.269412 -0.333291 0.154298 0.320114 0.515510 0.241035 -0.193394 0.390426 0.529484 -1.039521 -0.108016 0.582057 0.061546 -0.193419
965 -0.068828 0.431860 0.314178 -0.174613 -0.228195 -0.141050 0.431340 -0.060103 0.063077 -0.271335 -0.504712 -0.225705 -0.572397 -0.312460 0.124090 -0.400770 0.446134 -0.195198 -0.288070 0.833584 -0.647109 -0.070944 -1.026167 -0.124181 0.412558 0.708068 1.066105 1.021176 0.435779 0.198057 -0.445367 -0.078373 -0.527231 -0.087129 0.080467 0.542769 0.567601 -0.294495 -0.052341 -0.244564 -0.747376 0.901801 0.526806 0.356913 0.476620 0.059059 0.115863 -0.665209 0.176598 -0.040433 0.934789 0.001464 0.158663 0.075599 -0.207683 -0.075494 0.346650 -0.071415 0.903995 -0.333539 0.264617 -0.260663 0.231013 -0.028112
