3327 64
1422 0.028875 -0.603448 0.009529 0.262652 0.303962 0.071029 -0.073623 -0.227078 0.404160 0.212511 0.055399 -0.029315 -0.186654 0.137422 -0.244608 0.099520 -0.169027 0.298496 -0.560465 -0.515397 0.563037 0.353521 0.359513 0.414517 0.389787 -0.047293 0.425056 -0.286708 0.635870 -0.296441 0.396368 0.153725 0.043283 0.258176 -0.150103 0.264254 -0.069451 -0.201443 -0.858317 0.667234 -0.132522 -0.379702 -0.382654 -0.143277 -0.091113 -0.065130 0.101617 0.256235 -0.278939 -0.111165 0.313658 -0.120370 -0.109406 0.019921 -0.420838 0.100076 0.194328 0.270610 0.153074 -0.082861 0.300291 0.022202 -0.277259 -0.146512
582 -0.073126 -0.434934 0.115710 -0.780488 0.051444 0.695251 0.412485 -0.397223 -0.177749 0.146794 0.126476 0.810069 0.374654 0.150844 -0.461584 -0.024958 0.220570 -0.481443 -0.430359 -0.635477 -0.100529 0.136914 -0.279887 0.342907 -0.121009 0.287778 -0.094069 0.500146 0.056598 -0.605567 -0.542857 0.129007 -0.102754 0.240788 0.088588 0.585979 -0.182504 -0.009356 -0.781877 0.142534 0.026675 0.115961 -0.400714 -0.251446 0.189372 0.025587 0.291122 -0.572815 -0.451598 -0.205180 -0.030564 0.458163 -0.517921 0.087173 -0.652285 0.202435 -0.347056 0.461789 -0.123544 -0.248797 1.042022 -0.251968 0.268174 0.004665
1214 0.457780 -0.164283 0.264472 0.413109 0.307433 -0.105249 -0.366955 -0.508644 0.128545 0.379137 -0.260557 0.315084 -0.510791 -0.154386 -0.154829 -0.287526 0.152271 0.369899 -0.216616 -0.352326 0.446652 0.330223 -0.146782 0.599987 0.575886 -0.157399 0.762274 -0.246034 0.965847 -0.136456 0.341986 0.438684 0.283078 0.129888 -0.167532 0.116018 0.226223 0.069711 -0.389894 0.211188 0.215734 -0.746100 -0.408575 -0.000359 0.074508 -0.081575 0.307132 0.123837 -0.257586 -0.486896 0.362885 -0.320531 -0.423461 -0.073186 0.260302 0.321344 0.182429 0.340137 0.111902 -0.256130 0.289304 -0.375858 -0.566194 -0.084156
968 -0.120894 -0.238776 0.108173 0.459280 0.544077 -0.459408 -0.740647 -0.293582 -0.068369 0.286578 -0.051887 0.102962 -0.453078 -0.692190 -0.047588 0.055309 0.146005 0.353471 -0.144257 -0.215367 -0.130354 0.718294 0.232310 0.450076 0.322634 0.087554 0.461304 -0.162153 0.748393 -0.002285 0.292827 0.408379 -0.072676 0.038534 -0.167351 0.185802 -0.292235 -0.052058 -0.638407 0.532665 -0.058475 0.106457 -0.058076 -0.014737 0.051749 -0.234016 -0.198098 -0.136215 -0.070533 -0.182475 0.103897 0.229928 -0.085562 0.069882 -0.561649 0.251623 0.017415 0.219242 -0.039383 -0.479829 0.472109 0.094605 -0.242999 0.310969
1625 -0.160960 -0.157791 0.514126 0.096082 0.054466 -0.244974 -0.578128 -0.169109 -0.313333 0.234142 0.070685 -0.109164 -0.548875 -0.407434 0.191373 0.130166 0.669984 0.431260 -0.735087 0.457451 0.444412 0.844818 -0.203264 0.381669 -0.458819 -0.271388 0.379492 0.008092 0.124460 0.223804 0.692739 -0.058275 -0.089757 0.270947 -0.361711 0.232531 -0.062661 -0.249162 -0.551469 0.128343 0.250483 -0.138511 -0.239080 -0.076493 -0.099102 -0.063431 -0.126933 -0.669664 0.054910 -0.734723 -0.355491 0.373438 -0.296654 -0.128038 -0.539339 0.033319 -0.268927 -0.562386 -0.356046 0.143619 0.133714 -0.233897 -0.233271 -0.004874
468 -0.219803 -0.155976 -0.189939 0.236063 0.301008 0.046599 -0.900413 -0.616001 -0.676033 -0.094387 0.240791 0.156882 -0.337559 -0.662038 0.226280 0.751944 0.299118 0.047000 -0.519984 -0.042401 -0.034378 0.155182 0.048176 0.500251 -0.016588 -0.370816 0.059179 -0.355068 0.405956 0.329984 0.714802 -0.125998 -0.089744 -0.095001 -0.179165 -0.059386 -0.140698 -0.480926 -0.503317 0.473385 0.209584 0.226667 0.175795 0.467519 -0.470351 -0.283513 0.228971 -0.457410 -0.311207 -0.377768 0.645136 -0.004644 -0.123383 0.581112 -0.194382 -0.144334 0.057981 0.200143 0.732826 0.001151 0.422216 0.345821 -0.121762 0.031655
755 0.228068 0.059768 0.020541 0.333056 0.207721 -0.358067 0.135297 -0.340248 0.242397 0.521443 0.255305 -0.274260 -0.242511 0.209389 0.203960 0.326854 0.528751 0.411775 -0.441718 -0.370187 0.498329 -0.276811 0.132318 0.958295 0.149777 -0.085848 0.903576 -0.357230 0.680188 0.110431 0.415559 0.167957 0.331881 0.063682 -0.622529 0.448168 -0.230271 0.089656 -0.628711 0.197288 -0.100279 -0.158232 -0.486659 -0.317769 -0.131166 -0.287865 0.042401 0.320012 -0.054346 -0.601912 0.372003 0.250095 -0.149463 0.510970 -0.514805 -0.199971 0.008539 -0.303788 -0.006504 0.138232 0.305499 -0.144114 0.283237 -0.046812
2782 0.453637 -0.507975 -0.106136 0.534313 0.210180 0.017706 0.024608 -0.214573 0.185551 0.344568 -0.090208 0.270960 -0.704558 -0.545897 -0.051979 -0.174710 0.036191 0.405641 -0.149012 -0.441642 0.357143 0.772378 -0.069407 0.588469 0.133926 -0.214754 0.724472 -0.034367 0.841566 -0.353600 0.564299 0.590681 0.322787 0.330207 -0.429609 -0.002989 0.054190 -0.379724 -0.456690 -0.001207 -0.327503 -0.321699 -0.639608 -0.032273 0.036190 -0.051680 0.388788 0.001336 -0.204989 -0.446865 0.458573 -0.166578 -0.160877 -0.109484 -0.106617 0.275215 0.116499 0.298344 0.174569 -0.063553 0.212756 -0.242208 -0.176422 -0.168025
1943 0.212569 -0.341787 0.131726 0.481680 0.694165 -0.466810 -0.538193 -0.127082 -0.114302 0.424554 0.238723 -0.135504 -0.093730 0.329986 0.010441 -0.026034 0.213891 0.557852 -0.329348 -0.524052 0.301994 0.025507 0.463074 0.471270 0.380956 -0.017441 0.307210 -0.147461 0.766572 -0.207308 0.579513 0.439739 -0.290818 -0.132053 -0.067429 -0.275760 -0.297095 -0.328429 -1.038773 0.343367 -0.053365 -0.479973 0.084933 -0.099645 0.014410 -0.286874 -0.236361 0.082261 -0.549401 -0.025748 0.252693 -0.135428 0.274863 -0.053143 -0.887898 0.095683 0.152449 0.208896 -0.046815 -0.455928 0.395913 -0.313369 -0.192626 0.055567
1620 0.555655 -0.380653 0.035342 0.058496 -0.420774 0.410734 -0.258213 -0.371131 -0.835721 0.053488 0.844690 0.493185 0.429667 -0.405999 0.000878 0.093324 -0.392363 0.018365 0.390937 0.129814 0.234061 0.078092 0.098030 0.330235 0.069637 0.256110 0.971749 0.392075 0.533559 -0.355220 -0.136637 0.093536 0.056617 0.347393 -0.527709 0.249569 -0.022514 0.399960 -0.905921 0.344621 -0.249210 0.542620 0.321774 -0.073972 0.178261 0.174481 0.422806 -0.257438 0.137026 0.816055 0.228217 -0.611957 -0.622231 0.449989 0.218952 -0.494422 -0.005759 -0.104556 0.008704 -0.206530 0.651791 -1.103336 0.476463 -0.296118
83 0.315597 -0.302487 0.636048 0.099033 -0.353788 0.556329 -0.079342 0.089977 0.079751 0.096218 -0.502034 0.364156 0.042178 -0.032612 -0.125209 1.239280 -0.776836 0.220828 -0.759257 -0.169386 -0.610224 -0.378021 -0.164927 -0.195719 -0.316238 0.566424 0.522172 -0.007345 0.335962 -0.521235 -0.997516 0.052262 0.042933 -0.392724 -0.469159 -0.150527 -0.586034 0.485062 0.208538 0.745799 0.014108 -0.406960 -0.382224 -0.085670 0.682672 -0.418745 0.690020 -0.362604 -0.273736 -0.646662 -0.170215 -0.431358 -0.696648 0.743933 0.283941 0.043291 -0.826434 -0.091831 -0.205843 -0.128676 0.369998 -0.853708 0.446586 -0.366587
1896 -0.167482 -0.347418 -0.102832 -0.243164 0.770433 -0.720345 -0.358568 -0.320005 -0.246648 -0.284032 1.280697 0.284933 -0.316942 0.468596 -0.146901 1.003309 0.270612 0.366983 -0.338866 0.159959 -0.531896 0.697140 -0.412278 -0.059132 -0.084753 -0.195811 -0.467957 0.096645 0.349559 -0.708413 0.153937 0.514885 0.115904 0.036021 -0.673707 -0.647833 -0.676290 -0.767387 -1.207933 0.210074 -0.182080 -0.430454 -0.038255 1.085855 0.780550 0.831971 0.821042 0.392176 -0.525931 0.095206 -0.195681 -0.074388 -1.138832 -0.724958 1.098066 -0.009116 0.163104 -0.430289 -0.900660 -0.750159 -0.400933 -0.269710 -0.420171 0.735765
2899 -0.126171 -0.852477 0.735759 0.249587 -0.271909 0.127609 0.372005 0.490797 -0.285281 -0.119368 -0.283991 -0.043849 0.050332 -0.555116 -0.348756 0.470875 0.670816 -0.071868 0.583762 -0.391138 0.015308 -0.562721 -0.003790 -0.018698 0.212186 0.662006 0.918989 0.000238 -0.031753 -0.594964 0.120699 1.029554 0.223105 0.239889 -0.096916 0.370294 -0.709642 0.105629 -0.842910 0.420014 -0.498152 0.249867 0.191034 -0.182317 -0.322306 -0.781527 0.640326 -0.505740 -0.111258 0.648427 0.382657 0.469991 -1.281298 0.151202 0.322040 0.283446 0.599904 -0.575451 0.164093 -0.612977 0.552856 -1.332331 0.071894 -0.347987
1097 -0.183436 -0.240962 0.071251 0.357304 0.283407 -0.092367 -0.570222 -0.665531 -0.374433 0.310166 0.286646 0.195090 -0.382874 -0.578714 -0.237795 0.876213 0.480728 -0.168452 -0.806959 -0.340132 -0.033854 0.280376 0.061540 0.688996 -0.751939 -0.387629 0.528440 -0.046634 0.065654 0.354085 0.396039 -0.077824 -0.077785 0.115117 -0.213445 -0.160704 -0.135749 -0.720464 -0.499103 -0.208200 -0.058798 -0.073317 0.240306 -0.089432 -0.169348 -0.062711 0.204271 -0.236713 0.163497 -0.644797 -0.054368 0.071838 -0.224619 0.249069 -0.462353 -0.360182 -0.029653 -1.046072 0.018486 0.292100 0.000273 -0.183141 -0.451086 -0.543936
3193 0.320295 -0.728378 0.872982 -0.177034 0.890986 -0.506726 -0.060838 0.506915 -0.900666 -0.056562 0.315833 -0.625580 0.642851 -0.851841 -0.753020 -0.225511 0.718442 0.015327 -0.673166 -0.099097 -0.443865 -0.073941 -0.809918 -0.025443 0.177438 0.301366 0.041371 0.389144 0.910002 0.569445 -0.037846 -0.240528 -0.054376 -0.496969 0.194141 0.072260 0.241074 -0.050664 -0.609436 0.310455 0.619914 -0.908197 0.051830 -0.110471 -0.228571 0.662058 1.250746 -0.317908 -0.317845 0.155538 -0.048232 -0.332643 -0.745710 0.406566 -0.736047 -0.545370 -0.434197 0.197641 0.063718 -0.890762 -0.559113 0.234581 -0.603372 0.332922
2174 0.532004 -0.302642 0.070944 -0.118023 -0.096408 0.096656 0.045641 -0.075616 -0.130804 0.044578 -0.465695 0.077820 0.604939 0.791697 -0.333458 -0.059619 -0.137794 -0.867373 0.361825 0.230435 0.681499 0.879388 0.381228 0.437447 -0.206961 -0.206520 -0.518659 0.217903 0.016164 0.460992 0.049780 0.260690 -0.135086 0.650856 -0.998249 0.414884 -0.478490 -0.589677 -1.261102 0.147471 0.093283 -0.525643 -0.107451 0.403617 -0.253605 -0.066948 0.423080 -0.485225 -0.586170 -1.013654 0.254151 0.509063 -0.448049 0.318540 0.565663 -0.292705 -0.482940 -0.279000 0.074564 -0.476507 -0.286454 -0.242179 0.916945 0.205122
2925 0.442452 0.005673 0.439678 0.589218 0.443819 -0.627302 -0.352205 -0.176472 0.274859 0.229792 -0.267852 0.351603 0.166322 -0.195628 0.493560 -0.030782 -0.081664 0.206174 -0.526618 -0.377157 -0.183677 0.099879 0.315854 0.544359 0.147338 0.426791 0.558820 -0.207864 0.748341 0.167416 0.638054 0.907260 -0.300665 -0.270330 -0.354609 0.118975 -0.696961 -0.149319 -0.676034 0.149386 -0.076686 -0.417600 0.291895 0.033285 -0.098273 -0.254469 0.186378 -0.015022 -0.004585 -0.299524 0.459149 -0.003940 0.455216 0.029935 -0.434301 0.269142 0.167515 -0.023788 -0.445176 -0.395108 0.654742 -0.265164 -0.062804 0.312200
541 -0.368895 -0.503161 0.433970 0.275359 0.085530 1.100783 -0.165705 0.342174 -0.640741 0.062608 0.777288 0.457009 -0.570897 0.830311 -0.168590 0.874391 0.022623 0.533087 -0.615956 -0.024906 0.358956 0.260885 -0.233598 0.105380 1.354025 -0.078706 0.445067 0.455299 -0.492815 0.385477 -0.350115 0.039539 0.150218 0.215522 -0.065143 0.869844 1.239596 -0.297283 -1.036796 0.414680 -0.242576 0.262112 0.588924 0.315037 -0.055250 0.265078 0.035091 -0.704345 -0.530729 -0.317202 0.620785 -0.457406 -0.932893 -0.120099 0.264463 -0.272851 -0.646295 -0.601861 -0.302467 -0.685060 0.210729 -0.254447 0.908748 0.109931
3046 0.126219 0.032345 1.121114 0.229413 0.348944 0.496617 -0.430179 -0.052881 -0.020523 -0.633378 -0.149483 1.040888 -0.069792 0.114609 0.739778 0.036756 -0.584779 -0.258156 0.233135 -0.047422 -0.289514 -0.116023 -0.164009 -0.430570 -0.145321 -0.367610 0.186002 -0.390258 0.576269 -0.581671 -1.286577 0.127725 0.132514 -0.122032 -0.201340 -0.327395 -0.486445 0.253222 -0.373063 0.457243 0.052935 -1.083877 -0.438273 -0.207662 -0.038160 0.078354 0.526558 -0.216990 -0.276154 -0.825323 -0.368933 -0.151452 -0.514844 0.217841 -0.472230 0.252196 -1.025370 0.367688 -0.408090 -0.101039 0.268430 -0.961326 0.444794 -0.441674
2829 0.257604 -0.354701 0.198414 0.201504 0.751242 -0.206779 -0.408643 -0.250888 0.302987 0.302185 -0.365774 -0.014917 -0.198082 -0.105923 0.075920 0.236651 -0.149612 0.003455 -0.566720 -0.502611 0.313684 0.398618 0.433954 0.562286 0.303217 -0.102904 0.753495 -0.045412 0.642157 -0.446722 0.726560 0.531951 -0.383644 -0.284853 -0.390756 0.572628 -0.481125 0.236981 -0.912639 0.513522 -0.124320 -0.218643 0.454859 0.156756 0.003949 -0.121291 -0.243740 0.204769 0.015570 -0.015549 0.290331 0.198137 -0.000450 0.041287 -0.628342 0.119013 0.239782 0.187784 -0.526668 -0.405327 0.405580 -0.199370 -0.246433 0.202664
450 0.613684 0.217707 -0.128897 0.066552 0.120186 0.120365 -0.334229 0.157391 -0.890432 -0.181634 0.346804 0.153740 -0.367062 -0.412740 0.134803 0.384156 0.690828 0.714289 -0.611933 0.348160 0.040201 0.741530 0.386072 1.352588 -0.195313 -0.248243 -0.163050 0.047717 0.802989 0.228508 0.786120 -0.129759 0.003519 -0.206777 -0.564955 0.262049 -0.703526 0.531981 -0.329565 0.621754 0.350851 0.667999 0.311625 0.069816 -0.270731 0.021746 0.033381 -0.386487 -0.446480 -0.020184 -0.028295 0.033441 -0.612325 -0.101731 0.272077 -0.321866 -0.536667 0.580365 -0.382972 0.060009 0.080726 0.113955 0.484327 -0.065753
624 0.284146 -0.658862 1.000711 0.194868 0.752327 1.162935 0.143562 -0.601683 -0.457958 -0.472709 -0.220903 0.929387 -1.063623 0.797961 0.027676 0.013224 0.348554 -0.762245 0.389428 0.489646 -0.400517 -0.111260 -0.858346 0.399618 -1.008281 0.441294 0.543552 -0.338581 0.702938 -0.091724 0.148326 0.001675 -0.192943 -0.654059 -0.083916 0.196449 -0.673272 -0.383993 -0.336832 -0.486442 0.069851 0.151452 -0.107073 -0.093211 -0.210471 0.045353 0.385897 -0.208941 -0.905530 0.400304 0.203092 0.338490 -0.134173 0.504919 -0.215030 -0.867907 -0.205598 0.606453 -0.423777 -0.208411 0.754779 -0.713999 0.145145 0.400639
637 -0.075912 -0.200672 -0.071075 0.096875 -0.499259 0.495843 -0.154261 -0.039693 -0.919039 0.469809 0.467170 0.562157 0.981907 0.545825 0.511693 0.077199 0.304059 0.034075 0.179280 0.065690 0.029250 -0.252897 -0.134275 -0.006907 -0.313506 0.252215 0.733153 0.111435 0.187685 -0.396584 0.102941 0.525608 -0.656776 0.511435 -0.485850 0.060444 0.074154 0.135601 -0.886070 0.717165 -0.375777 0.428513 -0.177798 0.049899 -0.221569 0.253619 0.565779 -1.311771 -0.153851 1.007755 -0.611442 -0.080905 -0.740356 0.506698 -0.378535 0.312481 -0.401094 0.354292 -0.030688 0.209282 0.761765 -1.270719 0.358735 -0.239990
887 0.207034 -0.250047 0.200888 0.095319 -0.150142 0.037192 -0.172790 -0.242794 -0.226899 0.336441 -0.074061 0.229960 -0.585970 -0.387376 -0.453687 0.035683 0.352058 0.478465 -0.682037 -0.217526 0.513286 0.131212 0.085136 0.676380 0.247396 -0.415247 0.909359 -0.212196 0.281295 -0.566821 0.751199 0.394217 -0.273884 0.280108 -0.776377 -0.011250 0.329151 0.080450 -0.637517 0.087302 -0.186464 -0.369434 -0.305791 -0.087922 0.051710 -0.348186 0.544956 -0.046105 -0.064845 -0.840457 0.511558 0.144948 -0.049388 0.005643 -0.336261 0.043375 -0.115346 -0.544081 0.054376 0.120841 -0.101630 -0.171845 -0.322348 -0.268517
453 0.685642 -0.386925 0.078778 0.676376 0.473634 -0.148702 -0.182483 0.112009 0.257158 0.297559 -0.342601 0.065338 -0.514182 -0.220304 -0.098649 0.103386 -0.096959 0.096192 -0.604952 -0.954559 0.444393 0.406868 -0.216651 0.635868 0.385264 -0.044285 0.531986 -0.001823 1.024284 0.001733 0.183824 0.306228 0.554285 0.296123 -0.551085 -0.225137 0.438341 0.270481 -0.624628 0.429887 -0.167410 -0.634957 -0.717291 0.066491 -0.004797 0.129975 0.610218 -0.019131 0.030142 -0.180891 0.316253 -0.299295 -0.574515 -0.082575 -0.354086 0.188434 0.294094 0.380042 0.366456 0.019625 0.281536 -0.244372 -0.217382 -0.618506
2622 -0.215592 -0.570227 -0.177415 0.132598 0.363212 -0.103950 -0.039342 -0.387455 0.134999 0.165465 0.096976 -0.125777 -0.619077 -0.098993 0.548777 0.191911 0.397316 0.374867 -1.048046 0.069461 0.395038 0.227744 0.066266 0.427366 -0.213461 -0.165835 0.429537 -0.277360 0.585960 -0.117687 0.573340 0.132422 0.132211 -0.047381 -0.211076 0.169452 -0.143054 -0.596596 -0.778319 0.155115 -0.022130 -0.018206 0.001442 0.081933 -0.190666 0.105674 0.173738 -0.316047 0.109080 -0.506289 0.801252 -0.399686 0.112376 0.661108 -0.075652 0.237796 0.282027 0.842611 0.322113 -0.039639 0.759741 -0.216724 0.060725 -0.142585
2646 0.075404 -0.294564 0.777481 -0.312242 -0.267475 0.075015 -0.423800 -0.327463 0.043945 -0.694221 -0.188926 0.693454 -0.245050 0.177163 0.003533 0.773124 -0.202478 -0.113394 0.486498 -0.481005 -0.027779 -0.352761 -0.236835 -0.228421 -0.552762 -0.273184 0.195237 -0.488091 1.009896 -1.224891 -1.009576 0.090768 -0.172566 -0.652421 -0.057760 0.035009 -0.327029 0.512868 -0.412016 0.530430 -0.291067 -0.723508 -0.605210 -0.080522 -0.034266 0.042804 0.034084 -0.174206 -0.212907 -0.699136 -0.434749 0.188997 -0.801788 0.169108 -0.423676 -0.071675 -0.985385 0.773723 -0.127243 -0.388588 -0.006889 -1.177829 0.766515 -0.205544
2703 0.637517 -0.109637 -0.553043 0.125679 0.718328 -0.770284 -0.858570 -0.524277 -0.024898 -0.997628 0.502621 0.297306 -0.397217 0.622259 1.043321 1.106885 -0.016146 0.343426 0.264489 0.152580 -0.388350 0.355283 -0.955309 0.053992 0.415057 0.365798 -1.515076 -0.359926 0.397085 -0.399601 0.396512 1.170382 0.055473 -0.104438 -1.003476 -0.313864 -0.287161 -0.358189 -0.835270 -0.128506 -0.363705 -0.788165 -0.243755 0.620234 0.290225 -0.010647 0.311825 0.387588 -0.222009 0.659504 -0.030625 -0.583303 -1.045404 -0.241657 -0.041109 0.183147 -0.180314 -0.400161 -0.195762 -0.707721 0.661891 -0.570921 0.340001 0.754500
1034 0.572729 -0.145304 0.116027 0.598188 0.164536 0.061534 -0.257467 -0.257680 0.288089 0.088498 -0.051683 0.316694 -0.337551 -0.593588 0.052417 0.039721 0.125181 0.383644 -0.482272 -0.439059 0.675072 0.425218 -0.067828 0.506540 0.515352 0.057091 0.699025 -0.151481 0.563541 0.035628 0.471889 0.810867 -0.205200 -0.006128 -0.348848 0.068342 0.285129 0.269195 -0.462699 0.294855 -0.457986 -0.662807 -0.168883 -0.019470 0.074436 -0.138923 0.505783 0.146092 -0.043922 -0.569300 0.059920 0.153139 -0.339450 -0.103327 -0.464936 0.417448 0.234876 0.210656 0.169237 -0.059266 0.219055 -0.341027 -0.219322 -0.140824
1875 -0.125641 -0.134922 0.368746 0.269545 0.177151 -0.488140 -0.378946 -0.497177 -0.358453 0.055856 0.378421 -0.129996 -0.188590 -0.494513 -0.859655 1.292276 0.435609 0.663145 -1.028884 0.001857 0.692256 0.484220 -0.834460 0.799606 -0.131504 -0.284105 0.433143 0.059526 -0.217130 0.714967 -0.111326 0.294347 -0.078681 0.483752 -0.206012 0.149694 -0.382392 -0.507187 -0.172500 -0.274480 -0.474683 -0.328663 -0.164892 -0.401083 -0.262155 0.389971 -0.265850 -0.174374 0.057431 -0.496469 -0.790364 0.312906 0.017384 0.431258 -0.393471 -0.620988 -0.037331 -0.180571 -0.012443 0.205288 -0.031833 -0.457336 -0.365138 -0.313569
667 1.032865 -0.194772 0.683687 0.085782 0.074015 0.373728 -0.775988 -0.370095 -0.138111 0.633525 0.712376 -0.623436 -0.294246 -0.053884 0.343509 1.402255 0.346135 -0.281682 0.770772 0.474917 0.618359 -0.847520 -0.264992 0.470091 -0.893142 -0.229224 0.393636 0.177290 -0.333278 -0.297011 -0.646491 0.557940 0.682002 0.885605 -0.467609 0.164945 -0.828212 0.304712 -1.101790 0.263294 -0.385376 -0.177793 -0.122471 -0.063077 -0.415381 -0.802321 0.530855 -1.788557 -0.112455 -0.363596 -1.066851 0.417263 1.120533 -0.769852 1.071983 1.484667 -0.070781 0.593850 0.501996 0.034480 0.972951 -0.162471 -0.506019 0.909570
1429 -0.149508 -0.269686 0.190943 0.154347 0.237690 -0.310155 -0.697796 -0.463733 -0.434765 0.127286 -0.301031 0.322361 -0.546719 -0.438606 0.219437 0.344746 0.646292 0.131409 -0.412270 -0.056882 0.196753 0.046118 -0.790908 0.515842 -0.444634 -0.952274 0.263626 -0.015453 0.015565 0.132085 0.022343 -0.383784 0.009163 0.331546 -0.716780 0.062332 0.022972 -0.269473 -0.709442 0.301040 -0.082349 -0.107960 -0.008806 0.039609 0.068670 0.001407 -0.093450 -0.850028 0.411655 -0.201827 -0.048823 -0.047077 -0.268039 0.194908 -1.059072 0.375726 0.015825 -0.653292 -0.065960 0.338269 0.135986 -0.071373 0.088174 0.282144
1666 0.127432 0.138021 0.509391 0.440440 0.355792 -0.555655 -0.616898 -0.747130 -0.336720 0.554860 -0.038143 0.063876 0.059992 -0.520180 0.310247 0.524518 0.874781 0.096050 -0.566770 -0.217589 0.555770 0.399435 -1.095947 0.173691 0.117891 -0.495775 0.525176 -0.056242 0.498568 0.437662 0.235928 -0.151470 -0.149840 0.356098 -0.295493 -0.080610 0.105852 -0.169113 -0.721043 -0.282427 0.115082 -0.319361 -0.067394 0.325410 -0.170571 0.187582 0.007181 -0.552350 0.519771 -0.467522 -0.567970 0.162100 -0.153527 0.176407 -0.791277 0.121967 -0.206340 -0.306308 -0.167388 0.234713 0.115422 -0.175794 0.037744 0.079308
98 0.577892 0.036927 0.365073 -0.296348 0.197267 0.079367 -0.130679 0.596954 0.224921 0.357369 0.168693 -0.123112 0.533365 0.467982 -0.161574 -0.051569 0.553660 -1.075053 0.329126 -0.290969 1.148073 1.089236 0.073463 -0.142024 -0.251877 0.208220 -0.970943 0.367634 -0.005206 0.618899 0.015930 0.610679 0.252629 0.950774 -0.878445 0.477282 -1.001506 0.299536 -0.894779 -0.275520 0.091891 -0.451935 0.810375 0.219057 -0.257266 -0.819899 0.681433 -1.000917 -0.004371 -0.984405 0.256392 -0.224971 -0.893385 0.736511 0.407643 0.197938 -0.119204 0.186765 0.012226 -1.124514 -0.122224 -0.165973 0.377833 -0.177938
1567 0.220764 -0.072065 0.600386 0.777602 0.212631 -0.646600 -0.677372 0.030033 0.308051 0.190063 0.110055 0.445843 -0.165651 0.231213 -0.339161 -0.147865 0.274146 0.650759 -0.184413 -0.296522 -0.150551 -0.383778 0.315580 0.513442 0.370622 0.295682 0.159160 -0.355829 0.674551 0.182087 0.529422 0.531181 -0.032999 0.266303 -0.211392 0.039784 -0.887592 -0.100977 -0.699450 0.452721 -0.324881 -0.409361 0.246369 -0.237312 -0.049708 -0.074892 -0.103524 -0.179815 -0.755049 0.059348 -0.016543 0.067452 0.133650 -0.152232 -1.009524 -0.057292 0.150800 -0.231784 -0.016792 -0.261663 0.387928 0.459019 0.073091 0.218341
622 0.120116 0.082581 0.851822 0.684233 0.360797 -0.570897 -0.684101 0.275871 0.196060 0.382612 0.522725 0.161410 -0.054248 0.324275 0.085041 0.058595 0.143045 0.843889 -0.235316 -0.324842 0.021788 -0.376665 0.733470 0.729900 0.453606 0.421264 0.562021 0.011657 0.650522 0.308402 0.265081 0.295831 -0.088386 0.026609 -0.185507 -0.168575 -0.546630 -0.261873 -0.930843 0.136839 -0.439071 -0.532147 0.317607 -0.249092 0.159813 -0.592798 -0.250091 -0.052731 -0.574903 0.061715 0.226818 -0.158102 0.357130 0.084719 -0.954716 0.206071 -0.036322 -0.060249 -0.356595 -0.525351 0.527245 -0.164889 0.031613 0.076989
1585 0.007553 0.104623 1.260419 -0.488388 1.329967 0.100289 -0.167454 -0.669579 -0.647673 -0.103185 0.668968 0.539503 -0.340834 0.484135 -0.283363 0.134278 0.667577 -0.247360 0.397153 -0.096991 -0.711164 -0.544138 0.064328 1.116230 0.841213 -0.687672 -0.293044 -0.025460 0.163855 -0.024683 -0.453055 -0.036575 -1.247437 1.260276 -0.876406 1.063607 -0.783993 0.041200 1.069666 -0.769822 0.339213 -0.527893 0.527188 1.089396 0.337968 -0.479818 -0.531179 -0.859227 -0.431931 -1.632981 -0.248930 -0.329469 -0.731448 -0.201708 0.176730 0.072421 0.414265 0.661215 -0.302436 -0.192914 1.405681 -0.226795 0.626674 0.275925
1708 0.268397 -0.035497 0.609665 0.565251 0.309722 -0.420785 -0.700168 0.276711 0.077474 0.402028 0.314301 0.300321 -0.039043 0.194373 0.285121 -0.058971 0.268747 0.920858 -0.151347 -0.316038 0.101916 -0.525186 0.506006 0.790289 0.619201 0.432999 0.460589 -0.127060 0.899781 0.236772 0.261068 0.098056 0.142350 0.138717 0.096598 -0.316302 -0.770695 -0.341273 -1.128347 0.065396 -0.320583 -0.356472 0.399220 -0.004606 -0.113277 -0.328514 -0.058211 -0.223809 -0.558571 -0.096114 0.243161 -0.529407 0.448584 0.076460 -0.733484 0.300252 0.163930 -0.045593 -0.258598 -0.358602 0.651827 0.007337 0.034112 0.275294
2597 -0.102181 -0.112867 0.899171 0.297071 -0.089630 -0.717427 -0.419681 0.297289 0.149795 0.550570 0.617183 0.084476 -0.380374 0.202385 -0.005518 0.215604 0.276200 0.578864 -0.396205 -0.301984 -0.296403 -0.320383 0.701693 0.449140 0.640181 0.460148 0.217558 0.241743 0.817319 0.206585 0.102275 0.110452 -0.231053 0.181426 0.213551 0.140472 -0.503362 -0.403715 -1.250433 0.304121 -0.224735 -0.468776 0.131485 -0.566900 0.173164 -0.603004 -0.137841 -0.143879 -0.853134 0.132271 0.199570 -0.423324 0.239895 0.055652 -1.056025 0.483510 -0.093673 -0.227119 -0.178801 -0.192460 0.836627 0.233887 -0.016833 0.077937
2911 0.804418 -0.253369 0.903085 0.306295 -0.362061 0.424236 -0.324114 0.067393 -0.121322 -0.239647 -0.099037 1.019528 -0.553508 -0.253545 0.556728 0.455030 -0.517348 -0.783481 -0.417434 0.251587 -0.955304 -0.239873 -0.174953 -0.131275 0.414397 0.102771 0.544766 -0.066767 0.315087 -0.079605 -1.275037 -0.953373 -0.111825 -0.070353 -0.687094 -0.753849 -0.311774 0.511392 -0.540398 0.115642 -0.223758 -0.629473 -0.546692 -0.156190 0.011420 -0.514885 0.851469 -0.157083 -0.751990 -0.697933 -0.160180 -0.096705 -0.698089 -0.150315 -0.506159 -0.020735 -0.709056 0.491289 -0.311923 -0.301640 0.981074 -1.100465 0.661493 0.099352
1130 -0.303036 -0.557109 -0.208939 0.638002 0.602279 -0.067742 -0.613918 -0.312200 -0.288785 0.720192 -0.016269 0.923636 -0.025349 -0.608636 0.163633 0.397311 0.864907 -0.455480 0.018357 -0.261483 0.349948 -0.041756 -0.950088 0.414428 -0.218763 -0.714470 -0.036741 -0.052249 0.148257 0.017073 -0.068622 -0.587674 0.185835 0.255575 -0.255410 0.023412 -0.475502 -0.476007 -0.909570 0.113446 0.022681 -0.194542 0.185351 -0.070590 -0.242424 0.379739 0.427304 -0.650579 0.110652 -0.149984 -0.207641 -0.261470 -0.148016 0.667787 -0.897621 0.245197 0.188611 -0.362389 -0.056879 0.223375 0.112002 0.230171 0.194502 0.565933
2316 0.317375 -0.438469 -0.032795 0.200078 -0.327099 0.564377 -0.373612 -0.294763 0.263264 -0.252925 -0.414117 0.468486 0.804595 0.477598 -0.416425 0.755370 -0.394953 0.863654 -0.012951 -0.152854 -0.596284 0.124283 -0.607887 -0.403434 -0.722564 -0.109879 0.472966 0.126647 0.319457 -0.158914 -0.334944 -0.037128 0.696025 0.186604 -0.107891 0.026157 0.052388 0.268538 0.168303 0.515989 -0.063527 -0.102915 -0.158140 -0.221237 0.373045 -0.780571 0.657907 -0.644208 -0.688478 0.018991 -0.123542 -0.536617 -0.868599 0.595381 -0.356167 0.205961 -0.109188 0.763710 -1.220113 0.287653 1.276598 -1.027541 0.442124 0.037528
2519 0.190564 0.267334 -0.393799 0.072282 0.312302 -0.231665 -0.567579 -0.059026 -1.148046 -0.407287 0.120782 0.384509 -0.195829 -0.457850 0.141657 0.869298 0.733983 0.509669 -0.507165 -0.015211 -0.177767 0.752866 0.466334 1.015282 -0.131547 -0.181728 -0.370228 0.256097 0.646403 0.987053 0.596808 0.188722 -0.178103 -0.192983 -0.483660 0.147399 -0.475235 0.012486 -0.270829 0.804589 0.126343 0.429729 0.003276 -0.203725 -0.787451 -0.296384 0.431671 -0.625106 -0.926573 -0.246675 0.528251 0.162100 -0.548033 0.072942 -0.168541 -0.161937 -0.206369 0.301227 0.687329 0.179037 0.282739 0.041189 0.040351 0.072369
965 0.054102 -0.441907 0.468107 0.369481 0.797613 -0.280911 -0.478317 -0.072809 0.035279 0.211559 -0.170419 0.115536 -0.226659 0.275276 -0.847779 -0.107046 0.041928 0.563917 -0.262376 -0.754931 0.229663 0.011893 0.659368 0.484839 0.232629 -0.077408 0.249856 -0.437652 0.254800 -0.412625 0.566979 0.472555 -0.242894 -0.077490 -0.802316 0.070413 -0.799573 -0.023700 -0.831335 0.441444 -0.180756 -0.145450 0.414517 -0.250945 -0.115443 0.052391 -0.329700 -0.064463 -0.370645 -0.073352 0.301299 0.194978 -0.050011 -0.454406 -0.467082 0.048922 0.187632 0.067897 -0.100381 -0.075047 0.280299 0.146878 -0.077966 0.075590
1605 0.256057 -0.080191 0.632607 0.834360 0.361077 -0.653990 -0.564341 0.263710 0.060905 0.407596 0.498033 0.026275 -0.162232 0.315795 0.036138 -0.026694 0.147694 0.898200 -0.469874 -0.308112 0.039795 -0.629018 0.621667 0.764263 0.612683 0.488205 0.393382 -0.046321 0.757390 0.391632 0.329865 0.306263 0.073905 0.229569 -0.193866 -0.206493 -0.813576 -0.349781 -0.808516 0.243568 -0.453869 -0.391801 0.125068 0.026475 0.166208 -0.415580 -0.160701 -0.120912 -0.743617 -0.015701 0.372415 -0.329150 0.271556 0.026123 -0.973820 0.113478 0.083274 -0.017850 -0.192501 -0.416026 0.479588 -0.032774 0.011319 -0.057699
2626 0.307093 -0.127464 0.827996 0.264096 0.594155 -0.461684 0.141230 -0.618814 -0.158452 0.416081 -0.132690 -0.139562 -0.084804 0.083578 -0.843602 0.591553 0.346646 0.900297 -0.727379 -0.230757 0.628600 -0.257327 0.102474 0.713070 0.307960 0.198885 0.114337 -0.987041 0.291551 -0.665491 0.394997 0.092159 -0.141549 0.394015 -0.809042 -0.034547 0.218278 0.963237 -0.406197 -0.255971 0.725191 -0.279910 -0.029982 0.380482 0.016445 -0.582937 0.206251 -0.926109 -0.219355 -1.099496 0.584610 -0.258547 -0.033203 -0.195672 -0.228662 -1.230839 -0.658531 -0.491713 0.147910 -0.687101 0.407620 -0.173902 -0.546099 -0.277651
2861 0.187440 -0.598056 0.489028 0.154613 -0.033164 -0.618698 0.002300 -0.308395 0.188766 -0.187432 -0.260691 0.107995 -0.057920 0.737933 -0.676663 0.457307 -0.507363 -0.251492 0.233312 0.052799 0.815970 0.741232 0.292268 0.442680 -0.088883 0.090484 -0.443420 -0.060298 0.338899 0.650823 -0.022768 0.222454 0.065927 0.815373 -1.356524 0.430070 -0.077604 -1.087965 -0.728025 0.108282 -0.129329 0.113447 -0.431513 -0.114890 -0.103979 -0.502956 0.518732 -0.468168 0.066961 -0.450237 -0.335160 0.205269 0.107107 0.370276 0.483707 -0.388063 -0.556697 0.185748 0.701775 0.005964 -0.050646 -0.465247 0.174405 0.381823
616 0.139178 -0.275247 0.585209 0.579910 0.101790 -0.690560 -0.413848 -0.081479 0.106942 0.521784 0.539685 0.138746 -0.253476 0.423451 -0.142585 -0.089647 0.386747 0.688881 -0.311897 -0.389696 0.280186 -0.443509 0.477162 0.737325 0.697526 0.333961 0.358503 -0.273528 0.695016 0.036012 0.217414 0.152405 0.127253 0.042601 -0.050205 0.152982 -0.709292 -0.234477 -0.978891 0.225233 -0.264978 -0.466242 -0.065219 -0.444312 -0.120795 -0.416053 0.028415 0.055383 -0.673066 -0.335043 0.516162 -0.151206 0.233715 0.075065 -0.767517 0.340969 0.194114 -0.116686 -0.129779 -0.284435 0.558299 0.061322 0.016385 -0.084711
16 -0.054527 -0.330054 0.676877 0.688966 0.055077 -0.551827 -0.526379 0.192628 0.171772 0.318030 0.464942 0.131257 -0.030313 0.480302 -0.252714 -0.027811 0.271795 0.814655 -0.502948 -0.366291 0.008233 -0.397131 0.642080 0.751945 0.548463 0.295387 0.262820 -0.119057 0.590852 0.088579 0.281097 0.094760 0.063262 0.256812 -0.059246 -0.091641 -0.732686 -0.417935 -0.843631 0.507713 -0.278869 -0.614051 0.085036 -0.342141 0.109159 -0.557023 -0.078263 -0.032413 -0.711697 0.012192 0.490974 -0.297904 0.073543 -0.103605 -0.962690 0.295901 0.134170 -0.023985 -0.033812 -0.253155 0.586706 0.103490 -0.086112 -0.178985
1587 -0.280762 -0.628633 0.398597 0.474647 0.357008 -0.464097 -0.495877 -0.461645 -0.401000 0.055623 -0.453035 -0.175654 -0.398093 -0.366767 0.177356 0.161557 0.582260 -0.160685 -0.082986 -0.583221 0.457826 0.039469 -0.946674 0.489351 -0.595715 -0.426236 0.019144 0.129429 0.325048 0.317823 0.269131 -0.406864 -0.205455 0.205305 -0.625151 -0.000394 0.061341 -0.560155 -0.251517 0.167002 0.129183 -0.219893 -0.002582 0.386746 -0.154558 0.146206 -0.065755 -0.846784 0.300349 -0.421405 -0.476736 -0.428097 -0.538682 0.300892 -1.285409 0.399230 -0.083512 -0.885252 -0.374995 -0.188216 -0.313363 -0.095968 0.034319 0.201680
2458 -0.135657 -0.453796 0.439580 0.517647 1.196623 0.367482 0.766740 -0.377723 -0.573547 -0.093049 0.900987 0.389317 0.253159 -0.415639 -0.081744 0.901318 0.754265 -0.056915 -0.274963 0.130008 -0.398012 0.384843 0.604136 0.247587 -1.134143 1.337149 0.320926 -1.123394 -0.914104 -0.866733 0.714350 -0.329402 0.484457 -0.145690 -0.711112 -0.417137 0.283795 0.196182 -0.929789 -0.142733 -0.299864 -0.679024 0.395340 0.889022 0.283301 -0.909026 0.314148 -0.420687 0.008253 -0.073783 -1.852841 -0.550095 -1.346337 0.142712 -0.306609 0.450678 0.831102 0.669555 0.311141 -0.073311 0.935253 0.451630 0.974136 0.594050
567 0.944661 0.495419 1.051463 0.451076 0.920993 0.024363 -0.252567 -0.629533 -0.153913 0.676738 0.283051 -0.285247 -0.458317 -0.140276 -0.297908 0.716321 0.245291 0.323684 0.302716 0.270161 -0.947696 0.061745 0.867238 0.152435 -0.676245 -0.000205 0.282213 0.184026 -0.558113 -0.223710 -0.306068 0.129114 0.752368 0.371278 -0.332554 0.217171 0.166701 -0.543590 -0.818515 0.183615 -0.025468 0.294616 0.887245 -1.455022 -0.511754 0.519804 0.792024 0.220645 -0.220746 0.037177 -0.559438 0.006137 -0.778779 -0.075553 -0.427300 0.219483 -0.333535 0.247474 0.546849 -0.738856 0.518344 0.109383 -0.256628 -0.843105
2361 -0.029883 -0.760299 0.193872 -0.018985 0.759442 -0.166749 -0.369188 -0.306872 0.168179 0.466034 0.332746 -0.028699 -0.467725 -0.514120 -0.497734 1.202900 0.293139 0.420672 -0.308578 0.226676 0.091302 0.720566 -0.342232 1.177250 0.526407 -0.203130 0.513277 0.248530 0.518433 0.104096 -0.354164 0.902882 -0.323836 0.521796 -0.532831 -0.950887 0.268889 -0.408064 -0.432576 -0.472401 0.063702 -0.732618 -1.170034 -0.319447 0.106102 0.032204 -0.025393 -0.257295 -0.704546 0.473295 0.056133 0.065241 0.585599 0.419728 -0.635153 -0.226614 0.199517 0.299660 0.130030 -0.336805 -0.347599 -0.170468 -0.461974 0.070275
101 0.020923 -0.323884 0.569066 0.292988 -0.057470 0.373334 -0.338927 -0.812241 -0.689220 0.973059 -0.037425 0.407087 0.287401 0.664001 -0.436459 0.767657 0.673118 0.407674 -0.712346 -0.134450 0.289652 0.645903 -0.242799 -0.454014 -0.989039 0.734174 0.078209 0.917977 0.003088 -0.845547 -0.329028 0.176616 0.050513 0.168488 -0.678896 0.004690 0.859439 0.089908 0.174746 0.280612 -0.959166 -1.419154 0.082558 -0.092867 -1.324723 -0.580346 1.354401 -0.984671 0.623146 -0.868720 0.358899 -0.394625 -0.266077 0.652220 -0.046550 0.712929 0.306038 -0.523569 -0.670191 -0.409299 0.619120 1.021024 0.033668 -0.152320
2828 0.851399 0.031637 -0.013650 0.595259 -0.083029 0.545806 -0.133511 0.301732 -0.331548 0.268107 0.277358 0.036941 -0.261419 0.237212 -0.155653 0.603820 -0.382718 0.360815 -0.576018 -0.875920 0.466060 1.003576 0.702225 0.718474 -0.103750 0.027375 0.910462 -0.570117 1.106212 -0.541643 -0.108794 0.374598 0.184213 0.793305 -0.036246 0.387132 0.669105 -0.109717 -0.655592 -0.044473 -0.267311 -0.893821 -0.367210 -0.273507 0.250529 -0.546727 0.020104 -0.400891 -0.060859 0.042825 0.171492 -0.490823 -0.450120 -0.010575 -0.123874 0.374194 0.593474 0.412603 0.366684 -0.181177 -0.476879 0.058252 0.262077 -0.253476
661 0.200430 -0.643642 0.377925 -0.383465 0.653312 -0.413903 -0.120553 -0.538984 -0.177703 0.612746 -0.102577 -0.239156 -0.400926 -0.216845 0.068285 0.174345 0.244661 0.144842 -0.816093 0.544269 0.279638 0.384947 -0.351386 0.396869 -0.289483 0.691644 -0.246250 -0.718252 0.057598 -0.772556 0.743977 -0.184213 -0.166301 0.740551 -0.584739 -0.064504 -0.182649 0.670332 -0.918299 -0.192147 0.893595 -0.217357 -0.141897 -0.474126 -0.075492 -0.173665 -0.000967 -1.403111 -0.143641 -0.825496 0.184482 -0.323364 -0.726272 -0.479304 -0.849456 -0.428246 -0.104615 -0.821736 -0.204751 0.063737 0.111576 -0.316927 -0.447874 -0.722505
1410 0.423126 -0.644323 0.365470 0.264154 0.358799 0.703534 0.298044 -0.231178 -0.750812 -0.209825 -0.679918 0.376271 0.538629 -0.168285 0.207416 0.337445 -0.198833 -0.010310 0.172610 -0.239820 0.768351 -0.562650 -0.921264 0.219624 -0.242779 0.592786 0.699425 -0.053147 0.316671 -0.528267 -0.067153 -0.197655 0.464718 0.797869 0.110933 0.425463 -0.577320 -0.630982 -0.232820 0.469857 0.859591 -0.462787 -0.458975 0.727313 -0.340164 -0.723980 0.186492 -0.064149 -0.803553 -0.062540 -0.415815 -0.220677 -0.379372 -0.431164 -0.841459 -0.455229 0.598589 0.300777 0.142493 0.478711 0.041999 0.317564 1.426370 0.104019
2189 -0.185494 0.081125 -0.020137 -0.234389 -0.119877 0.333454 -0.203310 -0.701007 -0.839343 0.117794 0.721084 0.925972 0.274086 0.352497 0.375174 0.222256 0.222902 -0.491238 0.002670 -0.057066 -0.142971 0.250893 -0.308800 -0.079715 -0.113800 0.439968 0.894604 0.009780 0.105321 -0.352322 -0.402708 0.541129 -0.738558 0.644728 0.124971 0.213135 0.346851 0.429334 -0.733322 0.664955 -0.932106 -0.012273 -0.034893 -0.318582 0.160867 0.190186 0.488980 -0.240869 -0.210709 0.043446 -0.459326 0.177480 -0.667161 0.086418 -0.724490 -0.090171 -0.307410 0.717028 0.324588 -0.169916 0.614392 -1.161871 0.774180 0.039640
1112 0.350282 -0.165671 0.422713 0.382208 0.306713 -0.359792 0.105085 0.047023 -0.202976 0.257347 -0.223085 0.252545 -0.056773 0.092996 -0.845089 0.095500 0.577603 0.664285 -0.893668 -0.408415 0.505975 0.172425 0.296964 0.469669 0.026182 -0.084705 0.391262 -0.645065 -0.119852 -0.535981 0.884641 0.344342 -0.265263 0.279584 -0.852651 -0.179765 -0.496159 0.491229 -0.612967 -0.015851 -0.270060 -0.017228 -0.032281 0.042163 -0.168276 0.102418 0.077574 -0.550749 -0.304980 -0.767426 0.555660 0.290213 0.027759 -0.394497 -0.325027 -0.447773 -0.496455 -0.337422 0.058459 0.127376 0.214458 -0.059533 -0.323175 -0.440829
670 0.158326 -0.755096 0.918106 0.137666 0.964376 0.889333 -0.089631 -1.016778 -0.609690 -0.874216 -0.065053 0.456035 -0.161769 0.632654 0.078750 0.234858 -0.392475 -0.216016 0.516778 0.779000 -0.660917 -0.538402 -0.075372 0.380847 -0.213538 0.033417 -0.039368 -0.756853 0.582666 0.068781 -0.119514 0.155630 -0.587620 -0.873482 -0.108109 -0.195931 -0.592972 0.285219 -0.005277 -0.315878 -0.231722 -0.441340 -0.039357 0.206524 0.282640 0.935553 0.442137 -0.178558 -0.937468 -1.497430 0.059525 0.202272 -0.640864 0.247996 -0.624478 -1.178836 -0.623999 0.647838 -0.395381 0.092396 0.803687 -0.644928 0.272178 0.323438
1251 -0.032988 -0.258614 -0.010630 0.280212 -0.048151 0.598844 -0.280724 -0.471855 0.129371 0.334024 0.049357 -0.068473 -0.287800 -0.329953 0.185860 0.886556 0.206046 0.179315 -1.253211 0.167543 0.287034 0.221336 0.191213 -0.030928 -0.057675 0.003138 0.407561 -0.090633 0.503967 0.191317 0.903307 0.175997 0.295195 -0.468426 -0.170134 0.152615 -0.121544 -0.545795 -0.817911 0.211615 0.261387 0.007548 -0.124329 0.315107 -0.440594 0.183972 -0.296783 -0.010247 0.298670 -0.337742 0.564210 0.173781 -0.206705 0.110430 -0.034362 -0.140909 0.077470 0.705463 -0.184072 -0.279227 0.493762 0.008853 0.279821 -0.032035
303 0.705471 -0.032843 0.172812 0.875808 0.118240 0.192914 0.131272 -0.133606 0.184408 0.331056 0.529638 0.282098 -0.413531 0.003840 0.199310 -0.151869 0.272733 0.648717 0.281578 -0.483383 0.582257 -0.224568 -0.780575 1.199662 -0.089236 -0.248437 0.706504 -0.449725 0.849799 0.156525 -0.020642 0.507803 0.590030 0.655341 -0.606606 -0.240567 -0.328217 -0.318673 -0.305299 0.436667 0.023670 -0.407298 -0.977306 -0.118880 -0.571750 -0.354569 0.346545 0.761022 -0.523307 -0.487670 0.530477 -0.124560 -0.283265 0.304304 0.140261 0.009474 0.756132 0.416178 -0.028771 -0.384387 0.198890 0.050607 0.208200 -0.596304
2196 0.349636 -0.184173 -0.309099 0.141098 0.291546 -0.427128 -0.805949 -0.068629 -0.801331 -0.248638 0.135146 0.135849 -0.443323 -1.062204 -0.065823 0.360658 0.460811 0.311688 -0.204859 -0.024076 0.033907 0.853814 0.474112 0.669905 -0.206109 -0.107682 0.224229 0.178214 0.770894 0.329214 0.810305 0.216688 -0.059931 -0.061706 -0.128649 -0.237113 -0.033632 0.147238 -0.070697 0.982767 0.109634 0.527065 0.080642 0.059112 -0.350951 -0.774824 0.203059 -0.765418 -0.840824 -0.199010 -0.026709 0.244730 -0.473213 -0.086055 -0.221525 -0.504064 -0.391100 0.576684 -0.240122 -0.116682 0.316074 0.309481 -0.152029 0.277740
1822 0.240076 -0.783301 1.002351 0.975969 0.710482 0.117377 0.120396 0.108179 -0.565946 -0.669953 1.111948 -0.386202 0.737653 -1.419626 -0.876054 0.344481 -0.128666 -0.412305 0.181140 -0.099984 -0.077992 -0.122340 0.209166 0.142576 -0.309984 0.158790 -0.488061 0.253614 -0.153055 0.111759 0.439650 -0.552274 0.050785 -0.068481 0.051646 0.093594 0.008271 -0.415967 -0.860176 0.724129 0.829964 -1.123366 0.624271 -0.325278 0.325141 0.118977 1.256626 -0.349923 -0.303715 -0.364438 0.346075 -0.596162 -0.036845 0.219061 -0.595669 -0.075457 0.045367 0.254479 -0.566589 -0.165948 -0.463775 0.257395 0.138918 -0.146428
314 0.105093 -0.220262 0.739896 0.662853 0.347529 -0.642850 -0.575398 0.247652 0.109157 0.494491 0.590619 0.001642 -0.123952 0.317521 0.033778 -0.085137 0.313461 0.909383 -0.296649 -0.524329 0.139969 -0.343369 0.726573 0.774668 0.673534 0.231943 0.360984 -0.098588 0.607923 0.008718 0.007188 0.081770 0.221873 0.169087 0.027357 -0.281188 -0.524062 -0.272787 -1.052049 0.320312 -0.366702 -0.411111 0.095490 0.066930 0.087784 -0.429764 -0.129117 -0.050889 -0.560880 -0.116442 0.404450 -0.345836 0.262724 0.015074 -0.983131 0.324061 0.073119 0.256748 -0.110431 -0.285133 0.615005 -0.043699 0.020520 -0.129616
540 0.907472 -0.419585 1.093868 0.294807 -0.365921 0.544937 -0.452359 0.119009 0.105830 -0.164090 -0.576527 0.915375 0.563824 -0.507610 0.479491 0.867787 -0.827675 -0.031605 -0.623141 0.043838 -0.597426 -0.583481 -0.276395 0.031998 0.137600 0.506119 0.649040 -0.045757 0.103662 0.548375 -0.957975 -0.677209 0.132773 -0.297871 -0.927493 -0.356334 -0.745809 0.409153 0.017886 0.450347 0.117636 -0.650012 -0.721298 0.272811 1.190532 -0.090020 0.929059 0.099704 -0.664539 -0.760654 -0.087754 -0.627101 -0.722004 0.568581 -0.175858 0.426687 -0.919045 0.528949 -0.316088 -0.232762 0.575258 -1.165057 0.379573 -0.122152
28 0.136790 -0.545504 -0.003358 -0.325558 -0.181649 -0.519480 -0.348300 -0.098874 0.007004 -0.703343 0.054915 0.250636 0.087202 0.508172 -0.006585 0.655987 0.748318 0.302122 -0.025346 -0.223990 -0.465287 0.117263 -0.101582 -0.266580 -0.889661 -0.161580 0.928041 0.319903 -0.201674 0.060723 0.564278 -0.559460 0.498201 0.865963 0.211165 0.314657 0.120531 0.276360 -0.078807 0.505130 0.552472 -0.511238 -0.173339 -0.209936 -0.127082 -1.015321 0.825390 -0.453442 -0.314221 0.184415 -0.364070 -0.339448 -0.366009 0.618324 0.097336 0.003747 -0.429268 0.641399 -1.167320 0.077418 1.385831 -1.049579 0.684178 -0.130333
2633 -0.051048 -0.366394 -0.182686 0.044956 0.174787 -0.419798 -0.496524 -0.284304 -0.470904 0.100181 0.040328 0.487601 -0.501681 -0.408953 0.284942 0.554260 0.358537 0.976860 0.202885 -0.168184 -0.263713 0.803973 0.304766 0.779628 -0.075708 -0.057363 0.780083 -0.323711 0.319637 0.879000 0.409181 0.178903 -0.139183 0.095052 -0.151816 0.116277 -0.410331 -0.725826 -0.238398 0.697534 -0.066650 0.070372 -0.105542 0.129709 -0.130272 -0.114730 -0.300308 -0.848484 -0.418722 -0.581787 0.304865 -0.253918 -0.277094 0.546187 -0.546565 0.354953 -0.359414 -0.279046 0.711591 -0.157038 0.137589 0.133331 -0.205993 -0.201426
2264 0.682677 -0.309075 0.223890 0.053313 0.482789 -0.522546 0.224639 -0.793229 -0.035820 0.600031 -0.321389 -0.236986 -0.234413 -0.132398 -0.379752 0.429763 0.366775 0.433486 -0.115929 -0.093035 0.223884 0.002517 -0.413228 0.779434 -0.092261 0.716840 -0.314450 -0.986727 0.259088 -1.184106 0.754584 -0.343394 0.097351 0.675598 -0.819760 0.143048 0.364632 0.466242 -0.473717 -0.147780 0.971450 0.167598 -0.263292 0.134369 -0.025878 -0.701522 0.120561 -0.845252 0.003777 -0.804413 0.368902 -0.370248 -0.437387 -0.027800 -0.811318 -0.951561 -0.294943 -0.790589 -0.186389 -0.849298 0.187074 -0.276147 -0.227512 -0.022659
2427 0.245003 -0.416505 0.406813 0.937946 0.357510 -0.560318 -0.679629 -0.639529 -0.237191 0.008823 -0.377234 0.341010 -0.025846 -0.290215 0.102263 0.734753 0.663462 -0.773326 -0.756156 -0.606026 0.094146 -0.133127 -0.509726 0.505913 -0.214590 -0.197239 0.618157 0.200376 -0.094242 0.322908 0.428895 -0.048681 -0.379173 0.144431 -0.664286 -0.076079 -0.083663 -0.191092 -0.858853 -0.488745 0.079488 -0.483037 0.271412 0.356319 -0.056447 0.741966 -0.166840 -0.564643 0.877378 0.233264 -0.272043 -0.115901 -0.204414 0.338621 -1.086309 0.149729 0.094959 -0.562696 -0.515444 -0.106101 -0.393714 -0.260659 -0.034512 0.351595
1992 0.271618 -0.438544 0.649402 0.750985 -0.024194 0.875154 0.401842 -0.163298 -0.391008 -0.199127 0.555403 -0.392582 -0.345101 -0.881572 -0.436326 0.947737 -0.437141 -0.061109 -0.746988 0.197409 -0.019233 -0.523539 -0.464421 -0.650543 0.474160 0.600627 0.765250 0.484397 -0.009133 0.283908 -0.264409 -0.137054 0.187189 0.762816 -0.642637 0.294114 -0.882729 -0.909940 0.030793 0.854081 0.661218 -0.257383 -0.832582 -0.153632 0.379558 -0.326673 0.458696 -0.525374 0.502576 -0.413626 -0.113231 -0.348590 0.110437 0.240389 0.016304 0.752128 -0.448857 0.160149 -0.699125 0.196718 -0.156731 0.066817 1.197894 0.111914
819 -0.079858 -0.278634 0.600696 0.111717 -0.281165 0.318450 -0.205074 -0.405685 0.125551 -0.356062 -0.074785 1.037267 0.022766 0.325036 -0.449922 0.501419 -0.524405 -0.051144 0.468814 -0.592785 -0.156332 0.077710 -0.617510 -0.242779 -0.406887 -0.414520 0.328661 0.132679 0.372974 -0.819671 -0.851932 -0.052496 0.067146 -0.259308 0.168695 0.035089 -0.599538 0.042353 -0.298757 0.280389 0.593740 -0.735125 -0.669256 0.210969 -0.334041 -0.467395 0.088636 -0.661362 -0.442080 -0.417968 -0.378920 0.022489 -0.442611 0.015266 -0.552673 0.000193 -0.413680 1.192328 -1.019167 -0.066837 0.826192 -0.757833 0.494104 -0.273034
2867 0.990675 -1.601103 2.354409 0.465699 0.312740 0.980974 -0.390464 -1.707828 0.724961 -0.091532 0.623067 -0.789590 -0.065334 0.597736 0.357413 0.921342 0.763025 0.500144 0.131851 -0.299461 -0.297099 0.879603 -0.715899 0.018787 1.058804 -0.350874 -0.427394 0.709613 -0.486998 0.018693 0.319862 -0.015509 -1.192206 0.698127 -0.360412 0.393544 -0.003284 -0.335889 -0.405027 0.441401 -0.698192 -1.832605 0.221528 -0.907434 0.121178 0.003788 -0.652805 0.960964 0.032989 -0.351731 -0.276769 -0.762024 -0.795300 0.280186 0.741977 1.569056 -1.210500 0.912125 -1.825020 0.674885 0.004141 -0.596063 0.296679 1.202069
1202 0.485392 0.050528 -0.087897 -0.495908 -0.038194 -0.049525 -0.249409 0.263298 -0.356322 -0.316117 0.262739 0.948817 -0.600149 -0.510593 -0.046552 0.608544 0.184523 0.695115 0.417080 -0.528221 -0.020452 0.551855 0.103953 1.275509 -0.567310 0.335902 0.251229 0.056098 -0.064651 0.690642 0.262942 -0.072248 0.340826 0.308225 0.040419 0.198227 -0.735057 -0.719309 -0.459807 0.648185 -0.925230 0.152511 0.167999 0.023971 -0.028004 -0.316323 -0.824556 -1.444108 -0.371568 -0.446919 -0.330269 -0.356398 -0.614742 0.385645 0.016107 0.263181 0.325479 -0.181628 -0.014158 -0.278302 0.572575 0.137739 -0.098056 -0.980824
2596 0.040885 0.329418 0.888360 0.282505 0.044449 -0.675428 -0.518304 0.214779 0.027426 0.331944 0.476603 -0.071295 -0.701512 -0.251515 0.287256 0.211781 0.361008 0.694470 0.099085 -0.199379 -0.130277 0.104256 0.922355 0.668585 0.486676 -0.048069 0.552576 0.315122 0.772561 0.170183 0.094437 0.010333 0.069288 0.364246 -0.161474 -0.240507 -0.396130 -0.034882 -1.061413 0.515362 -0.193695 -0.236592 0.225032 0.310578 0.434642 -0.379540 -0.315498 -0.348902 -0.444190 0.077056 0.104689 -0.167537 0.225589 -0.082498 -0.760304 0.228079 -0.069924 0.295150 -0.290936 -0.344748 0.387455 0.206869 0.049995 0.377361
2447 -0.022742 -0.315049 0.805255 -0.994939 0.471272 0.232588 -0.188921 0.328728 -0.503969 -0.341434 0.283046 0.304201 -0.018375 0.259259 -0.309478 0.170696 -0.145756 -0.583270 -0.571520 -0.694261 0.057970 0.000131 -0.306912 -0.429403 0.034897 0.049720 -0.763101 0.240849 0.804299 -0.352792 -1.059430 0.549694 0.638242 0.153385 0.012152 0.764750 -0.712208 0.391303 -0.570311 0.641226 -0.334491 -0.047622 -0.786342 -0.273799 0.059863 0.120565 0.325983 -0.285127 0.210163 -0.530871 -0.207328 0.217975 -0.493966 0.620405 -0.121364 0.282355 -0.710053 0.838408 0.451208 -0.600551 0.813534 -0.922421 0.337641 -0.623177
2063 0.373899 -0.057144 0.536561 0.657875 -0.122636 0.147637 -0.915582 -0.593519 -0.004493 0.267354 0.017080 0.360107 -0.603951 0.270304 -0.254186 0.150354 0.274671 -0.758431 -0.039819 0.481514 0.197124 0.360819 -0.492549 0.074111 0.319902 -0.225398 -0.023694 -0.045896 0.371935 -0.001001 0.508374 0.627845 0.624197 0.857497 -0.454684 0.397270 -0.842236 0.329371 -0.064924 1.392208 -0.444462 0.274836 0.170714 -0.209349 1.049058 -0.128119 0.389135 -0.308163 0.316069 0.212998 -0.791787 -0.112833 -0.054382 0.204760 0.163138 -0.244415 -0.696685 0.621501 -0.024423 -0.495693 0.777657 0.671461 -0.386321 0.047214
3274 0.276038 -0.916682 0.213864 0.049774 0.425407 0.874866 -0.158607 0.329634 -0.585862 0.241273 0.470957 0.681563 -0.420731 0.846556 -0.029775 0.323242 -0.003511 0.419709 -0.624229 0.005276 -0.000926 -0.162810 -0.060568 0.549970 1.025393 0.006548 0.422102 0.696535 -0.934255 0.101217 -0.702320 0.082994 0.369536 0.022096 0.212551 1.017902 1.192870 -0.700422 -1.410522 0.235766 0.099344 0.789567 0.722714 0.176134 -0.154886 0.565206 0.367099 -0.324647 -0.362108 -0.397846 0.441124 -0.063185 -1.160991 -0.008031 -0.164710 0.073816 -0.427997 0.022238 -0.464143 -0.753868 0.466005 -0.199509 0.715567 0.089454
1366 -0.053019 -0.871452 -0.844801 0.654062 0.653476 -0.300737 -0.674287 0.605037 -0.049312 0.317444 0.463823 0.818338 0.463169 0.059195 -0.371616 0.443594 0.364124 -0.713097 0.197334 0.619999 0.966861 0.241129 -0.156981 0.657216 -0.754306 -0.083478 -0.275256 0.041921 0.318603 -0.728677 0.544112 0.116827 -0.862150 0.443294 0.264647 0.609614 -0.892291 -0.662376 -0.849598 0.237504 -0.447032 -0.810430 -0.232802 -0.372239 0.481694 -0.307309 0.650932 0.175807 0.414906 -0.431072 0.145914 -0.573016 0.026019 -0.346695 -0.904161 -0.248763 -0.414620 0.750712 0.158545 -0.539206 0.094264 -0.401872 0.195883 -0.175784
254 0.399269 -0.534913 1.280071 -0.265456 -0.006134 0.270694 0.639989 -0.210674 -0.313858 -0.955561 1.253141 -0.079032 0.318459 -1.013804 -0.796671 1.060370 -0.412079 0.261549 -0.316529 0.128678 -0.261979 -1.022618 0.006484 0.205990 0.621590 -0.225685 0.250988 -0.025252 -0.332322 0.123636 0.629775 0.522107 0.270347 0.699928 -0.061871 -0.475028 -0.772582 -0.283697 -0.410918 0.940225 0.158210 -0.717654 0.506340 -0.478126 0.031784 -0.486406 0.911696 0.048650 0.497647 -0.814939 0.383533 0.181368 -0.425647 0.803223 -0.394885 0.079116 0.568174 0.705768 -0.486426 0.231445 -0.570395 -0.316892 0.388968 0.803291
2416 -0.124323 -0.174507 0.841501 0.429106 0.442424 -0.745899 -0.391857 0.217100 -0.042044 0.481710 0.566266 0.274763 0.011384 0.369852 0.082851 -0.113180 -0.038483 0.976498 -0.115880 -0.167611 0.029200 -0.297240 0.712977 1.115511 0.170377 0.338124 0.589333 -0.179910 0.693414 0.764251 0.291794 0.447037 -0.018587 0.339081 0.156155 -0.217387 -0.502309 -0.169727 -0.789317 0.477171 -0.367607 -0.636366 0.171401 -0.178876 0.445465 -0.261454 0.194495 -0.231535 -0.670595 0.437394 0.423031 -0.699961 0.280989 0.186134 -0.857591 0.444985 0.101973 -0.195290 -0.114638 -0.366186 0.545462 0.144328 0.005270 -0.222706
709 0.638250 -0.042425 0.653307 -0.067816 0.141045 -0.341931 -0.272171 -0.224099 0.440024 -0.129432 -0.702874 -0.577859 0.515702 0.775237 -0.616792 0.083160 -0.446895 -0.803152 0.371107 0.081263 0.911757 0.602712 -0.026242 0.535723 -0.407609 0.221234 -0.345926 0.390654 0.030132 0.308123 -0.381671 0.767358 0.146494 0.343493 -0.802872 0.142602 -0.129971 -1.195378 -1.238067 0.034037 -0.333342 -0.305571 0.271643 0.599035 0.024697 -0.464357 0.177900 -0.618016 -0.517307 -0.711239 0.291535 0.161089 -0.553795 0.616402 0.154359 -0.853189 -0.525040 0.129008 0.039214 0.068973 -0.262410 -0.230991 1.029323 -0.213775
1981 0.365922 -1.101600 0.720139 -0.774576 -0.049593 -0.082449 -1.313370 0.587800 -0.938000 -0.997506 0.005227 0.257072 -0.861171 0.694815 -0.817316 0.357593 -0.466506 -1.111051 -0.191198 -0.554630 0.165283 -0.717621 -0.505805 -0.042526 -0.349889 -0.388665 0.857953 -0.484738 0.224344 0.714231 0.066077 0.177047 0.095272 1.253208 -0.567806 0.809842 0.064749 -0.071208 -0.590469 -0.560082 -0.339043 -0.607281 -0.072241 0.332352 -0.371391 -0.555443 0.755956 0.296947 -0.191151 -0.179882 0.760688 -0.557015 0.773042 -0.767113 -0.381414 0.307478 -0.377019 0.882826 -0.606005 -0.754454 -0.656275 -0.169834 -0.217209 -0.743092
2080 0.095856 -0.672021 -0.780851 -0.928765 0.085609 -1.209356 -0.298890 -0.885410 -0.137531 -0.733856 1.180669 0.463880 0.433173 -0.556732 -0.364428 0.745490 0.594609 0.640918 -0.141241 -1.076576 -1.381857 -0.186415 0.686573 0.211861 -0.752851 0.629839 0.413452 -0.824208 0.098966 0.791644 0.364539 -1.570959 -0.231740 1.251242 -0.346460 1.222214 -0.711180 -0.461415 0.104791 0.646155 -0.452429 -1.076646 0.028455 0.011734 -0.159877 -0.873995 1.743855 -0.831517 -1.212906 -0.086141 0.206514 -0.859087 -0.740741 0.462319 0.702583 0.472941 -1.066662 -0.294660 -1.834159 0.219319 1.404563 -1.190603 0.905415 -0.150694
1944 0.549438 -0.899990 1.384543 -0.601691 -0.536977 0.377220 -0.945882 -0.416167 -0.404526 -0.431270 0.636497 -0.691228 -0.285346 -0.698848 0.007995 -0.021772 0.936806 -0.617557 0.082024 -0.958215 0.592210 -0.206749 0.129583 -0.704726 -0.577940 0.263139 0.438322 -0.365169 -0.373737 -0.588513 0.445016 0.417710 0.229158 0.557298 -0.691222 0.535456 -0.672857 0.073091 -0.639482 0.216607 -0.483357 -0.003390 -0.369950 0.428507 -1.145040 -0.187034 0.109556 1.436900 -0.578693 -0.331049 0.926914 -0.734112 -0.391909 0.013166 -0.378620 0.056205 0.213407 -0.389644 -0.701403 -0.455730 0.015061 -0.356995 -0.072882 -0.099442
3241 0.507268 -0.119581 1.330392 0.256089 0.296013 1.528352 -0.117426 -1.418099 -1.282379 1.653079 0.662254 -1.112199 0.463006 0.784906 -0.455320 1.475149 0.562680 -0.030346 1.204911 -1.313258 -0.632483 -0.191808 0.246153 0.591264 -0.844990 -0.135884 -1.876461 -0.011557 0.722399 -0.555595 0.320032 -0.568815 -0.362992 0.145079 0.667880 -0.176259 -0.458351 -0.077223 -1.289230 0.810638 -0.773217 -0.538758 -0.477787 0.884325 -1.507886 -0.193528 0.344393 -0.824679 0.237753 0.043458 0.287280 -0.028773 0.466805 -0.698220 -0.180229 -0.441149 0.287884 0.644437 -0.107360 -0.707258 0.285650 -0.569224 -0.546156 0.178052
1484 0.535668 0.015661 0.606947 0.568430 0.164699 0.703005 -0.837721 -1.133559 -0.309341 0.925684 0.103738 0.177991 -0.168313 0.582303 -0.343187 0.198745 -0.086031 -0.398902 -0.114238 0.453430 0.085249 -0.572548 -0.473583 -0.029457 0.099060 -0.627468 0.496380 0.456539 0.099881 0.397442 0.090956 0.761917 0.392513 1.067759 -1.148383 0.718338 -1.439439 0.373255 -0.317664 0.957035 -0.839865 0.234643 0.232551 -0.036315 1.013593 -0.173788 0.834133 -0.996896 0.315126 0.314017 -0.636519 -0.463978 0.721681 0.155189 0.409188 0.292537 -0.481770 0.774301 -0.084234 -0.732689 0.794906 0.929076 -0.750248 0.088031
2649 0.256999 -0.243892 -0.107865 0.138741 0.087279 -0.071511 -0.452507 -0.516517 -0.407243 -0.204900 -0.471029 0.039954 -0.374161 0.337029 -0.269258 -0.169620 0.853390 0.683709 -0.181875 -0.024722 0.251306 0.618908 0.095767 0.258816 0.290448 -0.081371 0.453009 -0.677681 0.889161 -0.236255 -0.286999 -0.128664 0.746650 -0.055161 -0.145566 0.380570 -0.056410 -0.097862 -0.651629 0.161289 1.022644 -0.991309 -0.210265 0.464367 -0.008771 -0.450761 0.256300 -0.257281 -0.227756 -0.479290 -0.006536 -0.385039 0.007781 -0.054841 0.259250 0.343518 0.102953 0.109556 -0.014789 -0.284126 0.273117 -0.792216 -0.772048 -0.075031
2166 -0.041314 -0.379273 0.563237 0.739989 0.267224 -0.743312 -0.725541 0.158627 0.018392 0.145726 0.449451 -0.012566 -0.396652 0.099702 -0.606633 0.081431 0.449174 0.869445 -0.256349 -0.576379 -0.225320 -0.246057 0.507936 0.672127 0.312240 0.343798 0.163382 -0.214110 0.727654 -0.247640 0.391746 0.188264 0.192211 -0.000256 -0.355460 0.087272 -0.598651 -0.249130 -0.942423 0.273033 -0.143273 -0.261259 0.330402 -0.173143 0.046814 -0.688084 -0.284938 0.134892 -0.688840 -0.146339 0.517724 0.055848 0.263744 -0.294612 -1.067190 0.232991 0.097994 0.102038 -0.131497 -0.315755 0.613292 0.141650 -0.216532 0.161805
482 0.317732 -0.519925 1.037930 0.396441 -0.627457 0.462707 -0.275200 -0.138646 0.087464 -0.597328 -0.032389 -0.529140 0.280339 -0.103230 -0.251274 0.799923 0.447902 -0.624910 -0.673484 0.454793 -0.283339 -0.192138 -0.726919 1.392454 0.345821 -0.510587 0.470877 -1.144364 -0.904885 0.366951 0.334812 0.273172 0.055753 0.868004 -0.116517 0.489363 -0.096825 0.213330 -0.971186 -0.349103 -0.072536 0.059465 0.046675 0.245879 0.404063 0.331728 1.149582 -0.828985 0.382676 1.276411 0.362221 0.197992 -0.709944 -0.178928 -0.804881 0.142779 -0.542811 0.223644 -0.423609 -0.312120 -0.096829 -0.033760 -0.537951 0.075675
2435 0.042080 0.112566 0.402131 0.234025 1.134026 -0.678958 -0.565480 -0.743186 -0.086008 0.470820 0.672914 -0.043738 0.027785 -0.574796 0.239008 0.451854 0.900957 -0.104198 -0.536021 -0.097576 -0.033680 0.603810 -0.529987 0.470599 0.267749 -0.072184 0.717503 -0.290146 1.355000 0.365809 -0.172324 0.474142 -0.595823 -0.077280 -0.215899 0.126811 0.025349 -0.081286 -0.886190 0.018397 -0.096970 -0.223147 -0.499988 0.052204 -0.656640 -0.165919 -0.328657 -0.172818 0.501027 -0.130132 -0.015534 0.175259 0.249965 0.271970 -0.458093 0.044717 -0.290986 -0.083083 -0.744312 -0.226992 0.363498 0.164518 -0.009988 0.152617
2404 0.496167 -0.381385 0.174098 -0.130181 0.068787 -0.438895 0.047057 -0.644256 -0.125564 0.423319 -0.244758 -0.238293 -0.556889 -0.209070 -0.415693 0.213099 0.617405 -0.027792 -0.335928 -0.132944 0.482645 -0.029253 -0.325182 0.726893 -0.534095 0.272623 0.167287 -0.553090 -0.011242 -1.292620 0.667013 0.065823 -0.386530 0.564915 -0.719462 -0.020906 0.405754 0.283667 -0.691477 -0.031077 0.642935 -0.101521 -0.006745 0.127964 0.108775 -0.514891 0.089982 -0.723215 -0.199017 -0.950094 0.299483 -0.216867 -0.401919 -0.010334 -0.768717 -0.542372 -0.545850 -1.131633 0.008044 -0.067065 0.248939 -0.251752 -0.596110 -0.629123
1143 -0.010254 -1.196381 0.426081 -0.616236 1.091627 0.193218 -0.464766 0.226367 -0.570725 0.074783 -0.109209 -0.389761 0.492180 -0.464787 -0.709479 -0.362401 -0.036056 -0.100116 -0.487207 0.727071 -0.498936 0.187900 -0.765939 0.093410 -0.082449 1.466511 0.331014 -0.492035 0.932766 0.454973 0.610142 0.670330 -0.115832 -0.070298 0.014801 1.214617 -0.381464 0.847251 -0.388065 -0.153871 0.560410 -0.502862 0.057355 -0.582206 0.105779 1.135205 0.928453 -0.483271 -0.447282 -0.672356 -0.089332 -0.229288 -0.681658 -0.012982 -0.634694 0.095437 -0.153569 -0.707108 -0.275472 0.268542 -0.379781 0.192833 0.116713 0.407610
1013 -0.039471 -0.303165 0.618665 0.494843 0.154335 -0.695748 -0.430732 -0.134649 0.216304 0.234246 0.407823 0.195883 -0.323212 0.403675 -0.200251 0.097420 0.393145 0.614840 -0.576543 -0.598900 0.174623 -0.167332 0.522156 0.893813 0.476976 0.050888 0.449874 -0.078010 0.387890 0.023980 0.137379 0.211653 0.088146 0.064562 -0.376165 -0.015218 -0.556681 -0.395662 -0.793661 0.230347 -0.156355 -0.287874 0.042986 -0.335509 0.033729 -0.495220 -0.210796 0.015748 -0.402196 -0.179632 0.564000 -0.186259 0.069802 0.097124 -1.015389 0.342991 0.175402 -0.334278 0.007860 -0.157544 0.414337 0.057949 -0.132410 -0.185359
2339 0.660273 -0.478887 0.238207 -0.006346 0.645171 -0.672747 -1.312684 0.499057 -1.322288 -1.074566 -0.791147 0.638119 0.103348 1.100330 -0.077286 0.853771 0.587944 -0.245757 0.131283 -1.052374 -0.135542 -0.199915 -0.272406 -0.655150 -0.879789 -0.590793 0.644942 0.408990 0.165274 0.762397 0.642027 0.540400 0.446129 1.514989 -0.317445 0.534236 0.742579 0.951539 -0.400988 -0.149391 0.281416 -0.560616 -0.162020 0.358520 0.598103 -0.319932 0.815471 0.484130 -0.442043 -0.799042 0.635586 -0.217143 0.063911 -0.294990 -0.028433 0.120842 -0.726328 0.628140 -0.417417 0.538304 -0.010208 -0.295259 0.093309 -0.732291
1180 0.148751 -0.402122 -0.681792 0.677664 0.645542 -0.160537 -0.872252 0.426815 -0.152503 0.592162 0.394355 1.172808 0.455905 -0.048559 0.193389 0.566255 0.826927 -0.544945 0.658114 0.485773 0.837159 -0.072410 -0.736382 0.891607 -0.481899 -0.380951 -0.445627 0.109822 0.215246 -0.426126 -0.156897 -0.333984 -0.815013 0.146437 -0.262552 0.167655 -0.677052 -0.588923 -0.683473 0.458752 -0.338968 -0.744273 0.070590 -0.677615 0.368236 0.095954 1.055540 0.167388 0.463214 -0.749027 -0.246259 -0.814436 -0.364741 -0.069124 -0.906084 -0.140829 -0.120305 0.461685 -0.267114 -0.172403 0.026092 0.145383 0.009037 0.280090
2400 1.037857 0.864824 0.471501 1.156325 -0.114743 0.419271 -0.571076 -0.111782 -0.899010 0.849137 0.169264 0.470366 -0.047833 0.020840 -0.283886 1.081155 0.574086 -0.293879 -0.209409 0.464478 -1.339776 0.369117 0.599798 -0.067604 -0.335647 0.558446 1.012676 -0.705414 0.044120 -1.362359 -0.244811 0.118023 0.865890 0.801014 -0.038333 0.141785 0.694950 -0.312589 -0.644877 -0.188657 0.117352 -0.028606 0.780599 -0.618986 -0.607297 0.074454 0.049797 0.068681 -0.667939 -0.133515 0.702184 -1.081304 -1.135223 0.768967 0.239525 -0.115840 -0.378713 0.521785 0.851026 -0.655743 0.104711 0.196065 0.018948 -0.899810
2673 0.145429 -0.202292 0.625635 0.185120 -0.583351 0.494266 -0.570411 0.334080 -0.426904 0.357577 -0.601378 0.894704 0.824994 0.470024 -0.406557 1.521502 -0.605568 0.761724 -0.738540 -0.169586 0.184878 -0.157537 -0.576053 -0.413318 -1.113633 0.727550 0.233802 0.302119 0.110802 -0.535553 -0.259180 0.042993 0.638604 0.302155 -0.336532 -0.407830 0.125011 0.806549 0.532036 0.900294 -0.494273 -0.782058 -0.157335 0.079938 0.723178 -0.532595 0.515433 -0.744370 -0.284222 -0.666082 0.086717 0.032356 -0.248638 1.389871 -0.349110 0.099051 -0.109636 0.092801 -0.913267 0.043051 1.017093 -0.473097 -0.403751 -0.180725
2398 0.305976 0.037580 -0.047584 0.044888 0.453323 0.015444 -0.532573 -0.307026 0.297945 0.346683 -0.359619 0.196894 -0.302033 -0.310241 0.226853 0.279408 -0.124086 0.462251 -0.793238 -0.489775 0.290427 0.159633 0.320600 0.290428 0.029930 0.079459 0.603784 -0.313377 0.772775 -0.226112 0.804430 0.431289 0.490239 -0.100741 -0.471301 0.413046 -0.332914 -0.480924 -0.865103 0.502132 0.231349 -0.363349 0.240173 0.031449 -0.256550 -0.456597 -0.182479 0.352339 0.149352 -0.250677 0.515294 0.115084 -0.072672 -0.485095 -0.031122 -0.034281 0.207940 0.606930 -0.307734 -0.841687 0.112994 -0.380259 0.012087 0.393833
620 1.225200 0.339342 0.276100 0.120156 0.519044 -0.241086 -0.288814 -0.693408 0.203842 -0.568204 -0.471505 -0.297121 0.892244 0.401660 -0.288603 -0.042863 -0.222561 -0.514911 0.378704 0.347089 0.932009 0.239163 0.305529 0.768976 -0.213687 -0.024659 -0.402071 0.483152 -0.119272 0.233870 -0.134697 1.151351 0.634906 0.602624 -0.757330 0.834814 -0.048401 -0.834375 -1.566334 0.338227 -0.087946 -0.706755 -0.559018 0.573106 -0.064610 0.129871 0.188947 -0.514228 -0.978780 -0.785431 0.563257 0.293040 -0.505150 0.595254 0.849905 -0.883247 -0.009245 -0.323670 -0.622961 -0.421956 -0.338196 -0.146764 1.044165 -0.227204
3249 0.603433 -0.833579 0.974552 -0.630991 0.148118 -0.093180 0.238995 0.209614 -0.410678 -0.340327 0.384686 0.357316 0.108015 -0.554038 -0.121785 0.563767 0.221300 0.631897 -0.417157 0.700801 -0.422865 -0.936146 -0.195337 -0.045645 0.996445 -0.724694 0.329683 0.039450 -0.271057 -0.319054 0.454398 0.610696 0.733239 0.980820 -0.091101 -0.530759 -1.124599 -0.538475 0.647646 1.009462 -0.910249 -1.013259 0.162289 -0.416644 -0.206443 -0.286092 0.859262 -0.409311 0.684132 -0.678826 0.566397 -0.131412 -0.501208 0.295296 -0.294414 -0.239180 0.158739 0.299980 -0.905141 -0.211024 0.144231 -0.051230 0.806527 0.715385
1004 0.599298 -0.021589 0.437119 -0.624688 0.176688 0.570174 0.281244 -0.602209 0.591470 -0.659841 -0.021899 0.399445 0.609684 -0.530474 -0.796084 0.006959 0.355536 0.180080 -0.020355 -0.587136 -0.575777 -0.065875 -1.046090 0.368334 -0.724461 -0.339410 -0.471769 0.656773 -0.604547 -0.163061 -0.580752 -0.028011 0.234248 0.022723 -0.911717 0.289184 0.029219 -0.061760 -1.649554 -0.015937 -0.967272 -0.491761 -1.055403 0.430320 -0.596977 -0.524086 0.044904 -0.566170 -0.125960 0.205007 0.150796 -0.049252 -1.314328 0.061050 -1.318228 -0.461224 -0.220903 0.416876 0.045652 0.269839 0.681255 0.416766 1.008191 -0.155125
2259 -0.002788 0.063011 1.070425 -1.274485 0.304445 0.228152 -0.041075 0.286422 -0.465379 -0.942678 0.296642 0.555290 -0.598757 -0.006700 0.076302 -0.355506 -0.539690 -0.057791 0.789104 0.252105 0.759914 -0.741631 0.559127 0.039456 -0.246540 -0.143792 -0.239696 -0.304829 0.816970 -0.762156 -0.772915 0.649097 1.095594 0.057078 -0.372289 0.204494 -0.340520 0.345086 -0.900393 0.498280 -0.185738 -1.342906 -0.847988 -0.501847 -0.277395 0.072995 0.645311 -0.297203 -0.305213 -0.579860 -0.708133 0.216799 -0.580707 0.071285 -0.956850 -0.422443 -1.375860 0.943402 -0.439952 -0.553001 -0.177651 -1.664413 0.431538 -1.127769
1012 0.548342 -0.193550 0.379918 0.323115 0.029935 0.235717 -0.443597 -0.297032 -0.116292 0.247751 -0.271613 -0.076481 -0.520523 -0.393948 -0.176670 -0.081354 0.275044 0.531158 -0.760918 -0.315298 1.023793 0.120369 0.078609 0.695428 0.817619 -0.041196 0.945205 -0.088247 0.655564 -0.373864 0.672301 0.425067 -0.399983 0.049631 -0.069038 0.496781 0.234434 -0.151590 -0.847453 0.273492 -0.038650 -0.442378 -0.354664 -0.225620 -0.167162 -0.190914 0.275504 0.082574 -0.068357 -0.687225 0.233066 0.191892 -0.373479 0.127967 -0.500231 0.219452 -0.122520 -0.285577 0.058781 0.096402 0.150628 -0.715600 -0.380474 0.127189
1131 -0.014406 0.170236 0.426636 -0.096346 -0.013428 0.243401 -0.756399 -0.225226 -0.208270 0.129995 0.005032 -0.278799 -0.121662 -0.570449 0.154378 0.834140 0.045265 0.557566 -0.949236 0.513197 0.589734 0.564375 -0.574676 0.450067 -0.150338 -0.420895 0.706379 -0.185808 0.305459 0.389586 0.425512 -0.018819 0.128647 0.207305 -0.317970 0.373001 -0.209260 -0.860482 -0.544576 0.037348 0.286950 -0.210619 -0.422714 0.150192 -0.304121 0.233887 -0.250991 -0.420772 0.453733 -0.819064 -0.128076 0.334175 -0.131563 0.270939 -0.402614 -0.178269 0.205903 -0.236837 -0.321973 0.200178 0.313361 -0.276685 -0.223893 0.121982
1644 0.396373 -0.206537 0.251532 0.486830 0.080088 -0.077968 -0.101826 -0.202043 -0.113511 0.335461 -0.300926 0.290336 -0.390089 -0.351418 -0.728747 -0.003738 0.120174 0.600012 -0.685881 -0.587766 0.577517 0.223817 0.179506 0.484093 0.697764 -0.240956 0.637291 -0.211936 0.529713 -0.553669 0.655688 0.282868 0.113610 0.402759 -0.916173 -0.025592 0.449208 0.145118 -0.728744 0.255973 -0.281805 -0.346183 -0.514134 -0.072902 0.033458 0.059333 0.531218 0.143764 -0.013569 -0.674449 0.315792 0.166432 -0.244726 -0.041176 -0.226552 0.098893 0.026537 -0.111937 0.142718 0.091116 0.296789 -0.191112 -0.215244 -0.115499
2774 0.493567 -0.511556 0.273575 0.452087 0.653364 -0.646281 -0.521137 -0.526905 -0.146644 0.231838 -0.579759 0.049735 -0.129139 -0.822030 0.162561 -0.090475 -0.378171 0.334957 -0.359645 -0.372946 -0.273207 0.532761 0.036547 0.217470 0.404599 -0.140236 0.609266 -0.086200 0.763764 -0.171483 0.546542 1.092162 -0.626517 -0.164403 -0.774586 0.334420 -0.431692 -0.260000 -1.045041 0.085031 0.138168 -0.041215 0.084753 -0.104939 0.006950 -0.117702 0.053892 -0.012747 -0.109461 0.136689 -0.101052 0.422882 0.244969 0.086948 -0.921129 -0.132894 0.196571 -0.230473 -0.564651 -0.730783 0.324717 -0.288382 0.150750 0.508739
3080 -0.336312 -1.638533 0.817114 -0.280910 -0.982828 0.379262 -1.089311 -0.161325 -0.268428 -1.281142 0.599417 -0.286787 0.086333 -0.250034 -0.163083 1.219069 -0.094699 -0.262838 -0.041170 0.939539 0.191418 -0.162618 1.156639 -0.337213 -0.298351 -0.289640 -0.223707 -0.350390 1.664244 0.136143 -0.466189 0.736004 0.354611 0.512697 -0.672823 0.478265 0.126392 1.017532 -0.820557 -0.479523 -0.361842 -0.019238 0.287071 0.583278 -0.627083 0.342811 0.420361 0.244220 0.027876 -0.748639 0.215972 -0.379759 -0.964666 1.134943 -0.599366 -0.334477 0.074662 -0.912681 -0.229804 1.001525 0.776448 0.635280 0.285914 -0.590358
47 -0.132953 0.546735 0.706290 -0.607563 0.613498 0.636414 0.534175 -1.065149 -1.113072 -1.537834 -0.359826 -0.120500 -0.578950 -0.784738 -0.871904 -0.046053 -0.057787 1.096015 -0.487035 -0.080309 -0.880631 -0.358300 -0.010000 1.425244 0.423271 -0.891574 -0.636883 -0.841772 0.020388 -0.391025 1.634328 0.901493 -0.276473 0.236002 -0.203681 0.456738 -1.638052 -0.466199 -1.682984 -0.622952 0.885725 -0.989818 -0.614673 2.134796 0.314622 -1.680390 1.719456 -0.204902 -1.799492 0.732260 -1.231880 0.221593 -0.650512 0.514076 -0.811876 -0.381558 0.287887 0.687263 -0.430082 -0.163995 -0.724476 -1.079875 -0.093094 -1.255430
2638 0.341007 -0.708755 0.223394 -0.287181 0.356489 -0.236679 -0.237122 -0.427308 -0.331554 0.765526 -0.047263 -0.092541 -0.737679 -0.398050 -0.127815 0.041851 0.286006 0.225683 -0.769886 -0.031441 0.027847 0.543924 -0.173110 0.325778 -0.341109 0.396643 0.164924 -0.365958 0.165972 -0.658797 0.851221 0.173345 -0.005096 0.273971 -0.454474 -0.353913 -0.194558 0.499504 -0.915813 -0.083675 0.939204 -0.117654 -0.068461 -0.014342 0.048089 -0.542916 -0.185542 -1.376037 -0.157916 -0.941901 0.071567 -0.226894 -0.627546 -0.910905 -0.783258 -0.753008 -0.463379 -0.742758 -0.077738 0.074369 -0.192524 -0.373064 -0.457585 -0.149926
27 0.484202 -0.076178 0.130067 0.214423 0.302356 0.204909 -0.473347 -0.475036 -0.070465 0.401030 0.080610 -0.011409 -0.352513 0.167535 -0.009821 -0.015208 0.077549 0.373540 -0.567945 -0.596226 0.810602 -0.105139 0.362996 0.839854 0.968565 -0.159552 0.719961 -0.207183 0.484767 -0.423437 0.477513 0.325176 -0.488309 0.196445 -0.049860 0.528115 0.028284 -0.168178 -0.853548 0.250226 -0.207263 -0.472627 -0.503004 -0.243241 -0.121704 -0.118407 0.266797 0.189761 -0.199118 -0.365805 0.569562 0.144432 -0.201384 0.528865 -0.743771 0.338296 -0.066781 -0.115445 0.128868 0.039522 0.159194 -0.207210 -0.352860 -0.008131
2506 0.266574 -0.887594 -0.372812 -0.357989 0.541245 0.305064 -0.626025 0.542992 -0.423385 0.209765 0.127561 0.063766 -0.546844 -0.907898 -0.106265 0.647786 0.333805 0.330965 0.107575 0.152936 -0.222736 0.446657 0.101600 0.999881 -0.047586 -0.586519 0.242225 0.284062 0.911101 -0.272805 -0.155101 1.095922 0.453816 -0.214485 -0.733787 -0.111154 0.316829 -0.454718 -0.300059 -0.163845 0.270740 -0.623382 -0.734080 -0.272853 0.367574 -0.013530 0.144017 -0.915595 -0.764925 0.204070 0.215792 -0.145067 0.669005 -0.084256 -0.439218 -0.470746 0.246323 0.116840 -0.278536 0.105656 -0.275912 -0.034401 -0.124645 0.797502
2866 -0.453935 -0.885009 0.170321 -0.214877 0.126943 -0.757500 -0.446071 -0.129975 0.277849 -0.501941 0.431232 -0.031313 0.284384 0.094807 -0.357848 0.408790 -0.254262 -0.240239 0.593345 -0.552318 0.307951 0.187700 0.342310 0.288148 0.603810 0.216999 0.143114 -0.397310 0.454748 -0.415896 0.356541 0.729718 -0.117914 0.727389 -1.581443 0.989318 -0.190665 -1.344451 -0.686574 -0.646124 -0.348718 -0.424459 0.011447 0.607511 -0.454969 -0.195703 0.094037 0.014014 -0.530328 -0.357454 -0.741053 0.268130 0.233948 -0.137121 0.184818 -1.243145 -0.168687 0.124676 0.538210 0.085051 0.391303 -0.132561 0.348647 0.490755
12 1.238472 0.005405 0.021781 0.425563 0.725054 0.823140 -0.472292 0.280335 -1.462088 -0.384991 0.344452 -0.316846 0.185174 -0.326867 -0.145524 0.420328 0.660191 0.903026 -0.207144 -0.317618 0.988559 0.307850 0.011983 0.615371 -0.354203 -0.090335 -0.071514 0.016244 0.686482 0.027707 0.287469 0.279621 0.867575 0.405739 -0.050673 0.601958 -0.614619 -0.177318 0.399034 -0.752908 -0.062151 -0.752566 -0.032687 -0.216601 -0.246016 -0.064785 -0.186394 -0.020861 -0.414309 -0.688376 -0.533116 0.336546 1.018591 0.958971 -0.422589 -0.255826 -0.873446 -0.378274 -0.417904 -0.201634 0.580063 -1.119294 -0.082866 0.041141
1918 -0.098805 -0.174344 -0.037824 -0.017071 0.277881 0.013164 -0.315914 -0.510930 -0.272546 -0.070474 -0.147253 0.366920 -0.506905 0.362781 0.228902 -0.243676 0.722824 0.597278 -0.097649 -0.778399 -0.181259 0.572013 -0.079207 0.481658 0.643469 -0.579572 0.205779 -0.592454 1.038365 -0.128586 0.246091 0.158466 0.634033 -0.252273 -0.200111 0.069611 0.218761 -0.339048 -0.853819 0.341725 1.115299 -0.570088 -0.394957 0.673064 -0.354254 -1.011824 0.108277 -0.707272 -0.347165 -0.384069 0.207543 -0.637126 -0.272584 0.264440 0.162594 0.083640 -0.261120 0.319900 -0.049188 -0.253740 0.289070 -0.569481 -0.860813 0.087619
1447 -0.387178 -0.766098 0.231829 -0.290700 -0.123182 -0.430208 0.176499 -0.200138 0.193961 -0.005317 0.092794 0.232077 -0.690587 0.700100 0.406655 0.669580 1.185276 -0.351849 -0.576362 -0.049496 -0.335380 -0.496880 0.868014 -0.017651 -1.320651 0.343472 1.050875 0.518129 0.052200 -0.071093 0.482686 -0.371125 0.021035 1.296242 -0.075095 0.124728 -0.093466 0.050960 0.069700 0.028164 -0.106704 -0.959279 -0.304699 -0.141114 -1.022745 -0.293624 1.030968 -0.683169 0.030321 0.255612 -0.289100 -0.493762 -0.017056 0.911874 0.069484 -1.000595 -0.492820 -0.011735 -1.273027 0.002730 1.088410 -0.789390 0.314584 0.712520
2868 0.859223 -0.365845 1.073614 0.325295 0.007752 -0.812156 -1.894786 0.465558 -0.275759 -0.195116 -1.047842 -0.060552 0.313241 0.773376 -0.920633 0.531606 -0.505053 1.508774 0.180431 -0.669354 0.350136 0.524133 -0.567059 0.800320 -0.582275 1.635109 0.013103 0.118016 0.421816 -0.735110 0.431085 -0.000540 -0.363769 -0.090788 -0.834162 0.109496 0.563530 0.754911 -0.064785 0.035899 1.408689 -0.364122 0.544310 1.164102 0.003822 -0.936944 0.733411 -1.001487 0.052393 0.280369 -0.584174 -0.092623 -0.677944 0.539769 -0.492627 -0.763833 -0.645369 -0.426385 -1.173126 -1.133095 0.235173 0.657570 -0.290037 0.067820
2418 0.234929 -0.482227 0.659626 0.589806 0.159399 -0.651596 -0.554500 0.255677 0.086096 0.183791 0.592845 0.059640 -0.228816 0.602510 0.004611 -0.072141 0.189589 0.721821 -0.321121 -0.377769 0.089751 -0.590037 0.277833 0.602235 0.364707 0.377024 -0.101943 0.033138 0.682348 -0.105679 0.360696 0.104919 -0.077636 0.022478 -0.056649 -0.277259 -0.765550 -0.233476 -1.024017 0.370723 -0.222683 -0.701348 0.549835 -0.153699 0.003877 -0.534543 -0.194732 -0.136403 -0.704097 0.072133 0.462959 -0.247057 0.450915 0.095979 -1.008779 0.303113 0.184397 -0.087695 -0.301271 -0.356280 0.569663 0.261346 0.062235 -0.384044
2507 0.543513 -0.181620 0.035431 -0.254058 0.331700 -0.043671 -0.547433 0.509254 -0.608939 -0.149916 0.230440 0.239381 -0.738648 -1.278849 0.102244 0.511332 0.267073 0.822563 -0.011272 -0.039388 -0.139461 0.688997 0.364208 0.810106 0.019229 -0.362545 0.316150 0.443747 1.038213 -0.074173 0.481251 0.317833 0.010754 -0.181451 -0.348653 -0.092432 -0.253239 -0.162106 -0.501312 0.517625 0.555612 0.665252 -0.070634 -0.126130 0.246194 -0.862142 -0.042603 -0.716222 -0.603824 -0.196640 -0.036783 -0.315382 -0.178432 -0.539134 -0.243482 -0.691542 -0.440178 0.210928 -0.250280 0.273489 -0.223280 -0.087824 0.238392 0.708398
690 0.719451 -1.264482 0.114268 -0.422405 1.045593 -0.482746 0.619802 -0.338734 -0.209996 -0.580295 0.030130 0.255999 1.181964 -0.125626 0.174025 1.330078 -0.631352 -0.311045 -0.819615 -0.334486 -1.505983 -1.176057 0.042539 0.550894 0.205845 0.166148 -0.378341 0.143530 0.432319 -0.138267 0.674626 1.259099 0.581750 1.534430 -0.232505 -0.468695 -0.127397 -0.718044 0.403124 0.883920 -0.213323 -0.972764 0.605779 -1.173810 -1.022462 -0.886759 0.585855 -0.089446 0.265996 -0.216535 0.081091 0.551387 -0.676375 0.347668 0.089378 1.032633 0.004295 -0.591870 -0.229203 -0.361752 0.492918 -0.105409 -0.111033 0.176829
76 0.720042 -0.068323 0.281266 0.547404 0.143040 0.689921 -0.549122 -0.179852 0.231865 -0.731101 0.359477 -0.036764 -0.466716 0.532556 0.228615 0.654418 -0.183419 0.131101 0.014378 -0.552916 0.132291 -0.105233 -0.659229 0.356712 0.677400 1.262237 -0.777995 0.390454 0.440193 -1.281767 0.692494 1.052297 0.078267 2.275301 -0.059451 -0.882366 -0.168674 -0.073642 -0.112350 0.548197 -1.049252 0.124067 0.303982 1.160372 -1.488148 0.287866 0.638872 -0.300696 -0.874031 -1.258192 -0.134849 -0.340690 0.001058 1.064047 -0.987876 0.255533 -0.273892 -0.393498 -0.201539 1.165853 -0.544866 0.018358 0.726046 -0.334489
835 0.431425 -0.320051 0.181476 0.465412 0.330105 0.287977 -0.148161 0.390364 -0.061677 0.312047 0.462256 -0.055864 -0.826732 0.010557 -0.191712 -0.074004 -0.256335 0.144597 -0.932384 -0.751955 0.403459 0.775524 0.356475 0.358386 0.015995 0.197240 0.468585 -0.020430 0.770463 -0.613344 -0.042826 0.384557 0.568031 0.823619 -0.085833 0.108294 0.296614 0.038903 -0.584254 0.049434 -0.346093 -0.668640 -1.162790 0.007555 -0.022599 -0.157238 0.336403 -0.308849 0.110672 -0.152744 0.190732 -0.638191 -0.253042 0.096743 -0.211654 0.456935 0.132080 0.219514 0.623852 0.135707 -0.177731 0.042200 0.369507 -0.287651
150 1.024661 -0.061775 -0.015804 0.261098 1.045777 0.783417 -0.406446 0.521490 -1.334385 -0.247735 0.488831 -0.120205 0.056631 -0.423806 -0.223753 0.701967 0.644269 0.769286 -0.149208 -0.173339 0.585214 0.127440 -0.039431 0.760144 -0.214992 -0.555234 -0.011203 -0.054379 0.698957 0.027722 0.456226 0.490452 0.618963 0.205405 -0.354703 0.526415 -0.135511 -0.255530 0.146058 -0.947837 0.010868 -0.587766 -0.214667 -0.661933 0.086038 -0.155212 -0.206938 -0.226122 -0.435812 -0.588637 -0.483006 0.467523 1.066816 0.645919 -0.510356 -0.516165 -0.739084 -0.480616 -0.180762 -0.121341 0.668332 -1.058905 -0.057796 0.216996
1894 -0.211427 -0.603053 0.438171 -0.379291 0.636388 0.703961 -1.609002 -0.750075 -0.522953 0.242168 0.567033 0.146974 -0.504308 -0.265449 -0.133167 1.245814 0.790616 -0.500252 -0.374173 -0.172384 -0.250151 0.476720 0.781877 0.289229 -0.258565 -0.066251 0.091034 0.053993 0.131549 0.698381 0.140685 0.136019 0.482779 0.623407 0.013056 -0.121583 -0.880384 -0.638298 -0.355324 -0.549676 -0.453684 0.166579 0.080053 0.487319 0.536815 0.111745 0.763976 -0.009387 0.262237 -0.019212 0.008080 -0.072006 -0.181066 0.439504 -0.560681 0.144455 0.125966 -1.554886 -0.580911 0.080297 0.009042 0.161282 -0.540086 -0.684734
3071 0.208043 -0.760576 0.834202 -0.194908 0.200307 -0.242360 -1.308363 0.306577 -1.189500 -0.633516 -0.367512 0.305879 -0.724755 0.889558 -0.539864 0.734588 0.118929 -1.167790 0.170212 -0.601064 -0.387607 -0.590565 -0.752236 -0.342922 -0.123242 -0.534447 0.689045 0.079229 0.219505 0.964282 0.635802 0.078931 0.286782 1.185740 -0.220853 0.967430 0.442542 -0.029355 -0.273260 -0.632086 -0.332109 -1.226472 -0.487537 0.343756 0.042262 -0.698472 1.107623 0.244221 -0.375802 -0.698608 0.629922 -0.279821 0.715235 -0.867022 -0.503798 0.577004 -0.205736 0.900021 -0.863998 -0.358079 -0.470659 -0.435098 -0.004948 -1.299544
307 0.437471 -0.484788 -0.059846 0.008395 0.422249 -0.031230 -0.557775 -0.519855 0.100411 0.639361 0.018105 0.171498 -0.502617 0.234039 0.460067 -0.314392 0.485403 0.384458 -0.243432 -0.660332 0.571699 0.181411 -0.225626 0.535633 0.595355 -0.141917 0.428251 -0.067579 1.058184 -0.264331 0.661184 0.132800 0.068615 0.006853 0.056816 -0.311151 0.170706 -0.713038 -0.756100 0.251052 0.038409 -0.277780 -0.570350 0.355566 0.106833 -0.395448 0.452165 -0.299062 -0.422069 -0.274252 0.467881 -0.058058 -0.046129 0.023301 -0.223909 0.076816 -0.218917 0.233214 -0.042956 -0.410043 0.299264 -0.469878 -0.400194 -0.126626
2691 0.802139 0.692676 -0.348280 -0.070961 0.594264 1.477589 -0.726556 -1.444907 0.120440 -0.188319 -0.928095 0.410251 -0.021327 -1.171108 -1.610118 0.447476 -0.548960 0.762702 -0.510604 -0.302755 -0.221675 -0.581781 0.628331 -0.095979 -0.671138 0.263759 0.302684 0.635464 0.165316 1.231456 1.027547 1.490425 -0.292152 0.319552 0.948804 0.856881 -0.269476 0.175205 -1.317813 0.321913 -1.284946 -2.014059 0.714033 1.511340 -0.064040 -0.454132 1.906223 -1.612536 -0.981774 0.420319 -0.444460 -1.335628 -0.790547 0.280598 -0.253017 0.747239 0.426505 -0.317584 -0.429521 -0.463008 -0.479822 -0.053168 -0.489262 -0.630369
1220 -0.406580 -0.521957 0.648585 0.340942 -0.457849 -0.064539 -0.471052 1.130639 -0.747117 0.885578 -0.313643 0.250442 0.702957 0.687524 -0.865652 0.824790 -0.521918 0.936984 0.168263 -0.829586 0.383216 0.224474 -1.134277 1.043386 -1.022457 0.276069 0.035977 -0.584829 -0.585986 -0.703426 0.793169 0.603732 -0.088713 0.441061 -0.288927 -0.337435 -0.194826 0.870873 -0.890840 0.636841 0.421036 -0.612920 -0.631311 1.187411 -0.114936 -0.525722 0.644173 -0.700581 0.025062 0.123566 0.406609 0.757543 -0.333716 0.007650 0.274744 -0.169752 -0.678238 -0.121234 -0.932718 -0.261066 1.213051 -0.261052 -0.891125 -0.204458
269 -0.066042 0.110312 0.550900 1.021913 0.930844 0.058231 0.941675 -0.213324 -0.982110 -0.886426 0.073934 -0.104402 0.112763 -0.548852 0.190378 0.786196 0.631151 -0.445419 -0.628646 -0.122152 -0.166800 0.579127 -0.023934 0.254618 -0.510240 0.863001 -0.207745 -0.629647 -0.542832 0.218125 -0.059275 -0.643742 0.074689 0.631707 -0.314900 0.089423 0.017182 -0.294135 -1.192881 0.815152 -0.292442 -0.058238 -0.159389 1.240264 1.113500 -0.325343 0.113466 -0.034550 -1.252038 -0.867303 -0.871278 -0.696997 0.439015 -0.287632 -0.447438 0.286325 -0.143088 -0.628336 -0.324857 -0.634733 0.799452 -0.284267 -0.810606 0.156981
3094 0.468848 -0.376802 0.447463 0.154809 0.910995 0.974455 0.836758 -0.147535 -0.912454 -0.220306 -0.318068 0.045229 -0.931447 -0.682657 -1.375398 0.364499 -0.062597 -0.404072 0.342157 1.355054 -0.441885 -0.405777 0.425658 0.419565 -0.958201 0.833016 0.005914 0.316107 0.613830 0.058967 0.680120 -0.057805 -0.964091 1.077340 -0.438397 0.485663 -0.641928 0.495131 -2.640666 0.711741 -1.470195 -1.521944 0.847410 2.327574 -0.088513 -1.366535 0.965435 -0.631426 0.724012 0.733894 0.066724 -0.239607 0.185997 0.471393 -0.438497 -0.490728 -0.256546 -0.982900 -0.141563 -0.066791 -1.406296 -0.641776 -0.301142 -0.212895
43 0.152503 -0.507953 0.207767 0.001204 0.063046 -0.212218 -0.455223 -0.105743 -0.467818 0.293248 -0.124672 -0.023279 -1.010970 -0.551823 0.053152 -0.307782 0.666645 0.656760 -0.049850 -0.243846 -0.174627 0.861341 -0.204680 0.385271 -0.238512 -0.689125 0.644509 -0.050063 0.272615 0.139092 0.446505 0.383934 -0.183939 -0.057957 -0.522950 0.173738 -0.290309 -0.289781 -0.421182 0.391756 0.393501 -0.136171 -0.187188 -0.166135 0.019217 -0.452037 0.288298 -0.732407 -0.017062 -0.357652 0.144560 -0.110476 -0.246099 -0.088403 -0.335960 0.374709 -0.084733 -0.609001 0.471244 -0.064921 -0.006569 -0.551209 -0.187299 0.064030
3009 0.991831 -0.360065 0.033347 -0.366747 -0.281294 0.837489 0.091970 0.479450 -0.495574 -0.343380 0.254133 0.557079 0.144832 -0.922253 0.109947 0.047831 0.337218 0.675548 0.025113 -0.241044 0.127133 -0.593447 -0.341483 0.176381 -0.196422 0.379165 0.573059 -0.758929 0.138919 -0.163682 -0.474781 0.295783 0.203645 0.244048 0.330832 0.992479 -0.745223 -0.486607 -0.337954 0.067469 -0.679188 -0.053177 0.011902 -0.208470 -0.006058 -0.636784 0.403858 -0.465004 -0.390981 0.241191 0.035018 0.882985 -1.252309 0.833797 0.346757 -0.124184 0.134118 -0.652486 -0.394759 -0.723759 0.890136 -0.847755 0.116970 -0.499098
3153 -0.125840 -1.041274 0.539874 0.030858 0.977924 1.102536 -0.275753 -0.856212 -0.207405 -1.149744 0.312284 0.811360 -1.315005 0.606133 -0.089040 0.222077 -0.069102 -0.437866 0.547855 1.039514 -0.688610 -0.011994 -1.302195 0.639653 -1.361410 0.189411 0.925367 -0.355176 1.025753 -0.159349 -0.299624 0.197382 0.658611 -0.109108 0.048261 0.316705 -0.614157 0.568257 -0.487718 0.316092 0.004551 0.335013 0.326021 0.544901 0.078332 -0.313845 0.791843 -0.260527 -1.088199 0.042586 -0.131865 0.374604 0.161521 0.339457 0.478996 -1.120242 -0.317087 0.963716 -0.374857 -0.086216 0.513211 -0.426884 -0.406557 0.295770
138 0.098045 0.342579 -0.045822 0.379409 0.559257 0.437440 -0.428562 -0.471736 -0.753396 -0.094682 0.526958 -0.128492 -0.422318 -0.428673 -0.030038 1.194099 0.124273 -0.136413 -0.826009 -0.103716 -0.115655 0.474749 -0.088705 0.704447 -0.383680 -0.619672 0.851585 -0.562815 0.338916 0.587056 -0.003047 -0.068094 -0.030531 -0.132834 -0.251710 0.162221 -0.154252 -0.567602 -0.550994 -0.099280 0.342371 -0.011462 -0.137060 0.084536 -0.198030 -0.393361 -0.285371 -0.198144 0.319655 -0.444521 0.045891 0.042700 -0.190792 0.817629 -0.672019 -0.341138 0.040233 -0.407889 0.097430 0.454849 0.178099 0.088535 0.173407 -0.470315
860 0.753045 -0.145976 0.494761 -1.382797 -0.117898 0.331228 0.175831 -0.825408 0.347008 -0.511903 0.426533 0.212822 0.989788 -0.409631 -0.761219 0.255846 0.211294 0.119333 0.362020 -0.791555 -0.570584 -0.030371 -1.002338 0.464907 -1.068537 -0.011326 -0.644758 0.503557 -0.064230 -0.289817 -0.451027 -0.123509 0.807933 -0.558742 -1.371639 0.352611 0.276782 0.011151 -1.979093 -0.291564 -0.741936 -0.864210 -0.925062 0.284455 -0.086930 -0.156791 -0.505618 -0.521550 -0.653505 0.436388 0.749623 0.161897 -0.856331 0.752121 -1.461499 -0.551877 -0.705980 0.612765 0.109238 -0.241008 0.728566 0.536686 0.797530 0.017193
3133 0.777219 -1.031016 0.735022 0.012990 0.391055 0.685182 0.980616 0.424888 -0.140061 0.245166 -0.523772 -0.244007 0.070525 -0.742270 -0.152020 0.225566 0.176186 0.407695 0.154489 0.108304 -1.643350 0.301684 0.032901 1.954658 -0.032499 -0.210716 0.371521 0.175647 -0.416507 -0.053231 -0.328738 0.116995 0.915911 1.420815 -0.749694 -0.089999 1.214972 0.302043 -0.529752 1.216073 -0.721292 -1.179022 0.559359 0.246690 -1.344903 1.300096 0.891654 -0.765411 -0.381954 -1.027811 -0.847208 -0.931267 -0.111291 -0.554741 -0.258662 0.111949 0.210423 0.673909 0.160820 -0.836886 -0.302373 -0.331014 0.942391 0.912741
847 -0.271975 0.082157 0.088757 -0.175916 0.653442 -0.294062 -0.634240 -0.675002 -0.046160 0.427540 0.019734 0.128025 -0.468267 -0.376986 -0.575957 1.265572 0.418732 0.503236 -0.787710 -0.106771 0.935230 0.519238 -0.825230 0.522119 -0.197280 -0.698729 0.544800 -0.138917 -0.176509 0.798518 -0.426763 0.280337 -0.162242 0.355524 -0.271393 -0.122436 -0.196927 -0.516558 -0.591735 -0.149181 -0.106625 -0.721563 -0.505165 -0.473593 -0.282258 0.550018 -0.144932 -0.657573 -0.173240 0.075357 -0.862535 -0.126763 -0.022378 0.552255 -0.732900 -0.444663 -0.103836 -0.128232 0.068143 0.562294 0.111032 -0.408244 -0.070116 -0.209874
962 -0.135884 -0.294788 0.298738 0.240975 0.919681 -0.622286 0.118205 -0.212468 -0.106789 0.456112 0.404090 -0.161377 0.015329 0.096578 -0.384112 -0.140617 -0.107493 0.614651 -0.252009 -0.117485 -0.082362 0.518084 0.526254 1.092293 0.289614 0.104873 0.770486 -0.276845 0.825268 0.491673 0.334829 0.662835 -0.837713 0.120651 -0.143602 0.422615 -0.267942 0.106478 -0.805897 0.757535 0.039608 -0.540070 -0.720710 0.101228 0.390788 0.291613 0.311596 0.267782 -0.301459 0.469334 0.371722 0.022796 -0.026709 0.492604 -0.455466 0.224449 0.149385 0.072891 -0.565673 -0.487456 0.194455 0.072741 -0.022184 0.027702
1971 0.858148 -0.535854 1.635267 -0.095091 -0.581378 -0.595383 -0.176728 -1.460963 -1.746946 0.692227 0.762682 1.036237 0.730344 -0.199170 0.611740 0.994496 -1.033070 -0.087929 -0.295732 0.326370 -0.094425 0.348577 -0.695821 1.383419 0.267896 0.853658 0.170230 -0.448605 -0.320787 0.548912 -0.503327 0.537211 0.747446 -0.767831 -0.514420 0.234985 -0.229512 0.293049 -1.100606 0.083024 -1.099551 -0.172925 0.265003 0.368998 -0.971940 -1.244969 0.439210 -0.238788 0.170564 -0.048698 -0.604513 -0.758918 0.372874 0.068577 0.239823 -0.385354 -0.107261 0.898376 -0.677794 0.608933 -0.498985 -1.316612 0.020386 0.613118
2352 0.979569 -0.285547 1.025812 -0.098282 0.304397 -0.027007 -0.047300 -0.782196 -1.844839 1.006361 -0.255230 1.466579 -1.151623 -0.139342 -0.150706 0.814131 -0.524790 0.644968 -1.314957 -0.474580 0.740638 0.987782 0.154817 1.323818 -0.042146 0.031229 -0.684736 0.524742 0.567671 -0.217163 0.728117 0.511336 -0.128222 -0.169128 -1.052709 0.579806 0.031194 0.407076 0.302713 -0.118087 0.265265 -0.696960 0.539891 0.485115 -1.783028 0.241329 0.957512 0.619476 -1.242495 1.476846 -0.939807 -0.738776 -0.398761 0.227238 0.002488 -0.536497 -0.202693 -0.373865 -0.917831 0.257750 0.914176 1.512779 0.613305 0.228799
1879 -0.095947 -0.345747 0.466541 0.762461 0.047274 0.505413 -0.624252 -1.193515 -0.397828 0.034889 -0.135324 0.536059 0.020059 -0.833040 -0.183327 0.924673 -0.020692 -0.674156 -0.794983 -0.519019 0.039954 0.355064 1.133770 1.037086 -0.100316 -0.141420 0.009469 -0.156742 0.581252 0.244418 0.605075 -0.015198 -0.112788 0.422245 -0.486233 -0.209594 0.254936 -0.868283 -0.242981 -0.209038 -0.173121 -0.499004 0.197778 0.080583 -0.331214 -0.000034 0.301898 -0.195483 0.646127 -0.211238 -0.517768 -0.050498 -0.507256 -0.756889 -0.219049 -0.406295 -0.788316 -0.634278 -0.456029 0.318304 -0.035804 0.099337 -0.218059 -0.578020
70 0.624913 -0.510676 0.367532 0.605109 -0.390973 0.506622 -0.186567 -0.054952 -0.400115 -0.248850 0.266547 0.121042 0.337168 -0.522282 -0.055286 0.433638 -0.119020 -0.043980 -0.262547 0.067388 0.116516 -0.540146 -0.264570 0.269796 -0.150945 0.406544 0.432950 -0.016653 0.581480 -0.287631 -0.793860 0.534374 0.199981 -0.368680 -0.115156 0.381334 -0.761151 0.526977 -0.219956 0.425529 -0.223771 -0.062041 -0.355375 -0.141739 0.395547 -0.257491 0.381202 -0.888998 -0.142284 0.637052 0.048353 0.236476 -1.062588 0.374427 0.614814 0.061611 -0.047593 -0.824250 -0.314861 -0.733260 0.573830 -1.351101 0.595927 -0.103638
2655 0.127203 -0.286255 0.580148 0.850909 0.548342 -0.438112 -0.049985 -0.266785 -0.249387 0.281916 -0.240556 0.777002 0.208415 -0.080529 -0.711421 -0.236028 0.208733 0.109860 -0.019929 -0.246191 -0.124618 -0.421961 -0.215224 0.483109 0.281485 -0.288876 -0.034789 -0.406343 0.875661 0.133750 0.635153 0.316492 -0.188738 0.658734 -0.859061 -0.282692 -0.918741 -0.497482 -0.608089 0.797154 0.165924 -0.172868 0.859018 0.279679 -0.247453 0.715983 -0.564905 -0.817872 -0.546730 0.073678 -0.372670 -0.057819 -0.213486 0.231607 -1.080489 -0.185764 -0.146618 -0.899047 -0.121589 0.129406 -0.454936 0.301011 0.533083 0.338574
1324 0.914859 -1.476360 -0.377870 -0.316590 -0.036408 0.246145 0.281280 -0.813312 0.254924 -0.320574 -0.572652 0.259559 0.811997 -0.511240 0.116930 0.446879 0.127657 0.814694 -0.274282 -0.577843 0.469498 -0.589326 -1.289090 0.525186 -0.187116 0.026778 0.750143 -0.168387 -0.069691 0.343411 -0.717956 -0.159742 -0.149152 1.322930 -0.624371 0.924918 -0.416270 -0.537696 -0.453608 0.460566 -0.156088 -0.195857 -0.598154 1.381040 -0.234421 -0.289907 0.001697 -0.323679 -0.871682 -0.232198 -0.476829 -0.157145 -0.568058 -0.191363 -1.819601 -0.163237 0.735410 -0.409891 -0.459085 -0.483576 -0.389190 0.858352 1.675932 0.478326
3156 0.287734 -0.261132 2.131388 -0.124883 0.068109 0.137363 -0.141245 -0.025005 0.496192 -0.557444 -0.514887 0.243411 0.533146 -0.104091 0.034257 1.066450 0.882663 -0.558102 -0.876603 0.108984 -0.029215 -0.136084 -0.124991 1.982332 -0.150446 0.049543 0.594867 -1.783040 -0.698013 -0.092490 0.018286 0.081122 -0.149579 0.786104 -0.141187 0.211028 -0.034112 0.189561 -0.786009 -0.238812 0.093524 -0.283440 -0.194238 0.588279 -0.493064 1.064040 1.266869 -0.963688 0.032243 1.400470 0.584187 -0.565001 -0.881979 0.314687 -0.621849 0.195499 -0.342888 0.758259 0.500921 -1.011145 -0.380693 0.190634 -0.601069 0.304776
1967 -0.236600 -0.576089 -0.071117 -0.386337 -0.756985 0.093421 0.166969 0.080450 -0.685715 0.346905 0.171867 0.165122 0.764886 0.277566 -0.480102 0.232338 0.280176 -0.115441 -0.220146 0.162239 -0.126798 -0.128803 -0.937961 0.493731 -0.144424 0.153842 0.543155 -0.102892 -0.532607 -0.345474 0.188467 0.629226 -0.553583 0.461504 -0.029624 0.406578 0.267709 0.118810 -0.919139 0.354220 0.101924 0.029496 -0.321225 0.434727 -0.321440 0.073123 0.475387 -0.878677 -0.543369 0.947888 -0.315557 0.740941 -0.562055 0.429106 -0.259248 0.915112 -0.619170 0.456870 -0.388160 0.043564 1.187403 -0.610469 -0.225271 -0.675895
886 0.240744 0.181571 0.541688 1.426114 -0.064944 -0.690295 -0.189715 -0.399246 -0.281033 0.011728 0.305204 0.345423 -0.621057 -0.323895 -0.820709 -0.213461 -0.184574 0.080589 0.119423 -0.038016 -0.364100 -0.552349 0.168788 0.602542 0.122603 0.140770 -0.124723 -0.061645 1.132629 0.213471 0.655136 0.560807 0.325539 1.210292 -0.194345 -0.342282 -0.602576 -0.786531 -0.764056 0.763971 -0.803421 0.046156 0.621873 0.177276 0.028445 0.889784 -0.289329 -1.032463 -0.913028 0.061968 -0.047714 -0.395101 -0.545734 0.025734 -1.079742 -0.396347 -0.536607 -0.334206 -0.601454 0.216186 -0.868560 0.621888 -0.039229 0.466867
1933 0.725187 -0.627428 0.063830 -0.783199 0.961186 -0.022363 0.312865 -1.697732 -0.164621 -0.158609 0.937078 -0.210226 -1.180484 0.244275 -0.209655 0.543401 0.071966 0.899957 0.665623 0.301947 -0.599472 0.099104 -0.244989 0.613543 0.139233 -0.245887 0.731486 -0.149615 -0.931442 0.490149 0.254271 0.304291 0.744093 1.062257 0.596107 1.037440 -0.730065 -0.974935 -0.543257 -0.319928 0.470148 0.109045 0.282168 0.173066 -0.740000 -0.879363 -0.647347 -0.243268 -1.154327 0.426814 -1.004987 -1.351241 -1.070089 0.175238 -0.602818 -0.620250 -0.925620 0.113237 -0.081759 -0.252348 -0.193220 0.097060 -0.669024 -1.240244
147 0.324895 0.119756 0.437883 0.144644 0.547655 -0.433001 0.079167 -0.897945 -0.257124 0.248039 -0.476501 -0.297818 -0.271751 0.056044 -0.068243 0.292685 0.350097 0.153634 -0.366610 0.122209 0.546666 -0.352275 -0.081386 0.619484 -0.320686 0.333741 -0.089361 -0.534553 -0.088988 -0.674448 0.660854 0.019747 -0.086017 0.821947 -0.389528 0.102656 0.407140 0.909319 -0.945598 0.328991 0.466091 0.085759 -0.198203 0.310232 0.221851 -0.557469 0.291059 -0.550639 -0.010023 -1.412267 0.169101 -0.227022 0.029497 0.310276 -0.883775 -0.651169 -0.793760 -1.114895 0.179207 -0.698797 0.428469 -0.430646 -0.747033 -0.177168
3203 1.636983 -1.207628 0.951787 0.066619 -0.366703 -0.459412 -0.196740 0.316121 -1.123884 1.174246 -0.758390 -0.098464 0.202059 0.520014 -0.393163 0.977688 -0.666687 -0.408404 0.101026 0.741160 -0.415665 -0.513091 0.107947 -0.046517 -0.064251 -0.812853 0.026131 0.588876 -0.056377 -0.277309 0.217986 -0.052225 0.095883 -0.275257 -0.202854 0.715110 -1.060186 -0.783324 -0.485504 0.916040 -0.421381 0.359850 -0.448936 0.663525 -0.696942 -0.975760 0.048875 1.441254 0.394579 -0.646477 -1.355517 0.156640 -1.422435 0.207467 -0.162880 -0.068126 -0.580228 0.022573 -0.857269 -0.524238 -0.129154 -0.406792 -0.299535 0.351000
2494 0.446220 -0.673704 1.318328 0.521955 0.372729 -0.214375 -0.379502 -0.302791 0.107103 -0.276072 -0.523302 -0.069751 0.046942 1.100601 -0.679787 0.321389 -0.090285 -0.189688 0.513099 0.188991 0.438895 1.151679 -0.086247 0.144570 0.206173 0.453888 -0.554854 0.045024 0.351496 0.469312 0.095900 -0.112674 -0.269801 0.548335 -0.830095 0.466597 -0.560618 -0.625640 -0.107675 0.496139 -0.399389 0.378889 -0.691884 -0.369672 0.005192 -0.658961 0.696359 -0.295159 0.485187 0.090718 -0.849541 -0.240931 -0.524169 0.876721 0.110716 -0.376524 -0.970335 0.113446 0.602265 0.120577 0.490269 -0.015085 0.137190 1.171721
2021 0.131674 -0.395638 0.192189 0.327133 0.091668 0.450533 -0.405035 -0.012738 -0.160074 0.278676 -0.097412 0.177356 -0.389040 -0.034794 -0.409190 -0.039709 -0.058549 0.458994 -0.719681 -0.626470 0.563008 0.536976 0.456120 0.676369 0.578198 -0.245567 0.566704 -0.300427 0.692082 -0.615818 0.532758 0.000405 -0.104485 0.529009 -0.231723 0.450936 0.360080 -0.369884 -0.668447 0.093714 -0.498854 -0.308092 -0.440633 -0.232673 -0.150383 -0.154166 0.433435 -0.076323 0.082006 -0.358102 0.435777 -0.102557 -0.386934 0.033951 -0.552873 0.327668 -0.142422 -0.218177 0.323627 0.309113 0.053717 -0.166356 0.111304 -0.223507
3286 0.936358 0.410071 0.312513 0.316413 1.076648 -0.160241 0.148369 -0.796952 -0.875773 0.042823 0.732278 0.569738 -0.734213 0.709398 -0.478744 1.047562 -0.590559 -0.360908 -0.926851 -0.353918 0.210900 -0.621665 -0.178414 0.871426 0.346007 0.363987 0.676222 0.581896 -0.630731 0.209023 0.425420 0.002394 0.070153 0.191099 0.108801 0.069791 -0.040950 -0.686495 -0.794630 -0.841213 0.002196 -0.400321 0.916515 0.649758 -0.278579 -0.142973 1.005730 -0.164725 0.995422 0.098693 -0.737427 -0.204021 -0.630417 0.920351 -1.147325 -0.251342 0.804388 -0.421132 -0.791695 -1.081178 -0.424872 0.230402 0.443413 0.929531
942 0.951912 -0.123432 0.543589 0.029808 1.329296 0.160586 -0.362872 -0.366101 -0.554656 -0.561384 -0.505820 0.225536 0.436923 -0.701213 -0.883449 0.183820 -0.529797 1.142807 -0.304585 0.929835 0.810106 -0.225544 0.230583 -0.085783 -1.081859 1.510739 0.897099 0.514621 1.011410 0.467598 -0.434709 0.484097 -1.076745 0.583242 -0.036121 -0.192989 -1.071752 0.908973 -0.175569 -0.046158 0.107293 -0.539717 0.359953 0.320299 -0.560910 -0.524443 0.256900 0.266579 -0.733865 -0.058889 -0.124914 0.008548 0.066892 0.724949 -0.214592 -0.195829 -1.318612 -0.085307 -0.048866 -0.613367 0.845918 0.617540 -0.406395 1.465122
229 0.525740 -0.323417 0.231883 0.347244 0.010523 0.298682 -0.386571 -0.506452 -0.428440 0.244004 -0.080782 0.010309 -0.436607 -0.232170 -0.142117 -0.268070 0.350543 0.553687 -0.562398 -0.492210 0.942062 -0.204751 0.191761 0.577761 0.825747 -0.122460 0.913954 -0.240115 0.511501 -0.517955 0.717670 0.383560 -0.558723 0.064472 -0.147967 0.407280 0.342772 -0.175971 -0.931019 0.256821 -0.248745 -0.541228 -0.328099 -0.026343 -0.298146 -0.216587 0.667984 0.294203 0.015608 -0.435278 0.323055 0.265924 -0.483558 0.233040 -0.433980 0.374897 -0.398118 -0.323841 0.373278 0.322389 0.138513 -0.490171 -0.436471 0.021402
1717 -0.180761 -0.611159 -0.734876 0.722932 0.503372 -0.895641 -1.872568 0.298777 -0.455476 1.029116 1.859693 -0.709931 -0.470927 -0.672265 0.005630 -0.098369 0.233037 -0.186944 0.578848 -0.842532 0.071414 -0.185155 0.913353 1.554612 -0.511162 0.091369 0.373731 1.239007 -0.699588 0.123788 -1.119759 2.000257 -1.949441 0.255179 -1.491905 0.535910 -0.268322 0.540444 0.260726 0.594107 0.555497 -0.597806 0.062620 1.288849 -0.957958 -1.197311 0.142517 -0.469396 -0.888539 -0.767756 -0.702807 -0.101331 -1.168667 0.661651 -0.522142 -0.846779 -0.431827 -0.255256 -0.587688 -0.355155 0.971830 -1.314053 0.619745 -0.193354
2217 0.098255 -0.082313 -0.365338 -0.026314 0.605794 -0.448247 -0.983578 -0.184691 -1.061021 -0.220745 -0.105542 0.158381 -0.484644 -0.634789 0.256293 0.841195 0.257306 0.364658 -0.052157 -0.053918 0.152369 0.657254 0.416043 0.854893 -0.148245 -0.152255 0.495285 -0.061057 0.781445 0.636580 0.794407 -0.065724 0.166085 -0.141135 0.150610 -0.109000 -0.113088 -0.343244 -0.067640 0.931008 0.020308 0.248244 0.097397 0.066492 -0.696274 -0.438330 0.096338 -0.803436 -0.644437 -0.336839 0.389534 -0.231555 -0.740560 0.249988 -0.426182 -0.083248 -0.274548 0.228267 0.836715 -0.231006 0.407056 0.120719 -0.203559 0.162626
59 0.144060 -0.385884 0.204236 0.480030 0.439763 -0.161184 -0.395328 -0.231015 0.090766 0.756789 0.239236 -0.025990 0.100270 -0.041530 -0.256892 -0.371586 -0.051163 0.502739 -0.216724 -0.237920 0.150459 0.280987 -0.067474 0.719830 0.816744 0.181646 0.726846 -0.602135 0.911195 -0.039973 0.594756 0.342683 -0.323218 0.047972 0.025854 0.503770 -0.055748 -0.363097 -0.738652 0.517367 -0.205367 -0.524939 -0.495343 -0.060175 0.324283 0.257824 0.440459 0.163478 -0.291514 -0.181633 0.478722 0.009022 -0.252983 0.429905 -0.296074 0.606234 -0.137039 0.327798 0.198417 -0.327429 0.612486 0.116469 -0.301474 0.120246
1087 0.044553 -0.162056 -0.197642 -0.360941 -0.002052 0.253043 -0.044892 -0.840275 -0.265410 -0.550621 1.099968 1.424720 0.198489 -0.116953 0.081859 -0.239972 0.111587 -0.497654 0.162059 -0.447865 0.728259 0.269466 0.037135 0.311137 0.177076 0.504767 0.899037 0.185360 0.397720 -0.357769 -0.006546 0.708262 0.159881 0.637155 -0.223528 0.164843 0.003396 0.422940 -0.668575 0.664837 -0.383704 0.087602 -0.128530 -0.361493 -0.096070 0.138970 0.416449 -0.269723 0.045525 0.072114 0.041877 0.005340 -0.207471 0.359104 -0.555349 0.130130 0.134231 0.556212 0.032034 -0.418884 0.534620 -1.183633 0.133797 0.036007
1083 0.207847 -0.588211 -0.283544 -0.064100 0.756117 0.302003 -0.224849 -1.092395 -0.653345 0.113119 0.702405 1.104703 -0.246090 0.195952 0.350379 0.278627 0.096799 0.364880 0.701339 0.456107 -0.776461 0.238726 -0.734898 0.631233 -0.386742 -0.244717 0.939035 0.389172 -0.848943 0.659705 -0.151214 0.990490 1.252867 1.739847 0.027425 1.286949 -0.413589 -0.420387 -0.989635 0.509653 1.144072 -0.260165 0.387283 0.292470 -1.199282 -0.029558 -0.760928 1.397811 -1.487426 0.486987 -0.139507 -0.653045 -0.895274 -0.598702 -0.931575 -0.239953 -1.646173 -0.039031 -0.495858 -1.041755 0.122726 0.471887 -0.444056 -0.121456
2329 0.039154 -0.114176 -0.665419 1.279315 0.308926 0.393799 -0.359255 0.405863 0.217238 0.179364 0.213286 0.796629 0.477753 -0.100853 -0.042932 0.987502 0.362768 -0.413341 0.789179 0.494797 -0.267224 0.019241 -0.710398 1.419178 -0.132055 0.031044 -0.780280 -0.109713 0.090014 -0.137814 0.192124 0.307757 -0.850037 -0.513725 -0.388245 0.603896 -1.502710 0.075532 -0.989434 0.401942 -0.392464 -1.839004 0.020601 -0.795768 -0.327041 -0.352429 0.975985 0.123969 -0.097445 -1.066151 -0.458857 -1.472640 -0.224397 -0.264134 -0.275687 0.202163 -0.382155 0.344574 0.157510 0.266382 -0.175476 0.562074 0.089671 -0.462780
843 0.648280 -0.543305 0.660809 -0.230705 0.453099 0.932636 0.315734 0.181530 -0.706595 0.449566 -0.165527 0.307849 -0.177660 -0.729847 0.260310 1.149138 0.768403 1.124732 -0.214928 0.597104 0.085050 -0.832727 0.164405 -0.564698 0.828115 -1.173119 0.665655 -0.120652 -0.282235 -0.204645 0.144458 0.355817 0.222466 0.671265 -0.583655 -0.403830 -1.550273 -0.277802 0.186117 1.415042 -0.746333 -0.619117 -0.379504 0.578424 -0.797615 -0.694585 0.517798 -0.486047 0.754534 -0.183008 0.495045 0.047656 -0.093091 0.400414 -0.312563 -0.287072 -0.363387 0.736242 -0.928736 0.530340 0.244180 0.205461 1.272684 0.358661
1461 -0.530707 0.215828 0.916348 -0.287118 -0.141715 0.326748 -0.087672 -0.844914 -1.828909 0.250889 0.606530 0.906287 -0.450282 -0.661911 0.103133 0.139078 0.494564 0.175139 0.034132 0.992978 0.675322 -1.213499 0.737442 0.210080 0.902953 0.662440 -0.809109 0.298462 -0.110682 -0.822815 -0.799057 0.920604 0.328344 0.266321 -0.883085 2.233901 -0.748285 0.379108 -0.949314 0.177887 0.323034 -1.684284 0.478978 0.807946 0.587550 -0.260130 -0.294903 -0.586761 -0.673695 -0.057838 -0.588359 -0.058349 -0.687032 -0.341763 -1.044293 -0.957707 -0.800480 1.177590 0.142444 -1.055213 -0.787552 -0.169052 0.866754 -1.614053
