3327 64
1422 -0.104968 0.008825 -0.182556 -0.236236 0.636183 -0.312854 -0.053779 0.028266 -0.471665 -0.141825 0.104515 0.243263 0.209937 -0.059545 0.353605 -0.003242 -0.036137 -0.036558 -0.124799 -0.113500 0.076360 -0.276424 0.472764 -0.514392 0.132650 0.693686 -0.473749 -0.261715 -0.195962 0.349007 -0.488739 0.007093 -0.222796 0.409749 -0.158574 -0.145664 -0.100135 -0.538334 -0.200374 0.198790 -0.083120 -0.061880 -0.272721 0.320925 -0.101192 0.065546 -0.174840 -0.028950 0.283641 -0.139728 -0.457454 0.168367 0.021601 0.257749 0.386360 -0.321771 -0.472648 0.139346 -0.313220 -0.173098 0.179501 -0.398772 0.142300 0.505536
582 0.519006 -0.613027 -0.340210 -0.226842 0.389570 0.347906 0.110412 0.263296 0.242852 0.987955 -0.033255 -0.041276 0.519615 0.046297 0.485419 -0.149003 -0.060199 -0.171265 -0.101522 0.285505 -0.595698 0.399628 0.433808 -0.848675 -0.146572 0.639988 -0.000001 -0.301659 -0.095879 -0.050015 0.574403 -0.432713 0.055323 -0.042750 0.153762 -0.172033 0.144332 -0.080048 0.221074 -0.482227 -0.357039 0.194213 -0.403286 -0.458056 0.300196 -0.825339 0.267378 -0.151920 0.608874 -0.072268 -0.042248 -0.345024 0.212279 0.363592 0.627073 -0.346212 0.098904 0.688483 -0.166658 0.076956 -0.401112 -0.341269 -0.044798 0.664320
1625 0.072379 0.741430 -0.177005 -0.642823 0.162449 -0.047743 0.642003 -0.329133 -0.079584 0.316230 0.234754 0.747035 0.536680 -0.429684 0.999946 -0.034864 -0.454105 0.002187 -0.313205 -0.244176 -0.086863 0.125829 0.161291 -0.050415 -0.056461 -0.157690 -0.091598 0.597704 -0.102748 -0.162250 0.033443 0.410529 -0.620928 -0.177505 -0.128852 0.141851 0.032199 0.282676 -0.233871 0.033766 -0.653332 0.201570 -0.149060 0.211935 0.372170 0.426373 0.005706 -0.347524 0.477164 -0.520713 -0.579213 -0.029565 0.383448 0.162477 -0.412770 0.316495 -0.364128 0.550133 -0.089223 -0.136233 0.220360 -0.173121 -0.633540 0.350147
1214 0.054535 -0.186404 -0.285330 0.267823 0.937091 -0.298820 0.115954 0.415504 -0.138197 -0.649358 0.169126 0.460582 0.402981 -0.452426 0.430852 -0.504544 0.152250 0.033997 -0.041829 0.043301 0.510900 -0.015709 0.755267 -0.815064 0.028915 0.314748 -0.640636 -0.503889 0.056113 -0.058261 0.062574 0.509305 -0.834871 0.566026 0.179721 -0.229651 -0.218054 0.039910 0.181210 0.476591 -0.300831 -0.046002 -0.690444 0.336624 -0.033420 -0.005183 -0.189253 -0.123927 0.316889 -0.377708 -0.034621 0.153262 -0.428262 0.053354 -0.062958 0.242737 -0.497543 -0.107630 -0.479741 -0.148950 0.157811 -0.356732 0.002005 0.350697
968 -0.522365 0.046616 -0.168863 -0.331773 0.298431 -0.299230 0.404478 -0.147060 -0.041791 -0.077367 -0.013612 0.130310 0.424342 -0.033928 0.568094 -0.253240 0.436283 0.228841 -0.259896 -0.060895 0.172278 -0.000487 0.306845 -0.294238 0.000845 0.177550 -0.647924 -0.001550 0.221180 -0.320574 0.006588 -0.137672 -0.634396 -0.020949 -0.192300 -0.564040 0.136155 -0.061261 -0.212997 -0.055321 -0.276447 -0.151164 -0.530658 0.502626 0.492206 0.231265 -0.580132 -0.371481 0.622599 -0.167835 -0.694421 0.347135 -0.018261 0.235503 0.119501 0.197583 -0.610181 0.145395 -0.276797 -0.048309 -0.045171 -0.295770 -0.040369 0.383482
1943 -0.259752 0.065884 -0.409807 -0.147631 0.346416 -0.072602 0.651316 -0.114216 -0.355681 0.250604 0.104649 0.082759 0.200711 -0.018945 0.367041 0.231784 0.062829 0.111872 0.085303 -0.068418 0.353921 -0.588605 0.551841 -0.547381 0.421921 0.715025 -0.502769 -0.058084 -0.042664 -0.408745 0.041792 0.026505 -0.192551 0.087410 -0.346723 -0.914333 -0.197588 -0.607758 -0.339822 -0.094276 0.096149 -0.080095 -0.522112 0.084150 0.265486 0.081540 -0.625184 -0.391657 0.592837 0.145284 -0.160131 0.169754 0.086692 0.013433 0.291312 -0.614982 -0.373335 0.619444 -0.310865 0.277609 0.079049 -0.539364 0.097008 0.089952
468 -0.666135 0.358235 0.580463 0.339697 -0.150626 -0.472035 0.122032 -0.359368 -0.260417 0.728051 0.639144 0.396185 0.186494 0.169297 0.635119 0.149768 0.254892 -0.116660 0.024524 0.177530 -0.029436 0.269096 -0.185395 -0.293746 -0.353991 0.292434 -0.232172 -0.427894 0.228972 0.311651 0.201512 -0.186228 -0.907421 -0.161051 0.210601 -0.292756 -0.167499 -0.180325 -0.095455 -0.049737 -0.143668 -0.247179 0.058519 0.088898 0.901216 0.554917 -0.775153 -0.538580 0.441344 -0.326342 -0.929381 0.309420 0.058122 -0.214151 -0.330179 -0.084973 -0.579548 0.071475 -0.352774 0.218548 -0.310330 -0.188966 -0.081186 0.309751
755 -0.203352 -0.222003 -0.072741 0.444179 0.356635 -0.252979 -0.024058 -0.229867 0.052460 -0.663955 -0.125095 0.426623 0.530496 -0.192615 0.296590 -0.224833 0.037612 -0.484037 -0.236094 -0.090682 -0.062198 -0.394942 0.932950 -0.640243 0.430841 0.526911 -0.269539 -0.201670 -0.339188 0.348756 -0.658135 0.070633 0.075594 0.078238 0.067338 0.109590 -0.640675 -0.468370 -0.392160 0.308468 -0.448646 0.291834 -0.591980 0.105019 0.299975 0.567646 -0.438177 -0.313278 0.594083 -0.216733 -0.192613 -0.008518 0.190016 -0.021180 0.460557 0.553063 -0.416421 0.235453 -0.421177 -0.162780 0.126379 -0.861254 -0.242447 0.241649
2782 -0.399099 -0.056944 -0.113145 0.151159 0.673663 0.249722 0.281821 0.168718 -0.187970 -0.475607 0.351864 0.667734 0.489350 -0.000085 0.480772 0.147509 0.272410 -0.159063 -0.142089 -0.076092 0.531101 -0.307725 0.567754 -0.631983 0.278667 0.082301 -0.502506 -0.571334 -0.154118 -0.404253 -0.115606 0.190869 -0.375124 0.394543 0.594831 -0.205123 -0.146709 0.062420 0.077353 0.384943 -0.627688 0.016896 -0.142858 0.022206 -0.036912 -0.538512 -0.637615 -0.013850 0.192693 -0.353326 -0.484145 0.012635 -0.678265 0.156932 0.261868 0.202349 -0.572675 -0.047413 -0.156351 -0.467348 -0.065991 -0.274071 -0.030942 0.559951
1620 -0.097364 0.377123 -0.365222 -0.008694 0.039526 0.781971 0.003882 0.459829 0.394405 0.467239 0.410885 0.169618 0.080465 -0.054099 1.175856 0.391715 0.023076 0.096882 0.141498 -0.509235 -0.478785 0.976239 0.314464 -1.252418 -0.139821 -0.073182 -0.102430 0.343226 0.270690 -0.447426 0.390139 -0.568563 -0.505942 -0.015500 0.642420 -0.086982 0.127628 -0.344492 -0.218165 0.672890 0.063620 0.003884 0.308071 0.350748 0.530642 -0.226853 -0.136550 0.105081 0.139500 0.526690 -0.311206 -0.693739 -0.711719 -0.228492 0.314031 -0.642901 0.874449 -0.234760 -0.726860 -0.152571 0.875202 -0.194248 -0.987617 -0.252549
1896 1.078162 -0.548112 0.064852 -0.074445 0.168972 0.567413 -0.034777 1.264684 0.007944 0.217214 0.277193 0.254643 -0.608026 0.392856 0.087590 0.335387 0.652119 0.137038 -0.262512 -0.040307 -0.598746 0.252055 0.093443 -0.675400 0.454199 1.396028 -0.175526 -0.004122 0.619151 0.293254 -0.205494 1.018294 0.045140 -0.162910 0.498854 0.217241 0.048867 -0.129923 0.455762 0.336422 -0.179314 -0.675435 -0.733945 0.404886 0.577571 0.571534 -0.116159 0.595150 0.526920 -0.771310 -0.365435 0.619759 -0.245618 -0.597850 -0.941895 -0.471590 1.094360 0.045851 -0.692836 -0.120777 -1.051830 0.258731 -0.504911 -0.000575
98 0.412663 0.291687 0.062443 0.056784 0.722775 -0.860136 0.947569 -0.025677 0.258338 0.394357 0.404222 0.541027 0.789041 -0.790134 1.008439 -0.150559 0.289417 -0.101772 -0.708888 0.336901 -0.704147 0.271648 0.039348 0.082567 0.041454 -0.270130 -0.528873 -0.205359 0.286238 0.862264 1.237568 0.927548 0.426075 -0.457250 0.465644 0.185398 0.060392 -0.375813 -0.764200 -0.122662 0.611519 0.172885 -0.094398 -0.287176 -0.155402 0.052777 0.372272 0.501996 0.853675 0.429947 0.315264 0.288917 -0.882995 0.254975 0.958695 -0.357135 0.290799 0.266907 -0.794812 0.900683 0.365771 0.542602 0.617672 0.431373
1429 -0.089986 0.508703 0.051724 -0.523599 0.228718 -0.544752 0.329701 0.079166 0.295025 0.132037 -0.149877 0.574457 0.359767 -0.059798 0.716919 0.226375 -0.096025 0.066381 -0.397259 -0.166352 0.194515 0.084832 -0.011586 -0.269395 -0.124826 -0.054468 -0.177311 0.366446 -0.191360 -0.320653 0.081257 0.832035 -0.352824 0.276159 0.088282 -0.501596 0.060340 0.098263 0.045833 -0.076349 -1.228992 0.022813 0.005392 -0.249599 0.708714 0.486116 -0.019120 -0.048678 0.675630 -0.366571 -0.727916 0.424894 0.365148 0.054101 -0.709879 0.106575 0.669556 0.819743 0.421402 0.012593 0.183566 -0.012710 -0.585520 0.381497
2829 -0.250734 0.072552 0.082295 0.242900 0.666281 0.412544 0.048273 0.169826 -0.222161 -0.083649 -0.157576 0.467134 0.083072 0.034837 0.606626 0.095446 0.355139 0.040417 -0.196264 0.611483 0.396407 -0.550267 0.482009 -0.535817 0.448621 0.167325 -0.723464 0.344121 -0.018882 -0.407593 -0.034374 -0.217678 -0.459094 -0.087100 -0.418325 -0.458399 0.416710 -0.432625 -0.527761 0.207934 -0.195952 0.252413 -0.661319 0.241540 0.302956 0.172875 -0.351222 -0.348168 0.367007 -0.539904 -0.621870 0.566076 -0.370990 0.619807 0.431921 -0.002953 -0.441808 0.376378 -0.040813 -0.338012 -0.073080 -0.319317 -0.090755 -0.052073
1097 -0.254508 0.587558 0.314957 0.342933 0.157640 -0.335355 0.659265 -0.077851 0.011515 0.019094 0.364784 0.892220 0.386741 -0.267270 0.513298 -0.135348 0.134388 0.079861 -0.548698 -0.133667 0.125076 0.052424 -0.367937 -0.307701 -0.152610 0.196940 -0.049460 -0.295752 0.196771 0.377964 0.077625 0.188180 -0.276199 -0.334823 0.278782 0.023426 -0.054531 -0.248632 -0.371453 0.108560 -1.200888 0.230217 -0.055839 0.062013 1.115839 0.498688 -0.395537 -0.406889 0.589326 -0.656368 -0.227627 0.065093 0.609160 0.257534 -0.582943 0.268128 -0.000178 0.149132 -0.038178 0.374550 -0.253285 -0.147662 0.017803 0.548037
3193 0.281404 0.194530 -0.208053 -0.199064 0.211576 0.510332 -0.502255 0.581011 0.395009 0.363212 0.110987 1.274414 0.042231 -0.218976 0.542393 -0.399658 0.945761 0.118560 -1.084332 -0.429391 0.003663 -0.026803 0.193728 0.251580 0.075569 -0.798032 -0.039529 -0.035088 -0.781880 0.410994 -0.831862 0.445607 -0.069645 -0.212080 0.389363 -0.165657 0.251182 0.325308 0.149847 0.437500 0.213426 -0.107344 0.540468 -0.224772 0.096045 0.492574 -0.711935 1.035443 0.880684 -0.528489 -0.602564 -0.045896 0.597024 -0.250638 0.590589 -0.408488 -0.024264 0.372190 -0.764548 -0.339925 0.265623 -0.448739 0.158785 -0.634282
2597 -0.540344 -0.166483 -0.658507 -0.240160 0.632762 -0.407121 0.494330 -0.152568 0.261021 -0.425078 0.192252 0.130961 0.689332 0.006623 0.187802 -0.107920 0.109154 -0.008879 0.306027 -0.044865 -0.253161 -0.269458 0.589084 -0.117221 -0.138037 0.784265 -0.302090 -0.366937 -0.187649 -0.708782 -0.415827 0.172139 -0.686079 -0.181158 -0.448693 -0.684324 0.012021 -0.704769 -0.249875 0.113607 0.245839 -0.401933 -0.601578 0.442488 0.458631 0.567481 -0.790146 -0.513830 1.103073 0.480713 -0.313558 -0.539749 0.089329 0.380582 0.383981 -0.590263 -0.302052 0.734662 -0.379801 0.243104 -0.011961 -0.410672 -0.014839 -0.703720
887 -0.022352 0.078248 0.086215 0.084405 0.341501 0.255170 0.389140 -0.046374 0.011913 -0.283187 0.456351 0.548474 0.428080 -0.126486 0.541888 -0.060667 -0.157698 0.068589 -0.531063 -0.324791 0.306618 -0.369721 0.255018 -0.441457 -0.092008 0.100730 -0.395241 -0.953601 -0.191681 -0.105655 -0.246709 0.280305 -0.531013 0.183394 -0.166989 -0.018511 -0.174078 0.201726 -0.213653 0.404496 -0.918981 0.398807 0.088159 -0.272621 0.763752 -0.112890 -0.333384 -0.509408 0.517781 -0.730941 -0.040826 -0.076885 -0.026639 0.061656 0.099029 0.359052 -0.490934 0.115667 -0.320990 -0.058398 0.274450 -0.709006 -0.142848 0.787662
1666 -0.118646 0.353817 -0.349761 -0.674162 0.369520 -0.196700 0.662863 0.131543 -0.318998 0.024170 -0.212820 0.141505 0.327139 -0.541073 0.720851 0.032909 -0.392030 0.184290 0.457037 0.345977 -0.233407 -0.280430 -0.147659 -0.034039 -0.093158 0.005477 -0.031329 0.586713 0.085840 -0.509484 0.487323 0.520817 -0.500880 0.083568 0.006326 -0.212895 0.218501 0.020641 0.116559 0.353222 -0.941086 0.007136 0.184899 -0.306483 0.809875 0.628159 -0.262766 0.123180 0.723096 -0.316795 -0.546391 0.477521 -0.060675 -0.172686 -0.374589 0.014640 -0.017271 0.977399 0.497484 -0.317845 0.474621 -0.361508 -0.742321 0.369640
2174 -0.178220 0.006828 0.285919 -0.043157 0.342593 -0.032738 0.507821 0.245025 0.030834 0.470275 -0.361718 0.754853 0.137522 -0.578634 1.109195 -0.512690 0.351164 -0.062169 0.032649 0.455841 -0.210623 0.501243 0.574960 0.143609 0.075415 0.304498 -0.268576 0.311551 -0.174296 0.424645 0.285428 0.175745 0.578025 -0.571363 -0.022516 0.444270 -0.168444 0.174277 -0.333540 0.126314 -0.242333 -0.059006 -0.308572 -0.199944 0.536273 -0.161300 -0.364807 0.577969 0.998137 0.996885 0.584265 0.055370 -0.178824 -0.383391 0.655240 0.144537 -0.073199 0.210962 -0.571832 0.409062 0.200387 0.206027 0.811090 0.411304
965 -0.031146 -0.206814 -0.213248 -0.189777 0.337108 0.353122 0.139316 -0.237719 -0.514057 -0.014308 0.056635 0.248206 -0.372644 0.066167 0.628987 0.511007 -0.234060 0.140368 -0.440986 0.200965 -0.176068 -0.115704 0.746868 -0.497420 0.388764 0.442063 -0.810203 0.018007 0.050915 -0.126819 0.015891 0.087143 -0.232322 -0.054471 -0.585841 -0.328892 0.117234 -0.475477 -0.394866 -0.038007 -0.080714 0.338823 -0.412793 -0.073544 0.530765 0.145657 -0.374870 -0.293605 0.532747 -0.286228 -0.238670 0.042603 0.113467 0.286783 0.730191 0.219997 -0.450605 0.498909 -0.510606 -0.007390 0.248201 -0.260229 0.225944 0.294179
1585 0.908727 -0.813032 -0.462822 0.514250 -0.516738 -0.291026 0.119810 0.781379 -0.044154 0.671638 1.727144 0.602183 0.001796 -0.735618 0.953693 0.329243 -0.115112 -0.784022 0.238844 -0.000698 -0.614142 -0.305118 -0.184888 1.016333 0.411012 0.468637 0.158043 -0.012141 0.547205 0.605368 -0.076257 0.255427 -0.763967 -0.760383 -0.421489 -0.693743 -0.673245 -0.279306 -0.587321 0.204654 0.152100 0.123038 0.341600 0.170235 0.458886 0.599077 -0.391628 0.011910 -0.150237 0.288613 0.302328 -0.018765 -0.374629 0.931053 0.428289 -0.554571 -0.639373 0.160647 0.095663 -0.187663 0.190923 0.394279 0.349477 -0.419820
450 0.098489 0.627881 0.190132 -0.105529 -0.198096 -0.414210 0.688733 -0.521145 -0.202885 0.987343 0.280365 0.223461 0.350319 0.176004 0.479521 0.961471 0.603106 0.266534 0.106893 -0.427109 -0.824929 0.422377 0.313568 0.123629 0.701193 -0.116663 -0.443218 -0.799676 -0.126620 0.113689 0.323039 0.183295 -0.384436 -0.042704 -0.352788 -0.000405 0.156183 0.115713 0.353882 0.369831 -0.538125 -0.100841 -0.484104 0.590271 0.299383 0.445989 -0.383731 -0.499443 0.375935 -0.097310 -0.351300 0.204344 -0.144518 -0.034651 -0.100496 0.343835 -1.320337 -0.031615 -0.592708 0.085628 -0.014982 0.019235 -0.861028 0.818372
622 -0.323857 0.071824 -0.427969 0.022088 0.355902 -0.314457 0.434586 -0.054189 0.163100 -0.358086 0.162630 -0.029527 0.462871 0.105524 0.261520 0.066352 0.096218 -0.049353 0.415337 -0.141051 -0.082496 -0.378172 0.785198 -0.439047 -0.076309 0.714450 -0.429906 0.120191 -0.303727 -0.335410 -0.310288 -0.011758 -0.191099 -0.314741 -0.704341 -0.893320 -0.427629 -0.666483 -0.543760 0.112021 0.014820 -0.355303 -0.447053 0.297819 0.569114 0.443332 -1.038965 -0.365679 0.919834 0.355114 -0.428943 -0.095921 0.398924 0.257646 0.336366 -0.481944 -0.378285 0.417850 -0.566237 0.636771 -0.050435 -0.258879 0.216353 -0.385218
2703 0.788742 -1.139358 -0.241234 0.076920 -0.030862 -0.173601 0.456512 0.869778 0.627349 0.249447 0.196841 0.399002 -0.046572 0.079465 0.466032 0.565091 0.462700 0.661092 -0.001692 0.126292 -0.341101 -0.394904 -0.849748 -0.396107 -0.461129 0.814823 -0.425381 0.050777 0.661491 -0.064518 -0.147041 1.026150 0.395480 -0.212014 0.169622 0.246987 -0.317269 0.300877 -0.485207 -0.021003 0.303831 -0.650385 -1.091112 0.259830 0.334254 0.126511 0.004173 -0.001620 -0.246111 -0.139475 -0.873876 0.815931 -0.522811 -0.119083 0.273200 -0.126487 0.128818 0.618273 -1.070911 0.022903 -0.661174 0.421488 -0.305693 0.250004
616 -0.264804 -0.347259 -0.224996 0.015065 0.570475 -0.426808 0.419483 -0.112668 0.070652 -0.279388 -0.219410 0.087688 0.474419 -0.031444 0.041998 -0.158582 -0.036100 -0.072814 0.164926 -0.226733 -0.039319 -0.329816 0.765495 -0.369445 0.069739 0.741149 -0.390770 -0.195261 -0.108491 -0.497951 -0.236141 -0.006577 -0.256389 -0.077875 -0.466312 -0.749222 -0.208754 -0.458985 -0.334651 -0.103409 0.080705 -0.256488 -0.777979 0.371943 0.273105 0.230700 -0.789246 -0.275109 0.765589 0.375311 -0.513737 -0.279649 0.206477 0.292352 0.547710 -0.500927 -0.536483 0.600796 -0.740954 0.120023 0.121490 -0.498477 0.079231 -0.000979
2622 -0.720254 0.091886 0.386863 -0.046302 0.282575 -0.915194 -0.002347 -0.046632 -0.243369 0.471502 0.458825 0.596527 0.219794 0.584739 0.731751 0.221408 0.052816 -0.488432 -0.139247 -0.239455 -0.367545 0.022596 0.092393 -0.252206 -0.339732 0.364062 -0.172849 -0.141556 -0.350321 0.845829 -0.074057 -0.255805 -0.248908 0.545164 -0.208481 -0.686852 0.092771 -0.734737 0.005344 0.124655 -0.349573 -0.154785 0.072257 0.158430 -0.052821 0.297611 -0.244336 -0.036928 -0.222170 -0.634245 -1.199906 0.408203 0.257054 0.070352 0.293594 -0.281183 -0.288256 0.598080 0.071075 0.259917 0.291214 -0.112919 -0.061946 0.416867
541 0.538853 -0.134187 -0.531950 -0.346067 -0.435657 0.710956 0.089965 0.389721 0.340673 0.185722 -0.570211 0.272472 0.327895 -0.673313 0.929402 0.913034 1.317849 -0.185428 -0.354199 0.055118 -0.887469 -0.415166 0.586496 0.004471 -0.995552 0.265502 -1.308215 -0.000309 0.085034 0.458608 0.821258 -0.137249 -0.653650 -0.363307 -0.309152 0.262126 0.263015 0.025675 0.303455 0.386514 -0.094853 0.037766 0.215951 -0.045139 -0.158583 -0.015885 -0.107850 0.099686 0.842373 0.483449 -0.715885 0.048248 1.031251 -0.798763 -0.670908 -0.475949 0.419673 0.044879 0.246202 0.040226 -0.043381 0.100069 -0.112699 -0.154632
637 0.074055 -0.103709 -0.216786 0.311673 -0.237575 0.474037 -0.251987 0.574685 0.188030 0.499929 -0.049325 0.138177 0.480503 0.262989 0.754673 0.089105 -0.278680 0.018829 0.119141 -0.052662 -0.789175 0.385484 0.331970 -1.408437 -0.256433 -0.130542 0.029874 0.388934 -0.021380 -0.065803 0.806856 -0.712521 -0.366795 -0.262874 0.880117 -0.567578 -0.109827 0.033348 0.087881 0.645602 -0.145879 0.492586 0.460988 0.408670 0.184464 -0.717965 -0.274863 0.310217 0.209047 -0.295949 0.937035 0.139566 -0.187985 0.348301 -0.342020 -0.993023 0.026537 0.325104 -0.938851 -0.084680 0.543610 0.002191 -0.795556 0.378910
251 0.325773 -0.719055 0.141433 0.532584 0.540261 0.017549 -0.471186 0.508216 1.019652 0.680167 -0.341686 -0.001765 0.602409 -0.175788 0.977653 -0.030478 0.584766 0.360091 -0.574970 0.108940 -0.810420 -0.197685 -0.052306 0.132527 0.149315 1.486855 0.000978 0.096224 0.182164 -0.108271 -0.102738 -0.041391 -0.171104 -1.174569 -0.282895 -0.091729 0.221114 0.293583 0.463920 0.856914 -0.481043 0.175966 0.711936 -0.208731 -0.401748 0.082250 -0.180919 -0.605269 0.177768 -0.437829 -0.136606 0.359466 0.362265 -1.602158 0.079414 -0.462760 0.253550 -0.044525 0.606102 -0.071744 0.108647 -0.324615 -0.496717 -0.532888
2596 -0.460959 0.152273 -0.002357 -0.056780 0.158936 -0.160727 0.958489 0.409324 0.297219 -0.104157 0.511177 -0.133781 0.361621 0.171870 0.270440 -0.063536 0.287567 0.145317 0.191806 -0.047755 -0.512608 -0.219188 0.393912 -0.226551 0.006959 0.321708 -0.163676 0.023254 -0.580748 -0.306207 -0.305202 0.153297 -0.517880 0.016236 -0.556322 -0.250651 0.255066 -0.482212 -0.363523 -0.024835 -0.007772 -0.298402 -1.047305 0.347626 0.424049 0.418103 -0.730641 -0.664305 0.731461 0.356572 -0.572736 -0.076287 0.133165 0.410707 0.207131 -0.424745 -0.322446 0.484539 -0.367089 0.411975 0.114157 -0.454331 0.077350 -0.667703
2828 0.318167 0.175620 -0.468548 -0.150452 0.242384 0.257467 0.188278 0.800006 -0.074168 -0.446907 -0.310712 -0.039284 0.161093 0.179746 1.012398 -0.628198 0.516822 0.782529 -0.053411 -0.523906 0.315032 -0.393946 0.582115 -0.053280 0.051294 0.517307 -0.500562 -0.300757 -0.505496 0.868905 -0.463482 -0.291413 -0.533639 0.142875 -0.347657 -0.449271 -0.060564 -0.391772 -0.215295 0.808702 -0.226566 -0.498240 -0.476178 0.101669 -0.099582 -0.268670 -0.115676 0.111274 0.483846 0.311349 -0.481420 0.195458 -0.102826 0.284121 -0.050177 -0.144492 -0.793444 -0.819090 -0.638144 -0.226032 0.040766 0.110529 -0.523059 1.166994
667 0.807931 -0.706007 -0.861464 1.458844 0.208538 0.501775 0.204969 0.907763 -0.157398 0.576593 -0.333171 0.737551 -0.217779 -0.354960 0.273171 -0.198434 1.276181 -0.414994 -0.023541 -1.235366 -0.083990 -0.019881 -0.252319 0.767761 0.478265 0.268857 0.798179 -0.089270 0.758432 0.435539 0.747093 -0.052700 -0.848403 -0.444856 0.311444 -0.981527 -0.042228 0.826477 -0.446024 -0.015039 -0.168984 0.245318 -0.894919 -0.151652 0.605843 0.977621 -0.531594 -0.201593 1.028661 -0.100309 -0.209739 0.380222 -1.614507 0.788410 0.099815 -0.048406 -0.283065 1.189001 0.479120 -0.486941 0.315268 -0.076423 -0.003910 0.063024
83 -0.460981 -0.407140 -0.849920 0.864921 0.712688 -0.213191 -0.191008 0.073388 -0.138314 0.079856 0.473493 0.543166 -0.055133 0.787685 -0.018053 -0.643419 0.476967 -0.954478 -0.569778 0.076539 -1.205483 -0.223988 0.219111 -0.503097 -0.446733 0.199093 -0.447080 0.463170 0.585673 -0.294260 -0.005557 -0.192896 -0.698603 0.419496 -0.106364 -0.149989 0.444579 -0.103986 -0.452771 0.032163 0.336104 -0.011518 0.295053 -0.847964 0.191893 -0.692032 0.262754 -0.289748 0.925875 0.842182 0.302906 0.274814 0.448097 0.093563 0.746902 -0.359331 -0.365218 -0.390417 -0.187065 -0.043387 0.062387 0.202916 -1.153759 0.333726
2867 -0.111719 0.001800 -0.718874 0.649163 0.362402 0.120192 0.464861 0.198364 1.591667 0.258155 0.349591 0.170925 0.280583 0.278873 0.660760 0.255615 -0.255159 -0.131571 0.457367 0.443874 -1.024583 -0.531775 0.810799 -0.418772 -0.755554 0.179931 -0.325563 0.308401 -0.399337 0.793059 0.470441 -0.345341 0.685728 0.711456 0.345270 -0.229385 -1.178471 0.187467 -0.566300 0.204829 -0.422941 -0.444746 -0.483131 0.183474 -0.619468 0.831532 0.454882 -0.777470 0.683418 0.021636 -0.440222 -0.070995 -0.303057 -0.252984 0.031369 -0.675353 0.423803 -0.654039 1.058873 -0.175846 0.216412 -0.607243 -0.711523 -0.108957
624 -0.103068 -0.235897 -0.117783 0.677269 0.445654 0.280339 0.793811 1.204764 1.076132 0.584908 0.906780 -0.084924 0.514706 0.124349 0.532948 0.638515 -0.476110 -0.302752 -0.751957 -0.065970 -0.308641 0.470343 -0.245772 -0.450560 0.886637 0.178546 0.657816 0.094396 0.624909 0.756289 0.334136 -0.572574 -0.163518 -0.622400 -0.055753 -0.901867 0.640871 -0.105410 0.307136 -0.408979 -0.142777 -1.205141 0.719857 -0.682403 -0.494892 -0.014495 -0.356422 -0.222324 1.151935 -0.084076 0.045678 -0.202642 0.198463 0.247025 0.390646 -0.803260 0.521203 0.309224 -0.247838 0.325985 0.307317 -0.616312 -0.329529 1.345376
2633 -1.012245 0.042400 0.509430 -0.313583 0.159693 -0.617653 0.085896 0.083981 0.419903 0.368639 -0.213302 0.289921 0.380970 -0.716940 0.724894 -0.056691 0.329301 -0.152057 -0.240500 -0.298651 -0.097104 -0.343009 0.266463 0.102355 0.084680 -0.115339 -0.171926 0.123045 -0.200331 -0.472737 -0.112539 0.084240 -0.733313 0.176796 0.032444 -0.444861 0.003388 -0.497444 0.125700 -0.126823 -0.181919 -0.889998 -0.129984 0.112249 0.837212 0.116746 -0.770946 -0.442829 0.448306 0.056239 -1.136057 0.721270 -0.581053 0.019512 -0.335762 -0.048389 -0.664673 0.499871 -0.142283 0.296782 -0.126662 -0.028202 -0.267436 0.198455
1708 -0.482381 0.472661 -0.047059 0.045512 0.095365 -0.410884 0.286511 0.357443 -0.184005 -0.069913 -0.035645 -0.041721 0.466340 -0.218569 0.290138 0.230888 -0.020448 0.082376 0.449860 0.023622 -0.143008 -0.326853 0.751615 -0.103803 -0.344525 0.393634 -0.042391 0.193747 -0.341025 -0.264863 -0.434455 0.311251 0.062963 -0.019927 -0.298040 -0.820749 0.148718 -0.432266 -0.503641 -0.250404 0.009322 -0.574242 -0.712975 0.602157 0.490891 0.142493 -1.128047 -0.139119 0.484655 0.631344 -0.298260 0.053515 0.365037 0.531812 0.654408 -0.559114 -0.320362 0.713970 -0.698637 0.286015 0.061203 -0.340371 -0.320089 -0.270647
2264 -0.374280 0.827001 -0.465924 0.196569 0.653374 0.623779 0.886391 0.135375 0.587086 0.057792 0.262676 0.658675 -0.335638 -0.632408 0.139450 0.228691 0.184894 0.882102 -0.081778 -0.195610 -0.321796 -0.410161 0.983921 -0.094945 -0.656099 -0.510489 -0.405574 0.169257 -0.704318 0.403953 -0.241723 0.927405 -1.042490 -0.378862 -0.771035 0.113069 -1.237988 0.226133 -0.976248 0.443815 -0.083174 -0.151967 -0.118531 -0.661507 0.464116 0.289356 0.070250 -0.368950 0.291912 -0.337457 0.021222 0.876611 -0.203318 -0.053042 0.090291 -0.410798 0.301985 -0.377346 -0.058564 0.127798 0.247251 -0.889180 -0.403067 0.120973
2861 0.403093 0.019219 0.572427 -0.137430 0.658959 -0.115080 0.089010 0.094462 -0.313829 0.098752 0.022890 0.598396 -0.403444 -0.185875 1.048912 0.097873 0.526034 -0.304179 -0.221441 0.401880 -0.347249 0.625836 0.471459 -0.047790 -0.199752 0.670396 -0.235992 0.678030 0.172646 -0.175537 -0.006119 0.361852 0.377594 -0.900916 -0.562227 0.159285 -0.428892 0.952655 -0.467690 0.255355 -0.060786 -0.155284 -0.238437 0.279599 -0.019821 -0.143250 -0.761182 0.295684 1.404194 0.465044 0.536884 0.151052 -0.613134 -0.006039 0.766243 -0.363044 -0.137300 0.108946 0.252854 -0.040980 0.159186 0.476547 0.702388 0.342485
314 -0.194469 0.074609 -0.451719 -0.048539 0.643429 -0.360256 0.458031 0.094918 -0.053673 -0.271479 0.015516 0.032320 0.527259 -0.061440 0.084622 -0.070938 -0.019736 0.061122 0.311794 -0.228157 0.031266 -0.376370 0.582752 -0.340731 0.044369 0.653219 -0.532078 -0.105349 -0.295211 -0.288693 -0.394548 0.078517 -0.209881 -0.094100 -0.484685 -0.724966 -0.254476 -0.707109 -0.670332 0.066269 0.161826 -0.362381 -0.851826 0.366433 0.192880 0.318033 -0.760987 -0.200758 0.894944 0.332760 -0.610646 -0.125108 0.426879 0.276932 0.418961 -0.521475 -0.411699 0.389433 -0.676629 0.418943 0.045797 -0.470391 -0.021670 -0.210343
2646 -0.264929 -0.721955 -0.239748 0.725457 -0.566468 -0.679767 0.133045 0.917309 0.455694 -0.008857 0.090867 -0.543133 0.468409 0.944845 1.133758 -0.636582 0.073690 -0.220487 -0.976067 0.352341 -1.364863 -0.271128 1.077132 -0.225730 0.204096 -0.068339 -0.750335 0.269494 0.434370 -0.114934 -0.686411 0.004492 -0.552177 -0.638704 0.216650 0.628357 0.108544 0.046780 0.490221 0.261779 0.416548 -0.155541 -0.488654 -0.693953 1.009083 -0.195566 0.105821 0.152690 0.178720 0.534095 0.390152 0.832900 0.399828 -0.052178 0.638477 -1.137905 0.070624 -0.255767 0.105013 1.053559 0.899626 0.712358 -0.726964 1.078015
2269 0.618726 -0.159266 -0.390701 -0.210339 0.063938 0.320546 0.156316 0.329231 0.514943 0.366909 -0.205942 -0.359262 0.779621 -0.390833 0.252914 0.436663 1.168435 0.021741 -0.360636 0.174384 -1.096602 0.212092 0.273504 -0.062581 -0.250695 0.452865 -0.960260 -0.056879 0.291314 0.140523 0.616849 -0.367035 -0.643497 -0.916784 -0.198823 0.105641 -0.044621 -0.136314 0.747656 0.443183 -0.571223 0.270666 0.359183 0.159864 -0.044303 -0.136220 -0.308732 -0.320244 0.769981 -0.044141 -0.935014 0.472394 0.712580 -1.470099 -0.359845 -0.467251 0.383169 0.326801 0.214929 -0.568975 -0.222069 -0.264060 -0.216882 -0.055299
2899 -0.275850 -0.441109 -0.475790 -0.347911 0.520079 0.888809 -0.102817 -0.069297 -0.197421 0.062749 0.646609 0.172526 1.012102 -0.844836 0.695677 -0.720676 0.274600 -0.147601 -0.513598 0.058581 -0.335434 0.220323 0.256843 -0.985603 1.066304 0.522741 0.336714 -0.622365 0.259922 -0.116927 -0.748585 -0.470738 -0.155977 0.288311 -0.926791 0.144249 -0.116849 0.343698 -0.046425 1.254748 -0.353620 0.984312 -0.351332 0.003210 0.661187 0.403030 -0.219730 0.640675 0.334405 0.560658 -0.122021 -0.445368 0.499580 -0.643209 -0.458153 -0.294405 0.375383 -0.374065 -0.792501 -0.252506 -0.016147 -0.146935 -0.475500 -0.140863
1251 -0.004942 0.399312 0.193259 -0.029339 0.137219 -0.758543 0.113209 -0.530671 -0.774332 0.502982 0.672890 0.541270 -0.275539 0.237559 0.949760 0.355608 0.237035 -0.510492 0.075037 -0.180769 -0.334596 -0.067703 0.249803 -0.244751 -0.165261 0.288855 -0.455043 -0.080475 0.159741 0.680783 -0.280911 -0.500615 -0.392554 0.601670 0.318094 -0.080438 0.281942 -0.214244 -0.006830 0.321586 0.079378 -0.084089 -0.142199 0.085144 -0.141591 0.319924 -0.242986 -0.107414 -0.047286 -0.189418 -1.131850 0.200992 0.430419 -0.434032 -0.331794 -0.364368 -0.698498 0.593113 0.124240 -0.322949 -0.121763 -0.251931 -0.362438 0.674619
170 0.682363 -0.576486 -0.752323 0.706655 0.099852 0.006012 -0.179729 -0.051409 1.457736 -0.345347 0.253382 0.640724 0.087776 -0.678448 -0.612445 -0.099077 -0.085438 0.360281 0.227140 0.951761 -0.865462 -0.036661 0.205700 -0.222429 -0.230435 0.360445 -0.347456 -0.412573 0.914319 0.353188 0.306487 1.879476 -0.578205 -0.057638 -0.716285 -0.111473 -0.958910 0.124629 -0.265057 1.359830 0.319811 0.763935 -0.520183 -0.119964 0.176190 -0.670528 -0.019992 0.462561 0.914147 -1.342852 -1.007575 0.099882 0.579089 0.620316 0.579199 -0.114097 -0.249143 0.411906 -0.570491 -0.054798 -0.194866 1.634270 -0.584700 0.037708
1447 -0.171072 -1.027789 -0.618465 0.171502 0.425209 0.337695 0.918556 0.654611 0.598503 0.375001 0.775826 0.262942 -0.005600 0.294477 1.191772 -0.632504 0.040138 0.459888 -0.786098 0.383891 -1.061162 0.328018 0.063778 -0.594066 -0.413741 -0.160338 -1.494782 0.586883 -0.354912 0.564665 0.566624 -0.057563 -0.496934 -0.097188 0.924292 0.295374 0.786705 0.523302 -0.128438 -0.934403 0.050560 -0.696022 -1.022057 -0.205496 -0.675048 1.727161 -0.551267 0.481581 -0.580005 0.394495 0.254515 -0.672286 0.688867 -0.101532 -0.859995 -1.241234 -0.472340 0.976893 0.650529 0.235839 -0.031985 -0.316686 -1.943930 0.611666
3274 0.412762 -0.285850 -0.427957 -0.120802 -0.171750 0.479030 -0.259059 -0.039456 0.532881 0.498483 -0.016127 0.083497 0.717419 -0.493955 0.499567 0.400357 1.205806 0.077176 -0.573229 -0.127611 -1.011326 0.024541 0.581624 -0.055262 -0.820250 0.425623 -0.934405 -0.018485 0.210941 0.200701 0.908298 -0.602830 -0.418338 -0.918303 0.182595 0.461824 0.445487 -0.420227 1.062041 0.159255 -0.472333 -0.075413 0.038414 -0.009632 -0.286865 -0.226466 -0.604565 -0.024930 0.948050 0.255867 -1.044441 -0.007622 0.795258 -1.172333 0.131278 -0.366456 0.383320 -0.192677 0.150559 -0.386360 -0.488370 -0.480175 0.104860 0.199747
3080 -0.027346 -0.515697 -0.482799 0.308459 0.800341 -0.270997 0.455935 0.098368 0.231200 -0.300150 -0.669576 0.365695 -0.572572 -0.163113 0.504188 0.277139 1.185623 0.035592 0.242533 -0.208348 -1.140314 -0.148777 0.048499 -0.262726 -0.715753 0.158895 -0.242203 -0.904217 0.258667 -0.233130 -0.305398 -0.878607 -0.526583 0.773596 0.384039 0.453267 0.075465 -0.452014 -0.834108 -0.136495 0.295278 -0.237199 0.650406 -0.253982 0.474431 0.360018 -0.440320 0.453148 -0.186690 -0.386053 -0.248559 0.214435 -0.015194 0.284648 0.193897 -0.442058 -0.130182 0.149468 0.119626 -0.011292 0.742216 -0.327107 -1.665926 -0.322868
1013 -0.444294 -0.256053 -0.226394 0.021373 0.591140 -0.497008 0.421351 -0.129630 -0.094987 -0.241790 -0.201920 -0.014336 0.484021 -0.089952 0.102214 -0.236287 -0.108960 -0.125815 -0.166868 -0.332680 -0.026534 -0.447281 0.637728 -0.166332 0.227852 0.504217 -0.537069 -0.115472 -0.166250 -0.054269 -0.335020 -0.058290 -0.210221 -0.167632 -0.410582 -0.635863 -0.316799 -0.593157 -0.612393 0.177943 0.120753 -0.323031 -0.591316 0.185393 0.384663 0.225760 -0.737181 -0.438785 0.858272 0.150411 -0.605337 -0.211049 0.264786 0.227501 0.401454 -0.259256 -0.586430 0.481190 -0.732015 0.330046 -0.101960 -0.490171 -0.022143 -0.076110
303 -0.076825 0.398910 -0.238118 0.723580 0.704584 -0.513938 0.260797 0.621601 0.285645 -0.353482 -0.226884 0.449959 0.835618 -0.411624 0.127474 0.339633 0.227955 -0.604438 -0.038825 -0.246810 0.397266 -0.087187 2.017658 -0.484722 -0.187994 0.665910 -0.284846 -0.071302 -0.301392 0.103834 -0.519428 0.322270 0.277742 0.669033 -0.425314 -0.250669 -0.457645 0.047199 0.005165 0.108323 -0.200004 -0.041583 -0.896584 0.581079 -0.013715 0.231029 0.072842 0.922058 0.250330 0.515090 -0.589628 -0.491785 -0.489806 0.080222 0.223305 0.438988 -0.559235 0.050238 -0.826727 0.164899 0.434880 -0.464818 -0.249186 -0.081026
1484 -0.718169 0.164041 -0.197571 0.737044 0.344469 0.899611 -0.602692 0.865809 -0.582455 0.813835 0.382585 0.341361 -0.067714 -1.062222 -0.432770 -0.345557 0.683539 -0.589411 0.009087 0.415844 -1.148580 -0.414993 -0.029380 0.363937 -0.338502 0.576157 0.256643 -0.168891 0.464063 0.748735 0.654042 0.388656 -0.279072 -0.165799 0.426517 -1.501851 -0.085651 1.394539 0.755629 0.244531 -0.587568 0.306079 -0.389572 -0.120344 0.944787 1.013487 -0.706932 0.899300 0.736098 0.081383 -0.212163 0.063585 -1.055577 0.508349 1.094988 0.061162 0.016837 0.078651 -0.189234 0.471463 1.770522 -0.336748 -0.698323 -0.020217
16 -0.249864 0.008572 -0.224377 -0.184720 0.890935 -0.404096 0.538449 -0.334498 -0.172041 -0.183211 -0.123989 -0.024527 0.400158 -0.043677 0.227712 -0.047320 -0.182858 -0.106374 0.282028 -0.236531 0.042506 -0.469269 0.725885 -0.220016 0.000377 0.635449 -0.557770 -0.020325 -0.051817 -0.128680 -0.225054 -0.219238 -0.286202 -0.123901 -0.498741 -0.853691 -0.426465 -0.437325 -0.308608 0.200978 0.033483 -0.492856 -0.513131 0.264726 0.265330 0.390896 -0.768389 -0.412763 1.157945 0.401350 -0.652307 -0.289118 0.542280 0.475420 0.394083 -0.517380 -0.346265 0.294003 -0.662621 0.313503 0.343228 -0.229570 -0.011802 -0.270534
2925 0.145936 -0.069972 0.444625 0.057092 0.684452 0.201955 -0.172124 0.073672 -0.055913 -0.129798 -0.578941 0.182851 0.222041 -0.158418 0.753805 -0.158393 0.885883 -0.003514 -0.314469 0.583833 0.152950 -0.848672 0.293409 -0.623581 0.477218 0.126431 -0.725134 0.662508 -0.233843 -0.215439 -0.010066 -0.542156 -0.127878 -0.023118 -0.576083 -0.215554 0.044608 -0.101324 -0.723371 0.185896 -0.062629 0.735233 -0.487745 0.204256 0.236294 0.090774 -0.671690 -0.184516 0.491679 -0.285108 -0.309572 -0.047876 -0.304666 0.531422 0.832879 -0.012311 -0.114343 0.501526 -0.318855 -0.372241 -0.662300 -0.424399 -0.470144 0.469909
1605 -0.302292 0.063503 -0.272527 0.049973 0.349153 -0.562671 0.640261 0.106798 0.067688 -0.376152 0.143222 -0.017576 0.492137 -0.108701 0.036000 0.186045 -0.171375 -0.062546 0.133349 0.013231 -0.297015 -0.417105 0.734573 -0.400386 0.163270 0.639970 -0.253161 0.076828 -0.429262 -0.462708 -0.172726 -0.099312 -0.112832 -0.173159 -0.379628 -0.905594 -0.190577 -0.780924 -0.769168 -0.079370 -0.018465 -0.228273 -0.840839 0.365811 0.404302 0.058301 -0.894579 -0.162141 0.784911 0.541150 -0.733918 -0.127627 0.308519 0.267238 0.548656 -0.531636 -0.091395 0.596014 -0.605353 0.464799 0.196573 -0.463323 -0.090477 -0.538994
254 -0.053312 -0.088614 -0.756338 0.671459 0.977069 0.548216 -0.012115 0.005805 -0.183889 -0.092421 0.360394 1.302664 0.704113 0.345628 0.001525 0.786051 -0.104410 0.107741 -0.470369 0.166148 0.262124 0.248645 0.003999 -0.415338 0.580839 -0.505569 -0.606974 -0.670066 0.313569 -0.582275 0.036999 0.080655 0.272626 0.600354 0.394958 0.127113 -0.670429 0.278485 0.086156 -0.033226 -0.950750 -0.144788 -0.013435 -0.711778 0.282419 -0.213787 -0.906212 0.431308 0.184088 0.008573 -0.675042 0.264432 -0.831488 -0.128392 0.942803 0.282458 -0.545637 0.117554 -0.310350 0.102756 -0.363214 0.083262 -0.489363 0.055100
1822 0.057218 0.246024 -0.314380 0.573426 0.610919 0.263787 -0.433863 -0.127614 0.660854 0.005789 0.396529 0.761947 -0.220117 0.171611 1.142345 0.212602 0.906106 0.584713 -1.095520 -0.146872 -0.007341 0.763657 -0.035279 -0.117340 -0.102329 -0.255245 -0.449945 -0.036810 -0.259271 0.253609 -0.237700 -0.397378 0.570391 0.621894 0.476354 0.072454 -0.575325 -0.373787 0.401671 -0.073369 -0.566223 0.303870 0.317388 -1.182089 0.675976 0.161354 -1.148413 1.264355 0.676201 0.428526 -0.633941 0.545443 0.077991 0.154277 0.597905 -0.221577 -0.469897 -0.306617 -0.419455 -0.951601 -0.233498 -0.273817 0.652042 -0.441156
2342 -0.251948 -0.417896 -0.726715 0.557342 0.569063 0.711551 -0.078971 -0.047854 0.171049 0.463252 0.516739 -0.141746 0.705460 -0.075823 -0.016531 0.379109 -0.100188 -0.404828 0.438187 0.134155 -0.997106 -0.626096 0.815737 -0.159967 0.017049 0.625843 0.034474 0.578190 0.128969 0.677346 0.280314 0.972816 0.117231 -0.621999 0.310531 -0.164745 0.348813 1.525319 -1.130303 0.334912 -0.231703 -0.300645 0.107934 -0.154487 -0.223261 -0.278438 -1.425750 0.418043 -0.326220 -1.261478 -0.351279 0.426966 0.543782 0.116210 -0.691225 -0.209790 -0.608490 -0.296428 -0.599234 -0.150676 0.847568 -0.187552 -0.253344 0.193265
2404 -0.533918 0.946918 -0.114652 0.188653 0.905838 0.719264 0.744964 -0.150806 0.501389 -0.048884 0.437470 0.738502 -0.002769 -0.147030 0.489371 0.188264 -0.126775 0.696778 -0.831564 -0.555994 -0.177870 -0.377726 0.366539 -0.106190 -0.516501 -0.325532 -0.140730 -0.277592 -0.231448 0.142445 0.031047 0.277996 -0.907459 -0.083913 -0.185547 0.155681 -0.756492 0.198325 -0.671658 0.648980 -0.535086 0.550836 0.010023 -0.342151 0.477612 0.238588 0.008967 -0.554988 0.407849 -0.491881 0.248093 0.479865 0.135839 0.116568 -0.115947 -0.211201 -0.055294 -0.064430 -0.587329 0.320272 0.155702 -0.451880 0.083556 0.387150
2519 -0.148071 0.275444 0.337549 -0.074313 -0.001205 -0.579197 -0.009445 -0.682976 0.203115 1.102373 0.087054 0.145269 0.520681 0.180316 0.654615 0.562039 0.700974 -0.385732 -0.034796 -0.191588 -0.488834 0.642161 0.462851 0.181250 0.295796 -0.174385 -0.359773 -0.521126 -0.114983 0.109858 0.754987 0.338655 -0.679473 0.334863 -0.477985 0.460217 -0.124738 0.190311 0.246019 0.279115 -0.334492 -0.406887 -0.388630 0.734041 0.767381 1.133914 -0.798476 -0.340028 0.410990 0.067998 -0.609781 0.360833 -0.352682 -0.240638 -0.284246 0.701664 0.016312 0.114610 -0.929620 -0.185132 -0.270187 0.066211 -0.435040 0.918189
1112 -0.361748 -0.155569 -0.208585 -0.391765 0.581165 0.058654 0.261432 0.053903 -0.552075 0.122072 0.413760 0.600028 -0.021676 0.225268 0.109614 0.380165 -0.248182 0.031288 -0.542526 -0.030354 -0.258391 -0.122022 0.475522 -0.356676 0.054917 0.184659 -0.476809 -0.384354 -0.545171 0.472515 -0.083663 0.582799 -0.283677 0.005165 -0.544687 -0.031465 -0.476318 -0.163380 0.013894 0.507761 -0.161662 0.620328 0.259515 -0.172185 0.837587 0.572668 -0.170039 -0.338399 0.515214 -0.711240 0.127602 0.461227 0.146543 0.397144 0.351957 0.487975 -0.198574 0.524807 -0.279993 0.292884 0.572792 -0.047248 -0.142078 0.886725
1992 1.122432 -0.247777 -0.601921 0.258192 1.502826 0.050200 -0.192873 -0.004848 -0.847996 0.286839 0.894320 0.449536 0.758818 0.088333 0.279208 0.415121 0.975346 -0.892066 0.373357 0.213880 -0.618577 0.544520 0.336084 0.594656 0.234827 -0.442590 -0.609021 0.166702 -0.010834 0.534513 0.031908 -0.514662 -0.135847 0.667875 -0.113297 -0.004196 0.329851 0.535207 -0.270149 -0.352320 -0.355334 -0.377247 -0.369458 -0.103702 0.508200 -0.386196 0.176930 0.650876 0.359027 0.409210 -0.195826 0.512897 0.401524 0.045880 0.373915 0.292184 -0.465524 -0.271816 -0.133459 0.090705 0.096832 0.931174 -0.907761 -0.379927
1034 0.056648 0.147780 -0.202464 0.046369 0.585021 0.128703 -0.023612 0.681700 -0.439793 -0.338578 -0.069436 0.365174 0.475744 -0.576804 0.675671 -0.158691 0.375035 0.092170 0.050688 0.165767 0.483972 -0.825817 0.688050 -0.288248 0.555862 -0.062819 -0.730919 -0.370467 -0.192876 -0.167485 -0.016297 0.071772 -0.437278 0.481893 -0.368347 0.034691 0.069271 0.132530 -0.378303 0.768630 -0.584422 -0.091387 -0.191680 0.355774 0.406913 -0.282402 -0.199168 -0.340659 -0.073391 -0.180115 -0.106296 -0.234489 -0.787471 0.101479 0.381802 0.073625 -0.490093 0.160113 -0.334334 -0.334885 -0.213625 -0.712017 -0.538264 0.754811
2316 -0.064515 -0.397651 -0.212098 0.469247 -0.127880 0.058990 0.343758 0.543547 0.041959 0.275233 0.152982 -0.018607 0.658582 0.750093 0.268355 -0.319572 0.051545 -0.376082 -0.648387 0.029529 -0.824837 0.083922 0.358456 -0.994458 -0.462118 -0.233326 -0.420976 0.248004 -0.378384 0.202958 0.442930 0.115883 -0.546786 0.464381 -0.072567 -0.410276 0.359634 0.255325 0.291490 -0.335642 0.313281 -0.073586 0.321022 -0.732693 0.128656 0.071385 -0.442650 -0.043714 0.712395 0.297955 0.887913 0.714487 0.786267 -0.082002 0.609480 -0.539629 -0.395370 0.126060 0.088754 0.154900 -0.338641 -0.244753 -1.459728 0.317984
28 0.158227 -0.467778 -0.821469 0.054856 0.331347 0.433150 0.865195 0.159638 0.213287 0.506559 0.379508 0.125665 0.371885 1.124036 0.453222 -0.208134 0.216736 -0.169936 -0.795760 0.184311 -0.780340 -0.019556 0.700041 -0.558935 -0.550783 -0.509039 -0.709712 0.408092 -0.000033 0.208548 0.506030 -0.255065 -0.216941 -0.130633 0.316600 -0.204162 0.941057 0.667607 0.447523 -0.134817 0.593830 0.206415 -0.391191 -0.121397 -0.470494 0.684150 -0.412959 0.368619 0.645809 -0.104667 0.756386 0.324127 0.925300 0.267310 -0.466166 -1.086385 -0.641322 1.168577 0.318862 0.499846 -0.435853 -0.865413 -1.644433 0.475130
2063 -0.199288 -0.112596 -0.152523 0.157295 0.516004 0.557252 -0.309311 0.083081 -0.174128 0.601697 0.283826 0.386892 -0.308850 -0.719611 -0.323307 0.571860 0.496914 -0.231903 0.080268 0.720845 -1.206633 -0.363619 -0.062974 -0.375579 0.104041 0.471107 0.229000 0.047109 -0.107835 0.952039 0.717463 -0.141876 -0.192291 -0.226344 0.205108 -0.638094 -0.088025 0.785873 0.517872 0.053713 -0.400399 0.152069 -0.107707 0.058434 0.359787 0.485934 -1.004057 0.478878 0.260547 0.171078 -0.334826 -0.121690 -0.707392 0.576455 0.780220 0.296188 -0.209800 0.339786 -0.400002 0.694911 1.479421 -1.020576 -0.564664 -0.250461
709 -0.329554 -0.145887 0.514376 -0.328796 0.021619 -0.036564 0.611488 0.478514 0.073737 0.362608 0.548659 1.011272 0.069116 -0.446079 0.814675 -0.776549 0.031641 0.238276 0.177814 0.772078 -0.548063 0.780672 0.897540 0.420308 -0.071708 0.553463 -0.556567 0.127313 0.327131 0.296262 -0.426290 0.443064 0.256961 -0.809466 0.080076 -0.220881 -0.206896 0.705605 -0.110384 0.454691 0.144485 -0.834286 0.050787 -0.056868 0.237861 -0.052752 -0.401836 0.703826 0.324333 0.799421 0.748532 0.330358 -0.046401 -0.157811 0.176706 -0.099886 -0.111177 -0.171297 -1.011269 0.505776 -0.215469 -0.261102 0.542759 0.530227
453 0.176851 -0.314182 0.411766 -0.126856 0.666851 -0.357540 -0.049881 0.211989 0.155964 -0.520645 0.250207 0.803451 0.521835 -0.308869 0.125576 -0.572571 -0.072521 -1.001161 -0.117156 -0.135358 0.007849 -0.032133 0.810821 -0.679392 0.551940 0.315721 -0.959342 -0.310536 -0.418763 0.322024 -0.432833 0.511878 0.201668 0.412019 0.571235 -0.048055 -0.327428 -0.173857 -0.178057 0.373345 -0.583102 0.590273 -0.609442 0.162189 -0.590269 -0.023685 -0.085440 0.088444 0.706578 0.020217 -0.422233 -0.396548 -0.590347 0.077213 -0.350446 -0.724579 -0.434962 -0.126789 -0.604067 -0.286215 0.374239 -0.263005 0.050244 0.480672
482 -0.239669 -0.037612 0.482682 0.233229 1.390871 0.101005 -0.520381 1.025751 1.474220 0.987505 0.407659 -0.182260 -0.013451 0.733515 0.620566 -0.431930 -0.176865 0.031539 -0.478927 -0.850825 0.156734 -0.079813 -0.007676 -0.195973 0.054666 0.517058 -1.068326 -0.325489 -1.318824 -0.466163 0.698998 0.300229 -0.759659 -0.969792 0.072277 -1.641458 0.392061 -0.146256 -0.282035 0.145885 -0.003026 -0.084641 0.050448 -0.636433 -0.648665 0.596698 0.528462 0.810065 0.683310 0.014158 0.157583 0.224126 0.613275 0.636219 -0.295190 -0.292649 0.351239 0.376825 -0.724994 0.080101 0.543917 -0.198035 -1.053600 -0.476424
12 0.077208 0.453965 -0.049276 -0.264622 -0.162927 -0.475038 -0.006713 0.276280 0.464704 -0.221739 0.671750 0.901974 0.193972 0.057729 0.307306 -0.012316 -0.338956 -0.175686 0.094244 1.257177 -0.739090 -0.561082 0.691112 -0.707281 -0.373817 -0.067114 -0.325738 -0.240591 -0.498255 0.361330 0.566874 -0.222997 0.527569 -0.308927 -0.630103 -0.335382 0.073762 0.725546 -0.232239 0.570791 -0.510660 -0.215334 -0.089281 0.152469 -0.144174 1.483877 -0.733961 -0.606384 0.477646 -0.659275 0.076454 0.674896 -0.527991 0.341024 -0.958394 -0.548525 -0.181633 -1.264131 -0.197715 -0.334719 -0.632953 0.087895 -0.804971 0.430730
690 -0.629390 -0.060700 -0.242208 0.850437 1.442367 0.066333 0.286335 0.239556 -0.620427 -0.573428 0.228084 2.176815 -0.170418 -0.337948 0.199220 0.673168 -1.188426 0.172730 -0.480502 0.322723 -0.134793 -0.230748 -0.203283 -0.628853 -1.138466 -0.696349 -0.713157 -0.614017 0.599916 0.093378 0.166779 0.254307 0.912522 -0.442228 -1.264193 -1.367122 -0.830626 -0.074885 0.686500 -0.912905 -0.513467 -0.504410 0.059623 0.155684 -0.329108 0.291406 0.165667 0.293252 0.551720 0.058121 -0.402742 -0.143605 -1.353837 -1.340120 0.179720 -1.348783 -0.655517 0.566717 -0.236250 -0.003287 0.295024 0.111775 -1.073694 0.736736
2418 -0.441180 0.211862 -0.490203 -0.195444 0.541618 -0.393700 0.269525 0.265852 -0.096368 -0.146095 -0.107760 0.122849 0.485538 0.132409 -0.009149 0.235013 -0.346486 -0.191210 0.407638 -0.010634 -0.139398 -0.339509 0.727212 0.284397 -0.115022 0.660175 -0.217424 -0.048942 -0.323700 -0.626646 -0.106590 0.000192 -0.512165 -0.428260 -0.313015 -0.945296 -0.810236 -0.726941 -0.482548 0.014823 -0.055768 -0.796247 -0.587565 0.430765 0.453283 0.306590 -1.023239 -0.068242 0.994435 0.222406 -0.247694 -0.067440 0.559515 0.144335 0.438620 -0.593964 -0.415929 0.421845 -0.639392 0.342676 -0.031201 -0.512743 -0.114252 -0.457386
3241 -0.619822 -0.520003 0.119289 -0.669940 1.211271 -0.202495 -0.977182 1.110744 0.837866 0.366516 -0.191624 0.254227 -0.552740 -0.194899 1.104551 0.200463 -0.177584 0.106106 0.885048 0.478700 -0.860530 0.726116 1.232466 -0.615332 -0.180840 -0.565834 -0.751350 0.007392 -0.449944 0.676690 -0.318033 1.480130 0.557696 -0.680099 0.110923 -0.645999 -1.387846 -0.266128 0.192276 -0.710600 -0.439896 -1.089221 -0.216883 0.271754 -0.002730 -0.076339 -1.013134 0.583506 0.629953 0.670763 -0.249641 -0.268330 -1.347025 -1.080217 0.063523 -0.506701 -1.234388 1.570158 0.427375 -0.126773 -0.820485 1.024444 -0.462085 -0.271539
2361 -0.631090 0.439242 0.062759 -0.222461 -0.354361 -0.339043 0.822933 0.774377 -0.058246 0.264027 0.396385 0.222455 0.438595 -0.816859 0.396550 0.577102 0.197251 0.678655 0.342230 0.006509 -0.269795 -0.337694 0.832188 -0.639943 1.009431 0.491293 -0.204023 -0.354630 0.237311 -0.424352 0.386232 0.237862 -0.030921 0.380309 -0.530333 0.377424 0.131861 -0.434468 0.423844 0.126631 -1.206622 0.196862 -0.170887 -0.625602 -0.256266 0.058411 0.036348 0.824675 0.961879 -0.042446 -0.116505 0.608048 -0.045862 -0.244291 0.775663 -0.367081 -0.410489 -0.048935 0.326992 -0.265136 -0.033558 -0.119960 -0.572644 0.363693
1944 -0.136799 -0.636866 -0.141320 0.131730 1.151827 0.739576 -0.153199 -0.251665 -0.066818 0.217098 0.177669 0.431363 0.259427 -0.271061 1.029353 0.547549 -0.694798 0.308203 1.133115 -0.288732 0.416933 0.555133 1.563499 0.498270 -0.729397 0.432002 0.404774 -0.568150 0.127211 0.301019 -0.053753 -0.264064 -0.068022 -1.323699 -0.596290 -0.767467 0.321261 0.143987 -0.644243 1.378396 0.369900 0.204064 0.163523 0.822286 0.125838 -0.376321 0.738151 1.250566 0.354714 0.735626 -0.163566 1.351434 0.110602 0.044162 0.495032 -0.389061 0.112441 0.084743 1.117011 -0.218400 -0.385766 0.204222 -1.808892 1.247020
1130 -0.295787 0.484238 0.370133 -0.653624 0.712967 -0.463757 0.118080 0.244137 0.378014 0.404365 -0.432847 -0.004656 0.135258 -0.133897 0.683778 0.088780 -0.247458 0.172583 -0.098919 0.439093 0.145165 -0.192404 -0.169967 -0.237397 -0.328175 0.203056 0.266735 0.402263 0.080237 -0.273949 0.322798 0.806759 -0.509194 0.401471 0.061958 -0.519530 0.419440 0.288095 0.106084 0.607345 -0.921051 -0.247881 -0.214864 -0.217845 0.609008 0.276294 -0.338482 0.563482 0.921409 -0.303058 -0.625180 0.385632 -0.018681 0.187002 -0.270785 -0.294941 0.382998 0.804961 0.764184 0.115133 0.034397 -0.377510 -0.268862 0.123964
1567 -0.332392 -0.193362 -0.072484 -0.212684 0.598030 -0.323593 0.494572 -0.390836 -0.279361 -0.293988 -0.328547 -0.124428 0.099927 -0.141159 0.148169 -0.041872 0.338345 -0.021698 -0.239584 0.320808 -0.340474 -0.450939 0.461097 -0.245444 0.098689 0.257799 -0.758224 0.194067 0.072563 -0.323657 0.169447 -0.392726 -0.212137 -0.131254 -0.767330 -0.780196 -0.044246 -0.179471 -0.481331 0.090677 -0.104069 -0.296880 -0.844013 0.174520 0.330373 0.283085 -0.791819 -0.401539 1.120744 0.242248 -0.399258 -0.243245 0.063944 0.382619 0.571630 0.075995 -0.378350 0.299587 -0.863508 -0.078597 0.185349 -0.235551 -0.365108 -0.009598
3203 0.223407 -0.408657 0.052575 0.737821 0.407989 0.727353 0.497589 -0.494837 0.874242 0.381467 0.310113 0.656109 0.306139 0.199118 0.845948 0.342381 -0.996720 0.536611 0.430383 -0.641765 -0.039987 -0.306167 0.393665 0.053060 -0.244839 1.473789 -0.318826 0.860411 1.349150 0.547275 0.215845 0.366314 -0.244315 0.155676 -0.746405 0.176289 -0.150261 -0.071793 -0.003815 0.321647 -0.048233 -0.010001 -0.155977 -0.281313 0.911855 -0.535768 -1.192178 1.559258 0.884481 -1.348583 0.660560 -0.340074 -0.571375 -0.786558 -0.443344 -0.322782 -0.612308 -0.107665 -0.221933 -0.566107 0.284577 1.236376 -0.672310 -0.293662
78 0.579093 -0.035737 -0.147284 0.316125 0.917878 0.267365 0.175346 0.203918 0.665010 -0.221470 0.934667 0.889294 1.202969 -0.376580 0.098974 0.692122 0.514691 0.383314 -0.538434 -0.374022 0.196601 0.115616 0.090742 -0.080434 0.442688 -0.394265 -1.104236 0.035388 0.555000 0.760361 -0.630675 -0.830684 -0.140191 0.049160 -0.401964 0.039124 -0.493543 -0.294679 0.663061 -0.311017 -1.081761 -0.689620 0.483610 -0.835246 0.811556 -0.139256 -0.582700 0.104908 0.169178 0.689438 -0.058999 -0.046323 -0.372879 -0.673697 0.007381 -0.363123 -0.007406 0.153200 0.357749 -0.315128 -0.925179 0.335122 -0.247009 0.356813
3025 0.740374 0.028859 0.825901 -0.579403 0.556471 0.007443 0.192514 -0.414879 0.628328 0.793985 -0.340293 -0.027475 -0.280080 -0.032288 0.153415 0.737227 -0.581442 -0.045362 -0.983755 -0.017815 -0.716225 -0.478487 0.392774 0.067049 0.141659 0.653941 0.703797 -0.327170 -0.058300 0.992436 0.210916 0.791888 -0.941775 0.124183 -0.336315 0.451749 -0.205130 0.077605 0.039137 1.095956 -0.322043 0.372665 0.056643 -0.224203 0.390755 -0.215324 -1.060889 0.425488 -0.038017 0.125169 -1.165540 0.045238 -0.781627 1.379532 0.337079 -1.377292 0.417886 1.114531 -0.585580 -0.565260 -0.982095 -0.155441 -0.471641 -0.285188
2527 -0.404217 -0.334654 0.365420 -0.730005 0.255013 -0.151691 -0.627889 0.105912 0.699397 0.078378 -0.235481 0.001983 0.765424 -1.283417 0.595551 -0.211850 -0.172053 -0.564115 -0.953898 -0.226790 -0.116555 0.039649 0.326841 0.202435 0.312515 0.405847 0.063354 0.436319 -0.063823 -0.150016 0.094025 0.153560 -0.341380 0.055732 0.254457 -0.124095 0.224773 -0.512200 -0.232372 -0.430340 -0.319920 -0.948756 -0.015503 -0.028790 0.913460 0.620088 -0.293265 -0.193956 0.526078 -0.162534 -1.413513 0.957580 -0.681711 -0.334699 -0.467604 -0.366426 -0.664215 -0.358138 -0.600126 0.451067 -0.005732 0.101362 -0.813158 0.520110
2632 0.164120 0.548149 -0.154888 -0.527330 0.482869 0.157769 0.087569 -0.047723 -0.252771 -0.308042 -0.062662 0.232142 0.629853 -0.764369 0.616588 -0.182182 -0.369360 0.125423 -0.148359 -0.477196 -0.143257 -0.077395 0.450834 -0.228930 -0.069888 0.397608 -0.392280 0.135265 0.132877 0.244070 -0.396564 0.221515 -0.674795 0.262653 0.091761 -0.378884 0.185049 0.400932 -0.328291 -0.019788 -0.416183 0.113541 -0.595735 0.355218 0.612936 0.021435 -0.273505 -0.803982 0.471077 -0.073625 -0.718796 0.496465 0.049449 0.195353 -0.041495 0.003041 -0.269131 -0.044271 0.044935 -0.482814 0.185795 -0.498278 -0.381067 0.570794
1587 -0.190060 0.728054 0.541263 -0.439368 -0.109922 -0.016801 0.216287 0.440441 0.379611 0.556085 -0.412670 1.074125 1.114573 -0.656011 0.599989 0.040963 -0.150704 -0.227983 -0.435566 -0.051700 -0.242968 -0.300329 0.064964 -0.306017 -0.278832 -0.022735 -0.509474 0.577832 -0.255785 0.187083 0.538887 0.905694 -0.230202 0.218576 -0.119255 0.128031 0.194987 0.524225 0.233907 -0.089449 -0.650398 -0.020122 0.228627 -0.144089 0.188168 0.397456 0.343068 0.368383 0.561364 -0.051154 -0.746483 -0.212840 0.912922 0.594441 -0.338191 -0.075489 0.075652 0.205808 0.146079 -0.236952 0.175831 -0.336744 -0.770136 -0.599960
886 0.263877 -0.298330 0.033505 -0.220050 0.992833 0.108383 0.604332 0.835227 0.162528 0.159606 0.293843 -0.058408 -0.482547 -0.109070 -0.067629 0.285042 0.163035 -0.136624 -0.478472 -0.089848 -0.776003 0.319167 0.309139 -0.145791 0.336909 0.297774 -0.496827 0.239355 -0.143844 0.230337 0.481517 -0.424012 0.664207 -0.464129 -0.576244 -0.787514 0.910346 -0.445026 -0.724683 -0.163557 -0.884167 0.493113 -0.962727 0.306009 0.023537 -0.036651 -1.158698 -0.204262 1.581844 0.258903 -1.165742 0.502092 -0.069298 -0.043954 -0.224141 0.245601 0.278567 -0.215362 -0.290432 0.079778 0.712757 0.235542 -0.021176 -0.665143
2774 -0.401738 -0.008315 0.510037 0.068258 0.842174 0.031294 0.100582 -0.385851 0.113050 -0.132393 0.236962 0.417063 0.338266 -0.259056 1.162279 0.030327 0.708503 -0.055742 -0.585413 0.655730 -0.044131 0.039030 0.991823 -0.908104 0.931948 0.260604 -0.903695 1.295309 0.640827 -0.784879 -0.215355 -0.592018 -0.105608 -0.044702 -0.215489 -0.493967 0.694270 -0.389564 -0.613787 -0.041857 -0.136970 0.773138 -0.316448 0.200393 0.087787 -0.114728 -0.796427 -0.441317 0.835171 -0.213323 -0.919614 0.155613 -0.278302 0.245925 0.597126 0.022197 -0.417583 0.170228 0.427839 0.278565 -0.439690 0.106681 -0.173064 0.176846
1202 -0.544962 -0.673699 -0.126150 -0.907793 0.294487 -0.180378 -0.118956 -0.117352 1.109020 -0.030382 -0.121133 -0.124912 0.674743 -1.451845 0.875797 -0.115341 0.015565 -1.264957 -0.665482 -0.490231 -0.363585 -0.059665 0.248636 0.498544 0.588076 0.109129 0.030188 0.231344 -0.418548 -0.576405 0.361717 0.057252 -0.057168 0.322233 -0.348152 0.289811 -0.188810 -0.193238 0.086518 -0.042866 -0.433770 -0.939061 -0.072710 0.111676 0.970862 0.183301 -0.481145 0.041258 0.247159 0.323339 -1.119094 0.375446 -0.477455 -0.505415 -0.532287 -0.493793 -0.625564 -0.396920 -0.642419 0.758362 -0.188813 0.091461 -0.699426 0.494152
3046 0.658206 -0.391290 -0.006872 0.913885 0.279492 -0.447567 -0.070660 0.992654 0.050365 0.437680 -0.684469 0.293833 0.498333 0.595697 1.314732 -0.467720 -0.672805 -0.692145 -0.940534 -0.212439 -0.767038 -0.001688 -0.280502 -0.450704 0.249546 -0.028282 -0.931637 0.157801 0.856192 -0.278819 -0.278618 0.600135 -0.575624 -0.276749 -0.006043 0.836625 -0.142501 -0.032660 -0.176972 0.199149 0.488317 -0.254819 -0.108088 0.089000 1.127620 -0.683674 0.141751 -0.424911 -0.123130 0.529824 0.107570 0.346300 0.180666 0.814489 0.356283 -0.916698 -0.210762 -0.210609 0.057357 0.714684 0.439283 0.242599 -0.730624 0.594346
119 -0.288720 -0.548091 -0.479112 0.718530 0.367618 0.648730 0.188222 0.826475 -0.165462 -0.331869 0.349729 0.998031 0.651081 -0.416402 1.503055 0.296457 -0.387890 -0.161148 0.270181 0.986037 -1.023525 -1.188415 0.197017 -0.158969 -0.395957 -0.148754 -0.522904 -0.383609 -0.125081 0.695929 0.576639 0.496204 -0.411719 -0.441225 -0.381278 1.006495 0.668552 -0.286429 0.832062 0.326030 -0.806224 0.057920 -0.315141 -0.243334 -0.422810 0.527900 -0.462933 -0.444446 0.233546 0.818888 0.302025 0.746073 0.041359 0.017967 -0.653803 0.024441 0.097743 0.702512 0.409780 0.038119 -0.227995 -0.206914 0.123049 -1.190026
1211 0.723019 -0.046182 -1.216834 0.565511 0.605511 0.290923 -0.827232 0.153015 -0.261432 0.995057 0.886374 0.390417 0.603909 -0.052497 0.867952 0.510886 0.391567 -1.420463 0.152601 0.668900 -0.512450 -0.047782 0.480501 1.115679 0.227918 -0.307929 0.015587 0.120872 0.617276 0.722429 -0.640624 0.081407 -0.698147 -0.686782 -1.306276 -0.465724 -0.636799 -0.015282 -0.646773 0.181163 -0.832810 0.451427 0.283216 0.184899 0.725952 0.206516 -0.462860 -0.075314 0.107207 0.507407 0.358486 0.014150 -0.649731 0.597529 0.037429 -0.403349 -0.052344 0.441424 0.046579 0.156879 -0.032124 0.333646 0.437723 -0.413005
869 0.657919 0.610284 -1.078285 -0.497875 0.787478 -0.964750 1.486617 -0.299314 -0.137834 1.117161 0.390813 0.091284 0.989729 -0.656754 0.320446 0.322895 0.669733 -0.952493 -0.196337 0.122489 -0.812917 0.564115 -0.728792 -0.364232 0.166592 -0.289920 -0.733295 -1.422782 -0.149384 0.368406 0.740026 1.111772 -0.590140 -0.486174 -0.035101 0.058554 0.898116 0.354171 -0.103025 1.192859 -0.100320 -0.177365 0.212437 0.372113 -0.165130 0.094061 -0.005737 0.430509 0.835373 0.316629 0.815492 0.415271 -0.981521 0.022851 0.900318 -1.299729 -0.773958 -0.178557 -0.361900 0.058380 -0.608367 -0.540673 -0.381728 -0.651902
2398 0.035726 0.234457 0.159094 0.075681 1.027734 -0.022324 -0.315606 -0.114941 -0.144395 0.185761 -0.206929 0.398848 0.153529 -0.161363 0.533850 0.088044 0.399584 0.196543 0.056052 0.162323 0.380504 -0.818564 0.068209 -0.500781 -0.080188 -0.265887 -0.570495 0.159334 0.005528 0.108201 -0.447808 -0.146479 -0.276666 -0.307085 -0.471325 -0.191997 -0.065236 -0.395548 -0.577757 -0.293244 0.196268 0.233853 -0.295658 -0.217256 0.468774 0.336553 -0.200553 -0.178653 0.360954 -0.330608 -0.607786 0.690260 -0.180098 0.653252 0.346934 -0.346265 -0.400345 -0.118547 -0.272523 -0.684555 -0.420686 -1.107035 -0.275726 0.339601
1411 0.308519 0.345890 -0.677588 1.085051 0.670632 -0.119728 0.222173 0.306783 -0.091095 0.338481 1.252330 0.649481 0.013533 -0.206446 0.289360 0.347173 0.340026 0.489924 -0.800413 -0.669792 0.448694 -0.523640 0.010038 0.175354 0.220844 -0.264556 -0.844958 0.896448 0.625095 -0.123264 0.356438 0.108256 -0.385166 -0.281324 0.385844 -0.317536 0.405370 0.053136 -0.273883 -0.441705 -0.894482 -0.168386 0.104571 -0.529476 0.436779 -0.478063 -0.188842 -0.200511 0.191327 0.091595 -0.329571 -0.470142 1.056312 -0.395845 0.481872 -0.422772 0.041394 -0.052632 -0.759638 0.194048 -1.129025 -0.540945 -1.060548 -0.361266
136 -0.099177 -0.175470 -0.213599 -0.165442 0.381750 -1.243751 -0.089738 0.293030 0.687618 1.017671 -0.234847 -0.073133 0.214693 0.350230 0.655865 -0.031030 0.781488 0.025678 -0.064366 -0.709010 -0.555412 0.517027 -0.060469 0.109821 0.721880 -0.082208 -0.431732 -0.920743 -1.261092 -0.377423 0.273949 0.639121 -0.253832 0.188959 -0.815194 0.012620 0.021291 -0.534813 -0.075586 0.119454 -0.144372 -0.566569 -0.087296 0.063981 0.699286 0.697105 -1.002720 -0.892354 0.374175 -0.293299 -0.993664 -0.070563 -0.178367 -0.599059 -0.438703 -0.041824 -0.376701 -0.212092 0.101836 0.355060 0.189083 -0.065497 -0.621274 0.704535
1933 0.061181 -0.621358 -0.094798 0.007968 1.293478 -0.113472 0.147542 0.711432 0.636056 -0.198306 0.150287 0.203257 -0.028815 -0.703655 0.781751 -0.097510 0.472452 -0.846247 -0.937522 -0.090663 0.169331 -0.550901 -0.037300 -0.106774 0.021391 0.801734 0.182520 -0.089240 -0.267107 -1.022560 -0.173042 -0.464476 -0.217434 -0.954109 0.257073 -0.200214 1.140556 0.389704 0.202894 0.887987 -0.680340 -0.435014 0.194980 -0.942518 0.574006 1.585262 0.356052 0.000469 -0.010761 0.446381 -0.398134 -0.281538 -0.316109 -0.808452 -0.243746 -0.776229 -0.378483 -0.063158 -0.467109 0.233983 -0.185096 0.406309 0.030710 -0.529233
2673 -0.281869 -0.551380 -0.388925 0.659217 0.556751 -0.240990 -0.267561 0.063861 0.157974 0.180531 0.255238 0.657059 0.834101 0.770214 -0.239557 -0.548900 0.390914 -1.034992 -0.189164 0.092124 -1.107095 -0.177553 -0.310868 -0.646929 -0.601806 0.234687 -0.576189 0.915946 -0.312807 -0.193782 0.668534 0.005862 -0.375491 0.587984 -0.020585 -0.597640 0.187662 -0.370316 -0.006209 0.458492 0.020996 -0.024029 0.353388 -0.788680 0.244575 0.110388 -0.803347 -0.333149 0.169593 0.683338 0.746554 0.650357 0.505724 -0.160142 0.542191 -0.312040 -0.426356 0.272292 0.419109 -0.243496 -0.364581 0.088608 -1.442040 0.652310
2329 0.679094 -0.390422 0.189070 -0.258210 0.693417 -0.655441 -0.371124 -0.093882 1.282592 -0.066338 0.690205 0.129686 1.037752 0.097291 0.292799 0.966810 0.274349 -0.202838 -0.341895 0.137354 -0.991676 -0.689637 -0.283706 0.609700 -0.104633 -0.079567 0.469391 -0.736516 -0.447611 -0.462068 -0.321527 0.035074 -1.144146 -0.212967 -0.315690 -1.204207 -0.035692 0.672677 0.687108 -0.502864 0.109708 0.602013 -0.626677 0.689265 0.164104 0.317824 0.066355 1.083465 1.450678 0.051944 -0.348903 0.438549 -0.176968 0.128391 -0.126550 -0.423437 0.596550 -0.720616 0.039299 0.393966 -0.782069 -0.145213 -0.334931 0.596642
2638 -0.481598 0.381681 -0.610515 -0.548093 0.467308 0.163966 1.065527 -0.110087 0.434077 0.142044 0.463018 0.791767 0.148320 -0.508106 0.389430 0.160705 -0.308115 0.414402 -0.482462 -0.416776 -0.390981 0.038520 0.240024 0.093909 -0.522279 -0.280221 -0.592595 0.361290 -0.497187 -0.048877 -0.056163 0.793530 -1.245241 -0.162771 -0.678615 0.501114 -0.680831 0.449105 -0.300375 0.227721 -0.366753 -0.046289 -0.062045 -0.402871 0.281271 0.165013 0.156077 -0.587123 0.385590 -0.789776 0.103450 0.613399 0.359341 -0.042622 -0.245476 -0.431891 0.241554 0.210679 -0.326564 0.171841 0.552897 -0.453088 -0.449815 0.443731
1239 0.366146 -0.886740 -0.217488 -0.023977 0.711718 0.423620 0.092004 0.556130 -0.336917 1.124115 -0.393137 -0.419901 0.849312 0.183484 0.811087 1.247725 0.067081 0.259758 -0.292061 -0.490471 -1.290439 -0.582907 1.044376 -0.740637 -0.488105 -0.221989 -0.104987 0.111275 0.016371 -0.489631 -0.355170 0.379955 -0.137713 -0.185676 0.526606 -0.031817 -0.116036 -0.020271 0.234117 0.586157 -0.194356 -0.047005 -0.026480 -0.280880 0.149228 -0.640139 -0.168723 -0.150950 -0.332303 0.457690 0.276592 -0.289967 -0.022255 1.141069 -0.849992 -0.491034 -0.392545 0.126994 -0.381266 0.291293 -0.549742 0.258092 0.015963 1.331998
43 0.463196 0.486244 -0.162592 -0.508125 -0.185842 0.083095 0.605017 -0.051448 0.174195 0.001491 0.065868 0.590480 0.308251 -0.833908 0.681638 0.343895 -0.535604 0.209861 -0.082092 -0.685098 -0.040349 -0.120326 0.551351 0.076073 -0.067240 0.054066 -0.369046 -0.078764 -0.348719 -0.305768 -0.122526 0.709271 -0.742852 0.158589 -0.247725 -0.361673 0.189951 0.425781 0.119587 -0.149926 -0.708955 0.226936 -0.439417 -0.365414 0.755444 0.162269 -0.214232 -0.526332 0.707942 -0.479572 -0.582690 0.065789 0.160341 0.099317 -0.182539 0.021860 0.066666 0.377789 0.113532 -0.148356 0.414401 -0.504726 -0.194248 0.707666
895 0.225643 -0.321288 -0.256811 -0.009563 0.897318 -0.097264 0.481450 0.265096 -0.116268 -0.310472 0.607113 0.578785 0.550584 0.259667 0.463402 -0.015881 0.033082 -0.079022 -0.112974 0.156731 0.721812 -0.506675 0.561383 -0.549510 0.144555 0.553839 -0.801569 -1.194678 -0.086049 -0.205872 -0.082946 0.073562 -0.669217 0.127253 0.091941 -0.205365 -0.183517 0.188998 0.355991 0.170826 -0.567876 0.014967 0.074453 -0.050262 0.592498 -0.493544 -0.405168 -0.615057 0.141803 -0.083058 -0.513955 -0.144112 -0.364398 -0.321703 -0.063057 0.188385 -0.355207 0.158207 0.171936 -0.706994 0.207316 -0.653329 -0.224309 0.483593
661 -0.349429 0.645322 -0.473244 -0.382699 1.312470 0.210679 0.433977 -0.135783 0.126944 0.703925 0.344506 0.801309 0.433565 -0.519673 0.342438 0.087154 -0.507709 0.402811 -0.815408 -0.462220 -0.377082 0.415653 0.077129 -0.158575 -0.305162 0.035428 -0.661138 0.423488 -0.709548 -0.197154 -0.370172 0.280906 -1.016684 -0.275578 -0.147420 0.549578 -0.697932 0.802314 -0.422575 0.368583 -0.363624 0.362683 0.350739 -0.086140 -0.057254 0.782773 0.099227 -0.196503 0.454688 -1.513285 -0.014342 0.368193 0.669688 0.098633 -0.148576 -0.049734 0.187327 0.590818 -0.815187 -0.016435 0.552483 -0.212459 -0.379661 0.687017
222 0.239061 -0.713780 -0.416823 0.658624 0.304460 0.412502 0.224517 1.253590 -0.613148 -0.633454 0.820722 1.128661 0.719831 -0.247265 1.370806 0.309761 0.030517 -0.493730 0.124670 -0.245315 -1.047409 -0.474389 0.393651 0.031398 -0.440494 -0.219129 0.066038 0.052764 -0.069179 0.051942 -0.355275 0.918395 -0.184713 -0.485980 -0.255643 0.129768 0.074170 -0.697530 0.799565 -0.383322 -0.168763 0.388637 0.150891 -0.066174 -0.392177 0.407015 0.086377 -0.040597 0.701437 0.049559 -0.426452 0.419547 -0.014428 0.318422 -0.503260 0.056060 -0.464934 0.596355 0.401583 0.480960 -0.839735 -0.149344 0.684194 -1.202014
1879 0.147702 0.662168 -0.099956 -0.099142 0.360340 -0.256398 0.959252 0.722829 -0.525006 0.264036 0.800979 0.831737 0.375460 -0.173117 0.467096 -0.184071 0.053951 0.400730 -0.552249 -0.169943 -0.346945 -0.430446 -0.096710 0.099106 0.088305 0.297662 -0.303528 -0.322386 0.555725 -0.228968 -0.188274 -0.476689 -0.062913 -0.282540 0.565075 -0.043444 -1.026410 -0.606851 -0.309161 0.069592 -1.184617 -0.043881 0.301067 0.735661 0.527271 0.202585 -0.085841 -0.241188 0.632516 -0.539657 -0.264248 -0.526534 0.749908 -0.264308 -0.386053 0.202046 0.164808 0.907917 0.529009 0.275839 -0.164100 -0.050039 -0.545387 0.762209
1981 0.435585 -0.154842 0.172959 0.791239 1.254799 -0.152907 1.141629 0.078382 0.719045 0.318141 0.909185 0.271789 0.497578 -0.489479 0.213094 -0.457558 -0.407873 0.463097 0.740446 -0.931572 -1.369289 0.419332 0.896957 -0.278977 -0.608695 0.347777 -0.100535 -0.445384 -0.807729 -0.186620 -1.048092 -0.326888 0.115836 0.258546 -0.256942 0.012021 0.268008 -0.143040 -0.740680 0.264475 -0.049041 1.009218 0.632125 0.942535 0.076284 0.597925 -1.033816 1.819726 0.181789 0.178927 -0.887466 0.750428 0.422384 0.078040 0.006619 0.220685 -0.429556 -0.312587 1.302117 -0.183178 0.087489 0.724244 -0.607292 0.383034
2506 0.196807 0.050313 0.037542 -0.178211 -0.623786 -0.791978 1.034100 -0.033514 -0.198561 0.375267 0.960144 1.289426 0.010209 -0.548108 0.217352 0.288076 0.536621 0.582571 0.349969 -0.086410 -0.207832 0.055996 0.883167 -0.193374 0.133455 0.139954 0.061450 -0.422224 -1.146873 -0.640961 0.046733 0.376334 -0.324072 0.163507 -0.548449 0.076249 0.325307 -0.242556 -0.161051 -0.276965 -0.871415 0.219498 -0.533418 -0.713025 -0.188781 0.333474 -0.588280 -0.395283 0.660850 -0.355056 -0.148783 0.206289 -0.458602 -0.066486 0.053702 -0.982613 -0.122704 -0.289055 0.313247 -0.424187 -0.200416 -0.407742 -0.497366 0.889343
229 0.485573 -0.087755 -0.096881 0.004562 0.556530 0.301677 0.382823 0.105673 -0.384326 -0.418243 0.489261 0.417918 0.302830 -0.084166 0.798163 -0.098708 -0.013965 -0.206000 0.129644 0.286601 0.680555 -0.795201 0.811922 -0.407725 0.197323 0.604541 -0.402977 -0.841918 -0.004563 -0.225747 -0.231259 0.245073 -0.525442 0.241065 -0.189595 -0.181769 0.000562 -0.132788 0.085934 0.397050 -0.857982 -0.109951 0.316681 -0.260928 0.868511 -0.334139 -0.342791 -0.604210 0.181258 -0.486993 -0.396853 0.184300 -0.042546 -0.233282 0.099711 -0.024629 -0.419730 0.277879 0.011832 -0.321965 0.443203 -1.222897 -0.257465 0.412199
1583 0.301958 -0.109325 -0.031173 0.235305 0.755274 -0.614539 0.623580 -0.619916 -0.029744 0.035411 0.465725 0.295804 -0.343412 -0.100571 1.077782 0.230566 1.045488 -0.524750 -0.578157 -0.224994 -0.595339 -0.005287 -0.030021 -0.257366 -0.803987 0.132937 -0.271404 -0.376177 -0.000433 0.397945 -0.566624 -0.744261 -0.080808 0.903429 0.637849 0.127133 0.563553 -0.467213 -0.473364 0.479054 0.327572 0.127853 0.220314 0.136252 -0.070533 0.408216 -0.104005 0.393482 -0.303765 -0.713116 -0.686748 0.291399 0.367832 -0.592468 -0.208342 -0.625903 -0.463292 0.745800 0.218724 -0.092912 -0.081380 -0.386741 -0.762882 0.379093
557 -0.323856 0.066108 -0.354926 0.023868 0.097635 0.112645 0.050068 -0.153334 0.900454 -0.083816 0.663412 0.627072 0.421080 0.049608 0.471249 0.088774 0.028319 -0.450710 0.231966 0.386469 -0.191079 -0.516527 0.607426 -0.439911 -0.513293 0.053395 -0.449052 -0.123002 -0.403885 0.494700 0.672895 -0.521159 0.733713 0.302249 -0.335780 0.435024 -0.868932 0.702732 -0.365021 0.483852 -0.945041 -0.244964 -0.426410 0.709884 -0.300535 0.750257 -0.009353 -0.555567 1.050973 -0.644683 0.113617 0.213937 -0.525511 0.088817 -0.300486 -0.531943 0.343282 -0.915241 0.079743 -0.327219 0.056346 -0.041764 -0.294158 0.452923
2494 0.806623 -0.775888 -0.337159 0.037331 0.564173 0.122342 -0.281080 -0.198248 -0.418425 -0.012526 -0.041136 1.585812 -0.641982 -0.409794 1.679231 0.520058 0.298425 0.265909 -0.507909 -0.678703 -1.290271 0.683336 -0.538137 0.017478 0.263269 0.858976 -1.023642 0.215210 -0.193725 -0.332875 0.249806 0.755879 -0.631854 0.202647 -0.489604 -1.029321 -0.878497 1.175040 -0.208878 0.297396 0.335135 -0.648418 -0.295190 -0.270888 -0.084472 -0.225351 0.147596 -0.389273 0.149111 -0.078189 0.281958 -0.205032 -0.052883 1.014609 -0.502175 -0.436181 0.034930 -0.372710 0.228124 0.293494 -0.762589 -0.119775 0.532432 -0.667607
3009 0.184676 -0.924810 -0.782184 -0.406885 0.114473 0.136530 -0.125413 -0.147196 0.416091 0.263662 0.561214 0.394446 0.569210 -0.195465 0.817964 -0.072075 -0.567937 -0.400661 -0.230437 0.306613 -0.635972 -0.400268 0.486040 -0.753138 0.376006 0.104836 0.863280 -0.537646 -0.531383 -0.515247 0.083128 -0.840096 -0.058874 0.389553 -0.291348 0.259725 -0.135841 0.575963 -0.002201 0.734810 -0.789844 0.125018 -0.179624 0.687872 0.488796 -0.266965 0.172580 0.525633 0.650610 0.322908 -0.365897 -0.257690 0.386830 -0.792809 -0.164623 -0.146461 0.699569 -0.212820 -0.474426 0.291562 -0.171821 -0.117039 -0.326109 0.153220
1853 0.135290 0.120016 -0.019152 -0.741055 0.461193 -0.322003 -0.427728 0.309898 0.655585 -0.098121 -0.187793 -0.010264 0.564422 -1.225794 0.575121 -0.021323 -0.418556 -0.196493 -0.774519 -0.179119 -0.020376 0.185089 0.388308 -0.080997 0.215730 0.268689 0.379840 0.676548 -0.068614 -0.353704 0.215732 0.682328 -0.078898 0.261513 0.390730 -0.450320 0.442441 -0.443207 0.045012 -0.114603 -1.154838 -0.306328 0.525494 -0.658950 1.344748 0.471909 0.220887 -0.124361 0.916541 0.105527 -1.191184 1.345054 -0.246610 -0.303891 -0.900099 -0.119700 -0.343722 0.209388 -0.377097 0.148426 0.173321 0.206741 -0.793367 0.424206
381 -1.251985 -0.953825 0.714701 0.812518 0.377276 -0.209904 0.358753 0.592681 0.140195 -0.459645 0.923910 -0.254788 0.404601 -0.931312 0.571948 1.217338 1.363572 0.469406 -0.624206 0.493872 -0.512262 -0.114534 -0.006360 -0.033563 -0.957685 0.411937 0.947420 0.214358 -0.226443 0.112472 -0.719115 -0.233117 -0.009088 0.178590 0.585396 0.794251 -0.136585 -1.116633 -0.308754 1.310877 0.052149 -0.126242 -0.787794 -0.347796 1.542956 -0.111877 0.696092 -0.010509 1.192202 -0.550357 -0.885159 -0.520482 0.139378 0.429331 -0.549156 -0.600675 -0.515163 0.242416 -0.055600 -1.392308 -0.069971 0.449942 -1.256202 0.440490
2564 -0.603501 -0.404075 0.290850 -0.296662 0.151744 -0.651164 -0.386987 0.046220 -0.264320 -0.598258 0.527008 0.510690 0.607235 -0.732631 0.814331 -0.485534 -0.131160 0.334482 0.007352 0.280588 -0.750416 -0.458985 0.631963 -0.277830 0.305926 0.307048 -0.356553 0.543806 0.578758 -0.513973 0.459694 -0.445226 0.256162 0.648309 0.869772 -0.500002 -0.159833 -0.574522 -0.540050 0.144497 -0.891897 1.067243 -0.431979 0.121682 0.210803 0.546304 -0.622592 -0.518436 0.669278 -0.590771 -0.535071 -0.017677 0.147343 0.254963 0.742854 -0.363155 0.316548 1.024897 0.017712 -0.266673 0.039965 0.051189 -0.205040 0.226202
1709 1.089416 -0.101127 0.077156 1.635254 0.852354 -0.458023 0.479985 0.384063 -0.900769 0.516039 -0.409705 1.477376 0.321248 -0.223318 -0.062106 0.835734 0.784200 0.720944 -1.343776 1.088098 -1.256543 -0.657175 0.900873 1.046594 0.091161 2.512720 0.579875 -0.044343 -0.272513 -2.128919 -0.341551 -0.460663 0.028601 -0.393714 0.454921 -0.434157 0.163977 1.794612 0.288810 1.093089 0.510072 -0.435893 -0.100585 -0.322965 0.168437 0.510303 0.485191 0.551709 0.664287 0.581993 -1.069736 -0.485978 -0.725042 -1.217570 -0.454929 -0.446411 0.511734 0.703610 0.448553 -0.536281 0.548151 0.996371 -0.835237 0.435010
438 1.150635 -0.984305 -0.406277 0.095847 0.406052 -0.698246 -0.053236 0.396536 0.567507 0.043709 -0.101986 0.910372 0.364200 0.347937 0.380625 0.270914 0.510140 0.661596 0.498925 0.301487 0.120657 0.107988 -0.671151 -1.079104 -0.247941 0.915634 -0.529821 -0.161579 0.935904 0.063124 -0.461617 1.245339 1.014590 0.112712 0.636717 -0.263304 -0.880492 0.353194 -0.096551 0.543453 -0.171449 -1.041881 -1.038070 0.225832 0.643405 0.557153 -0.132673 0.486349 -0.076875 -0.149985 -0.861362 1.145277 -0.307735 0.166848 0.168910 -0.653488 1.004697 0.455972 -0.855305 0.470834 -0.480461 0.583189 -0.567301 0.005409
225 -0.419238 -0.142626 -0.247404 0.290750 0.645864 0.824001 0.419983 -0.521352 0.684997 0.721337 0.380573 1.027283 0.913574 0.504706 0.817372 0.577900 -0.882338 0.395510 0.474561 -1.015511 -0.097449 0.432476 0.376176 0.221206 -0.528377 0.803359 -0.041914 0.584336 0.752370 0.656316 0.212084 0.302608 0.582692 0.040272 -0.241127 0.767960 -0.079272 0.078358 -0.672918 0.278898 0.202531 0.043692 0.016514 -0.373336 1.210516 -0.219743 -0.777284 1.055523 1.039644 -0.721399 0.473161 -1.048073 -0.485570 -0.871133 0.138911 -0.234247 -0.547694 -0.251518 -0.643533 -0.060502 0.210270 0.968969 -0.550629 -0.449626
2406 0.975160 0.112428 -0.159550 0.361043 -0.057138 0.343313 -0.216734 0.604653 -0.416910 0.776854 0.428626 1.230012 -0.023814 0.909072 -0.452628 -0.015058 0.915060 -0.306355 -0.699764 0.330202 -0.608231 0.749186 1.060714 -1.299452 0.339249 1.535580 -0.107533 0.383974 0.685318 0.384380 -0.136088 0.423954 -0.805165 0.019741 -0.261390 -0.183396 -0.136814 -0.200309 0.432969 0.304724 0.063585 -0.465775 -0.282468 0.275191 0.640328 -0.597776 0.073900 1.195327 0.010440 -0.848046 -0.104332 0.111952 -0.757480 0.176003 -1.284337 -0.492024 0.904204 -0.089495 -0.367152 -0.204608 -1.273159 0.124396 -0.374590 -0.098883
2649 0.297806 0.289636 -0.466848 -0.390980 0.814023 0.057022 0.017205 0.205027 -0.456443 -0.353837 -0.395158 0.690553 0.601557 -0.587904 0.429759 -0.206852 -0.117960 0.021003 -0.480690 -0.641525 -0.442002 -0.070633 0.810772 -0.197625 0.016462 0.449410 -0.724518 -0.160545 0.130105 0.248100 -0.287904 0.261311 -0.618638 0.465538 0.329345 -0.075911 0.000608 0.232897 0.320022 0.214053 -0.154969 -0.471067 -0.807945 0.160701 0.336439 -0.005183 -0.224021 -0.657781 -0.057751 -0.135433 -0.025374 0.902278 -0.362445 0.074375 -0.145724 -0.291101 -0.159155 0.015226 0.107777 -0.287793 0.630043 -0.486301 0.132065 0.013982
1087 0.135925 -0.246956 -0.023824 0.589325 0.693109 0.386668 -0.259818 0.554861 -0.601492 1.104747 -0.574551 -0.372402 0.489578 0.447128 0.465190 0.686314 0.007211 0.169926 -0.293695 -0.148420 -0.690244 -0.190543 1.288536 -0.625116 -0.187843 -0.209978 -0.383836 -0.376832 -0.226696 -0.386261 -0.341289 0.468763 -0.120654 0.036620 0.427311 0.136155 -0.263897 0.115781 0.038307 0.992382 -0.268054 0.184566 0.153448 -0.073087 0.567497 -1.195722 0.024792 -0.460118 0.155618 0.145189 0.064629 -0.496379 -0.317330 0.694589 0.101855 -0.331478 -0.073944 0.352708 -0.989052 0.178130 -0.435516 -0.204556 -0.179329 0.526309
1633 -0.787910 -0.502003 -0.198278 1.090896 0.328470 -1.370682 -0.313118 -0.649012 -0.000330 0.539666 0.333597 1.385920 0.548319 0.495804 0.265466 1.102004 0.037054 -0.260949 -0.605623 -0.262387 -0.755488 0.167072 0.545968 -0.091179 -1.217630 0.793017 -0.667054 0.498053 -0.418897 0.438027 0.504421 -0.580667 0.056097 0.270131 -0.650046 -0.624440 0.868753 -0.565756 0.122125 0.882990 -0.183917 -0.420075 0.290470 -0.384776 0.247143 0.624007 -0.794455 -0.338981 -0.926455 -0.604044 -0.893987 0.605465 -0.218542 0.290727 0.864222 -0.397780 0.304043 0.778211 0.192212 0.463569 0.072244 0.261825 0.255141 0.388532
2475 -0.175708 0.548767 -0.235136 -0.012103 0.490195 -0.191987 -0.164543 0.763545 -0.219709 -0.275753 -0.034588 0.546852 0.182356 -0.283634 0.582455 0.034088 0.499463 0.402514 -0.150276 0.134914 0.520703 -0.266055 0.659624 -0.161231 0.837434 -0.057721 -0.841733 0.170731 -0.131537 0.136055 0.344837 -0.028874 -0.066332 0.439079 -0.758796 0.212617 -0.010778 -0.472157 -0.068459 0.855215 -0.117799 -0.152194 -0.546496 0.515178 0.556417 0.011071 0.011510 -0.035316 0.159867 -0.130582 -0.218776 -0.021582 -0.511555 0.555025 0.461821 -0.148328 -0.433134 -0.096391 -0.324414 -0.364016 -0.135958 -0.440574 -0.384699 0.764201
962 -0.945302 -0.386582 0.013666 -0.027543 0.176477 -0.087278 -0.319837 0.375532 -0.247320 -0.386118 0.204393 0.502596 0.839311 -0.571678 0.492432 -0.423725 0.343139 0.390000 0.510530 0.051318 -0.039589 -0.544896 0.670477 -0.821859 0.852015 0.446869 -0.197793 0.106421 -0.443502 -0.096771 0.221614 -0.095364 -0.337020 0.315235 -0.405723 -0.198161 0.041728 -0.880949 0.066917 0.119805 0.612090 -0.231032 -0.483482 0.287479 0.407396 0.287033 -0.330933 0.229595 0.127002 -0.629396 -0.596978 -0.028808 -0.240614 -0.090312 0.555039 -0.992238 -0.302484 0.249157 0.259873 0.130311 -0.581925 -0.263976 0.040110 0.321484
1971 0.628417 0.465909 -0.679357 1.230199 0.373437 -0.599588 0.142156 -0.167314 0.294955 0.777727 0.211892 1.016435 0.781348 -0.324325 0.903763 -0.373967 0.053574 0.734281 0.806422 -0.659086 0.859660 -0.204962 1.651560 -0.453472 1.376724 -0.280113 -0.611275 0.820862 -0.320009 -0.807450 0.623031 0.493539 -0.155107 0.295879 0.221312 0.260399 -0.352679 -0.047812 0.761269 0.913072 -0.347168 -1.119791 -0.251991 0.550163 1.089943 1.144406 -0.002973 0.449375 0.351809 -0.350970 0.812494 -0.959990 0.060979 1.095567 0.537577 -0.600851 0.220128 -0.190563 0.124672 0.416203 -0.003112 -0.350504 -0.219996 0.002964
1324 0.451149 -0.618664 -0.209729 1.153109 0.597180 0.771844 -0.176589 0.588021 -0.463111 0.703836 -0.330104 1.246111 1.521553 -0.299183 0.865448 0.075661 -0.596793 0.380633 0.269374 -0.634988 -0.607868 -1.354464 0.287822 -0.011790 -0.028474 0.627822 0.293165 -0.201183 -0.743651 1.232745 1.131102 -0.088514 0.556429 -0.320399 -0.324509 0.625157 0.901175 0.626052 0.376084 -0.260043 -0.755364 -0.574415 0.725441 -0.524440 0.573659 0.474291 1.257596 0.257127 0.071020 -0.365712 -1.035692 -0.253590 0.577068 0.723923 0.230581 -0.234657 -0.876057 0.446136 -0.227384 0.487639 -0.518039 -0.158128 -0.952442 -1.029813
47 0.356421 0.195217 0.703955 -0.146463 0.800720 0.031660 0.035996 -0.475812 -0.244501 0.763232 1.456104 1.788524 0.456718 0.524407 0.826064 1.162056 0.230078 0.343245 0.259676 0.451186 -2.134205 -1.031999 0.789687 -0.194384 0.167178 2.221499 -0.989798 -0.100037 -0.276025 -0.738106 -0.418836 0.532046 0.163796 0.517157 0.798094 0.543280 1.893351 -0.476686 -0.666335 0.666976 -0.381119 -0.707260 1.049115 1.030864 1.918198 0.294683 0.786878 -0.081460 1.062252 -0.675593 1.506917 1.318203 -0.148422 1.123597 -0.299546 0.746838 0.711800 -0.167094 -0.655650 0.539659 0.787033 1.456355 -1.465728 0.520274
2189 0.112461 -0.349245 0.095108 0.112096 0.529953 0.227242 -0.671729 0.299061 -0.364358 0.547421 -0.571010 0.048122 0.501779 0.358390 0.459735 0.204087 -0.493523 0.080648 -0.070302 -0.078760 -1.389575 -0.274092 0.570167 -0.961451 -0.172054 -0.300271 -0.082922 0.142469 0.095513 -0.081213 0.418116 0.431549 -0.140674 -0.575019 0.519036 -0.085826 0.457109 -0.066577 0.138159 0.907204 -0.397311 0.593963 0.404633 0.100326 0.277117 -1.136295 -0.015301 -0.486728 0.289357 0.389194 0.210649 -0.018680 0.049395 0.785515 -0.256278 -0.924967 -0.029466 0.022848 -0.979861 0.002414 -0.146350 0.086281 -0.615046 0.599051
2196 -0.287544 0.032223 0.446507 0.186164 -0.066253 -0.267356 0.390919 -0.593916 0.233976 0.824560 0.399732 0.165895 0.514441 0.342623 0.322779 0.543267 0.637187 0.435260 -0.067431 -0.191950 -0.180135 0.611592 0.048309 -0.153351 -0.159121 0.156761 -0.503725 -0.407086 0.211473 0.267818 0.412306 0.364463 -0.846725 -0.310133 -0.327558 0.033769 0.035962 -0.363970 0.325451 0.102552 -0.159770 -0.346681 -0.309990 0.734951 0.692576 0.544962 -0.653156 -0.120670 0.510304 0.010126 -1.048238 0.240518 -0.426429 -0.124847 -0.086835 0.670946 -0.874974 -0.038395 -0.710720 0.431019 -0.171858 -0.545315 -0.293543 0.778539
2524 0.018765 0.185873 -0.472901 0.470838 0.714741 -0.198189 -0.247772 -0.407418 -0.079530 -0.240535 0.023348 0.602795 0.704839 0.257145 0.082833 -0.135508 0.381956 0.789360 -0.135186 -0.395691 0.457273 0.309241 -0.314026 -0.802009 0.045258 -0.073111 -0.283754 -0.212663 0.238861 -0.092529 -0.056867 1.075581 0.867186 -1.017417 -0.385804 0.218688 -0.637685 0.472056 0.021684 0.324863 -1.550053 -0.553367 -0.410164 -0.507990 0.944003 0.008541 -0.035866 0.517156 -0.035255 0.210466 -0.981192 0.823991 0.029400 0.260470 0.238103 -0.895932 0.582483 0.540918 0.002752 0.787864 -0.504062 0.597740 -0.974995 0.068596
561 0.344186 -0.309972 0.940717 -0.893174 0.950267 -0.512428 0.506505 -0.172030 -0.029827 0.068243 0.030064 -0.138566 0.079340 -0.378968 -0.001565 0.507695 -0.624466 -0.126272 -0.649753 0.166115 -0.534805 -0.430031 0.316625 0.279415 0.134978 0.931346 0.590096 -0.005782 -0.252338 1.141394 0.392256 0.970239 -0.739707 -0.213285 -0.396409 0.614587 -0.073753 0.404554 -0.170599 0.830648 -0.285120 -0.153460 -0.217442 -0.197559 0.497109 0.047520 -1.211762 0.821569 0.209989 -0.427033 -0.710362 0.124469 -0.485551 0.916943 -0.007051 -1.109716 0.623967 0.835607 -0.592686 -0.576138 -0.444946 -0.123125 0.105579 0.024169
2427 -0.213277 0.183319 0.670276 0.360079 0.215642 -0.297823 -0.395141 0.387154 0.874254 0.624946 -0.389871 -0.702857 0.545589 -0.000522 1.059521 -0.057662 0.915231 -0.503686 -1.169285 0.686070 0.159518 -0.750343 0.501619 -0.867460 0.266523 0.174641 -1.018571 1.110172 -0.379866 -0.675953 0.658263 0.736093 -0.333044 0.162394 -0.555249 -0.762658 0.030261 -0.330548 -0.644834 -0.586485 -0.741855 0.785442 -0.157733 -0.271493 0.453083 0.399308 0.254282 0.509857 0.841486 -0.783246 0.300932 0.596855 -0.155123 0.821303 -0.549457 -0.021575 0.756590 0.340565 0.099511 -0.149661 0.227781 -0.774469 -1.271272 0.029464
70 -0.817885 -0.118211 -0.875443 0.524501 0.740267 0.311294 0.145524 0.014164 0.352842 0.011653 0.143132 0.420464 -0.277761 0.556625 0.230833 -0.193682 0.724733 -0.255291 0.156581 0.084075 -1.452705 0.159979 0.172623 -0.560251 -0.343164 0.269739 -0.555203 0.062749 0.584310 -0.140004 -0.142640 -0.600221 -0.246596 0.364265 0.853204 -0.007211 0.196597 -0.000194 -0.267523 0.355611 0.451528 -0.307818 0.616228 -0.232461 0.505372 -0.156951 0.125825 -0.158502 0.312855 0.388414 -0.424178 -0.505752 -0.591495 0.341188 0.519164 -0.312003 0.130539 -0.245126 0.236378 0.001522 1.000327 -0.465226 -1.600177 0.015892
670 0.499354 -0.568578 0.128500 0.485130 0.156109 -0.183213 0.193385 0.959879 0.451331 -0.517588 0.754677 -0.620404 0.104414 0.396771 1.285834 0.966008 -0.135971 -0.825740 -0.952152 0.021972 -0.338634 -0.493616 -0.032770 0.156742 0.568287 0.349432 0.249114 -0.077928 0.391982 -0.275578 0.447697 0.471911 -0.694513 -0.821065 -0.456550 0.031157 0.121729 0.228812 -0.025925 -0.443128 -0.183735 -0.846626 0.116383 -0.229159 -0.041907 0.451843 -0.566873 0.280878 -0.282251 0.264343 0.666549 0.349657 0.263118 0.446776 0.597077 -1.001682 0.407827 0.491693 -0.347754 0.379105 0.185878 0.079415 -0.230745 1.364165
2183 -0.001622 0.267555 0.310155 -0.422475 0.317834 0.115203 0.596211 1.060325 0.227971 0.154620 0.054917 0.435096 0.289611 -0.495190 0.467707 0.355780 -0.323650 0.586693 0.620634 0.374359 -0.537273 -0.005967 0.776963 -0.416957 0.800949 0.621981 0.197248 -0.653261 0.247913 -0.696202 0.186084 -0.122389 0.383067 0.213905 -0.412860 0.541998 -0.087485 -0.437250 0.184648 -0.315769 -1.038124 -0.207256 0.252218 -1.067614 -0.389804 0.056982 0.044641 0.985680 0.821801 0.572184 -0.528484 0.697189 -0.109035 0.069575 0.894305 -0.395045 -0.159191 0.122419 0.065071 0.472973 -0.272622 -0.335120 -0.317311 0.669755
2919 -0.693727 0.954647 0.041650 0.395869 0.870300 0.295881 0.853455 -0.685888 0.299290 -0.147864 0.085912 0.822157 0.002063 0.073489 0.649660 0.019086 0.247042 0.377220 -0.292426 -0.946008 -0.640212 -0.450179 -0.176494 -0.769931 -0.138954 -0.011448 -0.202243 -0.596538 0.459218 0.337089 0.047157 -0.319638 -0.560143 -0.017346 0.311482 0.080087 -0.518650 -0.221373 -0.387676 0.573869 -0.995115 0.119023 0.290726 0.052563 1.202464 0.662375 -0.126173 0.300625 0.559009 -0.609261 0.094213 0.303616 0.850508 0.793544 -0.540834 -0.021933 -0.098424 -0.456223 -0.611141 0.697269 -0.267312 0.161870 0.393178 0.429769
2626 -0.624478 -0.838873 -0.873404 -0.122495 0.715641 -0.142719 0.872701 0.168061 0.152727 -0.519537 0.188971 1.059637 0.322881 -0.324767 -0.421635 0.045107 -0.230805 0.220876 -0.833666 0.081243 -0.295118 -0.526417 0.823478 -0.635211 0.040882 0.305497 -0.401662 -1.112163 -0.155372 0.417854 -0.120230 1.025760 -0.869051 0.115263 -0.672770 -0.023948 -0.919371 -0.320950 0.006743 0.619370 0.039055 0.477197 -0.134741 -0.729062 0.475707 0.139071 0.020969 0.007996 0.663411 -1.095298 0.260948 0.658884 -0.229574 0.624139 -0.046434 0.419435 -0.135906 0.469688 -0.760034 0.720057 0.758684 0.385601 -0.101382 0.300914
847 -0.227437 0.458122 0.107247 -0.464493 0.584096 -0.315910 0.193487 0.742984 0.328054 -0.063410 -0.581308 -0.106327 0.354728 -1.097511 0.804307 0.298350 -0.328274 0.638885 0.183027 0.260249 -0.074573 -0.047363 0.462705 -0.243387 0.166362 0.556676 0.669313 0.252149 0.424032 -0.460990 0.800539 0.677736 0.150107 0.288796 -0.121615 0.008397 0.096385 -0.514974 0.660611 0.721402 -0.885914 0.055622 0.440294 -0.740905 0.827073 0.460657 0.261701 0.329231 0.860006 0.114551 -1.082035 0.714286 -0.279512 0.044804 -0.561089 -0.078033 -0.697171 0.599705 0.082868 -0.192939 0.128241 -0.273652 -0.738485 0.539661
2911 0.196475 0.457577 -0.341803 0.722810 0.763668 -0.258396 -0.537976 0.857080 -0.463639 0.094286 0.251377 0.307458 0.594599 0.557973 0.961897 -0.589654 -0.550419 -0.730199 -0.841371 -0.482882 -1.173890 0.153150 -0.285709 -0.724573 0.485405 0.114480 -0.887866 0.084103 0.722516 -0.667009 0.124230 0.816707 -0.066773 -0.140349 -0.217742 0.271078 0.404994 -0.273948 0.084502 -0.224190 -0.155311 0.218098 0.657934 0.110092 0.354483 -0.821046 -0.033441 -0.488087 0.069773 0.068372 -0.447522 0.076924 0.017497 0.653383 0.587635 -0.840592 -0.742276 -0.534925 -0.145478 0.155785 0.403704 -0.035964 -0.362799 0.480425
734 0.714685 -0.041700 -0.632207 0.054682 0.842187 -0.459070 0.317533 0.711693 -0.008926 -0.740535 0.357083 0.283399 0.605475 -0.064625 0.004311 0.338518 -0.019704 -0.978330 -0.616069 -0.001358 -1.026602 0.024159 0.190932 1.471517 -1.004089 0.810560 -0.076318 -0.229728 0.793154 -0.401811 0.268305 -0.065034 -0.471491 0.145705 -0.045191 0.573920 0.320887 -0.133710 0.628760 0.712756 -0.215893 -1.108261 -0.437559 0.223566 1.460813 -0.629694 -0.458586 0.287084 0.291423 -0.010365 0.549798 0.271075 0.386206 1.052349 0.283035 -0.691408 -1.158671 0.025363 0.796707 0.349308 0.266787 -0.212768 -0.765908 0.199199
2458 0.066534 -0.689637 -0.906753 0.927114 0.672185 -0.656789 0.024988 0.417787 1.042966 0.361677 1.232032 0.924981 -0.632304 -0.698330 -0.078317 0.269123 0.931669 0.295824 -0.288915 -1.110231 -0.154116 -1.522712 0.110039 -0.501357 -0.574320 0.446854 -0.748841 0.530650 0.682357 -0.027213 0.030533 0.534370 -0.631267 0.595095 -0.314582 -0.131025 -0.276316 -0.225088 0.026189 1.156931 -0.811327 -0.179085 0.391157 -0.380286 0.116592 -0.757350 0.035116 0.818055 -0.213715 0.106016 -0.102029 -0.678141 -0.410442 -0.357252 0.283834 -0.633474 0.672321 -0.237805 0.063029 0.472956 -1.256384 -0.499736 0.144638 0.788737
603 0.276990 -0.315605 0.483987 0.250522 0.760215 0.297768 0.144809 -0.405280 0.159412 -0.229372 0.501502 0.511632 -0.803069 -0.232710 1.097588 0.224072 0.788436 0.058071 -0.299942 -0.007917 -1.220738 0.490085 0.591290 0.337378 -0.016066 0.840742 -0.755402 0.464145 -0.189632 -0.142724 -0.431219 0.783860 0.353297 -0.051062 -0.418121 0.228467 -1.051397 0.642891 -0.309551 0.636566 0.509106 -0.733790 0.469791 -0.011295 -0.462088 0.121536 0.308540 0.387557 1.360769 0.546711 0.356897 -0.003965 -0.580836 0.920278 0.605174 -0.506680 0.051471 0.632077 0.161014 0.262833 -0.045448 0.042179 0.828280 0.474131
1180 -0.026196 -0.114351 0.828238 -0.748855 1.182692 -0.628628 0.102704 -0.205643 0.376544 0.555946 -0.143916 -0.050162 0.226348 0.071384 0.142042 0.282175 -0.297506 0.039236 -0.158839 0.412014 -0.396097 -0.400614 0.183039 0.074947 0.030092 0.524602 0.762528 -0.102076 -0.049121 0.504085 0.452913 1.066243 -0.902458 0.026211 0.153113 0.433331 0.197243 0.370153 -0.090941 1.099590 -0.838285 -0.059364 0.520413 -0.422611 0.327228 -0.272022 -1.015713 0.361104 0.432301 -0.262058 -0.915622 0.003323 -0.410683 1.026075 0.006919 -0.507483 0.702707 0.772035 -0.320288 -0.131488 -0.649814 -0.320333 -0.566454 -0.095824
1875 -0.274954 0.508511 0.309462 0.194895 0.293567 -0.852208 0.555153 0.609190 0.495326 0.253568 -0.230732 0.027028 0.742185 -0.299130 1.175978 -0.169289 0.075116 0.696076 0.121744 -0.031773 -0.317675 -0.252742 0.774201 -0.252000 0.149486 0.196293 0.230391 0.121537 0.203601 -0.157788 0.752304 0.986340 0.095473 -0.060044 -0.254670 1.060344 -0.462762 0.394007 0.393858 -0.224450 -0.689910 0.148152 0.501466 -0.540706 0.182773 -0.213789 -0.071068 0.285689 0.627435 0.849059 -0.910544 0.267148 -0.020365 0.625578 -0.282343 0.102744 -1.118310 0.353016 -0.043051 -1.037214 0.253499 -0.574750 -0.361750 0.065822
413 0.289547 0.627548 -0.630734 0.475781 0.352520 -0.114455 -0.477879 -0.066077 -0.230410 0.248532 0.889909 0.695097 -0.312151 0.525546 0.497650 -0.486684 0.412441 -0.904500 0.739814 -0.212465 -0.339119 0.105260 -0.055176 -0.225824 0.038989 0.159971 0.093728 -0.969380 0.153587 -0.453164 1.236011 0.056080 -0.734668 -0.250243 -0.135482 0.624245 0.037401 0.509361 0.283549 -0.159929 -0.510365 -0.618282 -0.344980 0.599787 0.460690 1.765506 -1.238665 -0.067926 0.849434 0.367859 -0.333368 0.699936 -0.630687 0.243769 -0.278648 0.120931 -0.032330 -0.440193 -0.530890 -0.168495 -0.396593 0.364791 -0.221462 0.879386
427 0.556351 -0.286886 0.305102 -0.111460 0.846893 -0.565953 0.023579 -0.439555 0.807665 -0.777134 0.357176 1.292980 1.420049 -0.380091 -0.404554 0.998639 0.075573 -0.187640 0.347997 -0.907870 -1.765143 -0.070370 0.298191 0.233503 0.074412 0.571913 0.259031 -0.799824 -0.060319 -0.123528 0.353839 -0.163980 -1.303332 -0.621336 0.115733 -1.154199 0.076702 0.725145 0.593862 -0.102965 0.889506 0.454476 -0.150212 0.480611 -0.235208 0.947992 -0.140622 1.087551 0.962884 0.462901 -1.202923 0.280094 -0.139956 -0.367081 -0.218065 -0.092448 0.120086 -0.886751 0.098732 1.047512 -0.471630 -0.179163 -1.083835 0.305655
2416 -0.668963 -0.272686 -0.311074 -0.110670 0.210310 -0.217418 0.228878 0.164046 0.500266 -0.458436 0.055786 0.226370 1.000080 -0.486091 0.151660 0.024807 -0.022098 -0.068187 0.518514 -0.133650 -0.282287 -0.534113 0.846607 -0.557546 0.331579 0.453745 -0.306941 0.048599 -0.825005 -0.752447 -0.268046 -0.223563 -0.167441 0.182962 -0.461054 -0.531195 -0.573733 -0.804501 -0.358357 0.000006 0.369553 -0.481785 -0.544780 0.288728 0.967698 0.245226 -0.799540 -0.186014 0.383929 0.423461 -0.719456 -0.151407 0.064108 -0.005781 0.196221 -0.805014 -0.112144 0.324510 -0.364779 0.796497 -0.289805 -0.484528 0.094139 -0.197769
1551 0.474126 -0.160794 -0.383940 -0.104126 0.308601 0.430143 0.029846 0.408794 0.929190 0.111763 0.357149 0.374500 0.659191 -0.594393 0.082820 0.518915 1.453850 0.882341 -0.954118 -0.171621 -0.827432 -0.014533 0.343744 -0.191985 -0.756700 0.624701 -0.815898 -0.124803 0.647638 0.601009 0.059364 -0.698504 -0.655955 -1.189256 0.149587 0.739091 -0.103045 -0.710779 1.240251 -0.038109 -0.686413 0.317933 0.959760 -0.040792 0.056793 0.434544 -0.367325 0.107113 0.936190 -0.406836 -0.920078 -0.221064 0.404536 -0.905550 -0.409754 -0.654126 0.179239 -0.473589 0.281690 -0.108047 -0.040205 -0.181191 0.126988 -0.203073
2896 -0.062491 0.377235 -0.180716 -0.495825 1.040576 -0.369276 -1.571330 0.474045 0.855084 -0.220160 0.304072 0.655938 0.683390 -0.459917 -0.306549 -0.729352 0.149484 -0.144594 0.007775 0.043313 -1.716917 -0.057145 0.446650 -0.418259 -0.205269 0.102714 0.695848 0.018471 0.494283 -0.178279 0.550332 0.843125 0.605264 -0.284874 -0.263218 -0.594926 0.049239 0.149143 -0.079728 0.802835 0.005072 -0.086090 -0.069125 0.004461 0.220835 -1.453542 -0.442362 -0.229171 0.557976 -0.468174 -0.736960 0.022234 0.714941 1.038375 -0.216464 -0.036510 0.244725 0.969569 -1.775494 0.025025 -0.564313 0.708080 -0.255648 0.419802
1758 -0.364289 0.170563 0.315033 -0.544454 0.444997 -0.295586 -0.575215 0.506486 0.151504 0.903628 0.199302 0.433406 0.292317 -0.628191 1.175484 -0.644303 -0.281459 0.145071 -1.098480 -0.149811 0.338585 0.190019 0.335562 0.038309 -0.113594 0.481882 0.267613 -0.094457 -0.012939 0.059250 1.160447 0.308527 -0.886436 -0.544579 0.011243 -0.003353 0.360519 -0.861418 0.158680 -0.353612 0.363460 -0.569241 0.874225 0.754282 1.109118 0.518121 0.033790 -0.217066 0.710997 0.258220 -1.593213 0.839946 0.037197 -0.504682 -0.738554 -0.054339 -0.541664 0.014651 -0.736812 0.222190 -0.151318 0.191329 -0.939594 0.742060
1963 1.454665 -0.170234 -1.162730 -0.149759 0.508815 -0.837454 -0.676895 -0.076137 -0.053592 0.653636 1.433242 0.954551 0.246118 -0.860726 -0.147286 -0.687274 0.734047 1.111796 -0.740234 0.214155 -0.663827 -0.114404 0.983345 -1.649773 -0.897390 -0.772436 0.176345 -0.035926 0.402217 -0.101959 0.378039 0.076891 0.428063 0.507497 -0.594742 0.367742 -0.426059 -0.019490 0.310425 -0.185281 0.259738 -1.332094 0.850225 0.058782 0.346303 -0.432352 -0.356316 0.571157 1.244833 0.246065 -0.539930 -0.049448 -0.353134 0.924550 0.126456 0.148263 -1.143118 0.428745 0.126445 -0.755447 -0.002309 1.153296 -1.441553 -0.599934
540 -0.296800 0.122008 -0.273683 1.269305 0.577361 -0.189074 0.186141 0.508592 -0.431742 -0.139840 0.924300 0.731818 0.402605 0.336152 0.138780 -0.785034 0.514683 -0.300567 -1.058624 -0.140756 -1.073506 -0.155729 -0.013342 -0.678647 0.079769 0.167802 -0.358973 0.537237 0.715663 -0.860062 0.247553 0.904964 -0.211122 0.168368 -0.350587 0.071686 0.657926 -0.058639 -0.054840 -0.083291 -0.099705 -0.072342 0.555252 -0.748870 -0.104560 -0.600782 0.469868 -0.649368 0.915736 0.373248 -0.040686 -0.040418 0.714753 0.174034 1.029046 -0.202896 -0.505506 -0.165373 0.016924 -0.055966 0.343932 0.249894 -0.900771 -0.096634
1668 0.956595 -0.268466 0.331831 -0.128134 0.205745 -0.249933 0.262419 -0.233218 -0.482770 0.801853 0.839073 0.920155 0.887451 -0.488307 0.425099 -0.100389 0.178536 -0.837937 -0.563426 0.716396 -0.289848 -0.267175 -0.500228 -0.330280 0.452658 0.136530 0.550547 0.299332 -0.979946 0.301205 0.479285 0.122377 -0.220826 -1.072639 -0.848309 0.324394 -0.721168 0.848165 -0.384339 0.563824 -0.765104 0.368727 -0.564622 0.579899 -0.050580 0.024543 -0.535045 -0.270282 0.344091 -0.466991 -0.085948 0.102315 -0.406874 -0.464581 0.166595 -0.360831 -1.049003 0.247353 0.530708 0.862438 1.051628 -0.587438 -0.686728 0.620652
2589 0.845902 0.044241 -0.796572 -0.772392 0.110908 -1.025346 -0.761251 0.956164 -0.446214 -0.107018 0.240397 1.155029 0.083583 1.716275 1.091027 1.136745 -0.212769 0.420816 0.029459 0.063712 -0.968563 -1.111141 -0.276227 0.312213 -0.627704 0.672292 0.847097 -0.256403 -0.086894 -0.028707 -0.134492 0.396758 0.254890 -1.181912 -0.241553 -0.751609 -1.743752 -0.662388 0.185431 0.383064 -0.325156 -0.343426 -0.231490 0.242724 0.345006 -0.393924 -0.245050 1.307490 0.688255 0.418345 -0.855526 -0.580524 0.281127 -0.254601 -0.390369 0.766700 -0.177534 0.415776 -0.645787 -0.436366 0.282214 -0.731723 -1.041847 -0.076661
1208 -0.058339 -0.057497 -0.249499 -0.402789 1.161027 0.370100 -1.424051 0.519122 0.415005 0.128155 0.421445 0.864122 -0.407340 -0.085129 -0.152260 0.184626 0.570869 0.569823 0.280356 -0.386512 -0.533863 -1.778437 0.332058 -0.057824 0.530990 0.313468 -1.009145 -0.553418 -0.055358 0.091845 0.572034 -0.309778 -0.636195 -0.490386 -0.374555 0.136659 -0.420417 0.023766 -0.883944 -0.685268 -0.528065 0.298844 -0.604489 -0.777129 0.645320 -0.104822 0.574162 0.425235 -0.333043 0.604365 -0.672413 0.409217 0.054660 -0.044486 -0.283436 -1.252972 -0.652342 -0.420825 -0.009324 -0.779457 -0.723515 -0.745935 -0.171057 0.368996
2434 0.730444 1.024293 -0.546544 0.313653 0.099624 -0.143660 0.474106 0.433765 1.161119 0.844989 1.407347 0.709540 2.031952 -1.228652 1.357870 0.707228 -0.292470 -0.103518 -0.461863 0.940852 -0.629865 -0.725225 -0.382391 0.323707 0.052147 -0.046320 -0.737833 -0.460846 0.586862 0.338106 0.378927 0.544805 0.322664 -0.652185 0.558799 0.130963 0.395852 -0.913771 -1.429682 0.151480 1.174256 0.250508 0.773454 -0.135272 1.217957 0.213048 -0.521866 -0.125285 0.449712 0.247923 0.605690 -0.063145 -0.989984 -0.183807 0.339355 -0.494610 -0.628774 -0.187659 -0.725252 0.149812 0.904731 0.940192 0.412327 -0.057366
150 0.181824 0.288467 -0.007169 -0.088910 -0.259685 -0.293507 -0.090259 -0.171178 0.491214 -0.301804 1.176169 1.197282 -0.015459 0.057295 0.356919 -0.054481 0.155062 -0.127241 0.526504 0.926784 -0.396715 -0.535507 0.602868 -0.328938 -0.276279 0.177567 -0.381804 -0.215204 -0.369088 -0.127836 0.975704 0.012376 0.483306 -0.233812 -0.597267 0.206545 -0.196351 0.593634 -0.215960 0.275534 -0.757349 0.050610 0.101851 -0.092420 -0.100444 1.131268 -0.714543 -0.904120 0.524205 -0.810759 -0.310826 0.375313 -0.186607 0.023028 -0.433420 -0.418988 -0.171116 -0.824007 -0.043071 -0.247379 -0.268537 0.332961 -0.562416 0.952906
2021 0.180676 -0.222664 -0.331587 -0.314268 0.724124 0.223053 0.324449 0.351110 -0.316123 -0.334106 0.451783 0.436645 0.210822 0.262987 0.694257 -0.477614 -0.256570 0.279555 -0.380045 -0.349298 0.150627 -0.021998 0.053165 -0.366275 0.010884 0.435156 -0.606376 -0.986937 -0.163949 -0.229003 -0.089843 -0.040441 -0.340440 0.262679 0.533819 -0.264279 -0.100426 0.174935 -0.035605 0.435284 -0.566676 0.075775 0.148461 0.141012 0.442244 -0.777252 -0.249419 -0.482530 0.583444 -0.330838 -0.731096 -0.323342 0.066508 0.084632 -0.047668 0.144180 -0.360580 0.146186 -0.032497 -0.259045 0.063776 -0.666057 -0.199945 0.942635
472 0.609431 -0.237299 -0.290363 -0.491094 -0.027708 0.550063 -0.073911 0.182447 0.475729 0.114671 -0.397032 0.331418 0.741586 -0.897606 1.005847 0.333031 0.976440 0.132131 -0.533192 0.223630 -0.868717 -0.285333 0.221773 -0.320859 -0.396145 0.920720 -1.012129 -0.586317 0.328689 0.344650 0.537534 -0.508709 -0.641840 -1.159510 -0.443870 0.692076 0.118573 -0.292107 1.117669 0.397473 -0.510171 0.457066 0.583711 -0.010462 0.113198 0.128440 -0.686041 -0.189865 0.657544 0.510995 -1.079323 0.484150 0.937050 -1.127601 -0.725042 -0.411933 0.491614 -0.076310 0.024024 -0.386668 0.309334 0.198379 -0.009263 -0.525548
1022 0.787624 1.687740 -0.147301 1.958233 0.622309 0.033884 -0.069585 -0.299199 0.079255 -1.141192 0.522308 1.132993 0.058351 -1.211801 0.872977 0.111080 0.300949 0.123456 0.253849 0.287309 -0.195792 0.133219 1.213778 -0.577610 -0.013551 0.773927 0.905547 -0.403334 0.101896 -0.694504 0.559774 -0.533803 -1.228587 -1.572673 0.192560 0.328526 0.300069 -0.798621 -0.253455 -0.381026 0.486319 -0.802628 -0.847892 -0.202082 0.644503 -0.492725 -0.759075 -0.155660 0.891227 0.134022 -0.975142 -0.399273 0.692333 -1.050106 -1.350217 -1.270048 0.330769 0.935785 -1.239268 -0.101781 0.668244 1.384289 -0.273967 0.117252
307 -0.017424 -0.113142 -0.610733 -0.437652 1.221455 -0.541287 0.456144 0.063524 -0.150519 0.066362 0.013338 0.235950 0.718361 -0.357506 0.547096 0.157189 -0.222475 -0.001509 0.294560 0.261324 0.160420 -0.837114 0.228017 -0.320451 -0.287323 1.102154 -0.670533 -0.660531 0.145276 -0.117230 -0.488856 0.510541 -0.556665 0.015263 -0.282414 -0.296115 0.364613 0.042313 -0.020246 0.230697 -0.082917 -0.524275 -0.325445 -0.346390 0.186980 -0.137307 -0.072441 -0.389303 0.251407 0.141585 0.259635 0.080333 -0.512801 -0.195267 -0.042882 -0.216674 -0.348472 0.290228 0.335006 0.167094 0.352532 -1.201105 -0.101168 -0.189333
2226 -0.693869 0.043945 -0.213444 -0.216823 -0.171944 0.021798 0.194514 0.749198 -0.145195 0.274192 0.348307 0.112771 0.775115 -0.241264 0.343405 0.223155 0.492572 0.761405 0.642170 -0.252816 0.106872 -0.738615 0.520562 -0.408627 0.909880 0.498059 -0.106567 0.449381 0.013571 -0.225152 0.517161 -0.241228 0.122717 0.377167 -0.362257 0.013484 0.206181 -0.578357 0.055693 0.459180 -0.050607 0.274337 -0.481654 0.104731 0.306853 0.429165 -0.376698 -0.000826 0.664442 -0.284958 0.029619 0.621158 -0.217448 -0.448139 0.620013 -0.981665 -0.616899 0.378822 0.194873 0.189669 -0.336688 -0.206057 -0.251461 0.296073
1381 0.352576 -0.144014 -0.045584 1.037481 -0.653607 0.304639 -0.010746 0.109743 -0.070871 0.711213 -0.207355 0.662770 0.385561 -0.137596 0.326532 -0.366258 -1.029132 -0.065527 0.244233 0.888348 -1.435377 0.148193 0.614130 -1.279955 0.117305 -0.446172 -0.443183 0.482217 0.065858 -0.205908 0.831436 -0.770106 -0.033530 -0.566771 0.213737 -1.343480 -0.100061 -0.095028 -0.108039 0.730870 -0.494705 -0.479828 0.502624 0.252923 0.062462 -0.091648 -0.432105 0.973927 -0.714191 -0.513226 0.690342 0.885614 -0.178160 -0.583789 -0.341912 -1.405488 -0.522246 0.448065 -1.815700 -0.875025 0.398905 -0.137299 -0.542593 0.513795
1366 0.380876 -0.652904 0.643663 -0.884794 1.439791 -0.284389 0.483906 -0.644388 0.261553 0.327497 0.605647 -0.227070 0.372376 -0.776426 -0.080857 0.760237 -0.479435 -0.214592 -0.155861 0.027244 -0.786573 -0.497312 0.154261 0.198651 0.374724 0.806174 0.482878 0.377081 -0.652751 0.629143 0.002270 0.391084 -0.366708 0.081527 -0.277455 0.448311 -0.145401 0.035986 -0.128452 0.461317 0.282818 0.014250 -0.163103 0.746774 0.150187 -0.364898 -0.473643 0.839848 0.526121 -0.539791 -0.680234 0.471489 -0.326489 0.431349 0.366795 -0.817758 0.084366 0.445726 -0.191015 -0.489130 -0.423753 -0.320772 -0.039585 -0.496586
27 0.198938 -0.060983 -0.441493 -0.015835 0.588874 0.013895 0.277005 -0.046336 -0.598762 -0.239505 0.486346 0.149301 0.377532 -0.003411 0.859743 0.105048 0.045924 -0.079335 0.100851 0.028160 0.807840 -0.882515 0.794366 -0.679269 0.093007 0.778548 -0.896886 -0.541543 -0.010900 -0.309241 -0.295987 0.084225 -0.292161 0.322349 -0.249107 -0.627465 -0.140538 -0.395114 0.038412 0.132110 -0.281995 0.351370 -0.046940 0.094019 0.561349 -0.362423 -0.648083 -0.430744 0.614998 -0.354468 -0.355975 0.477791 0.049342 0.025051 0.235133 -0.259877 -0.169288 0.062939 -0.131183 -0.368684 0.275601 -0.756486 -0.200223 0.113703
