2708 64
1358 0.5777766 0.19763666 -0.13546565 -0.31719735 0.587533 -0.220459 0.37552148 -0.61182195 -0.04985415 0.016528007 0.11487636 -0.18154329 -0.05252204 -0.6265965 0.101724654 -0.6173662 0.6955631 -0.116696835 -0.54922694 0.3728967 -0.03856979 0.5999768 -0.68756276 0.16465536 -0.023258926 0.03749984 -0.1513543 -0.008877162 -0.3157376 0.28500792 0.039431233 0.141255 0.12410881 -0.18185994 0.5029313 -0.4356202 -0.35824656 0.073914096 0.13474828 0.24961442 -0.5371212 -0.40233117 0.076218605 0.207541 0.15422268 -0.3439877 0.21306884 -0.10408583 -0.509434 -0.31433183 0.14636703 0.4121304 0.2594836 0.04818958 -0.1743547 -0.29146907 0.22507538 -0.13508223 0.022924395 -0.5111041 -0.038640544 0.1776782 0.14527214 -0.11929303
1623 -0.21717767 -0.6679186 0.5037124 0.4242187 -0.08792865 0.37932506 -0.17659557 -0.44740346 0.12748815 0.69043255 -0.18640004 0.008870755 -0.790679 0.3966209 0.2977632 0.20847344 0.47218364 -0.27691028 -0.0712867 -0.44884086 0.5170324 -0.34309962 -0.027587075 0.22611034 -0.65058744 0.47290167 0.72950745 -0.11980226 -0.5089818 0.33606532 0.19108427 0.34650868 -0.042078625 0.1373681 0.20654768 -0.52034014 -0.37892878 0.027638644 0.41759837 0.012042766 -0.2658422 -0.5155058 0.05130999 -0.20885491 0.11143012 -0.21020542 -0.44696745 0.10328827 -0.24100418 -0.23933144 0.4129597 0.059043534 0.03078808 0.30511683 -0.84567803 -0.6363377 -0.103522964 -0.20708099 -0.02829856 0.25849995 -0.087203644 0.33816186 -0.18207304 -0.7488839
1701 0.16514961 0.5692182 -0.051237285 0.4551866 0.7652156 -0.19856893 -0.17942257 -0.3779144 0.21308467 -0.22721511 0.29583663 -0.910788 -0.4420185 0.21810585 1.0700636 -0.32561356 -0.31111112 -0.030351633 -0.11527371 0.39862773 0.56879604 -0.7765401 0.17814827 0.031269427 -0.56294984 0.5176514 0.2730426 0.42796165 -0.25645104 -0.07165141 -0.3512228 0.6775307 -0.020312829 -0.41532463 0.314355 -0.33260918 0.44286844 -0.15271251 0.29760405 0.3274773 0.31548455 -0.1079159 0.26966116 -0.2773736 0.4328671 -0.28036758 -0.02773949 0.049459014 -0.33550644 0.64398086 0.2133319 0.068452254 0.17029993 0.16330494 0.7737664 -0.09807742 0.36410218 0.4939895 0.20973383 -0.031275596 0.3361844 -0.190149 -0.18558013 0.009550296
306 0.22323787 0.71052945 0.10563346 0.28082746 0.32829332 -0.2504705 -0.036956336 -0.3294222 -0.5235545 0.093777254 -0.2315067 0.08133736 0.64459217 0.44642925 0.30545545 0.11118483 0.7094324 -0.8501902 0.148788 -0.13056445 0.29574302 -0.4811873 0.30435836 0.2023575 -0.51591974 0.59202343 0.7979221 -0.17594573 0.008701115 0.20860076 0.3053967 0.24620605 -0.7319317 -0.30330423 0.20579882 -0.5677768 0.17570552 0.44774646 0.12597752 -0.251852 -0.13629937 -0.33301866 0.1396689 -0.4254588 0.15913296 0.24066325 -0.03418675 0.16372725 0.0717684 0.5754013 0.12782897 0.22277303 0.24828558 0.043653484 -0.36396596 -0.31788427 -0.6408618 0.22534205 -0.12253004 0.14291824 -0.68950063 0.6099719 0.20158267 -0.3863503
1986 -0.5688525 0.500111 0.54449767 -0.012169877 0.62540513 0.0074873758 0.13329628 -0.98245776 -0.1866444 -0.21227318 -0.12644401 0.19352674 -0.2182596 -0.21924685 -0.4140551 -0.112417854 0.36208057 0.04346998 -0.057075076 -0.25757366 -0.3483667 -0.27222836 -0.36172846 0.08692589 -0.050148804 -0.3793786 -0.18030465 -0.32306996 0.087664485 -0.26044178 0.18542717 -0.2211315 -0.13540392 -0.7976826 -0.5288955 -0.07543727 0.32089937 -0.07049585 0.18409276 0.09614912 0.22770324 -1.2118063 -0.16883776 -0.8643042 0.025388965 -0.2884749 0.08494981 0.40276402 0.13150744 0.41520816 -0.21256056 0.8602017 0.2949162 -0.2630613 0.37855455 -0.47898903 0.46673837 -0.11550853 0.71303535 0.5081517 -0.21309406 -0.17907716 0.3869353 -0.46325135
2034 -0.5613067 -0.8320236 0.5809551 -0.6828828 -0.13616994 0.39837632 1.1265478 -0.7721361 -0.0439893 -0.42314297 0.75961345 -0.6226202 0.21989004 0.24070609 0.7162106 0.25096813 0.37785667 -0.23485799 0.012799993 -0.14216575 0.17786428 0.39313197 -0.6333698 -0.10830807 -0.75983757 -0.18070321 -0.16325872 -0.65023094 0.03858422 -0.4370781 0.15130416 0.62814605 0.533071 -0.08533848 -0.4961502 0.07555445 -0.1313759 -0.33072892 -0.292481 -0.037481252 0.37399793 -0.3610941 -0.0246086 -0.0022830507 0.41367683 0.41733 -0.4019579 -0.41151416 -0.69165444 0.7961009 0.77118534 0.27163792 0.54711264 -0.07689056 -0.08017733 -0.6100693 0.4297567 0.2276652 -0.3041842 -0.01729676 0.46282542 -0.8332218 0.1675353 0.011825417
2001 -0.34165668 0.16402747 0.26723877 0.27916715 -0.36497438 -0.22176924 0.4774246 -0.916951 -0.009747673 -0.65456414 -0.25719357 0.5544054 -0.1933105 0.34879664 0.3133267 0.060466927 0.59038484 -0.30931717 -0.1151807 -0.19503018 0.24046732 -0.09883762 0.10488813 -0.26599824 -0.55487555 -0.577698 -0.35649627 -0.2470461 0.37284866 -0.3726629 0.26349452 0.13348247 -0.0012788505 -0.99086845 -0.44283637 -0.3930504 0.68900466 -0.00084391277 0.26599422 -0.18145363 -0.3175873 -0.042575143 0.707954 -0.56709015 -0.24646632 -0.8481231 0.35456315 0.49073806 -0.2717403 0.43854222 -0.31569815 1.0793402 0.6342023 -0.07271371 0.645809 -0.2590972 -0.2131504 -0.15008478 0.20169804 -0.13979083 0.14130367 -0.10848416 0.45881084 -0.41003025
1104 0.018516924 0.2625561 0.2232679 0.51355016 0.038295943 0.31364772 0.11930903 -0.051600683 -0.49749833 0.5183235 0.34494245 -0.6133371 -0.061674476 -0.14247498 -0.11610005 -0.5310236 -0.03848833 -0.30151844 -0.56340957 -0.7974831 -0.44208008 0.20596711 0.41305715 -0.5857343 -0.080814116 0.31499195 -0.092060655 0.39145005 0.21654409 -0.1446439 0.03742675 0.1973844 -0.48486048 -0.49609256 0.24025159 -0.331174 0.6803153 0.16660003 -0.35115427 0.37842867 0.2026903 -0.075262666 -0.92606205 -0.17186683 -0.7198766 -0.008824497 -0.13510622 -0.03367535 -0.4086272 0.39938477 0.18773767 0.55220824 0.29473105 -1.1850553 -0.23391299 -0.0666199 0.023890594 -0.42094862 0.2830709 0.22762558 1.4105421 0.28965238 0.5478343 -0.8092683
1542 -0.93278074 -0.67735434 0.20460571 -0.41474527 0.011777089 -0.3179907 -0.2424013 0.17172326 0.047560576 0.26201093 -0.44236574 -0.22578104 0.7212498 -0.4355636 -0.09626556 -0.30572423 -0.010795622 0.004375027 -0.40460476 -0.014414094 0.3397502 -0.30859712 -0.21095389 0.46197602 -0.8865048 0.6751607 0.09293675 -0.3709828 -0.6135025 0.81331104 -0.18115176 0.009069386 -0.3347236 -0.2563517 0.4585325 -0.0872757 0.49220657 -0.27984315 0.32715765 -0.48687986 0.30927375 -0.5392834 0.27667752 0.60204035 -0.2621285 0.036114067 0.76657456 -0.39797282 -0.12971212 0.7443648 -0.36909527 -0.053197198 0.7608821 0.21340685 0.06651933 -0.7516168 0.11249567 -1.0942804 0.36719525 -0.5379078 0.79440266 0.47784916 0.26578993 -0.8088629
1072 0.19247219 0.32876298 0.2943588 0.7012881 0.7752551 0.47379127 0.27082253 -0.24640977 -0.14762944 -0.53103083 -0.021775255 -0.13766904 0.7644007 -0.020171726 -0.16413645 0.096586175 0.56531376 -0.6449238 -0.44688857 -0.05092402 -0.16553362 -0.6656807 0.16680053 -0.18716213 0.1126744 0.32173768 0.13357694 -0.28107223 0.49581242 -0.26583508 0.25386235 -0.098149575 -0.39108926 -0.39679632 0.7915766 -0.52207613 0.6267368 0.170388 0.11769837 -0.47528055 0.19178304 -0.10131942 -0.2599887 -0.29679155 0.13861749 -0.027621983 -0.49469584 0.39282167 -0.46227238 0.34217864 0.21808471 0.28053394 -0.107642934 -0.17276002 -0.2795613 -0.41757476 -0.83752495 -0.56115246 -0.11011789 -0.24360579 0.24800502 0.06814526 0.009318418 0.05845768
279 -1.1808337 -0.36822614 0.36027128 -0.7512862 0.6915812 0.64454293 0.5815096 -0.25572696 -0.0007117373 -0.113464944 0.116224416 -0.32087857 -0.058534227 0.20740248 0.80194765 0.5321324 -0.054513257 -0.19673125 0.1781113 0.15303177 -0.04248991 0.02017722 -0.11804796 -0.48709428 0.040609162 -0.16492249 0.009854478 0.091733284 -0.44537738 0.60754585 -0.018182661 0.78758067 -0.22441024 -0.6585944 -0.22029224 0.35208857 -0.23057388 0.045832686 0.7573617 -0.51871914 0.35931224 0.42352653 0.34728247 -0.3718544 -0.39467907 0.6047856 0.8488363 -0.108641386 -0.14819427 0.3123104 -0.102423295 0.50032127 0.38695177 -0.37559503 -0.31122944 0.038088974 -0.42680037 0.06397785 0.005841188 -0.42767107 -0.15746404 -0.0210007 0.044260055 -1.2137396
1715 0.44533658 -0.21481615 0.26097566 -0.53910017 0.52254885 -0.79039145 0.23026271 -0.5154172 -0.11044771 0.059561975 -0.06980464 -0.4013205 -0.026133452 -0.7186289 0.31372413 -0.30286387 0.2566277 0.7121384 -0.25703058 -0.08984452 -0.42267072 0.57649183 -0.5648667 -0.08400413 -0.13590424 0.71542835 0.277197 -0.20655012 -0.1250814 -0.37714452 0.19346645 0.09130557 -0.28863472 -0.64307 0.34587973 0.068579346 0.021665942 -0.23381014 -0.008324221 0.18527249 -0.1274517 -0.053494506 0.45479837 0.5722287 0.048887804 -0.12899582 -0.28948697 -0.30820823 0.043975025 0.4636558 -0.17429097 0.3982835 0.092093885 0.3384647 -0.019403495 -0.68393934 -0.015146245 -0.59814316 -0.076102346 0.06269279 0.17222737 0.41988832 -0.43438736 -0.50460976
214 -0.39638844 0.09378906 0.63064617 0.5831651 0.6928158 -0.45169613 -0.0071742903 -0.64069706 0.5056028 0.4565949 0.21840557 0.21105988 0.030646507 0.32171494 -0.6511594 0.10105838 -0.18737964 -0.8122333 -0.3893759 0.059953686 -0.1562522 0.59544396 -0.4104115 0.462021 -1.1379969 0.23752011 0.37942338 -0.089807406 -1.1129785 -0.15295084 0.11364254 -0.41501647 0.029600991 -0.14863142 -0.7184725 -0.22903058 0.22896488 0.4470421 0.22759067 -0.39262658 0.2837486 0.52548695 -0.27528092 -0.2965646 -0.37934747 -0.59814614 -0.43443638 -0.6487345 -0.13173327 -0.009583527 0.2974624 0.25025424 -0.07121191 0.7203246 0.3505284 0.29052874 -0.19432184 -0.7061612 0.96499753 0.2731537 -0.34039727 -0.17199673 0.27516365 -0.07249006
2045 0.3079203 0.16451274 0.2967765 0.6366266 0.06383769 -0.2648425 0.1915606 -0.61461776 0.32105967 -0.4004037 -0.14791717 -0.60891366 -0.15793753 0.037950467 0.15285964 -0.29164982 -0.22905561 -0.10356418 0.054653183 0.12398193 0.24612263 -0.36376265 -0.3988389 0.41794112 -0.4349636 -0.18792003 0.33572719 0.096527115 -0.029016854 -0.20238633 0.07183782 0.48784304 -0.6245977 -0.61526614 0.27634016 -0.03245508 0.45582542 0.25184208 0.29943153 0.25574318 -0.2114726 0.09871085 0.3550399 -0.36615938 0.26300254 0.20156163 0.7040952 -0.21466278 0.13670564 0.3365651 0.29135573 -0.15137748 0.569246 0.24456187 -0.13829073 -0.2141384 -0.34480834 0.67514515 -0.36707053 -0.30610055 -0.6715492 0.13493635 0.40796953 -0.7343647
1337 -0.217918 0.328802 0.1260551 0.6343548 -0.20284355 -0.50067973 0.21014874 -0.12099826 -0.18971387 -0.5274198 0.5446219 -0.6081865 -0.57027787 -0.008219846 0.4320887 0.1879614 -0.32041252 -0.33159214 0.01668251 0.12081432 0.48123878 -0.28965652 -0.15619296 -0.35389647 -0.9121029 0.1993543 0.101238936 0.59774756 -0.1615428 0.22259931 -0.119178 -0.07009939 -0.35534456 -0.41113228 0.079745516 -0.3142647 0.1458587 -0.28072566 0.5926407 0.20603554 0.35604858 0.19770405 0.29187283 -0.5686117 0.33819258 -0.15091468 0.2259027 0.1080255 -0.055267695 0.6498273 -0.14933021 0.10606671 0.29049957 0.47579205 0.4774065 -0.8891203 -0.22887246 0.5643966 -0.4824966 0.22078526 -0.20234567 0.13895035 0.44348702 -0.6387546
751 0.33079755 -0.5270008 0.043885063 -0.17461078 0.40097618 -0.7060572 -0.06529727 -0.73514783 -0.26369432 -0.2043818 0.038792394 -0.41665834 -0.069196664 -0.5837941 0.35185742 -0.41054407 0.22464997 0.39852592 0.51229364 0.0751521 -0.5366588 0.7752636 -0.77024573 0.27718458 -0.9904054 -0.225957 0.1656655 0.5817084 0.5655321 -0.2943909 0.6659901 0.19204395 -0.98633176 -0.45902464 0.38169995 0.7781528 -0.037366368 -0.16518709 -0.4773793 -0.54163057 0.5550285 0.705269 0.80108947 0.82148176 0.6063636 0.009199108 -0.106582366 -0.38461086 -0.28217593 0.800462 -0.6030626 0.516503 0.48482347 0.2836813 0.3688403 -0.5670602 -0.14981864 -0.07950993 0.207807 0.11216376 -0.4087028 0.30922216 -0.33800745 -0.72206235
733 0.58555865 -0.21487103 0.682597 0.07889989 0.53381276 0.43646646 -0.43191093 -0.24294923 -0.26660106 0.23085283 0.40114358 -0.24593689 -0.19605394 0.33274648 -0.24032743 -0.6238764 -0.21018772 -0.639515 -0.39866403 0.3571767 0.6245385 0.59144765 -0.41076002 0.014585312 -0.30778942 0.06010597 0.095983766 -0.35938022 -0.7866591 0.2276776 -1.117784 -0.6609647 -0.029380793 -0.44613042 0.13561326 0.33916196 0.44793957 -0.18471144 -0.6258784 -0.3956157 -0.2919757 -0.2875028 -0.25371847 0.76966745 0.68303686 0.05138104 0.34271705 0.35301512 -0.66962785 -0.09425538 -1.1119791 0.09404118 0.3657834 -0.12451159 0.22556755 -0.3091605 -0.09876419 -0.12875749 -0.6010768 0.14824098 0.107336365 0.26928803 0.17462197 -0.556839
2094 0.6873311 0.32929084 0.41620737 0.5180775 0.25619254 -0.19225663 0.29808155 -0.23253623 -0.15082109 -0.91257054 0.39041227 0.14161958 -0.55131847 -0.26646158 0.518401 -0.0751814 0.48583445 0.45356673 0.01612906 -0.0842663 -0.46915168 -0.57992893 -1.4355152 0.15583076 -0.70859015 0.5838363 0.36267984 -0.38767913 -0.521849 0.5104503 0.3051413 -0.37003207 -0.5360666 0.1314206 0.34301344 0.18338014 -0.8010554 -0.46534708 0.16334121 -0.27207726 0.13239847 0.26495472 0.040811956 -0.18035915 -0.3765878 -0.8892901 -0.09932428 -0.44627762 0.03542307 0.33182636 0.0954878 0.37248173 -0.5653495 -0.20030582 -0.3066406 0.642431 -0.033357736 0.03315587 -0.81562376 0.069360994 0.2300787 0.70192814 0.22529632 -0.33952436
507 0.03740427 -0.59821266 0.10038933 -0.12372264 0.5227789 -0.5576048 -0.22553304 -0.13803047 -1.067384 -0.21468686 0.049404077 -0.7069131 -0.0407517 0.28955868 0.34366775 0.5286302 -0.13108738 0.32114255 0.26559007 -0.40158728 -0.13372092 -0.14022882 -0.5590777 0.57583654 -0.2557483 -0.2856497 0.3145793 -0.43813702 -0.3613001 0.15898448 -0.1275384 -0.057645924 -0.0076205865 -0.12553672 -0.12224546 -0.30512315 0.14289021 -0.23566855 0.41245112 0.10908674 1.0166531 0.4114762 0.14621337 0.67577356 -0.06258029 0.25398546 -0.40298787 0.19896549 -0.6274288 0.7179905 -0.52342445 0.56026214 0.026479255 0.013965837 0.016666442 -0.05310278 -0.32476193 -1.0589782 0.02127273 -1.061013 0.81600237 0.7108813 0.30064267 -0.10249574
1765 0.16722658 -0.23665223 0.44983542 -0.09745992 -0.6225432 0.0411208 0.14502865 -0.8315203 -0.15361774 0.5871783 0.018520547 -0.44744805 -0.6435656 -0.2375028 0.6600139 -0.09045572 0.13562919 0.2119 -0.3432875 -0.29095381 -0.18622907 -0.44279048 -0.8475152 -0.54404414 -0.188541 0.625112 0.064557076 -0.33644298 -0.8121821 0.11466206 0.34313938 0.0028826324 0.43755782 -0.100770645 -0.443403 -0.6288039 -0.39028093 0.09842022 0.2531174 -0.11973485 0.20214158 -0.89545953 0.25114095 0.118973 0.61144936 0.28753033 -0.35025546 0.620485 -0.22707728 -0.7394903 -0.029011553 0.14977027 0.5265121 0.07640477 -0.32859588 -0.16454385 0.5016154 -0.30378497 0.08931476 -0.21244009 0.14242923 0.80513555 -0.1229986 -0.44467258
963 0.025960209 -0.017404357 0.06587863 0.2474146 0.26363707 -0.39624932 -0.68755233 -0.21435064 0.12826443 -0.16682082 0.050327983 -0.5991723 -0.4614764 -0.09921273 0.8660067 -0.69657475 0.16126497 -0.46086794 -0.19537413 0.38464054 -0.5002989 -0.28446308 0.40762463 0.65702045 -0.3612008 -0.18422924 0.16049442 0.6960107 -0.4748044 -0.36213118 -0.5618648 -0.41224375 -0.13431044 -0.54136455 -0.28105938 -0.9072254 -0.16738772 0.102900125 0.52497196 -0.8985421 0.7405038 -0.17461762 -0.32716265 -0.05554813 0.29853043 -0.034494564 -0.66657525 -0.76551217 0.5863257 0.016144078 -0.3395149 1.31533 0.30194208 -0.02979056 -0.23964044 0.22269942 0.23363243 -0.023747813 0.48152483 0.13637869 0.17932676 -0.21260177 0.27151126 0.64625674
2040 0.3608029 0.8834885 0.2652419 0.23728375 0.2910321 -0.47149658 0.35179272 -0.83622366 -0.3790135 0.33797088 0.5292337 0.5826954 -0.14103986 -0.3941979 0.35189742 -0.60423446 0.33271676 -0.062223863 0.15429382 0.021795902 -0.29005006 -0.33772117 0.6451905 -0.8298132 -0.6741759 0.36833718 0.44443858 -0.32270432 -0.50568587 0.15673654 -0.75932795 0.12945524 0.37222436 -0.3009983 -0.31528214 -0.3865702 0.028906677 -0.43668625 0.6245137 -0.9008759 -0.5975486 -0.33877188 0.33497226 -0.100402296 0.5638649 -0.012296184 0.20092307 0.152117 0.36626366 -0.2698532 -0.6631815 0.2807657 0.80741984 0.21062492 -0.052031223 -0.41156775 0.29835755 -0.31387255 0.16956417 -0.09050612 -0.11796165 0.49769828 0.42429063 -0.89667135
544 0.5825885 0.40235662 0.030224755 0.8558699 0.1331062 0.46258712 -0.597415 -0.17265175 0.13522637 -0.5294672 -0.0851108 -0.36809963 -0.08055999 0.58257586 0.3869484 0.27329272 -0.15797602 -0.010051589 0.3151491 0.3681159 0.4023122 0.0041705873 -0.39903107 0.50216675 0.2862967 -0.45031926 0.4176848 0.6894454 -0.5314913 0.12158153 0.57642484 -0.01790145 -0.2904842 -0.2533429 -0.15217212 -0.2047183 0.3885931 -0.21019953 0.060772248 -0.5502185 0.22012605 -0.29025367 -0.025422495 0.28714937 0.2926905 -0.4661143 -0.71003383 -0.12614042 0.052504566 0.5068735 -0.9216666 0.705217 1.2012322 -0.74948436 -0.15169449 -0.65745586 -0.078647144 -0.46994415 0.44047466 -0.092650704 0.018606419 -0.86606294 0.3218061 -0.57125294
2614 0.04567715 0.22405 0.4951152 -0.14372729 0.32380763 -0.029469827 0.5557861 -0.57269526 -0.38826868 -0.6146926 -0.5193816 0.86302525 -0.41998565 0.06424376 0.8304277 0.05537988 0.8381731 -0.28333306 0.10205689 -0.74422723 -0.45709297 -0.27133808 -0.031315673 0.040772595 -0.14247517 -0.01195147 -0.35741213 -0.7480989 -0.38996297 -0.5496421 -0.37640733 0.1552219 -0.43310526 -0.46030512 -0.26827717 -0.09049184 0.5633758 0.4530674 0.10228943 -0.057020333 -0.61426896 0.22919126 0.81159306 -0.12679316 0.24808289 -0.51128536 -0.0037681167 -0.043419365 0.40401125 0.7461059 -0.20244122 0.3293178 1.2267549 -0.16744496 0.25047797 0.51912147 -0.023404693 -0.030916817 -0.51712286 -0.13135432 0.13077208 0.13518144 0.54458916 0.043796156
2582 -0.45109287 0.3297575 0.17766999 0.86430436 0.23312454 -0.33863342 -0.33083424 -0.41044465 0.5840984 -0.73164195 0.007142413 -0.27384144 0.5480497 0.4581008 -0.024687484 0.08127469 0.8830737 -0.6124451 -0.49730188 0.46447507 -0.41172314 -0.0130698485 -0.008859528 -0.06830668 -0.21214595 0.7058522 -0.26133925 0.04008452 0.019799182 0.1719643 0.8513088 -0.05668606 -0.29608223 -0.18736243 1.1472517 -0.21187861 0.41238695 0.06065459 -0.15569027 -0.14845335 -0.28127596 0.26866877 -0.6498425 0.3974244 -0.48878777 -0.41745365 -0.41953844 0.029812934 -0.20781042 0.04347036 -0.55716175 0.4928667 0.52136904 -0.59784096 -0.05423166 -0.54060745 -0.33006606 -0.3227403 0.24448559 0.0270791 0.7629717 -0.42365956 0.15819813 0.27426797
2478 0.078569934 -0.5333934 0.5620966 0.5855116 0.6884986 -0.23926362 0.16661699 -0.46192816 -0.17651682 -0.06562229 -0.8344814 0.1852635 -0.3960591 0.04604058 0.14256135 -0.40287653 0.8131292 -0.52854145 -0.5637673 -0.42173404 -0.17706735 -0.55470407 -0.4193388 0.10007678 -0.15960027 -0.48637822 0.04497668 -0.10170808 -0.25246853 0.92229915 -0.48687392 0.0432014 -0.6206892 -0.080753446 0.36954415 -0.375759 -0.62420577 0.36981925 -0.14228764 -0.8426655 0.5258846 -0.55970746 0.33128598 -0.5460253 -0.630423 0.4677976 -0.22408257 -0.14753023 0.020960605 0.3940403 0.4597456 -0.6907358 0.23137419 -0.07294594 0.0019333183 -0.7011821 0.22419137 -0.23743917 0.6180852 0.00029801705 0.55188876 -0.23239024 -0.13867824 -0.647761
1065 -0.695438 -0.8329805 -0.24054259 -0.12844151 0.39866287 -1.1069336 0.55879045 -0.7347824 0.44762275 -0.83299285 0.06258812 0.117231905 0.30033198 -0.56393427 0.5563372 0.17109126 0.18035892 -0.116398655 -0.68861187 -0.3984001 -0.024834078 -0.041143157 -0.10521957 0.3510313 -0.53152525 -1.0967573 -0.2124646 -0.0644829 0.16147155 0.63102263 -0.10967029 -0.48059973 -0.2973734 -0.40491292 -0.15397672 -0.3270687 0.039358076 -0.29379192 0.29115412 -0.15452215 0.5224835 -0.40519318 -0.78424084 -0.052535687 -0.11421801 0.5327961 -0.83078456 0.26726004 -0.34030387 0.226192 0.60036373 0.24150203 0.016010894 0.045670062 -0.18927561 0.3313783 0.30557147 -0.60967386 -0.48792017 0.097100034 -0.33587083 -0.01318882 -0.31905064 -0.6201271
2706 0.5460889 -0.79809475 0.22654925 0.09104562 0.4588082 -0.14582177 0.17089172 -0.6419393 -0.72884446 0.13306381 0.047134146 0.4778815 -0.7995784 -1.1735499 0.26735896 0.5257415 0.15375768 0.003949804 0.18771566 0.11306415 0.31041005 0.05017873 -0.31209207 -0.5503662 0.44582257 0.17999709 0.37695912 -0.1466992 -0.79950255 0.95784813 0.56378716 0.60398996 0.213818 0.22341268 -0.6665473 -0.35122392 0.4896358 -0.32164073 0.16722491 -0.18236314 0.5284553 -0.28461596 -0.15918353 0.9186282 -0.13198748 0.62228537 0.1787923 -0.3325809 -0.617369 -0.45732972 0.8597767 0.8873969 0.1641698 -0.32498324 -0.5231501 -0.34935218 -0.52054673 0.5980885 -0.6864584 0.5236774 0.10609137 -0.05502124 0.28749228 -0.9814427
1624 0.44980678 -0.18248303 1.0265373 0.07089651 -0.45949236 0.44847304 0.13923946 -0.1564826 0.30071962 0.23313409 1.0833824 0.47940928 -0.9198775 -0.062596954 -0.23500809 -0.3341157 0.1045696 -0.545171 0.075635284 0.1115848 0.44063947 0.3407358 -0.03309473 0.6417866 0.13189286 0.36657786 0.12131051 -0.2357785 -0.81020373 0.25845635 -0.21551217 0.044631097 -0.56828994 -0.34610844 0.4791274 -0.24349777 -0.21883366 -0.071118936 -0.23823737 0.23902012 -0.29182756 0.20629923 -0.1080795 -0.7704005 0.079860665 0.113878205 -0.25538346 0.07015026 -0.2061059 -0.55176383 -0.4033747 0.5771529 -0.31969714 0.054552805 0.25788724 -0.513727 0.4249423 -0.35573122 -0.63531876 -0.40184107 -0.17537318 0.7952567 -0.059531424 -0.5295523
1837 -0.37463352 -0.1504681 0.6770519 0.40897503 0.49500313 0.5986601 0.93311447 -0.3844954 0.5143672 -0.49582347 -0.13690795 0.28909948 -1.2961991 -0.16931151 0.64480644 0.5275791 0.43734992 -0.5862089 -0.590621 0.2820515 0.32526892 0.14598393 -0.30958322 0.4397007 -0.7270184 0.39779302 0.16117242 0.26368433 -1.1840808 0.3082385 0.24236041 0.094694994 -0.51629454 -0.07696565 -0.61648035 -0.06966015 0.63647926 0.2621708 -0.47525823 0.17491844 0.025408048 0.23250227 0.41595903 0.117647566 0.37758017 1.047635 -0.03737938 -0.6360745 0.7299545 0.03485911 -0.41475537 0.3181174 -0.6828618 -0.064548016 -0.038689096 -0.44511458 0.60229594 -0.797835 0.028819205 0.20639253 -0.20162375 0.1358014 -0.08429726 0.48567808
2270 -0.40569976 -0.18535875 -0.28258106 0.37263358 0.25509748 0.11349621 0.055153858 -0.17292532 0.4243856 -0.21542832 0.4287187 -0.10389174 -0.8218182 -0.4081474 0.6033099 -0.10555206 0.35925668 -0.43088016 0.8756362 0.52831006 -0.31309763 -0.012956794 -0.11946414 -0.21733673 -0.22493687 -0.44570744 0.17866358 -0.23512866 -0.6815783 -0.41332984 0.030412735 0.036182582 -0.5751879 0.27393854 0.18800037 0.6544215 0.3838664 -0.6000265 -0.09880069 -0.47521853 -0.105828464 0.29861748 -0.029215232 -0.8359929 -0.15981922 -0.21461344 0.5814585 0.54510945 -0.92437613 0.477268 0.10295224 1.0475292 0.7323841 0.067053996 0.1236697 -0.112094045 0.19228742 -1.3888634 -0.74891514 -0.4337385 -0.49229223 0.32065392 0.5780554 0.72605395
105 0.68543625 -0.8799346 0.34232616 0.6306382 0.45411456 0.5580891 0.0064516226 -0.4385711 0.8955396 -0.76242864 -0.08444545 -0.6870722 0.7191654 0.13726857 0.7873057 -0.21787667 0.50906986 0.19225556 0.5783159 0.53894746 0.55727166 -0.18246709 0.4842601 0.4047593 -0.15697245 0.42475703 0.050736655 -0.19575839 0.37824965 0.44678915 -0.3855328 -0.13327208 0.698408 -0.03881233 0.2708292 -0.371781 -0.15035667 0.16637531 -0.062127028 0.3794662 0.07884537 0.41264746 0.09872724 -0.7336557 -0.040862195 0.4587498 -0.30408108 0.12825279 -0.6503135 -0.4398032 -0.15260938 1.2098508 -0.460572 -0.7169561 -0.07782101 -0.5237809 -0.25377554 -0.6317753 0.6372987 -0.09788839 -0.28133926 0.6342114 0.48228383 -0.92702067
1702 0.34105575 -0.22562012 -0.8242462 0.597463 -0.26405713 -0.013606631 0.22419089 -0.40404248 -0.12583055 0.1410253 0.67044705 0.7188241 -0.01827266 -0.17364778 0.39009959 0.20201705 0.26781812 -0.029701428 -0.6380912 -0.18447685 -0.16502765 -0.64753777 -0.59010136 0.017331861 -0.5604758 -0.7706539 0.03138943 -0.55443656 -0.13506953 0.093470335 -0.11793489 -0.022890145 -0.21915656 0.1002219 0.97907495 0.13032767 -0.033862684 -0.1840381 -0.5739155 0.24785408 1.1848912 0.4359314 0.5676771 -0.49233648 0.3005937 -0.3233323 -0.84344697 0.28389663 -1.3057685 0.18051547 -0.32434538 0.3773517 0.83280134 0.32751167 -0.15106103 0.21757977 -0.09893327 -0.83729297 -0.15232797 0.81820136 -0.33349556 1.157788 0.69505095 -0.5596153
2592 -0.024885796 -0.10218052 0.60190177 0.27014348 0.6127158 -0.52368695 -0.16714178 -0.4353334 0.046800468 0.73138577 -0.076583624 -0.11632303 -0.36286163 0.3249445 0.44816363 0.36488047 0.8514771 0.30687162 -0.47834805 -0.32083055 0.014483944 0.3051751 0.64592034 0.87351894 0.13518053 0.07047516 0.07451778 0.16741557 -0.21249945 0.13392055 0.44395444 -0.011848447 -0.8049384 -0.14336441 0.14974402 -0.12756592 0.4667644 0.08649174 -0.23296922 -0.3808582 0.11617179 -0.5479249 -0.33689603 0.049375862 -0.70233893 -0.10024112 -0.7062792 0.27666008 -0.72023106 -0.32531536 -0.07919202 0.16904964 0.32519853 0.878872 0.4281237 -0.3513473 -0.2308734 -0.03834299 -0.8997988 0.23235013 -0.044059798 0.8035857 -1.1434071 -0.74597776
1692 -1.0227672 -0.31699634 -0.5521499 0.36357147 -0.033855066 0.51680136 0.42617825 -0.587526 0.49560907 0.06337557 0.31153494 0.0038998087 -0.34849575 -0.9640492 0.7642783 -0.05054782 -0.0068632653 -0.5200196 0.22733803 -1.0665379 0.033018693 -0.33046 0.40324074 -0.66102666 -1.1441593 -0.6012941 -0.71356833 -0.084965214 -0.2475335 -0.20172082 0.33018556 -0.15530221 0.5260785 0.5710293 -0.052380223 -0.484512 0.8113229 0.6110206 -0.1880463 0.028294835 0.1857583 -0.399918 -0.04018581 0.29984492 -0.12891108 -0.97429997 0.07880801 -0.08008689 -0.40037617 -0.4115377 -0.5753696 1.3535963 0.68852204 -0.55446386 0.10445306 0.07984336 -0.89726585 -0.063766845 0.45403242 -0.6830604 -0.86780226 0.5920624 0.019250829 -0.251813
525 0.012644842 -0.5091334 0.76544327 0.7886515 1.0072881 -0.4650937 0.3144874 -0.4228806 -0.16416909 0.1468925 1.3010269 -0.31824672 -0.1377001 -0.28060284 -0.13988394 0.19568956 0.33362913 -0.122059174 -0.5457961 0.12818572 0.2749193 0.3715896 1.1249235 -0.14002348 -0.17264591 -0.21450494 0.017942362 -0.26170912 -0.84409744 -0.08627905 0.4844648 -0.27246892 -0.6538572 -0.32970434 0.32858488 -0.70906883 0.559691 0.04664417 0.26871872 0.37922102 0.19113308 -0.4496847 -0.14660235 0.55629814 0.3624121 0.44730154 0.6132913 -0.43476313 -0.18446238 -0.30400246 0.44253537 -0.48439893 0.55571246 0.23829447 -0.5249942 -0.024735935 0.16102716 -0.24596305 -0.13669999 -0.1489171 0.12761115 -0.15197878 -0.50730556 -0.13398977
2401 0.39905503 0.05262351 0.47616884 0.31155258 -0.2874332 -0.06258026 -0.30359274 -0.10144817 -0.035514154 -0.56358993 0.41640985 -1.4171197 0.06546551 -0.63116056 0.27100912 -0.45041746 0.20095043 -0.35072696 -0.13237098 -0.5673033 -0.7269771 -0.98012006 0.21156678 -0.22348627 -0.56902784 -0.0979148 -0.23816767 -0.10035559 -0.88606054 0.027780015 -1.0508777 0.0015265361 -0.4403943 0.2992493 -0.26235786 -0.6766227 0.18853115 -0.10208893 0.5802659 -0.7783585 0.14849013 -0.60565287 0.13291301 0.18776885 -0.51936924 -0.10273743 -0.2935615 -0.6226779 0.19346789 0.5584426 -0.25100094 0.8354292 0.9318256 -0.24698085 0.008933525 0.38804647 -0.08805918 -0.14561258 0.27544367 0.37597224 -0.23660392 -0.2968157 0.1685811 0.272364
1956 -0.5276055 0.10069775 -0.24466436 0.77760065 -0.2696053 -0.52422523 -0.30979422 -0.5838924 -0.38636708 1.0025423 0.012191101 0.3593637 -0.17216809 0.11627552 0.7591276 -0.76182115 -0.2823876 -0.40927285 -0.1856544 -0.3754961 -0.11982749 0.059487794 0.3712428 1.1060995 -0.28815153 -0.18363534 0.11134687 0.057893265 -0.44132414 0.66396046 -0.50001764 -0.198746 -0.09316248 -0.60444653 -0.33632514 -0.011320504 -0.15127271 -0.312835 0.69211984 -0.02681985 0.25422835 0.3203874 -0.12041856 1.1550404 0.44806784 0.609146 -0.41691232 -0.4670905 -0.92763525 -0.4976031 0.44006923 0.8917793 -0.14871827 0.054400124 -0.5598119 0.22478993 -0.31990743 -0.60543567 -0.23869443 -0.73899424 0.8657768 0.2296914 0.1827394 -0.1327051
1848 -0.3846199 0.540696 0.19714355 0.33530167 -0.22050753 -0.10309845 -0.50805306 -0.0025905666 -0.14850508 -0.6970324 0.22727151 0.1384844 -0.2142561 -0.036863197 0.7056002 -0.03470708 0.047355764 0.47472993 -0.10566168 -0.54596823 -0.41450772 0.61932784 0.06379267 -0.10811467 -1.0017315 -1.1427534 -0.43620425 0.11097612 -0.2759697 0.09886556 -0.075564615 0.5038499 -0.17989361 0.12883109 0.7611511 0.6141825 0.7186479 0.37057787 0.04125719 0.2541575 0.75924176 -0.086031936 -0.4669665 -0.42028925 0.38316762 0.1623166 0.03888309 -0.04129716 -1.1426157 0.2766325 0.4422976 0.40728384 0.1675727 0.15753907 0.5212747 -0.029171435 -0.51822925 0.39658856 -0.33944958 0.699266 0.38007024 0.55608016 0.19655105 -0.34921873
1834 -0.07907958 -0.25242734 0.34029624 0.05310854 0.24916355 0.08806379 -0.780317 -1.3101743 0.26310593 0.03988103 0.751715 -0.31460223 -0.42134863 -0.084809534 0.63902295 0.050983805 0.22195697 -0.83196783 0.7245312 0.14309424 0.17683886 -0.0762251 -0.056295753 -0.73387367 0.043463577 -0.21786527 0.34940565 -0.41015586 0.44900936 0.56579155 -0.15130374 -0.004284412 -0.4677538 -0.55580926 -0.40229282 -0.29889333 0.5577387 0.8568042 -0.82436043 -0.26777142 0.26905504 -0.52595145 0.530021 0.36596268 0.16945955 -0.5148032 0.23168051 -0.4187497 0.43568802 0.59283006 0.519259 1.0534542 -0.09307602 0.26613513 0.759574 -0.21467854 -0.8388974 0.33769622 -0.56304514 -0.06823324 -0.37284225 0.2617394 -1.1577094 0.21847421
1546 0.35491797 0.5825866 0.41514343 -0.93306416 0.25658414 -0.67810094 0.5104399 -0.5641735 0.3886784 0.0947953 0.19204125 -0.007743884 -0.2612606 0.48148566 1.3500395 -0.10688538 0.21376963 0.020160945 -0.37203154 0.6004869 -0.014845549 0.15343584 -0.75319654 -0.1753708 -0.20342608 0.16662946 -0.08065359 -0.27732283 -0.083389714 -0.08934423 0.022784375 0.40603518 -0.16963801 -0.97997224 0.26003575 0.024680143 -0.18258457 0.58725035 0.31299546 -0.16008338 -0.4309109 -0.6604578 0.023404576 0.30997655 -0.30690253 0.00727666 0.18958977 -0.39975297 -0.6201811 -0.38115063 -0.07949478 -0.2145438 0.46802905 0.03968892 -0.19376288 -0.12693173 0.4651725 0.24482797 0.2387168 -0.2255349 -0.03164467 0.009710538 0.5103566 -0.2836545
1488 0.1525227 0.30784008 0.74192405 0.21589065 0.3290242 -0.41287905 0.32003105 -0.546684 -0.07792512 -0.5569241 0.41981414 -0.4577724 0.49009603 -0.1447268 -0.4594629 -0.34282348 -0.3530008 0.06775222 -0.5407897 -0.07152162 -0.07001071 -0.8262087 -0.3229207 0.62427855 -0.5262016 -0.44726586 -0.04043472 0.40609327 0.28969753 -0.39520642 -0.09738741 0.41225278 -0.108812444 -0.17490491 -0.31412792 0.38125953 0.24940255 0.93611276 0.32131454 -0.5996996 0.3220091 -0.16024557 -0.11218084 -0.18814184 0.21329138 -0.51688504 0.48835418 -0.071204394 -0.52542573 0.024957664 0.7696648 0.21057674 1.0839138 -0.06596214 -0.19576372 -0.13177791 0.06042741 0.5815063 -0.30432355 -0.1239127 0.3212182 0.14501679 -0.20939404 -0.8605428
667 0.22641794 -0.54373735 0.42024118 0.38289475 0.3219773 -0.23033404 -0.17858672 -0.64701825 -0.13716803 -0.09523201 -0.8317616 0.07574783 0.34353194 -0.41401154 0.42627573 0.21001945 0.9152253 0.058477215 -0.38935208 0.17379422 -0.48544267 -0.4163557 -0.54220647 0.45816448 -0.57417345 0.26271284 -0.26329246 -0.3135711 0.82490593 0.43540433 -0.15963092 0.08966915 -0.684661 0.24599585 0.51480186 -0.08111644 0.01793982 0.14090554 -0.15319593 -0.5228404 0.71184933 -1.0259048 0.31694192 -0.19199045 -0.23123433 0.446366 0.063176975 -0.0530874 0.08682107 0.62321717 0.42014942 -0.17888413 -0.018204339 0.291823 -0.2889626 -0.63036686 -0.05966434 -0.38264996 0.460277 0.12050705 0.64664644 0.08881122 0.63283366 -0.60589737
2682 -0.6001586 -0.056637093 0.9865726 0.73106116 -0.19404256 0.40899134 0.23188494 0.07650776 -0.35192242 0.7144554 0.96576005 0.3299492 -0.28736746 -0.7358704 0.26365054 0.13307996 0.33326387 0.00022080055 -0.76544106 0.22840689 -0.14493039 -0.17880948 -0.15724449 -0.10454882 0.27468914 0.46086973 -0.5084764 0.14402927 0.55830514 -0.16675931 -0.716588 -0.33239195 -0.8617066 -0.23665431 -0.025846634 -0.33031145 0.009697674 0.5071228 -0.108542755 0.4058831 0.004106992 -0.56145126 -0.53705835 0.2252864 0.50080377 0.015552196 0.04328836 0.19513458 -0.78553015 0.13435628 -0.10008914 0.5971098 0.07224395 -0.21064691 0.5084006 -0.25842315 -0.38872442 -0.4661834 0.10745027 0.2631632 -0.27370736 0.011615131 0.0666584 -0.36512908
2059 0.23347393 -0.15505604 -0.13140209 0.4059722 0.38474306 -0.23752865 0.14745305 -0.6205903 -0.63314354 0.4780979 0.35041445 0.28522494 -0.15465835 0.24365066 0.78425044 -0.043923546 0.16569082 -0.43218148 -0.6833331 0.4548705 0.5453302 -0.2657199 -0.06996944 -0.76051515 0.6401102 -0.2794894 -0.72058713 -0.029287567 0.1725468 -0.08301858 -0.19008581 0.3317636 -0.7501618 0.33469316 0.4552665 0.21188359 -0.34982333 0.54064554 -0.28383413 -0.2170567 0.026293973 0.097682215 -0.26169994 0.6944184 0.14684707 0.2334773 0.04247946 -0.6835627 -0.32025272 1.2231969 -0.25784978 1.0310768 -0.14636962 -0.87255234 -0.23414353 -0.36800468 -0.008229855 -0.5137542 -0.35818455 0.0024796706 -0.57719064 -0.16444692 1.1627772 -0.36483753
1309 0.59133613 0.43865198 0.31293687 0.19338438 0.010292557 0.57925177 -0.5657764 0.62470484 -0.23711035 -0.31835234 0.03301916 0.01872241 -0.38926166 0.71389663 0.6253975 0.06935106 -0.32798314 0.19011317 -0.48380896 -0.3024538 0.3941403 -0.4456032 -0.35503802 -0.12296294 -0.20795235 -0.60866123 -0.108041555 -0.73650026 -0.5229705 0.430407 -0.6910958 -0.24199286 0.21124375 -0.22179866 -0.07852296 0.12444075 -0.049975406 0.4482153 -0.64297277 -0.32052487 0.43076146 -0.16480786 -0.29924697 -0.105535924 0.3054192 0.46268 0.2205981 -0.21521989 0.4263514 0.7355245 0.19682479 0.88588685 0.37267065 -0.28294984 0.6096219 -0.93026835 0.19642858 -0.63854724 -0.6285616 -0.69750214 -0.36730692 -0.0670531 0.61802167 -0.71518755
415 0.103174075 -0.4472711 0.0035323193 -0.42405143 -0.18732037 0.43237576 -0.23676783 0.3572833 0.071616784 -0.039629757 0.5217864 -0.34145305 -0.7119153 -0.5863679 0.26167625 0.07804194 0.21911527 0.07606851 -0.32303193 -0.24253076 -0.10886736 -1.0280918 -0.18595928 -0.3763162 0.015808173 0.062949 0.18888831 -0.5100809 -0.94314605 0.5960354 0.2653122 -0.059165396 -0.1994491 0.377172 0.19450246 0.14249319 -0.08699057 -0.08697585 -0.3606057 -0.49893716 -0.2784158 0.5006623 -0.6122013 -0.50266635 0.21802053 0.63941467 0.24371101 -0.274519 0.08550717 0.39973128 0.4037891 0.5691534 0.80102897 0.042024873 1.1447266 -0.65122706 -0.081991374 0.0065614535 -0.36377153 -0.34297544 0.071740106 0.2948554 0.29725435 -0.37074903
524 -0.15279256 -0.25287005 -0.9531669 -0.26390156 0.53268 0.44608295 0.4217767 -0.48641375 0.5210625 -0.5770251 0.04664445 0.43705496 -0.4641475 -0.74024683 -0.113861345 -0.042763572 0.3188543 0.32430243 -0.2150684 -0.30866864 0.16271251 0.2503922 -0.5519661 0.8379463 -0.72844213 0.44994715 0.12144935 -0.47848895 -0.41312286 -0.34583446 -0.24207777 0.15263678 -0.35994378 -0.23441842 -0.39496624 -0.045257073 0.17459895 -0.32916507 -0.22047286 -0.2839298 -0.8159581 0.4576771 -0.9482981 -0.8443772 -0.066603124 -0.3039642 -0.003648561 -0.67805624 -0.9249732 0.051704336 -0.14463328 0.6942191 0.34292844 -0.06956268 -0.10483647 -0.38165072 -0.42560634 0.24333212 0.19330272 0.3304182 -0.2187426 0.20684443 -0.42632368 -0.32819507
1598 0.2370532 -0.47279885 0.31979135 0.6401386 0.6653657 0.3330489 0.032455437 -0.24226925 -0.39500457 0.5367992 0.82174003 0.011132024 -0.30945733 -0.3655199 0.46344036 -0.336229 -0.29732516 -0.4087891 -0.46586907 0.15721901 0.113474794 -0.3579707 -0.0769347 -0.1655569 0.9205647 -0.2813606 -0.8230246 0.063301325 -0.0857623 0.26965573 0.17061949 -0.06900731 -0.6679286 -0.0808822 0.3311626 -0.37653214 -0.47326797 0.64436483 0.68047756 -0.18635978 -0.13814071 0.2644561 -0.12671635 0.82265854 0.80596364 0.11310556 0.4012671 0.008972092 -0.12970588 0.4625442 -0.025198063 0.5166004 0.16811894 -0.49692637 -0.3302955 -0.44696194 -0.59263086 -0.14312078 0.039523125 0.365094 -0.011178333 -0.0626349 0.9776969 -0.21114439
1131 -0.15838316 0.10930278 -0.11269983 -0.44459695 0.11143989 0.4204436 0.48730963 -0.20943104 -0.48815727 -0.1454895 0.15778726 -0.080452815 -0.16987883 0.08274986 0.6399501 -0.33617887 0.5037896 0.23655254 0.41679317 -0.42349643 0.6444843 -0.06883859 0.1339043 1.6075573 -0.92387456 0.9385835 0.35009578 -0.79645663 -0.5520635 -0.04821655 -0.6192569 0.74436635 -0.11383773 -0.2665847 0.503657 -0.39967656 0.53243244 -0.0049757673 0.38572288 0.085704625 -0.27046996 -0.23267908 -0.42053294 -0.011699041 0.397784 0.39816293 0.023059897 -0.025353514 0.14723577 -0.24174038 0.29807884 1.0514584 -0.13297851 0.44550347 -0.22244556 -0.6424919 -0.7228147 0.2158043 0.8428146 0.8422671 0.046360303 0.12122191 -0.0042092213 0.15665649
482 -0.27402112 -0.4611258 -0.031229088 0.16759601 0.5185169 -0.13810931 0.13041253 -0.1524881 0.27567926 0.17371987 0.82558936 0.44643924 -0.68810517 -0.40112406 -0.24106482 -0.3812779 -0.8379928 0.3927766 0.68145597 -0.10300202 -0.7372361 -0.8009384 -0.28300306 0.74942166 -0.43126634 -0.062340032 -0.30980653 -0.01762145 -0.24110107 -0.74738616 0.1748691 0.108682744 -1.1060314 -0.5089232 0.1010391 0.22212146 -0.14819631 -0.6452748 -0.9407137 -0.11376836 0.12919837 0.0627089 -0.41544268 -0.20574857 -0.4364424 0.1065232 0.08692844 -0.3511032 -0.81938094 -0.22590098 0.2789252 0.8581526 0.2323009 -0.27254224 -0.52317584 -0.5840285 -1.688116 0.15230428 0.9926522 -0.021512937 0.37436527 0.6049142 0.4702072 -0.23932062
1338 1.2263168 0.4207197 0.20439912 0.4538259 -0.2732906 0.26601496 -0.3676531 0.29762954 0.044825546 -0.42149535 0.27402884 -0.48581067 -0.19931139 0.4217549 0.5096405 -0.06283282 -0.05141426 -0.20093662 -0.24413653 -0.057373095 0.5375836 0.0044835005 -0.5571998 0.059555076 0.12174762 -1.0772032 0.4241474 -0.48409238 -0.57050836 0.4430491 -0.54537225 -0.8057325 -0.5199142 -0.76839054 0.14745931 0.055888146 -0.2357436 -0.15128775 -0.3583002 -0.47072107 0.3102221 -0.17379224 -0.054726645 0.19561265 0.25233197 -0.13558473 -0.30761367 -0.55987245 0.31876615 0.679696 -0.5970903 0.952945 0.63290364 -0.1970625 0.45335343 -0.36841586 0.04604075 -0.48508787 -0.17510232 -0.36600065 -0.611836 -0.56658924 0.33292168 -0.3961575
904 0.35854453 0.033507433 -0.1296929 -0.7030976 0.28363076 -0.2365933 0.12668626 -1.1046277 0.0054129204 -0.8457875 -0.06998946 -0.21795267 -0.036691766 0.30201545 0.88192356 -0.09238952 0.37229833 -0.3600855 -0.07913164 0.32935005 -0.10078425 0.10578627 -0.25006065 -0.16658552 -0.004808091 -0.58086926 0.09260465 -0.13899803 0.39062518 -0.2892458 0.0415026 -0.5982552 0.02972446 0.40006793 0.71804565 -0.6272922 0.9330948 0.46542096 -0.35710368 -0.6487898 -0.127607 0.09379772 -0.8062438 0.7483818 -0.22489482 -0.5802155 0.5988661 -0.1611843 0.56577885 -0.12382077 0.4404781 0.69156724 0.74877137 -0.32477626 -0.12270426 -1.2394227 0.2994667 -0.0540587 -0.020554518 -0.7481261 0.16045934 -0.2950207 0.14069849 -0.029859915
126 -0.171128 -0.5625061 0.3878769 0.763283 -0.92472404 0.9090833 -0.095581554 -0.96897864 0.24358757 -0.3503565 0.06533677 -0.6278584 -0.46231017 0.029527092 0.8251039 -0.746275 0.2516656 -0.12062157 -0.2130323 -0.16073757 1.3149294 -0.092768416 -0.32606548 -0.17642365 -0.3554346 0.44016948 0.1781888 0.11905239 -0.01606496 0.40587044 0.046377547 0.41045254 -0.6310033 0.6072183 0.3730127 -0.45469406 -0.2997037 -0.7065944 -0.067430444 0.011233393 0.07259368 0.061632387 0.07001639 -0.20065404 0.601128 0.20440705 0.031015117 0.364242 -0.056946654 0.5874565 0.33300707 -0.17791048 -0.27256763 0.09589354 -0.20550042 -0.15169655 -0.37577555 -0.42229855 -0.068534315 -0.17277607 -0.5175302 0.24586894 -0.65837795 -1.6700982
1273 -0.5540394 -0.30910254 -0.2167775 0.42127255 -0.11377234 -0.42371652 -0.561179 -0.52285606 0.014472321 1.0395831 0.15083282 0.57488513 0.0480305 0.11323755 0.5370397 -0.25284588 1.0356652 -0.16681908 0.05234021 -0.44520864 -0.48895043 -0.7890968 0.05957877 1.3490689 -0.15888967 -0.09985918 0.33614656 0.72453076 -0.33727327 1.2090856 -0.7550666 -0.76156783 -0.382949 0.597656 0.067323446 -0.6568134 0.19745359 -0.24784692 -0.34977704 -0.113736875 -0.2801796 0.28481463 0.23322563 -0.34898818 0.1655911 -0.1710459 -0.10516556 -1.1024915 0.005617814 0.2897421 0.9288272 0.94242865 0.81586516 -0.30408317 0.14591031 -0.2779786 -0.19920486 -0.20886132 -1.1794037 -0.22720373 -0.23262635 -0.5833003 0.22951111 -0.6176759
243 0.08637465 -0.5009305 0.2930698 0.8199965 0.17787732 0.3114201 -1.2458568 -1.0136662 0.06833229 -0.004893828 0.18628262 -0.20388083 0.005162238 -0.1636917 0.3995813 -0.0068775453 -0.27481148 -0.8576049 0.59962183 0.057506174 0.43019038 0.074519165 0.27231845 -0.6625743 -0.18646178 -0.6515859 -0.05514506 -0.58136696 0.15817204 0.59136343 0.16575074 0.068225205 -0.23312663 -0.2037998 -0.06275916 -0.45035136 0.7928424 0.73967934 -0.46150652 -0.36510602 -0.14533673 -0.33987963 -0.33608782 0.21597904 -0.4355111 -1.0708202 -0.15093087 -1.2517223 -0.5161431 0.46863088 -0.28522608 0.18904397 0.6108569 0.043133833 0.24797532 -0.36072698 -0.36318916 0.47016537 -0.41806594 0.12970611 0.21372877 0.3658517 -1.089944 -0.42885834
701 -0.28719118 0.48814446 0.043648805 0.4671056 -0.11469438 0.23145339 -0.14249606 -0.4111763 0.2922617 0.4334392 0.18322325 0.35493463 0.20968539 0.088479504 0.78319645 -0.06425809 -0.42291552 0.78029567 -0.40566695 0.2366724 0.6994236 0.41721347 -0.74334437 -0.2968573 -0.44195786 0.56329155 -0.21005926 -0.18593076 -0.58461565 0.5703915 -0.069222696 -0.2761112 -0.85243064 0.30869335 -0.055815578 0.16491115 0.7016293 0.19131371 -0.3705955 -0.6944284 0.33368802 -0.054050837 -0.9773587 -0.17640252 -0.023012891 0.3578313 -1.0195303 1.1131853 0.18275869 0.59105635 -0.14499842 -0.23728052 0.7748775 -0.14896984 -0.4072911 -0.9669225 -0.5190301 0.43523604 0.36805716 0.022167323 -0.16191182 -0.5712753 -0.10796405 -0.6214634
1013 -0.2528004 -0.012388501 -0.050487474 0.6296552 0.5716638 -0.043178525 -0.020435508 -0.30003744 -0.42561063 -0.61047393 -0.119935535 0.29346243 0.2489068 -0.20880014 0.98760927 -0.2511559 0.12858452 0.021707322 -0.5939216 -0.31934822 -0.055858884 0.8772579 0.21096322 0.39243725 -1.2025846 -1.6735706 -0.55321735 -0.22186059 -0.41040546 0.08497953 0.24530798 0.3927623 -0.026049154 0.011636188 0.578776 0.15329845 -0.2282007 -0.048361953 -0.45519075 -0.28447968 0.41471142 0.27875766 -0.2769793 -0.36818054 0.34131795 0.2925975 -0.11467924 -0.22097327 -0.7093091 0.349675 1.3244638 0.078174524 0.44207713 0.2198663 0.058987144 0.06744591 -0.52375406 0.21475212 -0.6297541 0.6783124 0.16162187 -0.30099303 0.47527778 0.04289859
1983 0.38399994 -0.15737647 0.2435216 0.28986344 -0.64133775 -0.030741584 0.15628599 -0.6649216 -0.46540767 0.11915036 -0.4460343 -0.80453527 -0.10193536 -0.32913104 0.8342301 0.114769064 0.20109518 0.108632535 -0.28150097 0.12888102 -0.47287253 0.38135448 -0.1883334 0.1275335 -0.044364754 -0.042060897 0.58069813 -0.38291004 -0.13876165 0.35613275 -0.19636554 -0.50978625 0.26351961 -0.2176959 0.34274033 -0.5038179 1.0086555 -0.92502785 -0.060047857 -0.13658671 0.08279529 0.34788385 -1.3325883 0.31619385 0.38221627 0.11122515 0.5025426 -0.79660255 -0.28550044 -0.64396966 1.1420544 0.22922346 0.09820294 -0.9267308 -0.644014 -0.4652078 -0.57673436 -0.08274514 -1.0429778 0.17228922 -0.24131854 -0.30603412 0.57268333 -0.5784789
973 0.071071655 -0.17895703 0.5589874 0.18195091 -0.4057519 0.1568762 -0.3485349 -1.0565733 -0.47147945 -0.07506614 -0.9766375 -0.39017186 0.2547254 0.0062949117 0.024673255 -0.017503586 -0.7950703 0.17480265 0.26178324 0.64136094 -0.63326603 -0.7198027 -0.39909646 -0.3430336 -0.7394204 -0.46848664 -0.22782598 -0.29641882 -0.36916062 0.26088926 0.050242104 -0.66817474 -0.2012294 -0.035467137 0.14865841 0.3697026 1.0767945 0.7386979 0.9126343 -0.48012906 -0.74739736 0.48651165 -0.9579289 0.21267432 0.22388394 -0.33877802 0.14773336 0.4112073 -0.06981084 0.04969832 0.6060118 0.98919934 0.2922826 -0.7899065 -0.29877952 -0.78982145 -0.27379462 -1.2280176 -0.3487015 0.3014777 0.6234621 0.0742528 0.32284403 -0.13536368
1152 -0.25994107 0.068590015 0.044851657 0.338469 -0.3817544 -0.067937404 0.084737115 -0.36477566 -0.40661043 -0.52488756 0.2873414 -0.20845462 -0.54365516 0.40561777 0.469176 -0.42446896 0.558483 -0.4291959 0.26149398 0.6825025 1.5048687 0.15867563 0.22480696 0.46251652 -0.0216524 0.08465507 -0.2201291 -0.41969833 -0.22071618 0.6727867 0.54001623 0.22036788 -0.14300936 -0.3669456 0.054981854 0.04499242 0.35098085 -0.37449002 -1.2129748 -1.3688186 0.3734281 -0.22512312 -0.24040996 0.09228204 0.20244099 0.32748565 -0.06346643 0.95691943 -0.13372962 0.503464 0.18211374 0.40190753 0.51065576 -0.6748358 0.31246075 0.25441483 -0.45810518 -0.59311086 0.6124735 0.007698714 0.49128687 -0.36562666 0.106465474 -0.04785228
1717 0.06673614 0.08837448 0.27540612 -0.4153379 0.84030557 0.106134996 -0.09974167 -0.7444321 -0.20170511 -0.32156998 0.5988521 -0.14740285 0.15719014 -0.16709343 0.16721876 -0.7525281 0.68491894 -0.050800998 0.38019323 -0.18351257 0.2650584 0.07338578 -0.7642813 0.096348986 -0.056135423 0.018984776 -0.5032629 0.41046506 -0.23889616 0.09460195 0.35132313 0.98250306 -0.12663358 -0.84957486 0.25236776 -0.04393499 0.3002973 0.15474086 0.3893002 -0.096540146 -0.5301016 0.58396786 0.39489 0.2860708 0.6683828 -0.14584035 0.28111902 -0.19519983 -0.42701456 0.06104296 -0.1490682 -0.24976723 0.19911774 0.25456637 -0.18956177 -0.25953165 0.39788672 0.20594485 -0.5740472 -0.11879164 0.07690219 0.047331266 0.15379399 -0.7946783
26 -0.070684016 0.2707108 0.76837176 0.43850178 0.58168185 -0.3127229 0.330364 -0.1431278 -0.14730656 0.13588323 0.40615213 -0.8356802 0.3006676 -0.5268461 -0.123646 -0.43207163 0.050900992 -0.06278955 -0.42886022 -0.053998485 -0.20545533 -0.5301647 -0.2598923 -0.13374405 -0.5742029 -0.1925509 0.12886561 -0.22780405 0.5609941 -0.5652976 0.23023015 0.17686161 -0.058105312 -0.4612764 -0.8905235 -0.6092058 -0.099641845 0.72937447 0.18380027 -0.2642495 -0.03356165 -0.32212475 0.8106785 0.3480774 0.2631565 -0.78152514 0.28722993 0.110954694 -0.34376362 0.5119796 0.45898032 0.15114033 0.66115767 -0.27680025 0.014481211 -0.09300039 -0.062397692 -0.38040397 -0.52269113 -0.2262257 0.74996734 0.43099353 0.5305412 -0.394489
1224 -0.2421288 -0.16479968 0.9023067 -0.48879707 0.6631624 0.3169555 -0.6631198 -0.78022957 0.03772604 -0.3448522 0.36978358 -0.6265488 0.25988072 0.19392279 0.42398387 -0.7106536 0.5494782 0.18185402 -0.53825736 -0.29916987 0.639521 -0.23073731 -0.23768173 0.1810636 0.05937349 0.44847694 -0.30856466 -0.06157348 -0.6994928 -0.1024074 0.35314208 -0.10107784 -0.11038146 -1.0447806 -0.045450978 -0.23368053 0.29379302 -0.06479903 -0.29576987 0.14475858 -0.48697856 0.158147 0.15183805 -0.25053078 0.491711 -0.15621552 0.24553765 -0.38914615 -0.21124667 -0.123939596 0.20759593 -0.500159 -0.13867623 0.36394233 -0.7329545 -0.18864189 -0.098210305 0.072071634 -0.5989156 0.08548999 0.26285046 0.09576558 -0.48156723 -1.1765506
121 -0.4908913 -0.2166164 0.52423584 0.15764436 0.50666857 0.5715806 0.5181663 -0.6337714 0.12658526 0.63336086 0.26810664 0.47896457 0.16634874 -0.74907994 0.5282061 0.18032375 0.55085355 1.3093483 0.65288115 0.26047194 -0.46486774 0.257451 0.1956875 -0.5061036 -0.48065475 -0.1149201 -0.36895606 -0.6616968 -0.7483214 0.02689847 0.2642076 -0.2513602 0.4146091 -0.051541578 -0.033123314 -1.2840426 0.5678907 -0.06757466 -0.15034299 -0.7802551 0.283022 0.1649802 0.5530203 -0.5959906 -0.3933451 -0.34470832 -0.41728702 -0.1990113 0.35145113 0.8624589 0.36619753 1.2009933 0.50918055 -0.5084064 0.060728375 0.38722727 -1.0501808 -0.124545 0.6045677 -0.51532465 -0.15921798 0.3945159 0.07164355 0.6364709
1388 0.79331714 -0.18545963 0.13320835 -0.38300875 -0.36198908 0.0019612988 0.2677428 -0.083392225 -0.04915733 -0.36402 0.5161654 0.028088288 -0.5085633 -0.65198725 0.472155 -0.7428637 -0.3835296 0.68579644 -0.2792491 0.34789398 -0.18289964 0.36144015 0.21602333 0.10679217 -1.4421318 0.23875834 0.8577974 -0.07907836 -0.62320656 -0.02022644 0.39765772 -0.008146166 -0.39881745 -0.32553402 0.9999771 -0.37696508 0.69904536 1.1821423 -0.24776141 -0.037507907 0.5616132 -0.22177704 -0.26750642 0.6710538 -0.23664424 0.17000516 0.1908645 0.22647725 -0.3078787 -0.36504287 -0.3025275 -0.5310188 0.27651072 -0.9906846 0.26861736 -0.07966626 0.017849209 -0.35432404 0.3701718 -0.66747344 -0.010168512 0.9941578 0.12930821 -0.058291998
1801 0.42920133 -0.116200104 0.8860328 -0.3280345 0.32789946 0.5656672 0.24907583 -0.4679644 0.5386053 0.08334592 0.5742667 0.23816283 -0.2988833 0.26805705 0.06449888 -0.5684488 -0.0454554 -0.74745333 0.10096242 -0.77850705 0.2760905 0.6103426 -0.20303892 0.74364793 0.29371247 0.6234122 -0.2948997 0.40278578 -0.37131912 -0.07745779 -0.14539407 -0.11220789 -0.32135093 -0.105789885 -0.10336199 -0.62777185 -0.80826473 0.418488 -0.1358905 -0.096305296 0.17072028 0.44878682 -0.27981153 -0.4677695 -0.044121012 0.33964643 0.35578123 0.31161144 -0.4472299 -0.10628308 0.05717554 0.7250506 0.80108815 -0.15255369 0.14180107 -0.15951107 0.71619636 -0.40906808 -0.2805545 -0.7159538 0.3161562 0.38313589 -0.462753 -0.058550347
156 0.2097601 0.2413416 -0.08631628 -0.6913444 0.3830836 0.1647486 0.4350598 -0.4768219 0.5289578 0.28603312 0.31883305 -0.21856071 0.22614834 -0.3454457 0.63177955 0.07596638 0.3419109 -0.5768632 -0.08407522 0.3044828 -0.803748 -0.31300724 -0.71202856 0.3219826 -0.28161174 -0.013397281 0.031554762 0.66187924 -0.73454094 0.20569335 -0.3419917 0.44727406 0.65647876 -0.14034282 0.66767925 -0.53446186 -0.3615756 0.029235564 0.38639358 -0.0052720187 -0.28935724 -1.2191057 0.0024949806 0.3823935 -0.53618366 -0.5211937 -0.32580307 0.06078446 -0.29617426 -0.2361968 -0.24070017 0.468619 0.6404165 -0.3741302 0.37880704 0.45049274 -0.037682444 -0.46768355 -0.06711454 -0.08655568 -0.5921225 -0.41809314 0.58764523 -0.57301044
1957 -0.5810417 -0.28741667 0.14320476 -0.23008056 -0.34101036 0.098202996 0.07382414 -0.84623337 0.74226886 0.3891448 -0.036979236 -0.08466826 0.24716207 0.34911638 0.72594243 -0.107323445 0.23077697 0.48060736 -0.6590049 -0.444354 -0.050081782 -0.60651463 -0.18701527 0.19746532 -0.047618415 0.5635825 -0.0023473802 -0.40064192 -0.046139706 0.044187754 0.11607611 -0.016290214 -1.0179037 -0.6912114 -0.16043966 -0.32015538 0.2587602 0.42481014 -0.06516195 -0.35860473 0.13265423 -0.4160645 0.24474904 -0.31472078 -0.74277496 -0.538419 -0.7079356 -0.051596608 -0.75089234 -0.6098601 -0.08587875 -0.27552643 0.54855824 0.011106751 0.3273708 -0.0961961 0.040240537 0.5219946 -0.20089169 0.42297405 0.0356562 0.4931248 -0.60699975 -0.49326333
258 -0.32772377 0.21326137 0.55880636 -0.5079881 -0.31560808 -0.48245633 -0.53574747 -0.0042156903 0.1761883 -0.33461866 0.42495698 -0.27710107 -0.25091112 0.10039701 0.66269106 -0.43101144 0.04571991 -0.560813 -0.03312139 -0.10760435 -0.19623822 0.059000332 0.0889313 1.4377731 -0.3294089 0.051465046 0.06993173 0.49665922 0.09224809 0.39030358 -0.43241826 0.14143325 -0.1472169 -1.0643783 -0.32835862 -0.71619135 0.07383785 0.2183063 0.4925361 -0.59959877 -0.0012993437 -0.31042063 -0.122903846 -0.556211 0.6671478 0.17173953 0.117089406 0.0028059056 0.43234938 -0.045179766 -0.010231701 1.4769269 0.34853178 -0.3516687 -0.34921676 -0.5860736 -0.11933659 -0.40077096 0.7922858 0.18588954 -0.11925439 -0.19226663 0.2560762 0.336286
2501 0.30517638 0.31332976 -0.16377752 0.91237396 -0.6999655 -0.41362017 0.44161475 0.47317794 -0.36217144 0.43653572 1.0441667 -0.6455951 -0.537289 0.09452488 0.1670718 -0.13592078 0.16724147 -0.14171515 -0.8707316 0.22147076 0.34724814 0.49344882 -0.07615838 -0.3295739 -0.8803356 0.3321651 0.29549792 0.53142303 -0.09135635 -0.013001861 -0.04136243 -0.5743918 -1.0455663 -0.7757683 0.80257285 0.09856226 0.037165843 -0.32249954 0.18223667 -0.7388709 0.22931442 0.30622762 -0.41169056 -0.21063815 0.33649972 -0.20339303 0.12715381 -0.80331755 0.17415465 0.86249477 0.15433857 0.24566863 0.548996 0.08609653 0.71377313 -0.40312177 -0.3926498 -0.39836246 -0.7955976 0.21500841 -0.12128109 -0.24946429 0.604616 -0.18841118
203 -0.32449937 -0.1441023 0.5678478 0.6754633 0.18853082 0.024891287 -1.3100448 -0.65521437 0.17727615 -0.32612252 0.18645824 -0.35564783 -0.23294257 -0.46752793 0.25404495 -0.8831546 -0.73419404 -0.7788609 0.5479465 0.5271173 -0.36619633 -0.13116165 0.052572932 0.25765476 -0.14887695 -0.0128588565 -0.618933 0.45948946 -0.6045203 -0.19952928 -0.5658751 0.059922595 -0.40614954 -0.80428135 0.5438858 -0.13872801 -0.9777578 0.36591977 -0.30605075 -0.6704652 0.6839454 0.14256594 -1.1433375 -0.07269702 0.17637336 -0.29269117 -0.8602693 -0.9274607 0.35655364 -0.13184384 -0.39509788 0.7912275 0.052571774 0.048292756 0.29297635 0.019303786 0.0809567 0.003850678 0.12146595 -0.039932847 -0.15150681 0.09043082 0.2230421 0.23951831
2572 -0.38143942 0.091493785 0.22656804 -0.4942749 0.048793286 0.105930865 -0.7128629 0.15689747 -0.072185524 -0.68724406 0.51012874 -0.29038158 -0.19390371 -0.16624956 0.80214614 -0.7837286 0.41984093 -0.12323969 -0.06884269 0.43464112 -0.057340156 0.39888024 -0.36023685 1.0643988 -0.3042779 0.39251468 -0.029426852 0.1999062 0.12445558 0.31725633 -0.1414669 -0.035660665 0.50387275 -0.35799006 0.92765033 -0.517811 -0.083440796 0.79483914 1.0859867 0.0023346727 -0.27783483 -0.16025893 0.055568777 -0.56813914 -0.255485 0.48789218 0.1916042 0.2544043 0.097619645 -0.4701223 -0.019359697 1.0930399 0.27228892 -0.6831346 -0.043061636 -0.760132 -0.556102 -0.086343825 0.5657151 0.3917419 -0.567024 0.22819723 0.28987697 -0.6386354
444 -0.055439696 1.0732006 0.775998 0.5248313 -0.28375363 0.30084276 0.20399997 -0.9462034 0.8304273 -0.18646264 0.8783851 -0.6926058 -0.39707643 -0.6009852 0.86052823 -0.42437792 -0.3465057 0.3314767 -0.068045415 -0.15111281 0.80681604 -0.28535143 -1.004166 0.5313852 -0.8326403 -0.27172947 0.39061356 -0.10676454 0.49415988 1.7896527 0.29900694 -0.3406781 -0.03345877 -0.048666857 -0.31564793 -0.4991589 -0.052511144 -0.038334843 -0.047785126 -0.3233696 0.86346805 1.1074065 0.17026384 -0.4265946 0.03832878 -0.26350024 -0.01300857 0.05096985 0.26220816 0.05891734 -0.25264853 -0.13043508 -0.36352202 0.6186881 0.36310843 -0.69239575 -0.13384128 -0.48353404 0.35106233 0.6462842 -0.812101 -0.3805281 0.12354678 -0.31878093
1940 0.42430902 -0.58420587 0.06970791 -0.14383726 0.33988297 -0.78143936 0.13180836 -0.7557825 -0.251256 0.23043121 0.4872437 -0.5042314 0.07188689 -0.888933 0.40575483 0.37640873 -0.08085697 0.3604527 -0.118591525 0.067243114 -0.32530457 0.048382312 -0.68059886 -0.2529145 -0.3623704 0.5166585 0.7242455 0.2390914 -0.25555608 0.27780673 -0.27782875 0.1722479 -0.3143331 -0.67350805 0.7433738 0.086059265 0.20999946 -0.033460442 -0.3355733 0.2769244 0.9958207 0.8717306 0.12910292 0.89980996 -0.1372106 0.21761471 0.26428172 0.111353025 -0.3106254 0.40732354 -1.029671 0.5264562 0.15767847 0.49912006 0.05874171 -0.43788016 -0.3062373 -0.8187045 0.37612754 -0.44325635 0.4472153 0.80489403 -0.19430369 0.23428392
2578 -0.9934529 0.33997396 0.50474 0.43212703 0.43397895 0.728978 0.5862249 0.21254091 0.7188713 -0.5386082 0.95852447 -0.1469929 -0.054764137 -0.08657203 1.3968592 -0.43227914 -0.2143612 0.23034954 0.41357252 0.83969665 -0.5157619 0.7407839 -0.8154524 0.30105394 0.60228956 0.13083017 0.03544391 -0.12780546 -0.40523407 -0.17457628 -0.57873815 -0.4956253 0.6851283 -0.26381838 1.1399509 0.06953411 0.2857726 0.18229724 0.55314106 0.274813 -0.16942237 -0.1890169 -0.18379548 0.040200353 -0.36247984 -0.07572669 -0.59489274 0.77008617 -0.28394535 -0.17927113 0.13772763 0.6791008 0.22935835 0.0769981 0.13186221 -0.25681433 -1.1534982 -0.06723825 -0.22368565 -0.0154284565 0.73771054 -0.019067058 -0.583509 -0.66156703
1441 -0.3699402 0.017504143 0.12523763 0.30191967 0.19773386 -0.36493483 0.14433055 -0.27738425 -0.95475763 -0.84671336 0.66579765 0.060286615 -0.6468549 0.18981117 0.3286209 -0.38808483 -0.63197345 -0.63539284 -0.39958647 1.1119375 -1.1098082 0.07495578 -0.1613844 0.23529045 -0.08586481 -0.6196474 0.69255286 0.07003895 0.24165207 -0.6055269 0.11827133 -0.3342982 -1.26615 0.65713257 0.19172686 -0.9406819 0.11376462 0.008807518 0.0039591887 0.019316817 -0.44250613 0.43639222 -0.67255384 -0.42126098 0.011987307 -0.07897157 -0.40625402 -0.4164924 0.18928364 -0.1501363 -0.58131444 0.5010839 0.895936 -0.2154585 -0.7747843 -0.28660846 0.30236635 -0.8697358 -0.1025956 -0.11473771 0.3601941 -0.01910897 -0.16761994 -0.7811577
325 -0.42515045 0.30357668 0.55108553 0.12009215 -0.18637438 -0.12569222 -0.30482048 -0.30697006 0.5375561 -0.12509647 0.003253077 0.4004469 -0.51433945 0.105338834 -0.144811 0.04430759 0.6455151 0.31461623 -0.1413528 0.22460186 -0.7304565 0.9707116 0.28845766 -0.2585746 -0.8082209 -0.9393033 0.15947992 -0.35111672 -0.6456265 0.3689492 -0.30028042 0.45261052 0.22253832 0.04873549 0.46549076 -0.6288573 0.3673726 0.866161 -0.6389131 0.7776867 0.72647727 0.5486646 -0.81817937 0.3530422 -0.17320456 0.37114808 -0.26851845 0.40600175 -1.1730434 0.4640679 -0.22817324 0.7738484 -0.1852968 0.07567308 0.26001182 0.058616776 -0.29922494 0.34297198 -0.24911757 0.024012404 0.37753096 0.35459492 0.31891164 -0.30866036
1427 -0.42443815 -0.22638838 0.340671 0.96698076 -0.12280418 0.42950875 0.2805096 -0.0651272 0.08251216 -0.84781575 -0.24066028 -0.357411 -0.938147 -0.14090417 -0.42765152 -0.42586997 0.67462903 -0.66448873 -0.36342993 0.37232345 -0.043667603 0.20646514 -0.08910867 0.41881922 -0.092458695 -0.42782363 0.34413218 -0.15944517 -0.32257065 0.32886568 -0.15446933 -0.6858143 -0.015258567 -0.6304297 -0.16447864 -1.107821 -0.4818906 -0.10389097 0.915774 -0.38585383 0.3187976 -0.36779255 -0.5519147 0.81249684 -0.3201462 0.7909806 -0.9281035 -0.13470583 -0.24649514 0.32699633 0.9423362 0.23298149 0.15708755 -0.12080455 -0.26239488 -0.49380785 0.047640506 0.011708984 -0.16600916 -0.0793611 0.15930854 0.46579525 0.33540863 -0.24565011
310 -0.8321317 -0.27568343 0.328517 0.2828571 -0.11164402 -1.039663 -0.5145337 -1.2539085 0.12685971 -0.10514627 1.3371536 -0.07222295 -0.15747412 0.3038217 -0.18984704 0.33152932 0.4135787 -0.31524774 -1.148704 -1.1270221 0.050856102 -0.05441211 -0.20054984 -0.027635513 -1.1358981 -0.17025167 0.7885129 -0.10364567 -0.36400783 -0.67499226 0.24094664 -0.1714913 0.64385873 0.020074481 -0.64430344 0.029573586 0.17408244 0.76338506 0.11899419 -0.15677944 -0.0229137 -0.16653068 0.37326065 0.37425947 0.55352384 0.50288194 -0.7837626 -0.69106853 0.014860331 0.611439 -0.15501961 0.6137798 -0.19065085 -0.16645339 0.19546509 -0.8578849 0.45333302 0.23267815 0.047493186 -0.5613695 -0.042493112 -0.051960967 -0.20786402 -0.7848168
198 -0.03352766 -0.06424809 0.3459253 0.017674038 0.41533795 -0.2185028 -0.32389787 -0.090709135 0.34676498 0.22353639 -0.1688525 0.55584836 -0.7312389 -0.052009035 0.35011733 -0.589093 -0.48571235 0.35780355 0.83860147 0.90155554 -0.47767326 -0.6244415 -0.23931348 0.6665355 -0.8939363 0.09290492 -0.78412956 -0.53048635 -0.5651063 -0.5730065 0.057590254 0.46980003 -0.36478347 -0.2978581 0.11748864 0.43909058 -0.055917747 -0.6577864 -0.5396978 -0.15481395 0.032300025 0.069386385 -0.18306828 -0.25989586 -0.83119726 0.11499693 0.49173963 -0.6710508 -0.08327051 -0.2627856 0.090626255 0.93304425 0.7259204 0.0040876325 -0.74902815 -0.5943056 -0.4531105 -0.047094896 0.37427658 -0.11403863 0.19105415 0.6530685 0.20725878 -0.28849515
78 0.09788025 0.58083725 0.4447076 -0.09937391 0.4447077 -0.25900415 1.1573523 -0.7307135 0.5854628 -0.066663034 0.2156006 -0.15788049 0.14621046 -0.47974908 0.83590513 0.5475477 -0.2702692 -0.4733567 0.33385733 -0.33493757 -0.28230917 -0.0121629825 0.025632486 1.0519277 0.10241857 -0.0477239 0.31480783 0.57834333 -0.36437523 0.4491487 -0.004923448 0.34885883 0.061172422 -0.9741701 1.019958 -1.7694974 -0.23419803 -0.35606354 -1.2998005 -0.5406495 0.23354283 0.10484489 -0.022109898 0.72533494 0.18912314 -0.01889999 -0.5180683 -0.48530108 0.3646405 -0.56950104 -0.4517978 0.5851476 -0.12778945 -0.2099386 0.024163682 0.077658854 0.08371249 0.25201565 0.1683607 0.27389053 -0.26787296 -0.04336802 0.5227142 -0.391704
2126 -0.49449155 -0.2689782 -0.06792596 0.90371 0.23847035 0.29286006 0.95139426 -0.522271 0.9870388 0.25955158 0.068324424 -0.83485216 -0.41103244 0.10712796 0.37845418 0.9018068 0.2809713 -0.52210104 -0.3889416 0.07040789 0.7109532 0.12601596 -0.741293 -0.1432529 -0.07031622 -0.041886527 0.25739992 0.24540202 -1.0426862 0.05104167 -0.77311796 0.6636468 0.2978789 -0.32187995 -1.2492458 -0.43501684 0.4711521 0.2923335 -0.24562532 -0.8640576 -0.31052387 0.780018 -0.33101034 0.61651146 0.44223 0.37445068 0.70666355 -0.85800964 0.48977238 0.091033325 0.17616078 0.20119566 -0.25404754 -0.7248205 0.8961137 -0.5147539 0.039393604 -0.460672 1.3717775 0.08854166 0.15278389 0.83187807 0.70446193 -0.970598
1171 -0.27431867 0.31010985 0.10620315 0.23719549 -0.27452874 0.08579066 0.1829922 -0.81633914 -0.2416288 -0.71456313 0.38765794 -0.4731748 -0.42157856 0.26049396 0.23011334 0.27232912 0.32224432 -0.43565902 0.16339938 1.0854851 1.0757968 -0.3133226 0.3359933 1.373023 -0.32252336 -0.54215115 -0.454235 -0.57553107 0.12190809 0.48542434 0.3240119 0.28706953 -0.38696676 -0.6905926 -0.21926188 0.021867579 0.44622737 0.75191474 -0.6308887 -1.2786999 0.495757 0.00459578 -0.0011169286 0.5687178 -0.007937768 0.39824954 -0.18139882 0.61121666 -0.0928325 -0.054166257 0.08091646 -0.35431144 -0.13647062 -1.122511 0.41007686 0.5507694 -0.42787534 -0.665492 -0.21293971 -0.48647812 0.65304613 0.64894867 -0.5550942 -0.17822279
519 -0.5114448 0.43024698 -0.60912865 0.83384395 0.395519 -0.3134339 0.016098492 -0.25852534 0.9349475 -0.030786859 0.46846366 -0.3383259 0.45704556 0.29230165 0.06319907 0.46123552 0.27212837 -0.5603861 0.015056379 0.5772475 -0.28215715 -0.19256242 0.298121 0.56073976 -0.060171835 0.8482889 0.13783853 -0.13007826 -0.7890179 0.8866371 1.0560958 0.48366573 0.14744793 -0.14029837 0.46008167 -0.4833762 -0.017704634 0.04153408 -0.31730396 -0.12198904 0.4055689 -0.16702017 -0.4138607 0.1594521 0.13588029 -0.31291592 -0.06345927 -0.08279873 0.034210317 0.5608344 -0.84607613 0.23788497 0.8410351 -0.50669736 0.49671876 -0.5156481 -0.72118276 0.2653256 0.301102 -0.48716283 0.447978 -0.7100408 0.82805043 0.07677975
2336 -1.0150286 0.48268163 -0.39406326 -0.04978388 1.1312928 -0.37955636 0.35502866 -0.26999405 -0.5866773 -0.45832917 0.56498677 0.074967556 -0.3945012 0.10185816 0.5657802 -0.73448193 -1.0937392 -0.527518 -0.23115063 -0.22914219 0.17937861 -0.18556339 -0.6029007 0.41628844 -0.27145684 -0.5821119 0.70010877 -0.9845594 0.00024828504 0.26836133 0.46299008 1.0211571 -0.8172593 0.082658 -0.2228922 -0.29271466 0.40523973 0.40731764 -0.06718274 0.55511904 0.18725757 -0.26760453 -0.6609324 -0.41796976 0.08262234 0.8628803 -0.17218873 0.14219514 0.38091925 -0.7651221 -0.34602186 0.6501615 -0.26282138 -0.7850754 -0.7444378 0.2967865 -0.012002976 -0.9447673 -0.16609214 -0.10733555 -0.41354895 0.31730002 -0.31411147 -0.655668
2629 -0.20781268 0.13778956 1.1058103 -0.65280825 0.42059442 -0.1042333 0.7064843 -1.0285419 0.24304087 -0.59519273 -0.11343225 -0.2511004 0.013761427 -0.2498041 0.77480924 -0.5018725 0.14997332 0.2720539 0.05407005 0.31026122 0.48522422 -0.12993605 -0.35706794 0.32235536 -0.46253994 0.33181044 -0.08089535 -0.7844215 -0.43697187 0.055709958 -0.23096094 0.11607344 -0.91382843 0.7688907 0.11427652 -0.38475835 -0.5760842 0.31331515 0.005118838 0.40502414 -0.70126617 0.57625604 -1.4855602 1.129419 0.42008433 -0.08052448 0.62854 0.26011097 0.1798216 0.83502 -0.3634649 0.70281124 0.28386134 0.51917213 0.770583 0.7298931 -0.15601505 -0.18787484 0.84170145 0.64353275 0.18858704 -0.113688506 0.011668398 0.06606845
1257 -0.053791765 -0.917657 0.38077444 0.49852002 0.27248242 0.43027195 0.2954394 -0.4302632 0.007005582 -0.20179701 0.31195694 0.098210834 -1.0165498 -0.47959864 0.7830587 0.45231137 0.2786969 0.33881804 -0.08305554 -0.29424956 -0.591897 -0.2712152 -0.6123667 0.66985637 0.88428044 -0.4190039 -0.29027152 0.29545698 0.3278924 -0.048632648 -0.04488184 -0.4881461 -0.5978649 -0.21057591 -0.08938697 -0.24915768 0.017056 0.6590355 0.23204716 -0.4314268 0.504709 0.6466808 0.5391382 1.0961541 0.5496617 -0.24498336 -0.04605963 -0.18690218 0.16376778 0.17860511 0.18838547 0.41913545 0.14061613 -0.8241582 -0.3996057 -0.6716441 -0.35303015 -0.12396382 0.0496359 0.6759637 0.4340791 -0.13089113 0.43277678 -0.1965977
186 -0.011486656 -0.5163291 0.051462613 0.4115084 0.16720213 -0.60321486 -0.23373356 -0.43141764 0.7959174 -0.18570329 -0.07236081 -0.21671875 0.7522808 -0.5494612 0.6426057 -0.01831291 -0.21052353 0.16118674 0.17825674 0.12918472 -0.2495755 -0.4478813 -0.2845981 1.2478228 -0.28372222 0.55667126 -0.11189419 -0.28110477 0.036340058 0.95515513 -0.11107637 -0.6944484 0.022069026 0.2379816 0.13401519 -0.008602488 0.70039016 0.49657834 -0.15048018 0.013637647 -0.41549298 0.0355575 -0.29016873 -0.104807094 0.07174711 0.5669271 -1.2234584 0.2852411 -0.34046707 0.04024331 -0.7677815 0.1139051 0.6117068 0.2934763 0.07457654 -0.468752 0.39240187 -0.1234242 -0.42812023 -0.040715445 -0.50660616 -0.723891 0.6021842 -1.0962472
1249 0.06939216 0.80546105 -0.17782842 0.34377342 -0.07040583 0.26781923 0.1352478 -0.4786076 0.028218588 1.0743748 0.5129363 -0.56753206 0.17288186 -0.5133164 0.8328219 -0.13790958 0.6623918 -0.34959936 -0.015699387 -0.0261074 -0.23118652 -0.18653783 -0.103505544 0.5660521 -0.20592976 0.42272267 0.7414577 -0.25068787 -0.19573757 0.6003602 -0.29960114 -0.022104034 -0.345006 0.08678145 0.24821433 1.0436729 -0.1956847 0.45361015 -0.04379503 -0.17141107 0.4631881 -0.42570594 -0.09374891 -0.41819027 -0.7499158 0.6889056 -0.2209209 -0.30161312 -0.7634451 -0.30065674 0.8379397 -0.17245105 -0.21386388 -0.59876496 0.3693623 -0.10759493 0.22746639 0.45886812 0.30695957 0.31544366 0.227562 0.5811997 0.55550706 -0.566503
1602 0.05404817 -0.2845089 0.20301099 -0.23290735 0.023894746 -0.39666963 -0.49676886 -0.19897202 0.657571 0.32802486 0.1729176 -0.081668116 -0.8990602 -0.44928375 0.58819693 -0.4268803 -0.405461 0.60598487 0.41032118 0.42979714 0.09293086 -0.9371841 -0.05856906 0.43905464 -0.99644965 0.4848004 -0.53887916 0.33161062 -0.87822974 -0.0013632 0.30292422 0.3710617 0.5665849 -0.61967874 -0.34308845 0.023209175 -0.02303411 -1.2702463 0.060857818 0.027814299 0.47520274 -0.6016906 -0.0044464595 0.6128374 -0.4407386 -0.21123591 0.2927479 -0.23620644 -0.024510466 -0.3369817 -0.25803792 0.32280657 0.59075165 -0.19585344 -0.077128746 -0.5078387 -0.069542766 -0.20212252 -0.6368648 0.059693336 0.31534567 0.5240897 -0.17516659 -1.084376
1538 0.18453614 0.015128196 0.53460056 -0.05265235 0.081424154 -0.05730429 0.5666209 -0.07362231 0.5614127 0.4079387 0.07226931 -0.29763508 -0.4805756 -0.048665024 0.41491812 -0.15614982 -0.21266778 -0.16001837 -0.4561577 -0.3639279 -0.91531605 0.47725463 -0.049653526 -0.12811586 -0.7974729 0.799683 0.3815535 -0.38545397 -0.55487496 -1.0134733 0.30003217 -0.1500581 -0.26660988 0.08731838 0.8646814 -0.6107893 0.00033909694 0.24891326 -0.25506705 -0.039813817 0.26890406 0.5789936 0.4675504 0.34632373 0.19409713 -0.48877558 0.15958574 0.113770194 0.6345238 -0.19952737 -0.17269227 0.41538495 -0.08534343 -1.2065704 -0.017261803 -0.85815966 0.38857841 0.30509895 0.28106874 0.24845381 -0.4243566 0.6644504 0.25312415 -0.78663665
1199 -0.3859261 -0.17519578 0.9741863 -0.8338976 0.121835366 0.65773463 -0.048193846 -0.111791834 0.4678751 0.092392966 0.20382585 -0.20496295 0.21320347 0.15835445 0.59861 -0.40289456 0.94867426 -0.2723955 -0.019159809 0.16303955 -0.04108527 0.3804272 0.023378493 0.092019714 -0.3700722 -0.2685251 0.37001148 -1.4212191 0.10495083 -0.08198511 0.07662573 -0.82751954 -0.05483246 -0.70155895 -0.43933037 0.28375822 0.20469186 -0.31629723 -0.105808645 0.31056994 0.084276155 0.46469033 -0.6104366 0.4350473 0.945707 -0.5973717 0.09877299 0.2202137 -0.18249997 0.244463 -0.040063556 0.59647346 -0.24018057 0.046687543 0.0021329948 -0.20923162 -0.250639 0.004154122 -0.6488176 -0.32323405 0.24801268 0.29925516 0.759129 -0.4059302
1828 -0.1310622 -0.3086866 0.4390394 0.14375487 0.26731828 0.30000463 -0.4547391 -1.0459689 -0.1351455 0.1961888 0.16536745 -0.49670517 -0.4727569 -0.56471604 0.38206285 0.4873161 -0.25494987 -0.017751748 -0.029519845 0.34834936 0.43407264 0.27829516 -0.28752932 1.3400915 -0.050114546 0.3647371 -0.22634253 -0.44736475 -0.9318888 0.061098605 0.3872079 0.39720455 -0.43092206 -0.309397 -0.07288269 -0.065836184 0.6010461 0.23319374 0.73860776 0.9825276 -0.16241875 -0.13149546 -0.0023661456 -0.834401 -0.5721179 -0.07248941 0.68640894 -0.0831399 -0.008565701 0.6220309 0.0504932 -0.53748333 0.58391386 -0.32612672 0.14275327 -0.22844495 -0.6514417 0.17304128 -0.5208268 0.12954403 -0.92868876 0.29994228 0.36986867 -0.30071965
704 0.31246167 -0.23378809 -0.36733353 0.4160592 0.38223058 -0.24056402 0.23355718 -0.8258501 0.23906049 1.1680868 0.26015764 -0.51955014 -0.237023 0.029375808 0.8645111 -0.7397272 0.56823224 -0.12202271 -0.23811735 -0.01244635 -0.105427966 -0.42083234 -0.2058134 0.7170676 0.2472669 0.8301912 -0.088888146 -0.09774268 -0.10922407 0.8149976 -0.10570573 -0.2721148 -0.40796682 0.37873945 -0.24183887 0.81839925 -0.117108054 0.5801626 -0.32343492 0.6069127 0.37569055 -0.57061183 -0.41598672 -0.4287621 -0.10719732 0.28824562 0.5252857 -0.7122207 -0.35338148 -0.13911843 0.34816793 -0.043278422 0.26768383 0.26319066 -0.014829721 0.09338986 -0.21662965 0.33944243 0.2513519 -0.41525525 -0.49809656 0.5133763 0.19206943 -0.6873846
603 0.2674926 0.39813858 -0.6374917 0.93301463 1.3219233 -0.30718434 0.020750685 -0.62307274 0.6073364 -0.1320641 0.18876716 0.028257791 -0.19327366 -0.19933352 0.20980977 0.10243374 -0.36379847 -0.25428814 0.007177483 -1.1247282 -0.28114876 -0.20035613 -0.62114066 0.36468855 -0.29431954 -0.50772834 -0.1643749 -0.27441582 -0.41770554 0.53401846 -0.11564831 0.062584266 0.09630288 -0.47429088 0.7887201 -0.60282534 0.5746483 0.4451779 -0.7774579 0.21238832 0.4569731 -0.32093608 0.13673931 -0.4768708 -0.19180566 -0.41438907 0.07484038 0.88457334 0.10095556 0.18126158 -0.76422757 0.5622015 -0.04661297 0.8759721 0.29598773 0.16795656 0.5340145 0.21528246 0.18951881 -0.593005 0.81400055 0.73783153 0.010237149 -0.8777102
1873 0.14572553 0.018538337 -0.33992937 1.026757 1.4225751 -0.30455798 0.25988972 -0.023581734 0.1817518 -0.30102578 0.48944145 -0.3937933 0.020100838 -0.7610297 0.24134973 0.45225877 -0.49723053 -0.23612216 -0.18196297 -0.42477855 0.5472171 0.35327536 -0.41422778 -0.27498698 -0.102995835 0.25400725 -0.2172258 0.17223307 -0.58001643 0.5413205 -0.257004 -0.023776097 -0.1404127 -0.6532377 0.28187773 -0.087078825 0.71733236 0.066774085 0.008760763 -0.2300351 -0.25935817 0.016693028 0.4162059 0.033294167 -0.55450344 0.36137024 0.2606781 -0.36931312 -0.5447472 0.5089114 -0.36006415 0.1698783 0.34555802 0.75492316 0.22905616 0.051448632 0.39864215 -0.35483232 0.24686165 -0.3718688 0.9634686 0.66962975 0.46769518 -0.38368034
849 -0.19732186 -0.25920206 0.004080297 0.3069046 0.47830907 0.12242285 0.026468344 -0.47912663 0.40571418 0.45530972 0.67091215 0.33944046 0.18417057 -0.83918786 0.79948896 -0.16192746 -0.35421768 -1.048374 -0.1351291 0.2190942 -0.07516466 -0.4640747 0.20204528 -0.7158808 -0.3306974 -0.8274769 -0.20781521 0.11455791 -0.24356996 0.10524238 0.24933594 -0.12729475 -0.116831936 -0.14079502 0.20316097 -0.33295408 1.0125132 0.6086859 -0.62762743 -0.77638716 0.46702042 -0.029806318 0.08352271 -0.17382821 -0.16740005 -1.3589749 0.05150069 -0.49905172 0.1775738 0.056674875 0.11261466 0.083918676 0.102874 0.21944657 0.54937255 -0.55290234 -0.12985034 0.20282178 0.1887559 -0.31374332 -0.30112338 0.040743142 -0.77180356 -0.2607423
109 -0.03933177 0.31859687 -0.0345908 0.49528265 0.736905 -0.3953105 0.14650819 -0.12024706 -0.23099717 -0.20318232 0.22696587 -0.16783036 -0.591222 0.432037 0.5000427 0.9378688 -0.56781167 -0.6534861 -0.14346425 0.23829749 -0.26116252 -0.16769068 0.2897958 -0.04259483 -0.6519094 0.3447027 0.42774454 -0.53352976 -0.23274845 0.6221643 0.47241876 0.53386676 -0.6974187 0.033568904 0.2218632 -0.7507659 -0.4354729 -0.013082099 0.48915866 0.02921741 -0.0033217792 0.037513014 0.26148248 0.19303583 0.81586564 -0.41484848 0.21090364 0.40422788 -0.24265717 1.1031001 -0.18952304 -0.118525565 0.4372903 -0.040884834 0.17840149 -0.5951146 -0.0156616 0.5253492 0.19857866 0.724108 0.059529968 -0.1629625 0.71321636 -0.77641714
1514 0.15679993 -0.0801952 0.8669452 -0.19626766 0.65293276 0.5423712 -0.45246428 0.37951714 0.29887444 0.37951702 0.28092414 -0.2161039 -0.5924552 0.48415875 0.9945027 -0.2777417 -0.5232715 0.2683076 -0.72770005 -0.56702566 0.6279748 -0.6944208 -0.016241215 0.1609578 -0.17346196 -0.547722 0.07041877 0.0299075 0.20128116 -0.41394284 -0.8227331 0.20498228 -0.46305296 0.22551085 -0.7197751 -0.38224965 0.2024528 0.38901305 -0.29027337 0.18508361 0.122524954 -0.3879772 0.21462798 0.2672281 0.39269367 -0.16154489 0.35384145 -0.24718204 -0.53879356 0.7067376 0.15174921 0.7459373 0.23015657 -0.8107274 0.6668046 -0.67146033 -0.07363514 -0.4367637 -1.0726798 -0.27546385 0.090307824 0.5742857 0.99459213 -0.33117023
597 -0.3667656 0.4665317 -0.3028303 -0.32931122 0.47363675 -0.5149297 0.6514208 0.23142776 -0.06498992 0.031297382 0.22925666 -0.5120598 0.05077601 0.20624511 0.19377443 -0.34506768 0.09687679 0.4716369 -0.25210318 -0.92692643 -0.3475568 0.50277585 -0.103654325 0.08099865 0.012706223 0.36762604 0.53893715 -0.08590658 0.25322592 0.69433475 -0.332555 0.0511341 -0.06496062 0.054709386 -0.13842896 -0.044230368 1.4420375 0.039435107 -0.38918647 0.22083025 0.25287294 0.18225017 -0.5257627 0.26999524 0.1391352 0.17400812 -0.11695679 0.22480075 -0.4016355 0.51174515 0.05983103 0.20749545 0.5597717 -0.4866889 0.25671804 -0.52443016 0.085465044 -0.79761016 -0.08444714 0.22921532 1.18891 0.45553565 0.27273068 -0.89746493
1110 -0.2533711 -0.20428197 0.9672705 -0.64149797 0.5821737 0.12615085 -0.86322236 -0.27653077 0.39197016 -0.14184956 0.1744878 -0.2331838 -0.045026895 0.23675011 0.417921 -0.09767946 0.5322924 -0.1228078 -0.76259947 -0.7228246 0.5069612 0.108741626 -0.088104755 0.10505486 -0.5916105 -0.14792117 -0.0105942935 -0.38907307 -0.5176907 -0.063308105 -0.5523474 -0.46195182 0.6304512 -0.58860457 -0.21554294 0.31339914 0.43685877 -0.5295979 -0.28347045 0.20131943 0.093091354 0.3417043 -0.514439 0.28597873 0.6318533 -0.4840972 0.43171984 0.12856093 -0.41906562 0.1486256 -0.5967844 0.017669318 -0.3396142 -0.17839257 0.37524545 -0.37495214 -0.3730532 -0.13613275 -0.51455766 -0.31293005 -0.24298303 0.4027824 0.33402705 -0.99561125
685 0.47410703 0.0043470077 -0.07174038 -0.28819498 0.57264704 0.61890185 0.41492712 -0.58755547 0.48652807 -0.5729987 0.23564263 0.7089153 -0.686107 0.074694395 1.2243868 0.040893443 0.16395417 -1.0898983 0.06927214 -0.2881758 0.57656413 0.16308172 -0.06557662 0.3026895 -0.07991665 0.5704558 -0.7907272 -0.45336384 -0.5774576 -0.394226 0.21875195 0.01962114 -0.3616099 0.329915 -0.28464004 -0.33963042 -0.06390179 0.14990324 -0.618487 -0.17564479 -0.14874789 0.082637474 0.16983397 0.30420858 -0.3635813 1.0301542 -0.30409905 0.24354815 0.19816932 0.36857614 0.32723773 0.42010266 0.27445373 -0.07099197 0.21348041 0.44449785 0.25394025 -0.06792229 0.3681697 0.10995305 0.2958831 0.2469756 -0.0070040817 -0.20280609
1218 0.57740235 -1.1678476 0.06798659 -0.031267203 0.58312225 0.74363106 0.7862984 -0.6728661 -0.40161723 -0.6916908 0.40155658 0.08194698 0.36987525 -0.12574233 1.0050946 0.2772297 0.009649449 -0.58150345 -0.5124672 -0.27744514 -0.14921257 0.2384154 -0.2611864 -0.26329902 -0.8294663 0.7469534 -0.24538013 -0.08543917 0.4220053 0.104481354 0.3562922 0.6532921 0.85263467 -0.0717143 -0.40645915 0.27451885 0.06479383 -1.3037213 -0.58492196 -0.6171488 0.8622666 -0.11134638 -0.50474155 -0.37836742 -0.5163404 0.38514403 -0.60704273 -0.33064198 -0.6687585 0.12202937 -0.81742746 0.8241968 1.0086335 0.7140767 -0.5759325 -0.45203528 0.5579397 0.16489184 -0.26615822 -0.07047138 2.877035e-05 0.53650993 0.331632 -0.32009065
1384 -0.7456484 0.37218267 -0.29825473 0.43774098 -0.18606612 0.40954515 0.682173 -0.9830184 0.68858665 -0.5610645 -0.4856893 -0.23996578 -0.34325936 -0.45018166 -0.57383114 -1.3103973 0.52208775 -0.76426977 -0.106395096 0.25837284 -0.373505 0.5149803 -0.53136176 0.072626516 -0.53884786 -0.22490485 0.67448455 -0.1456079 -0.62093824 0.58936316 -0.443058 -0.09733032 0.014113074 -0.6496229 0.1470542 -0.28367165 0.20593047 0.15588714 0.15637411 -0.23402014 0.25708476 -0.27717265 -0.26902586 0.2659747 0.25963235 0.09484944 -0.17985325 -0.05410288 0.0730021 0.28798375 0.8262453 -0.0058593573 0.03143571 0.06160451 -0.7946141 0.008098861 0.1046067 0.4007479 -0.05794118 -0.429077 -0.20108274 0.041366346 0.3965839 -0.20429598
1795 -0.32297948 0.32654288 0.9102535 0.11190304 0.16637138 -0.024524968 -0.008695478 -0.039109964 0.7228312 0.14953426 0.019782031 0.41465446 -0.802725 0.021408722 0.26612157 0.1916537 0.22517316 -0.54013854 -0.06681198 -0.06692664 0.22141568 0.32669005 -0.25749156 0.7734629 -1.5331354 0.6682762 0.3899437 -0.22435372 -0.3235588 0.08232268 0.4378687 -0.31048256 -0.55936766 0.07976241 -0.4948426 -0.27632928 0.07647825 0.26570794 0.1553929 -0.18473253 -0.03200794 0.31965336 0.6477675 0.12791848 0.08974388 0.56012756 -0.8131604 -0.89744425 0.029248033 0.26382333 -0.11976897 0.39534158 -0.5496861 0.2079664 0.034101162 -0.1548045 -0.11179378 -0.7150252 0.45200637 0.45698634 -0.3915089 -0.4833505 0.40557387 -0.021207847
1380 0.20023312 1.0023823 -0.34345162 -0.35262483 0.76416653 -0.506105 0.084641606 -0.42036465 0.2522949 -0.13228796 -0.05967032 -0.91182405 0.343846 -0.025863942 0.6984478 0.16473165 0.5204516 0.123732895 -0.08646395 -0.8685352 -0.32850984 0.6665481 0.4763526 0.46431154 -0.005344149 0.31363916 0.11830721 -0.13261758 -0.4446588 -0.13372979 -0.71963155 -0.2940362 0.28743702 -0.12467814 -0.19596232 0.046158064 0.8644723 0.1927404 -0.124569885 -0.20838024 -0.08026514 -0.0749169 -0.22140801 0.1131215 0.17826423 0.6517166 0.2417414 0.5510216 -0.5059538 0.27697548 0.22826599 -0.1043497 0.028216861 0.13648558 0.6238672 -0.5343453 -0.52497387 -0.31324524 -0.35892576 0.24407636 -0.083341636 0.094794534 0.72925526 -0.75355303
2679 -0.025263673 -0.7022547 0.9589928 0.46113664 0.13749199 0.27373314 0.15442835 -0.50862086 0.013115338 0.28930047 0.00024365839 -0.18563445 -0.5872638 -0.7278776 0.098048955 -0.21679807 0.5891833 -0.19471812 0.24670674 0.06358208 -0.79001665 -0.042599667 -0.019782363 0.08936973 0.22282158 -0.46603313 -0.15116374 -0.4470566 0.15146303 -0.07818158 0.24335475 -0.100356504 0.21779159 -0.6569508 -0.5114769 -0.7034271 0.29181325 0.80332524 -0.02297984 -0.67076254 0.101069026 0.48997796 1.2123909 0.6735857 0.38828242 -0.57132393 -0.44779268 -0.3310905 0.24280521 0.5432653 0.04320847 0.07951508 0.7614505 -0.6127103 -0.055107918 0.362983 -0.6222036 -0.23136234 -0.2096589 0.090076566 0.85978734 0.54602826 0.28096303 -0.16248384
1336 -0.35430104 -0.782289 1.0517462 -0.26390234 -0.6573332 -0.18910465 0.40053284 -1.0214521 -0.2174436 -0.73071766 0.48545617 -0.5831993 0.38473827 0.21679711 0.6352287 -0.21599862 0.2162658 -0.82601774 -0.5936995 -0.4322532 0.2561299 0.7492972 0.083085425 0.043743677 -0.6104314 -0.35380393 0.024598086 -0.2564935 0.03581993 -0.22349314 0.3649386 0.5033856 0.5345679 0.23020516 0.6335083 -0.42366192 0.096623935 -0.7044241 0.15898377 -0.36257312 0.116845526 -0.20218976 0.16708341 -0.22849247 -0.12549646 1.0347517 -0.96118754 -0.34074014 -0.54258424 1.1700833 0.6573996 0.2110734 -0.05129003 0.28961366 0.5116364 -0.42846122 -0.02925783 -0.5811825 -0.08135051 0.09277592 0.291461 -0.35241863 -0.21021257 -0.40243742
231 -0.34343216 0.13646892 0.62092155 -0.48012644 0.8849804 -0.30232358 -0.77357817 -0.6366724 -0.101281755 0.26794535 -0.040081013 0.38892648 -0.9486737 -1.0021455 0.16799359 0.34972885 0.15549526 -0.022615561 0.026123 0.7650589 -0.03796603 0.26202908 -0.07804171 0.44434613 0.22659162 -0.017716838 0.09578434 -0.38145617 1.0968888 0.82021224 0.39767066 -0.25152588 -0.60749894 -0.41029274 0.3329069 0.2095964 0.46995276 0.090290956 -0.12677535 -0.46957397 0.6537495 -0.633111 0.4849505 -0.30456513 0.6592865 -0.29761022 -0.7973125 -1.0639364 0.12858185 0.11678926 0.44200274 -0.11200345 0.6842918 -0.4217198 -0.009740499 0.042694848 0.5435893 -0.02765884 -0.00040164855 -0.5301766 0.10929047 0.5769394 1.2293683 -1.0612093
2524 -0.74478334 0.51055443 0.053135224 0.23865566 0.13021085 -0.046276286 0.29345548 -0.27566078 -0.3276154 0.14755088 0.6681907 0.37813088 0.57841355 -0.15457128 0.29320863 0.6347799 -0.33121923 0.14812817 -0.48310447 0.06314716 0.1990973 0.27685648 -0.4967336 -0.33274645 0.24020112 0.6636187 0.06038509 -0.5648991 -0.24427308 0.78350824 -0.61596817 0.69171214 -0.38481772 -0.10087134 0.4495358 -0.08636071 0.74570364 0.5609577 0.30956632 -0.48179248 0.4162751 -0.052694343 -0.524904 0.79134977 -0.48714212 0.010488295 0.121229656 -1.2206404 -0.2194409 0.25569972 -0.26511273 0.15964067 0.2936579 -0.013217527 0.2608037 -1.0438536 0.9574465 -0.5604049 0.49512488 0.15809053 0.5230656 0.11522127 0.46822873 -0.20281878
2518 -0.8003966 0.5168913 1.0018218 0.5403323 0.50239927 0.5783034 0.5874545 -0.07555218 0.30393463 -0.12217325 -0.093038626 0.11735386 -0.51732653 -0.8505729 0.26268324 0.559402 0.07857148 -0.2717777 0.48749825 -0.2867562 0.2822964 -0.11014149 -0.075861804 0.8794025 0.026515847 0.36954936 -0.19171475 -0.20442681 0.25183734 -0.36218315 0.0341405 0.22468126 -0.9295153 -0.7375905 0.931505 -0.3574685 0.15802823 0.386937 -1.1170642 -0.35653073 0.27389136 0.54405797 0.754541 0.64981115 -0.109404065 -0.28532058 -0.67925346 -0.97466075 0.0022935593 -0.23876055 -0.21848488 0.4301121 -0.41694176 -0.5461716 0.037723694 -0.43899664 0.31614554 -0.36282676 -0.4372589 -0.33757254 -0.3297371 0.3534636 0.22986211 -0.23330818
2182 -0.037910108 0.15108049 -0.035834793 -0.30489805 0.5033199 -0.0892821 -0.49407282 -0.028753595 0.42955002 -0.70939803 0.5890931 -0.65972865 -0.09765783 0.33132702 0.95264137 -0.114649326 0.14246865 -0.3548602 -0.63918537 -0.5425252 -0.8714049 0.3034028 0.052568067 0.06946857 -0.42567742 -0.6214268 -0.6744793 0.15386239 -0.35550314 0.1967016 0.2105309 -0.44875628 -0.6540453 -1.0102233 -0.53283817 -0.06249777 0.08996588 -0.06885786 -0.20641524 -0.053346418 0.3160847 -0.20209156 -0.56819546 0.103347115 -0.6544701 0.027430998 -0.46221468 0.8392772 -0.5425588 0.31003842 -0.27927056 -0.027064778 0.017632365 0.34163383 -0.3676818 -0.33496156 0.107808515 -0.11372719 -0.058849387 0.04913828 -0.7030405 -0.07425269 -0.23985563 -0.8182865
152 -0.42283896 -0.03208843 0.22540234 -0.5096184 -0.19458893 0.5795475 -0.20301539 0.71990657 0.10636097 0.40114978 0.34345844 -0.19205919 -0.33437687 -0.5496156 1.0117565 -0.42609146 0.7792126 -0.6062267 -0.09907651 0.6408723 -0.9963344 0.34374714 0.11087296 0.17486955 -0.0026883108 -0.060099073 0.030040814 -0.25752452 -0.010574138 0.45510393 -0.1328317 0.8275965 -0.011346398 -0.70812374 0.9230714 -0.25668314 -0.1055663 0.36647525 0.72062093 -0.064679556 0.29181746 0.21182506 -0.109496064 0.27838185 -0.40832165 -0.25690362 -0.11203072 0.5838339 -0.7680067 0.26069438 0.12016155 0.14858285 0.007790571 -0.8295548 0.28240344 0.4374226 -0.49877548 -0.83961684 0.11931908 0.39271712 -0.25066128 -0.5851521 0.6111778 -1.3984511
432 -0.7029652 0.122822426 0.056878068 -0.42951986 -0.20224343 1.057518 0.051110502 -0.59027225 -0.20620747 -1.2121423 -0.50040954 0.18931556 -0.6295744 0.038652863 1.9763587 0.96238214 -0.37796524 -0.17564648 -0.19987623 -0.57822704 -0.7882236 -0.3137778 -0.042351555 -0.5582093 0.36204535 0.4876338 0.7704844 -0.05972614 -0.27092496 0.1215874 -0.25493667 -0.03875473 -0.10309641 -0.6427571 0.45814043 0.101472326 0.43993384 0.061324812 -0.02353364 -0.64023733 -0.21078981 -0.32743946 -0.31047618 -0.59651 -0.13096078 -0.00533304 -0.27656516 -0.65751326 -0.29888132 0.59592795 0.52358925 0.50613093 0.6220477 0.04900316 0.05495307 0.5918012 0.3112712 0.24718791 0.7271779 -0.4205971 0.07751101 0.18009752 -0.6197302 -1.2353756
521 -0.15479632 0.496354 0.60169053 0.30821973 0.69569045 1.0616882 0.5443581 -0.31412825 0.14187221 -0.5473183 0.38134098 0.021606592 -0.22322023 -0.19698839 0.56214494 0.1049317 0.6459474 -0.4245181 0.54742646 -0.2854415 -0.35470438 0.025830887 -0.45449966 0.47108924 -1.1055065 0.42276844 -0.017066425 0.006858064 0.36165243 -0.27836114 -0.4090285 -0.012032075 -0.57128376 0.044703837 0.559705 0.3542007 -0.36085868 -0.037790503 -0.9605685 0.10146436 0.40742093 0.29905194 0.80937505 0.16569816 -0.43730655 -0.90371066 -0.6186134 -1.5404884 -0.11830911 -0.2679148 -0.2110483 -0.03827146 -0.28028774 -0.29840463 -0.09565986 -0.556808 -0.18081333 -0.39874697 -0.03302257 -1.0654144 -0.25233176 -0.26007313 0.8461338 -0.14886609
1811 0.2709977 -0.2594178 1.0054601 0.22675133 -0.12053783 0.11549566 -0.20404238 -0.66806555 -0.010019406 -0.12662055 0.44801298 -0.09182491 0.7630981 -0.82203335 0.34911734 0.031373728 0.23867689 0.056969 0.529743 0.37919226 -0.45223507 -0.5201534 -0.11695136 0.06590943 -0.5710079 0.29149428 0.49389094 -0.10487125 -0.39038685 0.30762598 -0.84853053 -0.16191912 0.24667074 -0.037279066 0.75391346 0.47154087 0.5356715 -0.016488008 0.5301267 0.06625557 -0.16272843 0.19658789 -0.051806822 0.6373571 -0.021980505 0.119784966 0.20478399 -0.007728298 -0.6114939 -0.63749796 0.08702105 0.4440713 -0.3784045 -1.7645715 -0.7016609 0.077003606 -0.3440296 -0.47621772 0.26984206 -0.2446749 -0.8945891 -0.014396037 0.19752441 -0.97042996
2690 0.1317607 -0.2231592 -0.5003709 0.21109752 0.38588122 0.9958634 -0.101849236 -1.1349415 -0.14848171 0.26234484 0.60825247 -0.45124584 0.20831658 -0.50416315 0.23488854 -0.185488 0.7374359 -0.16779418 0.58918226 -0.29336548 0.056904525 -0.047780663 -0.14027935 -0.27063695 -0.17133741 -0.32419643 -0.27629423 -0.9764829 -0.74550694 -0.046562176 -0.45270124 0.37744707 -0.25486997 -0.20136575 0.1251725 -0.46271226 -0.65831685 0.3318118 0.47888345 0.17967887 0.459286 -0.07859469 -0.59084433 0.400851 -0.23034798 0.15630311 -0.376521 -0.41287437 -0.39063117 -0.8179609 -0.4771396 -0.2366932 0.59545434 0.0668521 0.64526004 -0.03834329 1.2011709 -1.0541643 -0.34823978 0.13039683 0.2306805 -0.7424694 0.45841354 -0.13909262
190 0.3245991 -0.151837 -0.2750303 -0.10704845 -0.28963754 -0.54005414 0.055677503 0.14713043 0.074020304 -1.2033149 0.84161264 0.32785574 -0.7313004 -0.5041365 0.5875955 -1.0379496 -0.259746 0.083725005 0.025655445 0.7326365 0.076541066 -0.35721353 0.3540675 0.62567776 -0.81123513 0.61119175 -0.11501222 -0.6530562 -0.062682 0.29462826 0.5902491 0.03505392 -0.8131532 -0.56868184 0.37497678 -0.79752177 0.46452016 0.98778075 0.025902167 -0.63612723 0.5847163 -0.115040526 -0.7427374 0.46817058 -0.8525033 0.5185727 0.26455927 -0.29143894 -0.16735746 -0.32611337 -0.00044222415 -0.7050339 0.30148053 -0.5082823 0.9149722 -0.15203215 -0.34771132 -0.6684519 -0.25729015 -0.9350084 0.1382267 1.0762817 -0.40894333 -0.21895194
1775 -0.5499977 -0.3518769 0.11352918 -0.27665117 -0.08805975 0.020333735 -0.3111363 -0.34307453 -0.37763822 0.07903392 0.019798549 0.13999407 -0.9033688 0.36958712 -0.046442114 -0.06687633 -0.223561 -0.34699428 -0.07959927 -0.056878306 0.19942991 -0.15780026 0.6058848 0.21529289 -0.60396045 0.34148732 0.27175283 -0.8577794 -0.047697775 0.7493589 -0.23379707 0.26061404 0.09775992 0.43250692 -0.33621404 0.19380184 0.4166381 0.09088391 0.4562786 0.1678244 -0.5622746 0.10421483 -0.5494542 -0.16224961 1.23376 -0.46650723 -0.7910211 -0.47050902 -0.20065655 -0.14624864 0.5122239 0.5873601 0.5590352 -0.46711895 -0.5698825 -0.6725746 -0.4340627 -0.6225672 -0.23669279 0.40319678 -0.086997055 0.29283863 -0.02847881 -0.8696891
1955 -0.07551383 -0.14893927 0.46372914 -0.3249961 0.54262906 -0.6948239 -0.050540447 0.0258692 -0.3951191 -0.4649699 -0.18856068 0.3883635 -0.9250003 -0.43802223 0.547977 -0.261306 -0.029772293 0.7436019 0.22936834 0.024828449 -0.7668456 0.03818445 -0.5549864 -0.032169282 -0.632357 1.1297098 0.08325476 0.0056319614 -0.7241233 0.20909624 0.0462414 0.3272044 -0.98792803 -0.31501767 0.6602174 0.03250247 -0.0874473 -0.5832895 0.19033512 -0.0774577 -0.0390696 0.09444608 0.73222595 0.44751495 -0.46939218 -0.66777676 -0.58026046 0.21330164 -0.48475584 0.0066459747 -0.2079358 1.1300342 -0.64418244 0.061271034 -0.08146642 0.44334516 -0.019895473 -0.780516 -0.6971148 -0.14741352 0.320696 0.26029494 -0.21056063 -0.65323114
2287 -0.34216246 0.2684593 0.011763914 0.47793704 0.16362447 0.40144476 0.20732121 -0.82054555 0.21044298 -0.15278935 -0.054874998 0.29431686 -0.23624595 -0.13833234 0.3874298 0.33424297 -0.026817586 1.0901589 0.21980423 0.26142943 -0.59037644 0.0754154 -0.37692177 0.0050633713 0.20473045 0.47025344 0.050225608 0.10312787 -0.14144957 1.0610245 -0.58987164 0.33351323 -0.98417395 -0.051641684 -0.3349661 0.18644585 1.0176085 0.38151056 -0.11742341 -0.47941568 0.72938454 -0.48361984 -0.06561731 0.9188514 0.24350001 0.10210386 -0.24028921 -0.6208647 -0.024490304 -0.0027606236 -0.14341143 -0.14819634 0.1609253 -0.8241096 -0.20063235 -1.1053826 0.64077765 -0.42703176 0.4854728 0.0044458793 0.17395611 -0.059484854 0.43543187 0.22209693
2693 0.11926155 0.14130181 0.24203587 0.45859528 0.43066388 -0.29506928 0.46663776 -0.3717392 0.09380698 0.41732386 -0.23930345 0.09448133 0.10144174 -0.35903895 -0.109662235 -0.1747791 -0.14714922 0.08066479 -0.18682602 0.1869463 0.80935943 -0.23777844 -0.0053300075 -0.16744532 -0.042501226 -0.4051292 0.08421017 -0.5488677 -0.6481318 0.19502957 -0.0006844112 0.35632032 -0.4592833 0.096761435 0.23340116 0.59720296 0.26645038 0.64386755 -0.9317412 -0.9736115 0.58650774 -0.77603954 0.23051263 0.6681041 0.18365408 -0.9362114 0.44380462 -0.42002216 -1.0933855 0.109802015 0.10830731 0.3475402 0.15372407 0.49760747 0.13615645 -0.48161957 0.40582 0.118024744 -0.40756002 -0.38277742 0.13061786 -0.33007136 -0.2847881 -0.8343754
734 -0.39896664 -0.06671113 -0.4542911 -0.5783448 0.6944844 0.22663024 1.027481 -0.82529396 0.010290922 0.037687674 0.6303292 0.2075685 -0.18237554 0.04320906 0.57046 -0.4778349 -0.89020497 0.60402423 -0.47383448 0.42535 -0.3406858 0.03536677 0.41429844 0.28325054 -1.4158976 0.2376538 0.59363765 0.9207986 0.04129381 0.21732709 0.4174809 0.5709357 -0.4991398 -0.24766453 0.33417973 -0.16906139 0.85493875 -0.015499236 -0.38329217 -0.33109888 0.5606106 -0.70312583 -0.31611985 0.41132417 0.09777219 0.18496864 0.10463034 -0.259053 -0.9687151 0.28584382 -0.00967802 -0.59858876 0.435166 -1.2340059 0.07525225 -0.30068627 0.17622258 -0.029781101 0.55379367 -0.43719804 -0.03157123 0.5944255 -0.03192199 0.34695166
1391 -0.5023337 0.20666952 0.20247702 -0.23838167 -0.0905095 0.67181355 -0.033865698 -0.95738804 -0.28719392 -1.0218179 -0.43718043 -0.2387358 -0.315359 -0.46483254 0.3737336 -0.08001939 -0.8560427 -0.6917998 -0.3872508 -0.7799111 -0.75412065 -0.33989772 0.5946302 -0.03227744 -0.14757024 0.4193794 0.11961507 -0.8073446 -0.47250375 0.48268273 0.58953327 0.01946332 0.13323267 -0.7289015 0.32667953 0.11680614 0.25658455 0.45112893 0.35534614 -0.2700706 0.20488626 -0.10193526 -0.054936275 -0.3505833 0.04289669 -0.32547122 -0.3169589 -0.3337439 -0.2816931 0.5378508 0.6191523 0.859381 0.13111813 0.20298833 -0.06578132 0.25167957 0.6563004 0.6416132 0.6244577 -0.33069167 -0.26489472 0.36327088 -0.43370962 -0.62805885
1324 -0.36243433 0.18355966 0.10088204 -0.1745021 0.6510515 -0.43839914 0.14090513 -0.19069104 0.117674924 -0.50063163 -0.82763153 0.17921491 -0.27295834 -0.58622485 1.0312606 -0.30863842 -0.1918718 0.40375155 -0.0045863288 1.0662866 0.023049688 0.07601157 0.8608254 -1.2042205 -0.40428063 0.20271468 0.4759261 -0.105278425 -0.5495453 0.11652722 0.19825988 0.5063229 -1.0740998 0.10042723 0.0018612186 -0.10853691 0.359979 0.49195322 -0.52566886 -0.8064009 0.052165 -0.48679575 0.22534685 -0.07009501 -0.34488574 -0.5809872 0.2897467 -0.29833254 0.000654552 -0.037415545 0.40192202 1.2448274 0.3820346 0.16208747 0.14018056 -0.09674354 0.3133341 -0.0973081 -1.2159177 -0.44320303 0.19985983 0.13531166 -0.3370726 -0.7617371
2199 -0.22798845 -0.8166473 -0.32576814 0.12798873 0.54155093 -0.8098284 1.0360459 -0.41371155 0.16069971 -0.65855426 0.45769352 -0.10371459 -0.20954469 -0.5065005 0.31546703 -0.45247987 -0.83916754 1.0600699 -0.19692369 -0.5365429 0.00254876 -0.17742454 0.45099166 0.2694126 -0.5941429 -0.4864816 -0.12765403 0.020594768 -0.21674037 0.50888157 0.049375135 -0.67836744 -0.49193117 -0.33764964 -0.0038522477 -0.25851005 0.5724933 -0.32920018 0.800096 -0.31675205 0.77667457 0.03087753 -0.90678835 -0.080694124 0.010446204 0.629572 -0.67394173 -0.16591832 -0.1324367 0.046738714 -0.07839605 -0.44036078 0.32890165 -0.52405465 0.58741826 -0.47251937 0.14761786 -0.33071357 -0.252662 -0.65601087 -0.19344336 0.38605508 -0.3013612 -0.48572218
1293 0.3348785 -0.44882724 0.6617998 0.123060115 0.4878578 0.18745974 0.058344066 -0.69670177 -0.94346315 -0.2546016 0.7058807 0.8612058 -0.5653139 -0.12072721 0.3075036 0.4836074 -0.6749535 0.35717604 0.8822437 0.3185268 0.8574421 1.1708173 0.125057 -0.3056766 0.57162625 0.39515704 0.47835183 -0.33874783 -0.7033587 0.81370735 0.63957727 0.5342739 -0.4626835 -0.56288195 0.12940198 -0.43161553 0.18242384 -0.16521865 -0.14634195 -0.028889248 0.6234524 -0.86030257 0.21710773 0.14433572 -0.20159796 -0.15018427 -0.66231114 -0.2447841 -0.11191151 -0.7923439 0.5181919 0.64242005 0.38615364 0.48376012 -0.64202446 -0.27133095 -0.31887826 0.49953395 -0.52922374 -0.03929392 0.35620803 0.6150349 0.8414516 -1.183699
368 -0.07351677 -0.9630769 0.6740769 -0.30450985 0.019916495 0.09447681 0.48462483 -1.0841191 0.21918173 0.24580441 0.5048723 -0.03264754 -0.31038967 -0.03200726 0.61104757 0.2625543 0.10027871 0.83707666 -0.1801068 -0.6392276 -0.8194384 -0.5814636 -0.6224597 -0.41604915 0.33126804 0.7847234 0.07655395 0.37965983 0.12623127 -0.3177497 1.0166796 -0.36739445 0.21412995 -0.09525182 -0.17975919 -0.7824156 -0.4552854 -0.001984753 -0.5812989 0.09157173 0.9314826 -0.00686281 0.32763606 0.1509056 1.2257403 0.09428246 -0.6106153 0.033316262 -0.59693205 0.009856492 0.765591 0.81873995 0.20715198 0.09285574 0.04534032 -0.3224187 0.2678826 -0.50277996 -0.08534792 0.27092034 0.22373277 0.15240888 0.50854486 0.09833838
1151 -0.23640196 0.50070435 0.7764224 0.09137246 0.0006085539 -0.17001429 -0.2278356 -0.01079344 -0.26321957 -0.9767904 0.9772379 -0.46708807 0.5901201 0.21222244 -0.043516222 -0.24617901 0.26738223 0.49342066 0.03126116 -0.71004313 -0.6490124 -0.45787278 -0.43211398 0.14292656 -0.37579754 -0.6251701 -0.43846995 -0.010025009 -0.54283535 0.045663767 -0.3368286 0.06630207 -0.30103615 0.35190707 0.4060361 0.19617905 0.7924229 0.44272932 0.18910256 -0.0015450019 0.48918155 -0.40463284 0.029805068 -0.43446934 0.8887438 -0.7951028 0.53964704 -0.21216372 -1.0305648 0.15727162 1.413138 0.3769484 0.42339173 0.17000929 -0.12225452 0.08847301 -0.41805547 0.36166582 -0.18123813 0.5818338 0.22017732 0.7329217 -0.23279966 -0.73426455
627 0.4513239 -0.7170248 0.36211744 0.43952823 0.43601638 -0.08151549 0.055285115 -0.97326785 -0.2033752 -0.36334446 -0.19099757 -0.34599432 -0.0033607876 0.07731245 0.63324976 0.07169309 0.6244962 0.045042317 0.50562567 0.13847381 -0.621649 0.18456765 -0.52421993 0.48265192 -0.8969876 0.34861106 -0.5614453 0.5560937 0.941257 -0.42592636 0.1387615 -0.16586047 -0.65160376 0.23775232 0.37430942 0.26201963 0.254162 0.55338097 -0.6022159 -0.5843133 0.081289604 -0.55775225 -0.08892337 0.3839606 -0.21908723 -0.03144495 -0.099566095 -0.5546408 -0.045162838 0.01760722 -0.0060191024 -0.09994451 0.27251372 0.62059635 0.059710566 -0.8529048 0.22222699 0.07852098 0.38911876 -0.4643518 0.027700992 -0.00154387 0.08588585 -0.24926755
1799 -0.21464415 0.52513415 0.1500161 -0.09871895 -0.11196174 -0.38466713 -0.013238204 -1.0097021 -0.38488597 -0.41705275 0.18297973 0.21425079 0.36512187 0.61755115 0.20518038 -0.09792936 0.18166403 -0.427773 0.19924244 0.35457942 0.8974564 -0.013455788 -0.40580955 -0.22986116 -0.14983971 0.7512657 0.60474277 -0.5160467 -0.18153809 0.24582058 0.28667206 -0.49570912 -0.44779733 -0.17975147 0.13447301 -0.071308956 0.24464782 1.2424479 0.56864005 -0.24220519 0.60234195 -0.27879128 -0.49677986 -0.67126083 0.28978288 -0.5249051 -0.10458804 -0.22579783 -0.56869745 0.6477651 -0.09028247 -0.6779376 0.7580666 -0.56944555 -0.39171806 -0.24970034 -0.61874247 0.06726979 0.07200457 0.1836767 -0.40239343 0.42035654 0.047656626 -0.2454292
2174 -0.1500303 -0.15303363 -0.35829705 0.40561685 -0.58328253 -0.15958682 0.36825025 -1.1707008 0.14249696 0.1812204 -0.021511463 0.067642584 -0.10892203 -0.37293088 -0.022761049 -0.32569954 0.34459183 -0.7903181 0.4517954 0.0075103515 -0.2764539 0.33377862 -0.08259569 -0.19555306 -0.42871645 0.3578376 1.0124087 -0.25045687 -0.8496598 -0.12630801 -0.096950784 0.064399645 -0.44468516 -0.10671887 -0.5880108 -0.75145954 -0.37762055 -0.072322965 0.7044458 -0.5491088 0.86150575 -0.3686838 -0.65773106 -0.311222 0.7530209 -0.8983447 0.41884282 0.19735205 -0.38189948 0.19762117 -0.48550022 -0.23760487 0.17886572 0.052540243 -0.41173136 -1.5289755 0.19873016 0.28173485 -0.012273376 -0.32741246 0.21442862 1.0735238 0.89742327 -0.22915488
2018 0.31043738 -0.504794 -0.35397494 0.6900329 -0.48802948 0.16586947 0.53437275 -1.3722082 -0.5312905 -0.19574794 -0.39158922 -0.3983702 -0.16902967 -0.22983848 1.2142947 -0.6271642 0.62985986 0.7075458 -0.37449795 0.22571003 0.42968154 -0.06914757 -0.3591944 -0.86351144 -0.4691818 0.24778025 0.021837698 -0.39400232 -0.07335152 0.2840781 0.5001241 0.47704765 -0.2505889 0.33367434 0.5500596 0.1401321 -0.89653873 0.100406505 -0.48703927 -0.7786246 -0.14948995 0.1810346 0.09800034 -0.121325396 0.17860752 0.03622342 0.0058866977 -0.1484096 -0.6474611 0.14276312 0.23892742 0.21058893 -0.36806834 -0.34236592 -0.21672514 0.11800084 -0.23889554 0.32830077 -0.1959081 -0.75179094 -0.41851312 0.43360963 -0.025712097 -0.8581091
102 -0.18544118 0.14924185 -0.050263237 0.7369175 -0.031535767 -0.24868529 0.31043282 -0.029343506 -0.10340448 0.0436804 0.07063303 -0.0789071 -1.1659985 0.12710889 0.25011036 0.83550763 -0.07021156 -0.47979638 -0.24259108 -0.17816526 -0.671838 -0.566987 -0.37614882 -0.18554305 -0.92690444 0.3197388 0.0132870935 -0.61418194 -0.33950612 0.6043519 0.22660153 0.37530428 -0.60031486 0.14610434 -0.027367156 -0.9836914 -0.90583426 0.049972557 0.6106016 -0.49925008 -0.08276877 -0.8193035 -0.84496427 0.34487644 0.48881748 0.2712244 0.37923673 0.3250065 -0.4207465 0.5462317 -0.47271612 0.01492109 0.4046265 0.25202692 -0.5064864 -0.6390949 0.53561264 0.48986453 0.5448848 -0.07285838 1.0757865 0.6347437 0.41293052 -0.6296806
1907 -0.37689334 -0.0063727847 -0.22512974 0.411506 0.3491886 0.24383771 0.557499 -0.8237398 -0.20191476 -0.20642895 0.6006474 -0.62845695 -0.18217698 -0.0012872523 0.15169671 -0.6545215 0.9149626 -0.050472993 1.1599562 -0.3802893 -0.07183076 -0.10205421 -0.4543228 0.109083384 -0.549892 0.46235707 -0.26928213 -0.2746045 -0.086183034 -0.10835321 0.29054233 0.5114092 -0.38043663 0.06325136 0.36865455 -0.13802512 -0.067486465 0.23084603 -0.69171846 0.8432048 -0.31793305 -0.58238554 -0.72728175 1.0528139 0.682196 -0.33505294 -0.10972639 -0.031028925 0.08889372 0.3757992 -0.09780474 -0.57267827 0.19885516 -0.034813847 0.6148112 -0.3061081 0.518246 -0.40181085 0.15404798 0.3615715 0.12150934 -0.44585615 0.3915938 -0.64512134
2248 0.40276286 -0.038811557 0.20204745 0.56206864 0.3106608 -0.47388026 0.36238548 -0.5897535 0.10610908 -0.39427257 0.24711882 -0.7275373 -0.95565575 -0.40108237 -0.13936685 -0.5304236 -0.08139081 -0.124447525 0.035800084 -0.04021669 -0.54503167 0.14664115 -0.101320036 0.23730224 -0.5042827 -0.6197703 0.040104114 -0.08049312 -0.22226945 0.45297095 -0.34989813 0.68954533 -1.1942931 0.0683423 0.361767 0.9916471 -0.9207124 -0.008125019 -0.032237202 -0.80199647 0.18574761 -0.021218074 -0.018327707 -0.71158683 -0.4866388 0.1688272 -0.13382909 -0.36266035 0.30367976 1.2801135 -0.7042115 0.41288397 -0.27024364 -0.8365035 0.45710889 -0.34245193 0.40416035 -0.6826476 0.007845151 -0.53791493 -0.29556254 -0.036477838 0.1341151 -0.41786584
