2708 64
1358 0.5915597 0.5765871 -0.3436351 0.07099986 -0.30314785 -0.21438372 0.40027326 -0.13711895 -0.07735243 -0.18378128 -0.0025944475 -0.4967413 0.5572888 -0.15700239 0.026577134 -0.52174515 0.055624455 -0.12259363 -0.5051022 0.01670364 -0.31681958 0.13829899 -0.26498836 0.05737135 -0.19764549 -0.12701376 -0.0050730356 -0.17743173 -0.22204547 -0.23204325 -0.08528994 0.022346493 0.20831251 0.0032630367 -0.08215342 0.34836844 0.273412 0.14913797 -0.119793795 0.5719317 0.15278858 -0.35874715 -0.12935527 0.13958001 -0.06555479 0.20446919 0.67746663 -0.09902338 0.08111174 -0.06960702 -0.2903621 0.4731136 0.008949527 0.21525529 0.5773757 -0.10108253 -0.21496661 0.22693841 -0.19277397 -0.23723736 0.4527868 -0.04116617 0.10474409 0.13033879
306 -0.30746225 0.027452096 0.36506286 -0.3442264 -0.04702405 0.03648356 -0.54943514 -0.23510307 -0.08606611 -0.16462432 0.34973526 0.13207887 0.13557826 0.438759 0.3718158 0.0052063907 0.14425646 0.018965274 0.11005712 0.11975885 0.0079968795 -0.010831588 0.11203072 0.07946476 -0.71147245 0.13037673 0.046189606 -0.00919933 -0.003416765 0.19100395 0.031622935 0.24460846 -0.17757837 0.2569333 -0.062044054 0.6517865 0.25794894 0.12699811 -0.7803844 -0.53735876 0.6089116 -0.34469584 0.31590897 0.03933025 -0.39548793 -0.31323427 0.607682 -0.21598567 0.23057903 0.93180054 0.123806216 -0.29386756 -0.15729618 0.24140261 -0.010734454 0.40975606 -0.30360693 -0.38580984 -0.09824945 0.12567952 -0.24443577 -0.36947405 -0.4101483 -0.14892672
1701 -0.16427426 0.040007226 -0.22300214 0.2509252 0.49504682 -0.16815099 -0.44428742 -0.52501935 -0.11174521 0.48456192 0.07776633 -0.22080109 0.0038396802 0.5164865 0.51774806 -0.07398945 0.004642615 -0.024108913 0.23148394 0.8322345 -0.012843203 0.3985228 -0.4248329 -0.36220577 0.0022751873 -0.14542444 0.22970699 -0.06321223 -0.18219048 0.15701377 -0.6019854 0.24135372 0.15565877 0.5208383 0.40683192 -0.10499968 0.41447932 0.13624628 0.19213523 -0.39760908 0.7341346 -0.56721413 -0.40934128 -0.31649134 -0.15996684 -0.019702358 0.49127823 -0.0596715 -0.610953 -0.23297986 -0.245003 0.15617825 0.45655546 0.38021952 0.3453392 -0.31841585 -0.10065144 0.061250523 -0.29372212 0.29921278 -0.7943806 -0.24382433 0.36487156 0.1422903
1986 0.10225486 0.98243195 -0.45183265 0.44765094 0.18960252 -0.117093675 0.08804352 0.46303976 0.56551147 0.4113392 0.12386749 -0.16697285 -0.3959941 0.1319329 0.8532387 -0.16577724 0.123853005 -0.6786856 0.37807113 0.6036192 0.3487385 -0.11895501 -0.72559476 0.29839823 -0.013529124 -0.11752852 0.26799718 0.43922025 0.16582283 0.13686731 0.46590492 0.081066206 -0.392202 -0.106108174 -0.36599416 0.65952665 0.017697683 -0.16986002 -0.04244596 -0.1055236 0.03820184 -0.49047372 0.30674937 0.10919124 -0.11636457 0.16450639 0.3127657 -0.39110023 -0.61237717 -0.35708162 0.593659 0.19007175 -0.16956605 0.20973957 -0.063795805 0.10554124 -0.039525762 -0.1333198 -0.62402916 0.24665952 0.14144309 -0.006481746 0.66314405 -0.19146419
1623 -0.35659662 -0.08526815 0.2882239 -0.45916077 0.38412625 -0.027589677 -0.31769753 0.31187573 -0.156628 -0.29413882 -0.028422754 -0.1762473 -0.491368 0.34400478 0.22907276 -0.09756843 -0.2634824 -0.5862493 -0.43933588 0.45717278 -0.5358923 0.15701619 0.33659837 -0.23801132 -0.6406186 -0.26847067 -0.08578708 -0.63705367 -0.016186554 0.31173652 0.11475216 0.26864162 -0.13871162 0.20199697 0.43298048 1.3287731 -0.22095072 0.019954102 -0.2171211 -0.6130566 0.2796812 -0.10042413 0.3251603 0.7699899 0.3917713 -0.1117292 0.26253754 -0.26274866 0.028414084 0.22834997 -0.40003702 0.30789 -0.33543327 0.23864454 0.23971571 0.3080125 -0.7153908 0.007428053 -0.15882753 0.35911795 0.08981068 -0.14846407 -0.0727385 -0.09388252
1072 -0.13583179 0.029536849 0.04667028 -0.027082412 0.16825165 0.5282243 0.008691305 -0.27982593 0.7402894 -0.35945308 -0.12818605 -0.33681816 0.057904135 -0.097627476 0.58162546 0.117936574 0.27336836 0.40364102 -0.33216202 0.28268862 0.038429037 -0.02038355 -0.07878641 0.041166637 -0.58324796 -0.0834365 0.13013913 -0.5529337 -0.1755362 -0.14951001 -0.02995402 0.10686795 -0.04182638 0.085374326 -0.10171674 0.0771621 0.11075863 0.1743751 -0.7913312 -0.6078583 0.5502531 -0.75069934 0.019968433 -0.07033146 -0.65457183 -0.35990897 0.4943023 -0.18708389 -0.074157864 0.3699247 0.47545427 -0.31738243 -0.06576381 -0.1472739 0.09045353 0.3291498 -0.2522456 -0.33476046 0.1189853 -0.36979705 0.17638674 -0.40510392 -0.74585897 0.017792726
1542 0.15326947 -0.20309733 -0.27946988 1.1941402 0.7336673 0.0051680678 0.26643577 -0.19490112 -0.15353867 0.23659071 0.7163193 -0.25901982 0.3835652 0.4058862 0.4358037 0.31627405 0.20684569 0.34283367 0.37673202 -0.532498 -0.37670982 -0.29932526 -0.38361615 -0.27675107 -0.6372662 0.41523534 -0.13524692 -0.03581799 0.107312866 0.20214465 -0.25807753 -0.08155803 -0.29444274 0.2522834 0.77379507 0.7825032 0.29133376 -0.31695867 2.7150956e-05 0.243567 -0.25869396 -0.079271995 0.4209837 -0.25650412 0.39471123 0.2532186 0.04780191 0.9337738 -0.01230197 0.6805089 -0.26777437 0.67967755 -0.5010411 0.6960478 0.09152738 0.06295287 0.11160508 -0.9774695 0.0069446275 0.44556198 0.24254097 -0.46172357 -0.44428256 0.110415824
2034 -0.7820743 -0.1288924 0.25162268 0.48955855 -0.05951798 -0.20612733 0.45171708 -0.017236376 1.0216038 0.24751928 0.420546 -0.61133116 -0.3566187 0.61277115 0.14294885 -0.28304645 -0.15577215 0.31135926 0.544566 0.7893359 -0.10424591 -0.051114697 -0.85999733 -0.29392064 0.07779352 0.60039294 0.3444044 -0.7656849 0.27232006 -0.40184686 -0.48372653 0.48198208 0.22055714 0.18360892 -0.16767138 0.35628867 -0.46237805 0.20613869 -0.17272963 -0.10282364 -0.14157662 -0.11135788 0.1553781 -0.20292257 -0.060578227 -0.16861215 0.30224344 -0.20087728 -0.12970233 -0.8891354 -0.37198308 0.29416856 0.21960329 0.7217937 -0.08119261 -0.24064107 0.15097953 -0.44255084 0.28828585 -0.49810514 0.048240565 -1.127877 0.2896011 0.34329236
733 -0.4073202 -0.18494073 -0.2671042 0.13749221 -0.07207097 0.34890524 0.269842 -0.14980027 -0.063657634 0.33434665 0.35289952 -0.2162708 0.3119098 0.14910708 -0.22032346 -0.61567426 0.42590183 -0.12372622 0.13709426 0.45327544 -0.3548954 0.13348529 0.6923708 0.23706912 0.009021979 0.06287196 -0.3895755 -0.1630958 0.72311836 0.20459773 -0.35301417 0.7656763 -0.5856749 0.5392299 -0.19519839 0.32882896 0.20878777 -0.34547138 -0.523166 -0.33630607 0.5517272 -0.6251752 0.4875338 -0.25478795 -0.87203956 0.4521666 -0.41858622 0.3781751 0.2603095 -0.028769415 0.14213508 -0.71969223 -0.45550936 0.74042016 -0.22189759 0.10152521 -0.14237772 -0.23227747 -0.3358767 0.2754062 -0.025214879 -0.065903 0.12479423 0.010856327
1013 -0.27924564 0.01838682 -0.3944097 0.2972954 0.9718534 -0.14135332 0.15836191 0.57026523 0.45265576 -0.21208836 0.06863274 0.21782494 -0.012060519 0.38349336 0.6501466 -0.016653478 -0.2641553 0.0679594 0.032929916 -0.7734312 -0.7004828 0.50803465 -0.24448334 0.046821464 0.13349174 0.3455151 -0.5470338 -0.33852988 0.08877577 0.65475523 0.1856981 0.25660497 -0.05259071 0.14992793 -0.7578555 -0.16087192 -0.39571232 0.3104549 -0.27116987 -0.33656818 0.42837366 -0.19786683 0.28567177 -0.1655358 -0.19562797 -0.58891654 0.5064844 0.44543892 -0.2464201 0.49756867 -0.42939904 0.12212749 0.1052141 -0.16919456 0.20710051 -0.15474056 -0.31047 0.3790338 -0.124350175 -0.10642317 0.17617556 -0.26292586 0.27146786 0.3490085
1224 0.10106482 0.14072539 -0.19992572 -0.0041029025 -0.03480503 -0.10585232 0.8258138 -0.1812392 0.26857468 0.40678468 0.5970775 -0.44071093 -0.1172869 -0.06862677 0.3326921 -0.59195393 0.4773417 0.3241046 -0.0643714 -0.1670345 -0.74120986 -0.27482983 -0.31884322 0.22388493 -0.51534224 -0.0596668 -0.53701174 0.041850593 -0.3842163 0.51024437 -0.5996403 0.28785747 -0.41507295 0.0065269894 0.036553886 0.47919205 -0.3337174 -0.14829858 0.49141547 -0.5477092 -0.40405175 -0.7040996 0.49359763 0.39649832 -0.4517942 -0.2807406 -0.1555081 -0.53418916 -0.27534384 -0.050897412 -0.34776717 0.20391588 0.22696783 0.6623076 0.2351486 0.15169697 0.0999237 0.7869651 -0.34143025 0.45925638 -0.13699564 -0.42501184 -0.80181664 -0.30336556
1483 0.13158292 0.19351976 -0.017588966 -0.36098373 -0.27588513 0.009703651 0.0056653796 -0.23394571 -0.17204036 -0.62926435 0.033191368 -0.15461297 0.09484104 -0.015330199 0.7324577 0.012601308 0.15073186 -0.28962445 -0.16791339 0.264835 0.27596274 -0.04175026 0.34412932 0.6318865 -0.24820943 -0.48313114 0.43871242 -0.37383947 0.15018542 -0.16385555 -0.342547 -0.22548114 -0.6163871 0.2718207 0.10955587 0.21560296 0.16433303 0.53578717 -1.0605061 -0.39164266 0.5438909 -0.19701864 -0.037784662 0.30373302 -0.47159696 -1.0451827 0.6459555 -0.09267403 0.12344286 -0.030297033 -0.26639417 0.16894695 -0.10980565 -0.13920085 0.6741223 0.14149554 0.023151368 -0.5147583 0.15877405 -0.10527398 1.0515847 -0.10781362 -0.5859746 -0.032066822
2045 -0.29736847 0.46030718 -0.097539835 -0.45503816 0.40964937 -0.49042472 0.04689725 0.20042893 0.024577456 0.14890929 0.4553898 0.30395478 -0.053925417 0.40894052 0.5191947 -0.008578142 -0.26344278 0.29204166 0.34980053 -0.1424636 -0.32370317 0.34228718 0.073795214 0.20968318 -0.5777317 0.14008468 -0.2091627 -0.41217753 0.0064542047 0.43825307 -0.29493165 0.33296242 0.17350389 0.23167948 -0.07235448 0.2529129 -0.0108280685 -0.019694602 -0.46099925 -0.7332754 0.23530023 -0.019866979 0.1315039 -0.1179138 -0.26928627 -0.26871213 0.76445234 0.07986899 0.43039358 0.61397237 0.50548756 0.47861305 -0.20905237 -0.6234847 0.1561973 0.5048204 -0.47397277 0.25179815 -0.56906974 0.33725664 -0.52208304 -0.533185 0.09031139 -0.01142763
109 -0.21533969 0.40771595 0.19519599 0.23257962 0.7396226 -0.1140048 -0.31600398 0.36740297 0.08796234 0.12622195 0.3414901 -0.13516667 -0.14799511 -0.07475477 0.20990062 0.38085052 -0.049947288 0.13737023 -0.06333227 0.41393614 -0.47142938 0.63776386 0.25981614 -0.23858424 -0.7543209 -0.17282495 -0.2054444 -0.04430645 -0.272708 0.40194526 -0.54469067 -0.15806511 0.44076312 0.2965634 0.030408707 0.6828038 -0.31876737 0.6447849 -0.38075116 -0.79638827 0.36839205 0.15402217 0.40814012 0.27296773 0.22725053 0.05085602 0.33124444 0.038050774 -0.36291254 0.41182092 -0.012064221 -0.1080522 -0.36538875 0.011244371 0.5401547 0.21978837 -0.67236155 0.14472988 -0.86976427 0.22080232 -0.25824258 0.15102276 0.37836975 0.2809027
88 -0.189737 0.85829663 -0.47310728 0.22527458 0.02010165 0.14814709 0.1580651 -0.02110765 -0.33382848 -0.0989898 0.6895376 0.32965615 -0.025536995 0.04922334 -0.19361146 -0.2921071 -0.23610629 -0.31276214 0.5893605 -0.41343713 -0.10664959 -0.2688305 0.1900612 -0.31325358 -0.5550194 -0.14757092 -0.37856054 -0.74812055 1.3061792 0.0011264578 -0.1071451 0.7891886 -0.09279849 0.9775915 -0.29708362 0.4657185 -0.39486447 0.1472738 -0.8877423 0.38786215 -1.0209475 -0.60058916 -0.10412141 -0.4604286 0.11108899 -0.33533287 0.38694787 0.32587084 -0.086065374 -0.26069525 -0.46213612 0.109212145 -0.5245425 -0.34068736 0.71574885 -0.15863034 -0.2408387 0.48673028 -0.5052689 -0.35430557 -0.56209636 -0.18698376 -0.20583145 -0.18430814
1725 -0.17656222 0.19534215 -0.115266666 -0.13333656 0.052138798 0.83333546 0.5126934 -0.57329243 0.8599159 -0.7018553 -0.5095701 -0.8307441 0.16888113 -0.19071534 0.2117621 -0.38413328 -0.35121486 0.38267642 -0.37564883 0.4911329 -0.26593587 -0.14414936 -0.5122915 -0.18333453 -0.6783856 -0.09541542 0.035797283 0.044504505 0.19727719 -0.39165595 -0.21380048 0.04157347 -0.08589748 0.3200809 -0.015970906 -0.118768655 0.05885046 -0.5642198 -0.22610062 -0.25925505 0.45448485 -0.9838144 -0.4131932 0.07930394 0.08163759 -0.18285674 0.30939275 -0.041843206 0.35802373 0.38718435 0.29872727 0.010556364 -0.7071942 -0.26577005 1.0126563 -0.11712462 -0.38609728 0.45510325 0.03794018 -0.7612061 0.17437673 -0.31692794 -0.058794525 -0.16766044
507 -0.0854812 -0.5794724 -0.07638887 0.9906647 0.56080645 -0.08318958 0.17008293 0.47662804 -0.2044487 0.8281579 0.17689024 -0.44751346 0.99373424 0.30493551 0.24176325 -0.003129985 0.67100245 -0.1861214 0.43194854 -0.6009001 -0.03867087 -0.07473552 -0.5796457 -0.28784746 -0.15259694 0.93011886 0.005916442 0.13704076 0.5319497 -0.38067973 -0.5165116 -0.41973722 -0.22265507 0.50278556 -0.1532693 0.37968075 0.07584352 -0.31736162 -0.5370321 -0.17659575 -0.23325571 -0.47318318 -0.20176059 0.28438646 -0.051277358 0.19707546 0.40133077 0.1545179 0.36088654 0.66365945 -0.22913146 0.41059148 -0.5111226 0.18611477 0.39578727 -0.3306676 0.4323774 -0.62995 -0.052266598 0.12894598 0.79914206 -0.25367385 -0.48911852 0.9034609
415 0.07266428 0.64087415 -0.8842438 0.6251433 -0.0011724975 0.66310745 -0.18603283 -0.1313598 -0.077753596 0.30012363 0.53260106 0.2265027 0.04603623 0.008276237 -0.4019857 -0.55694556 -0.14973812 0.28574637 0.08576399 -0.37703535 -0.014256915 0.06061445 -0.10265468 -0.61742795 0.084134236 -0.28170308 -0.43761307 0.32634783 0.84044373 0.007402045 -0.30983546 0.75235146 0.29733145 0.68307954 -0.52245563 0.763502 -0.20968068 0.50037354 -0.58283144 0.12974721 0.020128028 -0.17243437 0.24264063 -0.87209266 0.10082932 -0.9242207 0.09366944 0.5504107 -0.8568266 0.08794853 -0.39381027 0.40290773 0.107231796 -0.69265085 1.3632567 -0.103622094 0.2312791 0.7020105 -0.50740474 -0.09368647 0.11324303 -0.35882434 -0.20175746 -0.20296963
1810 0.08531881 -0.0719148 -1.0127504 0.26363212 0.8034308 0.123731546 -0.08777427 -0.4917551 -0.09741766 0.5915614 -0.3981895 0.32679203 -0.23549402 0.25074443 -0.16421933 -0.526469 -0.036254663 -0.4276188 0.7369931 0.4315856 -0.31174347 0.5395397 -0.31144378 -0.280124 0.28390056 -0.14351116 -0.26259205 -0.7146247 0.24722339 -0.81609076 -0.69862187 0.11110843 -0.17115045 0.2544759 -0.1525062 0.2660577 -0.0128567545 -0.2775768 -0.36947092 -0.44755465 -0.107807465 -0.64888173 0.13671331 0.23013826 -0.7835723 0.12618431 0.7720811 0.03277772 -0.6324335 -0.594992 0.22252977 -0.44591978 -0.5209435 0.21086279 -0.0007366459 0.4021694 0.23188238 0.07962102 0.57659394 -0.35785487 -0.12524906 -0.011401175 0.4962914 -0.19336267
310 0.1562558 0.33335388 0.11109516 0.370745 0.65964735 0.04822379 -0.70702595 -0.5302987 0.65199786 0.24964154 0.22243579 0.05599374 0.86448497 0.5526726 -0.25738177 0.0052368636 0.7876388 0.12260619 0.3183658 -0.025055733 -0.17756096 -0.07246839 -0.3881956 0.43568265 -0.3202471 1.1953259 0.028848786 0.45155397 0.0077393157 -0.1881292 0.3070933 0.23809887 -0.2985364 0.64491546 -0.029763408 0.35783935 -0.7242046 -0.10782974 -0.7446419 0.018580524 0.92842674 0.025074616 0.033225164 0.185829 0.112611644 0.04933942 -0.4676223 -0.2195036 0.00753757 -0.36874786 -0.44140187 0.8695261 -1.2657996 0.8912477 0.24855119 0.16971697 -0.58962417 -0.31237945 0.28847873 0.14083457 -0.22838527 -0.21014224 0.3919091 0.25472075
2001 0.26629767 0.92126155 0.30331862 -0.10656202 0.64563704 -0.6761796 -0.21192391 0.16298448 0.19372366 0.772922 0.26032084 -0.03355295 -0.42852965 0.21596693 0.14632548 -0.5414073 0.3097521 -0.38562417 -0.2756292 0.42793196 0.64763963 -0.3323189 -0.8416553 0.6630698 0.09071929 -0.028157618 0.51321334 0.5064817 -0.060318377 0.50572824 0.064482264 0.3637636 0.43639246 -0.26824465 -0.1429022 0.26163942 -0.02277405 -0.26958224 -0.41355217 -0.038035184 0.36076504 -0.36253786 0.14248577 -0.58387136 -0.30887696 -0.25795698 0.6168223 -0.242295 -0.06445653 -0.13192756 0.3446512 0.204417 -0.42742392 0.5298427 0.84171546 0.075419866 -0.0050566765 -0.5841733 0.052368354 0.026601443 0.10598975 0.09148103 0.18040752 -0.82120174
1692 0.7349319 0.14560768 0.5641202 -0.15642475 0.1018844 -0.62344915 0.18561766 0.2817949 -0.20185278 0.4869173 0.8606943 0.2654085 0.09413644 -0.08937673 0.016932683 -1.0599387 0.005496107 -0.0226594 -0.073909506 0.44155133 0.32634386 0.018474896 -0.2946189 0.60452384 -0.05285335 0.39134574 0.117540374 0.10270103 0.60474586 0.31295946 0.79849494 0.00046727873 0.4763085 -0.49804628 -0.187287 0.31261113 -0.603076 -0.42286173 -0.41818538 -0.2683243 0.92869353 -1.2627405 0.36086404 0.14818072 0.10311624 -0.5005175 0.15955009 0.23713201 -0.5001189 -0.7429927 -0.45713377 0.32302526 -0.5832416 -0.0915284 1.0878227 -0.3069629 0.76418906 -0.764866 0.29380682 -0.3052173 -0.6153425 0.24955305 0.33489954 0.052684993
598 0.20857604 0.29265204 -0.518855 1.174997 0.27934462 -0.004001994 -0.23548087 0.074909754 0.24587308 0.42890897 0.39676306 -1.1194158 0.021822257 0.5274015 -0.3688521 -0.80840373 0.33463258 -0.3792494 -0.19071059 0.33473137 -0.37847066 0.08577816 -0.6122573 0.10771985 -0.9925333 0.21257725 -0.3249462 0.160021 -0.236185 -0.09852289 -0.14434025 -0.15385821 0.09864564 0.034154017 0.5649939 0.28916037 0.590556 0.4792062 -0.1106453 -0.38339096 0.8882477 -0.28696564 0.62396884 -0.2829552 0.3071775 0.021358317 0.34554088 0.11851284 0.33173588 -0.0988635 0.15731865 0.019030582 -0.049075775 -0.39657012 -0.15964244 -0.5661322 -0.13629432 -0.5948701 -0.16811709 -0.49994597 -0.14109467 0.14043802 -0.072770745 0.30243427
1624 -0.68128365 0.18865022 -0.5072032 -0.9743662 0.14151514 -0.047391392 -0.29940972 -0.3172209 -0.17558293 0.41456938 0.5283354 -0.36358052 0.14728494 0.09148041 -0.052660014 -0.1755284 0.7113866 0.20672704 -0.5491784 0.24579355 -0.31853622 0.55695677 -0.28602606 -0.5304181 -0.22290353 -0.990284 0.18024573 -0.26757318 0.3907935 0.7176773 -0.40028214 0.9748817 -0.19358218 -0.3327308 -0.6744082 0.5297482 0.3216798 0.2612032 -0.6936787 -0.1372782 0.4991322 0.24685204 -0.019319884 0.21527159 -0.007472022 0.039294414 -0.0068027377 0.5651077 0.17089601 0.026820434 -0.09487223 0.6817282 -0.64917225 0.9160103 -0.4096673 -0.13201845 0.38403955 -0.5272837 -0.40147486 0.11015011 0.368224 0.22388503 -0.25515494 0.21399136
627 0.17693116 -0.059421364 -0.29110384 0.74976665 0.27817392 -0.50848854 0.34692425 -0.48998177 0.40415588 0.48052165 -0.3596056 0.22374927 -0.11452515 -0.30659547 -0.11105134 0.14674084 -0.086575255 0.12826458 -0.47218302 0.14695974 0.28238782 0.45323604 -0.181946 -0.33151886 -0.6433492 -0.19926193 -0.0048822155 0.331638 0.44342 -0.31876642 -0.607978 -0.066276535 0.16996668 -0.51287997 0.11254003 0.030175425 0.49487507 -0.6757791 -0.40731275 -0.22990867 -0.7570116 -0.14438832 0.3015462 -0.15777114 -0.37824687 -0.14237331 0.7465045 -0.9109315 0.072471224 0.24499407 -0.36182532 0.2978865 -0.8405995 0.46855864 0.64491767 -0.29414654 -0.26318547 -0.08952728 -0.039394062 -0.20095351 -0.07742769 0.558122 0.028091034 -0.14044997
1171 -0.16624813 0.28004533 0.2830879 -0.64354414 0.56021464 0.7221319 -0.21662953 -0.07748522 0.0910305 0.061192546 -0.8207685 -0.1148203 0.23870175 0.15159401 1.4644377 -0.07799711 -0.34513998 0.13084748 -0.24167056 0.053964373 -0.135004 0.49699712 -0.89666116 -0.25862804 0.31509772 -0.30499333 0.33764833 0.5801927 0.33953202 -0.40496543 -0.42558575 0.48275238 -0.3134182 0.22843114 0.21349788 -0.018131087 -0.34186536 0.61747426 -0.8452268 0.3936575 0.48303965 -0.3972966 -0.09675131 0.21468274 -0.28126627 -0.66045344 0.52550757 0.52195024 0.2160491 0.21194516 -0.53407866 -0.24463801 -0.039602816 0.13310859 0.69744414 0.13584745 0.107279904 0.24486066 -0.09864699 0.038921945 -0.17699419 -0.11114554 1.0631626 0.27603644
661 -0.13138904 -0.29986748 0.4565661 -0.07565048 0.021910885 -0.3194435 0.32137787 0.43290284 -0.1639751 0.30862436 0.19668466 1.0381924 0.34987485 -0.29271793 0.11398163 -0.5981386 -0.26294434 -0.23621847 -0.6067792 0.2617202 -0.6237276 0.14002892 -0.29047593 -0.80958223 -1.3793125 0.51115686 0.9420541 0.8583059 -0.72588104 -0.34414738 -0.46238092 0.16145821 0.18500416 0.22456925 0.16723706 0.6736324 0.4071913 -0.39197838 -0.1581647 -0.2610651 -0.045324236 -0.65774304 0.2116606 0.08501175 -0.8282813 -0.19597992 0.381399 0.62293494 0.5181118 -0.6686457 0.86269695 0.45351687 -0.2797591 1.2169989 -0.32164082 -0.46007457 -0.76106155 -0.9017621 -0.332793 -0.15015593 0.59750354 -0.17729677 0.12427816 -0.14446642
1441 0.46187854 0.8964538 -0.18148777 0.41479692 0.2586685 -0.7215639 0.030674998 0.0018346468 0.08476414 0.09119348 -0.27503398 0.21324685 -0.63713807 -0.74822015 0.26834643 -0.034192614 -0.39962992 0.395128 -0.3970127 -0.10573425 0.19934095 0.7845088 -0.4040515 -0.13767733 0.40697688 0.48426396 0.7664247 0.31799716 -0.11463449 0.02704496 -0.2531093 0.038365804 -0.7277582 0.12293246 0.3608184 0.9470646 -0.31559625 -0.3736678 -0.49222204 -0.25236556 0.05324782 0.5827558 0.2632844 0.4782165 -0.36859852 -0.0536757 0.5412224 -0.23121312 -0.04542726 0.092210054 0.35705936 0.7478988 0.318131 1.0693539 0.16674684 -0.58112633 -0.31501403 -1.1981943 -0.3570956 0.210099 -0.2015997 0.082550175 -0.23696353 0.14290757
525 0.03567806 -0.2741367 0.26223496 -0.22973324 0.41713804 0.5777514 0.3019783 -0.4300507 0.50182927 -0.28153816 -0.28877422 0.41904372 0.20133387 0.38431525 0.4940852 0.108797684 0.4558251 0.31448627 -0.15748641 0.3244621 -0.40298814 0.7065772 -0.23071244 0.40479594 0.4112353 0.48729748 -0.43483955 0.57540584 0.1414171 0.7801525 -0.2977927 0.035723887 -0.4034927 0.1683488 0.40323043 0.35324517 -0.36489236 -1.370367 -0.40425467 0.28555998 -0.11486659 -0.62888175 0.124498114 0.48312888 -0.06614796 -0.031516645 0.61811256 -0.35332984 -0.07532728 -0.31801 0.07501178 0.3521724 0.27272904 0.096017376 0.5195556 -0.9995499 -0.26159862 0.7041855 -0.7491093 -0.7097647 -0.29042253 -0.76205516 -0.1805839 -0.20201114
751 0.112527326 -0.8175847 -0.16766843 0.44292542 0.41293386 -0.12210213 0.43043968 0.30528525 0.18884596 0.7917193 -0.59001374 -0.15664503 0.09672743 0.3851535 0.8909553 -0.45396245 -0.20887591 0.17708042 -0.17850368 -0.5780966 0.13491927 0.033130992 -0.31930777 -0.0498728 -1.2513227 -0.88465875 0.4941967 0.55881155 0.6463078 -0.08333845 -0.56386334 0.23164244 -0.14364153 -0.48933434 -0.39671075 -0.22961989 -0.7653911 -0.48954934 -0.76529753 0.34121794 -0.2599483 -0.26508868 0.64619297 0.44957072 -0.29092893 0.4941211 0.2639958 -0.3807137 -0.09361862 0.41036472 -1.0410973 1.0202554 -0.50230503 0.24437572 0.47738302 -0.32903144 -0.3011031 -0.07953548 0.39594558 -0.060149003 0.18198106 -0.13144726 0.67269963 -0.56312066
1104 0.29899988 0.2492914 0.12028051 0.06279602 0.14643161 0.18078019 -0.73149973 0.19753613 0.44345754 -0.20157583 0.085847124 -0.19569954 -0.009769626 0.9319254 0.16792564 -0.3491195 0.9015887 -0.60919034 0.32143736 0.29743004 -0.061466865 0.39885622 0.33770278 -0.8697723 0.13837059 -0.11744526 -0.66574705 -0.08372393 0.37903497 -0.63576055 -0.5007702 -0.4018436 -0.23859632 -0.22874567 -0.061777342 0.4292388 0.37649682 -0.91540015 -0.504232 -0.37521866 -0.07013097 -1.2506613 0.090289384 0.90730196 -0.52611756 -0.010562138 0.06173358 -0.05800015 -0.124513574 0.2732267 -0.47722834 0.91889477 0.07229994 -0.44327003 -0.5983603 0.18584998 -0.332805 -0.5749446 0.055858232 -1.1205655 0.14408478 0.29694125 -0.013785858 0.48021767
2018 -0.07555717 -0.13654439 0.32974452 0.5575235 0.09312426 -0.47539735 0.3062076 -0.020421017 -0.1611381 0.0516377 -0.10080542 -0.31949908 0.122730576 0.37954 -0.2800663 0.07594544 0.27137065 -0.28398538 0.43292063 -0.45388886 0.10288232 0.48881218 -0.45759422 0.108228795 -0.36170992 0.060599186 -0.25490785 -0.36372793 0.58166164 -0.04083051 0.18838017 0.5416497 0.302596 0.49162573 -0.12061949 1.2634687 0.2722513 0.59018874 -0.5635671 0.05477244 -0.23516227 -0.2731352 -0.28839475 0.094555795 0.71275795 0.41337746 0.38870126 0.3841958 -0.13746832 0.037398797 -0.40772125 0.23476303 -0.17399201 -0.51279765 0.28373545 0.4435553 -0.8043405 -0.2999302 -0.48973328 -1.0675021 -0.6131055 -0.71529937 -0.4158739 -0.45959994
1628 -0.1599382 0.033099703 0.35157022 -0.08395239 0.29467517 -0.23274885 -0.16138525 0.038695924 0.22312899 -0.504694 -0.053351898 -0.20999734 0.53309906 0.6282654 0.5081563 -0.44259754 0.074068226 0.06508546 0.67547035 -0.24402967 -0.16164711 0.24171783 -0.16026653 -0.07791751 0.49537757 0.084201336 -0.1372822 0.6821334 0.08236203 0.46559563 -0.35144162 -0.1575089 -0.42675945 0.17726788 0.6041039 0.37913275 -0.19392312 -1.2216312 -0.49458763 0.037168607 -0.31916353 -0.1762262 -0.07210239 0.5933176 -0.4264029 -0.1394663 0.12659518 -0.43592477 -0.21512233 0.31109157 -0.40265754 0.54650176 0.649941 0.22966638 0.55209863 -1.1536953 -0.7358878 -0.07668833 -0.27977976 -0.47906905 -0.3403017 -0.85576046 0.107971005 -0.08006686
1337 -0.39736837 0.35866293 0.19684677 -0.06568794 0.9246111 -0.14385507 -0.13460524 -0.1464357 0.09294292 0.5451 0.76170903 0.012267597 -0.08257183 0.26588959 0.026156815 0.13979894 -0.14719136 0.24772267 0.028076045 0.1195672 -0.09517968 0.28972614 -0.020614922 0.31117472 -0.024644509 -0.5134502 0.34754047 0.24245155 -0.6852637 0.116343446 -0.2456375 0.31370664 1.0976763 0.8762678 0.2035386 0.41699994 -0.017471071 -0.03011064 -0.60606486 -0.84662205 0.49388397 0.17265727 0.06907872 -0.5532519 -0.1256678 0.037929628 0.910309 -0.103528485 -0.2849602 -0.024373285 -0.12876466 0.14874358 0.0046521705 -0.065252125 0.44881657 0.030130625 -0.69903964 0.053269263 -0.3816999 -0.0050643515 -0.25888124 -0.45828438 0.49370536 -0.1568249
963 -0.27406907 0.8041978 -0.084037855 0.123989455 0.010424056 -0.33360142 -0.4298396 -0.07537847 0.38510737 1.0223747 0.7634688 0.5867023 -0.4177582 -0.21497567 0.019369043 0.13572851 -0.29514697 -1.0165572 -0.19841965 -0.2245048 0.21477123 0.15145421 0.009675324 -0.40212637 0.13775522 -0.21471626 0.09424875 -0.14651565 -0.28057232 -0.2894609 -1.0423312 0.31812173 -0.5884929 0.259679 0.78499997 0.23097117 -0.3044243 0.47370106 -0.23213229 -0.72408724 1.1806195 -0.32768798 0.25601703 0.2611416 0.32897708 0.25384018 0.25252247 0.8029969 -0.60097075 0.7303579 -0.34435496 -0.66454214 -0.7554362 -0.17351726 0.037050895 -0.69234073 -0.59591234 0.6268983 0.3045128 0.29833743 0.4931803 -0.27097517 0.048291445 -0.23825668
1257 -0.035312843 -0.14552009 -0.19606943 -0.126949 0.6361031 0.061332334 -0.4228273 0.16371545 0.64472514 0.9466937 0.02341207 -0.22752054 -0.32709792 -0.6615242 0.06995906 -0.9622549 0.10980503 0.03304311 -0.48424664 -0.008293858 0.0013391534 0.7433862 -0.025395587 0.5158889 -0.16529588 0.31340274 0.0725482 -0.4124816 0.09573403 -0.8004713 -0.46854267 -0.14750393 -0.9846168 0.13737233 -0.63971454 -0.12087969 -0.021839133 -0.3034292 -0.46530738 -0.44261125 0.0053120805 0.078745335 0.35799852 -0.083001025 0.57652265 0.46930176 0.18831302 0.27709654 0.16210043 -0.11776818 -0.5405538 0.24644452 -0.6514765 -0.02093337 0.02902397 -0.83919096 0.061685685 -0.11419556 -0.5444418 0.3406748 0.33569074 -0.78811604 0.09918618 -1.1764084
2706 -0.4288965 0.7503358 0.275816 0.27337041 0.36093166 -0.06704201 -0.55921406 -0.36443383 -0.54576826 0.8428206 -0.16569632 -0.660633 -0.041548867 0.12825999 0.26372483 -0.3531989 0.42283446 -0.19762248 0.5956813 0.016201071 -0.0019619502 0.47522023 -0.35110813 -0.37882116 -0.29535848 0.1567192 -0.26444337 0.8441791 -0.3809556 -0.9866327 -0.6582933 -0.7288159 0.341217 1.1328334 0.13656598 -0.24577409 0.2192775 0.61078113 -0.7233025 -0.012473399 0.8593238 -0.86431223 0.64337915 0.16203909 0.57043487 -0.65810996 0.47889116 -0.04177412 -0.123178296 -0.7326457 -0.72589356 0.22407216 -0.12834813 0.6628458 -0.7651042 -0.2040607 0.21561936 0.05556351 -1.2616757 -0.04205499 0.13933803 -0.8224832 -0.6055082 -0.5829002
73 0.18822257 0.61700743 0.02341097 -0.4093315 -0.19409598 -0.70065135 -0.11572416 -0.3912064 0.18934715 0.6303924 -0.09716896 -0.51625055 -0.30938345 0.15543406 0.1796857 -0.27559367 0.8762708 -0.3424673 -0.20026572 0.6054233 -0.40192688 -0.017837916 -0.68166184 0.6368186 -0.19566253 0.18109551 -0.24177772 0.42697942 0.18359846 0.300592 -0.26127824 0.40441477 0.61461586 0.110148646 -0.25772545 0.30777577 -0.08634296 0.09327528 -0.378496 -0.0884398 -0.062009364 -0.3535324 -0.14844452 -0.3656732 0.34218246 -0.83791614 0.32236 0.0922805 0.4454264 0.3858194 -0.17814384 0.08992405 -0.67599994 0.2683436 0.06384189 0.09927794 0.030966757 -0.36192623 0.3362343 0.38641182 0.6749661 -0.37397742 0.037834145 -0.58466053
1955 -0.28642347 -0.62411994 -0.56434083 0.20104802 -0.40265837 -0.09119153 0.3635313 0.7641242 -0.044514395 0.4790008 0.44678012 -0.36701635 -0.5239888 0.30589628 -0.056856606 -0.3698 -0.21436541 -0.12996395 -0.54754186 -0.71842504 -0.14091198 -0.08948113 -0.3007087 0.16598046 -0.4956514 0.031408384 0.8954397 0.8398291 -0.14152084 -0.36480537 -0.007518447 0.10284332 -0.51411587 -0.20914498 -0.15601388 0.47673866 0.61437094 -0.43605536 -0.64472693 -0.37505215 0.12508276 -0.89687854 0.15994814 0.16776092 -0.07802383 -0.05859561 1.129781 0.4772647 0.34347105 0.07805225 -0.20090556 -0.13682088 0.16771774 0.068910986 -0.24493408 -0.28762588 -0.70992005 -0.3606572 -0.1807912 -0.016971901 -0.042188216 -0.8693206 0.095368646 0.08254717
904 0.4083602 -0.26473066 0.26183146 0.21036337 -0.0770395 -0.23383774 0.4919942 -0.7173805 0.28092396 0.45247358 -0.24199305 0.13085654 -0.40133533 -0.74631417 -0.09980769 0.3003593 0.43539292 0.031223439 -0.55380267 0.24056427 -0.32606038 -0.2156494 -0.008554048 0.2595335 -0.33621174 0.256704 -0.23928721 -0.13131818 0.58408964 -0.07583914 -0.35739103 0.03936464 -0.503935 -0.3199441 0.148515 0.36283454 0.8045851 0.4327516 -1.4890383 -0.6106101 0.18001226 -0.18759891 -0.33406648 -0.45053732 -0.05292325 -0.68782943 0.25063068 -0.24140011 -0.26745975 -0.014168768 -0.62826616 0.43207937 -0.5697134 -0.037023827 0.71451324 0.25316066 0.5189401 0.4281259 -0.19151442 -0.15586387 -0.12873966 0.31908232 -0.44880524 -0.3770777
2155 0.51120657 -0.4016914 -0.093698725 -0.46501955 -0.40942958 -0.31382397 0.17811844 -0.25353304 0.85397136 0.8677112 0.8000461 -0.014280796 -0.11727664 0.12398822 0.2975467 0.49222174 -0.21755528 0.16869985 0.24504875 -0.008494456 -1.250357 -0.034701202 -0.39359358 0.8577197 -0.2268764 0.014951407 -0.35964456 -0.030300926 -0.56516916 -0.019000756 -0.7418659 0.57369274 -0.40594605 -0.28081134 0.2332592 0.5127878 -0.17304815 0.10842663 -0.3052956 -0.34072828 -0.69385463 -0.43515414 -0.25454494 0.18215714 -0.17037915 -0.16865976 0.04228716 0.28657752 -0.3822056 -0.38838956 -0.71351653 0.11604348 0.029773815 1.135409 -0.22497712 0.15539195 0.2713965 -0.05276728 -0.23394719 -0.31310338 -0.15911867 -0.25420067 -0.3417868 0.39412758
26 0.16914915 0.072667 -0.50630087 -0.18420146 0.80445534 0.14582822 0.36644962 0.23180023 0.07734047 0.5624452 0.5214707 -0.08407415 0.10798068 0.013773916 0.04443698 -0.5575471 0.36618486 -0.0432663 -0.36799675 0.25204667 0.06040015 0.51946735 1.0191711 0.5316499 -0.23065987 0.15885903 0.42494103 -0.582105 0.47219747 -0.6337334 -0.102239825 -0.35296214 -0.76143855 0.5417075 0.21701121 0.35264787 0.2377104 -0.628585 -0.31002453 0.09193118 -0.16921325 -1.38489 -0.36109996 -0.5074243 0.3653187 0.457725 0.38399875 -0.46263024 -0.24815154 0.36245596 -0.22671632 1.3041624 -0.043536212 -0.06258646 -0.26692095 -0.06448672 0.2954714 -0.008069559 -0.34447277 0.12451051 -0.11270098 -0.06676316 0.27607137 1.1250069
243 -0.6111681 -0.23546441 -0.6535134 0.085159235 0.2885694 -0.13735075 0.35426548 -0.09762819 0.8145059 -0.31350762 -0.6370351 0.5277015 0.19274561 0.84395957 0.2944779 -0.2906898 0.019339416 -0.85066825 -0.34436426 1.2526985 0.114168964 -0.08363633 0.79092294 0.28377697 -0.7173536 0.3032936 -0.48370025 0.2829287 0.060559805 -0.32688493 -0.4619224 0.55222607 -0.09797276 0.349546 0.40818614 0.6327401 0.23958677 -0.56377524 -1.2580643 0.21486841 -0.1939403 0.047765218 0.48155057 -0.61996114 -0.25088304 -0.52330595 0.1335066 -0.4064951 0.13477063 0.09043772 -0.5357363 0.022408346 -0.16185212 0.26969114 -0.27162576 -0.13727075 -0.020216586 -0.1248381 -0.4617035 0.64906794 0.19421366 0.37373972 0.7300695 0.7499468
1765 -0.04781157 0.30007973 0.4132361 0.2307149 0.07719428 -0.07805093 0.71704835 0.07070911 -0.43696517 -0.25038683 -0.5797282 -0.14542945 0.06669997 0.27929458 0.101274565 -0.49139908 0.0068068854 -0.579282 -0.6359022 0.090620995 -0.627172 0.45750105 0.22115058 -0.36109525 -0.2301125 0.0931155 0.028867815 -0.83738494 -0.22355269 -0.11977005 0.26598704 0.120685324 -0.20287079 0.030499283 -0.20027564 1.3629621 0.020100046 0.07561261 0.027956778 0.40741986 0.47040644 0.0063061654 -0.041848663 -0.11259897 0.53269833 0.4141535 0.7694288 -0.20502764 0.4876835 -0.25680688 -0.42652416 0.7233476 0.08649128 0.36286914 0.40253195 -0.02104134 -0.5813138 -0.6883833 -1.1220971 0.44791022 -0.3339573 0.09567348 -0.34892118 0.07580671
2383 -0.23170146 0.6100375 -0.78551835 0.12584017 0.26549107 -0.2228316 0.36135036 0.6636257 -0.24195802 0.35149562 -0.016048864 0.26345545 0.5842098 -0.5209409 0.3526712 0.8182216 -0.7791036 0.13978823 0.10564043 1.1133006 -0.712354 -0.0857662 0.07890197 -0.06351088 -0.40507096 -0.05359223 0.24390373 -0.15212992 0.13105841 -0.87197083 -0.2552456 -0.5015073 -0.55781865 0.33650604 -0.3208531 1.1921812 0.07149562 -0.5716271 -0.92721087 -0.3150223 -0.3082675 -0.25163352 0.46569455 0.14500585 0.47829646 0.52896583 -0.0049313526 -0.17403568 0.035242148 0.39337677 -0.46006134 -0.17687067 -0.13092837 0.22876391 0.66560984 -0.037312794 0.3785444 -0.19810484 -0.057921477 -0.9598811 -0.87322444 -0.42845443 -0.18235378 -0.23873937
1538 -0.49242738 0.36198384 0.8352228 0.52874714 0.23827639 -0.14696571 0.41664988 0.23056561 0.30295798 0.8377761 -0.15625618 0.86125207 0.28924567 -0.29146278 0.623101 0.06149946 0.6481319 -0.3095286 0.23962256 0.41566366 -0.8382083 0.793668 0.31909823 0.5756593 0.342244 0.35151845 -0.17266326 0.5851018 0.028305786 0.6367917 -0.031225802 -0.011659948 0.3727674 -0.104317024 -0.38270208 0.55748004 0.19388278 -0.18674847 -0.4208651 0.5143845 -0.07816196 -0.012654918 1.4446452 0.36897933 0.49563926 0.18180576 0.607627 0.40210924 0.41647142 -0.21600689 0.23881903 -0.27797624 -0.5452898 0.4427645 0.5899205 -0.226397 0.46592185 0.35268387 -0.24897018 -0.66386104 0.046442624 -0.35479537 0.22024034 0.16480355
544 -0.10055227 0.6215125 0.16643378 0.62872976 -0.012194275 0.293378 0.77215254 -0.053308576 0.61322886 0.37300602 -0.5054841 -0.10951809 0.00919836 -0.784805 0.7496252 0.05575129 -0.062881365 -0.8181781 -0.04644614 -0.30692872 -0.5918708 -0.3899957 0.018368127 -0.0013190574 0.24633884 -0.07565073 -0.0094417 0.5172946 0.2576016 -0.117568515 0.3004556 0.14101061 0.112047225 -0.44778574 0.8029899 0.51692444 -0.38623044 0.20454136 -0.3198397 -0.878905 -0.065132014 -0.5011118 0.025206992 -0.24982215 -0.20111005 0.04546143 0.18449467 0.36854318 -0.028393377 -0.5701648 -0.60753113 -0.083788775 0.10669048 0.36520648 0.37153825 0.7987841 -0.44179717 0.06971425 -0.725572 0.08394292 -0.43445468 0.3938534 -0.05765888 0.3103513
1715 0.23528148 -0.785525 -0.54529595 0.5063251 -0.14067267 0.494677 1.024322 0.6615602 -0.16338664 0.2264004 -0.18719243 -0.34025407 0.14276597 0.15692817 0.4365358 -0.06332957 0.023900244 0.0024715778 -0.16602904 -0.617744 0.11672256 -0.06622605 -0.20564036 -0.20567612 -0.8008452 -0.12672931 0.16721053 0.22629234 0.16989164 -0.20221432 -0.16320612 0.05329336 -0.27542022 0.06572592 0.24891376 0.065168284 -0.07049131 -0.28287932 -0.35565367 0.0682352 0.012772767 -0.6492383 0.45735934 0.49779168 0.09810288 0.07600704 0.6498401 0.16968277 -0.006419247 0.1213639 -0.454148 0.6408358 -0.29225636 0.45247203 0.22414628 -0.24339736 -0.3139195 -0.012211262 0.08232138 0.18074518 0.6300161 -0.76906663 0.08852957 0.24460192
1914 -0.0009039957 0.484986 -0.30184364 -0.061216753 0.2028875 -0.26480818 0.2934949 0.027321892 -0.23347741 -0.12199936 -0.09792632 -0.39877063 -0.08792139 0.2350783 0.06321581 0.84131294 -0.4555554 -0.08069948 -0.1754888 -0.008760143 -0.47395757 0.019679358 -0.0929045 0.46394396 0.14324492 0.51285404 -0.65194476 -0.26115373 -0.5777065 0.5359709 0.044403296 0.5540876 -0.65686166 -0.36986855 -0.1760036 0.8292048 -0.08511866 -0.14224873 -0.7332217 -1.3981434 0.06771805 -0.88956535 0.3306046 -0.9944596 -0.3118072 -0.25399956 0.24979511 -0.65444607 -1.220095 0.34146208 -0.26868245 0.14532289 -0.25834876 -0.061885204 1.1943551 -0.40806362 0.9204634 0.5020696 0.40231577 -0.2666066 0.016929377 -0.58358395 -0.55725545 -0.027147228
1110 0.10723687 -0.3412969 -0.5169427 0.35557818 -0.47939426 0.63722354 0.37729737 -0.46050853 -0.32318577 0.8054554 0.41175684 -0.13303109 -0.10706504 -0.32880148 0.90375197 -0.76353025 0.47492164 0.30164036 0.14016774 0.4568302 -0.74235064 -0.2524955 0.33673787 0.29973638 -0.33783224 0.060104053 -0.8928525 -0.0009201565 0.35415155 0.16375598 -0.24432491 0.7706373 -0.5002788 -0.003659637 -0.527825 0.0645729 -0.27296835 -0.21332368 0.015562293 -0.587579 0.10510054 -0.1947474 -0.33227313 0.10504852 -0.31303683 -0.38984242 -0.05335848 0.10015555 -0.25625026 0.09556974 -0.12829515 0.20583408 0.06838784 0.94704854 0.56541663 0.09842734 -0.051982775 0.16589688 -0.0631773 0.45237267 0.3334184 -0.24261944 -0.2706854 -0.0019653076
2126 -0.8178141 0.66329366 -0.8184337 0.6514816 0.5439062 0.19917503 0.48249814 -0.6207815 -0.11474731 0.56302047 1.3927635 0.22796759 0.9832076 -0.80946124 0.49459815 -0.03828346 -0.5223139 0.19717468 -0.1555786 0.739748 -0.1304637 0.76748246 -0.19411258 0.09066729 0.43640766 -0.698865 -0.025196208 -0.54774076 -0.22471686 -0.35236165 0.18359278 -0.24247137 0.020468539 1.1883162 0.35160008 0.24037415 -0.06822684 -0.08557471 -0.7621851 -0.04252907 -1.0854417 -0.6401933 0.013767639 0.20395882 0.10917209 -0.34754586 -0.6057756 0.61499447 0.32792616 0.010167722 -0.24159548 0.4207181 0.41936463 -0.13060902 0.43758065 -0.00039427177 -0.24699435 -0.90147954 0.045542814 -0.014374345 -0.7834211 0.31713405 0.541883 -0.59878695
577 -0.38513753 -0.020267632 0.33910957 0.040585514 0.35286045 -0.2655625 0.45160586 -0.033448413 0.82589465 0.2636944 0.24437992 -0.121175855 0.26599827 -0.19554202 0.2555225 -0.8365636 0.13355362 0.27256885 0.4410071 0.13102038 -0.0046653845 -0.26342842 -0.1611198 0.07798894 0.064493574 0.80966336 1.0359789 -0.09293864 -0.044515055 0.19659272 0.43911085 0.36834562 0.120870315 -0.009473304 -0.25004295 0.092802756 -0.60013825 -0.1574405 -0.3549596 -0.49176762 0.47799146 -1.5880238 -0.02060268 0.54371935 0.6762345 -1.0978246 0.18371221 0.119485624 -0.71068335 -0.21504138 0.2535983 0.5383192 0.010317352 0.32401693 0.44531298 -0.30295026 1.0652658 0.60631084 0.1997996 -0.41928 0.84928006 0.15841492 0.58216214 -0.50878465
444 -0.3541637 0.02591889 0.39249307 0.79458535 -0.10022589 0.044226747 0.3326252 -0.5372912 0.3624202 0.56792617 1.0466233 -1.2632651 0.6560869 -0.44952735 0.5997099 -0.33992064 0.041843563 0.3478957 0.54800415 -0.13442944 -0.46775416 1.2215582 0.6336209 -0.0048571154 -0.37871742 -1.0405015 -0.05004639 0.62950164 -0.013383605 0.16873208 0.14621732 -0.011665228 -0.007542885 -0.717943 0.51742905 0.34684888 -0.1490681 -0.55714244 -0.9008146 -0.65644383 0.155047 0.05372163 -0.07119895 -0.09041235 0.06237041 -0.26152578 0.39880207 0.43083 0.22137909 -0.39977312 0.40590373 -0.0999511 0.19752488 0.011483746 0.24897033 -0.34365308 -0.49362025 -0.34963915 -0.07087653 0.03257892 0.42662007 0.09874914 1.3142412 -0.58741117
519 -0.014104129 0.58813316 0.083338484 0.6224343 0.7209845 0.31662944 0.19848827 0.14495045 0.36357716 0.25550133 0.0044457014 -0.7501319 -0.57275605 0.34860894 0.26269722 -0.123937294 0.1684735 -0.2987565 -0.43345588 0.65351516 -0.3227543 -0.1046033 -0.022537353 -0.036461554 -0.8430548 0.046686262 0.34985632 -0.039265215 -0.23917 0.33579987 -0.45212153 -0.8136703 0.13842043 0.27993253 0.4208594 0.7638391 0.49339452 0.493461 -0.36338088 -0.2998704 0.6846512 0.118250564 0.59666395 -0.0042421445 -0.076582424 0.0654417 0.42967927 -0.25354102 -0.8320957 0.044678405 0.2852049 0.08446982 -0.28828916 -0.37212664 0.07557167 0.4993031 -0.19006108 -0.3974592 -0.44860652 -0.0075352276 0.010677774 -0.09885801 0.4923033 0.2845413
2582 -0.5347676 0.24038802 -0.02711599 -0.14758286 0.2497021 0.29949927 0.19744666 0.084144816 0.94468945 0.092950776 0.2556463 -0.5301835 -0.391559 -0.21426587 0.049898636 -0.18078366 0.11488219 0.28094512 -1.2056712 0.8147267 0.07666732 -0.35029298 0.17423803 -0.52328193 -0.54717916 0.08080817 0.6995257 0.09009181 0.24533956 -0.17821124 -0.43375212 -0.4688809 0.17168784 -0.42249647 0.6439146 0.96054053 0.3038087 0.45115831 -0.63042414 -0.7233843 0.06980504 -0.37389866 -0.13743791 -0.029318392 0.038328554 -0.31327003 0.34838918 -0.51968426 -0.8975168 -0.09040712 -0.060945652 -0.22912599 -0.17693368 0.051448658 0.26192564 0.90053594 0.31156793 -0.513308 -0.46662444 0.20686127 0.070287466 -0.20281191 -0.44483182 0.608949
2094 -0.19517666 -0.5743655 -0.030332863 0.27769953 -0.4743474 -0.015655018 -0.08092412 -0.20995224 0.34555012 0.24705487 0.70679426 -0.48991787 -0.22870222 0.17607792 -0.4978605 0.25916916 -0.10927038 -0.044760104 -0.42131087 -0.15549088 -0.28250715 0.9449247 -0.44347054 -0.021318765 -0.504721 -0.29792115 0.38617623 0.65453833 0.0102393245 -0.5624919 0.08140322 0.47549957 -0.06182816 -0.7272164 -0.71032095 0.4655103 1.129764 -0.10638533 -0.41169164 0.41359714 1.0076498 -1.0262938 -0.23332386 -0.504209 0.17079097 0.26955 1.1322362 0.65372145 0.13662218 0.27117872 -0.078209564 0.30861896 0.20375389 -0.3681773 0.49758914 0.18099764 -0.66858196 -0.8072372 -0.11435015 -0.48718515 -0.35347274 -0.96554756 0.17118302 -0.37816286
1196 -0.5413655 0.5572146 -1.3616711 -0.42764768 0.1983343 -0.14851055 0.339469 0.35580808 -0.050940566 0.08874314 0.8355471 0.12611566 0.29186088 0.26846173 -0.2957658 0.105258584 0.5256714 -0.32204875 -0.41872057 -0.03831429 0.15761648 0.83166975 -0.31989717 -0.2922172 -0.7265373 -0.25398782 0.47799656 0.0019158355 0.6437635 0.5409572 0.1726706 0.59436065 -0.20223232 -0.32112482 -0.8144747 0.8073073 0.31521574 0.18578017 -0.5556764 -0.2609607 0.5512403 -0.22923678 -0.27118966 0.23014517 -0.40464598 -0.36981556 -0.34438235 0.5017657 -0.059782792 -0.76053447 -0.114412226 0.61428034 0.19009608 0.7869544 -0.19055113 0.3910382 -0.0673095 -0.60490227 0.11469871 -0.9604355 0.54228514 0.35865167 0.5285668 0.050782833
239 0.15941375 0.14800784 0.025604576 0.408976 -0.46590152 0.25483415 0.4163023 -0.3781572 0.13405475 0.03088208 0.09196729 -0.23538513 0.32981434 0.0069050197 1.2687335 -0.5934015 0.1947673 0.6593054 0.57966936 0.28436983 -0.08796801 0.10879491 -0.5514354 0.7415917 -0.0063215657 -0.21036692 -0.44320613 -0.24258377 0.48215088 0.6170673 -0.2660729 0.1257049 -0.7825884 -0.06302406 -0.5250101 -0.16107114 -0.894202 -0.24122237 -0.3804084 0.020308817 0.7745308 -0.67983663 -0.15411948 0.5650982 -0.19952895 0.34269297 0.035122562 -0.11281202 -0.29681274 1.4611607 -0.6635784 0.5377819 0.5352419 0.8720854 -0.03943657 -0.23626865 0.021227 -0.25885805 -0.18368092 -0.115874596 -0.40492487 -0.39593488 0.20049481 0.3407731
1957 -0.2332075 0.31852952 -0.05396309 0.15115277 -0.274445 -0.5740429 0.08582964 -0.052056126 0.24422614 0.17952992 0.22773649 -0.12309636 -0.14592451 -0.4643269 0.06168487 -0.21951532 0.47765434 0.3302942 0.0012637498 -0.35773578 0.40908766 0.6912239 0.12088772 -0.057924595 0.012544846 -0.045758355 0.15110883 -0.36481318 0.06437196 0.060981214 -0.561464 0.019265058 -0.35898423 0.0577943 0.8167102 0.99914414 -0.25932962 0.599776 -0.015099223 -0.84065664 -0.2569901 -0.17975995 0.38188446 0.9628309 -0.6028125 0.45731306 -0.21723378 0.425946 -0.5277321 0.48750466 0.5740499 0.46952018 0.40670958 0.9408233 0.47517562 -0.74399287 -0.37757054 -0.4555385 -0.15149039 0.14868341 -0.28011045 -0.121832155 0.16203026 -0.45129263
2336 0.24131069 0.6991815 0.306525 0.8429942 0.416181 -1.3113842 0.5498361 0.88169026 0.08717312 0.44627178 -0.24916585 1.1346905 -0.3565207 -0.27347672 0.6615816 -0.6146476 -0.22518362 0.1980822 -0.4902413 0.057190955 0.64615566 0.41333517 -0.6898072 -0.4313635 -0.08786253 -0.39925158 -1.0233103 0.70903605 0.624405 -0.4225776 -0.7883296 -0.29425395 -0.09366364 0.98406434 0.13689697 0.50645435 0.07071094 0.3182967 0.10305349 -0.29138172 0.21557377 -0.20222087 -0.21822251 0.22854851 -0.72169536 -0.09694082 1.1541426 0.13490947 -0.5620423 0.204006 0.30747607 0.5465468 0.12822065 1.0057298 0.1455201 0.14038548 0.17690942 -1.0166261 0.291956 -0.76294863 0.44420797 0.36034417 -0.14274986 0.090290084
210 0.25372222 0.7890111 -0.2571367 -0.060312726 -0.5698467 -0.09635508 0.39707422 0.26795635 -0.08602908 0.32701153 0.23212156 0.26331928 -0.3290278 0.73352516 0.3867405 -0.3083917 0.14071065 0.28083894 -0.03440787 0.15289906 0.025577854 0.8981123 -0.76337415 0.34710637 -0.05973147 -0.21689802 -0.12465248 0.0067666085 0.4570045 0.814352 0.72552437 0.12549081 -0.3968129 0.08933617 0.40364325 0.6294194 0.7183161 -0.121778645 -0.18804885 -0.27735323 -0.103658795 -1.2096449 0.19348869 -0.24290088 0.20819533 0.29209638 0.33190987 -0.011808116 -0.51066375 -0.45117688 -0.50468713 -0.3516871 -0.21249077 -0.234002 -0.20276894 -0.794476 0.9010041 0.3005071 -0.12555462 -0.49792016 -0.2663339 -0.7355327 0.45764074 -0.1102582
1131 -0.47189578 0.22534744 0.24065804 -0.05512749 -0.15561052 0.5098115 -0.40588585 0.23226333 -0.10727623 0.7300375 0.432132 0.48790944 0.5830283 -0.119478635 0.8684713 0.41487485 -1.027977 -0.88041425 0.19963057 0.9934174 -0.06108893 0.23524386 0.4779231 0.00047443193 -0.118960515 0.38355863 -0.17258199 0.3643516 0.37347722 1.1957057 -0.055843357 0.17522345 -0.37884971 0.18961985 0.05991293 0.51952755 0.20155329 0.33931828 0.10226265 -0.42166647 -0.014132446 0.11545013 0.15528375 -0.027480159 -0.07160846 0.035251327 0.8122631 0.24462463 -0.0775697 -0.09961513 -0.28453174 0.0074332813 -0.8460769 0.35256526 0.9682249 0.249334 -0.30338597 -0.14678401 0.67327833 -0.24203272 0.62789536 -0.3346603 -0.34975109 0.16242412
745 -0.16184579 1.020588 -0.28694615 0.1624123 0.6422475 -0.02968687 -0.051914055 0.15469615 0.6348529 0.5079089 0.032518115 0.0800671 -0.9428133 -0.3534628 1.5359607 -0.49658194 0.9280852 -0.8991115 -0.30967852 0.32898495 0.079554744 -0.30572456 -0.56602514 -0.29640102 0.10447161 -0.17994125 0.4365032 0.31817845 -0.40184233 -0.5194201 0.0225162 0.3234198 -0.53852594 -0.3885319 -0.36112055 0.52778983 -0.24439684 0.5128139 -0.47988626 -0.47718135 -0.0041352576 -0.25592044 0.5368571 0.32220396 0.08115295 0.041773826 -0.15316577 0.08272924 -0.14981791 0.05611076 -0.15506355 -0.3299758 0.24031115 -0.827471 0.14863952 0.0058041443 0.3245499 -0.1460783 -0.20290871 -0.03876555 -0.1450312 -0.08875946 -0.025953433 0.07598435
279 0.44662237 -0.037960015 0.12822244 0.7873168 0.4190255 -1.0515238 0.108388305 -0.03855184 -0.032501046 -0.2769749 1.1807846 -0.4103698 1.1010184 0.13001841 1.0338402 -0.35996383 -0.3114197 -0.19707645 -0.21401472 0.69759035 -0.75794286 0.60036165 -0.42478523 -0.39868513 -0.44116646 -0.4674892 0.05443638 -0.11217993 0.4738641 0.10760273 -0.6491571 -0.11340575 -0.73232174 -0.036071487 0.63265675 0.74194723 -0.25954473 0.52347004 0.027813395 -0.62040746 -0.8824631 0.19373941 -0.17194037 -0.4118581 0.18236622 -0.081742086 0.23664346 0.3423628 0.003336871 -0.36434332 -0.057202138 -0.16702262 -0.77694595 -0.75802606 -0.6025885 -0.59404474 0.117152825 -0.11925036 0.032980796 -0.18737516 0.82789177 -0.4760877 -0.6828157 -0.3700837
1927 -0.070712164 0.1757926 -0.16750592 -0.4574212 0.18939577 0.18578988 -0.57945377 0.46268982 0.43931943 0.6267339 0.25555724 0.25025165 -0.6078995 -0.20691913 0.25165936 -1.1199818 -0.31546065 -0.1556461 -0.012390653 -0.56093246 0.5575825 0.23375997 -0.514589 -0.13713646 -0.59292793 0.21199603 0.9007676 0.7739079 -0.063145354 -0.6125507 -0.50397056 0.4093392 -0.012321669 -0.40071818 0.5649136 0.43733525 -0.04434641 -0.9225142 -0.57753485 -0.71026295 -0.0044360687 -0.7270426 0.15526707 -0.14930911 0.10882076 -0.33048242 0.5691572 0.44463363 -0.1457218 0.6925258 -0.9017619 0.13721354 -0.10651074 0.35534763 -0.46481565 1.3263592 0.3459747 -0.1265311 0.027032714 -0.044467285 -0.21616445 -1.2208109 0.11720568 0.04845766
609 0.6890697 -0.14073563 -0.34796086 0.021938805 -0.87241215 -0.9792068 -0.25762686 -0.6083308 0.24373926 0.07798152 0.42669553 -0.100058325 0.21350968 0.23860364 0.37364903 -0.09052769 -0.6491152 0.06715831 -0.6850747 -0.26793683 -0.4373117 0.30612227 -0.26243022 -0.76804596 0.22068356 -0.038289532 0.21868844 0.035336155 0.7476973 0.06488375 0.60383224 0.006803739 0.14929175 0.51162946 -0.6023606 0.3242542 0.66824603 0.2659678 -0.40916932 0.019350957 -0.0014603379 -0.5174709 0.39250138 -0.19392921 -0.035223193 -0.21072426 0.5267947 0.28167692 -0.13393933 -0.48215544 -0.4849475 -0.0022260528 -0.07897056 0.33679178 -0.05085248 0.1702428 -0.61850524 -0.087303415 -0.5448036 0.19758606 0.4189464 -0.5491765 0.2956743 -0.5760931
482 0.4096696 0.07924921 -0.821122 0.19067226 0.7133916 0.7536417 0.3018259 -0.6606008 0.57154346 0.013843176 0.3463461 -0.07793828 -0.13292795 0.4771762 -0.4941596 -0.17030317 -0.5626669 -0.63303673 0.707276 0.69188815 -0.7774674 0.15396374 -0.46700984 -0.2547022 -0.094747625 0.13106075 0.23287219 -0.10204969 -0.040597793 -0.31180465 -0.66475546 -0.19579452 -0.555395 -0.28565976 -0.94698024 0.7013016 0.3475443 -0.4019946 -0.6330204 -0.6626091 -0.18337166 -0.42893195 0.76209605 0.64204454 -0.15715624 0.26267746 0.44494423 0.43328726 -0.8822099 -0.26963022 0.9491762 -0.17219833 -0.28456804 0.5538331 0.02978761 0.51100737 0.78041613 0.028477408 0.04451172 -0.12490154 0.14438395 0.04393803 -0.24704371 -0.06323075
2518 -0.16496266 0.446578 -0.7798468 0.036452707 0.47730502 -0.28245804 -0.18122612 -0.03419695 0.8043922 0.91026676 0.25762254 -0.6697046 0.06546507 0.13287628 0.56607634 -0.32138437 0.08987283 0.07444526 -0.5154744 -0.5446138 -0.4056186 0.44739228 0.37533766 0.37097928 -0.9599817 0.5948448 -0.07569322 0.32426527 1.0697774 0.33568454 -0.23951116 -0.5505276 -0.8609843 -0.8142925 0.015927086 -0.56492835 0.047730442 0.5097591 -0.25121957 -0.23998939 0.4423717 -0.5312629 -0.23623984 0.19296585 0.3394559 0.71618867 0.3379898 0.023173202 0.38003975 -0.109282084 0.28860435 -0.101624064 -0.39158857 0.29883423 -0.028602405 -0.69073546 -0.17622025 -0.028500076 -0.6893675 -0.014162649 0.11491194 -0.19348611 0.18649517 0.021131217
118 1.0863382 0.5327682 -0.019192569 0.45066923 0.63018715 0.06313801 -0.46596074 0.36303678 0.3357064 -0.6909795 0.103354074 0.37414494 0.5133217 -0.475696 0.29985532 -0.8057177 0.30173975 -0.05264827 0.6045889 0.20601884 -0.43851256 0.4406629 0.46230522 -0.19572353 -0.6480953 -0.026978537 0.07317096 -0.64253753 0.055261575 0.33556306 0.23366114 -0.34658846 0.036462244 0.13957319 -0.50225663 0.48642004 0.24017318 -0.045557488 -1.0699646 -0.21329623 -0.3468882 -0.4564224 -0.14582221 0.32856682 -0.23232508 -0.21519007 1.3098737 0.70502 -0.094358064 0.087983675 -0.020134421 -0.5321417 -0.9026651 -0.6852394 -0.10406628 0.0045753266 0.55982715 -0.32387635 -0.14208427 -0.4107546 0.23052104 -0.6154268 -0.6113663 0.31275713
1848 -0.10046965 0.20301412 -0.0995967 0.114567295 0.73118824 0.0021439532 -0.22655293 -0.22049858 0.8983589 -0.027312087 0.475039 0.24612117 0.47426355 0.3333842 0.7946454 -0.61511374 0.0125749055 0.4075301 0.16062059 -0.13506906 -0.13269761 0.41306412 -0.36139405 0.28575352 0.27607995 -0.56998193 -0.607761 -0.7180059 -0.058934692 0.8189171 -0.014505719 -0.2824473 0.23494087 -0.15013447 -0.70550776 0.1347045 -0.5844344 -0.10851881 0.006856246 0.1260741 0.23474802 -0.5108291 -0.7908628 0.0097024245 -0.18267609 -0.19886672 -0.04799738 0.5697642 -0.21952175 0.9180179 -0.99894506 0.100023046 -0.028978964 0.11788573 0.28485256 -0.43846717 -0.21071403 0.16937391 -0.413222 -0.3351825 -0.30932885 -0.024005214 -0.7046524 0.51560926
368 0.11076741 0.305122 -0.19242653 0.10233507 -0.038107257 -0.1614081 0.19824204 -0.09087637 0.90396595 -0.048364006 0.09076379 -0.6795463 -0.23006111 -0.32786497 0.46958536 -0.21954703 -0.3564166 -0.4189497 0.1898689 -0.7396084 -0.5360271 0.25999868 0.48784155 0.6847536 -0.67358625 0.53475744 -0.056080222 -0.36789784 0.019779593 -0.35832313 -0.5785016 -0.7537588 -0.3056638 -0.22686428 -0.14187899 -0.41095373 0.038475912 -0.051104363 -0.7889929 -0.35798606 0.19931963 -0.60791695 0.45390648 0.93070775 0.51317585 0.02373541 0.5153033 0.7511032 -0.6034436 -0.42851445 0.27508894 -0.2640625 0.17922294 0.3334077 0.038828127 -0.8847571 0.33878934 -0.16873157 -0.2686142 0.13236701 0.51839334 -0.72766006 0.360421 -0.70648634
1869 -0.33603722 -0.015764827 -0.4782124 0.864862 0.5928817 -0.25030318 -0.8390616 -0.8713986 -0.23324627 0.65196 0.40856996 0.15170781 -0.4061302 0.34776816 0.42518067 -0.15491074 0.24000944 -0.60264677 0.24643943 0.9310585 0.06538629 0.93748426 -0.10009354 -0.5593236 0.31853515 -0.14375106 -0.48579788 -0.2924175 0.07952455 0.0078897895 -0.5557599 0.07524191 -0.088944666 0.00865091 0.010988984 -0.31848714 -0.115831934 0.073165484 -0.46163955 -0.63072187 0.3864723 -0.2735725 -0.34380692 0.1093515 -0.6847642 0.48723096 0.553455 -0.4009018 -0.24381033 -0.18681158 0.20032524 -0.38623437 -0.14844719 -0.17947446 0.5814501 -0.03328354 0.20013773 -0.34390214 0.3416461 0.39165267 0.44981155 -0.6892267 0.4733931 0.5268214
89 -0.16080469 0.495872 0.07903507 -0.4656451 -0.09042753 -0.02899962 0.5918508 -0.6673243 0.20912905 0.4672616 0.45997608 0.9607417 0.18345009 -0.3984205 0.6115132 -0.67013544 -0.07725313 -1.0512934 0.30473047 -0.83402103 0.61866283 0.5469508 -0.24817094 -1.3299 0.049265314 -0.2795246 0.3425871 -0.029821523 0.11511157 0.3732026 -0.97779185 0.23232287 0.057593558 0.10434776 1.0573957 -0.19026403 0.05790285 0.32458568 -0.73668724 -1.0268205 0.22998224 -0.09114214 -0.030009594 -0.14053138 0.7986976 0.028182164 1.0343767 0.24008867 -0.39099202 1.009247 -0.38404804 -0.27190128 -1.1473827 0.17580052 0.1661123 -0.5163518 -0.41564164 -0.061316956 0.71089315 -0.14399906 0.06837495 -0.44017756 0.004019177 0.077042475
1950 0.4547097 0.7017078 -0.10722481 0.03603876 0.70872986 0.24504107 -0.79291207 -0.5064721 0.72927046 -0.56949294 0.002545133 0.6019763 0.75597477 0.5019009 -0.11661358 -0.19363381 0.49576256 0.36798087 -0.84616894 -0.07982829 -0.29957142 -0.15587977 -0.29474357 0.4461112 -0.3818071 0.57259625 -0.1286909 -0.14121825 0.001954914 0.12507468 0.28990343 0.10979945 -0.6329241 0.37460417 -0.08372096 0.38438123 -0.03647755 -0.04193854 -0.15314199 -0.3509375 0.33872592 -0.09799401 -0.08281209 0.38545248 0.22629052 -0.15127261 0.032670308 0.33013004 0.36055416 -0.7706727 -0.29858232 0.55219066 -1.4553118 0.75139 0.49817967 -0.24460399 -0.3351651 -0.1915574 0.3851312 -0.48222432 -0.41574642 -0.56655115 0.6102491 0.5740035
1602 -0.8037815 0.14475521 -0.40056604 -0.15741757 0.8062636 -0.3653935 0.25508878 0.10765263 -0.48577264 0.60006 -0.45603722 -0.6229115 -0.0150219025 0.1337042 -0.0594247 -0.041578136 0.022818552 -0.08052569 -0.5114997 0.21801162 -0.88691235 -0.2963703 0.47241673 -0.13295698 -0.6654282 -0.012942531 1.4638731 0.027348844 -0.16996378 -0.59468997 0.10548153 -0.051104438 0.334896 0.4591517 0.184507 0.35003024 0.13262556 -0.1757867 -0.3749625 -0.26537514 0.6788784 -0.6137164 -0.2881037 0.08594983 0.30510697 -0.026876766 0.23081899 0.6170696 -0.07687759 -0.8737168 -0.47955725 0.526513 -0.13992952 0.5703733 -0.23190759 -0.63638544 -0.18403791 -0.1524366 -0.56393063 -0.20255277 -0.0875502 -0.791352 -0.31572983 -0.7482766
2248 -0.5449906 -0.29862794 -0.36021766 -0.17533763 0.24988917 0.50564134 -0.3617976 0.21893968 0.3725234 0.87177724 -0.17074373 0.23753214 -0.3949638 -0.9472669 0.03103948 -0.22028126 0.1120905 -0.088616595 0.04610035 0.21500996 0.08188655 0.10114172 -0.54932857 0.01294027 -0.022559097 -0.3825208 0.32709274 0.12195791 -0.14954457 -0.422696 -0.6133462 -0.18314195 -0.67454284 -0.49229795 -0.5407042 0.07545268 -1.1453569 -0.00025772434 -0.90036625 -0.24510275 0.13253406 -0.014922475 -0.0040076245 0.3369414 -0.22051388 -0.35207504 1.0362849 0.40296513 0.3133035 0.23569629 -0.48654625 0.6279973 -0.5551661 -0.47974476 0.09746506 -1.0188481 0.47620624 -0.7807719 -0.4920341 0.057366684 -0.106394865 -0.8175256 0.29768467 -1.4123306
326 -0.14464617 0.31189927 -0.45345843 0.41000107 0.3193395 -0.30435452 0.19403477 0.2604182 0.103693955 -0.45913592 0.62232035 -0.033593357 0.45834255 -0.15220378 -0.16118445 -0.58851314 -0.22368799 0.1709868 -0.20126505 -0.40357533 0.40459356 0.34013 0.0009897194 0.1818486 0.038066126 0.5167001 0.5450059 -0.41343018 -0.41455388 -0.1859288 -0.25460234 1.0051887 0.15451276 0.12647162 -0.13117 0.58163023 0.19409968 -0.06961269 0.11660402 0.1687717 0.0052473973 -0.51714885 0.17602101 -0.19154398 0.05650708 -0.035676926 0.22054245 -0.1015081 -0.42271537 0.8042123 -0.26797137 0.6819181 -0.15123838 0.43468216 0.37116155 -0.64316225 0.5511848 0.3695521 -0.5846733 -0.13697729 0.8396781 -0.2489048 0.16420466 -0.68407094
1966 0.37055063 -0.48368642 0.038096268 0.83580744 0.33671397 0.3893063 -0.36268112 -0.10676092 0.4737533 -0.46324497 0.09895736 0.15768531 0.089386776 0.15285777 0.7115557 -0.55333114 -0.30490074 0.5453545 0.36384648 0.018709635 -0.43682805 -0.22850266 0.4352292 0.057998516 -0.23956029 0.20011562 -0.030608036 -0.16013269 -0.65200996 -0.11209438 0.18574119 -0.4677223 0.8260031 -0.069669165 -0.30508488 0.8160844 -0.6085723 -0.26775667 -0.6260884 -0.7836202 -0.039963145 -1.0331064 -0.10731032 -0.37219605 -0.53624 0.14318451 -0.16125983 0.16328456 0.19538194 -0.14634919 -0.42086986 -0.20015018 -1.133436 -0.16283032 0.00030626444 -0.61943537 -0.49727258 0.0017878308 -0.5998491 -1.1556702 0.24162683 -0.09876106 -0.54582524 -0.055012055
2367 -0.81184316 -0.24295792 -0.9293418 0.15919493 -0.35136348 -0.1208164 -0.9499095 -1.2800857 0.6154685 0.21552865 -0.31147254 0.32202137 -0.20203705 0.4871597 0.6256234 -0.4379543 0.24258484 -0.308881 -0.31675684 0.43108687 -0.6445016 0.32927585 0.36837745 0.70522016 -0.2869013 -0.4064077 0.33216783 0.078825325 -0.5110141 -0.05367026 0.39685816 -0.16496947 -0.21124072 0.39702082 0.23328151 0.89523244 0.12953652 -0.11154268 0.90764856 0.015797874 -0.18902482 0.0040816353 0.27468416 0.43550554 -0.024626411 0.40306813 0.3731971 0.62165236 0.14466801 -0.15427841 -0.41199905 0.4792007 -0.37471545 0.58443016 0.1901733 0.59581035 -0.1965236 -0.6371698 -0.11590213 -0.5730644 0.9527434 -0.58511144 -0.5052212 0.29825005
1505 0.07113996 0.15728778 0.060757503 0.35606995 0.030440189 0.047120627 -0.07427634 -0.25518325 0.3710137 0.14472316 -0.109210804 -0.69703144 0.2311822 -0.005335283 0.3624046 0.02901067 0.72375846 0.7785969 -0.20213528 0.48515895 -0.35060444 0.7957885 -0.15207927 -0.23317485 -0.0735444 -0.089959085 0.06857476 -0.6929026 -0.0045375274 0.0020879344 -0.8583653 0.0622873 -0.15835764 -0.65585464 -0.67450434 0.57485306 -0.13404585 -0.09195774 -0.042800482 -0.14009802 0.572581 -0.6772829 0.1631904 -0.5924927 0.14856285 -0.4565731 1.1715304 -0.0067796544 -0.21961561 -0.12513848 0.35771933 -0.954183 -0.14068094 0.34529057 -0.034005847 -0.046240777 -0.43833914 -0.4493239 0.30952847 -0.2628366 0.27100742 -0.41648433 0.17561728 -0.5202002
1042 -0.38936004 0.573531 -0.061779767 0.28958157 -0.058044232 -0.0566987 0.1683347 0.30588594 0.107576214 -0.14819057 0.077250324 0.3119227 0.13588396 0.64358544 0.3426814 -0.27931166 -0.48979437 0.32174948 0.6727845 -0.3494491 -0.37598684 0.11689776 -0.19022194 -0.23868464 0.14570603 0.4824878 0.63761514 1.0005918 -0.001100192 -0.05807683 -0.3830603 0.15309411 -0.14366731 0.21174839 0.33076608 1.0493219 0.35714185 -1.1853589 -0.6611569 0.5186168 -0.018825734 0.030744348 -0.2959163 0.75835425 -0.2523545 -0.43038568 0.6323395 0.25778338 -0.47399172 0.12540165 -0.36784396 0.25213847 0.8780504 -0.3046954 -0.08562032 -0.26681992 -0.7213846 -0.33163762 0.10781054 -0.49986938 -0.30522466 -0.76793027 -0.45492688 -0.49279305
2401 0.14283189 0.91795665 0.3554137 0.7387701 0.58728886 -0.16798572 -0.11603024 0.29041705 1.237478 0.69568914 -0.19321391 0.43643343 -0.1701793 -0.086519934 -1.0867562 0.08993927 0.3510564 -0.5500455 -0.6207842 0.09168293 -0.041151464 -0.13512497 -0.3624933 -0.71796376 0.8960152 0.2909856 -0.026888132 -1.3456427 -0.3831393 -0.46071067 -0.36326355 0.11514828 0.039506935 0.45236948 0.39638624 0.6122755 -0.99591625 0.11565196 -0.3428945 -0.67857254 0.71698487 -0.57520455 0.9909788 0.022849996 0.13850804 -0.43124232 0.4310167 0.5476074 -0.11566768 0.030874932 -0.9980189 -0.55808645 -0.15015168 -0.5376864 0.6075761 -0.7463116 -0.7414557 0.003939662 0.09282886 -0.21575287 0.5884074 0.004542736 -0.08265739 -0.50066805
1907 -0.2865596 0.6473237 0.021627063 0.05989939 -0.4744593 0.23484157 0.75360477 0.09182332 0.45456037 0.37836006 0.7093144 -0.025145875 -0.25700712 0.85062253 0.21391852 0.09505692 0.20995082 0.34551913 0.547469 0.40245524 0.14040536 0.70189744 -0.38082138 -0.046349883 -0.23917268 0.20070437 0.22468264 -0.050446372 0.49079952 0.8505314 0.86101204 0.028807545 -0.5684082 -0.43556657 -0.13353941 0.4025749 0.53904045 0.008233574 -0.60698026 -0.20330693 -0.33471662 -1.3027333 -0.07546911 0.4421753 0.32573977 -0.7056888 0.03597224 0.12453661 -0.53931576 -0.3980947 0.08802639 0.18388334 -0.35007024 -0.23929425 -0.3855727 -0.52296895 0.26040873 0.18956664 0.24424611 -0.3399012 0.613959 -0.30350277 0.8173986 -0.97076875
1702 -0.38120613 -0.52807546 0.07742753 0.7216905 -0.21504822 -0.49301136 0.23229277 -0.5896043 0.71037096 -0.90009594 -0.3448423 0.553647 0.4140753 0.043008417 -0.078842945 -0.72430426 0.103611454 0.4731713 -0.43396226 0.03178164 -0.52372086 0.06280587 -0.004575237 -0.23714526 -0.3382494 0.0863558 0.39267954 -0.42136827 0.022973029 -0.08351774 -0.680887 -0.6716647 0.32905275 0.14780079 -0.74989414 0.30328918 -0.9315693 -0.5996561 -0.40244174 -0.38014877 -0.64809823 -1.4078093 -0.4715662 -0.1712386 -0.48056874 0.12759036 -0.034027223 -0.16382396 0.4466115 0.0315102 -0.54828554 0.026252007 -1.0968496 0.05253776 0.42016473 -0.79544365 -0.33375874 -0.011968515 -0.117767796 -0.2378602 0.42241573 -0.03676696 -0.01894245 0.23481673
623 -0.41932008 0.44003233 0.026417647 0.5955971 0.02181704 0.097451985 -0.26761568 -0.22779733 1.1263422 0.17582332 1.0624223 -1.0219059 0.5208745 -0.51115 0.69290715 -0.12978248 0.57812876 0.87960535 0.44574028 -0.072245896 -0.64019185 1.2175705 0.59633815 -0.5678778 -0.54513884 -0.42503724 -0.13201268 0.5605353 0.22432765 -0.022211978 -0.24158958 -0.1397074 -0.31470627 -0.60675365 0.23872444 0.5000642 -0.31774905 -0.31409487 -0.31594327 -0.2043547 0.39040786 -0.12798889 -0.14585795 0.059716783 0.409513 -0.108424984 1.0329955 0.23788449 0.17674437 -0.60041976 0.036572184 -0.95542157 0.12525156 0.0814819 0.10687282 -0.5587265 -0.1503046 -0.2899108 0.23901974 -0.2474089 0.08552611 0.058539253 0.6251448 -0.5555257
667 -0.78429794 -0.1402662 -0.036002964 0.51555634 -0.10279362 0.17733128 -0.011135969 -0.74036634 -0.11968634 0.26025584 -0.2688633 0.18334523 0.04920149 -0.79143 0.08634943 -0.29095703 -0.03505599 -0.19811457 0.6807121 -0.06945534 0.74602395 1.1370553 0.06014505 -0.3001136 -1.077338 -0.2799935 0.111595914 0.15705071 0.49044213 0.2496288 -0.8097141 0.08899463 0.5005005 -0.93223107 0.7749964 0.33726752 0.88901526 -0.4498175 0.15447465 -0.13771734 -0.08406942 -0.8238566 0.97708434 -0.27890968 -0.15134163 -0.35742968 0.38298368 -0.609656 -0.6835659 -0.27168855 -0.6266323 0.060017206 -0.6032192 -0.1798547 0.76165164 -0.3217558 -0.36478594 -0.077741206 -0.06037095 0.12378622 -0.18167016 0.08004371 -0.5018628 0.16768996
2181 -0.45408016 -0.9092893 -0.10373336 0.2902641 0.37544525 0.26173374 0.3993316 -0.4710065 0.40592328 -0.13866825 0.17069939 0.49516413 0.26294053 0.9507058 0.1609914 -0.11276656 0.4286734 0.027602494 0.24462883 0.034083635 -0.19265206 0.10928351 -0.16733232 -0.17420712 0.64763445 -0.0070921173 -0.4832643 0.46867618 -0.11810767 1.235048 0.27043018 -0.012969462 -0.25303397 -0.60043734 -0.4064463 0.3365748 -0.56603545 -0.5501065 -0.6204014 0.35879734 0.26499084 -0.48376337 0.32380518 0.45368153 0.1788588 -0.04851497 0.20279852 0.07051222 0.15745476 0.21118928 -0.5297459 0.26968262 0.08647337 0.33976972 0.74246985 -1.1832178 -0.3741101 -0.0067804228 -0.95794696 -0.47332728 -0.15734541 -0.15749176 -0.52243346 -0.36365274
1229 0.16145918 -0.20504422 -0.58940595 0.4480456 -0.17918333 -1.1570295 -0.3964664 0.32749537 0.85019976 -0.04476739 0.59236866 0.03157192 0.31941268 0.056542773 0.47742933 -0.41229862 -0.045466017 -0.13658607 -0.54098403 -0.56247234 0.16978209 0.40552342 -0.30395493 -0.6423909 -0.012581129 -0.19599597 -0.3114275 -0.31847367 1.1423846 -0.02659109 0.29096416 0.061455525 -0.10817067 0.07048586 0.53641295 1.0146075 0.26471558 0.544916 0.1827433 0.22088028 -0.07161544 -0.96773654 1.0812331 -0.24311307 -0.37684092 -0.75066173 -0.17955947 -0.051958706 -1.1691995 0.18427958 0.18320762 0.077532254 -0.45391175 0.72115463 -0.3968577 -0.6373948 -0.45084155 0.2324774 -0.09251953 -0.15892728 -0.30250317 0.018363828 0.0070515648 -0.9613536
2467 -0.09531887 0.46784985 -0.43890986 0.09935546 -0.009471043 0.25975055 -0.5815432 -0.21423265 -0.048119977 0.14087035 0.019553835 -0.81274116 -0.24001123 0.5835963 1.4216696 0.6705846 1.022477 -0.39880797 -0.48351908 0.11123189 -0.33158064 0.5771798 0.4605212 0.36848107 0.52301455 -0.26101795 -0.14564727 -0.9974382 0.143047 0.49061978 -0.99239546 1.1816939 0.011488354 -0.27139267 0.93842155 0.1985273 0.7622439 -0.69668573 -0.20842323 -0.93766844 0.15717676 -0.8527914 -0.47852334 -0.79589146 -0.2719828 0.0409861 0.8740906 0.5251022 -0.6228126 0.23150602 0.16467819 -0.043910336 -0.072844766 0.34324425 0.10009442 -0.4134154 -0.28193393 -0.40990335 -0.33758423 -0.042947162 -0.31631163 0.29048148 -0.3605459 0.1574521
1828 -0.6764318 0.85907614 -0.060913626 -0.28820074 0.94487333 0.0025763053 0.24234192 -0.11753073 0.11768906 0.390908 0.11640609 0.2542609 0.2082782 -0.04983447 0.32975563 -0.41751766 -0.17119856 -0.37913564 0.390014 -0.037009742 -0.30187294 -0.4788969 -0.26296633 -0.5701608 -0.35451007 -0.38848075 0.14197199 -0.7875594 0.27768093 0.011158844 -0.46128872 0.72566515 0.0993833 -0.13110946 0.1437704 -0.00994362 -0.52735597 -0.010136413 -0.006895692 -0.14577794 0.37012252 -0.2027179 1.3228416 0.22561517 -0.7601444 0.011787957 0.24276334 -0.07539583 0.6219284 0.4095576 0.5380849 0.7527217 -0.5534966 -0.68385744 0.02056925 -0.41585544 -0.27529767 0.44564366 -1.0181515 0.32823148 0.7204805 -0.7945867 -0.06837385 0.022253571
1202 -0.13818799 0.47753656 0.25292605 0.753858 -0.12020634 -0.61986727 -0.21569492 0.6961655 0.65019584 0.4432699 -0.08461271 0.5635522 -0.3294677 0.53661513 -0.19882147 -0.16941126 -0.07997837 -0.63385594 -0.29122582 -0.012618936 -0.5900443 0.22217558 -0.762178 -0.6785362 1.2478406 -0.048464533 -0.7126308 0.011154024 0.3668283 -0.27254385 -0.6930946 -0.09741725 -0.07491385 0.25568616 -0.34956717 0.7368022 -0.31804562 0.35642663 0.2242573 -0.66394365 0.33803815 -0.4389699 -0.004730874 0.4776625 -0.41369742 0.21987255 1.2624727 -0.42385942 0.014538371 0.22019769 -0.23476139 0.69216394 0.49498746 0.5067243 -0.29734662 0.25885418 -0.0095546665 -0.74770856 0.11012194 -0.7401832 -0.1145786 0.19808562 0.47740337 0.20309432
1761 1.1471066 0.9926715 -0.6422993 0.01021422 -0.26793832 -0.35770708 0.067482 0.29140562 -0.12014877 -0.031414498 0.17206687 0.11739046 0.36992282 1.2307825 0.2331223 -0.44595397 -0.71971273 -0.05040247 -0.3503556 0.5581043 -0.35889053 -0.12501113 -0.07115276 0.3385389 -0.30614075 0.03507085 0.4869516 0.12038309 -0.39033982 -0.10318964 -0.06542155 -0.011173963 -0.20532453 0.27500486 0.036917645 1.0010855 -0.1959134 -0.008195971 -0.121032745 0.35548788 0.1853528 -0.89843804 -0.20008934 0.41273436 -0.75941175 0.22967738 0.34171098 0.52313614 -0.54308605 -0.5354436 0.13676889 0.3545314 0.21813388 0.16337654 0.1565063 0.9791019 -0.15951155 0.65850335 -0.65533596 -0.067626394 0.43518564 -0.64426947 -0.4752662 -0.09871615
1309 -0.25375322 0.7172788 0.13582806 0.8456853 -0.35348555 -0.024884854 -0.24372979 0.34873676 0.516913 0.61563337 -0.51371044 -0.74465746 0.15369633 -0.33381292 -0.08269566 0.15790054 -0.07103715 0.19379386 0.13455352 0.20701586 -0.6642864 -0.41940844 0.14234182 -0.023337793 -0.3285498 0.10663801 -0.16955434 0.20070326 1.2295296 0.3441936 -0.5304538 0.9814334 0.418092 1.3336551 0.23715177 0.10053999 -0.45314193 -0.2641709 -0.5669108 -0.5080896 -0.43056777 -0.7079849 -0.31052375 -0.45411578 0.6416999 -0.3875501 -0.19011359 -0.1482954 -0.078032486 -0.43002623 -0.22465318 0.8906564 -0.2210588 -0.20162065 0.23268528 -0.051972944 -0.24965939 -0.16503651 -0.573341 0.54683554 -0.85478324 -0.6265421 -0.070486054 -0.26335275
1016 -0.4837322 0.58836937 0.65645987 0.42683974 -0.29031 0.5968677 -0.35915756 0.33310506 -0.026471848 -0.07791248 -0.41822496 -0.3074377 -0.060766626 0.10530443 0.97637975 -0.73064256 -1.53912 0.2212391 0.19024691 0.34364632 -0.79053116 0.75037575 0.8547104 0.2353357 0.32364708 0.65501225 0.15662704 0.23202135 0.31511787 1.2354116 -0.5867978 0.23804508 -0.27460456 1.098875 0.32267714 0.19348127 0.12358236 0.4307143 -0.1285593 -0.25856426 -0.19039379 -1.1056587 0.15628955 -0.3403665 0.23627152 0.6931026 -0.28903416 0.4987052 -0.13857146 0.50635195 0.17365263 0.32616222 -0.96494025 0.14835383 0.2485724 0.32615998 0.50044334 -0.8979911 -0.2970145 -0.087975025 0.6007538 0.29033825 -0.26167616 -0.37081018
1940 -0.08289407 -1.0095645 -0.26805967 0.9746563 0.68884176 0.30169782 0.60113746 0.5040982 -0.41087598 0.4150347 0.18940663 0.07418178 0.5190172 0.5272038 0.708497 -0.15055859 0.13393608 -0.03628726 0.3865105 -0.6442648 0.14211313 -0.18084064 -0.56090015 -0.1683646 -0.76061565 0.42890885 -0.30533707 0.115872115 0.5936677 0.10451682 0.24153717 0.016120628 -0.27845252 0.49591017 -0.35416812 0.11679508 -0.082566254 -0.3687148 -0.6068571 -0.1234238 -0.21692598 -0.36272755 0.5359253 0.20704164 0.035407305 0.35892686 0.7012863 0.6088832 -0.09881153 0.5720451 -0.55785334 0.7958949 -0.52857137 0.6909013 0.38085672 -0.44333145 0.14648634 -0.56134367 0.32010722 0.27972507 0.780935 0.0962469 -0.5292559 0.56977856
214 0.34998268 0.42962918 -1.31253 1.0286433 -0.21439907 -0.5663033 -0.33634356 -0.3751651 0.92058015 0.19637024 0.8048 -0.05782028 0.491863 0.25008067 0.6858812 -0.26235703 0.11932096 -0.49091783 0.23194908 0.30921897 -0.46108103 0.18396865 -0.17934261 0.033209242 -0.5660116 0.48056448 -0.45408022 0.5118556 -0.759723 -0.47507632 0.9838817 0.22300948 -0.9836667 0.7616417 0.19394714 -0.4332905 -0.6847812 0.17651783 -0.61232406 -0.5040874 -0.5855568 -0.1787211 0.1817973 0.4653128 -0.7833552 0.00865288 -0.86317664 -0.4578267 -0.14323582 -0.21721676 -0.063860066 0.96627605 0.19412743 -0.18303008 0.9893181 0.1819114 -1.0975857 -0.87469894 0.54629844 0.6208947 0.3469342 -0.27433446 0.39426544 -0.35443267
95 0.056464657 -0.66955596 -0.21766724 0.44391775 0.4224429 -0.18320829 -0.21318747 -0.3695814 0.59645844 0.13194679 -0.14494024 0.21733145 0.493081 0.5417516 0.3699692 0.17883028 -0.11218218 -0.11193583 0.6296998 -0.5484431 -0.06339084 0.20247433 -0.13938081 0.13214885 0.031895664 -0.5368445 -0.09573013 0.92304873 0.35992917 0.65033096 0.33370602 -0.08689124 0.1449344 -0.09740645 0.58236873 1.0609307 -0.30846137 -0.4922367 -0.3679915 0.6749399 0.2663475 -0.24556144 0.04897471 0.55395 -0.15326814 -0.2246469 0.4357375 -0.13851817 -0.35411444 0.20559141 -0.44556132 0.22421539 0.4936709 0.34300503 0.8172987 -1.2538437 -0.6856263 0.31535095 -0.24722882 -0.40238774 -0.19661337 -0.33556697 -0.3504224 0.18150535
231 -0.65828425 -0.666451 0.041601818 0.16726397 -0.13894865 0.07670252 -0.8442796 -0.46354297 1.2164273 0.5767159 -0.07538303 -0.33665708 -0.49844763 -0.20124394 1.2960472 -0.54544777 0.0621713 -0.46989924 -0.5333429 -0.34754682 -0.6254742 0.46687946 -0.1738017 1.2243366 -0.21720916 0.56047434 0.05870119 0.5577685 -0.7638125 -0.35595796 -0.4587623 -0.09860952 -1.3157904 0.10119538 0.1319416 0.18079287 0.42767817 0.31112722 -0.13846181 0.09093361 0.07252814 -0.7771475 0.6464852 0.4021721 -0.16831253 0.17543103 0.14236489 0.6301842 -0.15508994 -0.16309474 -0.21553974 0.06324614 -0.12659605 -0.80105424 0.30770317 -0.4154106 0.5715096 0.11652144 -0.25225267 -0.059277017 0.380408 0.33302942 -0.5201459 1.1960611
1834 -0.92832696 0.48505858 -0.049753264 0.0016296156 0.635548 -0.60344565 0.00943172 -0.6966809 0.3328911 0.14556418 -0.8719342 -0.23110206 0.11046217 1.061146 0.14459361 -0.385386 0.23801036 -0.46374068 -0.5687282 0.8946295 -0.029766306 0.5532838 0.3519664 -0.033259645 -0.43406585 0.7699332 -0.69820666 1.0971125 -0.2946929 -0.46196833 -0.25354233 0.65644217 0.40464312 0.2316506 -0.966096 0.055735916 0.43531936 -0.3315086 -1.4239593 0.13465656 -0.5294589 -0.29985002 -0.30167225 -0.80355483 -0.1398722 -0.7743349 0.40360305 0.15667267 -0.26816714 -0.0032226774 -0.5075912 0.2787572 -0.25220042 -0.008736119 -0.23253044 -0.16432756 -0.07606154 -0.5469333 -0.117003344 1.373829 0.7748566 0.16880362 0.62818664 0.5517511
376 -0.6734584 -0.36328357 -0.47065133 -0.34772602 1.1610186 0.23725022 -0.9460196 0.40474978 0.3323267 -0.14698568 -0.32231805 0.108117715 0.5712444 -0.6190122 0.19506758 -1.4177316 0.07125414 -0.30052403 -1.1040361 -0.39007258 -0.6542284 0.5229227 -0.09175216 0.33516243 -0.22228506 -1.1062849 0.10515021 0.6322304 0.72527593 -0.029811831 0.3559544 0.14788724 -0.7511271 0.38452166 -0.44933516 0.07890613 0.04756037 -0.23915718 -0.3897295 0.30483112 0.7616816 -0.8632384 0.79566133 -0.14020976 -0.9081727 0.027609076 0.17074661 0.43809828 0.11339151 -0.44346482 0.14934097 -0.6153847 0.54639226 0.33656538 0.9972691 -0.6360329 0.21453175 -0.2928566 -0.24006763 0.0823352 0.09740973 -0.2041126 0.17919512 0.5423481
175 -0.32486755 0.56098706 -0.26569712 0.48897147 -0.25883353 0.41881442 0.8687152 0.07028286 0.09908218 0.50185937 -0.27311894 0.045081694 -0.13072601 -0.8173452 0.21374358 0.22984208 -0.013840866 -0.6249362 0.13206142 -0.05955597 -1.0019943 0.64586437 0.053411197 0.18601115 0.53381646 0.0895758 0.49627396 0.64984083 0.085667685 -0.13414599 -0.07892944 -0.4507189 -0.7048332 -0.0040048775 0.7212381 0.0064167697 -0.6674055 -0.12260829 -0.799441 -0.54233193 -0.36168778 -0.20790476 -0.15453032 -0.813209 -0.9981451 -1.0463076 0.46326143 0.5143939 -0.13234437 -0.23386689 -0.5009276 0.4274055 0.025474278 0.19431628 0.25480193 0.3657616 -0.7529264 -0.63834 -0.48469892 0.17886092 -0.28305036 0.66712075 0.09806651 0.4164227
1015 -0.43340254 0.6415421 0.18432385 0.6350803 0.7970427 -0.4702032 0.14696309 0.26665834 0.2522182 -0.23038693 -0.5844476 0.22389492 -0.2768327 0.7893583 -0.30260426 -0.7891956 -0.11210911 0.4659274 0.8509765 -0.26738358 -0.3408266 -0.052626565 -0.36677328 -0.23277655 0.054776143 -0.051391173 0.14088254 0.45422977 0.18441011 0.58742416 -0.40441895 -0.17838287 -0.30497208 -0.51528066 0.0037373737 0.9012979 1.403897 -0.117662124 -0.80231196 -0.5801711 0.42809507 0.34664667 0.7127742 -0.34053883 -0.4647458 -0.057132725 1.1175265 0.3328946 -0.25681046 -0.50138664 -0.021338979 0.9936621 -0.21428172 0.64813364 0.59540504 0.03933555 0.34194005 0.8857268 -0.22411016 0.41626787 0.048482966 0.53070164 -0.03187901 -0.49922094
2122 -0.68697476 0.3717652 0.7998746 0.34841904 0.46442255 -0.76887923 0.24288858 -0.55049753 0.26830894 0.14376202 -0.096742116 0.41662338 -0.79461265 0.062334064 0.19720928 -0.010872383 0.27602363 0.1476426 -0.6856867 0.2958407 -0.8363528 0.29827747 -0.29344177 -0.04567832 -0.42186052 -0.20848139 0.041859794 0.75700533 0.058574382 -0.0034913148 -0.4689725 -0.032347586 0.15455872 -0.576086 0.17808084 0.39190885 0.29473075 -0.00013429033 -0.24088652 0.68323034 -0.43757856 -0.26883334 0.6134652 0.38832855 -0.2980909 -0.5168716 1.2029628 -0.07707066 0.50545055 -0.25539184 0.15015352 0.62214077 -1.1499871 0.818877 0.37785777 -0.40090775 0.0830179 0.08202355 0.2890839 -0.2712316 -0.6512647 0.39763343 -0.17890431 -0.2757816
2040 -0.58436126 -0.120610066 0.4133987 -0.18777345 -0.04486427 -0.51610154 0.091210105 -0.55135185 0.12096574 0.2395226 -0.27552664 0.26604024 -0.67749673 -0.4639841 0.28661242 -0.10116947 0.4990391 -0.12854472 -0.5145258 -0.34624413 -1.2584866 0.34292778 -0.64843124 -0.62423724 -1.1745467 0.5294916 0.38140136 0.20763181 0.1308574 0.21184406 0.012436944 -0.42582643 -0.21704608 0.6809632 -0.02501541 1.0137796 -0.03470264 -0.07679725 0.24243373 0.6731267 -0.49701777 -0.19582485 0.024817986 0.2941046 -0.2749071 -0.087208614 1.2328408 0.42933956 0.92157304 -0.46820113 0.1858931 1.1267124 -0.89010173 0.49143398 0.34523052 -0.6188769 0.26253888 -0.515157 -0.21457449 -0.16216965 0.099420406 0.20778069 -0.5050206 -0.4781933
704 0.07511478 0.58975047 -0.3760192 -0.21693279 -0.23646475 -0.2558907 0.19562107 -0.31588417 -0.1433781 0.12984093 -0.063889 0.0069507863 -0.13762935 0.017605202 0.38472483 0.1021043 -0.4297021 -0.9236684 0.18835382 0.3878381 -0.28706375 0.3764958 1.0317214 0.33737102 -0.45987746 -0.57775307 0.8092606 -0.65310824 0.32898098 -0.033387177 0.35742772 -0.38375798 -0.46482456 0.23746535 0.19882451 0.36530867 -0.112224415 0.7949299 -0.6086399 -0.12177315 -0.06599768 -0.2776289 0.17881055 0.286123 -0.11613217 -0.62598324 0.43899125 -0.33911306 0.33899814 0.030235875 -0.2018309 0.27291548 0.17733572 -0.06416283 0.9386381 0.03407958 0.042043515 -0.66870064 -0.015565912 -0.5097671 0.7487497 0.11473914 -0.52774686 0.069164
2365 -0.50732785 0.634706 -1.0538634 -0.31512466 -0.33546057 0.05056461 0.56870633 0.19618692 0.01688365 0.27385274 0.5527178 -0.451803 0.40506577 0.063881375 0.63907784 -0.90161085 -0.49480817 -0.1976535 -0.9274308 -0.35497344 -0.23884903 -0.100545555 -0.105989285 -0.39491785 -0.48669738 0.7102727 0.09310777 -0.6933862 -0.24208733 0.5951414 0.123571485 -0.31076932 -1.3909608 -0.763291 0.6075602 0.15065113 -0.17816235 0.027501592 -0.50447553 0.84995973 0.30373266 -0.8615322 -0.47202384 -0.21598585 -0.12599802 0.015647162 0.008922977 0.49829394 -0.38154554 -0.10434194 0.026004985 -0.4188393 -0.7957894 0.27325758 0.57281715 -0.73832387 -0.6070849 -0.86839235 0.07919277 -0.5654071 -0.35346392 0.08155581 0.48038414 0.79717547
591 -0.0926465 -0.22615977 0.118099436 -0.20044531 -0.4272294 0.24713866 0.547366 -0.042932004 0.11503167 0.039940942 0.12675585 -0.45373097 -0.2367661 -0.015690796 0.23109372 -0.3927668 0.20233163 -0.5662906 0.09111367 -0.008448618 0.31666514 0.1368577 -0.9978746 0.1290203 0.44588098 -0.29755515 -0.2876645 0.09226466 0.060606547 -0.082266435 0.23059613 0.26654273 0.13215731 -0.15102886 0.66259676 0.64604294 -0.23424046 -0.123632215 -0.23351078 -0.8242291 -0.102808565 -1.1013048 0.8463269 -0.084681705 -0.15412454 0.62995714 -0.21471064 -0.10232003 -1.0684873 -0.2588419 0.69776946 0.63232076 -0.9062601 -0.5214347 2.10809 -0.75585556 0.5225449 -0.76135576 -0.22828226 0.47941065 0.030812481 -0.06094907 0.085496485 0.32206726
834 -0.03195619 0.5707909 -0.49556878 0.7025996 0.72374856 -0.30901617 1.0513482 -0.6175721 -0.07721736 -0.5511157 1.453742 0.05727514 -0.043105043 0.029940534 -0.78478277 -0.6018893 -0.0814151 0.36359078 0.48510277 -0.21978442 -0.06582959 -0.09592635 -0.32129103 0.5412362 0.41052467 -0.27342093 -0.13645233 0.21572524 -0.30629575 -0.11118103 -0.7429001 0.054953333 -0.64635885 0.04059156 -0.31248298 1.1580057 0.08012881 0.1621652 -0.2764556 0.0834084 0.8649153 -0.50392157 -0.08925634 -0.20814745 -0.5137709 0.36849996 0.17117085 -0.09567322 0.28896472 -0.2428658 -0.36914232 -0.15261504 -0.16113143 -0.6608079 0.41707912 -0.5024334 -0.06112707 -0.5565511 -0.50123197 0.2449712 0.9411786 0.27718392 0.058134962 0.68651444
748 -0.3046314 -0.13297355 -0.46045738 0.24695529 0.7747878 -0.031183213 1.2699102 -0.01218621 0.015405077 -0.4315953 -0.20565781 -0.032680802 -0.50741625 0.05698263 0.47802222 -0.15485479 0.011114369 0.776402 0.82286066 -0.60910314 -0.23464555 0.10434461 -0.6757887 0.0360577 -0.4352856 -1.0723073 0.36706114 -0.31477898 -0.8995083 -0.14735161 0.07512155 -0.09398274 -0.22528012 0.24190369 0.23056266 0.99763083 -0.56589025 -0.47601998 -0.4171392 -0.08128177 0.4167869 -1.2884555 0.029074108 -0.18700066 0.81541157 0.463872 0.52056146 0.04977993 0.47515064 -0.29609993 -0.19158933 0.806369 -0.059455227 0.10143763 0.60627586 0.25669706 -0.39003363 -0.37520906 -0.50268507 0.76234406 0.7240408 -0.1864548 -0.6912947 0.20827712
897 -0.3085883 0.53651625 -0.37324488 -0.05159469 -0.60963416 0.4236449 0.43855378 -0.7532966 -0.0476565 0.74559194 0.9902946 0.52648777 -0.48009098 0.13104288 -0.062975824 -0.0045664757 -0.10481473 0.46279946 0.74344087 0.23518798 -0.053851653 0.45056888 0.046020113 -0.063884504 -0.66804355 -0.007864498 -0.40726864 -0.16338067 0.79730105 0.43630955 0.21166325 0.43812442 -0.54637325 -0.60471064 0.34925434 0.15452838 0.7379732 -0.019093234 -0.83941317 0.20490868 -0.17637078 -0.42557973 0.38012668 0.67828757 0.5387684 -0.38586527 0.23078169 0.32046488 0.24475081 -0.7667277 -0.2785269 0.28156057 -0.4117582 -0.6015893 0.26177374 -0.23024975 -0.54540145 0.35749015 0.15279223 0.43637642 0.29727387 -0.77644014 0.10880585 -0.50205374
735 -0.9185046 0.18402354 -0.5306611 0.88527983 1.1131886 -0.80494094 -0.4919941 -0.45664495 -0.59292996 -0.24484777 -0.41261637 -0.13149239 1.1950941 0.41931108 0.65124077 -0.5859505 -0.3000672 -0.27254835 -0.83986944 0.751411 0.11973485 0.80051917 -0.55290276 0.18752429 0.15375353 -1.0959815 -0.9517732 0.46230513 -1.3900734 -0.9170476 1.0520978 0.7819075 -0.2595008 -0.3997548 0.10181205 -0.06429176 1.0333108 0.67521256 -1.1323664 0.045437302 -1.5384051 -0.73391825 -0.48325798 1.4775949 -0.12137816 0.3545348 0.5211236 1.2515699 -0.94487476 0.26476434 0.6161141 0.39320493 -0.5484221 0.70429754 1.3636695 -0.52818316 0.017904779 -0.77230054 -0.546754 0.9535198 -0.4653839 -0.6449006 0.08348475 -0.1568556
308 -0.47912258 0.8108338 -0.3398279 0.4581665 -0.24699938 -0.41317677 0.091920145 0.7044687 -0.11956997 0.36519003 0.12035519 0.43188456 0.36664572 0.6856483 0.34583622 -0.045894947 -0.16338709 -0.4819755 -0.16661936 0.08854525 -0.8509866 0.1403065 -0.31802908 0.046976943 -0.5571163 0.594981 0.15733334 -0.006759338 0.19994536 0.5911911 -0.58301604 -0.32549524 0.08543221 0.5451045 0.04574995 0.7571966 0.16991095 0.7507964 -0.113337845 -0.42011362 0.29044113 -0.067433015 -0.076239295 0.3158889 -0.36787307 -0.03492687 0.78269935 0.61316264 0.31014 1.268436 1.1036797 -0.15393592 -0.44041765 -0.24919356 0.7481694 0.49086183 0.18250813 -0.12560734 -0.61648923 -0.34943995 -0.426396 0.16923368 0.21787603 0.19159862
2306 -0.69166803 -0.29412845 -0.9714099 0.3991874 -0.03576622 -0.17691737 0.31861073 -0.114118874 -0.033416905 1.0777903 -0.7280017 0.78359795 0.3374381 0.4299639 -0.28284582 -0.82808226 -0.6805557 -0.9340574 0.16154692 -0.24967496 -0.6820658 -0.11308689 0.99065894 -0.22146651 0.1932045 -0.1986028 -0.88795877 -1.3907269 0.41393498 0.1593971 -0.6567946 0.56395364 0.08186762 0.27356297 0.7505937 0.497424 0.4289677 -0.07853961 -0.38421404 0.078052305 0.29116875 0.037391666 0.4883078 0.7134389 -0.8536681 -0.06261316 0.45643792 0.22354174 0.7952577 -0.28428903 0.28060994 0.48470855 -0.27630654 0.114419445 0.70893604 0.31537664 0.022700282 -1.0428312 -0.092269704 -0.102251954 0.59740096 -0.061817016 -0.58562535 -1.2127221
465 -0.7816887 -0.37430468 -0.41878933 0.7399052 -0.05798769 0.09392632 0.45701498 -0.38936976 0.45864043 -0.14522271 0.3277725 1.1547747 0.31424478 0.09647612 0.8843983 -0.20708556 -0.06759904 -0.7469567 -0.41903007 -0.21613212 -0.7245464 0.8033183 -0.3323494 0.016918719 -0.45542774 0.55050087 0.23192282 -0.36514845 0.094014205 0.63079345 -1.1068101 1.3796725 0.38561648 0.020036304 -0.9039219 0.48443627 -0.45867494 0.63091636 -0.31142226 0.10420643 0.3350149 -0.78842515 -0.6599207 -0.44153613 0.087274894 0.34284967 0.021052405 -0.2237494 0.035302754 0.33296767 0.08600735 -0.6819514 0.44806385 -0.2184148 0.73033434 0.20592673 -0.07748904 0.37402412 0.11507976 0.20626166 0.37422892 0.37186795 0.48781496 0.20863126
454 0.4168558 -0.008166283 -0.37518725 0.42963606 0.15089333 -0.56900734 0.15029049 0.10848617 0.018049352 0.2190863 0.8685464 0.2578609 -0.10900726 0.39977756 0.3699219 -0.04364471 -0.46976718 -0.15013999 0.14426799 -0.030415205 -0.34658873 0.353342 0.02144965 -0.7684232 0.1855038 -0.15059374 -0.51394314 0.07414243 0.8140393 0.23743309 0.6575243 0.69746375 -0.19826725 -0.04642052 -0.07788454 0.21882087 0.6290021 0.053886425 -0.60805666 -0.1152098 0.35792658 0.10037623 0.95022553 0.2588134 -0.24394625 -0.08184165 -0.092308655 -0.25184932 -0.50772655 -0.14467604 -0.34089395 -0.6044531 -0.22508357 0.6216527 0.31361738 0.066732116 -1.1151713 -0.30765477 -0.6768728 0.7921163 0.20789406 -0.25427073 0.05131238 0.079097144
645 -0.10516895 -0.16838959 0.087214775 -0.6501402 -0.08482525 -0.5790483 0.74449 -0.14905982 0.18413793 0.23806001 0.09835965 -0.04814239 0.53635746 0.34913284 0.18461238 -0.8329757 -0.26954082 -0.50183314 -0.12243076 0.8289392 0.16466942 -0.23959921 0.20609976 0.08883889 -0.1828296 -0.33425897 -0.20753479 0.57042307 0.18761775 0.6174356 -0.7185091 0.2874796 0.48120713 0.15962505 0.7389426 0.44124648 0.38958874 0.46602753 -0.82005686 0.61867994 0.080756456 -0.19695066 0.48562568 0.10318513 0.14193098 1.0179155 0.20252915 0.30988216 0.08800101 0.1612248 -0.60711426 0.79552615 -0.24552147 0.24019901 0.21398687 -0.016449418 -0.20368056 0.6814478 0.4627443 0.024827097 0.8542915 -0.6102747 0.034771994 -0.17612915
736 -0.4300459 -0.9446137 -0.5277804 -0.010300359 0.4729002 -0.16150816 0.24425843 -0.18176179 0.6717408 0.5403942 -0.2052734 -0.22244889 0.5555793 0.5928718 0.576683 0.04499239 -0.556473 -0.12251629 0.1337859 -0.4135424 0.07832693 0.09088962 -0.15738468 0.1916704 0.25862232 -0.7149339 -0.15471764 0.7655593 0.24145277 0.9700492 -0.14134416 0.46049535 0.13625342 -0.2664481 -0.3614779 0.12475977 -0.13864547 0.076423764 -0.8774355 0.53073955 0.1757069 0.03693727 0.01911431 0.48522317 0.14586957 -0.16643317 1.0568624 -0.41749352 0.37026003 0.38792494 -0.83969015 0.7428925 -0.08145397 0.07103142 0.7176928 -1.2308246 -0.65858966 0.34618524 0.29755297 -0.061812285 0.19741839 -0.19831705 0.045752496 -0.4240501
1655 0.66010475 0.10086397 -0.30936685 -0.2786578 -0.31141317 0.2775344 0.050142087 -0.30152267 0.30508068 1.4457759 0.10895768 0.61845016 0.53285027 0.47187486 0.8163955 -0.43671608 -0.4814036 0.29897377 0.046422545 0.99735564 0.225712 0.50878024 0.5045219 0.42523828 -0.10758862 0.28051046 -0.461378 0.005353129 0.47371987 0.9497517 0.4353591 -0.26272577 -0.35431793 -0.14975928 -0.25791964 0.12819439 0.18092708 0.11687895 -0.10576754 0.4819817 -0.19127932 -0.008710287 -0.0028390193 -0.024043037 -0.19095956 -0.69330764 0.54229087 0.3970098 -0.34427634 -0.34092578 -0.47773075 -0.026618062 -0.703373 0.40570408 1.1206405 0.20006068 -0.031103138 0.15982449 0.32423955 -0.21094167 0.050544634 -0.75251013 -0.49568188 0.7422565
1745 0.41586134 0.64242566 -0.6042322 0.22949296 -0.11312404 -0.101799816 0.4944786 -0.16000053 0.0376499 0.29470605 -0.28589842 -0.6752207 0.39908567 0.2908517 -0.24631271 -0.018013654 -0.31421128 0.038587645 -0.7196698 -0.005463832 -0.22732002 0.41958755 0.03472994 -0.35326612 -0.6259596 0.15974595 -0.571044 0.07725505 0.18100336 -0.2176574 -0.828352 0.17394444 0.15637635 -0.76966125 -0.59098023 0.28471082 -0.04962712 0.21457516 -0.031205174 -0.5356813 -0.17737532 -0.5004899 0.07077258 -0.03155119 0.21520945 0.106823966 1.1713203 -0.6481404 0.5748084 0.10870403 -0.40474436 0.2553605 -0.5084999 0.44471166 0.26710406 0.13234809 -0.33534878 -0.3261482 0.14004749 0.06987659 0.39864102 0.5108107 -0.22309962 0.04098194
2143 -0.4049269 0.8897759 -0.14161734 0.4861584 -0.05351633 -0.21268518 -0.21725886 0.72675157 0.7144754 0.5284651 -0.19803524 0.5377527 0.32152432 0.9133958 -0.31010517 -0.06662272 0.059018776 -0.120767534 -0.9440821 -0.044621892 -0.6184255 0.809146 -0.38119262 -0.45322567 0.6264091 0.5284378 0.014169205 0.32458162 -0.109334104 0.55212396 -0.89213043 -0.021685101 0.15406 0.539128 -0.40412724 0.15688246 -0.3087389 0.86190933 -0.17059906 -0.56233424 -0.025849173 -0.16513458 0.2960477 0.6290156 0.001242812 -0.009525794 0.1740186 0.4112583 0.60242605 0.47564295 0.029080266 0.093573354 -0.022407416 0.5464556 0.3099627 0.38799027 -0.053472716 -0.08790204 -0.3041512 -0.8190565 0.114472516 0.23206612 1.0776422 0.44262034
2592 0.34295875 0.1627882 0.4210671 0.11426657 0.18515195 0.058657605 -0.34947667 0.48095715 0.6648449 -0.07372651 -0.044539023 0.8667986 0.19621749 -0.26624227 0.2365235 0.11735195 0.059408374 0.24324979 -0.4989934 0.030234007 0.3650056 0.5366738 0.04249746 0.31071776 -0.5421131 -0.34969482 -0.120435424 -0.51634526 0.4523587 0.47859606 -0.5373755 0.4060573 -0.42460188 -0.6579287 1.2185342 1.2650565 -0.2617261 0.34652758 -0.7413379 -0.3701165 -0.24906607 -0.12918432 0.16796412 0.5742765 -0.120722525 0.47430304 0.4444941 -0.15150928 -0.41875044 0.097025245 0.4128196 0.42717484 1.1611152 0.76351565 0.3317912 -0.24028774 -0.09349998 -0.15640247 -0.003227471 -0.3984906 0.0760389 -0.52855724 0.3098592 0.028727042
203 -0.39589208 -0.0824777 0.119387485 1.0703378 0.43660942 0.08776607 -0.406513 -0.9921599 0.509947 1.0937977 0.1851048 1.0795199 -0.72960436 0.32483363 0.051377524 -0.45171326 -0.4166725 -1.2380191 -0.15874065 0.21711569 0.53151864 0.69431514 -0.3021546 0.23699518 0.24370275 0.58918494 -0.059774335 -0.70609176 0.032749332 0.22446674 -1.502192 0.1824887 0.03494457 0.016210457 0.29646635 0.12159978 -0.4528022 0.3727469 -0.028870644 -0.41969436 0.8666028 -0.7067898 -0.29358086 0.549379 -0.1683106 0.48740032 0.48576665 0.4514898 -0.42331043 1.2113826 -0.14264373 -1.0383686 -0.44043654 -0.26601484 0.3068537 -0.22909522 -0.14688782 0.26048234 -0.15218778 0.7400736 1.312078 -0.45124224 0.55527526 0.52648413
186 -0.27769268 -0.12546834 0.8050188 1.087797 -0.24064428 0.00044815836 0.6103026 -0.66196287 0.18838851 -0.24413532 -0.15682834 -0.60787165 0.75578403 0.19508211 -0.38456854 -0.3266538 -0.00641146 -0.84761786 0.13749233 -0.22108029 0.21113181 0.41460776 0.022225827 -0.33662748 0.078465596 -0.31857854 0.74358416 0.22077562 0.6258988 0.028086426 0.19501893 0.91644293 0.6441416 0.038263306 0.86286867 0.64145106 -0.29341963 0.3127351 -0.9041824 -0.1895237 -0.3984492 -0.4280534 -0.12977472 0.29341292 -0.01660759 0.31132263 -0.53017235 0.07923768 -0.14073019 0.2171799 -1.0725274 -0.020642271 -0.18245067 0.89204973 0.30249268 0.24669774 0.28840584 0.02321565 -0.37301394 -0.31532785 0.28210965 -0.9146996 0.97265935 0.2688261
701 0.31315544 0.5043997 -0.22566839 0.59655076 0.14161354 -0.80762255 -0.043087658 -0.8032758 0.42079765 -0.43000224 -0.036491223 -0.2862543 0.9840268 0.9839217 0.31938025 0.66633093 -0.019100547 0.22060077 -0.9066849 -0.62288105 -0.03784629 0.13839063 -0.30961365 0.15055716 -0.0521903 -0.61753005 0.22219811 1.0414 0.07714755 0.19189608 -0.09183662 0.7153085 0.53374356 -0.09040043 0.5191107 0.8279636 -0.09171392 -0.42846885 -0.25145555 -0.06931466 0.13539386 -0.5876073 0.2745586 0.24372971 0.40448135 0.4512946 -0.43528333 0.7478489 -0.41850376 0.21025336 -0.864014 -0.09843047 -0.57200044 -0.019282773 0.99157685 0.7022593 0.115692995 -0.42821804 -0.1370245 0.30595335 0.5052056 -0.21262471 0.21611993 0.5662431
2682 0.833956 -0.11206864 -0.14908637 -0.4061399 0.008233257 -0.4658258 0.22324568 -0.7779564 0.5910074 0.24946804 0.05615495 -0.13708273 0.036196522 0.11081496 0.35099745 -0.25447717 -0.8918731 0.4574191 0.20483635 -0.089379 -1.0393989 0.0966949 -0.069067396 0.8423757 -0.44312185 -0.029383611 0.14317589 -0.34673598 0.4228308 -0.7275656 -0.67344636 0.70021313 -0.5259891 0.6144176 -0.12908445 0.24100734 -0.08783089 0.41444695 -0.5646055 0.07487274 -0.29617524 -0.7823295 0.09304507 0.14217725 -0.08970619 -0.34255964 -0.8151342 0.115670875 -0.5142737 0.11081341 -0.52533436 -0.5597445 0.49257377 0.7774278 -0.023463542 0.15562092 -0.17849809 -0.2781243 -0.5249934 -0.15820208 0.3637698 -0.07489605 -0.536007 -0.48868415
2182 -0.1916413 0.48965833 0.27957588 -0.44038194 -0.4327976 -0.29172832 0.19699368 0.6981474 0.3594762 -0.16772853 0.23588288 -0.27048498 0.74497586 0.29453608 1.183047 -0.08573763 -0.05539364 0.59175986 0.54437065 0.35505822 0.4508733 0.7239196 -0.38104102 0.37687162 0.4870883 -0.39841118 -0.22020426 -0.42488125 0.34519193 -0.10839731 -0.5979264 0.018410452 -1.0331208 -0.5364104 0.3177857 -0.1417486 -0.566843 -0.17735666 -0.34290197 -0.17386122 0.6645283 -0.800345 0.59458244 0.5768124 -0.4081893 -0.067655995 0.26795784 -0.13705833 -0.6604711 0.44055957 -1.409705 0.41541055 0.8178621 0.6315337 0.65644974 0.45141575 0.24935444 -0.33405 -0.15490384 -0.09541598 -0.12883815 0.44925785 0.18230405 -0.13765606
973 -0.6264629 -0.43064705 0.2771691 0.4231742 -0.11407497 0.07496059 -0.8567947 -0.6416312 1.2649387 -0.07573695 0.58904344 -0.017299568 -0.0020500754 0.46300882 0.16443878 -0.32246312 0.7053033 -0.7727045 0.32639065 -0.29941997 -0.17634158 -0.35047114 -0.29951695 -0.01327632 -0.43723646 -0.25409767 -0.32918593 0.38060442 -0.16670111 -0.45267028 -0.80515194 0.370384 -0.8887093 0.12641393 -0.10800231 0.1318754 0.09123841 0.27365938 -1.1489861 0.5174876 -0.46451625 -1.0035632 0.75200564 -0.66495156 0.6744887 0.20172659 -0.19883582 0.62571436 -0.011963894 -1.0217776 -1.09802 0.14856002 -0.508505 -0.5490529 0.6011104 0.24722554 0.3327861 0.03592841 -0.05313437 0.24071231 0.18117574 0.97202414 -0.8648068 0.28655708
1388 -0.37453693 -0.6780807 -0.0061919903 0.86551726 0.6371849 -0.29630533 0.20910333 -0.29526502 0.5656548 0.4119181 0.25334492 0.54184943 0.37070748 0.5707014 0.47927886 0.15669017 0.39107916 0.054310456 0.4728459 -0.23435044 -0.27924612 -0.056215607 -0.263314 0.10380133 0.6816559 0.5142457 0.17431581 0.23690107 -0.1741622 1.2170283 0.74317014 0.52096426 0.02956061 0.0012680196 -0.16652602 0.8079972 -0.035585046 -0.664294 -0.13603877 -0.09700901 -0.098025 -0.48461846 0.3755825 -0.2753231 -0.1523613 0.11595837 0.23735659 0.074707866 0.599803 -0.18523483 -0.6085562 0.063186154 -0.41351062 0.34053454 0.92348725 -0.5264391 -0.5313499 0.30523932 -0.5979974 -0.64800686 -0.29975855 0.32376406 -1.1315414 -0.19332336
1416 0.5981111 -0.21560687 -0.45599616 0.28891551 0.4154067 -0.6375849 0.70325214 0.24032818 -0.3429176 1.3975075 -0.46114287 0.051828023 0.086467415 0.3593006 0.8109653 0.08969236 -0.43134552 -0.17594166 0.553564 0.2183554 -0.11008768 -0.32064602 0.36709613 0.06591669 -0.35563534 -0.24362557 0.6612256 0.064514756 -0.12502722 0.20117979 0.8867193 -0.4287819 0.08237375 0.216235 0.58516663 0.022523401 0.040208213 0.21164942 -1.3694055 -0.61554515 0.33531836 -0.5379241 0.04212163 -0.12428855 -0.5144575 -0.082492135 -0.122471124 0.16657175 0.12230553 0.10517221 -1.119452 -0.07666091 -0.3934411 0.7120325 0.1812125 0.3370033 -0.02822095 -0.35790297 0.01420511 -0.9679012 -0.32504407 -0.45953846 -0.16548532 -0.54590595
2357 0.30930343 -0.2822155 -0.1845907 0.13965172 -0.1276622 -0.09098465 0.5716209 -0.89846784 0.6816648 1.4331368 -0.35347086 0.62248737 -0.485397 -0.05015694 0.3908782 -0.41591123 -0.43543342 0.26507849 0.4651108 0.6396591 -0.03248851 -0.5676837 0.9093347 -0.40159598 0.19507325 0.07433735 0.024366323 0.3862972 0.0792476 0.12024015 0.27086246 -0.75275767 0.2779659 0.2956644 0.18784636 1.1465105 0.34192756 0.69160175 -1.0544051 -0.006847084 0.42114717 -0.7069869 -0.6380431 -0.09923693 -0.31473666 -0.18702185 -0.32509574 -0.35685346 -0.088414 0.013808148 -0.7408045 0.5825224 -0.5363227 -0.06307649 0.015297321 -0.42444345 -0.27249914 -0.3933376 0.21087481 -0.79458827 -0.026642056 0.2847764 0.24447003 0.12761018
1598 0.17807452 0.04792007 -0.1316952 -0.16345413 0.19252726 0.03987744 -0.038400188 -0.62328064 0.4599641 0.66755956 -1.1178802 0.21647085 -0.3293879 0.57488877 0.22871608 -0.71130127 0.453677 0.27096945 -0.30595374 -0.51675993 -0.20639044 0.9515052 -0.6094618 0.72365093 0.089883484 -0.22618742 -0.13950476 -0.4909661 0.24750507 -0.7253231 -0.011859086 0.4793973 -0.6456756 0.014145178 -0.12935483 0.13094817 0.15042064 -0.46671122 -0.4130804 -0.588512 -0.444994 -0.2013007 -0.010718234 0.0054409388 0.24623382 0.29998115 0.26705784 -0.11973638 -0.84017926 -0.1034498 -0.41002297 -0.0058944374 -0.16488676 0.3494532 -0.24855609 -0.44069374 -0.062717676 0.28370103 -0.80946094 -0.10619363 0.95816016 -0.42535463 -0.3521031 -0.89686143
541 0.5831934 -0.05764985 -0.13471621 0.54749066 0.09346152 0.032466028 0.93952835 -1.3110745 0.464123 0.53660876 -0.3265915 0.44819656 -0.54991436 -0.91230327 -0.1557187 0.10645394 -0.0011923845 0.24292988 -0.38232136 0.16080223 -0.48011926 -0.026064431 -0.037334017 -0.04143614 -0.11156982 0.39851117 -0.04674655 -0.07131344 0.53553 0.0081137605 -0.4835581 -0.2372611 -0.15445127 -0.164837 0.2901971 -0.123437695 0.7228204 -0.4260655 -1.1927971 -0.74089086 -0.18833418 -0.37674278 0.04767466 -0.3629412 -0.49308807 -0.18507525 0.527693 -0.36049804 0.10778932 0.5889798 -0.59045166 1.1772934 -0.4573984 -0.15041004 0.381286 0.2613496 0.05219894 0.55722916 -0.2701261 -0.2092245 -0.655692 0.3342946 -0.08555847 0.42546195
1837 -0.674332 0.517602 -0.12014574 -0.5297513 0.21044034 -0.046746697 0.010422722 -0.27505785 -0.22111878 0.5475641 0.37216526 -0.76271087 -0.040909212 0.07405305 0.3376289 -1.2183323 -0.45456836 -0.20026717 -0.6312784 -0.3160054 0.0021450822 -0.15915585 -0.135206 -1.1103277 -0.86565655 0.10285619 -0.0068928213 -0.9594792 -0.5171034 0.92640746 -0.25679338 -0.41204306 -1.103997 -0.727745 0.3526021 -0.127544 -0.005487872 0.6490638 -0.3193072 0.8958683 0.3735922 -1.9682378 -1.1992337 0.5408286 -0.32111314 -0.42955253 -0.50342107 0.45948607 -0.27175802 0.5015037 -0.1226704 0.3978925 -0.9876352 0.6086349 0.21969871 -0.7566795 -0.1796882 -0.58699125 -0.7612767 -0.124102466 -0.5485757 0.054670118 0.52034026 0.39551103
1743 0.064588845 0.50234216 -0.38528085 0.016316472 -0.2548405 -0.16732675 -0.23613337 -0.5517497 -0.24442376 -0.3269767 0.13743144 -0.137216 0.42416555 -0.15986699 0.11904434 0.046139553 0.562934 -0.81115186 -0.3625204 0.4415637 -0.06589285 0.13196059 0.70306337 0.3243977 -0.4798649 -0.437145 0.6252248 -0.34827182 0.44004777 0.01545025 0.40566775 0.0069467127 -0.62293464 -0.08085403 0.033791747 0.2903898 0.44320738 0.6988599 -0.20443113 -0.2190427 0.3683408 -0.53275156 -0.16132568 0.39461568 -0.051589396 -0.42130953 0.68306464 -0.14747007 0.28456852 -0.4489629 -0.5418016 0.53176075 0.23389232 0.2568421 0.2858632 -0.12504156 -0.19254611 -0.52537495 0.55027664 -0.15034264 1.1951966 -0.224796 -0.19768965 -0.10286638
102 -0.1064406 0.23201284 0.059241954 -0.0044988445 0.22778748 0.03330123 -0.15773398 0.7069262 0.048857253 -0.1999932 0.6102113 -0.31281766 -1.0348517 -0.31540403 0.4687409 -0.052283783 -0.45829493 -0.22557484 -0.4855824 0.5981768 -0.7390439 0.9765817 -0.049892988 -0.79981935 -0.48696995 -0.24714 -0.048337515 -0.49617186 -0.64425075 0.7815502 -0.3250208 -0.13638249 0.460826 0.24118881 0.619692 0.73036736 -0.6697804 -0.5953254 -0.6948648 -0.39575335 -0.11248369 0.14234509 -0.13885978 0.6859598 0.24901612 0.3628932 -0.1480313 -0.1356486 -0.19519924 -0.30346382 -0.24786572 0.42408904 -0.7997438 -0.099536955 0.7889837 -0.011507704 -0.59661597 0.039685734 -0.75156295 0.38447577 -0.041441128 -0.32958907 0.11070414 -0.11445046
545 0.22580683 0.37448657 -0.0415909 -1.2469797 0.118131176 0.09843806 -0.44419545 -0.7074723 0.6277087 0.102057554 -0.37959835 -0.20114234 -0.17473121 0.37049463 0.9403114 0.1313257 -0.4629182 0.6033473 -0.36955574 -0.03600536 -0.18086943 0.33478653 -0.70723546 -0.39383537 0.15529284 -0.003566101 0.32761273 -0.5687373 -0.3206784 -0.21033071 -0.569081 0.91833967 0.10595407 0.6370209 -0.045167807 -0.10320251 0.52789384 0.38410532 -0.79493713 -0.19102322 0.35621002 -1.1456418 -0.004453505 0.20144914 -0.61744434 0.5795446 0.11874848 0.3772808 0.22082055 -0.20034927 0.030547878 -0.15950416 -0.052516464 -0.11652207 0.5563651 0.12779017 0.4340364 -0.50778943 -0.6079388 0.18280803 -0.20320307 0.04444518 -0.06898625 -0.20261237
1249 0.60442865 0.57923496 -0.3652247 0.09550602 0.62223953 -0.0069284686 -0.023518024 -0.1277996 -0.43267837 0.44577622 0.11193244 0.049048897 -0.029687295 0.1826726 0.33179012 0.20125797 -0.80689013 -0.29458517 -0.38485044 0.273597 -0.13213351 0.40456143 0.7795883 0.037764635 0.11772432 0.15434967 1.0132285 -0.21136121 0.32442874 0.5347351 0.31874883 -0.09923556 -0.62337255 0.03108104 0.39938578 0.3970915 0.22363497 -0.26503113 -0.5044463 -0.53914535 -0.30888578 -0.4241876 0.8714818 -0.033648774 -0.1946577 0.0031520398 0.07830006 -0.02639253 0.55283636 0.31276047 -0.12953632 0.6430811 0.5133838 0.01226539 0.6084601 -0.25383443 0.1421446 -1.3888482 0.18941757 -0.8150142 0.021293381 0.34129477 -0.8117297 0.63784313
