2708 64
1358 0.3287428 0.18242477 -0.6687605 0.37313887 0.2249212 -0.6035862 0.022776404 0.16679172 0.1386939 0.05547211 -0.06611474 0.15389736 -0.043332018 -0.23923717 -0.18948123 -0.43649644 0.12126743 -0.25006902 -0.111323945 0.062205154 0.6210358 0.12204688 0.038639568 0.08271591 -0.27366588 -0.24919406 -0.0040971707 0.16217837 0.47386178 0.18949018 0.08882904 -0.0059162625 -0.0130348075 0.0030025374 0.20576587 0.25743183 0.31497738 0.21132393 0.07669544 0.23759086 0.20757061 -0.14671366 -0.09515948 0.5900916 -0.25770473 0.08585266 0.11326736 -0.018428788 -0.20565428 -0.1306144 -0.5699511 -0.03162584 0.4038422 -0.046548154 -0.0023810351 -0.3751892 -0.4829307 0.38915712 0.015226842 -0.41262165 0.012177694 -0.1187732 0.1440108 0.3698733
1701 -0.4282383 0.01421652 -0.2974741 0.36513677 0.44531187 -0.19433646 -0.14931874 -0.45385998 -0.370632 -0.040180318 0.5460744 0.012439095 -0.18145065 -0.24361235 -0.2000637 0.18961121 0.0657531 -0.2752666 -0.25706306 0.22693664 0.10870261 0.44790044 -0.3841401 -0.45673814 -0.37784892 -0.09358315 -0.5327026 -0.27803224 0.26673895 0.5129325 0.16225834 0.33065173 -0.09537575 -0.17998703 -0.012757836 0.032017644 -0.50999033 0.30442265 0.58558726 -0.3147855 0.23246029 -0.16612001 -0.10749484 0.52543896 0.2806232 -0.6130053 0.718889 -0.46172428 0.15191492 -0.7621929 -0.36121985 0.2613848 -0.38618323 -0.36426687 -0.42863354 0.41628143 -0.25826147 -0.54461384 -0.117219694 0.0634129 0.2862816 -0.018727513 -0.35674828 0.37178144
306 0.046609186 0.15158445 -0.4051852 0.30760786 0.14774811 0.30491525 -0.28631112 0.01500144 0.06725768 0.1542122 -0.2189242 -0.556979 -0.23746517 -0.13013637 -0.2898434 -0.17401867 0.073459774 -0.093759626 -0.3980999 -0.25575972 -0.034378324 0.040636238 0.20576328 0.41128173 -0.61502165 -0.4514172 0.76262313 -0.11081979 0.103941776 0.67409486 -0.30374405 0.23668566 -0.0050091273 -0.06580878 0.14309107 0.51758444 -0.4081085 -0.34308207 0.5860574 -0.42607778 0.06261887 -0.1782746 -0.32618824 0.6616366 0.24464695 -0.31167182 0.39998797 0.18089232 0.17099701 -0.19305162 0.18552291 0.41668707 0.30537465 -0.04134492 -0.7850823 -0.1766925 -0.2576273 -0.1666629 -0.71905255 0.22002144 -0.09681755 0.26719475 0.035042446 0.09143314
1986 -0.13733289 0.36220196 -0.5210086 0.004216301 0.30283362 -0.1223688 0.16598953 -0.008387724 0.017825596 -0.12911436 -0.25991336 -0.020606998 0.3152369 -0.1640314 -0.24055324 -0.4150254 0.38829982 -0.24541998 0.111430846 -0.32763788 -0.39278528 -0.08086328 -0.177076 0.059401907 -0.15286247 -0.025623959 -0.58509696 -0.20231749 0.209835 0.50395083 0.23630004 -0.29507434 -0.15655841 -0.4186654 0.02761585 0.3415625 -0.7740178 0.34233955 0.30263296 -0.43582135 0.11938707 -0.4069337 -0.15113378 0.21687882 -0.2695648 0.1889626 0.47385368 -0.45214704 0.24931379 -0.43279147 0.17333706 0.36608973 0.14568299 0.23221445 -0.36963373 0.27101085 -0.4385512 -0.38217387 0.20397902 -0.20860244 0.9730472 -0.14645582 -0.28589085 0.37105715
1810 0.5888671 -0.14857188 -0.116585255 0.2544669 0.08753127 0.3093072 -0.0068057617 -0.41637418 0.2893326 1.0475262 0.14398478 -0.40523478 0.1994008 -0.41906103 -0.55077124 -0.21404757 0.44334975 -0.407669 -0.09859648 0.45859972 0.067942195 0.002785329 -0.25383985 -0.41385543 -0.27224633 -0.2485684 0.04779818 -0.18319859 -0.25748786 0.4293257 -0.007485769 -0.07135656 -0.14971529 -0.5540493 -0.7369676 0.115463495 0.04921692 -0.10051772 0.73117644 -0.12653702 0.42143926 -0.085597776 -0.24624707 0.31373417 -0.1329342 0.36516637 0.33670622 -0.35050124 -0.3166096 -0.556092 -0.23029986 0.5214102 -6.936135e-05 0.59675294 -0.23333322 0.6646006 0.15163721 -0.117464885 0.31866005 0.2563729 0.025657391 -0.18158501 -0.75967526 0.14288878
2034 -0.15093902 0.44644952 0.10535747 0.24780048 -0.041300755 0.4606078 -0.19800572 -0.32119453 0.02016024 0.0011888364 0.53150916 0.23298422 0.1485783 0.021662975 -0.57128656 0.28638768 0.27783147 0.51950985 0.15600093 0.06471462 0.56964016 0.38302943 0.1274114 0.6264567 -0.022249633 -0.10092263 0.33711514 -0.52034736 -0.39552084 0.4645464 0.40767047 0.16078047 -0.35684687 -0.33235636 -0.05181834 1.0468779 0.48092964 -0.09933647 0.23089273 -0.16966958 0.3941805 -0.52791137 -0.35944742 0.19696596 -0.37208474 0.04508605 0.1884478 -0.4408692 -0.08400181 -0.33634526 -0.35718912 0.12635337 0.38185135 0.21965514 -0.033594716 0.43510893 -0.053791437 -0.5275557 0.080379725 0.55215454 0.7237811 0.15235776 -0.14913967 0.16001488
1623 0.07485669 -0.120834745 -0.20773003 0.31938094 0.024616485 0.23592632 0.1281073 0.36845574 0.112869866 0.1556134 0.031401843 -0.16454965 -0.2802616 -0.3997967 -0.55063343 0.11584224 -0.3762519 0.078176185 -0.03881253 -0.597534 -0.15949155 -0.31579497 0.4666629 0.1347606 -0.639395 -0.35721287 0.6211384 -0.050634824 0.042030156 0.5831286 -0.3156225 0.5526438 -0.38719264 -0.2537256 0.16386054 0.47318697 -0.5630425 -0.450212 0.4428379 0.013158264 -0.0016284989 -0.07963951 0.21068022 0.7664198 0.5780528 -0.25688374 0.6227774 0.2745059 -0.07218676 -0.35203546 -0.0478428 0.51899105 0.50299776 0.26368454 -0.69246435 -0.48405978 -0.5241143 0.01568486 -0.3528696 0.7153001 -0.1395971 0.55196196 -0.36093682 0.25238323
88 0.20800263 0.09987065 -0.95816165 0.58696854 -0.66506094 -0.12983942 -0.093118064 -0.1946847 -0.1715207 -0.30818224 -0.12217042 -0.1852232 0.34217158 0.30840814 0.44097623 -0.09253544 0.48322415 0.3779703 -0.104280636 -0.3394982 0.2342464 0.7222807 -0.22893314 0.22761407 0.020072043 -0.2052794 -0.16736303 0.061358586 0.3999998 0.7150809 0.33137965 -0.13969947 -0.34919256 0.0061701867 -0.21440433 0.30152 0.0006683272 -0.44004032 0.4536949 0.26546133 0.020499505 0.107237116 -0.093155116 0.01437048 -0.22003654 -0.7293834 -0.39841565 -0.49961576 -0.6013696 0.020650994 -0.10324722 -0.016591376 0.71495825 0.4447304 0.4198083 0.19099869 -0.54064137 0.30701628 -0.2297922 0.14027971 0.22204725 -0.008321901 -0.58000016 0.024564685
598 -0.25461444 0.118482254 -0.43124387 0.70147115 0.60326684 -0.3008373 -0.15809698 -0.37792638 0.0001474838 0.13209976 0.2875978 0.030097248 -0.038911656 -0.34884363 -0.31394374 -0.35210416 0.4944789 -0.3682656 0.020491678 0.5101416 -0.0003226988 0.28760424 -0.4644135 -0.78360885 -0.2245099 -0.18803285 -0.11759308 -0.465022 0.079411104 1.1164842 -0.42192683 0.4053039 -0.060879994 -0.5249462 0.5543173 -0.18783553 -0.28376734 0.013313939 0.17341258 -0.21258807 0.3886324 -0.09582857 -0.20342006 -0.23758878 0.051770534 0.006734208 0.5074559 -0.40205455 0.6959324 -1.0837185 0.062486984 0.12708046 -0.2725673 0.06552831 -0.13162002 0.7482821 -0.08652508 0.10612381 -0.0402582 -0.019354202 0.32978177 0.062109858 -0.3929278 0.41081244
1013 -0.20019639 0.121139124 0.15061536 0.82134163 -0.6942027 -0.3176716 -0.15023814 -0.5314601 -0.062058203 -0.47070476 -0.014025043 -0.8414288 -0.039387695 0.51854587 -0.073414095 -0.039305568 -0.16758867 0.23521179 -0.5016481 -0.18968137 -0.063174605 0.6294904 0.422411 -0.08960178 -0.2530255 -0.17037064 -0.43776992 -0.2626424 -0.15132111 0.4519449 0.11569851 -0.32186815 0.35249102 -0.5049896 -0.025684047 -0.48962396 -0.27059382 0.20996414 0.19423896 0.027628537 -0.38423768 0.31205365 0.27553365 0.54632246 -0.16056468 0.0041586165 0.589849 -0.35351104 -0.469329 -0.12029373 -0.1989354 -0.026292639 0.40978417 -0.050978072 -0.2927719 -0.19776905 -0.06306365 0.42145655 -0.49090883 0.13883753 0.08812283 -0.059428982 -0.23553382 0.216183
1914 0.11323712 0.8450835 0.28835422 0.8980159 -0.4306021 0.24084935 -0.03308689 0.09294385 0.4337065 0.06391468 0.18314213 -0.23873216 -0.07789734 -0.35298133 -0.64044356 0.48637357 0.23541197 0.7570011 -0.3545963 0.46855 -0.113140084 0.18766141 0.6393473 -0.01971919 -0.29158297 -0.5349725 -0.3225122 -0.39975807 0.21123064 -0.083877474 0.75209016 -0.64558697 -0.49123722 0.14968115 0.42490327 -0.65671724 -0.41568652 -0.15387934 0.32186642 -0.06478772 0.17226212 0.06114343 0.74947125 0.8139093 -0.35595572 -0.35668993 0.5031569 -0.06669319 0.13591014 -0.31230262 0.06330005 -0.45719868 0.8108764 -0.21833013 0.08665246 0.27506417 0.48501077 0.54417354 -0.36712736 -0.26547623 -0.26406223 0.46190542 -0.40764543 0.55674624
109 -0.40956613 0.08206904 -0.20104243 0.3718548 -0.11142373 0.01929715 -0.370529 -0.22303656 -0.20909709 0.06716892 0.12610881 -0.27845705 -0.013267632 -0.20015645 -0.27483714 0.2515757 -0.38857737 -0.068318196 -0.31548554 -0.18305825 -0.10548498 0.18241166 0.26388857 -0.1850996 -0.43326735 -0.90140605 0.42842144 -0.07574993 0.04130615 0.4026666 -0.65599126 0.6608926 -0.36955145 -0.12673548 -0.21289913 0.14442603 -0.3045539 0.26640704 0.6094577 0.087871835 0.043467883 -0.3297797 0.2610801 0.50435126 0.25316894 -0.24441507 0.7362756 0.38507953 0.25932276 -0.20972368 -0.19769195 0.36581257 -0.04852123 0.22319743 -0.05223772 -0.1408734 -0.473867 0.2648439 -0.33435622 0.36344254 0.09473409 -0.02266512 0.07606478 0.7689586
2045 -0.08417272 -0.10473829 -0.32453233 0.6227141 -0.15393591 0.103482485 -0.28597957 0.039124392 -0.34398162 0.3496166 0.050495476 -0.17127347 -0.21738689 0.08428496 -0.6237812 0.11784915 -0.33565888 -0.40962684 -0.40039387 -0.12761144 -0.1105605 0.48967698 0.030488512 -0.09129985 -0.34605366 -0.46917066 0.2171315 0.22192341 -0.19600421 1.0372739 -0.4800117 0.13708968 -0.10798719 -0.16292393 -0.057217337 0.29617056 -0.61399263 0.30300084 0.22699529 -0.25013828 0.017801167 -0.1639662 0.020178596 1.0062505 0.08071675 -0.29302537 0.4648261 -0.2898762 0.3604938 -0.39916608 -0.12944716 0.08887649 0.06416278 -0.24668795 -0.6967362 -0.04516792 -0.52077174 -0.020044023 -0.4294434 0.25702035 0.1373205 -0.10743664 -0.012105655 0.27281857
733 0.46498406 0.60372835 -0.08425812 0.20110321 0.3370419 0.032370985 0.34936532 -0.3203178 0.17449735 0.47496462 -0.37915444 -0.52743316 0.19993576 -0.20942235 -0.3816913 -0.5017881 0.13288198 0.43664485 -0.45974508 0.16149484 0.07319551 0.11342034 0.0723149 0.041459154 0.028599542 0.33372802 -1.0278099 -0.260004 -0.5129162 0.55170304 0.46347913 0.7146006 0.13696183 0.2476549 -0.5369444 0.3166923 0.06614422 0.2740121 0.8803074 0.1865014 0.27046072 -0.25792304 0.24846552 0.15148593 -0.3682979 -0.13854796 0.66178185 0.18268852 -0.66139 0.4183344 -0.012895991 0.7200912 0.49731693 0.49413377 0.15200819 1.0380875 -0.40550765 -0.20298883 -0.49770787 0.22388603 0.46314827 0.14868513 -0.17916451 -0.15277813
1072 0.17128384 0.058876652 -0.92817175 0.30790463 0.14251165 -0.4868592 -0.14224568 -0.0040466874 0.3175245 -0.40830076 0.21732454 -0.0704175 -0.307943 -0.31932893 0.1533949 -0.14910273 0.48074862 -0.007670828 -0.38481638 -0.055883378 0.25538498 -0.1136637 0.1858567 -0.047797214 -0.446855 -0.7604127 0.73644376 0.1645086 -0.26038897 0.082501344 -0.06440059 0.124474674 0.254287 0.07289877 0.3951004 -0.08098671 -0.0013288949 -0.048599746 0.59254754 -0.3887458 0.10439125 -0.4766292 -0.39067367 0.33698505 0.15499076 -0.146642 0.41558474 -0.021945436 0.28784168 -0.2628911 0.24035561 0.4263721 0.58099574 -0.003003069 -0.4276143 -0.09748402 0.13847911 0.050137725 -0.45835334 -0.0015614628 0.036755 0.0072872913 0.5103778 0.23358382
1542 -0.5165248 -0.37089527 -0.11211206 -0.29468182 0.15156001 -0.8336324 -0.2990207 -0.4890535 -0.008552143 0.48789552 0.5472144 -0.06391303 -0.11854867 -0.45690084 -0.34653655 -0.5014308 0.70708704 -0.1887875 0.531182 0.9726684 -0.2852999 0.71654046 -0.27889544 0.021503227 -1.3900204 1.0676342 -0.7778994 0.11456667 -0.49859285 0.13399714 -0.27380836 0.3677816 0.1284621 -0.07561858 0.7851542 0.37455794 -0.3646166 0.28485262 0.29736435 -0.23173712 0.22640637 0.12309786 0.8630683 0.23520057 0.560683 -0.62823135 0.35601747 -0.06520061 0.6327748 -0.17445663 -0.29207614 0.8248992 0.8509623 0.98633903 -0.2957235 0.11841071 -0.43308267 0.019444523 0.014470036 0.19989814 -0.044705015 -0.6312615 -0.49611238 0.4172693
1224 0.10428642 0.2967701 0.1836743 0.97709984 0.50147235 0.6532829 -0.20891276 -0.035213634 0.39484158 -0.06902547 0.054925803 -0.017744077 0.28263038 -0.39287043 0.36078134 -0.31236857 0.3683329 0.96566904 -0.10209202 -0.34932694 -0.21294351 0.2807176 0.31096986 -0.33448368 -0.5953988 -0.08130914 0.17879649 0.26305455 -0.0032319059 0.47953725 -0.1843903 -0.24315086 -0.3816054 0.10412652 0.03404743 -0.5459148 -0.40757897 0.11675914 0.28330603 -0.10709039 -0.09030168 0.027450612 0.38052577 0.48873216 -0.7690336 -0.51272815 0.3619107 -0.5044499 -0.69931155 -0.70323914 0.011415153 -0.3420002 0.42053628 0.5351661 0.51942986 -0.69771385 0.010677363 0.17235048 -0.017508702 -0.19254424 0.3926976 0.44321126 -0.36294013 -0.14287817
1441 -0.08984742 1.6010755 -0.43748674 0.44013378 0.39422488 0.11525393 0.10823068 -0.4746331 -0.5300485 -0.7275932 -0.1497983 -0.3788619 0.27493286 -0.06721289 -0.24192129 0.3861173 0.43297574 -0.09657181 -0.9041034 0.88390964 0.04570133 -0.00071490725 -0.19885583 0.6229506 -0.40445185 0.2955346 0.5923975 -0.01915585 0.52995986 0.8020997 -0.4879654 -0.3215094 -0.11369666 -0.092922494 0.3792394 -0.26886058 -0.9623105 -0.47892913 -0.08832212 0.10323419 0.99569625 -0.2950521 0.7898418 -0.5264978 -0.5245516 0.17880225 0.008123996 0.5748609 -0.56159437 -0.9354498 -0.09648527 -0.075920485 1.355827 0.69375306 0.008968248 -0.46770042 0.86483055 -0.34159353 0.43222085 0.38891044 -0.71709883 0.19784258 0.098652914 0.29566604
1169 0.41039297 0.33864447 -0.32243687 0.20221755 0.17572506 -0.20296946 -0.08205135 -0.30499116 0.14658654 0.26220384 0.10846969 0.026415518 0.18799742 -0.8298317 -0.19537072 -0.80059767 0.5886818 -0.15060894 -0.21329664 0.12581272 0.8239609 -0.025036244 -0.05447368 -0.057171352 -0.15939745 -0.14610153 0.290145 -0.39361584 0.48536003 0.47218806 0.41065642 -0.38364515 -0.03239333 0.19856426 0.6928382 0.6470524 0.33091953 0.3704222 -0.23782904 0.20962717 -0.028224543 -0.1949698 0.0024517542 0.43601477 -1.1545571 0.42747042 0.27610573 0.77264726 -0.56426996 -0.38747147 -0.78688604 -0.25467372 0.37833038 0.07640587 0.19792615 -0.20717943 -0.9182376 0.71846825 -0.5697345 -0.22914183 -0.34969056 -0.26005623 0.081954814 0.45496848
1042 -0.06327739 1.5239089 0.26559743 0.5985549 0.65126103 0.21974576 0.010744857 -0.13307585 -0.16396172 0.25592908 -0.24546708 -0.31832874 -0.7244605 -0.6766553 -0.073682666 -0.24521182 -0.5989547 0.22733751 0.045521244 -0.8653517 -0.4311072 0.5729212 0.14703532 0.49177724 -0.9584118 -0.45345315 0.0807194 0.14125578 0.30235943 -0.25331065 -0.17640457 -0.35328346 0.16625763 -0.65050805 0.21725675 0.23274182 0.18820578 -0.19371039 0.009645674 0.1596853 -0.73802614 -0.036858443 0.27941886 -0.35899273 -0.056383014 0.036425132 0.84143525 -0.57418877 0.67044014 -0.07991534 -0.6817808 -0.6481283 0.44750813 0.6589906 0.63590664 0.08155444 -0.44507542 -0.49440792 -0.27097374 0.4872068 -0.666661 0.18096045 -1.0040352 -0.53761977
415 0.51922816 -0.10139572 -0.67038894 0.62839466 -0.7609115 -0.62084085 0.16350451 -0.38911587 -0.62595266 -0.023973504 0.0030888177 -0.27708438 0.2294762 0.3542256 0.038026936 -0.2805675 0.11085861 0.2682187 -0.16473146 -0.47844893 -0.006096896 0.46892184 0.12320499 0.27022606 0.10948766 -0.15579435 -0.0934531 -0.077456966 0.21251082 1.0501627 -0.13863072 -0.13700934 -0.14752446 -0.24228078 0.28448015 -0.19365892 -0.24997135 -0.30215904 0.22171912 -0.16248986 -0.049165443 0.7673097 0.1249899 -0.26108724 -0.2141203 -0.924985 -0.011619288 -0.43465844 -0.59183663 -0.070407204 0.22900802 -0.028629618 1.047789 0.48345575 0.14805777 0.14925954 -0.66200787 0.229667 -0.008331315 -0.14829282 0.10707109 0.29446363 -1.0159358 -0.6257538
1131 0.33103177 0.084150955 -0.011937574 -0.1864231 0.36182886 0.6348166 -0.046399947 -0.5871225 0.010995879 0.4918966 0.23997402 -0.004865666 0.06841972 -0.018776486 0.36318693 -0.29472968 -0.06695495 0.860668 -0.08119472 -0.0057828464 0.19215237 0.95034826 0.29492062 -0.1099025 -0.9125481 -0.66533875 -0.36171606 -0.88200545 0.06620614 0.44080406 -0.46938598 -0.38627294 0.03969219 -0.306375 -0.39787623 -0.5030647 -0.20030949 -0.54764295 0.16078766 0.4099374 0.084417395 0.21516277 0.29626957 0.6112543 -0.3293498 0.1117867 0.26598513 -0.21364625 -0.4568187 -0.014707839 0.28915232 0.35601014 0.46840242 0.11381658 0.393344 -0.53368974 0.26475498 -0.061836045 -0.3731907 -0.27179658 0.3813684 -0.29152757 -0.17762062 0.7180719
118 0.17275439 -0.24278606 0.3034951 1.3198652 0.3721281 -0.16068228 -0.39581853 -0.7049358 0.35181525 -0.17060333 -0.5389877 -0.39119154 0.17510088 -0.26361996 -0.17123361 -0.045630768 -0.07650626 0.021789765 -0.30620655 0.4615757 0.20346089 0.08864296 0.568177 0.66947067 -0.3202644 -0.7820941 0.18732204 -0.33943167 0.6278856 0.09086656 -0.61072403 0.24157159 0.11015054 -0.06080329 -0.51614964 -0.21969283 -0.6230075 -0.28280032 0.30586156 0.8998984 -0.5413693 -0.07408453 -0.057540424 0.42060024 0.0055416566 -0.3526603 -0.2709929 -0.90805703 -0.33853626 -0.5277396 0.26751298 -0.24158491 0.7563022 0.8563583 -0.13321763 -0.03515332 0.74058837 -0.32756683 -0.5832651 0.3458675 -0.19803393 0.59390056 0.06363624 0.7577071
95 -0.011750736 0.698721 0.35904297 0.19025066 0.021182299 -0.947275 -0.07651054 -0.10648552 -0.2520567 0.07150198 0.4229171 -0.60677 -0.8463401 -0.58658713 0.21860346 0.08053852 0.017461687 -0.10997937 0.30886018 -0.35968673 0.21787742 0.20655946 0.3228986 0.40187716 -0.4543002 -0.92082995 0.28789514 -0.14460957 0.042684123 0.49757722 -0.14763524 -0.013054406 0.27565828 -0.26161295 -0.44987184 0.27838397 -0.18723781 -0.28724667 -0.23805979 0.26827934 -0.3913112 0.3437107 0.627632 -0.052741967 -0.43052167 0.43925917 1.0263821 -0.14040138 -0.14498441 -0.17817095 -0.08449047 -0.24253689 0.67048395 0.76177007 0.3952675 -0.091524616 -0.12057392 0.42347714 -0.024436338 0.07938542 0.251252 0.21344018 -0.8478087 -0.37318277
1483 0.10719363 0.050165173 -1.0221546 0.51741356 0.21613087 -0.45560607 -0.48917007 -0.08507364 -0.4876173 0.21558869 -0.665138 -0.3216464 -0.29396546 -0.5318721 0.35956055 0.08653805 0.62819874 -0.32543287 -0.6214957 -0.28320134 0.6237406 -0.11669023 0.20622541 0.45267755 -0.0548592 0.11151695 0.6714743 0.30935174 0.23623145 -0.13099699 0.37581334 0.117091104 0.3892154 -0.32511812 0.008518745 0.73992926 0.20517617 -0.2594396 0.54429567 -0.122417435 0.10459438 -0.09385556 0.3277568 1.0126876 0.18785682 0.10400661 0.4487005 0.17501928 0.2367865 -0.39933258 0.0010112503 0.18370768 0.6540398 -0.56806076 -0.43817753 -0.6233613 -0.0003225359 0.5247546 0.17414623 -0.22816221 -0.30924523 0.015391906 -0.29065982 0.59034866
1692 1.4193583 1.1926882 0.2665288 -0.33765632 0.070942484 -0.6302706 0.25495908 -0.944076 -0.7233237 0.38775116 -0.1869181 1.3943212 -0.2559619 -0.5885337 -0.3354172 -0.30606872 0.73944277 0.6311939 -0.19988409 -0.41613638 -0.7528471 -0.5420967 -0.1237239 0.3441706 -0.72949743 0.26549107 0.18206987 -0.5480331 0.0035892217 0.030875754 -0.0768274 0.040970195 0.7434139 0.09930671 -0.60271066 -0.12516402 -0.11871408 0.6196465 0.7525432 0.5184774 -0.23581378 0.33168945 -0.0036736587 0.15902881 -0.40642175 0.631281 0.71540415 -0.5700841 0.7932782 -0.310464 0.43548712 0.96776086 0.5860457 0.56187814 -0.13734348 0.6787657 0.016132474 0.43843883 -0.715573 0.31407058 -0.21461609 0.35692528 -0.82317615 0.17747279
2182 0.3957051 0.44698805 -0.1896524 -0.16874072 0.21862227 -0.46974924 0.39866173 -0.3564866 0.0026412236 0.64769244 0.3961164 -0.7687379 -0.5833999 -0.73920864 -0.072365046 0.0052722683 -0.58752155 -0.34267396 -0.16718563 -0.8974454 -0.33104175 0.72244203 0.11630926 0.74585164 -0.36072642 -0.100873105 0.10230367 -0.50542396 0.6107116 0.1827291 0.26590234 0.09195315 0.082387626 -0.8252754 -0.04155493 -0.098784365 -0.18902616 -0.07613453 0.043467734 0.11572575 -0.3256141 1.0267258 0.5309964 -0.36158746 -0.30910373 -0.8852932 0.4348693 -0.41291475 -0.44557816 -0.26427308 0.1777883 -0.0041671516 0.74476326 1.2804751 0.08573565 0.5557048 -0.17667092 0.655138 0.3796472 -0.23210524 0.3361635 0.5848869 -0.061110087 -0.7750114
1416 0.3138312 1.0698516 -0.15461573 0.17622901 0.7906094 0.19787304 0.2866826 -0.26129988 -0.011550727 -0.24407913 -0.1041469 -0.03788677 -1.0047733 -0.38013926 0.057315517 -0.33398822 -0.103855476 0.06386872 -0.34903365 -0.29629615 -0.54386395 1.5566373 0.14430521 0.66592276 -0.47696808 -0.6501672 0.15718582 0.27557278 0.48839483 0.4490176 -0.06918736 -0.18811525 0.0755536 -0.22462057 0.4199519 0.37165 -0.13256057 0.15515257 -0.3388202 -0.08312576 -0.6467542 -0.46827522 0.26803583 0.66907096 0.20068538 0.33448574 -0.14807002 -0.5620677 -0.1091439 0.7377701 -0.42935407 -0.4312338 0.36539447 0.20679672 0.5647975 0.22967161 0.06530733 -0.32382733 0.012986882 0.56877685 -0.21530002 0.37079164 -0.93533105 0.058248255
436 0.2666121 0.8046304 -0.096583836 0.39293605 0.14858004 0.5220876 -0.27246723 -0.4077162 -0.42078003 0.19622488 0.035432167 0.37359154 0.37038392 0.56270874 0.3713279 -0.193206 0.94575745 0.4104398 0.3838652 -0.65799123 -0.3531087 1.3186125 0.3616654 0.111375205 -1.4472394 0.0138197085 0.22713195 -0.17834088 0.6804405 0.60640234 0.276262 -0.28589165 0.61779284 0.037373286 0.17119084 -0.17476712 -0.34594816 -0.67196506 0.63587385 0.57525164 -0.3110664 0.42590138 -0.4112195 -0.2551029 -0.03930067 0.16540523 0.061697334 -0.00074529834 -0.37549117 0.01856619 0.037701063 0.24084592 0.69668585 0.49044636 0.6241805 0.18929224 -0.110010564 0.09740692 -0.19441772 -0.22578685 0.42873237 -0.32617122 -0.6982325 0.8980682
963 -0.06494378 0.09424724 -0.06765711 0.1155141 -0.81973016 0.6280235 -0.032485228 -0.48766145 -0.6042364 -0.7061404 -0.50151676 0.169305 -0.76267695 -0.99411607 -0.40952188 -0.7575241 0.31503084 -0.07032443 -0.28878444 -0.83480114 0.24596985 0.1769091 1.656644 -0.08553599 -0.5913979 -0.36520037 -0.3453213 -0.22524719 0.32880053 0.31069282 -0.50674045 -0.048876464 -0.537902 -0.3245324 0.16531274 -0.65374106 0.017553953 0.3455808 0.49600407 -0.42167485 0.5014643 -1.0548334 0.2854948 -0.31090364 -0.43775252 -0.6372183 0.37110898 0.11042529 -0.00760929 -0.08139206 -0.5622698 1.1178129 -0.06465125 0.06783053 0.5089729 0.22632492 -0.13269551 0.011751212 0.5905006 0.37249386 0.09864924 -0.011932696 -0.31978187 0.34506097
973 -0.28910354 0.94519275 -0.40952957 1.0506881 -0.25443724 0.068601355 -0.39697292 -0.36202744 0.813149 -0.22217457 -0.36230803 0.10218278 -0.22576994 -0.16764009 0.22248487 -0.05089221 0.6504494 0.27894646 -0.66615003 -0.36227974 -0.13037944 -0.15805094 -0.06843647 -0.31534714 -0.33082232 -0.53461635 0.43331826 0.21665955 -0.11562697 0.3743002 -0.040102996 0.010793595 -0.18933931 -0.446996 0.18789478 -0.18087941 -0.7747795 -0.13428535 0.5111377 0.042967048 -0.22182596 -0.03352305 -0.07814115 0.22535747 -0.3007586 -0.12972322 0.15690675 -0.1371912 -0.16843988 -0.27498013 0.6465982 0.38541254 0.5737965 0.7093346 -0.37171876 -0.236902 0.004239551 -0.6437074 -0.37726337 -0.3179353 -0.09088258 0.571278 -0.0036816495 0.082033135
1103 0.33976996 -0.24721202 -0.06727602 0.5988193 0.3542703 -0.41198444 0.4111966 0.16444643 0.44416758 -0.2311073 0.092096865 0.2110496 -0.054881454 -0.32431242 -0.42108506 -1.332221 0.16331865 -0.054613583 -0.1048608 -0.076815754 1.0606489 0.23011564 0.4692848 0.035531506 -0.4031783 0.12450568 -0.18545552 0.64891 0.8337037 0.42991298 0.12114365 0.00819974 0.111352876 -0.21472703 0.53324413 0.23056918 0.12583226 0.456423 0.47942498 0.39541337 0.3497821 -0.49113625 -0.007709481 0.69748056 0.23470989 0.69857776 0.122403584 -0.32277 -0.41400018 -0.44712403 -0.6943618 -0.33504742 0.3796739 -0.09958759 0.13697714 -0.62442106 -0.9348861 0.8156279 -0.5122316 -0.36558983 -0.07165451 -0.011751471 0.10672365 0.6673807
1413 -0.24784625 -0.07704747 -0.12141819 -0.5423982 -0.06252536 -1.0381771 -0.31894097 -0.69243276 0.043062046 0.7771985 0.8826252 -0.11226535 -0.27838156 -0.5905369 -0.42975846 -0.38463274 0.87785196 0.054248117 0.5605979 1.4893512 -0.669014 0.94734013 -0.25119907 0.41868186 -1.7445905 1.0935434 -0.7415811 -0.06507516 -0.048742555 0.15029266 -0.2854318 0.29175088 -0.101462625 -0.101321265 0.97676915 0.6006131 -0.01007462 0.029816337 0.060207974 -0.52434814 0.31852895 0.22128753 1.3000054 0.43637264 1.0815656 0.008637323 0.19146614 -0.5000138 0.4289146 0.09424729 0.04038441 0.4559407 1.1000539 1.3641455 -0.63221437 -0.6999636 -1.101511 0.033858743 0.31117555 0.6242438 -0.11171885 -0.32101867 -0.26475236 0.4967167
1765 0.42876348 0.5545713 -0.7155928 0.272725 -0.2006042 -0.46472973 -0.2436177 -0.4061635 0.20575508 0.15357491 -0.08463234 0.2396707 0.070330255 -0.6194339 -0.26080865 -1.0988111 -0.08191946 -0.40146205 -0.21416727 0.19394094 0.30910632 0.6024782 0.14378123 0.3681271 -0.14091422 -0.22238564 0.014993971 -0.12101848 0.571657 0.8789709 0.45636618 0.16140749 -0.3733976 -0.29797027 0.49296477 0.24693766 0.32773945 0.39507756 -0.4084488 0.40223306 -0.15480101 -0.054758385 -0.15365103 0.7342736 -0.6334866 0.76670873 0.31681648 0.54095215 -0.3707923 -0.21990219 -1.0737817 0.029793115 0.30251938 -0.378482 0.029305967 -0.45142338 -0.488718 0.40231374 0.05668156 -0.35550472 0.022817295 -0.4069605 0.26893705 0.460932
661 0.18150398 0.4311015 -0.40656757 0.42491043 -0.8688333 0.18488777 0.26589677 -0.9829934 -0.5657983 0.07906111 0.0436824 -0.25381425 0.28967044 -0.22589397 0.21630211 0.76998645 -0.43128517 0.40342093 -0.37900102 -0.21908045 0.21606751 0.30613473 0.06090385 -0.28419027 -0.71934336 -0.15993804 0.09998078 0.335106 -0.082658246 0.37491962 0.39482853 -0.0055009783 -0.838979 -0.13996533 0.44751838 -0.11262459 -0.32383054 -0.1689926 0.38725662 1.2209336 0.38311672 -0.5754362 0.50447917 0.6504519 0.22648448 -0.14676282 -0.05083325 0.14795056 -0.06828888 -0.90979075 0.6119096 -0.31711003 0.3890993 0.6627254 -0.25885722 -0.1183176 -0.8118414 0.025115855 0.87276036 -0.05031795 -0.18182632 0.4886544 0.031580236 0.8370315
2155 0.07134663 0.45475733 0.43936905 0.027452147 0.46569198 0.44499892 -0.26215178 -0.47258303 -0.23296718 0.24318743 -0.1917533 -0.045659482 0.35016516 -0.71936136 0.19186969 0.08057348 0.419184 1.1443485 -0.3584667 -0.17924105 0.18482487 0.5173212 0.46964803 0.32453966 -0.77148825 -0.82350653 0.24007031 0.055762418 -0.16522753 0.16086052 -0.49149156 -0.48154283 0.076449156 -0.28654683 -0.08588538 -0.30786434 -0.27808413 -0.38196847 0.5595444 0.6093287 -0.3040994 -0.41472638 0.3072983 0.6327368 -0.8072718 -0.37997037 0.4666541 -0.15819497 0.3287552 -0.011337212 -0.59589547 -0.22215745 -0.11573324 0.21177255 0.638355 -0.5673251 -0.052929085 -0.015142331 0.16649155 -0.0078019644 0.21474804 0.08120124 -0.76190865 -0.17573175
2001 0.18057762 0.307725 -0.45398676 -0.36685714 0.9193088 -0.5675643 -0.13812627 -0.45184693 -0.14266936 0.08720308 -0.41003528 0.008048979 0.4804393 -0.6697134 -0.64229316 -0.3933947 0.35349542 0.73057586 0.3820523 -0.33532044 -0.09065469 0.06715113 0.87701976 -0.26678908 -0.44629407 0.2970903 -0.30164564 0.26879558 0.17381264 0.68610305 -0.115125954 -0.49809772 -0.035541408 -0.0068714595 0.17877515 0.51391387 0.13761891 0.70343417 1.0057696 0.26413336 0.27623725 0.026294068 -0.23408604 0.1622451 -0.3142734 0.90014845 0.470189 -0.5509587 0.3622209 -0.37205786 0.7168679 -0.013358604 -0.36338273 0.3481411 -0.16655074 1.0700341 -0.21117432 -0.120246686 0.21607073 0.7486951 0.51421875 0.20795989 -0.31994846 0.06994961
1703 0.53374714 -0.07547963 -0.20637384 0.039910283 -0.655911 0.3164261 0.056172665 -0.21079215 -0.2603315 -0.40051314 0.101912215 -0.22833203 -0.3243638 -0.20564306 -0.8723726 -0.60807836 -0.03596282 0.7021354 -0.72800916 -0.40309027 0.42969203 0.08887111 0.71247995 0.48358592 0.00082381064 -0.6471274 -1.0583024 -0.5127564 0.29621366 0.29717767 -0.1995069 -0.19695829 -0.52416164 0.61251223 -0.18183532 0.40008163 -0.1825694 0.44831237 0.11217828 -0.7715801 0.78424114 -0.50974655 0.36666197 -0.23781773 -0.7156075 0.18141139 0.5429607 0.042770986 0.47237936 -0.52979696 -0.6314625 1.3327141 0.011545867 0.72770643 0.9104373 0.598819 -0.21321692 0.23569098 0.13349117 0.12227287 -0.33672595 0.07690725 -0.5459172 -0.44095775
1257 0.7568978 0.45400077 -1.9279326 0.3264995 -0.0023273127 0.6690968 -0.23924936 -0.6876492 0.49384376 0.48769766 0.630147 -0.2966832 -1.0636976 -0.97897327 -0.46875203 0.32040036 0.10454026 1.0443325 -0.35717008 -0.30253685 0.20317858 -0.49680126 1.0668702 -0.18583724 -0.38942683 1.3526913 -0.5027026 0.33576903 -0.36287764 0.31275815 -0.15738693 -0.50002587 0.91085273 -0.52469814 0.40627187 0.28880334 0.56346333 -0.72296 -1.1729238 -0.32522 0.19902574 -0.9335199 0.7490167 -0.015293734 -0.23428006 -0.17846262 0.042207554 -0.251123 -0.021346003 -0.25355703 -0.6110637 0.632988 0.35759732 0.26216656 -0.33038902 0.097447336 0.18028925 -0.585775 -0.7801969 -0.06241618 0.5809171 0.45089296 -0.971247 0.9322421
1628 0.023588607 0.6866847 0.22442675 0.38124755 0.36355004 -0.06854619 -0.5282687 0.019758595 -0.17190732 0.20290282 0.7062148 -0.7948441 -0.79283714 -0.6298286 0.39604354 -0.7383558 -0.3856901 -0.041220058 0.45358497 -0.9075981 0.3216463 0.91532356 0.8157148 0.8435915 -0.27365622 -0.43013895 0.62995094 -0.1659073 0.010406722 0.05800021 -0.023479298 -0.31735593 0.41376978 -0.7979553 0.32622778 0.17276102 -0.32893977 0.5724731 0.4012755 -0.17836505 -0.1610584 0.5483545 0.35750723 -0.28215286 -0.4573778 0.032727864 0.62912565 -0.2779322 0.37997547 -0.38880453 0.12258865 -0.19432911 0.47605294 0.8425467 0.27300745 0.14701456 -0.4920225 -0.1592456 -0.30057245 -0.37166035 -0.3519073 0.7413967 -0.15849006 -0.7691377
507 -0.9019031 -0.5860155 0.01767067 -0.5082948 -0.051780708 -0.99667734 -0.6139577 -0.72878206 0.10820533 0.93642336 0.8390002 -0.48889363 -0.85178095 -0.9767088 -0.22296606 -0.17230104 1.389769 0.10675854 0.4694559 1.1457206 -0.66214895 0.85498285 0.16006334 0.38783425 -1.483103 0.7295793 -1.000976 0.07328997 0.12810905 0.100870475 0.14710355 0.1274355 0.058511976 -0.14304863 0.6336164 0.44964653 0.08085515 0.29001808 0.27870813 -0.24975464 0.42392224 0.2480275 1.1264935 0.67388505 1.0941464 0.401844 -0.013615731 -0.76337785 0.32625794 0.19498466 -0.20078336 0.5731755 1.5654271 1.5472376 -0.49079186 -0.43109724 -0.8667129 -0.0049925325 0.20440799 0.34772354 -0.26273647 -0.09122565 0.0117937755 0.3844444
1624 0.0499748 0.06487182 -0.52040917 -0.13970341 -0.5252283 0.021778889 -0.46473578 0.09619238 0.32691738 0.5640389 0.28293514 -0.525379 0.11147125 -0.21706483 0.023266714 -0.17155834 -0.8647404 0.3682868 -0.07784743 -0.7278322 -0.19632289 -0.3949519 0.7476259 0.04793526 -1.0195717 -0.27487043 0.84724504 -0.2278454 0.38905317 0.44388083 -0.5507094 -0.07742447 -0.5005093 -0.09981825 -0.34790486 0.06689786 -0.91822594 0.3613974 0.60110974 0.3547138 0.3271154 -0.22881998 0.045519583 0.300097 0.21676683 -0.28031558 0.86027664 0.6611245 0.16555092 -0.26536083 -0.6132918 0.87600183 0.24831821 -0.057882424 -0.6407037 0.0390983 -0.016946457 0.12878957 -0.36286864 0.57872325 -0.060011826 -0.41474697 -0.3093756 0.42646116
310 0.20912386 0.24542262 -0.34360853 -0.071160264 0.2614075 -0.12953003 -0.26080704 -1.2220324 0.84888536 0.5561257 1.0088657 -0.34855002 0.3160577 -0.50722617 -0.2177033 0.018157287 1.1330233 -0.57598734 0.37016013 0.3746805 0.4194196 0.51584375 -0.2680481 -0.0059941555 -0.96205974 0.41432267 -0.6138042 0.69656104 -0.16462304 0.54257166 -0.52677315 0.86833507 0.35259238 -1.070429 -0.1807466 0.8401123 -0.3569381 -0.04949751 0.20305027 -0.22716466 0.4946671 0.5038467 0.012925431 0.6481817 -0.49734426 -0.7562681 0.40225312 -0.28593564 -0.05666722 -0.20394985 -0.937146 1.0120696 -0.011485496 0.37017816 -0.5368526 1.0935171 0.60000867 -0.20175244 0.27452487 0.11187572 -1.2159538 -0.15300225 -0.3513123 0.3750951
2671 -0.009195045 0.74634117 -1.4023352 0.18773362 -0.047520015 0.9158727 -0.21014486 -0.7154327 0.17511897 0.7241918 1.2180926 -0.19817021 -1.1157404 -1.1560013 -0.72952837 0.031770136 0.2105489 0.6104384 0.008265426 -0.4793911 -0.18527302 -0.6308087 1.2320708 -0.22021417 -0.20907642 0.8509748 -0.07686696 0.41543636 -0.25438255 0.2205148 -0.24515249 -0.38700154 1.2113167 -0.7215908 0.26449707 0.08313517 0.71726435 -0.6824295 -0.85177416 -0.039738093 0.21346885 -1.1906966 0.715833 0.2151341 -0.3913616 -0.29991317 -0.21618195 -0.24872409 -0.34916037 0.27424943 -0.7304374 1.0390171 0.46004018 0.15672754 -0.46558893 0.04014689 0.3032395 -0.13836378 -0.6676402 -0.32694042 0.95042753 0.7786663 -1.2392023 1.3998389
2248 0.38489228 -0.16814473 -1.8475083 0.27999514 -0.44139504 0.39952874 0.16324909 -0.37278616 -0.25820306 0.014001563 0.928068 -0.031042775 -0.7993466 -0.24906848 -0.88133323 0.36119387 -0.21823364 1.1480284 -0.5915618 0.15353084 -0.29999492 -0.36234024 0.9113098 0.43198273 -0.3731432 1.2762954 0.07760035 0.645987 -0.0864943 -0.16969678 -0.13256018 -0.50441366 0.24421413 -0.3196881 -0.19507816 0.6403376 0.45700043 -0.22024679 -0.6367002 -0.07771643 0.17024812 -1.0226973 0.20118806 0.24589255 -0.716135 -0.31747034 0.2889454 -1.0928726 -0.37828267 0.25962618 -0.9805383 0.47233242 -0.052244406 1.0951406 -0.45905086 0.24271956 0.21449162 -0.18379413 -0.86832327 -0.7208033 0.12104408 0.1554803 -0.70068353 1.1558099
1309 0.5249071 0.47349817 -0.6395341 0.66498536 -0.80474085 -0.2723563 0.014706464 -0.74141407 -0.71316516 0.3789955 0.5435046 0.24176073 0.1986022 0.4180909 0.25848728 -0.4432626 0.083317295 0.41834265 -0.40388513 -0.46437374 -0.064823665 0.62367237 0.19642211 -0.48340788 -0.26854846 -0.50938153 -0.22997135 -0.18244837 0.31114316 0.7243834 0.36662474 0.24911185 -0.31930384 0.2248071 -0.39476877 0.41119614 -0.31370726 -0.062342655 -0.0127521 0.10254838 0.17266516 0.23576745 0.13918577 0.55952024 0.44921952 -0.4469219 -0.6496026 -0.3460698 -1.0386995 0.35937312 -0.14083399 -0.31658867 0.4838758 1.1264713 0.3762612 -0.03241274 -0.72443193 0.53138435 -0.31878746 -0.18415105 -0.05720378 -0.06047374 -0.5223062 -0.057013456
1725 0.49741137 0.34433013 -1.2133496 0.3927736 0.5829096 -0.29446653 -0.10857932 -0.26501077 0.43734357 0.09788832 0.252419 0.22223566 -0.16981088 -0.13919981 -0.17976192 -0.30441 0.2828198 -0.044718783 -0.38332045 0.5267638 0.17006934 -0.13424219 0.3836839 -0.0691656 -0.43144014 -0.88532996 -0.065915234 -0.16739655 0.20460692 -0.36936328 -0.14873914 0.1836355 -0.09826043 -0.6739116 0.39263555 0.3462677 0.20540987 -0.016264917 0.19503367 -0.33341756 -0.3229782 -0.17981747 -0.12464397 0.19699217 -0.18022235 -0.44134986 -0.036887903 0.36280057 -0.27486965 -0.5067146 -0.19984418 0.04202998 0.75852424 -0.03262063 -0.18185145 -0.08260617 -0.56418747 0.5895576 -0.32904184 -0.68092674 -0.34675235 -0.45202562 0.71633804 0.46621004
429 0.5562779 0.89152 -0.100201316 -0.45169458 0.96611667 0.03646365 -0.42882147 -0.75722027 -0.33630687 -0.012437048 0.1607025 0.33519366 0.29167077 -0.13680428 -0.48851326 -0.16804484 -0.03142267 0.9872313 0.66384083 0.084903106 0.38156536 -0.13187897 0.5303932 0.3363224 0.5664049 -0.12938853 -0.10868781 0.17757684 -0.21514724 0.35108605 -0.42432153 0.5370759 -0.30447677 -0.19837178 0.08975438 0.26778197 0.928247 0.20285426 1.2381679 0.36360615 0.1335832 -0.28219205 -0.14000864 0.10543724 -0.47168028 -0.14755483 0.5087809 -0.19316474 0.06915631 -0.8144923 -0.31944677 0.04917152 0.23468061 0.92614573 -0.07975629 0.92496264 -0.5371188 -0.4753177 0.11448182 0.9035737 0.66730696 0.08355384 -0.72918105 0.14669904
1973 0.47146967 0.8079738 -0.12081737 0.74929494 -0.08635826 -0.25362828 -0.65821797 0.11415793 -0.08015733 -0.111653425 0.43990937 -0.08443503 0.66465276 -0.42472064 0.3819829 0.15174842 0.35629478 1.0737243 -0.49317896 0.05749983 -0.2122777 0.22307378 0.7296248 -0.2257302 -0.24491787 -0.07937159 -0.25238198 -0.14748184 0.488368 0.58381677 0.03583391 -0.104450345 -0.12911008 -0.5441707 0.80134004 -0.590089 0.16095476 -0.5711319 0.36076993 -0.43395942 0.026815139 0.6098442 0.89094007 0.73903626 -0.5665399 -0.5073853 -0.06367452 -0.4488458 -0.02606926 -0.24890375 0.20768814 0.070784554 -0.14656071 1.1039909 -0.056849696 -0.81835485 0.31049475 0.597043 0.18633902 -0.10633973 -0.26680997 0.11703128 -0.1615434 0.51371145
1742 0.8507885 0.59046227 -1.089905 -0.55302906 -0.08005818 -0.72366047 -0.1297044 0.7209828 0.55100393 0.0973089 0.35996914 0.51911575 -0.22407219 -0.80446434 -0.68491197 -0.31583956 -0.19000176 -0.35868216 -0.08797511 0.645822 0.18494786 0.010378218 0.21980199 0.49172643 -0.4798288 -0.02272534 0.27814946 -0.20328061 0.4386777 0.2147992 0.03748446 0.12098115 -0.3152387 -0.38847905 -0.17021334 0.6400949 -0.16009372 0.16717407 0.5380803 0.47469538 -0.47822735 -0.12524876 -0.074871585 0.35949054 -0.7191636 0.02426289 0.12170673 -0.16317011 -0.78738546 -1.023481 -0.17240033 -0.050024 0.50999606 -0.3799932 0.64586204 -0.10464035 0.061222635 0.5100897 -0.20507903 -0.4224326 -0.056171075 -0.22220296 0.36202046 0.32520467
1950 -0.10793584 -0.01658928 -0.028670166 -0.20194046 0.21662097 -0.2526148 -0.42072436 -1.356172 0.8117938 0.2705905 0.9633181 -0.29202476 0.25348216 -0.21391398 -0.15547204 -0.14068423 1.0999181 -0.46134624 0.49043736 0.45503947 0.43900982 0.53580004 -0.30422443 0.11763941 -0.61881274 0.26363224 -0.50119615 0.6334512 -0.044263165 0.35246402 -0.38838184 0.93767244 0.30022153 -1.1196178 0.19973466 0.7630642 -0.8897111 -0.03742749 0.36061028 0.0018418415 0.2709998 0.5745536 0.12380131 1.2145876 -0.31405708 -0.66430223 0.5479764 -0.47405928 0.38314214 -0.40101 -1.1037952 0.9493525 0.32506305 0.47890294 -0.32320425 1.2382945 0.8035647 -0.2060441 0.124299325 -0.09453789 -1.1093923 -0.2109292 -0.026561704 0.4985876
687 0.23616624 -0.12927313 -1.130597 0.8905677 0.49820068 -0.5484883 -0.19925803 -0.15525389 0.0427762 0.31910157 0.15239571 0.3844147 -0.22415377 -0.43936956 -0.44421154 -1.1119775 0.28968498 -0.06473344 0.15167822 0.6662332 -0.063465215 0.17408484 -0.07600314 -0.12726043 -0.38323528 -0.60945433 -0.27017534 0.29406065 0.2868655 -0.32926893 0.013049806 0.28306654 0.33012107 -1.0416931 0.18528868 -0.11285161 -0.116426274 -0.047410022 0.049763996 -0.11759283 0.05958179 -0.36764362 -0.4170777 0.23673774 -0.2709397 0.39977038 0.03646907 0.3637614 -0.39771944 -0.63933283 -0.20917949 -0.036900226 0.3871853 -0.3695045 -0.24253416 -0.35914522 -0.21720424 0.3215988 0.14143504 0.20141055 -0.14077853 0.27326083 0.27553907 0.19311838
1894 -0.6126557 0.0018618541 0.017476335 0.15576835 0.3825704 0.4630464 0.34757182 -0.7320474 0.041669704 0.3654248 0.46196294 0.6584155 -0.27725342 0.04091143 0.5952345 -0.19759849 -0.31982502 0.5962112 -0.13877371 -0.56360126 0.8258391 0.97270054 -0.14841266 0.62464875 -0.38453546 -0.14787589 -0.8120513 -0.5882613 -0.007861084 0.4267077 0.15441893 0.47304597 0.321899 -0.24424158 0.5659072 0.0653805 -0.10073936 -0.18694593 0.47213835 -0.30264315 1.2625705 -0.087505415 -0.120873086 0.82109064 -0.29427943 0.43133953 0.12702554 -0.34419665 -0.25687683 -0.77377254 -0.7957003 0.089710355 0.39286107 0.03202017 -0.30038983 0.088185705 0.28097254 -0.3515308 -0.085002646 0.13063672 0.604301 0.489704 0.43385357 0.092167236
2367 0.8791331 0.6709743 0.16021812 0.3449308 0.5833904 0.35317498 -1.0100781 0.030467799 -1.2316995 -0.106625006 1.048213 -0.22254793 -0.62370664 -0.22049944 -1.5111794 -0.45162585 -0.6631404 -0.11306191 -0.9582557 -0.41751853 0.45704332 -0.21978708 -0.56333184 -0.0008505048 -1.2141094 0.88675433 -0.6321981 -0.4982255 0.39337328 0.48617578 0.55866486 -1.3408949 1.0358567 -0.32241836 0.6370364 -0.07933381 -0.2949865 0.78647226 2.0677674 0.066176645 -1.4973735 -0.5242539 0.6451461 1.6129154 0.46073535 -0.81640726 0.27736276 -0.065850794 0.7715111 -0.8585239 -0.56843793 0.16736472 0.594622 0.49596992 1.3355019 -0.33552733 0.47162208 -0.36469722 -0.025150875 -0.07914249 -0.12245741 -0.28273004 -0.037206672 -0.26411155
1229 0.2481174 0.4658757 -1.19899 0.5374409 -0.5647767 -0.8170761 -0.16176632 -0.5877162 0.96094793 -0.083344564 0.3010176 0.34744155 -0.6824142 0.024590474 -0.43518284 -0.2100783 -0.03363675 -1.0217155 0.22378087 -0.18624325 0.65352494 -0.23046574 0.18198368 0.13448931 -0.6121511 -0.13056648 -0.1631025 0.12981123 0.32408255 -0.35307634 -0.22318977 -0.3410813 0.13255699 -0.15489878 0.491879 0.18254483 0.5905146 0.4170096 0.2855885 0.5415027 0.51607877 0.015661275 0.2205199 0.7391368 -0.6234038 -0.5524443 0.51043934 -0.42419073 -0.551431 -0.6455647 0.6346967 0.024861014 0.5103028 0.11533512 0.48332137 -0.5038359 -0.5009968 0.64897126 -0.33143723 0.5479716 -0.2786765 -0.83456624 -0.012322246 -0.1374922
2394 0.6065773 0.30916226 -0.41701138 1.199781 -0.807858 -0.32135877 -0.68862283 -0.70695037 -0.6984255 -0.48799852 -0.3169557 0.13285232 0.27726692 -0.01845546 -0.13040695 0.22106557 0.71742606 0.71658045 -0.17118979 -0.5797594 0.013752923 1.0355849 -0.5941165 0.6456973 -0.0378899 0.07374397 -0.23658127 -0.07084159 0.08934364 0.8522784 0.61245465 -0.5886342 -0.28611714 -0.53113335 -0.15299365 0.07870987 -0.29826513 -0.7463047 0.40564588 -0.35875013 -0.15970334 -0.37749004 0.47148082 -0.03992322 -1.1280682 -1.1892129 -0.13545989 -0.54874146 -0.23804288 -0.2842639 0.15973982 0.020685317 0.046591148 1.0204182 -0.3225054 -0.5098707 -0.19323239 1.0194625 -0.4759633 1.0281055 -0.13386065 -0.8882359 0.00339359 0.22729777
525 0.24977611 0.25395176 -0.0040653725 0.4112448 -0.30722353 -0.48521638 0.19301489 -0.43701008 -0.7959337 0.48013481 0.44552952 -0.620724 -1.04042 -0.3069937 0.19397196 -0.23797376 -0.091434926 -0.5486195 0.38527486 -0.44739884 -0.122269236 0.87792885 0.35206598 0.8838693 -0.17294167 -0.30216858 0.48415697 -0.13324142 -0.12182887 0.7258684 -0.1777579 -0.048483685 0.18508804 -0.74359214 0.024368389 -0.025421463 -0.124285676 0.029159239 0.59885985 0.36213705 -0.72583896 0.7230209 0.5154004 -0.6663106 -0.7024643 -0.021551572 0.5028826 -0.25603536 0.14223516 -0.40805867 0.05192775 0.16396116 1.0314722 0.6879765 0.23482436 0.24922143 -0.5696994 0.3067831 -0.069995284 -0.34155136 -0.015472503 0.71759295 -0.5151793 -0.81282854
2130 0.53733385 0.22546835 0.1276162 0.56805336 -0.28197247 0.80554646 -0.15798125 -0.5282893 -0.19742861 0.2238797 0.7185612 0.70288247 -0.6056192 -0.2902911 -1.1438638 0.21932416 0.54140717 0.78984237 0.54672104 -0.3314198 0.38370538 -0.09723867 -0.09651545 0.9927139 0.12924823 0.10810649 0.32908675 -0.54321873 -0.44710013 0.030092545 0.09049344 0.19650495 -0.16981544 -0.059062306 0.043994404 1.6136088 0.7173025 -0.11043481 -0.22771083 0.027992988 0.33897159 -0.58589417 0.45886093 0.13239735 -0.5066913 0.011788022 0.09732446 -1.0038534 -0.102819 -0.07735029 -0.5100972 0.044030506 1.099107 0.28410336 -0.63034266 0.4591888 0.317025 -0.3526043 -0.491922 -0.25351092 1.1046966 -0.18222587 -0.45036784 0.7853898
1740 0.41952968 0.26313478 -1.5274707 0.31677023 0.12560266 -0.8690646 -0.09022799 0.021748848 0.30507836 -0.14587785 0.11887777 0.2395668 0.07864821 0.018915588 -0.10819676 -0.4199671 0.1800964 -0.5193122 -0.90911394 0.5128634 0.35573256 -0.12973216 0.4999589 0.15397201 -0.9388121 -1.0211624 -0.19005564 -0.08171552 0.0045318375 -0.22112864 -0.23322397 -0.2101041 0.17474551 -0.65965784 0.5746681 -0.039748166 0.55078965 0.59106123 0.19949204 0.2097091 0.03674795 -0.52001226 -0.21020491 0.11185539 0.0952507 0.08483694 0.6222935 0.101779215 0.24502614 0.07406795 0.20780216 -0.036066707 0.66787857 0.17110391 -0.17671086 -0.06296965 -0.21282022 0.18215974 -0.6722599 -0.022227855 -0.6539961 -0.5308731 0.3472164 0.2641414
350 0.4928224 -0.02099855 -0.25455663 0.08452791 0.43194026 0.5954792 -0.3380635 0.3350266 -0.27186337 0.12029214 -0.27877173 -0.6238975 -0.2485795 -0.26036856 -0.35604352 -0.36592346 -0.063030764 -0.08276013 -0.18696974 -0.26114425 -0.41399756 -0.14294267 0.100168034 0.8422176 -1.1418749 -0.5228514 0.7147845 0.17618316 0.44714445 0.67236966 -0.33188596 0.4055607 -0.139198 -0.36303753 0.40956768 0.7070305 -0.5768541 -0.2937116 0.9319641 0.01697319 0.20036753 -0.17238842 -0.21284978 0.454864 0.57704777 -0.45701987 0.33702365 0.2854808 0.09404976 0.019053455 -0.042069 0.48311028 0.40826607 0.10605152 -1.41268 -0.2099648 -0.040912673 0.3159543 -0.7596337 0.3974272 -0.06240436 0.2804559 -0.60245085 -0.1511162
1927 0.40882376 0.94696194 -0.76717657 -0.048939902 0.9067181 0.63531667 -0.2932881 -0.39996088 0.25473112 -0.011816969 0.24125291 -0.0527026 -0.29966864 -0.39548558 -0.264241 -0.11125646 0.20327649 0.6188596 -0.86272115 -0.020124715 0.3867652 1.7081013 0.27002296 0.09969225 0.13598052 -1.2358702 0.20493986 0.016379027 0.11525066 0.85045177 0.63557345 -0.5554937 6.673588e-05 0.07730426 -0.17795637 0.32498348 -0.38197768 -0.066542625 -0.34154078 0.42290577 -0.45016706 -0.33631557 1.074371 0.6220574 0.063500196 -0.31946883 -0.19298922 -0.25619885 -0.19998872 0.4618722 -0.40361047 0.43247098 -0.045976967 0.5633015 0.44092658 0.25411952 0.55823463 -0.23830122 0.34630644 0.349369 0.18101738 -0.15337543 -0.83498687 0.09119303
1119 0.81193423 -0.13548926 0.07310442 1.5308998 0.09178309 0.20984797 0.07315202 0.40261444 -0.8902583 -0.45089334 0.9643391 -0.24410808 0.43931553 -0.7200922 -0.46690476 0.029721463 0.7194051 0.46345454 0.53650796 -0.2815284 -1.2118249 0.9545813 0.9811661 0.11210088 -0.5504804 0.35250926 0.03323811 -0.4015518 0.6439407 0.97959155 -0.16271141 1.095962 0.069798306 -0.6983808 -0.34092566 1.6468683 0.458719 0.36140957 -0.30405304 0.5116036 0.5912991 -0.8762833 0.6262302 -0.49109873 -0.8076416 0.17922795 0.24598102 -0.93519604 0.41839996 -0.5987108 -0.008572827 1.1634287 0.42188883 -0.192237 -0.11488571 0.1802979 0.38995332 -1.105103 0.03718607 -0.51039034 0.17656563 -0.4885236 0.4423546 0.47378924
2464 0.20448163 -0.042744968 0.0407099 0.14645417 0.5921061 -0.49464214 1.2597802 -1.2372586 -0.64835733 -0.052916937 0.008141565 0.3561925 -0.42570782 -0.6094041 -0.10407609 -0.5771078 0.7329133 -0.884172 -0.8043693 -0.6866743 1.1050277 -0.15641002 1.6830276 0.4010341 -0.35649297 -0.02462629 -0.9562465 -0.19826546 1.0175308 0.5359931 0.40438983 -1.1006334 -1.021225 -1.6955422 0.0252981 0.273868 -0.55976033 -0.6807917 1.4791106 -0.426836 0.8481255 -0.35555932 0.8087142 -0.52896434 -0.47579226 -0.7839915 -0.3485948 0.2128896 1.1356288 0.43768123 -0.6845649 -0.6060359 0.64982855 0.6239317 0.07144765 0.1824402 0.5647496 -0.7210829 -0.9913717 0.42270437 -0.9032036 0.28134036 0.3758656 0.47880018
1050 0.94238806 -0.4571836 -2.0526772 0.033362664 -0.25689647 0.055483162 0.19014007 -0.6349585 0.28042686 -0.008113514 0.32283264 0.568954 -0.13428707 -0.5144666 0.10868354 -0.30434853 -0.36937273 0.6584746 -0.79413533 0.449595 -1.0688951 0.4017114 1.0833983 0.98623484 -0.40860042 1.274709 -0.07416929 0.86308384 1.9855084 0.7204248 0.039961915 0.7675913 0.5399822 0.25515595 -0.8192784 0.62815124 0.06450673 0.41929904 -0.5179028 -1.0407633 1.1490725 -0.5228713 0.92931527 -0.17821744 -0.54227865 -0.43531862 1.2421632 -0.36199042 -0.4238405 -0.46255416 -0.8955867 -0.30601642 -0.4243764 1.0246426 0.47428444 0.17583627 0.82487243 0.099522665 -0.44014984 0.27346438 -0.2403915 0.16431922 -0.50303787 -0.005205917
1966 0.5550305 0.023455389 -0.5353015 0.4534673 -0.33607766 0.47456902 0.07165843 -0.38400373 -0.15036644 0.12124243 0.029138621 0.14392339 -0.7506775 -0.17166267 -0.8167234 -0.93595695 0.020483248 0.61677843 -0.9087723 0.45496547 -0.44663376 0.29595897 0.61961836 0.8964572 -0.083398335 -0.6608805 -0.6165611 -0.37308592 0.36170164 0.0911112 -0.5944868 -0.34545264 0.001990227 1.0555538 -0.29633582 0.32161862 0.18252365 0.40713376 0.49190766 -1.0362357 1.0764867 -0.6382475 0.5813151 -0.61963636 -0.8967385 0.20670752 0.7181702 0.17669354 0.56213456 -0.5825647 -1.1370957 0.85758924 0.16705886 0.5870995 1.13952 0.506616 0.4931421 -0.24656244 -0.73410255 -0.23984718 -0.572943 0.73601604 -0.7572264 -0.8008765
1015 -0.36343625 0.34043407 -0.03137989 0.06716115 -0.03508225 -0.26148275 -0.2113485 -0.8713826 0.14032786 0.27252358 0.46282896 0.022227567 -0.22869393 0.13736694 -0.36574247 -0.22229257 -0.8253496 0.8888267 0.19794384 -0.45071128 0.08348198 0.42742246 0.3881071 0.36697048 0.17540197 -0.32893583 0.14500564 0.22164015 0.43447977 0.08547976 -1.512951 -0.5484045 0.16159593 0.056439467 0.42930052 0.36846694 -0.55293405 0.13863997 1.0792408 0.10265344 -0.21373294 -0.73090374 -0.3632512 0.07499736 -0.41928324 0.01933747 1.3610836 0.3267968 0.25240612 0.5858753 -0.27885416 0.054585762 0.6198514 0.6844655 0.25624973 0.46376786 -0.15578903 -0.021510232 -0.028512113 0.96880907 0.46303335 -0.07450624 -0.4618005 0.03149026
454 -0.08969458 0.6782049 -0.027522055 1.3525937 -0.06747916 0.090833105 -0.19943586 -0.53599226 0.6431193 -0.5718522 -0.034909382 -0.32577848 -0.25897118 -0.57233053 -0.45883867 0.38524285 -0.01723635 0.21084908 -0.8418098 -0.061863802 -0.1555413 -0.005287949 -0.18203415 0.3496032 -0.13843025 -0.2592809 0.73256195 0.41080487 0.30811974 0.2601706 -0.037624773 0.2963244 -0.40147054 -0.4298048 -0.16513494 -0.48835987 -1.2957264 -0.10398487 0.15782553 0.3029502 -0.048091184 0.30240422 0.33460945 0.08827163 -0.20104152 0.20997946 0.17094438 -0.19239439 -0.17402226 -0.02019625 0.2058453 -0.04500873 1.0474515 0.6316492 -0.013719791 0.6948368 0.3943662 -0.33021417 -0.0111449845 0.059689295 -0.60035336 0.32710072 0.26652184 0.6859816
2025 0.06952249 0.5804973 -0.419555 0.10598175 -0.22949618 0.42102578 0.41792583 -0.44407564 -0.10605573 -0.48882312 -0.29995647 0.22760276 -0.61070776 -0.10887117 -0.22356331 -0.5483815 0.7020414 -0.09158788 -0.11570577 -0.41245648 -0.42453143 0.4244294 -0.19922456 -0.45442772 0.06363281 -0.109948464 0.2500985 0.13189621 -0.1748844 0.2522667 -0.4037559 -0.7374924 0.18269697 -0.66487986 -0.0672666 0.070213996 -1.232563 0.80876726 0.06430811 0.42566553 -0.43862543 0.29073763 0.21133286 1.0485462 -0.04125352 0.49733475 0.58418804 -0.9989111 -0.22822882 -0.17385034 0.029379262 0.053083923 0.025208969 0.9119083 -0.20982188 -0.29678172 -0.031068226 -0.27551982 -0.8273259 0.6775773 0.023725979 0.86056215 -0.5426449 0.52580124
55 0.43255275 0.4461882 -0.44957542 0.38527212 -0.2197092 0.3381272 0.076236986 0.059014075 0.49407026 -0.13755909 0.4441575 -0.2467048 -0.20733795 0.07390361 -0.3065544 0.02100615 0.6933461 0.90997195 -0.17852183 0.053974308 0.18465611 1.3525766 0.6933066 0.82520723 0.14511909 -0.14820646 0.3863369 -0.21660954 -0.059384644 0.63189095 0.9492268 -0.67894137 -0.43198752 -0.0785088 -0.045057315 0.13228445 -0.63557255 0.43062642 -0.15684181 0.28088695 -0.13000274 0.5086843 0.30357128 0.046967447 0.09380752 -0.5919456 -0.23707633 0.2672653 0.16304907 -0.73283553 0.2276787 0.1801222 0.8015599 0.21027613 0.9859492 0.62819815 -0.7475868 -0.34301418 0.25483844 0.6663309 -0.12996034 0.5789285 -0.36459425 0.67371154
1505 0.3972906 0.23093264 -0.7972286 0.1988758 0.032222643 -0.79343766 -0.1847776 -0.60522276 0.2919685 -0.4272896 0.5371113 -0.9265058 -0.11438488 -0.20197068 0.2281664 0.11513392 -0.32452238 0.28910127 0.06910201 -0.69271815 0.38535213 -0.32662255 0.45787114 0.29522678 -0.598014 -0.15729217 0.7064535 0.03696175 0.08281753 0.56209594 -0.5990206 0.3392072 -0.1470119 0.05891225 -0.034562714 -0.4827668 0.015431004 0.5407951 0.6905635 0.13199538 -0.041873366 -0.30368793 -0.3532057 0.3862371 0.080595106 0.27874446 0.6992847 0.45195234 0.2689296 -0.13681132 0.084364496 0.52572626 0.68120104 -0.1638961 -0.48275572 0.12958215 -0.047195666 0.12181119 -0.7156002 0.7757091 -0.36774895 -0.6037548 -0.10068121 0.18678874
577 0.902675 -0.34105748 -0.12918259 0.46077043 -0.24727851 0.15885656 0.52624446 0.1816718 0.02640918 -0.3515 0.6655092 -0.37302575 -0.29237902 -0.7453053 -0.58820206 -1.3748082 0.470363 0.20377755 -0.20430413 -1.0423013 -1.2680631 0.40081716 -0.22531834 -0.36776036 -0.49070036 0.8160545 -0.072079815 0.4586613 -0.4366117 1.0193784 -0.041447114 -0.7748108 -0.6098663 -0.28411552 -0.9585651 1.5260444 0.33518404 0.029043196 -0.067850314 0.4743335 1.1062275 -0.0824399 -0.07138354 -0.3133024 -0.10191688 -0.2567277 0.9210479 -0.7840677 0.14829104 -0.46327236 -0.6954226 1.1239017 1.3011365 0.66301197 -0.88934255 0.20179927 1.419251 -0.77445287 1.2317693 -0.2707822 -0.5367023 -0.10471025 -0.030741723 0.8483281
279 0.6197642 0.5163988 -0.17616995 0.30809417 0.8911234 -0.016327595 -0.7468292 -0.0766358 0.22387654 0.34714848 -0.3995706 -0.05047499 0.09566429 -0.15317969 0.69417554 -0.3134812 0.028682575 0.6270031 -0.24356547 0.47601596 -0.084180094 1.0815176 0.4402182 -0.25384268 -0.27612767 -0.4392153 -0.99222165 -0.68333197 0.6588334 1.4352243 -0.9521582 -0.09523563 -0.4661153 0.5049695 0.6450319 -0.7556738 0.64073795 -0.14359729 0.1132384 0.20476279 0.025814673 0.5027217 0.09432572 0.8968582 -0.28417072 -0.5472005 0.28130388 -0.79850614 -0.5511473 -0.065840326 0.30170217 0.28794944 0.75286674 0.928409 -0.23449308 -0.52178323 0.78708696 -0.17479225 0.19247183 0.45808208 -0.36811903 0.022368947 -0.29526207 0.8322579
565 0.48528704 0.29912308 -1.6598169 0.45291632 0.32069516 -1.1626085 -0.018522266 0.23727669 -0.42837387 0.18156081 0.7310843 0.45417568 -0.9265351 -0.2968093 -0.57822114 -0.4988802 0.3402629 0.008660261 -0.03005096 0.7857183 -0.35363895 -0.053176075 0.1338629 0.37449443 -0.5821173 -0.81203735 -0.0012832399 -0.017411208 -0.19378433 -0.30029306 0.40332514 0.57223386 0.11005564 -0.80054945 -0.018390918 -0.062329944 -0.036778748 0.16530854 0.6114529 1.1026092 0.6572644 -0.677873 -0.31649804 0.6447764 -0.7081716 0.18986163 0.1891746 -0.27524188 -0.19990031 -0.42210317 -0.023799844 -0.043357845 -0.11363422 0.32712623 -0.09652655 -0.69298875 -0.07460609 0.668765 -0.09539993 -0.40567613 -0.28685686 -0.14912765 0.5939965 0.30218294
748 -0.2610961 -0.12215507 -0.1612733 0.4147517 0.6291708 -0.027374951 -0.31137538 -0.2549622 0.1425782 -0.39305773 -0.06154205 0.29248753 -0.0006125662 -0.9202659 0.06477261 -0.98253125 0.32124332 0.1988218 -0.43189108 -0.17044996 0.69389987 0.18160672 -0.11915986 -0.24747941 -0.8247188 -0.085585415 0.3547446 0.35920483 0.24922538 0.04041983 0.20044565 0.036127746 -0.02996601 -0.28894448 0.016635882 0.28079972 0.40698633 0.030926462 0.22278203 0.2955061 0.2799667 -0.42406583 0.12375 0.6026165 -0.73422843 -0.06537983 -0.13450874 -0.028578952 -0.3460944 0.05119058 -0.26454863 -0.92525905 0.18186407 0.25071308 0.14824133 -0.28767526 -0.85362434 1.1383705 -0.616811 -0.5288664 -0.18393089 -0.43157473 -0.1810374 0.30341092
239 0.7725283 0.38290018 -0.100393325 0.26062682 0.24067342 0.14013031 -0.15553169 -0.08475814 0.82130826 -0.24673866 0.17139044 -0.60238546 -0.088296995 -0.22201309 -0.46958205 -0.973293 -0.028508851 0.10952632 0.54301804 -0.59044766 0.2033851 1.0781257 0.5260663 0.53206426 -0.71096766 -0.16462807 0.57596874 -0.3422974 0.22357756 -0.03173599 -0.1523252 -0.43312782 -0.0012704754 -0.8050255 -0.50036263 -0.20973474 -0.55058193 0.09563944 -0.37610036 0.2988129 -0.014373705 0.33453804 0.50011116 0.30414844 0.5738478 -0.50396353 0.5931786 0.5642395 -0.52599466 -0.1424574 0.26657274 -0.16632451 -0.03163616 0.54008514 -0.42706558 0.05748785 -0.8216824 0.4499845 -0.005146035 0.4214687 0.43468374 0.9090743 0.32452217 0.25060815
441 -0.07197672 1.1727419 0.02122739 0.6411565 -0.48790327 0.11015729 -0.15906578 -0.5370635 -0.067979254 -0.7651741 -0.3480821 -0.89201045 -0.10606133 -0.05943768 -0.19551188 -0.2796903 -0.6817275 0.05336353 -0.6562916 -0.31949112 0.24456722 -0.30655238 -0.54714364 0.1314372 -0.05136584 0.6620319 0.76563406 0.9869463 -0.07043496 -0.15472227 -0.14367694 0.2546258 -0.37300456 -0.92000437 0.04182264 -0.4256516 -0.4520129 0.3430223 0.34460115 0.08577218 0.4676389 -0.15793897 -0.10456889 0.7848614 0.35305956 -0.030222256 0.19133927 -0.13025588 0.13275282 -0.55453086 0.21784735 -0.15217869 0.99292594 1.1747946 0.21626846 0.64808387 0.25271073 0.054314256 -0.5610113 0.20985349 -0.9706603 0.4393452 -0.27026877 1.279093
519 -0.2058555 0.25967497 -0.3214998 0.58329266 0.5185859 -0.11195781 -0.31503627 -0.07619637 -0.22210811 0.35613298 -0.30189916 -0.41515368 0.20092702 0.04573777 -0.5567328 -0.23471804 -0.24827968 -0.26066214 -0.09184177 -0.34451622 -0.074596286 0.32110023 -0.16304632 0.025317209 -0.1970717 -0.5360211 -0.017517542 0.16445887 0.23695491 0.94579184 -0.43220365 0.34359926 -0.1970511 -0.7923523 -0.19079344 0.019702535 -0.5775421 0.101946235 0.6449024 -0.49292818 0.27967846 -0.17825143 -0.13603455 0.3503332 0.21358463 -0.25264204 0.33131048 -0.2234702 0.564293 -0.33324388 0.34870356 0.59510964 -0.3049519 0.023246082 -0.19881518 -0.32289666 -0.4279891 0.001869091 -0.10436158 -0.033794254 0.73472995 -0.061951526 0.050019573 0.5758053
218 0.2264 0.40136385 0.3328657 -0.2347946 0.27071613 -0.6624801 -0.0014228484 0.2393434 0.58319557 0.69494843 -0.026770098 -0.20219944 0.33941108 0.015003495 0.011487612 -0.81617427 -0.3205457 0.30860615 -0.5825077 0.28980255 0.058083907 -0.42861283 -0.22575781 -0.12367946 -0.101645455 -0.32244548 -0.09496545 -0.685189 0.014292863 0.6013376 0.16185306 -0.28837657 0.47959593 -0.11304417 -0.06575432 0.5412589 -0.09296775 -0.68859047 0.7894502 -0.47507098 0.020229831 -0.21827322 0.47290727 0.29211923 -0.8224489 -0.10001012 0.6042946 -0.5546755 -0.27750102 0.3541194 0.19982314 0.87310266 0.332727 0.4216686 -0.22009197 0.9520778 -0.39221355 -0.49490452 0.015991643 0.49230444 0.14663795 -0.32630476 -0.14731894 0.73768955
94 -0.10006247 0.35543078 0.118503526 -0.0016341056 0.29249296 -0.12155337 0.5388016 -0.19512816 0.29777664 0.54537106 -0.22807223 -0.2778771 -0.73836064 0.23834498 -0.5031362 -0.44976392 -0.073129706 1.2238172 -0.2303192 0.6639477 -0.89483243 0.829962 0.5943778 0.8634114 0.33821505 -0.35325682 -0.43558028 0.55671144 -0.27458814 0.3311481 -0.5895705 -0.23505473 0.5980734 0.028053923 -0.3812273 -0.07818266 -0.027351841 0.04086825 1.0331515 0.024982475 0.65775126 -0.6701023 0.73412555 0.06661203 -1.3247805 -0.6936499 1.5508605 0.23167351 -0.28427246 0.012702637 -0.3951001 0.8501163 -0.24069165 -0.0054879743 0.4590599 0.6111038 -0.37458178 -0.40576085 -0.33778626 0.075645976 -0.2041724 0.9102708 0.0338724 0.2646664
1655 0.1779602 -0.062107425 -0.06972558 -0.59287673 0.11392878 0.56622905 0.46809465 -0.4617274 0.55927837 0.45399302 0.33229402 0.35016418 -0.47530577 0.12823476 0.47203565 -0.144061 0.08325083 1.1702023 -0.47500515 0.1122114 0.65337694 1.0939873 -0.068963565 0.10280116 -0.71865326 -0.5575559 -0.16228807 -0.43698466 -0.03179735 0.78314906 0.38446575 -0.39447826 0.31192636 -0.69676363 0.20172274 -0.03567749 -0.44858417 -0.5590324 0.26352805 0.52117276 0.20386152 0.40822417 -0.19532429 0.5112411 -0.39131612 0.71943706 0.68391895 -0.42776486 -0.31593135 -0.39768088 -0.06264892 0.19549951 0.22675885 0.29775298 0.6157729 -0.15996128 0.08240718 -0.76637006 -0.5366237 0.5209819 0.37161654 0.39852732 -0.07527278 0.4429427
645 -0.5088362 0.59309936 -0.52647316 1.042745 -0.24307108 -0.2766581 0.11825563 -0.7075131 -0.22428061 0.07262647 0.1168029 -0.36443758 -0.2994626 -0.28960678 0.061640777 -0.7986457 -0.28264472 0.24797323 -0.5081872 0.5102303 0.37468845 0.49795356 0.28771427 0.112269625 -0.3684706 -0.20888828 -0.03801171 1.1646993 0.48829886 -0.7712268 0.0026259099 -0.07636779 0.100479595 0.7570954 -0.018466858 0.59850216 0.33638993 -0.02197639 0.30637455 -0.065040424 0.40188166 0.812073 0.27227363 -0.12268747 -0.5707627 -0.08044789 -0.43905696 -0.6128151 -0.23475556 -0.51620615 -0.0029359525 0.090927415 0.86858815 -0.42032596 0.7617079 -0.23735875 0.17189784 0.24174084 -0.098462194 0.44550154 0.52622646 0.19611508 0.75356466 1.0644289
487 -0.27931413 0.12135895 -0.6935041 0.23446022 -0.074176006 0.7027075 0.03987685 -0.081016116 0.38324687 0.18837857 -0.85841167 0.062838316 -0.11272742 0.51630265 0.18651414 0.091310605 0.024602987 -0.0034895905 -0.20361395 -0.17103751 -0.20142022 0.09284166 0.47584137 0.048915762 -1.3562037 -0.26157415 0.6318509 0.073029526 -0.22989489 0.31114167 -0.83717996 0.25757995 -0.29001042 -0.098842315 0.11840736 1.0701042 -0.54478 0.123985715 0.5861468 -0.21371928 0.17676643 -0.38834375 -0.10233596 0.7251983 -0.00091517763 -0.34163815 0.65430903 0.07192568 -0.051200233 -0.6226549 -0.20232424 0.5348191 0.4221771 0.55035275 -0.73138714 -0.21370578 -0.5027243 0.07664999 -1.1386324 0.8999653 -0.18699647 0.42865092 -0.15625708 -0.11258465
833 -0.6631441 0.021559905 -0.6194674 1.4387281 0.90555507 0.35955134 -0.27015367 0.36407858 -0.32597786 0.8792367 1.3117381 -0.32161823 -0.9309685 -1.0347763 -0.8678187 -0.105473205 0.34586704 -0.29384336 -1.0917987 0.43014738 1.5011991 0.46632293 -0.13153023 0.43179178 0.25139654 0.4152262 0.65319365 -0.66287345 1.2494234 1.1263189 0.15001532 0.044893075 -0.18716793 -0.3047604 0.27125087 0.6669653 0.5888119 0.009302922 -1.004145 -0.19580522 -0.79321784 -0.80344784 -0.7853621 -0.5582792 -1.4533017 0.22777791 0.741974 -1.0291342 0.4093594 -0.49845746 0.39146793 0.31127307 0.89409125 0.21698186 -0.97741795 0.2392865 -0.42665547 -0.45585138 0.5586072 1.3099581 -0.12772906 -0.24599028 0.080932446 0.13926028
1171 0.2782593 -0.27458444 -0.54868764 0.94796515 0.38336834 0.25955436 -0.07213837 -0.109690815 -0.5443738 0.034482673 0.3344233 -0.4190493 -0.10900286 0.10375062 -0.034261297 -1.1441376 0.5066021 -0.004716077 0.683159 0.7873795 0.2584963 0.45570505 -0.19324937 -0.021226978 -0.80325025 -0.43653905 -0.58646846 -0.5163408 0.36416486 -0.14163162 -0.18901007 0.13021949 0.42687812 -0.3064702 -0.17910841 -0.5033953 -0.9782686 -0.11724786 -0.5021541 -0.0014418536 0.16672029 -0.7655521 0.4175745 0.44223318 -0.31203845 0.5291364 0.7601695 0.20583875 -0.66489863 -0.68096554 0.5334906 -0.013334232 0.79095 -0.77838737 -0.073186904 -0.18077005 0.053665858 -0.1974461 0.08542331 -0.045548845 0.49973875 -0.056845404 -0.2880066 -0.1814778
73 -0.61777616 0.20450813 -1.5232841 0.7052803 0.6066914 -0.7974469 0.20737368 0.058584623 -0.22053091 0.3059694 0.04528567 0.57658094 0.21094705 -0.05007304 -0.10992857 -1.3041855 -0.019751828 -0.12107495 -0.20949389 0.12745215 -0.045546092 -0.40964746 -0.22664768 0.21219374 -0.93206 -0.28546342 -0.075018585 0.25536126 0.51889205 -0.0191027 0.09237425 0.19882882 0.022214582 -0.5398795 0.16126886 -0.10668678 -0.111834444 -0.23657402 -0.35287312 0.51659 0.22499576 0.11912898 0.14438565 0.95737684 -0.051912595 0.05395469 0.31838572 0.20698518 -0.37459654 0.24138668 -0.82414013 0.5212411 0.5845468 0.18420842 0.7441361 -0.4077275 -0.56628835 0.6754971 -0.20108007 -0.021368282 0.106976174 -0.0073302044 0.49466914 0.23282331
657 0.026355615 0.47096235 -1.283041 0.86244434 -0.48418906 -0.9301885 -0.15117028 -0.4108915 0.43867233 -0.1241587 0.23630619 0.2967205 -0.7300583 0.26977825 -0.72256 -0.564067 -0.0007806879 -0.8426019 -0.2798945 0.10429881 0.15712075 -0.070247225 0.40531322 0.23118657 -0.5488911 -0.124903396 -0.119169086 -0.04994609 -0.19885914 -0.5359078 -0.06728572 -0.16561696 0.51293576 -0.43738997 0.7337026 0.54001033 0.43174127 0.53346974 0.061869748 0.67072517 0.7855586 0.225625 0.0105459085 1.0727394 -0.43940204 -0.25612503 0.64455557 -0.39785343 -0.41151553 -0.43928108 0.86627036 -0.46115062 0.33605793 0.48841617 0.5956044 -0.46314305 -0.41639522 0.2874471 -0.6342844 0.42859977 -0.674066 -1.1834593 -0.26069242 -0.21952337
2359 0.073298566 -0.1058776 -1.4016267 1.187115 0.48831496 -0.5885459 -0.40593803 -0.4744231 -0.2642189 0.14788905 0.5339699 0.4538428 0.32016343 -0.49269396 0.03389188 -1.4633834 0.2058483 -0.1952128 0.34004048 0.28825706 0.008429397 -0.01261669 -0.6176858 0.2159848 -0.34271148 -0.55506814 0.060549676 -0.41900977 0.86459935 -0.31372032 -0.32991266 0.5192623 0.77662385 -0.70257115 -0.27383643 -0.3199062 -0.23397514 -0.22828352 -0.3672782 -0.025929675 0.2640444 -0.26629642 0.10436066 0.4980243 -0.057599783 0.6737538 0.36710265 0.68398386 -0.46362853 -0.28566656 -0.19752775 0.3961265 0.6354146 -0.1573778 0.25020552 0.026580762 -0.30735433 0.32143342 0.044852946 0.61183006 0.047450066 0.115971535 0.25927877 0.31310531
734 0.26944417 0.40213025 0.48528793 0.23902279 -0.30002853 -1.0851547 -0.10564987 -0.84147805 -0.87781554 -0.015870942 0.81812614 -0.804962 -1.1064495 -0.17666575 0.19325873 -0.024782473 0.01809793 -0.17529364 0.47290024 -0.6446327 0.30955768 0.9361775 0.25986353 -0.34631735 -1.0990363 -0.47711766 0.08914661 0.20891678 -0.14591488 0.032331422 0.41374445 0.53022593 0.103928216 -0.7914378 -0.11287243 0.6164608 -0.5626845 -0.15414895 -0.053565133 0.31672722 -0.6301992 -0.27632365 1.2991338 -0.057757165 -1.307571 0.5039192 1.4994831 0.528425 0.06291328 -0.5653541 0.21159774 -0.37077066 0.45448962 0.54927224 0.14611754 -0.05012474 0.13976833 0.6517817 -0.087585025 -0.040958405 -0.19043952 1.0594031 -0.9333523 -0.35996687
2238 0.4339291 0.008985663 -0.5137511 -0.16522738 -0.77116305 -0.09184095 0.005819826 -0.083911054 -0.50115544 -0.4341164 -0.021691263 0.3261935 -0.39931363 -0.7886454 -1.1276693 -0.6144085 -0.1838248 0.18342699 -0.40555313 -1.0448331 0.13093787 0.24573345 1.4086041 0.21219458 -0.020609332 -0.011153178 -1.1845522 -0.29265937 0.84781414 0.08517 -0.09281834 -0.15721616 -0.436723 -0.17553294 0.44644108 0.69193023 -0.59991467 0.069203585 0.4177246 -1.0860255 -0.031324778 -0.6791256 0.42718217 -0.13733554 -0.52978045 0.17694807 0.6289878 -0.1601228 0.38111457 -0.45459726 0.046831936 1.1641301 -0.10661877 0.895669 0.33815983 0.8810728 -0.29431 0.0073620575 0.5694175 0.19018704 -0.44161257 -0.30199406 -0.16654658 -0.6549352
1776 0.00054149353 -0.13154541 -0.79761344 0.5855136 0.1571055 -0.025684139 0.06776324 0.22190568 -0.30305514 0.95729816 -0.21553242 -0.23230341 0.036908697 0.1557807 -0.44384113 -0.3093596 -0.19596739 -0.5625771 -0.096912645 -0.9201987 0.51179594 0.2975212 0.17359307 0.5557859 -0.2543105 -0.17139481 0.65043944 0.17501584 0.16244254 0.64528424 -0.22981906 0.2342458 -0.11704226 0.20004591 0.04041989 0.39753026 -0.11017868 -0.26694807 0.26847452 -0.23618664 -0.036180757 -0.26170865 0.46882772 0.9956804 0.081193276 -0.22703223 1.049177 -0.5577364 0.041511945 -0.008322499 -0.013686534 0.24035633 -0.067463465 -0.499337 -0.38128507 -0.55118734 -0.091522895 0.36110702 -0.20946862 -0.20581144 -0.049737077 0.12824012 -0.04369804 0.782541
154 0.26583096 0.50286704 -0.09129603 0.72955555 -0.52095324 -1.1492027 0.039424073 0.39150625 0.2723624 0.13435236 -0.13046825 0.30055296 -0.18350847 -0.8160971 -0.44853994 -0.74613965 0.122842364 -0.09806533 -0.38955215 -0.14250039 0.71860975 -0.0014509823 -0.17961401 0.24908979 -0.6650017 -0.569866 -0.35720268 0.550625 0.51463354 0.20687214 0.2537056 -0.50560296 0.2171662 -0.033123326 0.116885275 0.17488788 0.6160508 0.3856492 -0.09543529 0.024624357 0.49005982 -0.32940224 -0.556759 0.836202 -0.3234474 -0.11176955 0.2512111 -0.14613175 -0.12925321 -0.2770324 -0.43489334 0.107380584 0.33630392 0.5033746 -0.23416634 -0.11019394 -0.5599507 0.63846254 0.2818338 -1.0959799 -0.46776667 -0.099329285 -0.28406355 0.55720687
756 0.99857783 1.2779003 0.14783566 0.6336481 -0.34033158 -0.400647 0.42058542 -1.0074693 -1.019387 0.501431 0.38915464 1.4376246 0.2007683 0.11153922 -0.2773254 -0.47086543 1.0333984 0.18164195 -0.22625285 -0.46896246 -0.34903717 -0.41104284 0.15799813 0.16677669 -1.5174352 0.20631191 1.086876 -0.24887714 -0.22274463 0.19495602 0.025482608 -0.06407991 0.853811 0.65794575 -0.14790763 -0.50567037 -0.11025039 0.09625092 0.36495802 0.32164577 -0.49045825 0.65482813 -0.3163415 -0.10310482 0.0006189918 0.2972041 0.98729485 -0.80392545 0.77208596 -0.099131845 0.52768207 1.0360234 0.5367065 0.4328777 0.5936861 0.43164116 -0.041073292 0.31572276 -0.42213157 -0.027529394 0.026059596 0.3594252 -1.1478783 0.6156207
2450 0.48663726 0.3397121 -0.9177452 0.565328 -0.1297443 -0.37291828 -0.048162747 -0.27295706 -0.3523981 0.08938492 -0.666324 -0.3804591 -0.3630128 -0.24350652 0.5490973 0.31793013 1.1730205 -0.5806117 -0.6825661 -0.39150792 0.78781056 -0.10673706 0.029473014 0.76112413 0.48737714 0.20478536 0.099734485 0.528782 0.7840263 0.034984265 0.20917542 -0.09829133 0.3218541 -0.20068133 -0.46065432 0.6558259 0.4260903 0.12938313 0.7574582 0.18517181 0.25141746 0.37101734 0.6776924 0.8877589 0.19212607 0.06047428 0.19150425 -0.15307915 0.10649825 -0.88748014 -0.30683413 0.07706303 1.0467039 -0.26047963 -0.16142417 -0.87490004 -0.020181345 0.7286195 0.29307944 -0.28526896 0.1411259 0.06973547 -0.5987792 0.70111465
2160 -0.56271636 1.8280926 0.004817286 -0.4336249 0.071320646 -0.23401588 0.39529133 1.3555883 -1.2970079 1.4224625 0.9605326 -0.84460217 -0.7689769 -0.60976356 0.37014163 -0.659633 0.82634777 -0.37862498 0.019502481 -0.42544818 0.68380386 0.6943663 0.42623803 -0.17045042 -1.721369 0.9345435 0.5416386 -0.66767603 0.65283185 -1.1054188 -1.1013644 -0.1651182 -1.050724 -0.31831145 -0.9680192 0.5601234 0.06595374 0.24434076 0.7303461 -0.15148975 1.0145679 -0.5023693 0.8241326 -0.13032812 0.29642504 -0.77867335 0.96117586 -0.7982778 -1.0869261 -0.9519549 -0.13502546 -1.532495 1.7166387 0.27126575 -0.77558345 1.1422284 0.88389164 -0.50336397 0.08739481 -0.7154863 -0.4623179 -0.08414552 -0.7995084 1.2713426
2451 0.23129487 0.45824966 -1.2043087 -0.0866216 -0.03524228 -0.9997142 -0.113368034 0.316499 0.2358996 -0.5430538 0.44055408 0.049852688 0.375253 -0.12908956 0.14312658 -0.62262815 0.021446483 -0.26122698 -1.0661674 0.69602746 1.0693542 0.078679934 0.6755574 0.35949177 -1.2415577 -0.5328145 -0.2625635 0.30944347 -0.40132973 -0.1108784 -0.04791103 -0.10414916 -0.36478868 -0.63740844 0.27384147 0.19847356 0.5820776 0.35638076 0.11379558 0.0024321768 -0.33993295 -0.7396882 -0.4742418 0.36811092 0.48065898 0.63528025 0.63951063 0.042560823 0.46719688 -0.13871486 0.38025677 0.17289752 0.89913356 -0.27345878 -0.5865453 0.17281552 -0.12189674 0.5747978 -0.75752246 -0.23679344 -1.020548 -0.081071205 -0.4977326 0.25108778
236 0.13336389 -0.1863933 -0.52460897 0.76303416 0.36919275 -0.0645773 -0.3809855 -0.21523923 -0.18393469 0.4360504 0.23241863 -0.52919817 -0.013159137 0.17378585 -0.5475841 -0.25883707 -0.038166687 -0.433647 -0.34582967 -0.44234735 0.09962561 0.3251856 0.29787382 0.35483345 -0.3273719 -0.63656163 1.1321095 0.22992294 -0.4255168 0.9517263 -0.58668345 0.07165146 -0.059954755 0.1123518 0.25493956 0.22899975 -0.5016568 0.14433706 0.30017766 -0.44511023 0.03190238 -0.38448426 0.13200179 0.74936885 -0.033988457 -0.23518696 0.6389959 -0.0046699443 0.21905066 -0.120322265 0.22401184 0.33813012 0.21440807 -0.12055044 -0.6571997 -0.25949812 -0.27985394 0.16287257 -0.49486858 0.06695441 -0.21154547 -0.002435055 0.34531617 0.83364373
1317 0.29013014 0.17866561 -0.14442112 0.4798838 -0.25615898 -0.9205528 0.4981049 -0.026994606 0.5856718 0.19156808 -0.23698452 0.17653386 -0.09986875 -1.1294113 -0.26001725 -1.1928054 -0.0035002613 -0.06460468 -0.0015281677 0.004651301 0.7083727 0.4327932 -0.01155152 0.5521251 -0.19935596 -0.2202804 -0.09602948 0.1171444 0.6251365 1.0757182 0.4009737 -0.4602286 0.1728095 -0.019895526 0.78905493 0.2678992 0.6592101 0.59079635 0.05961247 0.05765165 0.17717114 -0.5080325 -0.34715623 0.7142645 -0.6789618 0.35065174 0.1876774 0.84252256 -0.23590732 -0.87990135 -0.58986264 0.17220385 0.045316096 0.13413803 0.3261161 -0.5853155 -0.295758 0.6075387 -0.5677052 -0.5124956 0.113348275 -0.23447241 -0.29161716 0.35905755
1952 0.7233621 1.3594524 -0.8978345 0.959858 0.3361043 0.31070492 1.1424904 -0.6902194 -0.24517895 0.5438215 1.182412 0.2072127 0.059096754 -0.26033723 -0.06276586 -0.077827275 0.50079453 0.45851448 -0.38122803 -0.35568774 0.31873038 0.95650136 0.016109826 0.16465938 -0.6400063 -0.558473 -0.31951985 -1.1141576 -0.7880631 0.0377699 -0.54482484 -0.31197056 -0.75781953 -0.46532658 0.17098774 1.0722916 0.5211711 -0.10284252 0.028920403 0.27671248 0.58522713 -1.1376617 -0.34047958 -0.001491637 0.8595758 -0.37975612 0.54454845 -0.4205364 0.62163526 -0.53635585 -0.49417803 0.34661677 -0.58110213 0.06739856 0.04303979 0.49137276 0.74251735 0.12598886 0.3561797 1.094144 0.9601746 0.5793804 -0.4660858 -0.28204736
210 -0.024551274 0.3817067 -0.24307278 -0.37490216 0.055946678 0.38438764 -0.46601954 0.111016676 0.11440065 -0.636428 0.3560243 -0.24895224 -0.090501875 0.066546366 -0.81047875 -0.19697013 1.0392469 1.024429 -0.22360937 -0.25459892 0.12846169 1.3216857 0.12929331 0.3701755 -0.0067502186 -0.63764244 -0.46226355 -0.68950754 0.21018451 0.38252324 1.3183208 -0.4613944 -0.64304894 0.07296049 0.0051204422 0.39490855 -0.07398478 0.25874498 -0.22320035 0.2994206 0.3963465 0.045389593 0.5397869 0.4429553 -0.15099372 -0.119842425 0.43367606 0.76484895 0.43233243 -0.8611706 0.045404583 0.34871507 0.57682484 0.12824126 0.741553 0.6373573 0.510842 -0.2456644 -0.057988364 0.48908627 -0.29122043 0.24751055 -0.797552 0.39973876
1154 0.21378206 0.69975376 -0.8659759 0.06415219 0.07814645 -0.7457219 0.07427986 0.6841111 0.25530627 -0.04193363 0.2514758 0.5597625 -0.16147014 -0.56374365 -0.5560718 -0.7011262 -0.43148306 -0.64868104 -0.1793716 0.37388545 0.543272 -0.15230837 0.26825014 0.29523933 -0.19082168 0.35856897 0.3102119 -0.4405565 0.3529447 0.34556064 0.4784784 0.33436084 0.36898553 0.31360924 0.10342429 0.9041574 -0.18130036 0.40498438 0.35728815 0.6719592 -0.10865415 -0.22958726 -0.42209014 0.80295444 -0.7891517 -0.33863878 0.09073648 0.17136143 -0.20831092 -0.47204888 -0.2271573 0.20982519 0.648643 0.07667228 0.979241 -0.37570813 -0.41168743 0.3546229 -0.6263908 -0.3897427 -0.4368473 -0.37699524 -0.27669847 0.23814242
1869 -0.53229916 -0.004467885 -0.16103207 0.59652334 -0.25160253 0.16521299 -0.6235608 -0.6465918 0.24172981 0.18992871 -0.20695724 0.08177346 -0.6323665 -0.2907214 -0.83723795 -0.22746076 0.6347293 -0.3989509 -0.28318343 0.018730752 -0.29552338 0.5600903 -0.5308435 -0.13827746 -0.47346556 -0.24816789 -0.8426746 0.22074363 -0.13217898 0.21571718 0.3442395 -0.18212505 -1.0867548 -0.7989322 -0.50087285 -0.022370819 -0.20454422 0.24632852 0.58970493 0.43774372 0.29122332 -0.06458648 -0.33215582 0.18714115 -0.26276228 -0.32880706 0.4047375 0.21966088 -0.37430656 -0.5252634 -0.32153136 0.004162718 -0.27756527 0.38557586 -0.20941913 0.31302863 0.1444865 -0.5558935 0.1356853 0.17307054 -0.14245732 -0.1957497 -1.0755732 0.30165324
1912 0.22470817 0.35306042 -0.5649338 1.0416784 0.16487437 -0.2706467 -0.47625196 -0.73042643 -0.94447464 0.38163295 0.28614336 0.2896474 -0.21452707 0.756929 -0.38934797 -0.6705559 0.14259155 0.28461438 -0.35651582 -0.47783658 -0.28219697 0.09722114 0.0554153 -0.17533243 0.20168959 0.03754733 -0.112171836 0.018189313 0.022321405 0.6621865 0.6542669 0.24697338 -0.41054612 0.30493513 -0.9919757 0.019659886 -0.10456337 0.21332192 0.47977242 -0.6921644 -0.04246548 -0.3878518 -0.0334568 0.45926252 0.014658644 -0.9193556 -0.116940245 0.6898464 -0.20716125 0.36095554 0.17176439 0.052202802 1.0295182 1.4638841 0.28366172 0.38344532 -0.65630543 0.20091602 -0.4614482 0.046012484 0.56225914 -0.10185036 -0.198558 0.35733116
1682 0.99634355 0.85295254 0.2921466 0.9690383 -0.00315938 0.258196 -0.20364411 -0.7106873 0.03436077 0.12569271 0.045094576 -0.7487517 0.1032466 -0.50101715 -0.75352925 0.06074032 0.16240859 0.47389948 -0.7389263 -0.2250821 -0.41140014 -0.09200843 -0.09662928 0.5101538 -0.5043283 -0.11094925 -0.46297342 0.4331311 -0.22068109 0.05349672 0.2576208 0.73952913 -0.7071162 -0.29402757 0.012016545 0.32636204 -0.08829808 0.24693896 0.10763462 -0.0746027 0.27479294 0.9884608 -0.31178764 0.47736615 -0.10160748 -0.22529154 1.2613356 0.6490484 -0.26256606 0.5001079 -0.4994695 1.1191177 0.22432743 0.5159606 0.0036530637 0.983228 -0.23272912 0.26523054 -0.6447793 -0.12104676 0.930026 0.6765303 0.6005205 0.106047586
1702 0.6880041 -0.19657427 -0.51509804 0.2857296 -0.75311226 0.2634361 0.12006673 -0.24872066 -0.20969826 -0.36253414 -0.22120245 0.08563724 -0.3989759 -0.39750785 -0.75323063 -0.5340272 -0.2001085 0.5777083 -0.7991896 -0.50493 0.020051919 -0.02602833 0.8083929 0.8462845 -0.24604802 -0.57051075 -1.0557624 -0.27934587 0.75535834 -0.070053004 -0.3472526 -0.69708914 -0.09955261 0.55330324 0.064909875 0.60991687 -0.37247667 0.19053103 0.32563144 -0.798344 1.3355595 -0.45650002 0.31898206 -0.29845417 -0.7686123 0.45013502 0.6859418 -0.13560294 0.66840506 -0.7579504 -0.9199048 1.2147094 -0.063882954 0.9703022 1.0693004 0.6182805 -0.2697453 -0.009368844 0.100318775 -0.3290084 -0.6092835 0.100638606 -0.36652946 -0.5975625
2080 -0.14899305 0.44137043 -0.4914729 0.07224318 -0.15771222 0.27718827 0.08914861 -0.22687212 0.4438232 0.16143897 -0.47982046 -0.09706972 0.18653975 0.16432135 0.06707236 0.20958582 -0.18290743 0.016137345 -0.4160461 0.16935115 -0.5004993 -0.116476975 0.17845704 0.26472795 -1.3160515 0.069173835 0.8317457 -0.22361882 0.4160549 0.6547459 -0.18068951 0.123818606 -0.46630946 -0.28893387 0.22033386 1.444329 -0.30617017 -0.69237316 0.53710836 -0.6521744 -0.13815443 -0.04647984 -0.23102932 0.4766821 0.3504327 -0.27430853 0.96153617 0.2200776 0.11570949 -0.68235993 -0.2970007 0.4634968 0.22400847 0.48421055 -0.5981338 -0.953688 -0.3781023 -0.1563325 -1.1759377 0.6882453 0.07611413 0.80203575 -0.20689824 -0.43850654
505 -0.22040305 0.11197972 0.08567126 0.002194053 -0.33260894 0.86083937 0.06569483 0.6766272 -0.60167694 0.0028492173 0.16837391 -0.013986024 -0.17540802 -0.3070227 -0.25815916 -0.867901 -0.11035808 -0.47518212 -0.75882107 0.5039684 -0.13790199 -0.32189265 0.33902135 0.16216409 -1.1019379 -0.4705557 0.08415322 0.40586323 0.1969349 0.46997508 0.1723613 0.32948673 -0.703871 0.08215834 0.015330931 0.86125225 -0.23456581 -1.0430106 0.3494608 0.48717886 -0.31614566 -0.7756895 0.21345359 0.8611053 0.05157366 -0.32716623 0.14012328 0.5735652 0.23052323 -0.36388212 0.3289399 0.35555926 0.65362376 -0.5221819 -0.5130633 0.578694 -0.03399435 0.6346207 -0.14665847 0.37791824 0.3335238 0.43578798 -0.40061155 0.33438906
1955 0.26905242 0.990708 -0.08894394 -0.6385918 -0.09547759 -0.4060605 0.2296199 -0.8351954 -1.9941461 -0.03465357 -0.037444595 -0.44227555 0.07366463 0.54773074 -1.2131538 -0.2568733 -0.5996637 -0.15755232 0.006046542 0.800744 0.22687392 -0.42522335 -0.30510226 -0.9370299 -0.7970897 -0.0958438 0.76189727 -0.4657977 0.68912774 0.33414727 -0.016399486 -1.2226797 0.087167345 -0.05035439 0.9727481 0.41668585 -0.82356215 -0.9220612 -0.5455867 0.804905 0.8205499 -1.3109787 0.90836674 -0.2626161 -0.19923604 -0.35135525 0.059918698 -0.15798053 -0.6238101 -1.3085763 0.33769563 0.8989859 1.072795 1.3724849 -0.039433204 0.09549276 -0.04515798 0.56575346 0.5995894 0.42889223 -0.52681416 1.008204 0.728679 0.79992634
735 0.26529315 1.4159424 -1.532881 0.10561121 -1.1072992 -0.042634804 -0.39572358 -0.8399101 -0.84812635 -0.08725847 -0.53635037 0.20806429 0.27532792 -0.6286724 -0.70829666 -0.3241945 -0.856304 0.27799225 -1.458923 0.37220353 0.7307794 0.7859093 0.027291922 0.054063085 0.108825505 0.8475902 0.22753568 0.012813752 0.44682375 -0.22739904 -0.26159188 -0.37278056 -0.48054275 0.5300991 1.1896899 -0.44755375 -0.38337168 -0.32558176 0.7692965 1.4917712 0.55416566 -0.5245376 1.2823995 -0.2360837 0.6891228 0.3239362 1.173501 -0.18645437 -1.0390111 -0.624998 0.27537334 0.33446324 0.75103956 1.009259 -1.502244 0.74779457 0.31570938 -0.9051151 0.5395259 -0.0532669 -1.6608146 -0.067189276 0.31908622 0.6885333
364 -0.23842458 -0.12846975 -0.3179087 0.30961713 -0.42081314 -1.1229877 0.6404789 0.691604 0.42231348 -0.062217552 -0.3373285 0.16228223 0.3605018 -0.95502335 -0.42527586 -0.75917804 0.23754007 -0.122569405 -0.33048558 -0.6886528 0.9220303 -0.0564127 -0.02261044 0.7719111 -1.054798 -0.10812762 -0.2083475 0.62846816 0.72418714 0.7383102 0.2257252 -0.55403423 0.1367244 0.08479265 0.306129 -0.22729462 0.85625273 0.32873362 0.18947932 0.67778975 0.34164792 -0.35853228 -0.52016914 0.6589768 0.31288555 0.06043038 0.60708153 -0.14045508 -0.64888406 -1.1763915 -0.54405534 0.0018787575 0.4059133 0.46160185 -0.29207548 0.08326509 -0.64262277 0.4803213 0.06847027 -0.4650924 -0.3141941 0.09955506 -0.18568832 0.16961735
89 0.3940835 -0.2099744 0.053595163 0.45026332 -0.13082148 0.5436284 0.31651393 -0.6726558 -1.0297463 -1.2020153 -0.7721844 0.7275961 -1.2169147 -1.3156087 -0.05808349 -1.9196723 0.30667293 -0.28561687 0.1621865 -0.6586574 0.95907086 0.18908054 2.4739625 -0.3675027 -0.8599623 0.18937385 -0.5683923 -0.099288896 0.31215554 0.7547495 0.57445496 -0.44724005 -0.35655928 -0.93967205 0.45015022 -0.26843813 0.022134336 0.08173329 0.48751366 -0.65040094 0.8607112 -0.026371459 0.65183395 -0.054975104 0.065548725 -0.872804 0.15356137 0.3894931 0.27233526 -0.054826576 -1.1130592 0.67984533 0.17344587 0.27999198 -0.15936404 0.6596575 0.09720489 -0.4094079 0.64903873 0.76952964 -0.33707464 0.20963402 0.20374772 0.3586548
1583 -0.42823923 0.6435643 -0.433084 0.5948731 -0.12292293 -0.024252167 -0.0008337273 -0.3528503 0.47645265 -0.72923017 -0.50299335 -0.27252704 0.08362395 -0.5554382 -0.03821495 -0.40994853 0.6165315 0.21911247 -0.065713845 -0.532119 -0.42083922 0.2807916 0.032601792 -0.67662317 -0.23508321 0.02589894 0.0011523329 -0.023693003 -0.26251644 0.50936425 -0.024486048 -0.79805374 -0.20175248 -0.48097774 -0.4752787 -0.024706228 -0.9971228 0.7321771 0.17422727 -0.2093523 -0.43601045 0.0805791 0.25049266 0.61781526 -0.44869867 0.22524719 0.4396064 -0.65095127 -0.56608784 -0.21779783 -0.14596319 0.064077534 0.30865628 0.5764804 -0.13069385 -0.51274455 -0.004902711 -0.33290777 -0.66624874 -0.30214486 0.5079118 0.15207927 -0.09166559 0.2902495
1351 0.0008494688 0.8783096 0.4476324 0.4345426 -0.16401255 0.2223514 0.18407704 0.07652274 0.14972606 0.38648698 0.3195386 -0.23658483 0.024493083 -0.22000009 -0.6890594 0.5808013 0.0074807247 1.3236856 -0.14511839 0.14379856 0.2914526 0.7474122 0.11304938 0.5924747 -0.9717926 -0.5500158 0.14338908 -0.09626396 0.8111196 0.4426921 0.7789758 -0.8039782 -0.5596044 -0.20672071 0.15876766 -1.0741254 -0.5837982 -0.13276772 0.03245387 0.9226111 0.17107391 -0.08543448 0.38180894 0.7362791 -0.6250544 -0.27006644 0.9675363 -0.999296 -0.012086279 0.6553616 -0.20663337 0.022337174 0.35366264 0.24400571 -0.10722055 0.2077765 0.6519676 0.91638994 -0.46489444 -0.36607397 -0.1263456 0.1782035 -0.7316118 -0.18088147
180 0.06989451 0.1923265 -0.17877889 0.34287462 -0.008928685 0.14188944 0.14826185 -0.20921177 -0.2846684 0.41901615 0.66318864 0.91333914 0.48753977 -0.061511055 -0.6281999 -0.60968226 -0.52992004 0.7491721 -0.022539303 0.42946836 -0.09866467 0.16947691 -0.41363144 0.25496945 -0.07264888 -0.27146426 0.23119809 -0.91276544 -0.114527866 0.47690305 0.19250047 0.15521716 -0.19130099 -0.41112706 -0.20622833 0.4252099 0.40428665 -0.4664001 0.6712992 -1.2560325 0.3221418 -0.4516013 0.03337032 0.76401967 -0.46405375 0.46326396 0.8147493 -1.1204628 -0.51630336 -0.28260612 0.06781235 0.04363084 1.0376016 -0.09824025 -0.5122936 1.14205 -0.46851853 -1.1958419 0.4197688 0.15614432 0.4741043 -0.2358265 -0.7353024 0.80611116
1902 0.3689929 0.7311916 -1.1855042 0.6639548 0.11396276 -0.4637401 0.37917358 -0.8145795 -0.33345017 0.2225934 0.0061728815 -0.945549 0.5760795 -1.3520467 0.3716108 -0.6915983 -0.22403434 -0.013222934 -0.4316539 0.87463814 0.31106746 1.0246652 0.4067206 -0.22619526 -0.26421097 -0.44216385 0.4332138 0.79833436 -0.1563113 -0.8862053 -0.20261212 -0.31516376 -0.25019214 1.5008943 0.9605502 0.4511179 -0.7752937 -1.1290592 0.089351326 -0.7998418 -0.2742054 -0.48066634 0.33213487 -0.15529336 0.0062936535 -0.090722576 -0.032352645 -0.3631498 0.36958668 -0.47289494 -0.55537593 0.12845007 0.59286994 0.27017933 -0.32655436 0.25741118 0.13892594 -0.22306336 -0.4991725 0.18286473 0.63000053 -0.0042307205 0.35781178 0.5424535
1602 0.30206034 0.6940338 0.34472853 0.24446453 0.4274419 -0.61019486 0.6840585 -0.22549394 -0.42891228 0.32705697 0.25182575 -0.8880782 -0.93442404 -0.59454405 0.25509334 -0.1918834 -0.37879777 -0.30915406 0.17756622 -0.6385885 -0.5634443 1.2262323 0.048134364 0.89429384 -0.46393847 -0.7928032 0.30237675 0.23885714 0.03854475 0.43221682 0.33181986 -0.08998364 0.29919598 -0.41922116 0.069278106 0.18664178 -0.08357299 -0.10377896 -0.35522777 -0.06846558 -0.6796477 -0.0096467035 0.6392595 0.10196697 -0.025688255 0.57485354 1.0924605 -0.53832257 -0.11433813 -8.864721e-05 -0.2709128 -0.03126841 0.33199215 0.7688025 0.5633316 0.17324552 -0.16095519 0.13659973 0.0183355 0.67131996 -0.03057181 0.58008677 -0.6102192 -0.18802743
316 -0.42761913 0.23653819 -0.58245224 1.0198311 0.73880875 -0.30268642 0.13910966 -0.12001258 0.0017841153 -0.0986229 0.1335473 -0.07676869 -0.45790312 -0.26371956 -0.5106289 -0.14492784 0.18291849 0.00962913 0.16115515 0.64847344 -0.046357162 0.17561379 -0.34599766 -0.834795 0.19772482 -0.4918191 -0.32317245 -0.7754697 -0.0643065 0.9321218 -0.33842188 0.4518876 0.258329 -0.418684 0.49692526 0.4844288 0.10684582 -0.3861479 0.6023143 0.023953205 0.97146916 0.091721356 -0.22614951 0.43188134 0.17385945 0.26189792 0.41983524 -0.7358589 0.36327958 -1.0349826 0.41722462 0.1731649 0.19208866 0.15087828 -0.03441024 1.007598 -0.10190279 0.26463798 0.0895286 -0.742785 0.8245688 0.32727665 -0.5267254 0.5042093
2122 -0.40271533 0.38283643 -0.3900388 -0.11372854 0.48610502 -0.41783142 -0.06493012 -0.4972562 -0.5659292 -0.17074503 0.47426087 -0.418447 0.33359006 -0.17860493 -0.7871483 -0.6604193 0.03682258 0.7031926 0.7386772 -0.60020506 0.65695345 -0.10518328 0.913156 -0.2266405 -0.7981983 0.45278034 0.18614928 -0.1677584 0.5824995 0.4973087 -0.13320453 -0.29438108 -0.7020269 0.40008137 0.22562987 0.9375498 0.005938542 0.6786581 1.2216403 0.2508642 0.29487383 0.0035014716 0.050741274 -0.39016807 -0.2275788 0.18346083 0.17420387 -0.4822416 0.4626121 -0.075141825 0.019136827 0.024559086 0.31990138 0.5202566 -0.688865 1.626283 0.14325488 0.36520034 0.71478856 1.0429481 0.7139116 -0.8362385 -0.2693733 -0.4210303
231 -1.2444421 0.3141574 -0.43321264 0.8743146 0.9302651 0.05460106 0.30403113 -0.5625025 0.6488744 -0.08840733 0.24999145 0.17451403 0.08938077 -0.44514808 -0.6505736 -0.012114752 0.17778078 0.124966495 -0.5914328 0.02544378 -0.077981636 -0.06306295 -0.1453109 -0.12729137 -0.42400035 -0.37276623 -0.13957572 -0.05729853 0.549608 0.36458057 0.6331758 0.15748876 -0.024671739 0.09522132 -0.04366953 -0.06583612 -0.8178378 0.19341432 1.0222172 0.05397405 0.45763808 -0.039242487 0.38228238 0.21487062 0.6961453 -0.76978236 1.370794 -0.18605667 0.79582477 -0.3666194 0.64771783 0.21460763 0.2080905 -0.17636275 0.39669606 -0.07645063 -0.27777672 -0.5070864 0.082109086 -0.51471335 0.61774343 -0.27952805 -0.2113151 0.29774642
2199 0.13017008 1.4288416 0.21431358 0.19487189 -0.098616675 -0.3780321 0.60473436 -0.078814365 -0.822293 -0.45481712 0.84579676 -0.03440855 -1.1867337 -0.7922411 -0.2571371 -0.33507466 0.24357371 0.05804358 0.048147596 0.053779922 -0.05077824 0.14592579 0.4771549 0.44220763 -0.83966434 -1.236755 0.8769276 0.19875129 -0.04531239 -0.21235213 -0.108844966 0.27785665 0.49018127 -0.16321246 -0.5821894 -0.027062248 0.3064368 0.06506029 0.09415768 0.22859976 0.16265 1.074513 0.16400914 0.16905145 -0.045013595 0.79447293 1.3437277 0.17048165 0.03927709 -0.13023752 0.15467268 -0.104535155 0.57713896 0.8967941 0.3397554 0.11998816 -0.988537 0.09040156 -0.5974321 0.4750401 0.18162867 -0.056489293 -0.93733656 -0.110470414
374 -0.5195012 0.52357274 -1.348196 0.9470963 1.0231236 0.98951906 -0.6423362 -1.4369272 -0.26923832 0.3784123 1.3006351 -0.0012050924 1.4041309 -1.5219367 -0.21037713 -1.1589638 -1.5290827 -0.12802473 -0.19920464 -0.3023102 -1.3486216 0.47053432 0.4764603 1.0320897 0.22752835 -0.5088595 -0.6699207 0.94034004 -1.2003169 1.241064 0.008074714 -1.4067708 0.7750958 0.7933842 0.8365594 0.91064304 1.4640242 -0.91769093 0.6105161 1.2003689 -0.053859472 0.6547093 0.20592903 0.5602404 -0.6352403 0.06175464 0.17186812 -0.46370935 -0.37793392 -0.93168706 0.40936 0.5328644 0.7737812 -0.061410595 -0.97307813 -0.07397507 0.7007212 1.1340914 -0.79035646 0.48837665 -0.12912226 0.55332625 -0.7155041 -0.5931892
2146 -0.64940923 0.44090083 -1.3770006 0.9374524 0.850773 1.3251785 -0.77701527 -1.1821821 -0.2989222 0.20150751 1.3067118 0.10789517 1.4741923 -1.4527148 -0.4526919 -1.2335197 -1.7182101 -0.078062475 -0.04564738 -0.18337291 -0.91209453 0.7479338 0.12446951 1.2184018 0.12349995 -0.6486506 -0.7684616 0.6734084 -1.1773844 0.868368 0.31854987 -1.1928716 0.14947575 0.6154004 0.9678023 0.6453825 1.5031296 -0.531102 0.686377 1.1335303 0.14854933 0.7359936 0.3934286 0.42637736 -0.57032967 0.091952585 -0.02024823 -0.76170015 -0.38875082 -0.87802136 -0.081564136 0.70374256 0.9951906 -0.04268752 -1.0559376 -0.39057517 0.89622575 1.117914 -1.0711925 0.42663813 -0.064284556 0.39193675 -0.79912204 -0.6215673
2083 -0.56734097 0.4166582 -0.73442894 0.40670687 0.06917811 -0.17403159 0.26798886 0.64530605 -0.2949974 0.12033382 -0.3848064 0.274788 0.07385399 -0.9305845 0.06486433 -0.842153 0.04924177 -0.20949264 -0.57607985 0.24423172 0.68601483 -0.08068277 0.4800556 0.3170233 -0.93947726 -0.013371317 9.795653e-05 0.52046293 -0.25275186 -0.018511886 0.16561203 0.26873752 -0.48125768 -0.5031381 0.039801992 0.6589323 0.103234895 -0.35025746 0.21207118 -0.034760315 -0.09091151 -0.31233686 -0.39339992 1.0054841 0.15998934 0.22648457 -0.023063036 0.32194898 0.12908281 -0.40282238 0.05576766 0.50823414 1.0338569 -0.7921966 -0.2329838 -0.13118868 -0.3429491 1.0551362 0.05839593 -0.18140402 -1.0851246 0.48613963 -0.70743406 0.03364906
1464 -0.2764768 1.0916129 0.042902067 1.0637919 -1.1630006 -0.089281954 0.01828273 -0.38142002 0.25767124 -0.23801957 0.71637017 -0.2499822 0.23819491 -0.09540296 -0.39018166 0.23972453 -0.30373427 0.61421305 -0.67305434 0.5091657 -0.015315637 0.40940613 0.8007047 -0.27937022 -0.012614557 -0.68405217 -0.21258998 -0.7043626 0.46201214 0.43929777 0.78753966 -0.8285129 0.63040245 -0.5604742 0.3507699 -0.6649681 -0.26884195 -0.078356825 -0.011259684 -0.0984336 0.18598625 0.95137924 1.0725416 0.7338207 -0.28769433 -0.40483513 0.32364362 -0.32055154 0.53123426 -0.20057881 -0.40485996 -0.058167726 0.90723914 -0.14377548 -0.9050624 -0.28908098 0.35666248 0.7643391 -0.085456744 -0.40326273 -0.053125266 0.1556266 -0.89527345 0.2761006
1681 0.8859669 0.06682286 0.0637911 0.6793284 -0.41037655 0.3928478 -0.7252206 -0.17735648 -0.12461407 0.21427257 0.25189987 -0.5986397 0.28752944 -0.26563507 -0.81855726 0.21878755 -0.3766015 0.28188303 -0.6389258 -0.14311098 -0.9144213 -0.33840403 -0.010381205 0.6812397 -1.2654558 -0.712254 0.008559394 0.49352378 0.29220852 0.12898065 0.13398668 0.9268906 -0.81356144 -0.58652514 0.6150778 0.69666857 -0.19427428 0.1635675 -0.06459932 0.17486463 -0.09042577 0.4025684 -0.21983236 0.39782307 0.20050307 -0.29608786 1.0430328 0.6983812 0.2539858 0.20825326 -0.7828439 1.0452455 -0.018096777 0.6506253 -0.3159311 1.0511491 -0.2805212 0.41187072 -0.65751666 -0.021322418 0.8390575 0.8653954 0.26139548 0.777867
2291 0.6335464 1.273758 0.3331802 0.18373589 0.06865516 -0.20191993 0.35441694 -0.45344585 0.5228795 1.2207899 -0.593201 -0.45270255 0.1926792 -0.82326794 -0.9011318 -0.38253105 -0.055306345 0.15533756 -0.63667744 -0.12336114 0.15682009 0.23470986 0.19481651 -0.279243 -0.13525777 0.39811036 -0.68666613 0.0075026383 -0.77049154 0.7290831 0.5134991 0.41365817 -0.10180534 -0.2972088 -0.37310332 0.32870924 0.11450619 0.15087023 0.1698666 -0.2617872 0.22671688 0.5902466 0.040743507 0.39121997 -0.37386405 -0.2816167 0.9953627 0.844605 -1.0667027 -0.2672162 -0.56244814 0.71696144 0.4931474 0.90533185 -0.024064098 0.88240045 -0.3855461 0.38540742 -0.47826254 0.21526124 0.6534128 0.4756248 0.4854248 -0.7739628
2681 0.014548904 1.3222626 -0.59705144 -0.2947629 -0.65711254 -0.7599429 0.46947005 -0.9790269 -1.5388551 0.7712431 1.8301743 1.1892148 -0.34408593 -2.181071 -0.12763022 1.3900709 0.9736568 0.73365635 0.4823352 -0.3293654 -0.39109978 -0.97175837 1.3215375 1.3525075 0.12863897 1.7020017 -0.19352861 0.51575816 1.0014498 0.077330075 -0.008252916 0.36020333 -0.4828685 -1.1296166 -0.75459516 -0.14848202 0.21998319 -0.2452845 -0.5601383 0.67864436 0.06282516 -1.022196 0.6762472 0.95329535 -1.6831577 -0.55738693 1.0595614 -0.19350432 0.33628437 -0.24202871 -0.5089754 1.0174816 0.047639623 0.31901032 -1.2701838 -0.3328078 -0.99627936 0.57218045 -1.3601736 -0.18100747 0.21512796 -0.62407243 -0.56323093 0.61748224
456 0.33545458 0.8448175 0.1845684 0.21482441 0.11654476 -0.10142112 0.36740738 -0.0569209 -0.7265657 -0.090494536 0.6274819 -0.03427784 -0.9426381 -0.33201063 -0.26005143 -0.5385256 0.00059592765 -0.1524817 0.3989481 0.10391985 -0.09681624 0.5978015 0.39580622 0.6179697 -0.13412133 -0.6289218 0.67409885 0.18824825 -0.2214688 0.41475734 -0.56542367 0.20741153 0.26048598 -0.5917672 -0.5293185 0.05164992 -0.0673377 0.35006243 0.38058993 0.86562884 -0.16501045 1.0926919 0.43632096 -0.40896437 0.011514614 0.6431385 1.251875 -0.25219092 0.51472425 0.08346317 -0.35225356 -0.12125487 1.0538057 0.82686406 0.19189112 -0.11485233 -0.18833712 0.45799413 -0.7460085 0.15341742 0.09600316 0.12238355 -0.7927894 -0.5422782
48 0.587976 0.6083553 -0.67678326 0.5051715 0.8733009 -0.08715324 0.30661672 -0.6454499 0.09799872 0.18109997 0.81495315 0.2233863 0.56327504 0.15478124 -0.5122448 -0.11148659 0.21256372 0.33068216 0.1057041 0.16026028 0.35758287 0.5969193 0.25717688 0.027289899 -0.36554208 0.5278433 -0.5827846 -0.8045354 -0.88417727 0.4198948 -0.8709826 -0.26913342 -0.8006192 -0.81806093 0.63577086 0.53295714 0.34558803 -0.30385736 0.10372671 -0.70810187 0.43355915 -0.5004827 -0.14101735 -0.20317824 0.6761236 -0.12798588 1.0374149 -0.7625264 0.7383825 -0.8922348 0.15954132 -0.35406086 -0.5988809 0.26174086 0.06945517 0.5512383 0.06582251 0.52209467 0.18086818 0.8215415 0.8337178 0.2617691 -0.27304792 0.27921686
1367 0.017070966 0.29469118 -0.6026552 -0.036041114 -0.12443655 0.4641803 -0.63401985 -0.059118133 0.3794281 0.11776748 0.32966924 -0.7239315 -0.23169622 -0.6831586 0.0094111655 0.14607318 -0.5004477 -0.008638873 -0.7306686 -0.2299426 -0.10330837 -0.34772974 0.14009461 0.35712078 -0.8834204 -0.063633606 1.2997624 -0.6834403 0.16551824 0.7731106 -0.29669705 0.24873196 -0.4930684 0.08340062 -0.1311568 0.93275154 -0.7052401 -0.27433112 0.9044748 -0.26147854 0.4049995 -0.01671015 -0.20228103 0.13401943 0.3728382 -0.019481165 1.1227024 0.25044757 0.16161382 -0.26402545 -0.4510847 0.59433484 0.5446918 -0.09734483 -0.7448193 -0.8134541 -0.28812885 0.290582 -0.80549127 0.78277695 -0.17490807 -0.06711261 -0.26397386 -0.26243055
490 0.30205643 0.88380504 -0.14809209 -0.07143857 -0.5514755 0.79895175 -0.4092838 -0.2847978 -0.36615628 0.3545011 0.41780818 0.1550799 0.26129004 -0.028500471 0.6794822 0.1810583 -0.22232279 0.7290508 -0.41791788 -0.141395 -0.39223108 0.9139777 0.33489406 -0.5211176 -0.85698956 -0.08567073 0.13087213 -0.54147166 0.5058395 0.82358706 0.15273231 0.13226801 -0.08342778 -0.63081634 0.1328504 -0.39535975 0.33175775 -0.107399486 0.26247752 -0.3357457 0.08842419 -0.049599886 0.21005777 0.61569357 0.0047664884 0.1953962 -0.3053592 -0.4462618 -0.64104074 -0.5352629 0.29217085 0.30009878 0.43700916 1.1811615 0.5968243 -0.3885721 -0.3937224 0.85723674 -0.113596804 -0.47390252 0.10080646 -0.38554114 0.04408686 0.2998665
33 -0.37763345 0.75814945 0.044401485 0.013598733 0.20466724 -0.60353875 -0.061548077 -0.120079525 -0.46024662 0.14740174 0.6370732 -0.29860595 0.21346533 -0.0009831865 -0.45914474 -0.65873563 -0.23490413 1.4742159 0.24751656 -0.065345205 0.51006085 -0.19701463 0.59457755 0.12568577 -0.76662755 0.08467377 0.26353884 -0.6809286 1.5103097 0.1038082 -0.73646057 -1.132209 -0.5838744 0.07230856 0.13638744 0.87306726 0.6124139 -0.099534005 1.8624778 -0.38207883 0.4765983 -0.15403695 -0.04876152 -0.28201413 -0.40282118 0.09885776 0.16848679 -0.52285904 0.17195489 0.4806851 -0.06202122 0.7448182 0.15508589 0.4974917 -0.5995782 1.0216414 -0.35712498 -0.084084086 0.33572227 0.71661025 0.8861609 -0.33331814 0.121137775 -0.27491617
1296 0.22065029 0.69673926 0.2697348 0.41813174 0.23508684 -0.2210044 -0.54938835 -0.20380042 -0.50361097 0.4786789 0.25471213 0.09507114 -0.7049379 0.16751206 0.24474873 -0.72777796 -0.07813696 0.9002512 -0.46581683 -0.3866624 0.16982916 -0.2729225 -0.0470957 -0.026953653 0.34283587 0.4864687 0.34846687 0.68262446 0.51942533 0.5747168 0.55729127 -0.16521826 -0.43682006 -0.6687805 -0.48176232 0.19302878 -0.3486751 0.14083907 0.08056907 -0.69460076 -0.1191246 -1.0925047 0.5304259 0.90438247 0.20324259 -0.4047847 -0.18985558 0.30820072 0.6815342 -0.31158903 0.91598994 0.01323411 1.369338 1.0278503 0.815289 0.44226155 -0.545743 0.631623 -1.8788074 -0.28634447 0.24921261 -0.7806027 0.31278083 0.48120245
2383 0.16338445 0.6140652 0.18043292 0.6689723 -0.1988516 -0.39097452 -1.2113607 -0.20972286 -0.14615342 0.4365963 0.80789495 -0.7235957 -0.11945409 0.47753748 0.3819797 -0.8297043 -0.57951987 0.6785872 0.014623503 0.13332015 0.93163854 -0.819183 1.8487073 0.50538737 -0.6701877 0.24465382 0.08758143 -0.053574774 0.49422896 -0.08695889 -0.800396 -0.8970753 -0.21104719 -0.20117551 0.29774296 1.2889895 -0.79601616 0.23360997 1.232209 -0.112514555 0.124145135 0.42925304 0.4459871 -0.5848417 0.028960096 -0.117664255 0.66253376 -0.23220435 0.19819322 0.40707004 0.06539239 0.60933185 0.47755054 0.17387676 -0.29284167 0.30308664 -0.7376831 -0.28021815 0.5253444 0.12206056 0.35747853 -0.23702249 -0.52911115 0.12617698
1889 0.44313908 0.62703085 0.04490296 0.16294003 0.36048973 0.41440272 -0.47468907 -0.43838423 -0.5090101 -0.044883955 0.5962693 0.2698065 -0.7314134 0.30775777 -1.1514944 0.077340454 0.20835456 0.79680586 0.75511396 0.028062932 0.48953828 -0.39911354 0.5084772 0.9434893 0.47953895 -0.3164214 -0.16932727 -0.62375903 -0.69972694 0.6505031 -0.16122769 0.49121043 -0.33751598 -0.110703126 0.066883154 1.1408219 0.68213123 0.1152041 0.27509892 0.3434543 0.39314255 -0.30848932 -0.3150164 -0.31413898 -0.2928638 0.42702958 0.25532106 -0.8895012 0.1376839 -0.50608045 -0.5655997 -0.33580866 1.1240718 0.51510954 0.017946824 0.85856265 0.15168612 -0.16835317 -0.5327384 -0.04006896 0.83561873 -0.038701877 -0.43894008 0.4302794
702 0.19833735 0.049277283 -0.20720202 0.62844425 0.8646755 -0.1625607 -0.79973614 -0.54992837 -0.8798972 -1.2135652 0.22963288 -0.55270815 -0.4751445 -0.60063964 -0.08648057 -0.49221638 0.06346216 1.9927468 -0.122714035 0.14999312 -0.19694705 -0.2721231 1.509541 -0.14301763 -0.8368782 0.1929394 -0.054547314 0.19807251 -0.07740268 0.35857508 0.9592557 -0.2925279 -0.52927464 -0.09303135 0.6095946 -0.7682505 0.038998224 -0.31751764 0.3582466 -0.5360755 0.28486 0.07392517 0.8345321 1.11074 -0.31458274 -0.31236365 -0.14353044 0.027249986 -0.49659908 -0.6669014 0.059009455 -0.8379059 -0.10371425 1.0087148 -0.26891512 -0.64757365 0.13221948 0.8332008 -0.16550508 0.087645516 0.19968234 -0.19722188 -0.41075647 0.1734033
65 0.41510704 0.58877665 0.09447368 0.28577703 0.15995118 0.43158633 -0.39915353 -0.21080066 0.5434174 -0.17569353 0.5463642 -1.1500733 -0.34524903 -0.011699592 -0.13068698 -0.85053337 0.076012656 0.38861838 0.39269903 -0.29522023 0.44537026 1.3111027 1.0428102 0.890972 -0.04578163 -0.4768122 0.32451862 -0.38935405 0.15244184 -0.20814562 -0.084845774 -0.6146937 0.292307 -0.9526707 -0.14199905 -0.005883351 -0.40389037 0.7250972 -0.25445405 0.087952286 -0.122278094 0.46641338 0.5902657 0.10110038 0.4092168 -0.55843025 0.5383012 0.17883447 -0.24332489 -0.47278938 0.053780276 -0.60078806 0.23851255 0.71277654 0.30062652 0.18223919 -1.2240438 0.054957297 -0.41427988 0.5498056 0.17703553 0.57871723 0.36294305 0.30773398
695 0.65581185 0.41937634 0.1546786 0.677475 0.087185256 0.2500145 -0.7641063 -0.7881623 -0.40112436 -0.06485573 0.5420376 -0.24062248 -0.027649447 -0.032024402 -0.9952002 0.31572053 0.31156135 0.4319125 -0.6164775 -0.431683 -0.31360054 -0.48532423 -0.028539557 0.6479652 -1.0007274 -0.56544334 -0.34389985 0.6161283 0.412213 0.26378483 0.194938 0.7024168 -0.96400523 -0.47747016 0.33890554 0.79712725 -0.13645254 0.15519337 -0.15497236 -0.18006188 -0.4783601 0.5545622 -0.901635 0.27129543 0.07614066 -0.14541072 0.9024439 0.6239155 0.0017477655 0.2876071 -0.6382884 1.1440526 0.21127574 0.32499003 -0.17964071 0.69140035 -0.35971376 0.08860607 -0.36597 0.016488755 0.9939198 0.65990376 0.35285997 0.5910779
1558 -0.2284284 0.64004415 0.16147609 -0.46011475 0.09523188 -0.013166593 0.0020491579 0.2854826 -0.65110654 -0.3463837 -0.5053025 0.23817599 -0.25143844 -1.2189344 -0.09493937 -0.68387854 0.13832463 -0.263289 -0.45775178 0.47923458 -0.7217874 -0.69909257 -0.07482111 1.0242362 -0.993442 -0.31954375 -0.8600709 -0.26671454 -0.12890789 0.86062604 0.46521097 0.07185225 0.74238926 -0.1911938 0.6016595 0.72440296 -0.9168702 -0.09672593 -0.049518358 -0.40222 0.7998556 -0.35808817 0.49024805 0.4055193 -0.31933096 0.14123453 0.37257525 -1.0268669 -0.14413033 -0.4354945 0.48618218 0.24855313 0.06171098 -0.074713945 -0.5903601 1.3266087 -0.75139695 0.0930096 0.42585135 0.069101065 0.6967872 -0.038935214 0.019495036 0.1962915
