2708 64
1358 -0.00942828 0.37446085 0.09406182 -0.37079293 -0.07528518 0.18070722 -0.05460218 0.17475352 0.4240686 0.19282539 -0.20934582 -0.4071088 -0.12000768 -0.30076173 -0.30430275 -0.103788674 0.21220429 -0.19920193 -0.33178627 -0.20116538 0.31844166 -0.07235946 -0.6033838 -0.1554275 -0.30922538 0.34510553 0.03480935 -0.22577626 0.23945299 -0.1891469 0.15114273 -0.3603382 -0.11201942 0.18202022 0.12942854 -0.5628931 -0.05871975 0.24702713 -0.15442707 -0.10608688 0.024703415 -0.27343562 0.060175348 0.650248 -0.29074597 0.038164876 -0.012917965 -0.41556296 0.17533901 -0.16560112 -0.21284564 -0.29010928 0.14213115 -0.3575538 0.2910624 -0.13890374 -0.20967396 0.26663822 -0.45402756 0.13842666 -0.35894796 -0.11310925 0.40223107 0.14908601
1701 0.16854337 0.6531426 -0.6899712 -0.31808525 0.15641071 -0.18402676 -0.25087753 0.2958762 0.2162239 0.0683279 0.27179068 -0.030324575 -0.0482869 0.608509 -0.020019805 0.15284184 0.24039124 -0.54825544 0.013983915 -0.06457471 0.1767699 0.30820778 0.25819516 0.42958492 -0.15877452 -0.047757182 -0.008095243 0.08402603 0.25638434 0.2087188 -0.15631002 0.25029132 0.13210283 0.14169756 -0.5611581 -0.48569158 0.4255775 0.4088103 -0.023605077 -0.36573428 0.2588386 -0.073951446 0.4313626 -0.7203426 0.40686926 -0.22829199 0.48734084 0.36176652 0.5040922 0.3285356 -0.031771872 -0.15352046 0.1545921 -0.5125386 0.22965169 -0.06282915 -0.18480612 0.24024892 -0.5950173 0.015215454 -0.14113471 -0.39584598 0.27146775 -0.115316235
306 0.046707842 0.30648172 0.3018011 0.16551268 -0.15264842 -0.009850635 0.16715139 0.10390544 0.026262999 0.4894218 -0.11716738 0.057934478 -0.043267835 -0.024829296 0.15363166 -0.3667047 0.2525953 -0.44855702 -0.9299449 0.08149972 -0.07861585 -0.26698354 0.25877857 0.43049416 -0.10962747 0.18737678 0.71324474 -0.18492359 0.26821247 0.22168389 0.17482609 0.39463514 0.027661588 0.052235503 0.0029498776 -0.42966184 0.21804217 0.017565168 0.25244534 -0.38922593 0.011897826 -0.087026976 -0.32283077 -0.032350082 -0.03068427 -0.13277118 -0.016912542 0.08126568 0.36872777 -0.50676405 0.35271564 -0.10110616 0.40918103 -0.2859833 -0.5585342 0.13096179 -0.4919602 -0.77525514 0.04622074 0.95107245 -0.22993526 -0.24589676 -0.36779365 0.05433806
1986 0.20536305 0.30159038 -0.29981184 -0.17568818 -0.08496299 -0.50326324 0.12900509 0.038487088 0.6035033 0.36901787 0.4192705 -0.5918291 0.24810545 0.08123044 0.232745 -0.16473849 -0.16032301 -0.2998852 -0.096394196 0.37329394 -0.08849089 0.26917213 -0.22065729 0.5260363 0.40446252 -0.0016659684 -0.14148767 -0.35482377 0.94855106 0.049128942 0.17406279 0.17008324 -0.49361673 -0.2992869 -0.24169463 -0.24859889 0.22482091 0.15775898 0.18440567 -0.026252564 0.1417981 -0.55671346 0.68497807 -0.1975818 0.5024348 0.13879463 0.5170151 0.06630847 -0.019962372 -0.20143595 -0.54778427 -0.14053224 -0.019931532 -0.28897968 0.012504107 0.1747153 0.6160856 0.030821126 -0.008686264 0.27622557 0.1791555 -0.38740373 0.015332721 0.0020503548
1623 -0.18195449 0.11777771 0.33512166 -0.1438972 -0.02695413 0.22069164 -0.352995 0.012000541 0.3009442 0.85490936 -0.024678012 -0.095575444 -0.43365985 -0.14877224 -0.15398893 -0.3590394 -0.18097535 -0.27729905 -1.0141293 -0.13496631 0.13041067 -0.3534876 0.44819307 0.7247521 -0.3009964 -0.024813846 0.24606298 0.028118238 0.4261192 0.46826488 0.2649925 -0.088527225 0.01750309 -0.20463832 0.06750577 0.07643309 0.28176782 -0.068495154 0.7594842 0.26836485 -0.35913846 -0.38372496 0.1546472 0.07404334 0.32356513 -0.888214 -0.14361382 0.22465953 -0.007113718 -0.48877603 0.0038985536 0.58525664 0.2896829 -0.04778478 -0.31415772 -0.049650352 -0.57023364 -0.01318506 -0.56593907 0.7833993 -0.040183205 -0.3047306 -0.15913786 -0.43952426
2034 0.1889759 0.06796285 -0.5712095 -0.21744105 -0.5871943 -0.39856425 -0.47171548 0.37494597 0.20638777 -0.35883042 0.071701646 -0.27795145 0.33135274 0.37264678 0.37180474 0.4549288 -0.18274674 0.5200193 0.123830564 -0.062358916 0.053047646 -0.13578227 0.10119489 0.49174333 0.017390423 0.11379996 -0.5437097 -0.0027410022 0.19318184 -0.3327294 -0.5569294 0.9151048 -0.08683704 0.07103552 -0.7285261 0.29735067 -0.08396108 0.6248834 -0.29458496 -0.2575541 -0.21887973 0.6327045 -0.53277975 0.42456862 0.33926964 0.21884184 0.13928935 0.19187875 0.30631948 -0.39633995 0.12929921 0.1739603 0.060286988 -0.40669444 -0.09149565 0.8068307 -0.4802872 0.2653544 -0.3527358 0.8452011 -0.18289632 -0.32210085 0.103285305 0.3712284
88 0.1438121 0.32858938 0.32327706 0.44691786 0.0729201 0.043408323 0.39056677 -0.3902758 -0.108634554 0.4564188 -0.35747942 0.24381416 0.4491163 -0.17250347 0.066700496 0.48902696 0.07925153 0.6576991 -0.42312714 -0.36638597 0.27703738 0.020775342 -0.7896591 -0.075110145 -0.030685192 -0.4143905 -0.13587353 0.15659027 -0.020437574 -0.3947273 0.06837684 0.5150363 -0.32877946 0.4515621 -0.0630645 -0.08017201 -0.25634655 0.33404484 0.778546 -0.20279464 -0.29377723 -0.03980066 0.21992111 -0.23675105 0.379927 0.21407649 0.8720014 0.14445204 0.18264449 -0.7632646 -0.11170674 -0.027271694 0.26911315 -0.12541035 0.37057418 0.31361264 0.05185124 0.16206121 0.032265253 0.84550786 -0.33171836 -0.3473644 -0.11099696 -0.6324409
1542 0.65469897 -0.4279378 -0.61659026 -0.42473337 0.19363399 -0.038488604 0.21797858 0.07864896 0.14603446 0.92781395 0.8040137 -0.03806108 0.58419347 -0.2970524 -0.38835222 0.66888994 0.10118095 -0.20291042 -0.3196906 -0.30116126 -0.0471922 -0.2007681 0.31534302 -0.55614996 -0.31004664 0.43396926 0.14753228 -0.23977572 -0.20263836 -0.11929642 -0.9715488 0.38395455 0.045429386 -0.3381946 0.45106196 -0.15990418 0.33454624 0.38913837 -0.38530308 0.45958164 0.3101688 -0.27015308 0.60612714 -0.3599296 0.33267137 -0.15301603 0.10879089 -0.2911181 0.48022598 0.2830418 -0.40288928 -0.5372288 -0.06861401 -0.4391589 0.4838776 0.44497505 -0.19256729 -0.23676942 -0.3012841 0.7113085 -0.21188079 -0.36583698 -0.6607382 -0.35171553
1072 0.33780494 0.12456004 0.05472593 -0.0018145285 0.59150684 0.30167666 0.06683834 -0.076100096 0.18701155 0.026214924 0.105898365 -0.22035122 -0.043979187 0.20739456 0.13054343 -0.10713374 -0.12170498 -0.43660814 -0.7934773 -0.4415044 0.0032021075 -0.23741405 0.11385302 0.2843921 -0.01632846 0.046595667 0.037720613 -0.8044782 0.07885173 0.2266149 -0.0041553653 0.29891065 0.12142934 0.5359214 0.06276831 -0.3306288 0.05500617 0.3161438 0.30448133 -0.5600322 0.3654532 0.09175018 -0.5513804 0.5138181 0.060215037 0.04043183 -0.23063743 0.27974027 0.3279012 -0.57039464 0.3739922 -0.29834908 -0.22981371 -0.6432058 -0.2409734 -0.06038289 -0.20816967 -0.18466389 -0.2278659 0.5176011 -0.7089526 0.14314708 0.12127286 0.1070108
1810 0.009691467 -0.43778786 -0.40584692 0.0062284917 -0.3776002 0.4101829 0.17262131 0.0819589 0.51200336 0.24332103 0.14211768 -0.2611473 -0.053413946 0.3145317 -0.25409657 0.19509128 -0.2441898 0.207555 0.62838024 0.16139305 0.4668069 0.52153295 0.22932425 0.5594582 0.25310338 0.5159683 0.13130008 0.26218352 0.14301883 1.0459043 -0.3975387 0.37310648 0.0038746954 0.043496493 -0.44496948 0.26195818 0.6698943 0.1608651 0.07036578 -0.11010963 0.32729244 -0.70220196 -0.24252495 -0.34495446 -0.094290644 0.45279294 0.32386625 -0.14203279 0.16027765 0.015276464 0.6371718 -0.046816744 -0.43285233 -0.42757797 0.37514892 0.055617783 0.20115146 -0.051652137 -0.29596332 1.0120695 -0.5398756 -0.72725594 0.30766046 -0.2807073
1013 0.39166492 0.3629487 0.14838688 0.5699535 0.60180295 -0.18576834 0.14126024 -0.14437525 0.0025270614 0.3001583 -0.40555272 -0.24191302 -0.30222267 0.1973112 0.06375098 0.02452369 -0.40398595 0.6891353 -0.13869117 -0.046208404 0.3598091 0.091777794 -0.062304027 0.14351283 0.37989223 -0.5865393 0.44384542 0.09180407 -0.13497454 0.3749305 0.0023453392 -0.39448193 -0.16125801 0.17549764 0.19892554 -0.20909812 0.5246127 0.31108904 -0.23768714 -0.0030617 0.6257715 -0.15792902 0.1830924 0.15527186 0.47514388 -0.40888423 0.19672425 0.14922167 0.22322501 0.0054820734 -0.1453931 0.014887142 -0.3413424 -0.19587155 0.4978776 0.51612055 -1.11584 0.1140863 -0.32992765 0.2552813 -0.3053442 -0.20322883 -0.5812268 0.34598094
2045 -0.040949043 0.53718126 -0.058849465 -0.072212204 0.31083828 -0.15058102 -0.19269086 0.009758675 0.18234016 0.7122487 0.23532708 0.4241454 -0.73684484 -0.26139522 -0.20902798 -0.031931885 0.009538314 -0.26053104 -0.8076627 -0.05305099 0.16024905 0.7244476 0.3194208 0.09529225 -0.28095624 -0.26353168 0.584941 -0.26891366 0.017668013 0.52515227 0.012814623 -0.010073308 0.06707321 -0.2888258 -0.21336566 0.3128217 0.2075943 0.066705726 0.015381805 -0.57339776 0.51079756 -0.66296124 0.038649514 -0.14402206 -0.35194823 -0.25439203 0.18021524 0.17110607 0.6144931 -0.69998205 0.3315618 0.006154831 0.14917287 -0.3528916 -0.230641 0.3984771 -0.3772175 0.013910316 -0.12687175 0.5692554 -0.059841268 -0.3409353 -0.40566263 -0.11500248
1224 0.25034112 -0.16603413 -0.50025666 -0.017550852 0.2373277 0.018070662 0.27263325 0.104288734 0.39052343 0.11842261 -0.4369538 -0.1463076 0.25764582 -0.26154485 -0.4692498 -0.5461571 0.3790203 -0.14037925 -0.28013825 -0.4783085 0.60070825 -0.20039698 -0.078374416 -0.14797503 0.026243402 -0.6587066 -0.27949348 0.17225654 -0.32881278 0.32513878 -0.6224014 -0.27258897 -0.18114196 -0.56516415 -0.45135105 -0.4952363 -0.5148393 0.007124334 0.111083634 -0.4427467 -0.31689963 -0.038202073 0.09411206 0.09527181 0.2664373 0.17885377 0.8555103 -0.1692225 -0.119483694 -0.4323648 -0.26464188 -0.58971006 0.06211995 -0.42965263 -0.52727085 0.6878978 -0.07876905 -0.1939318 -0.37256563 0.04397483 -0.38005716 -0.57856816 -0.6490273 0.23205268
733 0.3793873 -0.5799548 0.12800789 0.252328 -0.5262019 0.23143415 0.27728274 -0.047996625 0.02030947 0.72380453 0.40148368 -0.06256257 -0.23282209 0.22965074 0.037243266 -0.14223008 -0.07088001 -0.40442556 -0.1194995 0.9946391 1.0376767 0.5161252 -0.042996544 0.3216554 -0.103284165 -0.53737575 0.0697369 -0.18454698 0.06410267 0.0222926 -0.55724156 0.46887064 0.235437 0.10911849 0.18922645 0.10354707 -0.14286712 -0.19339366 -0.0061688297 -0.21859756 0.103174776 -0.24468644 -0.37910506 0.102399096 0.8202447 0.07517025 0.2270781 -0.29659238 -0.53665996 -0.44525188 -0.1188756 -0.041010305 0.2470214 -0.4680357 -0.28319812 0.08390753 0.45894304 -0.3814724 -0.59478813 0.43175977 -0.5791088 -0.35182998 0.00013300139 0.10513852
109 -0.23769863 0.4048835 -0.17100291 -0.081603214 -0.18900906 -0.30728385 -0.958697 0.36770365 0.14531589 0.5269219 0.5206702 -0.2570494 0.04806485 0.0040980745 -0.42806178 -0.15027812 0.10542815 0.47631422 -0.63730454 0.13994117 0.012228698 -0.34478 0.084135294 0.20126024 -0.10979086 0.028464483 0.62547135 -0.14802001 0.09872741 1.0671252 0.4045134 0.031437 0.089775756 -0.13948298 -0.20189446 -0.30825606 0.32030362 -0.30454543 0.6300031 -0.54377824 0.45780587 -0.07077465 0.4272521 -0.37342262 0.69986254 -0.34548247 0.10048598 0.38123947 -0.029431107 -0.27214825 0.117244296 -0.47051916 0.086142495 -0.12362449 -0.29351285 0.11011698 -0.46106523 -0.06804085 -0.4639179 0.39121225 -0.2469215 -0.24345389 -0.059566166 -0.2881789
598 0.35147667 0.5809198 -0.5811744 -0.46550995 -0.135889 -0.8761826 -0.4392315 0.110630095 0.72787386 0.6033917 0.13410476 -0.39364773 -0.39890143 0.20339674 0.32358703 0.64815474 0.30553004 -0.14116639 -0.019673904 0.8895928 -0.008172591 0.31580415 -0.14691608 -0.010661817 -0.10729512 0.392843 -0.35924697 0.1747881 0.063467644 0.03779524 0.13910215 0.44635093 0.13199963 -0.3873581 0.5848375 -0.50387883 -0.07882726 0.8239877 -0.12342184 -0.05045069 0.6737236 0.0037642268 0.4331407 -0.087334365 0.4347928 0.0703504 0.77387536 -0.4249747 -0.048501924 0.39560276 -0.37516293 -0.009541493 -0.036072418 -0.41355202 0.20543247 -0.20633079 -0.028830407 -0.17220002 -0.47176546 0.3557375 -0.9315004 0.018913863 -0.24990062 -0.68473047
1914 0.50629187 0.10462414 -0.46027198 -0.12207276 -0.30161858 -0.39619255 0.032273 0.5638313 0.49820265 -0.44927382 0.18030033 -0.24758713 0.36236382 -0.11638169 0.31824532 -0.32450524 -0.30208275 0.061525498 -0.6008681 -0.4179433 -0.018559823 0.3191913 -0.32225952 0.29565823 -0.107352644 -0.8745918 0.46686104 0.16647726 -1.111286 0.7489201 -0.048563972 -0.9175224 -0.30164266 -0.07660367 -0.11350059 -0.046959482 -0.18851472 0.8630081 -0.28984433 -0.044143658 0.0027673312 -0.50927943 0.452545 -0.26513588 0.21619846 -0.47437406 0.42048925 -0.09855906 -0.5147206 -0.13030203 -0.36712146 -0.10503569 -0.097371005 -0.30824378 0.3572469 0.41094512 0.4355132 0.21845393 -0.17817827 0.9963203 -0.22117934 -0.2188373 -0.8931413 0.17689072
1624 0.26335773 -0.067659706 -0.384305 0.10372058 -0.3087675 0.093702 -0.15414616 0.44774145 0.27325255 0.5585616 0.91790724 -0.123072214 -0.08809003 -0.35225835 -0.45076117 0.31649318 -0.14250931 0.2605047 -0.77597684 0.5695883 0.41887602 -0.2052624 0.33407867 0.7476983 -0.11334401 -0.2085626 0.08433409 -0.34052658 -0.055883512 0.70127726 0.33908844 -0.111974865 -0.26192963 0.1883363 0.015161052 -0.65191025 0.2833655 -0.1130765 0.17872952 -0.87301934 -0.24200961 0.17049329 -0.101553105 0.21589732 0.57902145 -0.92567265 -0.15390754 0.451201 -0.07023185 0.36439028 0.31820664 -0.021333506 -0.15383272 0.42255554 -0.44440266 0.18577702 -0.23408473 -0.28953883 -0.36637434 0.6293796 -0.4128426 0.17762806 -0.042640787 -0.52557194
1169 0.5106842 0.112006806 0.140225 -0.3315861 0.28674343 -0.50536513 0.14434977 -0.0106078265 0.10976958 0.21435902 0.31824207 -0.42203045 -0.6461451 -0.024231877 -0.3134393 -0.083288275 0.02087593 -0.31358078 -0.11502387 -1.0160271 0.37459916 -0.39823383 -0.55960697 -0.021679485 -0.5010664 -0.39962304 -0.2500739 0.6011342 0.6155798 -0.03672414 -0.41482687 -0.3074554 -0.19047788 0.42271298 0.21972145 -0.14379638 0.034295507 0.6264178 0.10860528 0.08107895 -0.56453073 -0.052985318 0.15213847 0.46321306 -0.18974218 0.39033902 0.015384813 -0.39436164 0.07275502 -0.4545959 -0.123853415 -0.62438637 0.25895968 -0.14840773 0.09910111 -0.05758714 -0.31980532 0.5404759 -0.29894122 0.8267983 -0.38044828 0.40840945 0.7560889 -0.20178315
1483 0.27795678 -0.16803904 0.4219318 -0.41815248 0.15557118 -0.29629984 -0.4226977 -0.46038446 -0.12872791 0.14158385 0.0812668 -0.11430171 -0.0488193 -0.5507199 0.6358833 0.26221344 -0.10977404 -0.5261852 -0.32574025 -0.7043949 0.1569842 -0.4985936 -0.25770354 0.530623 0.14559253 0.52672166 0.6409174 -0.509569 0.25081348 0.033057947 0.24521546 -0.39084893 0.18620725 0.13514076 -0.1469913 -0.41386127 -0.23164614 0.5203652 0.18353601 -0.14214474 -0.064585134 -0.7826296 -0.27567273 0.68723875 0.49224752 0.37974203 0.509698 0.6197453 -0.22084726 -0.15838382 0.16413791 0.0627069 0.2771139 -0.104675286 -0.16021657 0.12849718 -0.17433536 -0.7659567 -0.51974976 0.53161216 -0.5788714 -0.43119004 -0.10087762 0.38848874
525 -0.48789147 -0.21197154 0.5711551 -0.68494403 0.14745186 -0.17186755 0.14592913 0.36735708 0.033797543 -0.3279847 -0.1817578 -0.3140898 -0.13967794 -0.4449159 0.54237366 0.56609195 0.020702051 0.04518746 -0.45481142 0.15049404 -0.060555607 0.6619547 0.18178573 -0.021909017 -0.11181588 -0.42017382 0.7273701 0.16729544 0.5059104 0.091589436 -0.78411347 0.24875255 -0.8039099 -0.04522874 0.19823974 -0.66669524 -0.31365418 0.009308868 0.58756495 -0.1551064 -0.31729162 0.67015105 0.060786255 -0.56943077 -0.15202695 -0.6199441 0.36138332 -0.07377075 0.60593736 -0.010513208 0.45142502 -0.2800764 0.20562583 -0.19508386 0.40385827 0.1127895 -0.1846155 -0.36156115 -0.41577694 0.1598251 -0.7647953 0.42918232 0.101821296 -0.22033206
963 0.18585199 0.04228225 -0.3986136 0.19311951 0.09674346 0.1264342 -0.01081884 -0.17684762 -0.12491231 0.32264435 0.11826749 -0.06295168 -0.004120611 0.09625404 -0.677643 0.17822394 0.06735915 -0.19199376 0.19876978 -0.2144899 0.56503004 -0.1621223 -0.022329308 0.6726734 0.41218293 0.546879 -0.12769121 -0.26743618 0.0060854387 -0.577733 -0.12118532 0.33941746 -0.2883368 -0.107602224 0.45115727 -0.84527767 -0.22428302 -0.0746622 0.85713017 -0.2929888 0.38299558 -0.4709339 -0.033896863 -0.9733063 0.67894477 -1.2577125 0.22302999 -0.234159 -0.14373519 0.4796377 0.13050629 -0.35595697 -0.78225315 0.048731837 -0.17980105 1.3353813 -0.47520825 0.29805037 0.22443093 0.78428954 -0.34635097 0.08875255 0.4498661 0.6312868
2155 0.15103328 0.04043395 -0.39490303 -0.6164006 0.39400294 0.009573494 0.22798134 0.26280263 0.29094473 0.5774781 -0.2997155 0.24315298 -0.38724253 -0.7421883 0.16895978 0.2981699 -0.36497205 -0.246744 -0.3934212 0.44061697 0.5137212 -0.2549261 -0.28303808 -0.19200048 0.47127607 -0.2370454 -0.2643096 0.44260064 -0.29641324 0.13688514 -0.61160606 -0.023936851 -0.3648027 -1.0659746 -0.6602413 -0.8481776 -0.35340297 -0.07584862 0.32956535 -0.0011868367 -0.50676095 0.23424019 -0.0995651 -0.11971592 -0.027899008 0.04156207 0.23667671 0.030725881 -0.6154443 -0.7091649 0.052519955 -0.4859299 -0.80403376 -0.6697593 0.09990901 0.4948197 -0.60299736 -0.4826801 -0.06239837 0.049682286 0.10704201 -0.31867966 -0.2596001 -0.37479255
1131 -0.14013253 0.24141932 -0.18695563 -0.44596213 0.04407092 0.10155919 -0.4140222 -0.22782849 0.21444595 0.15968548 0.12856813 0.70231026 0.38589978 -0.44736102 0.2176551 -0.1039746 -0.21031994 -0.0025212062 -0.41545954 0.22296439 0.5445335 -0.13989107 -0.20547563 0.5203023 0.83574396 0.16814162 0.19965297 0.90063405 -0.030531485 0.68086183 -0.4611842 0.2198918 -0.19055514 0.07052239 -0.3096798 -0.5616146 0.23922837 -0.20730999 0.11582747 0.11942588 -0.18744728 0.3254147 -0.09563851 -0.03744801 -0.08245608 -0.39190394 0.41827077 -0.546539 -0.42226094 -0.32518762 0.21382256 -0.2902092 -0.82145226 -0.3233746 0.5859451 -0.14387128 -0.49069682 0.37217727 -0.15984492 0.79168314 -0.27024528 -0.6786011 -0.3368688 0.42572471
1441 -0.15566769 0.31191376 0.6498513 0.3096972 -0.3915829 0.45807645 0.57126766 0.5035211 4.8592272e-05 -0.041070156 0.77599305 -0.7153837 -0.37304628 -0.47785437 -0.06129238 1.1752338 -0.11385544 0.210476 -0.35985035 -0.66684324 -0.49410698 0.16646321 -0.08454712 1.0855185 -0.2246684 -0.2861382 -0.3693862 -0.70261437 0.49805033 -0.2538873 0.02774148 -0.29611388 0.31338036 -0.003970759 -0.14013612 0.007741997 1.0302306 -0.7392659 0.8335695 0.34732947 -0.6529532 0.8577835 0.8549974 0.29408473 0.47855526 0.11451787 0.30193064 -0.522214 -0.15209526 0.317969 -0.42569533 -1.0718734 0.39080775 -0.51708114 0.22528568 0.24275836 -0.77784234 -0.42036444 -0.57872105 0.7033352 -0.67523736 -0.26559532 -0.03452476 -0.23761377
1765 -0.23763503 0.24682754 0.35213146 -0.49374875 0.23962739 0.51504666 -0.15480472 0.4753341 0.25649694 0.33546972 0.05783795 -0.25498095 -0.43391904 0.018177424 -0.2416987 -0.20983063 -0.09293533 0.34281152 -0.42204988 -0.6434356 -0.23797901 0.16609612 -0.33075157 0.20968646 -0.47876498 0.497425 -0.61721534 -0.12984464 0.7853606 0.20971078 0.25020066 -0.6445718 -0.16499329 0.16754173 0.047006663 0.35077658 -0.027863098 -0.13227278 0.04462274 0.27114072 -0.018128412 0.06984039 0.47319043 0.45813316 -0.13475507 -0.49843627 0.21909142 0.37142506 0.19781604 -0.6129179 -0.82996947 -0.0005041106 0.1481275 -0.5970232 0.41057464 -0.10347018 -0.88971585 0.15266056 -0.8516268 0.56579775 -0.4466211 0.22293516 0.46396434 -0.42253992
1725 0.22200218 0.42190242 0.6420352 -0.6155105 0.31922725 0.25453874 0.023715233 0.3353877 0.20522676 0.046873964 0.14163911 -0.53217036 0.09013803 0.07455701 -0.23568298 0.48328704 -0.011240173 0.32491544 -0.8763801 -0.22070566 -0.0070026983 -0.4374303 -0.4115017 -0.7801643 0.16982666 0.11412143 0.15705422 -0.07690432 -0.07828518 0.030653538 -0.010381455 0.4751028 -0.16885525 0.4679555 0.056975424 -0.34413695 0.11067051 0.5100815 0.3935953 -0.34652355 0.5621861 -0.1588915 -0.488053 0.1211454 0.37342456 -0.12479048 -0.28870448 -0.35688454 0.07634061 -0.561605 0.71596754 -0.23997143 0.14072502 -0.43902016 0.01656719 -0.27052504 0.15767597 0.11186342 -0.57520807 0.82205665 -0.49092847 0.78614616 0.37969193 0.80179167
507 1.161258 -0.7807076 -0.19802393 -0.10902147 0.09003393 -0.2768849 0.21180762 0.99932367 0.85215366 0.9238073 0.3189883 0.005770593 0.5389442 -0.0096089 -0.1481149 -0.19361669 -0.38441733 -0.3100176 -0.6219338 -0.30065867 -0.20340732 -0.2791429 -0.25848562 -0.39601657 0.32674485 0.7995527 -0.45672944 -0.19605887 -0.3625125 0.15287417 -1.4441177 0.35037544 0.9382794 -0.3280672 1.0222268 -0.4039535 0.6470986 -0.031168701 -0.32130954 -0.3309011 0.32134092 -0.17136581 -0.13474827 -0.48861933 -0.13791189 0.32268664 0.14896455 0.29379293 0.5966117 -0.32064417 -0.63434404 -0.27924293 0.21734135 0.09217869 0.7345981 0.038982414 -0.43493924 -0.37486133 -0.79399794 1.0578887 0.4931341 -0.14020246 0.04384927 0.03729686
973 0.6522743 -0.16733886 -0.4356782 0.49146304 0.3570151 -0.5718593 0.19869053 0.35120165 0.22783838 -0.02318024 -0.41038963 -0.06352772 -0.035187613 0.11843844 -0.5720277 0.18033674 -0.066846766 0.54005486 -0.19774182 -0.46883774 -0.11769237 -0.28939015 -0.3466495 -0.14958812 0.15350084 -0.13365847 -0.077581935 -0.17271766 0.23084119 0.7464305 0.24295628 0.4824733 -0.16125916 -0.5508329 -0.4362022 -0.74442047 0.22795542 -0.23922014 0.5715161 0.14566645 -0.29807326 -0.16451876 -0.119877875 -0.29280937 -0.015146162 -0.03605528 0.64492154 -0.16904345 0.009852191 -0.6621751 0.33068132 0.0686549 0.6770849 -0.06485226 -0.40620187 0.42093462 -0.50904626 -0.56365484 -0.52045846 0.4958387 -0.43108478 -0.1419537 -0.5120855 0.120346285
118 0.19304791 -0.32440287 0.04359191 -0.4035219 0.18477151 -0.13585399 0.28220245 -0.4503701 -0.2133572 0.75968635 -0.6129104 0.2600151 0.7174609 0.14494991 0.14845225 -0.0722954 0.113750085 0.56297696 -0.8103704 -0.89171654 -0.09328785 0.01876044 0.107165575 0.45147607 -0.140771 -0.4435693 0.050625034 -0.22980735 -0.014075605 0.16721945 0.04609729 0.5864266 0.4594975 0.33154294 -0.581134 -0.792807 0.40136194 -0.030225107 0.21004735 0.2060962 0.07601176 0.04206287 -0.5726348 -0.4211149 -0.700068 -0.09391216 -0.21295117 0.162534 -0.9076097 -0.19548061 0.5255758 -0.38503006 0.36822638 -0.746224 0.120050125 -0.039915685 -0.1511379 -0.6010584 -0.19405037 0.9823633 -0.35231256 -0.6532535 0.48482525 -0.14259638
310 0.22886018 0.16590546 0.23374659 -0.8335258 -0.7341207 -0.26226744 0.12359317 -0.4382257 0.17698917 -0.14967236 0.49956298 -0.6472701 0.14468516 -0.4046962 -0.7483509 -0.0972516 0.4273113 0.0353729 -0.1339236 0.5361034 -0.06840048 -0.15529726 -0.6284104 -0.017359922 0.9995596 0.123720564 0.014100323 -0.16201921 -0.35711846 0.56823856 -0.14746745 0.5174648 0.5479287 0.42362908 0.3087436 -0.56675047 0.6077498 1.0393053 -0.24950638 -0.33021602 -1.0173169 0.36871278 0.27256104 -0.23093225 -0.14076498 -0.39669725 -0.19420773 -0.3982787 0.6711598 0.66838825 -0.28768012 0.060423326 0.6966951 -1.1231093 -0.36591205 0.24931483 -0.169489 -1.0754609 -0.60780364 0.4707308 0.14435747 -0.5361002 0.07903923 0.07953
415 0.569958 0.20910512 0.7354952 0.2307512 -0.083031386 0.25719357 0.28608066 -0.5378208 0.30150494 0.56286186 -0.2383154 0.1593595 -0.13525176 0.33360705 0.1564768 0.88814527 0.31093577 0.89602304 -0.43901557 -0.21330315 -0.38369045 0.13073495 -0.6721141 0.3672538 0.25000548 -0.5322416 -0.31249827 0.33751115 -0.6801125 -0.610406 -0.26696748 -0.019177131 -0.092930615 0.3935272 -0.14435567 -0.5927927 -0.2128454 0.27893645 0.23440543 -0.40483013 0.050137717 -0.074241385 0.26148835 -0.3341264 -0.16637626 0.23215882 0.17638254 0.12022883 -0.2108105 -1.0659573 -0.46492842 -0.19073045 0.114393264 0.028500812 0.67822886 0.7066186 0.37282258 0.05612972 -0.34397212 0.60664713 -0.06518991 -0.7926414 -0.27058467 -0.018747183
95 -0.24957307 -0.04298711 -0.033389624 -0.8073423 0.3417613 -0.025186565 0.2560958 -0.028526133 0.0790897 -0.28536686 -0.46705303 -0.3745327 0.59694105 -0.73731345 0.4775895 0.45457193 -0.048145063 0.19894199 -0.16951577 -0.13046414 -0.14906994 0.27004647 0.14724804 0.42501038 -0.42397842 -0.59809387 0.778647 0.023171015 0.24426603 0.4677698 -0.7682872 0.047277436 -0.36963758 -0.34756824 -0.04047769 -0.5391262 -0.018290548 -0.54411405 -0.48618972 -0.122205816 -0.13516173 0.017772267 0.22265467 -0.5475045 -0.42176488 -0.54446554 0.2930609 0.29511383 0.17360665 0.5097336 0.34127763 0.2943229 0.18030836 -0.12971471 0.8890003 0.43827716 -0.55347496 -0.28122506 -0.89132416 0.42771432 -0.30710578 0.022323322 -0.47347403 0.25274047
2182 -0.27079937 -0.011249957 0.43805382 -0.7055923 -0.26964444 0.0917296 -0.22983131 0.13767987 0.65201044 -0.18262379 0.09846161 -0.6163368 0.041272033 -0.24475895 0.72344846 0.39213488 0.022390204 0.14145558 -0.5706829 0.23754205 -0.060040317 0.20271291 0.28792366 0.26077145 -0.35508105 0.253867 0.43753576 0.61771965 -0.1074667 0.5402253 -1.0556314 -0.23842935 -0.38873267 -0.122050844 -0.60799223 0.09356648 -0.32495597 -0.28868333 0.30723938 -0.25387263 -0.2100409 -0.16174419 0.09459685 -0.46320406 -0.13986883 -0.33673716 0.89327884 -0.3574114 0.27390328 0.5195575 -0.288637 0.35252273 0.575934 0.28149477 0.5196772 -0.28415477 -0.30984247 -0.8037776 -1.0507783 0.14876531 -0.5883654 0.1316406 0.03427781 0.46208486
1692 -1.3702351 0.2433322 -0.3675763 -1.0349537 -0.21051963 -0.52101696 0.83363134 -0.42387974 -0.9071974 0.29175323 -0.24603073 -0.3715466 -0.11733923 -0.9623997 -0.12332469 -0.17023218 -0.5797094 0.22126816 -0.95488715 0.19221152 -0.44398728 -0.18806742 -0.1597299 -0.49571487 0.03397913 0.3768171 0.15865038 -0.5819362 0.55071497 -0.0018984583 -0.5138941 0.10082673 -0.08555094 -0.2490178 0.10767939 0.012340323 0.20572364 0.77726734 -0.5701459 -0.79108554 -0.7654975 -0.20495167 0.43939015 0.026917217 0.083833836 -0.67516184 -0.11631813 -0.41406262 -0.46822637 0.41929916 0.20991966 -0.07872473 -0.41247383 -0.5879232 -0.30886802 0.42528042 0.42323807 0.803578 0.05371158 1.090798 -0.95974344 -1.1160321 -0.329162 -0.41921926
350 0.3819227 0.20277588 0.7969893 -0.4542383 -0.41008866 -0.18474616 0.093334794 0.5875677 0.08906947 0.51933587 0.14004612 -0.024990147 -0.34925333 0.24038923 -0.4108378 -0.33478677 -0.06855812 0.01918837 -0.6339189 0.09224773 0.13029568 -0.0721503 0.59360355 0.6530357 -0.3931285 0.080838986 0.024279278 0.73463744 0.23442256 0.2270516 -0.19608474 0.2943954 -0.35465667 -0.14279969 0.06927895 -0.14525215 0.27322116 0.25169253 0.5208265 -0.049747214 -0.21633944 -0.07313937 -0.059769515 -0.05933093 0.066834815 -0.2591134 -0.5973521 0.6715154 0.13057522 -0.021305505 0.34089777 0.17956169 0.39149302 -0.7022639 -0.78046554 -0.34134325 -0.8543824 -0.03817252 -0.38679993 1.2438761 -0.35242796 -0.38839284 -0.4926442 -0.494227
1229 0.6009713 0.14158157 -0.06287621 -0.7034403 0.25951016 -0.05834644 -0.10579323 0.53695935 0.65094924 0.66575664 0.6077947 -0.117565624 -0.04260503 -0.41805795 -0.12939343 0.028863255 1.0499032 0.081507355 0.05652395 -0.19872527 -0.1946555 -0.71585745 -0.4798305 0.10702388 0.1089039 0.17851052 0.011753118 -0.6154573 -0.0977044 -0.33422422 -0.59288496 -0.9959384 0.25215042 -0.08589261 0.04577673 -0.31867817 0.64144725 0.6773233 0.7583759 -0.02831403 0.00503741 -0.22170745 -0.15188016 0.5350232 -0.6227617 -0.19169413 0.24324375 -0.50893044 -0.6916799 -0.6380769 0.55025864 -0.44089666 -0.2617701 -0.2671208 0.43678075 0.61507326 -0.19243778 0.034077127 -0.21196231 -0.10046128 -0.24286409 -0.11855691 0.12112971 0.6151412
1309 0.59060156 0.25841567 0.27410388 0.27379146 -0.017318213 0.24112917 -0.28262746 -0.47904867 0.24736796 0.27407464 -0.055070907 -0.19372548 0.33696508 -0.20426069 0.069348745 0.7751115 0.088188834 0.9272807 -0.42690155 0.32875663 0.7473662 0.15656768 -0.46875834 -0.49853498 0.06762411 0.059751574 -0.83509415 0.615008 -0.07569585 0.15054043 0.13864057 0.39955372 0.074327126 0.4320648 0.12731883 0.022108637 0.02577151 0.12759057 0.3415273 -0.39817348 -0.22204931 -0.2183599 0.51794654 -0.04512895 -0.2979232 -0.53598833 0.53963226 0.19015375 0.15358536 -0.8698365 -0.2583003 0.23767021 0.18057732 -0.28142682 0.88409376 0.20778532 -0.30950576 -0.20035072 0.16126074 0.5905352 -0.13645317 -0.63741606 0.38834393 -0.3500233
1950 0.17431386 0.36888418 1.0972363 -0.6044983 -0.27162474 -0.38307753 0.325696 0.00973588 0.32685044 0.32424036 0.45893475 -0.5029795 0.54303443 0.20315778 -0.7566311 0.2568828 0.42813045 0.26701692 -0.071101524 0.57892036 -0.07684914 -0.03308795 -0.8447172 -0.05095805 1.1546742 0.4702015 0.11970527 -0.14388241 -0.56021434 0.9188927 -0.2574123 0.180394 0.28825283 0.075753145 -0.12991169 -0.13439535 1.0067178 0.9064891 0.021357575 -0.21309654 -0.78188527 0.2249244 0.20830396 -0.53673923 0.36498725 -0.39290723 -0.49103698 -0.31350893 0.20741108 0.6621127 0.258056 0.091306984 0.43799105 -1.178024 -0.094406776 -0.06187859 -0.3993736 -0.11223275 -0.6138289 0.36207467 0.13724086 -0.3532145 -0.04277794 0.7931436
73 0.24635562 -0.106543146 -0.28196895 -0.54283106 -0.14920476 -0.25898403 0.0053593405 -0.31727055 -0.26567408 0.54786277 0.2991421 -1.1517918 0.04388396 0.17231822 0.06854533 -0.3451321 -0.13918714 0.36296228 -0.7569501 -0.08152041 0.8620838 0.47596863 0.48809022 0.0040160804 0.42364162 0.47806865 0.057631925 -0.30257532 0.10830602 -0.20258795 0.6502261 -0.073382474 -0.69292194 -0.18665738 -0.04037295 -0.12040218 -0.33732933 0.7050586 0.24034163 -0.31514493 0.13260953 0.004698213 0.24947123 0.41074908 -0.72841555 -0.09240408 0.10555162 -0.4930766 0.12295759 0.48140952 -0.27749428 0.10220265 1.0139736 -0.57040304 -0.109175764 0.32267073 -0.14795049 -0.19886523 0.10495536 0.8630204 -0.066486 -0.19147961 0.16030197 -0.095334254
2001 -0.4236874 0.21240957 -0.6448914 -0.35502273 0.36874464 -1.1657593 -0.15078455 0.12811972 0.19504024 0.18510416 -0.396097 -0.98212236 0.29218432 -0.06154341 -0.12826575 -0.5053089 -0.01524326 0.17919077 -0.05366504 0.1259438 0.34148803 0.7129259 0.014756092 0.098666035 0.24447455 0.20137657 -0.05860773 -0.21549322 0.8308067 -0.76144737 0.18461658 -0.17448756 -0.51916397 0.3094688 -0.6772565 -0.4001511 0.6137222 0.56747186 0.021446712 -0.42054197 0.49268895 -0.4097441 0.29929662 -0.24021025 0.21782185 -0.3129151 0.21646434 -0.48916107 0.43557078 0.41889474 -0.6203112 0.1431825 0.52294815 0.058017932 -0.555939 -0.0047041452 0.41152853 -0.12058534 0.04014717 0.7180782 -0.47218075 -0.68563884 -0.11728334 -0.026758153
1628 -0.21878776 0.21553028 0.44811353 -0.57639116 -0.2685877 -0.26021764 0.6719802 0.58371943 -0.4522987 -0.3583593 -0.097393975 -0.2509379 -0.051402435 -0.17334734 0.43225434 0.3427702 0.192935 0.04637044 -0.21427204 -0.18674484 -0.09614338 0.6718597 0.18779813 0.34689274 -0.30987903 -0.42394528 0.35974833 -0.27005434 0.081044324 0.07723154 -0.74228156 0.33647552 -0.65344435 -0.17224912 -0.3553429 -0.5335628 0.07577455 -0.17985211 0.018300518 -0.5352395 -0.67356735 0.35503542 -0.16246592 -0.53740627 -0.508543 0.120459855 0.44637424 0.024653463 0.5851318 -0.11978112 0.2858493 -0.28269064 0.28986436 0.20471455 0.65558004 0.7631383 -0.022068266 -0.5144567 -0.92094064 0.51705533 -0.51579756 0.99997294 -0.09796913 -0.2699339
1703 -0.072974026 -0.4144997 0.12420399 0.032474753 0.6560845 -0.13763264 -0.3753572 -0.90182817 0.6341705 -0.1175371 0.020052107 -0.591846 0.6243541 0.36868337 -0.5716368 0.010606275 0.10872455 0.19308893 -0.7974698 0.19138917 0.7001387 0.47443682 0.2431579 0.50960225 -0.3310143 0.0911186 0.53603405 -0.92745864 -0.6320358 -0.92635196 -0.609878 -0.1292687 -0.37129784 0.34682646 0.14280471 -0.08546009 0.3329655 0.48525134 -0.40221658 -0.6569504 -0.16518931 0.06853503 -0.27162084 -0.72153926 0.60398275 0.04110045 -0.569795 -0.29996008 -1.2834026 -0.6018917 -0.58976203 -0.0075757597 0.12466012 -0.51959676 0.72323745 0.42569137 -0.27954742 0.37517443 -0.055988196 0.47926474 -0.49748114 -0.30927238 0.4918567 0.5807989
1257 -0.05311937 -0.09467066 -0.43517226 0.33262494 -0.3211248 0.5162805 0.7911235 0.6547703 0.4525043 0.82379526 0.21245323 -0.15449722 -0.38989362 0.04920483 -0.05043151 -0.114276476 -0.18027914 0.772287 -0.33844498 -0.7875539 0.30547985 0.13499357 0.12187249 0.094122514 0.6506612 0.7359756 0.023817861 0.42609203 1.1172314 0.30422875 -0.7416649 -0.07795789 -0.4326133 0.11893013 0.74429864 -0.17053825 -0.7429601 -0.501788 -0.10523932 -0.49682105 0.21524999 -0.087273754 0.594164 -0.06263341 0.30266908 0.16656323 0.68696034 -0.50758195 -0.46303967 -0.008012404 1.0489503 0.4061119 -0.26668587 -0.7103609 0.77293247 0.6312963 0.41717696 -0.36870956 0.35148382 -0.038604915 -1.0483669 -0.33088827 0.03219184 -0.21120436
661 0.19791907 -0.5376514 -0.5416195 0.5211563 -0.19025657 -0.9211363 0.19707723 0.4621349 0.036160912 -0.5619026 0.4559694 0.465302 -0.47234163 -0.0096967835 -0.6191443 0.15168639 -0.26551917 0.28501993 -0.45372844 -0.3404774 -0.3714665 0.25459936 -0.65288335 -0.17842598 -0.46123716 0.46928576 -0.02166159 0.23037007 1.0087265 -0.01316396 0.3394502 0.5632482 0.15279289 0.44015062 -0.17176099 -0.83620745 0.87234896 -0.58376956 -0.23901929 -0.45068255 -0.4230614 -0.17973834 0.48371914 0.1922557 0.31930342 -0.5123 -0.21581022 -0.6753235 0.3256549 0.19290909 0.91590613 0.7389378 0.1883485 -0.5099434 -0.1738782 1.2905365 -0.006533264 -1.0172222 -1.036472 0.24434882 0.06805471 -0.31603864 0.57654876 -0.0368653
279 -0.37209544 -0.09229776 0.27936122 0.14513312 0.1909969 -0.9216363 0.05687704 -0.026255278 0.05724222 1.238477 0.25743502 0.90045524 -0.5027222 0.48280436 0.3039905 0.6351218 -0.31903145 -0.48907307 -0.3187653 0.37453663 0.3220358 0.23507264 0.05535384 0.72741586 -0.14818443 -0.17728277 -0.4139595 0.9496978 -0.38067234 -0.18001339 -0.255557 -0.13560262 -0.04874585 0.074978955 0.27019373 -0.047007732 0.5724108 0.18850604 -0.40332437 -0.7387649 -0.265742 0.7431844 -0.14267601 0.26812258 -0.050905984 -0.36984098 0.39737847 -0.24148212 -1.0453557 -0.18701148 0.0694777 -0.4168438 0.20010151 -0.4577655 0.52047825 0.39718726 -0.53740036 -1.2119184 -0.10824909 1.0460823 0.35221532 -0.5245076 0.61368525 0.8562411
623 -0.50727445 -0.20203133 -0.27434468 -0.60884446 -0.36723974 -0.24886768 0.14532483 0.06569802 0.30909365 0.2769417 0.06613144 1.0783887 0.14722969 0.6784649 0.21908465 0.7375058 1.1205639 -0.17004845 -1.0807036 0.5314336 0.6905101 0.44565833 -0.18416092 0.15009409 -0.23327333 -0.33057228 -0.24416988 -0.5305222 -0.12011038 0.63784844 -0.36700144 -0.6283583 -0.028558532 0.032408815 -0.42762172 -0.30092487 -0.22968026 -0.050396554 0.24534157 -0.83565825 0.83608335 0.8059112 0.0758888 0.9131079 0.57704496 -0.43092212 0.2329769 -0.5025581 -0.6656595 0.14365423 -0.44933608 0.41711837 0.16620217 0.26121593 0.38891277 0.4603812 -0.65606 -0.4208214 -0.9710339 0.92840976 0.5142412 -0.12015289 0.7456743 -0.3044606
210 0.068982035 -0.17463554 0.4632931 -0.6552714 -0.25883424 -0.41773313 -0.058098514 0.3158929 0.29232553 0.20400904 0.16468823 0.221113 0.75081915 0.024701158 0.14657019 -0.6800181 -0.4115299 -0.16231368 -0.47358292 -0.016323952 -0.0024896583 -0.12803249 -0.53942156 0.68518245 -0.031452123 -0.9463541 -0.21831314 0.124248065 -0.23988868 -0.36170125 -0.43422812 0.26492465 -0.39336476 -0.06312437 -0.23299795 0.5152549 -0.22569843 -0.0019937248 0.015508646 0.055962395 0.16785106 0.56846696 0.2924571 0.6540556 0.70641094 -0.6445116 0.11210514 -0.28916132 0.33658072 0.27666202 0.61322194 -0.21486354 0.00925086 -1.004082 1.0484492 -0.08302333 0.5636022 -0.20295015 0.26380786 0.692826 -0.23643756 -0.37765953 0.41808164 -0.23126967
2094 0.73285687 -0.21385764 -0.32034102 -0.2601371 -0.51956874 -0.2648343 -0.29073352 0.43925264 -0.20570779 0.8872727 0.063637204 -0.14026786 0.23331538 0.010223094 -0.003691265 0.09098574 -0.18016818 0.6754051 -0.28736898 -0.27020946 -0.5142571 -0.43439502 -0.11129577 0.071174726 -0.73023033 -0.46457312 0.436124 -0.3026165 0.99260306 0.8614706 -0.054092098 -0.045579247 0.27568898 -0.37686488 -0.3952542 -1.2034934 0.014904977 0.04145934 0.45278424 -0.3125117 0.78453845 0.44450673 0.22499034 -0.23619407 0.4084031 -0.5800451 -0.33089054 0.041944668 -0.30647933 -0.111931525 -0.2065223 -0.08557555 0.09656165 -0.5476415 -0.19598328 -0.21922207 -0.6091113 -0.1293878 0.044356626 0.50386834 0.18148923 0.044488203 1.2871016 0.42050713
1103 -0.6206793 0.12539063 -0.52602535 -0.33737165 -0.08240142 -0.2277219 0.2248778 0.717128 0.44783533 0.050702356 0.3687858 -0.41531104 -0.22456273 -0.60361075 -0.347155 -0.09918653 -0.42457503 -0.17619771 -0.9110565 0.024247136 0.33850464 -0.058389664 -0.58145285 -0.2568918 -0.4307596 0.14176045 0.29198757 -0.1043818 0.20373541 -0.49141893 -0.0966889 -0.28128535 -0.40948284 -0.23887093 -0.22214162 -0.06813743 -0.21544036 -0.5142654 0.36013848 0.05139123 0.07402268 -0.34191248 0.14246918 0.6065423 -0.20849475 -0.028017893 -0.3893328 0.039067935 -0.13711779 -0.7689421 -0.59382135 -0.8740139 0.7254191 -0.5730522 0.16590986 -0.14764377 -0.6268444 0.3432498 -0.65868914 -0.07355998 -0.58211124 -0.6539942 0.81758386 -0.12209456
2365 0.21974885 0.48294854 0.07630851 -0.45722795 0.041061804 -0.17577489 0.41531712 0.36476412 0.20988299 -0.006925808 -0.11959424 -0.338532 0.03667876 -0.18111157 -0.2517813 0.22158283 0.285569 0.3299655 -0.43899256 0.22898331 -0.37868074 0.5304241 -0.04141489 0.11261839 -0.2702654 -0.3197311 0.26159045 -0.160332 0.48172766 -0.35221463 0.2040427 0.11692213 0.2402529 -0.48570815 -0.051780913 0.04305874 -0.6777444 0.61709267 0.39018795 0.17244047 -0.083632775 -0.9450373 0.6673437 0.15199023 0.38883603 -0.4691663 -0.54328734 -0.051293705 0.4180778 0.31808576 -0.13659124 -0.24329557 -1.2335526 -1.2203165 1.0003457 0.24542408 0.123302266 0.10844674 -0.43686166 0.20601773 -0.42465898 -0.29771557 0.40181345 0.85608536
1413 0.6548995 -0.9567365 -0.90222687 -0.4907085 -0.35941344 -0.53211606 0.5484935 0.50404274 0.37341282 0.7179824 0.75027406 -0.049596597 1.1045185 -0.19672255 -0.59962505 0.45767036 -0.441388 -0.5208789 -0.41086635 -0.13466926 -0.27500144 -0.050901428 0.10344468 -0.6772096 -0.31890133 0.797376 -0.29101992 0.13415189 -0.47683826 0.16585219 -0.68201584 0.5483743 0.110682525 -0.36245275 0.7625026 -0.05230983 0.42159596 0.006942966 -0.09961038 -0.22740002 -0.18290552 -0.13537875 -0.034749195 -0.3911551 0.37365738 -0.26763323 -0.14671 -0.27742735 0.9390156 -0.07547328 -0.3528309 -0.37802976 -0.031002559 -0.83984226 0.63226676 0.8217369 -0.62446207 -0.013019953 0.13713318 1.1575116 0.11809763 -0.49538136 -0.39120263 -0.39619705
544 0.071441665 0.42100024 -0.8933622 0.2910652 -0.5954381 -0.038146913 0.31624848 -0.6415847 0.12243729 0.29185024 -0.5234409 -1.1060677 0.42328945 -0.30743325 0.8279849 0.10825387 -0.036470417 -0.4432308 0.2457445 -0.41928405 -0.042713672 0.17280288 -0.35193646 -0.2376167 0.37292433 0.036240898 0.17885233 -0.27379924 0.049985323 0.5496286 -0.41681793 0.39684114 -0.021111917 -0.95003027 -0.14295974 0.031868644 0.13840719 0.17818564 0.93450826 0.23026882 -0.29488754 0.03849855 -0.112753294 -0.19893539 -0.25337684 -0.9944359 0.17978297 -0.20192789 -0.30973238 -0.43678507 0.18347974 0.26511103 -0.22799009 0.32287872 0.23008543 0.44205657 -0.60432273 -0.67087215 -0.18768992 0.53224546 -0.20400628 -0.5041565 -0.06250244 0.23039794
436 -0.5517518 0.49080446 -0.12008327 0.05748337 0.4196759 -0.24259181 0.0633026 -0.48650143 -0.1286087 -0.12777725 0.8159573 0.81445694 0.44351667 -0.80985034 0.13950352 -0.099841505 0.37520057 0.13007641 -0.9443157 -0.53277415 0.28921983 -0.35685796 -0.2669329 0.018362783 0.626973 0.1819654 0.185723 1.1345928 -0.42524132 0.1453103 -0.5247209 0.4365678 -0.2969709 0.26766917 -0.30932322 -0.008974848 0.45888957 -0.44144866 0.38153479 0.13193493 -0.45668805 0.3110852 -0.5801613 0.07623363 0.6931688 -0.6379372 0.5881515 -0.07157157 0.113880455 -0.8079283 -0.24869736 -0.10199052 -0.021604076 -0.4713658 1.0767591 0.79589736 -0.43973184 0.24937941 -0.38084605 0.27225545 -0.33846068 -0.65307516 0.035560247 -0.52730954
2130 0.5246957 -0.053075653 -1.5455352 -0.08818784 -0.43112144 -0.46289435 -0.34407344 0.49932626 -0.25513014 1.1459146 0.48070332 -0.63953424 -0.8706933 -0.097215004 0.5452852 0.07859855 -0.5992413 0.78935415 -0.38303864 -0.71036553 -0.36473438 0.3948088 -0.7388633 0.6720706 0.37777063 0.23906037 0.032950416 0.01965709 -0.1074849 -0.7168741 -0.8419303 0.81161606 -0.082023084 -0.052611995 -0.37735483 0.096880965 -0.09543603 0.43745607 -0.016894888 -0.73761237 -0.22272858 0.20375584 0.5567463 0.1477665 -0.23566546 0.73520184 -0.021969918 0.6167628 -0.7771715 -0.08788484 0.4860271 0.36307392 -0.17626455 -0.90141654 0.11612769 0.08098493 -0.4658012 0.42831728 -0.14252968 -0.018493365 -0.7421872 -0.25508782 -0.5819542 0.76382923
243 1.3951364 0.627191 -0.24734657 0.02301318 -0.5256687 -0.24886398 0.17626913 -0.5144565 -0.09929269 0.22847602 -0.108262464 -0.25245067 -0.20637318 0.6573259 -0.08366526 -0.3702508 0.25949952 -0.022914493 -0.5456604 -0.05847104 0.49783462 0.31964934 0.3456226 0.5619339 0.79795766 0.3009845 -0.37023127 -0.48058045 -0.26560292 0.008294956 -0.6849564 -0.18508072 -0.31008992 -0.17168826 0.42622563 -0.054704398 0.08880649 0.09262561 0.37467566 0.21710402 -0.2976337 -0.63238037 -0.5901063 -0.6291579 0.47236222 -1.191306 -0.22497292 -0.030180728 -0.09468828 0.20944788 0.6352276 -0.37166795 0.8093617 -0.23711255 -0.5459909 0.49282542 -0.4895873 -0.5053156 -0.31692436 0.22562072 -0.03247143 -0.550081 0.87740487 -0.79637253
1171 0.3483836 0.6283006 -0.51947224 -0.1563432 0.09447187 0.33235556 -0.34887832 -0.13844621 -0.45032817 0.03796849 0.09666834 -0.7161402 -0.27667716 1.0366296 1.2743163 0.13512118 -0.2659046 -0.015572651 -1.140264 -0.09894269 0.3420924 0.091206625 0.16830005 -0.51126635 0.68459857 0.21743418 0.11666284 0.4841547 0.5077412 0.43890774 0.26330304 0.12321255 -0.25432053 0.53270215 -0.7300083 0.4273729 -0.2763326 0.57333714 0.540876 -0.4811761 0.5265956 -0.112173945 -0.3130704 0.082625 0.33917874 -0.36886904 0.17189929 0.08254517 -0.048410084 0.43974137 -0.2405574 -0.24956912 -0.27951857 -0.15036869 0.9055067 0.6300253 -0.58724654 0.196714 -1.0112777 0.8073488 -0.1597633 -0.018076736 -0.15170415 0.45684806
565 0.13674115 -0.38735428 -0.4715731 -0.5633278 -0.02866171 -0.25317976 -0.16042617 -0.6502541 -0.17665793 -0.11168983 -0.061974544 -1.0885905 -0.0544658 -0.30645114 0.5905763 0.5103223 -0.279902 0.15487409 -0.5857413 -0.20592053 0.9108095 0.24074137 -0.44716513 -0.53887874 0.5920723 0.52781683 0.33087766 -0.5607808 0.56643164 -0.08652832 0.37689716 0.1389214 -0.17639409 0.06765953 0.12909684 0.028563036 0.22523044 0.36222425 0.24324492 0.011443107 0.19703153 -0.018150494 0.23368755 0.49035314 -0.3731338 -0.30787647 0.27680627 -0.47438905 -0.38804337 -0.082633086 0.2405838 0.11715576 0.5937596 -0.11174522 -0.047478527 0.2952066 -0.0020952588 -0.4419739 -1.2918372 0.42576167 -0.02556549 0.33914486 0.13852887 0.6477098
836 -0.2174947 0.5588203 -0.021230543 -0.29186413 -0.113289714 -0.71518266 -0.14808843 0.58537745 0.33138815 0.24790679 -0.07456279 0.28574398 0.15243737 -0.6709522 0.0036942519 -0.2815788 -0.034969527 -0.75248283 -0.082090445 0.5580965 0.16995277 -0.29656035 -0.4650671 0.6665286 0.6439643 0.56547856 0.25558046 0.6165077 0.2835689 0.0062110233 0.4198751 -0.15286933 0.0025125802 0.39990127 -0.03955212 -0.23777457 0.036203276 -0.5529137 0.10460994 -0.4568229 0.16103362 -0.36722547 -0.24459293 -0.43384355 0.002580612 -0.108589076 0.18871959 0.20841159 -0.6319417 -0.18779308 0.21673097 -0.36271343 -0.460085 -0.34418997 -0.11230779 -0.10730643 -0.5336959 0.2213372 -0.5786663 1.3654213 -0.2810997 -0.3273728 -0.34497917 0.47434378
1655 -0.03401784 -0.07540904 0.19076385 -0.16874339 -0.27643347 0.0030045398 -0.1807152 -0.7525177 0.5775076 -0.48318982 -0.14722212 0.57977295 0.3700225 -0.4790701 -0.7496033 0.25158724 0.07568592 -0.124104105 -0.071335904 0.27462286 0.21034867 0.27846718 -0.15001418 0.5833777 0.68383896 -0.0828999 0.32888678 0.58982575 -0.09283089 0.28845328 -0.46265575 0.4203023 -0.24353911 -0.28080773 -0.67027026 -0.8667197 0.7457258 0.30964142 0.11195463 0.51571083 -0.27766418 0.48885378 -0.058712106 0.058609188 0.21172386 -0.44213268 0.5348421 -0.18795492 -0.07315204 -0.6121444 0.3053619 -0.1836566 -0.71513385 -0.4490281 0.8387249 -0.28964317 0.512416 0.053097397 -0.30368876 1.0726175 -0.5239798 -0.32586867 0.22621198 -0.18400511
1505 0.059589084 -0.072266236 -0.6613082 -0.35025394 -0.3752696 -0.48353478 -0.20589313 0.27611908 0.46948624 0.4934544 0.113944 0.37312108 0.16281846 0.35079363 0.23780508 0.29627258 -0.17897633 -0.42380646 -0.52223855 -0.13651599 -0.17100817 -0.6325167 0.054407097 0.75716174 -0.70612884 -0.6832853 -0.45350114 -0.9986654 0.21099629 0.69509834 -0.3754394 -0.08125729 0.25471592 0.46264163 -0.20597716 -0.6223674 -0.17811705 0.55240977 0.37709895 -0.7151968 0.21877941 0.56934726 -0.469087 0.5743235 0.4416928 -0.6605813 -0.39113677 0.21441914 -0.20723687 0.026169904 -0.2293059 0.41129956 -0.41250342 -0.29322425 -0.3791716 0.15185608 -0.62932163 -0.16809687 -0.030378478 0.75023687 0.16070269 0.1298592 0.50120634 -0.24979568
231 0.07586462 0.36742908 -0.0574162 -1.0268991 0.6370526 -0.084929876 -0.24914348 0.27355504 0.41172275 0.74492186 0.16067776 0.10371015 -0.85444546 0.20937473 0.55653816 0.5010359 0.13922736 0.17061478 0.23285504 -0.38017914 -0.55888855 0.3081338 -0.0607543 0.38655946 0.48207995 -0.15796435 0.70340455 -0.0011993563 0.55020857 0.9326627 -0.4009768 0.27316704 -0.1672842 0.12386628 -0.16112646 -0.51193744 0.0983669 0.8240119 0.32223865 -0.14822908 0.43154764 -0.42527482 0.3299574 -0.07041235 0.98831975 0.28609988 0.8315017 0.58214164 0.49007228 -0.09503631 -0.24460211 0.59358746 0.036878522 -0.2763516 -0.33379784 0.7311984 -0.041292805 -0.16265053 -0.61205274 -0.35269442 -0.2697754 -0.6163634 0.02970253 -0.062544525
687 0.6419975 -0.14371198 0.016526055 -1.2083609 0.010288603 0.21568339 -0.36539614 -0.31219202 -0.05449316 -0.47483227 -0.17543063 -1.0757374 -0.20935924 0.1759208 0.66094375 0.4287126 0.20936401 0.5191534 -0.9883509 0.18399496 0.2473494 0.3404561 -0.25016582 -0.5296455 1.1755762 0.13644408 0.555628 0.42415538 0.4231628 0.13282128 0.94316936 -0.11637934 -0.078926355 0.4408231 0.412523 -0.21083626 -0.27439192 0.59523386 0.6693908 -0.44735807 0.2530283 -0.48578846 -0.17770818 0.18642487 0.14316136 -0.26326674 -0.23394415 -0.6762959 0.08543712 -0.22866869 0.30776343 -0.554287 0.41799894 -0.37071186 0.4313121 0.57736105 -0.425134 -0.09236227 -1.0210594 0.20768899 -0.63139373 0.35896397 0.37905654 0.46426088
444 -1.0721496 -0.42658055 -0.44252753 -0.49280187 -0.7962232 0.31722587 0.009721216 0.2450471 0.6384248 -0.056001205 -0.51989985 0.69005245 -0.2845991 0.2750551 0.83551925 0.19461593 1.122443 0.016149014 -1.1080605 -0.48952422 0.19252291 0.41301453 -0.029751835 -0.6565672 0.20772587 0.080834985 -0.37363517 -0.6386124 0.291331 -0.034503464 -0.35727298 -0.6631219 -0.25835726 -0.044325992 -0.5538243 -0.04719723 0.00885741 0.23708846 0.25178957 -0.67323714 0.7792619 -0.101628214 0.01694263 0.62268317 0.9433757 1.5302017e-05 -0.36059815 0.06671922 -0.85689235 0.73304886 -0.072577424 0.5926164 0.07390019 -0.5002085 0.47988492 0.7018209 -0.1258226 -0.33255923 -0.5429666 0.95091456 -0.17435078 -0.12870294 0.48472667 -0.50380164
2367 -0.04661571 -0.084799714 0.65175366 -0.07871286 -0.60460615 -0.085615866 -0.13594903 0.59521085 -0.37855512 0.62009937 0.30304104 -0.2584267 -1.008531 0.00441985 -0.022201529 0.74975073 0.32059127 0.19094212 -0.031904742 -1.7024981 0.1728125 0.2729444 0.2869724 -0.13739562 0.03239189 0.026155781 0.5689161 -0.1554308 -0.018473944 0.36589712 -0.8353447 0.067093775 0.44485307 -0.07100531 -0.18529293 -1.2606244 -0.37642032 0.7317424 0.1270963 0.12698925 -0.15369935 -0.5962935 0.2205373 -0.40008312 1.0569428 -0.52261704 -0.16306552 0.2352169 -0.23387435 -0.8790509 0.80423266 0.20457156 -0.22790958 -0.47183213 0.011209644 -0.46890673 0.20919877 0.027251061 -0.54840046 0.19210747 0.098030865 -0.35415554 -0.2038193 -0.4701846
577 -0.21579432 0.7242755 -0.11893285 -0.11996539 -0.47916 -0.1725844 0.3256432 -0.9785093 0.7069142 -0.33561695 -0.21653177 0.027766129 0.081382945 -0.78779227 -0.072806 0.47573906 0.04014249 0.47232813 -0.2004231 -0.48212802 0.13037576 -0.29134837 -0.7740085 0.28417304 -0.029395383 -0.29290703 -0.23791471 -1.0341272 0.47789726 0.52848774 -1.1204331 0.9534158 -1.650307 0.37581274 0.019968716 -0.4573222 -0.1444349 0.16732027 0.08809494 -0.3586026 -0.11256607 -0.41680053 0.8105259 0.46614102 0.6219919 -0.04318995 -1.1980832 -0.09989879 0.52204716 0.15063792 0.17863454 0.2443004 0.117849365 0.3465963 0.52597827 0.5094567 0.58947587 0.28659046 -0.09336285 1.223946 -0.102724075 0.03172818 0.47631645 0.65297276
1743 0.0726937 0.04852934 -0.10210138 -0.36024538 0.065283336 -0.21165329 -0.6861741 -0.40349203 -0.10154053 0.18423122 0.004418697 -0.2958613 -0.081133164 -0.72827446 0.34908321 0.46535403 0.20924197 -0.23670846 -0.4529965 -0.9064771 0.5153412 -0.46287328 -0.50026053 0.48402154 -0.20781438 0.7871953 0.33995196 0.113712505 0.3187088 -0.07955332 0.022222197 -0.7747019 0.16517836 0.10711224 0.099339165 -0.6997743 0.0409353 0.2632103 -0.09346406 0.2165123 -0.10011404 -0.7911518 -0.44885597 0.38531157 0.7094757 0.14381465 0.40164316 0.6812031 -0.26772943 0.030151905 0.4262654 0.06542743 0.14937419 -0.23036286 0.054977994 0.5706187 0.3720587 -0.6352623 -0.56660116 0.19883323 -0.12906247 -0.3122165 0.13199417 0.15292539
627 -0.5411888 -0.7495248 -0.22697902 0.13508993 0.6841418 -0.3430297 -0.07787337 -0.37616566 0.5627807 -0.18192618 0.08637775 -0.7448918 0.33710837 -0.19556123 0.16302246 -0.20913008 0.67752194 0.691528 -0.47513372 -0.19160372 0.41994905 0.9283618 -0.1613784 0.33044508 -0.26424307 -0.056229312 -0.13878073 -0.5270564 0.18243596 -0.5384539 -0.21548556 0.099297225 -0.16178289 -0.6011804 -0.13651802 0.23007214 0.44948512 0.56685066 0.48022726 -0.65475106 -0.18941316 -0.06798527 0.55715126 -0.0003253576 -0.50968605 -0.45932797 -0.58776814 -0.27263448 -0.087730795 0.3222389 0.5598412 0.36582974 -0.31535012 0.0070665567 0.17572938 -0.3276722 -0.47922957 -0.31588873 -0.3215307 0.27789912 -0.4714626 -0.38053155 -0.10752831 -0.39050457
1154 0.36371645 0.89574915 -0.33518878 -0.035866845 -0.18670563 -0.45322302 -0.11537657 -0.046945512 0.7854377 0.1947698 0.549699 0.048651047 -0.47161856 -0.50503427 -0.097192094 -0.51744103 0.49908978 -0.3379507 -0.6294943 -0.9588935 0.93428344 -0.17622153 -0.26218072 -0.5361557 -0.9327729 0.22492674 0.37881273 -0.2758941 0.2481601 -0.36985755 -0.48964697 -0.45582688 -0.15932305 -0.28089976 0.86865515 -0.2819324 -0.08918669 0.278622 0.081300475 -0.05542011 -0.56395566 -0.17142884 0.5432253 0.7792742 -0.11755412 0.28537655 -0.24847703 -0.6608477 0.52795553 -0.18719736 -0.40611318 0.28425044 -0.3299291 -0.5985052 0.37862504 0.06771961 -0.08575055 0.08916393 -0.3021544 0.49925435 -0.56610966 0.42214945 -0.11896382 0.35816804
1848 0.21389823 -0.0755802 -0.08664259 0.6419323 0.40158418 0.22481865 0.3090143 0.3367116 0.9676077 -0.23430279 -1.2384498 -0.8354285 -0.2541427 -0.67060864 0.15082271 -0.4319884 0.13951111 0.16980714 0.3830654 0.03402373 0.1931088 -0.3270462 0.21569264 -0.013085442 0.089683674 -0.8131902 0.13022564 0.2516118 -0.21077634 0.7459611 -0.5181725 -0.30646902 -0.2405832 -0.08551812 -0.33917135 -0.92821944 0.034822684 0.40310186 -0.5233727 -0.5131428 0.24545106 0.035554983 -0.13442607 -0.032044735 0.06881779 -0.19967581 0.11345064 -0.42161536 0.012033143 -0.050505456 -0.6963685 0.17271876 -0.2725249 -0.6060169 0.39877722 0.395803 -0.49471116 -0.8248761 -0.07762317 0.27809 -0.55390596 -0.51040167 -0.20338239 0.2975626
1050 0.17532608 0.33061203 -0.39025986 0.054828227 -0.19085288 -0.44972795 0.12368831 -0.006232256 0.7185594 0.2894489 -0.0014498781 -0.88796544 0.070453055 0.123739906 -0.29321802 -0.22057717 -0.22386627 -0.69929755 0.16725211 -0.26887262 0.17394522 -0.12598754 -0.36228797 0.120805 1.0712346 -0.71146977 0.46738416 -0.46793616 -0.4381575 -0.5049609 0.08940885 -0.9169249 -0.2055311 -0.1161106 0.6213727 0.032188855 0.6559203 0.053534653 0.05624454 -0.67883366 -0.63674504 -0.6925956 -0.6650954 -0.71977985 0.40443537 -0.7058225 -0.3696021 0.17694487 0.09004495 -0.48266983 0.031640857 0.4610058 0.09095243 0.36053202 1.3747293 -0.3768517 0.29902992 -1.0555141 -0.7709878 0.6641591 0.09806002 -0.2516771 1.1047136 -0.7239542
1416 -0.018263604 0.4773285 0.38066584 0.22019571 0.14023015 -0.26940623 -0.07125567 0.28354186 -0.14445956 -0.38965708 0.2726016 -0.3577209 -0.038916513 0.4946784 -0.02997585 -0.20710047 -0.6381082 -0.24896766 -0.19336487 0.11728497 0.9256177 -0.0940622 -0.97184384 -0.5222546 0.40120992 -0.33038202 0.17900363 -0.22599252 -0.0066996887 0.15952471 -0.6461022 0.55280274 0.37650186 -0.13805676 -0.17225152 -0.5781941 0.04370466 0.15378618 0.6345738 1.1350507 -0.32871282 0.23326541 -0.2173287 -0.4227071 -0.2946407 -0.30317494 0.60193956 -0.09321225 -0.27193853 -0.3449055 -0.3364457 0.5170939 -0.34952268 0.1604945 0.6305473 0.26239336 -0.1517349 -1.058627 -0.43100253 0.673983 -0.6396785 -0.6828141 0.51771516 0.09916069
609 0.5672743 0.021043409 -0.26483357 -0.20886345 -0.14310864 0.41669598 -0.3882832 0.9223596 0.33703142 0.19582772 0.38696575 -0.7092898 -0.31757274 -0.023546068 -0.48171142 0.06427525 -0.028112452 0.09353773 -1.0521319 -0.16365391 -0.606183 -0.674443 -1.0279001 -0.3740728 0.08903847 -0.36770076 0.35342237 -0.15663485 -0.062230874 0.29760924 -0.04311572 -0.55558705 -0.02764693 -0.3031808 -0.25404844 0.1793758 1.0697671 0.97588724 0.11538039 0.44764423 0.5329256 0.17869449 -0.20247038 -0.14509052 -0.19777957 0.08542519 0.06833528 -0.787486 -0.37706327 0.17125055 0.32484928 -0.058763646 0.16465168 -0.23618853 0.22306094 -0.007101511 -0.26068205 0.40797377 -0.18163867 0.82379913 -0.24048886 0.10004841 0.29466438 0.53041214
1773 -0.166708 0.071030654 -0.1669592 0.15939352 -0.25223887 0.5083261 -0.3439879 0.16109121 0.5179355 0.416287 0.31135485 -0.04613028 0.5402818 0.18181917 0.1273171 -0.9133081 -0.14241272 0.23162217 -1.2680418 0.2188234 0.57044506 -0.2348972 -0.6981832 0.15651354 -0.3724347 -0.15151627 0.6839413 -0.25789252 -0.193809 0.24884027 0.16514415 0.2438686 -0.14303067 0.5005428 -0.09146079 -0.06527895 0.41112417 0.22644591 0.42213637 -0.0619792 -0.29562542 -0.120244555 0.041545793 0.17741323 0.012871624 -0.537437 0.25251636 0.8898975 0.085010245 -0.52335376 -0.024383616 0.9330153 -0.021064889 -0.26750082 -0.11191384 0.38333315 -0.52626127 0.23377153 -0.66319066 0.069658145 -0.30897394 -0.3425347 0.0634933 -0.7263973
2122 -0.41256887 -0.0906082 -0.16754995 0.22653864 0.47264907 -0.34104025 0.40105122 0.057797708 0.6861025 0.48828182 -0.4734979 -1.023903 0.5464222 0.10984807 -0.15504263 -0.2764447 0.3927318 0.68424743 -0.3312337 -0.5443511 0.3345313 0.8182282 -0.5971102 -0.2524345 -0.32952183 0.6150598 -0.2549426 -0.08061829 0.7500459 -0.5420098 -0.6487507 -0.24670738 -0.19503242 0.36436754 -0.51854503 0.11464202 1.3299717 -0.5168883 0.21170476 -0.69847035 -0.026145957 -0.30388168 0.67815197 0.09439781 0.13582474 -0.039023675 -0.30249807 -0.62988484 0.19296856 0.13994035 0.23188388 0.7273052 -0.67908174 0.14878048 -0.52052885 0.5341003 -0.5570205 -0.5408466 0.16427895 0.47965088 -0.17858432 -0.32568195 -0.2127174 -0.3846383
1966 -0.28995773 -0.11078178 -0.5408764 0.03292555 0.5020771 -0.12461419 0.3803732 -0.25665182 0.8965185 -0.024001293 -0.21172969 -0.8146306 -0.0042473082 0.5023674 -0.36368105 -0.1297805 -0.074026674 0.50388336 -0.43269378 0.42101502 0.23308334 -0.11257721 0.44004348 0.5782836 -0.31696767 -0.49993423 0.7940166 -0.89567935 -0.42237338 -0.72224474 -0.46003255 0.15295209 -0.38069746 0.5497963 0.66787404 -0.053037014 0.3804541 -0.0827599 -0.2449103 -0.99873054 0.104739025 -0.46997327 -0.50669926 -0.83162117 0.051967256 0.33760577 -0.0075280997 -0.57520276 -0.93622947 -1.2228199 -0.578612 0.08046272 0.61413115 -0.3020665 1.342027 0.035063393 -0.400693 0.17595614 -0.3041607 0.38461837 -0.8997764 0.12628151 0.24286796 0.034849446
218 -0.12870224 -0.8114781 0.11852705 -0.28427103 -0.46841395 0.17258757 -0.32577243 -0.22633657 0.0029074166 0.4726264 0.2878001 -0.53955823 -0.40622714 0.55493164 -0.031875473 -0.0034435038 -0.33131546 -0.4342371 0.170502 0.3379541 1.1662242 0.5424181 -0.7706926 0.37948558 0.4570479 -0.4715514 -0.4348884 0.36318865 0.8633558 0.11248545 -0.4984699 0.26869833 -0.12807788 0.025116334 -0.46048677 -0.4309041 -0.05911174 -0.61479294 -0.22589658 -0.7830528 0.13802576 -0.73541856 0.418988 -0.5892014 -0.30174506 0.0021174822 -0.5454289 -0.532012 -0.6088755 -0.49944887 0.17504086 0.09655144 -0.31447148 -0.7197707 -0.3441783 -0.040020615 0.5078831 0.3102445 0.10955654 0.5466504 -0.3499634 -1.3185215 0.06447743 -0.19229752
1015 -0.49556056 -0.26228505 -0.47181752 0.67824656 0.13801615 -0.7558944 -0.5662234 -0.028099291 0.46376255 0.64112204 1.1022426 -0.84780735 0.3340987 -0.34809983 0.1941991 -0.32788742 -0.12713933 0.4224139 -0.22899923 -0.3758649 -0.02560445 -0.09539674 0.49992672 0.9327958 -0.06625974 -0.78755635 -0.73843527 -0.28949368 0.8463777 0.62405884 0.81238455 0.07716643 -0.26814532 0.15405704 -0.33926028 -0.7783344 -0.24575041 0.66807944 -0.38356066 -0.63962954 -0.79396725 -0.8508811 0.01869633 0.26386598 0.45178464 -0.37614697 -0.087560005 -0.84655124 0.95116305 -0.3022651 0.36642766 -0.41707173 -0.04512756 0.5435259 0.47491032 -0.0020640967 0.20035906 -0.42716536 -0.8911965 0.32903555 -0.9182241 0.025303753 -0.4294746 0.076193735
239 0.09399054 0.15284672 0.3742449 0.14293452 -0.46507657 0.19486608 -0.16765223 -0.20090684 1.0041286 0.013921019 -0.470459 -0.29312328 -0.59379905 -0.14061199 0.018857332 -0.67068976 0.057902284 -0.3714346 0.15542708 -0.24422225 0.020040954 -0.10810635 0.22099951 0.26122338 -0.082362965 -0.10344364 0.29466572 0.56016487 -0.68877417 0.43387493 -0.7216149 0.18349211 -0.36192122 0.55258137 -0.55457056 -0.91197526 -0.112669915 -0.6092466 -0.08153682 0.30560634 -0.08374033 -0.07650826 -0.38010737 0.12614754 0.26424012 -0.687906 0.20061772 -0.50315374 0.5363232 -0.01901632 -1.0369714 0.52727437 0.9943794 -0.28131002 0.1988562 0.6112357 -0.6029762 -1.0675015 -0.705384 0.07211622 -1.1128248 -0.26279247 -0.15682442 -0.065460406
1927 0.5450843 -0.15053296 -0.5238076 -0.2997307 0.4859669 -0.15877338 -0.057006996 -0.3866168 -0.7832324 -0.14760302 0.06099752 -0.119824424 -0.049422037 1.2845258 0.30214623 -0.37222773 0.14647423 -0.27490544 -1.0986197 -0.15484424 0.7108373 -0.05211705 -0.9907385 -0.19255337 0.16207676 0.15362065 -0.4174933 -0.39375585 0.4030477 0.25976136 -1.0747162 0.46820378 -0.8263818 0.057286046 -0.48916307 0.027055135 0.029242199 -0.529338 0.5309623 0.27272758 -0.55548185 0.2085147 0.15144859 0.3177188 0.44889018 -0.33157158 0.5038822 0.3793794 0.38817748 -0.0606416 -0.23345163 1.0969148 -0.14549623 -0.45016447 0.5603769 -0.2859234 -0.0032129472 -0.9080233 -0.48444173 0.76211065 0.33374387 -0.84052646 0.062417902 0.3175119
2383 0.25896356 0.15417391 -0.20511867 -0.2877765 0.39539993 0.47785407 -0.055964664 0.93637145 0.62183774 0.24452935 -0.008648262 -0.4875094 0.40014887 0.22386734 1.0432355 -0.19692701 -0.32484353 0.14933173 -0.20351729 0.38218898 1.0148132 0.81375694 -0.90246457 0.37096775 -0.6692562 -0.004094673 -0.018316574 -0.37841502 -0.15054825 0.08609401 0.08372431 -0.53018385 0.4132977 0.017464204 -0.3402927 0.3385063 -0.29540056 0.37898698 0.18226194 0.24363053 -0.73629767 1.0471114 -0.31895813 -0.599233 0.15052262 0.06637273 -0.20429364 -0.6070112 0.18755467 -0.6699356 0.25012693 0.979463 -0.5061436 -0.97731495 0.13367921 0.8736961 -0.55435675 -0.56347644 -0.2528064 -0.11140738 -0.35423535 -1.0005277 1.154875 -0.77258474
2018 -0.05085641 0.6579298 -0.4364915 -0.19292477 -0.4918628 0.79622674 0.037274837 0.22999595 -0.41531736 0.51694006 0.047347136 -0.51421744 -0.17423436 -0.51512474 0.027903523 0.23723175 0.51632375 0.21715727 -0.23912172 -0.48759836 -0.47680542 -0.018969605 -0.7290429 0.11969261 -0.66038984 0.27810198 -0.3475005 -0.14002632 -0.738512 -0.46980637 0.7936529 0.6860823 0.5410772 -0.111841865 -0.07188305 0.583713 -0.34256646 0.31607616 -0.05875041 0.4365684 -0.6131051 0.1122447 -0.020107524 -0.7435702 0.5758027 -0.09410346 0.3526648 -0.08637741 -0.0702387 -1.1038034 -0.42304948 0.5334948 0.17663676 -0.8118936 0.8170489 0.760809 -0.20487937 -0.4926746 -0.08435614 1.0365213 -0.8604783 -0.30721316 0.060351517 -0.29366267
186 0.35477653 0.6216599 0.19087194 -0.3559841 0.10140016 -0.54159045 0.036027934 0.15955599 -0.07783189 0.48872712 0.059527773 -0.261804 0.68707204 0.5100552 0.30655515 0.5980871 0.8128647 0.23115923 0.09678445 -0.17437647 -0.5762566 -0.3043367 -0.9768746 -0.50022644 0.16664028 0.69007736 0.05735704 -0.4098367 0.22983138 0.5131495 -0.53514504 -0.033407573 -0.46790493 -0.2709165 -0.3362577 -0.19377427 -0.16815196 0.513218 -0.15812916 -0.40599245 -0.76347804 0.61944556 -0.6416507 0.055226672 0.62818724 -0.7107729 -0.8371009 -0.06949222 0.31067097 -0.17560871 0.4997643 0.7008706 0.6859516 -0.00083907763 1.2162012 0.48466116 0.65959513 0.16582593 -1.0461609 0.019571206 -0.4416318 -0.14029296 0.0115352 0.43929845
1869 0.6578128 -0.34566548 -0.92471576 -0.15551493 0.13913599 0.07667592 0.04397015 -0.04134734 0.10720457 0.44650403 -0.15960401 -0.12700012 -0.7498363 0.62964386 -0.5300001 -0.1449478 0.51814294 0.39209703 0.5667764 0.020896453 0.10073202 0.3220686 0.09049799 0.44523916 0.14914902 1.0387263 0.31910327 -0.033236455 -0.24235255 0.48008412 0.44928712 0.3184449 -0.43031996 0.11438631 -0.8116146 -0.79157174 0.3353272 -0.25193065 -0.59973663 0.18000543 -0.06307337 -0.46801296 0.3220725 -0.95870835 0.2931841 -0.36041546 0.7163268 -0.18028569 0.3687425 -0.0019043724 0.45046344 0.1694316 -0.06652054 -0.84476304 -0.14645019 0.17448841 -0.20959446 0.49908963 -0.41319898 0.9724476 -0.14136663 -0.29887152 0.57041925 0.33177355
1745 -0.28088117 -0.33783147 -0.047494207 -0.60138696 0.13935 -0.11529481 0.014960479 -0.18445672 0.6541569 0.9368533 -0.17058866 -0.39164338 -0.01360265 -0.17742018 -0.0021923026 -0.54818094 0.40877572 0.43548802 -0.9423526 -0.06292039 0.5281432 0.2602803 0.05814421 0.5854312 -0.4547328 0.46901274 -0.03460667 -0.1410243 -0.2462383 -0.20373903 0.3204921 -0.12395238 -0.6386597 -0.42965516 -0.020990193 0.1453433 0.17781371 0.9440322 0.5063786 -0.154721 -0.028729422 0.051968854 0.37226766 0.5443119 -0.91940653 -0.28312257 -0.17495883 -0.5517276 0.06799574 0.40844417 -0.48763785 0.38111532 0.43774143 -0.5551494 -0.07978976 -0.09742919 0.044049054 -0.06554853 -0.033434637 0.27187058 -0.86193776 -0.07286702 0.16067365 -0.41380656
897 0.12750538 -0.679741 0.12637253 -0.0010433452 -0.44999048 -0.53037727 0.106898405 -0.1461463 0.14312021 -0.080446 0.4289204 -0.52428216 -0.12015783 -0.00084149855 0.40563557 -0.19819228 0.13498914 0.48305944 -1.0480534 -0.2979112 0.54236156 0.34029198 -0.5068153 -0.059210695 -0.35394284 -0.32688585 -0.23150174 0.634124 -0.12802683 -0.38231614 -0.36140776 -0.022924963 -1.317668 -0.18817621 -0.19892484 -0.47462863 0.2595344 -0.40690094 0.05518878 0.73061156 -0.11114168 0.4168084 -0.47811937 0.30309254 0.8103215 -0.20387356 0.69110376 0.41092867 0.16403678 -0.14428778 0.14357607 0.26201665 -0.37832895 0.12993655 0.7492583 0.17559214 0.7293544 -0.21995196 0.23077363 0.42843392 -0.52373815 -1.0966113 0.5269692 -0.39514232
2248 0.0024447883 -0.6131487 -0.90724665 0.26044455 -0.09899371 0.25669134 0.5692009 0.619728 0.17592832 0.64377934 0.69896835 -0.075735785 -0.10501568 0.19658081 0.014875597 0.19223183 -0.38683107 0.18167779 -0.2681778 -0.7112676 0.061643902 0.51783556 0.051339753 0.2891639 0.4871482 0.4742029 -0.39836213 0.20271568 -0.13678844 -0.08203896 0.027120324 -0.33620843 -0.24866351 0.39114347 0.6326144 -0.43462712 -0.60020417 -0.1966916 0.20482653 -0.48406422 0.37090433 -0.27132183 0.69282013 0.012150774 0.26714888 -0.068376385 0.24885142 0.16355161 -0.2847803 0.1645068 0.67075294 -0.21362431 -0.2801705 -0.0012081212 0.5793019 0.45130354 -0.40571842 -0.9284195 0.8208339 0.8079743 -1.4864634 -0.046492085 0.25964502 -0.28181738
89 0.05392209 -0.043955628 -0.77914953 0.17005266 -0.019881021 0.21842757 -0.30046254 -0.36119175 -0.42056724 0.09626929 0.17421158 0.92711556 -0.30910972 0.31005687 -0.16323015 -0.4482335 0.7434728 0.09425721 0.143081 -0.49432325 0.282786 0.055366397 -0.26963994 0.50439507 0.5960493 -0.15484934 0.12898035 0.063701235 -0.053988706 -0.21599504 0.25535005 0.5516436 -0.895261 -0.5327194 0.89469093 -0.54977846 -0.3204019 -0.07867751 0.6932543 -0.8564443 0.16647875 0.101088986 -0.45061582 -0.27957958 0.06047806 -1.5206724 0.1169518 -0.76352274 0.4183895 0.14506955 -0.5786007 -0.4061104 -0.4435427 -0.08083022 0.6637205 1.1363144 -0.13316281 0.2471048 -0.52360874 0.9583737 -0.18002239 -0.26843673 1.063777 0.19243486
492 -0.1296365 0.57145154 0.03319558 0.0135568455 -0.27562568 0.7125844 0.5475091 0.91923153 0.6950662 0.57957 0.36752555 0.04500328 -0.02424445 -0.4327567 0.21671553 -0.33492926 -0.18233787 0.5685601 -0.20719846 -0.83233213 0.13791075 -0.33846304 0.2863549 -0.072382204 0.84832114 0.038921516 -0.10410253 0.15475279 0.8172386 0.5675388 -0.32329065 0.17052005 -0.5738716 0.505403 0.37299556 0.4607832 -0.42944053 -0.44421348 -0.93088764 -0.7075774 0.6851446 0.036071923 0.6003511 -0.8763317 0.22396973 0.24426942 1.1896049 -0.29523483 -0.9389489 -0.6894237 0.9081192 0.25480124 -0.33299774 -0.7375758 0.18767785 0.98568565 0.5116627 -0.3112897 -0.7087359 0.08993232 -0.7470708 -0.12699483 0.5763916 -0.19440554
1042 -0.20453972 -0.020125737 0.100990206 -0.41498074 0.23668166 -0.026645632 0.82140994 0.40504575 -1.593929 -0.33796862 0.04991537 -0.41143936 0.087667696 -0.15628956 0.29043618 -0.11561119 0.10097717 0.29901567 -0.26995352 -0.26418948 -0.046651375 0.44018784 -0.16791533 0.2845525 -0.8410008 -0.5005404 0.08306695 -0.046342436 0.21456806 0.6984099 -0.33911625 0.8088924 -0.54931885 0.5094902 -0.5089668 0.18149044 0.46342537 -0.18810874 0.3943872 0.028569495 -0.40673587 0.3383137 -0.05589518 -0.55868506 -0.33537868 0.1456153 0.44059956 -0.06263235 -0.2230438 -0.24516886 0.033882257 0.25421643 0.15282053 -0.43294543 0.5077734 0.82263285 -0.18020192 -1.0213332 -1.283324 0.6180746 -1.0593859 0.24507059 0.001944447 0.18876608
454 0.044075225 -0.346193 -0.4704357 0.7753398 0.10824473 -0.0073794313 0.26767948 0.55032 0.4483832 -0.19211064 0.37349865 -0.6286621 -1.1451614 0.042163905 -0.02117015 0.5370941 -0.034320172 0.63911 -0.4875409 -0.1883944 -0.18194489 -0.36024147 -0.72972876 0.31246668 -0.014026149 -0.2130123 0.22473204 -0.52304655 0.2683668 0.49229565 0.067344405 -0.05168663 -0.07297166 -0.31345397 -0.44070217 0.019449962 1.159722 -0.121923424 0.8818864 0.695405 0.13335422 0.4500542 -0.069055475 -0.3919105 0.39261222 -0.54187244 0.24234182 -0.5424138 -0.32087204 -0.17734326 0.1582236 -0.40039486 0.23035064 -0.48984182 -0.1972649 -0.014538883 -0.49587426 -0.16071539 -0.24832879 0.5354264 -0.15989281 0.33068877 -0.26982522 -0.14372882
657 0.29479638 0.2240455 -0.5381351 -0.50302994 -0.043964606 -0.72045106 0.05439978 0.33443213 -0.021913378 0.17483263 0.13652225 -1.3515161 0.050272014 -0.16628464 0.5814844 0.25610644 0.92158085 0.43286195 0.19790317 -0.3671336 0.8363503 -0.9474908 -0.4215266 -0.37517035 -0.36007932 0.8802151 -0.020881314 -0.43393153 0.1846151 -0.67541033 -0.78693944 -1.3882406 0.23536621 0.020318894 -0.004322027 0.23372744 0.69447255 0.22107317 0.35563073 -0.7096704 0.6557462 -0.43937087 -0.23177297 -0.12645733 -0.45730388 -0.6260294 0.13809904 -0.50097805 -0.12670636 -1.0581083 0.19774407 0.3415016 -0.73197716 0.16522743 -0.21130991 0.44675657 -0.30739886 -0.74187696 -0.3538334 0.22739634 -0.4101937 0.13435443 -0.03860308 0.7073401
2671 0.09502025 -0.6483573 -0.37588286 -0.18859419 -0.18438898 -0.2658957 0.5695485 0.0043441504 0.46703562 0.7494891 0.97919035 -0.04250956 -1.0432283 0.5279299 0.3507621 -0.023505487 -0.31798163 1.0035757 -0.8061947 0.45513213 0.4887348 0.20141555 -0.23939428 0.2642132 0.3824271 0.88820946 -0.17135891 0.7117478 0.48472273 -0.72247326 -0.24422452 -0.37671825 -0.5190498 -0.076945245 0.54630995 -0.2999833 -0.4083817 -0.3379151 0.1729718 0.07892332 -0.20632745 -0.18475771 0.7050042 0.0614085 0.2835809 0.46706158 -0.5350829 0.59456193 -0.012737871 -0.04485141 0.40230635 0.19811338 0.444353 -1.0502384 0.8333086 0.3289228 0.40883693 -0.54529005 -0.24084927 0.13253574 -0.89363366 -0.38854483 -0.09787381 0.08898846
2160 -0.7592779 0.1137375 -0.24620087 0.2992759 -0.20171854 -0.32523134 0.23053822 -0.6355521 1.0723474 0.28986454 -0.1179775 -0.21485727 0.51635724 1.1477431 0.49820805 -0.78890127 -0.25254336 0.2082773 -0.27814534 0.09761685 0.22812262 -0.6009386 -0.47599363 -0.8549327 0.26100165 -1.4005482 0.3100021 -0.23432761 0.32265744 -0.2046014 -0.31969467 -1.8325812 -0.15390912 -0.013766674 0.38949516 -0.7339338 0.14930594 0.31093693 0.5953635 0.46634442 0.4916311 0.39203966 0.41523218 -0.7886156 0.57532626 -0.94180983 0.5615558 -0.15463765 -0.625862 -0.121182606 1.3437648 -0.3128696 0.28964078 -0.6284153 0.0066587133 -0.041218866 -0.9101768 -0.25564608 0.32282308 1.5954651 -0.34386894 -0.13104238 -0.33318472 0.34491873
1742 0.41484967 0.8959154 -0.19318081 -0.32402045 0.77722585 -0.24963698 0.012238372 0.30441377 0.4163484 0.48967236 0.67415214 0.43912533 -0.017962342 -0.3505621 -0.1850407 -0.26892766 0.6722109 0.24209905 -0.2854364 -0.22295974 0.34057888 -0.54123366 -0.60398483 0.13639529 -0.5300571 -0.040119715 -0.010034491 0.3747991 -0.18929504 -0.42617396 -0.70277995 0.45737144 0.04749352 -0.34022558 0.84717107 -0.42483512 0.122280546 -0.10790586 1.042004 -0.9726877 0.2252761 -0.48600706 -0.06835171 -0.27003834 0.4224819 0.2284582 0.047696818 -1.2115169 -0.44268584 -0.056290902 1.080963 0.88340974 0.2052754 -0.5866699 0.12911552 -0.05708108 -0.049129087 0.16327956 -0.26769826 0.17249826 -0.31315914 0.05430792 -0.17040485 0.06546618
736 0.09526903 -0.28847834 -0.035066422 -0.269079 -0.05171236 -0.010585725 0.6739606 -1.0541408 -0.0077620903 0.06552421 0.16588509 -0.49338025 0.30273527 -0.5286529 -0.010546625 0.13765696 -0.26889688 0.27973717 -0.5120197 -0.22128524 0.29237875 0.8478796 0.058472443 0.8608683 -0.3435502 -0.30735087 0.1676722 0.3374016 0.33486813 0.62773657 -0.96778196 -0.32290465 -0.35462162 -0.3943908 0.1795091 -0.7940823 -0.12915395 -0.46021178 -0.06625618 -0.31876722 0.82616806 0.7164583 0.67139655 -0.99159974 -0.30502647 -0.071856685 0.42352608 0.2789124 0.75319827 0.03683924 0.34639287 0.7844695 0.06276089 0.0020050716 0.7851347 0.11633949 -0.8717421 0.06764971 -0.56015277 0.16310297 -0.46749067 0.23652564 -0.22071306 0.8578476
519 0.15702894 1.0203172 -0.34762788 -0.28975695 -0.21989699 -0.99605817 -0.7939961 0.25512213 0.7721957 0.5508231 0.31110024 -0.534547 0.20762734 -0.035705347 0.22831984 -0.27910724 0.05067387 -0.4789491 -0.5434485 0.58262736 0.0044434234 -0.1934192 -0.048925508 0.2259801 0.31581467 0.52353394 0.14758928 0.083864585 0.44324988 0.68768126 0.66953504 0.1643176 0.11834573 -0.053804576 0.17616297 -0.06907003 -0.054442078 0.1257537 0.20276688 -0.401307 0.46474615 -0.010012708 0.6280034 -0.37588352 0.5708008 0.22217213 0.060937483 0.03280129 -0.23362705 -0.28537494 0.25701353 -0.7186263 -0.32909155 -0.08201093 -0.09845175 0.024385348 -0.28465423 -0.22630402 -0.2620841 0.6730079 -0.43209985 0.065973654 -0.3691925 0.11291525
1702 -0.10923335 -0.49072418 0.13578333 0.00031695346 0.83283067 -0.46816036 -0.20988126 -0.39943632 1.1938105 -0.03809891 -0.04244217 -0.7239575 0.28501529 0.42188922 -0.51767516 0.09299542 0.40933228 0.18745507 -1.5331117 0.38844237 0.5288884 0.35444695 0.23646224 0.23009893 -0.23402476 -0.05647687 0.30346617 -1.2252395 -0.6586739 -0.72250766 -0.67956054 -0.5159841 0.055683024 0.4644309 -0.12447077 -0.10491017 0.5337039 0.44381848 -0.50736195 -1.1940788 -0.3539166 0.10957567 -0.24531862 -0.8522375 0.18292297 0.3371462 -0.67901176 -0.5229894 -1.1962389 -0.72631913 -0.7063838 0.08488218 0.491505 -0.36532226 0.79188883 0.23501445 -0.31209573 0.17741121 0.009480286 0.27879053 -0.37467402 -0.4964403 0.6388348 0.6196858
1761 0.17854647 0.22368224 0.63777363 -0.3251348 1.0094917 -0.4380823 0.32778886 0.5376868 -0.15973511 0.43575615 0.6361128 -0.37234 0.6002317 -0.07559843 -0.27291226 -0.5366096 -0.09862733 0.015718713 0.024798589 0.4072737 0.43544146 0.2943068 -0.31683153 0.07488999 -0.7778651 0.35152367 -0.23043917 -0.66399825 0.6921069 0.5589506 -0.09990746 -0.27694008 -0.7013913 0.43305185 -0.25746912 0.17396468 -0.342929 0.22162455 -0.2808347 -0.007371093 -0.46327683 -0.9931202 -0.025384989 0.48700893 0.24358197 0.44089803 0.7211955 -0.38103005 -0.04991081 -0.44003507 -0.04018912 -0.45990947 0.4809473 -0.5093537 0.18140092 0.319928 0.27669403 -0.06365874 -0.5455574 0.4194954 -0.27475926 -0.24113971 0.19189458 0.64837223
1907 0.13047543 -0.4929564 0.16089238 -0.28706974 -0.4555311 -0.27854887 -0.0067483415 0.1877374 0.5767785 -0.077516325 0.33783162 -0.24257886 0.2347036 0.27973768 0.29046214 -0.2562323 -0.059109405 0.17893122 -0.9590708 -0.33501732 0.17313969 -0.112340905 -0.41176224 0.20833379 0.13555087 -1.062007 -0.5429953 -0.24759676 0.32243434 -0.12487405 -0.14783554 0.23429292 -1.3877903 0.31806934 -0.36647624 0.2552455 0.40492955 -0.05603351 0.017758166 0.56244123 0.7761436 0.09630981 0.17417274 0.64727646 0.98863894 -0.19447622 0.2012791 -0.057079434 0.3055867 0.35205147 0.35592717 0.32045698 -0.37920678 -0.441846 0.8208088 0.08743923 0.7530929 -0.1709676 0.31883046 0.65536904 -0.007191214 -0.5356713 0.38826817 -0.39401862
645 0.4556297 0.17686598 0.27265555 -0.65117157 -0.12688485 -0.19556597 0.048165783 -0.031406 0.20214057 1.0364778 0.54276675 -0.061650563 -0.1867657 -0.42603743 -0.39851785 -0.49150252 -0.47086948 -0.071855634 -0.871888 -0.54072946 0.20934246 0.7389322 -0.70994425 -0.030687073 -0.35170698 0.034196496 -0.019014424 -0.036943942 -0.2388727 0.02353772 -0.075590365 -0.19200332 0.4597066 0.61854947 -0.10255395 -1.0720737 -0.07847982 -0.3829836 -0.0555033 -0.23786387 -0.50310075 -0.09102714 0.07142656 -0.14119864 -0.25921065 -0.29159272 0.7697993 -0.6034462 0.6251924 1.1115634 -0.53160244 0.39248964 -0.50704366 -0.27474418 0.4751017 -0.17360376 -0.2790736 0.38958374 -0.53045565 0.19902241 -0.5708075 0.3586321 -0.036906052 0.70875925
1527 0.033687316 -0.51493126 0.4229088 0.09532148 0.42431334 -0.16021317 -0.11643121 -0.1635296 0.030098198 0.53947705 -0.8825807 -0.2521889 0.5980841 -0.62595445 0.14462164 -0.24860422 -0.19013394 0.8676358 -0.21810038 -0.5488193 0.48015833 -0.087994374 -0.17158356 0.021748098 0.44327 0.29606166 0.09194421 -0.030263843 0.024955565 -0.58040565 0.2021403 -0.049709633 -0.71876484 -0.42025313 0.24730034 0.31955865 0.31720364 0.09324125 0.83123696 -0.7990293 -0.18697506 -0.37925926 0.10550581 0.16460446 0.47106075 0.4264734 1.3580184 0.49428436 0.0044902535 0.2960834 -0.88232946 -0.19585434 0.19053066 -1.1343725 -0.288911 0.3065015 0.48404998 -0.50274134 0.2981733 1.0299832 -1.059308 -0.5489077 0.13677418 -0.19959094
1336 -0.006684739 0.6647375 -0.11023631 -0.4521097 -0.69663906 -0.16209319 -0.05599176 0.13031878 0.28687847 -0.23490056 0.4469165 -0.2668796 -0.11760214 0.36555582 0.2663994 -0.12969695 -0.21434978 0.42338055 -0.21791987 0.60409176 -0.15177554 -0.18341365 -0.7861124 0.059372928 -0.66829646 0.13851027 -0.64215016 -0.33422825 -0.08171689 0.053458862 0.13087602 0.8353586 0.49504158 0.559015 0.37869886 -0.49890918 -0.035329945 0.37869716 -0.3444696 -0.494081 -0.4392706 0.62937343 -1.0898974 -0.0067658015 0.027810568 0.29733542 0.05053108 0.24267188 0.32518783 -0.5885333 0.20192102 -0.26271006 -0.47591546 -1.0360708 -0.37907878 0.8976681 -0.5442877 -0.3680395 0.1274449 0.71732306 -0.21102081 -0.6173644 -0.18495323 0.42845678
482 0.45281804 -0.85779595 0.076792985 -0.6579402 -0.79637825 0.20807984 -0.15261555 -0.24006847 0.37195015 0.21100174 0.29714897 -0.41223556 0.40758267 0.74115294 0.055706594 0.395362 -0.27009436 -0.34971514 0.16943918 -0.45657173 0.45883057 -0.09868422 -0.16870193 0.81729287 0.05983337 -0.24438807 -0.7600113 0.5812684 0.45307228 0.58733344 -0.26890305 0.13665992 -0.43349034 0.10251996 -0.111232266 0.16893403 0.038225796 -0.26470992 -1.0986702 -0.44012424 0.045998897 -1.0374883 -0.032967407 -0.8777908 0.12647885 0.83245724 0.557699 -0.4350759 0.245396 -0.52848995 0.34488422 0.06222088 0.034191813 -0.8668799 -0.49894896 0.16704847 -0.3770848 0.15671608 0.18129058 0.8320778 -0.0431211 -0.977805 0.10957997 -0.3648612
745 0.55990344 -0.036710322 -0.43958816 0.7297799 0.11354124 -0.023034193 0.5366814 0.012627551 0.64413744 0.48690796 0.19007702 -0.93998235 0.59314775 -0.07405446 0.29302627 0.005814312 -0.113723494 -0.53406477 -0.5719183 0.17427571 -0.27712467 0.1842253 -0.38911194 0.8800696 0.8186505 0.31816512 -0.4534258 -0.32068762 0.23265243 0.09630359 0.47599313 0.07883206 -0.24445966 -0.43619955 -0.017790474 -0.3254871 0.07103193 0.033236 0.83194643 -0.1397554 -0.27934217 -0.05430466 0.59377426 -0.024622472 0.2628903 0.2889483 0.6649347 0.5803129 0.38545176 -0.5103766 -0.226913 0.19975539 -0.10098615 -0.20204273 -0.22351633 0.40049785 0.32418108 -0.081039965 -0.095894836 0.5353548 -0.6376174 0.01519076 0.2506998 -0.24589185
1110 0.18601494 -0.5180776 0.39072898 -0.08390102 -0.7119077 0.11080593 0.51463366 -0.35631615 0.61481476 0.11326165 -0.034865767 -0.38918197 -0.22555943 -0.3345173 -0.49103147 -0.38942006 0.30594322 0.054826677 -0.1319317 -0.06057787 1.065697 0.05629966 0.23267943 -0.26374975 0.33034977 -0.46880704 -0.07110254 0.19423784 -0.6529269 0.26324204 -0.1353841 0.023647575 -0.19839318 -0.06628059 -0.34172446 -0.6583909 -0.054477096 -0.09304271 0.42767942 0.25149626 -0.26193658 0.08284132 0.042767074 0.10376382 0.4206787 -0.49491084 0.8705685 -0.04969194 -0.27609462 -0.43695602 -0.42836273 0.08993843 0.052702032 -0.50694203 -0.4066157 0.55521613 0.79859006 -0.56821835 -0.22234736 0.0055688587 -1.2576106 -0.48355168 -0.086790554 0.09233489
704 -0.29893902 -0.1889567 0.23886542 -0.22776257 0.17790337 -0.47287312 -0.5575762 -0.22396795 -0.31129107 0.26680323 -0.24517976 -0.01081192 -0.45296085 -0.57329804 0.13355671 0.048940018 -0.11783859 -0.4516568 -0.27560782 -1.2148252 0.50168175 -0.8463984 -0.7056232 0.68306506 0.32560843 0.5882008 0.0895258 0.14729947 0.5731619 0.06935379 -0.04042507 -0.038795773 0.42708975 -0.018667929 -0.23165986 -0.03319711 0.059448555 0.52054477 -0.050891515 0.16297333 0.20989849 -0.7686167 -0.5292542 0.15762518 0.85918456 -0.10244202 0.43808028 0.618568 -0.68198615 -0.17059775 -0.015584153 0.18206719 0.30772305 0.22286697 0.097409055 0.34999698 -0.08058912 -0.3507849 -0.54094166 0.8024658 -0.34424165 -0.64658874 0.028967747 0.06341744
2126 -0.48214716 -0.62366253 -0.49835673 -0.1673193 0.4237173 0.36161122 0.13193825 -1.0257964 0.3619755 0.26984504 0.13344668 0.0608779 -0.36518955 -0.871594 0.5906291 1.5660151 -0.29201975 0.6315471 -0.30569595 0.23831515 0.6267209 0.56834036 -1.0597934 0.24044889 -0.34491947 -0.3081354 -0.5294046 -0.59376115 0.5427042 0.104506604 -0.7857069 -0.28323898 -0.23062241 0.31905064 0.3746815 -0.0493719 0.11031639 0.76222277 0.01234886 0.00849094 -0.9860261 -0.42353615 -0.42649725 -0.42771813 1.3125335 0.16379745 -0.24406531 -0.3882817 -0.08022376 0.47462547 -0.3287242 -0.056468002 0.67377174 -0.2040494 -0.12990923 0.51399446 0.23956901 -0.45325315 -0.07726769 0.5240447 -0.0013779857 -0.384324 0.18907976 0.007188971
1894 0.34158733 0.2664663 0.07983809 -0.45075017 -0.059256587 -0.046925098 -0.8370924 -0.4161601 0.4287864 -0.09852347 0.20708682 0.43610334 0.7312874 -0.05240384 -0.5445286 0.43029535 0.10609543 -0.12151822 -0.005037072 0.4876747 0.49173942 0.5441761 0.031584796 0.35049298 0.5782856 0.028201984 0.06381815 -0.15549636 0.65432894 -0.23166457 -0.31079125 0.20987685 -0.29885054 -0.3126406 -0.5426642 -0.17281902 0.6958428 0.79245555 0.18686752 0.35912 -0.30157158 0.52420586 0.0841582 0.054624617 0.16769096 0.030758357 0.5046617 0.029544177 0.15373698 -0.73303884 0.37204522 0.19076389 -0.008623744 -0.804593 0.8524675 0.5446777 -0.27553883 0.79036075 -0.5788594 0.22673917 0.1153637 0.046426795 0.45396695 0.47725105
2582 -0.1659261 0.20429425 -0.8065233 0.08484841 0.68912864 0.25439215 -0.4356889 -0.21348043 -0.015016406 -0.07779963 0.3393256 -0.16706647 0.17153683 0.40144837 0.29893965 -0.48927516 -0.3706491 -0.43436906 -0.7803999 0.057796568 -0.25814125 -0.33695358 -0.25203353 0.1457786 -0.13939911 -0.56177354 -0.03301556 -0.5161474 -0.06729231 -0.3392559 -0.28102148 1.0035937 -0.3930865 0.07335439 0.2511562 -0.46247986 0.6922645 0.2941466 0.06283863 -0.33760697 -0.18189646 0.085288554 0.10798146 0.2663693 -0.297376 -0.25983998 -0.10693214 0.43384805 -0.032600537 -0.23790783 0.40567008 0.7048359 -0.2753931 -0.96753377 -0.48140997 0.12505864 -0.2357396 0.068920635 -0.8917069 -0.14188442 -0.9512719 -0.9541728 0.12537718 0.17534953
1119 -0.62328273 -0.23536693 -0.7785535 -0.1880306 0.16722906 -0.13222773 -0.3058 -0.47954527 -0.13337718 0.3520428 0.5469493 0.06237714 -0.36110598 -0.7255016 0.53777575 0.95588684 -0.32302192 0.2873091 -0.5740433 -0.24222742 0.32236657 0.13649265 -1.0170135 0.63401204 -0.45673037 0.043136243 -0.0022612826 -0.2873697 0.57916826 0.010986842 -0.0149916 -0.5302497 -0.3994303 -0.03138719 0.5990478 -0.36925298 0.4627931 0.838278 -0.6641774 0.46315682 -0.55956286 0.1251581 -0.4501275 -0.21723124 0.957399 0.38485467 0.042719636 0.46907955 -0.07265311 0.50922793 0.09315396 -0.13371 0.7903556 -0.2045534 0.30691618 1.1345713 0.34032568 -1.028009 -0.2796285 0.45176327 0.094847105 -0.52841324 0.42656842 0.19879194
2181 -0.82637197 -0.028878935 0.09366263 -0.17736755 -0.10757125 -0.114716545 0.58978105 0.2859534 0.5698263 -0.65236276 -0.1312248 -0.6682356 0.14737682 -0.6288485 0.64946395 0.35980517 0.1066134 0.17391372 0.016139574 -0.120585926 -0.12290303 0.27174145 0.36347875 0.49495426 -0.21819785 -0.79020596 0.5535516 0.33221102 0.19038247 0.1474212 -0.6785222 -0.7743726 -0.627384 0.30886418 0.16538997 -1.1692045 -0.20494339 -0.4490222 -0.41578546 -0.30784538 0.15918873 0.55744916 0.60770655 -1.1489954 -0.5324106 -0.4505359 0.48323712 0.1768604 0.5188597 -0.17132133 0.26617014 -0.18045123 0.061168343 0.048404552 0.10096604 0.5517755 -0.3018986 -0.45970985 -0.66882753 0.6203871 -0.47680354 0.12531365 0.021003209 0.23800503
817 -0.6141648 -0.4420289 0.4925862 -0.32309282 -0.17478506 -0.4270271 -0.3965379 0.19967395 0.5936945 -0.12131618 -0.39880663 -0.5909851 -0.20363964 -0.3368095 -0.18641572 0.35786596 -0.021175222 0.5949395 -0.5454244 -0.0024785863 0.18093014 -0.6795274 -0.20734753 -0.25737593 -1.0777528 -0.30146018 0.49782172 0.7602709 0.18466926 -0.517945 -0.11830179 -0.5659368 -1.1400017 -0.020552235 0.80651325 -0.5980332 0.56839645 0.06306402 0.11614665 0.31404436 -0.2939223 -0.3192217 0.11987965 0.5803411 0.4601687 0.2967757 0.7353154 -0.5249634 0.41570657 -0.11909954 0.19763286 -0.09447875 -0.84236276 0.42511034 -0.010158528 -0.16798955 -0.034833603 0.6050379 -1.2328689 0.89871 -0.2649508 -2.0759764 0.72168356 0.2548511
2133 -1.086238 0.5074696 0.12577485 -0.53558874 0.09399609 0.062913865 0.15083167 0.48879415 0.16171725 -0.27244803 -0.08572538 -0.439545 0.023803016 0.43615505 0.89192045 0.48777092 -0.031689256 -0.208485 -0.22297226 -0.10475662 -0.18665381 0.28496063 0.3941873 0.84808517 -0.6393564 -0.2976761 1.512034 -0.15431166 -0.6250939 0.5263854 -1.0622495 -0.66946787 -0.5840865 0.2879559 0.087877646 -0.5765543 0.07118705 -0.2708506 0.11917311 -0.10766506 -0.55546427 -0.8143499 0.6597518 -0.33220002 0.07782356 0.05994637 0.42493197 -0.7312394 0.0058051287 -0.6665761 -0.1316758 -0.54474866 0.29745466 -0.35036427 0.9191507 -0.112285584 -0.42151245 0.053856198 -0.5429248 0.47419605 -0.35525972 0.2822343 0.6796966 0.20538986
1973 0.35690695 -0.5549825 0.28057566 -0.5117981 0.46598974 -0.1594865 0.14924373 -0.04903439 0.14108284 0.29720297 0.65471315 0.8380727 0.055560563 0.32423612 0.88677114 0.60574543 -0.19652355 0.40627447 -0.084847964 -1.0178702 0.083018646 -0.7262727 -0.276711 0.35004258 -0.037130438 -0.41663206 -0.94768625 -0.31336778 -1.249982 -0.59715605 0.023555314 -0.6241769 -0.38001278 -0.28523573 -0.29392326 0.093540214 0.31588835 0.1509381 0.2555833 -0.69378453 -0.45991638 -0.20703495 0.20274551 0.036613993 0.27436608 0.18776953 0.21430467 -0.5292207 0.13774817 0.10140298 0.68228316 -0.9296602 -0.08808851 -0.6384233 0.59485346 0.015245167 -0.048199173 -0.5952606 -0.31410113 0.7208474 0.11641463 -0.7896914 0.64295053 -0.15263565
2309 0.2502335 -0.35760364 -0.14947115 -0.7243635 -0.09051889 -0.28051072 -0.59683806 -0.1772149 0.31281236 0.6355891 0.36905906 0.35989857 0.45646366 -0.0052507673 0.24285273 -0.28602692 -0.0126038585 -0.17108968 -0.025308376 0.962667 -0.57721996 -0.14331038 0.046305235 0.4883395 0.3176127 -0.83842963 -0.14834975 0.61220753 -0.13878164 -0.06473627 -1.051787 0.32895815 -0.105509445 -0.2881451 -0.25726622 -0.022261448 0.23930131 -0.12231156 0.6101874 -0.37472686 -0.05059201 0.38601246 0.44804853 0.7036019 -0.19650522 -0.6482767 -0.46561912 0.32042113 -0.06816719 0.36006635 -0.0131741455 0.2490303 0.20712751 -0.6919155 0.36841068 0.2944218 0.3365188 0.32287616 -0.24450244 1.2778174 -0.41241473 -0.67904705 0.04322871 0.01722623
1269 -0.21127804 -0.40599012 0.41858917 -0.14436997 -1.2118216 0.21791878 0.048803832 -0.575179 0.16876331 0.29133478 0.64845306 0.2745427 -0.2766469 -0.12713347 0.25393865 0.20445542 0.13677134 0.30636016 -0.26815134 0.41995084 -1.0677962 0.517146 -0.8237029 -0.96260357 -0.09797038 -0.19200793 0.1638711 -0.14155261 -0.5504405 -0.35510266 -1.3475221 0.3881733 0.40628913 1.1804752 -0.026146429 -0.29640526 -0.22449236 0.77620703 0.55946857 -0.64189714 0.22125958 -0.2429536 -0.21612582 -0.40886524 0.23958793 0.088429816 0.89670324 -0.24215491 1.3174354 -0.7919353 0.044035926 0.14688301 -0.1247102 -0.027449684 -0.102282725 0.45661262 -0.12768687 0.4645145 -0.24237938 0.8430727 -0.6213134 -0.34654376 0.72179323 0.12811847
2394 -0.67162997 -0.4300268 -0.020895684 0.30700287 0.47892955 0.4166125 0.44054624 -0.5628884 0.5086383 0.3986739 -0.18148357 0.7213973 0.5593103 -0.11634504 0.4145513 0.79232043 0.28089818 0.4860144 -0.51367426 -0.06336145 0.23954204 -0.1376778 -0.69418997 0.06937016 -0.17957518 -0.8501579 -0.77945477 -0.44772577 0.20696835 -0.1041829 0.19430327 -0.17806374 -0.38158107 0.48492217 0.04357844 0.2066662 -0.095928356 0.602985 0.7018706 -0.32532126 -0.92144924 -0.5392656 0.29056606 -0.56043637 1.0578438 0.13815092 0.37455544 -0.51393753 0.1931661 0.19725698 0.010429169 -0.120673135 -0.12446723 0.10915744 0.37155578 0.029851917 -0.5516759 -0.28360337 -0.6207394 0.64043695 -0.33429852 -0.62060905 0.07437504 -0.739615
748 0.034423094 0.74817115 -0.32818207 -0.27686498 0.2786955 -0.48510945 0.4957988 -0.031584274 0.01585004 -0.08516703 0.45203555 0.12620501 0.03101921 -0.78065723 -0.26541975 -0.061539702 0.31002492 -0.021684602 -0.16630624 -0.6629344 0.74611324 -0.6542785 -0.3290556 -0.16235046 -0.5529677 -0.27440247 0.30289096 0.11932905 0.24165766 -0.20447189 -0.6545168 -0.20094562 -0.55652833 -0.32033926 -0.095765844 0.07422122 0.014742658 -0.019355845 0.45672792 0.25725815 -0.073278435 -0.03871105 0.4248102 0.61874586 0.018024981 0.36403045 0.012359356 -0.15789202 0.33013883 -1.1244593 -0.6548514 -0.4845933 0.466118 -0.80091476 0.027732983 0.112278536 -0.23697434 0.4879392 -0.41351518 0.4483848 -0.7576009 -0.024907732 -0.061336454 -0.24928463
1300 0.08280447 -0.81963396 -0.053249955 -0.4690241 -0.37425143 0.23661163 0.5888456 0.31612343 0.36284432 0.5233355 0.6452898 -0.097623356 0.14668506 -0.08500274 0.23638958 0.3189265 -0.10595975 0.0026519455 -0.5253481 -0.20389724 -0.4911158 -0.70863646 0.0459139 -0.8697372 -0.12403614 0.61042136 -0.36781883 0.019434473 -0.36440867 0.3356749 -0.99671453 0.9023035 -0.106230855 0.05626135 0.24161027 -0.6398121 0.43179747 0.15068962 -0.17491178 -0.2020948 -0.38878477 -0.7372951 -0.01633502 -0.9695166 0.41876504 -0.118343614 -0.266317 -0.5067538 1.0886302 0.12420877 -0.60210776 -0.5003914 -0.28065807 -0.34643596 0.5708745 0.18765806 -1.1985282 0.14616507 -0.39888415 0.92211425 0.50037646 0.028054936 -0.32384443 0.027981501
734 -0.18475938 -0.031702373 -0.37985772 -0.2971742 0.19921543 -0.16249709 0.5064903 -0.7383382 -0.40622032 -0.012467774 -0.0052345223 -0.93852496 0.091429 -0.04890868 0.50787723 0.3983937 -0.32442737 0.07581084 -0.348326 -0.47883508 0.15847017 0.41538024 0.5701451 0.3259907 -0.5167142 -0.5941487 0.26244262 0.3401007 -0.06986963 0.7215785 -1.0676929 -0.32064402 -0.23338251 0.112964764 0.03512319 -0.97547317 0.008685905 -0.7498952 -0.2717179 -0.35804284 0.458948 0.94330776 0.53999555 -1.2850157 -0.19941874 -0.021711878 0.5101771 0.46267548 0.48815653 0.14977886 0.52061015 0.29977494 0.4236514 -0.24654332 0.56088287 0.36680073 -0.5335605 -0.05896797 -0.9586241 0.3194762 -0.3223168 -0.23132983 0.38478783 0.68877393
603 0.18860686 -0.055051755 -0.47866246 -0.3343429 -0.54481393 -1.0280862 0.19128433 -0.4793134 0.4986808 0.59851164 0.26672557 0.21111599 -0.09369249 -0.028548494 0.304913 0.5943704 -0.468303 -0.53770894 0.6742354 0.46999654 0.65964824 1.0211946 -0.17698358 -0.15991357 -0.2153118 -0.0018327239 0.4327324 -0.055935927 -0.52419174 0.7513464 -0.118392065 0.76597047 -0.49259576 -1.1399608 0.5596574 -0.13802035 0.7454062 0.2454758 0.81930107 -0.74018866 0.70788974 -0.2131834 -0.5222783 -0.18950112 -0.20196968 -0.14888696 1.0005252 -0.5841959 0.60207283 -0.9386937 0.30553803 0.2946381 -0.10465768 -0.10809075 -0.24932435 0.12821046 -1.3687435 0.07966489 -0.5482106 0.32947105 -0.053638887 -0.15853658 0.52048236 -0.7708998
904 0.46062848 -0.43249774 -0.48331493 0.5618988 0.69815654 -0.49636495 -0.6138278 -0.4851607 0.3487577 -0.011124513 0.83681905 -0.8271868 0.14886864 -0.47346914 0.35760143 0.3274856 0.013526242 0.28432092 -0.54502034 -0.3514551 -0.27644533 0.41029066 -0.39908326 -0.47135055 0.5433061 -0.032969832 0.16605884 -0.42646748 0.58047384 -0.3111269 0.46104652 -0.10847865 0.12962525 -0.3411893 -0.047382228 -0.44393998 -0.015530468 0.07904752 0.17458531 -0.60451216 -0.4645275 -0.17986567 -0.6354048 -0.02788785 -0.76807916 -0.40547135 0.16145994 -0.62734884 0.00080034224 -0.2673756 0.054288965 0.051478516 -0.062281944 -0.17058425 -0.49815425 -0.050898932 -0.08748652 0.033321153 -1.5349555 0.62579054 -0.20205519 -0.076454915 0.3336954 -0.14871615
1360 0.15041688 -0.8258073 -0.032519795 0.80121124 0.4665519 -0.2990104 -0.2861927 -0.7548823 -0.08459345 0.54017305 0.7762084 -0.7731961 0.15249005 -0.59187263 -0.20829345 -0.20244493 -0.3129746 0.7611666 -0.41236988 -0.15473981 -0.24080415 0.35117579 0.31846383 0.24466848 0.72400486 -0.079724 -0.29835525 -0.45061734 0.48937482 -0.6218018 -0.13461359 -0.29186958 0.22977754 0.006785319 -0.022603747 -0.14200339 -0.6030028 0.47628066 -0.4202356 -0.72981447 0.30707753 -0.20170978 -0.6556807 -0.006036922 -0.62814003 -0.9531354 0.6651871 -0.32259953 0.5083468 0.3293153 -0.20684753 0.024575757 -0.38042763 0.06290099 -0.053826272 -0.22747919 -0.0663187 0.025829732 -1.8322159 1.0302492 0.12155904 -0.29718477 0.09443954 -0.33553222
94 0.56585026 -0.48515216 -0.07745254 0.13723102 0.1339876 -0.25711817 0.21925113 -0.2234086 0.11557132 0.6423992 -0.05962848 -0.49997798 -0.3267611 0.20998384 -0.5828579 -0.5032052 -0.05027086 0.1753837 -0.30069855 0.58828074 0.48184097 0.17885035 0.38209388 0.2681064 0.2766939 -0.74342453 0.27288744 -0.18510988 0.38921648 -0.64916223 -0.33270156 0.50910306 0.03257413 -0.62169427 0.8558007 -0.23591012 0.6180206 0.17098677 -0.5556917 -0.4342559 0.1161003 -0.20146146 -0.39181504 -0.7965621 0.65358776 -0.55803764 0.105932094 -0.35146457 -0.62112176 -0.8676215 -0.31732154 -0.24346265 0.31522402 -0.26723906 1.0790887 -0.726355 0.44779152 0.09461567 -1.3893901 -0.11137348 -0.7916278 -0.09020355 -0.28331748 -0.17492016
2706 0.2314859 -0.039435823 0.062244967 0.2579555 0.05219642 -0.8826432 -0.0732675 0.4131542 -0.4167652 0.7275017 -0.9585778 -0.7276382 -1.0381259 -0.055734184 -0.47919756 0.76705146 0.47030234 -0.03662598 -0.65749896 0.96008897 -0.21369556 0.38481417 -0.52333355 0.42805722 -0.54365635 0.070537396 -0.91460556 0.48126876 0.28993815 -0.41186595 0.41336864 0.6614546 0.5072868 0.2268451 1.0016665 -0.8339603 0.012419063 0.5800253 -0.5024516 0.07357434 0.36084226 0.3128709 0.25817612 -0.42012385 0.6022104 -0.5155041 0.3373115 -0.46041745 -0.31150463 -0.5943786 0.004455579 0.54575515 0.117896356 -0.5166559 0.99002796 -0.123189524 -0.48084936 0.044312917 -0.89594835 0.37212765 -1.0204937 0.342008 -0.0698559 -0.17084578
2306 -0.14682958 -0.30440724 0.2250275 1.0468354 0.51100105 0.18174562 0.019928934 0.7872279 0.01263883 0.93820375 -0.24826868 -0.33448622 -0.03741854 -1.0771219 0.068984 -0.8593407 -0.37000766 -0.940532 0.8389856 0.24559367 0.37409627 0.7359126 -0.1602097 0.056412276 -0.55582577 0.22210729 0.013993652 -0.08828962 -0.1555123 1.0277187 -0.71472514 0.11026568 0.5878216 0.3612518 0.13773024 0.2169046 -0.1592438 0.64181834 0.063837975 0.088406466 0.16813187 -0.1941503 0.7450704 -0.13396628 1.3257661 0.1414464 -0.7940011 -0.38766935 -0.15483761 -0.08024633 0.58580315 -0.32711017 0.81411105 -0.060610123 0.44939262 1.00738 -0.36400622 -0.07487174 -1.0006013 0.6168172 -1.2320158 -0.87516975 0.3527015 -0.3635327
1834 1.1135592 0.40124607 -0.20977874 -0.13476354 -0.4422732 -0.70713985 0.016278997 -0.00018422824 -0.4781808 0.20315847 -0.07592676 -0.02063274 -0.47270608 0.7883824 0.062274773 -1.0001516 0.47186098 0.3963724 -0.5132115 -0.16441593 0.01003154 0.6195859 0.44810268 -0.25599602 1.1560163 0.5828432 -0.045758672 -0.20727989 0.204069 0.14419943 0.28103602 -0.28984112 -0.33481854 -0.04054578 0.35065126 -0.0967893 -0.26290783 0.50243616 0.58029675 -0.5744237 -0.49309227 -0.5251874 0.21855076 -0.0009628692 -0.2770345 -0.511221 0.36644176 -0.85445267 -0.21144536 0.4810494 0.57686436 0.44805825 0.7995855 -0.6031571 -0.43575722 0.5452539 -0.74974716 -0.49307385 -0.5148994 0.59008986 0.13440937 -0.11008314 1.0955895 -0.048744295
17 1.3222123 0.8073795 -0.05188391 -0.3823721 -0.0020467637 -0.40057626 0.21261615 -0.8814365 0.36079365 0.3458416 0.16959903 -1.0654233 -0.30597943 -0.1496312 -1.0516629 -0.21428965 0.3369256 -0.54198855 -0.45825022 0.47317246 0.28072926 0.5193357 0.62802607 0.19534305 -0.29353568 0.026821904 -0.9541657 -0.5986402 0.228607 -0.4293634 -0.9139 0.49662885 -0.4228529 0.7581215 -0.03997777 0.39947495 -0.5087651 0.1276366 0.28005797 0.20586134 -0.3945874 -0.07512007 -0.121154495 -1.038637 1.2187517 -0.29947296 0.3083669 0.54752356 -0.4116787 0.101481415 -0.019921709 -0.3507072 0.28643844 -0.10867321 -0.03135923 0.17611153 -0.28179705 -0.8091894 -0.17261009 0.5372254 0.09408651 -0.9180651 0.17266002 -0.22992441
2075 0.008893651 -0.16804157 0.1404156 -0.62768906 -0.5930754 -1.3185605 -0.19122271 -0.2197204 0.10788308 -0.71810836 0.76391035 -0.29420856 -0.16429232 -0.04285678 -0.63397944 1.0353242 0.47746715 -0.7304838 -0.69088674 0.13546295 0.36980328 0.65374523 0.87086207 -0.22506118 -0.8331391 -0.53133667 -0.5067342 -0.026297243 0.95159084 -0.41682816 -0.89167213 -0.13739851 0.13468194 0.36572444 -0.7840629 0.20363283 0.9252441 0.051578905 -0.12761916 -0.5038893 -0.7856223 0.29113626 -1.134965 0.4094886 0.8888055 -0.13324009 -0.642047 -0.9087228 -0.6240272 0.5108145 -0.14120243 1.0926044 -0.2563948 -0.029416567 -0.1520606 1.0305431 -0.8062547 -0.11374993 -0.9608106 0.82015675 -0.30544156 -0.40573442 0.30642432 -0.08037278
2143 0.74676955 -0.5644733 0.10719709 -0.07022996 -0.12879416 -0.6110639 0.17751302 0.5406235 0.5352226 -0.12645279 -0.11756498 -0.066647604 -0.8404466 -0.47606772 0.045911677 -0.70000076 -0.64215124 0.6314444 -0.6043148 0.08098536 0.50180393 0.34625494 0.18999091 0.7679185 -0.054945666 0.5695304 -0.10212086 0.27496338 -0.034263626 0.8287587 0.16573046 0.014711698 0.052158423 0.37974337 -0.12365723 -0.37370807 0.35565275 0.31961688 -0.094840914 -0.46433604 -0.28650406 -0.44170958 0.6293888 -0.2341776 0.37501293 -0.08149529 -0.346019 0.015694024 0.1333748 -0.5993643 0.3310802 -0.054267146 -0.6644432 0.37571612 -0.4508598 0.43541682 -1.2365578 0.55988663 -0.28778303 0.6828126 0.15920563 -0.12225703 -0.24433312 0.50883853
2154 -0.040183157 0.09574243 0.042038377 0.17061825 -0.37368745 -0.7044536 0.1279923 -0.10620521 -0.20797116 0.27105358 -0.8799668 -0.58194 -0.79153347 -0.21292482 0.09913021 0.08663802 0.34622654 -0.20853467 -0.92185515 -1.1541877 0.36493233 -0.047300484 -0.97246355 1.7317215 -0.1006502 0.6637274 -0.34181646 -0.84891236 0.24176988 0.091540486 0.37100923 0.39319122 0.03802773 -0.24564344 0.59779483 -0.3916959 0.32442167 0.54559606 0.29408592 -0.18949452 0.36537415 -0.08617265 -0.2975699 -0.354409 0.62029564 -0.511314 -0.5252782 -0.29776326 -0.31017616 -0.7324898 -0.36838934 0.48682633 0.6295429 -0.28725645 0.6676159 0.74466985 -0.17189811 0.8117377 0.36269635 0.5528335 0.8449202 0.08875951 0.39860088 -0.06933393
2486 0.086800076 0.19275694 0.48245382 -0.5787659 -0.31214294 0.09842198 0.801504 0.16002761 0.7092584 0.83009857 -0.7662599 -0.62528926 0.010054607 -0.1694082 0.9550058 -0.21789543 0.09713885 0.5636158 -1.0575362 -0.6197109 0.7084288 -0.09657135 0.49709824 0.04945052 0.49299374 0.5172133 -0.14873785 -0.2318779 1.1798939 -0.044030316 0.18780419 0.17228015 -0.28187445 0.13323528 -0.36116284 -0.038898073 -0.3336848 -0.06541427 0.40022722 -0.29620108 0.18285486 0.38675505 -0.55706996 0.011490709 -0.5528385 0.22622819 0.0977572 -0.8179721 -0.1586307 0.978058 0.101652496 0.06915277 -0.032659024 -1.0757692 0.65236485 0.9288695 0.12238229 -0.6676997 0.4822125 0.37600338 0.16373569 -0.7726986 0.3563644 -0.7379256
55 0.388212 -0.34619543 0.7127807 -0.15722829 -0.16269138 -0.71990097 -0.19464643 0.78503495 0.17676745 0.2588592 -0.34112594 -0.20183815 0.36305627 -0.5266257 0.11156552 -0.17940784 -0.2759309 0.31275645 -0.112338714 -0.41619974 -0.14996068 1.228628 -0.83114153 0.1502097 -0.41869426 -0.39419386 0.3565008 -0.053451296 -0.49426833 -0.5080148 -0.112025365 0.25058597 -0.47426215 -0.53313696 0.25928414 0.26432362 -0.50867146 -0.50802535 0.5300424 -0.4513698 -0.20440377 0.5413464 0.008023808 0.21875459 1.0116107 -0.3344278 0.9160186 0.09330052 -0.72188467 0.03316497 0.091645665 -0.081849724 -0.03955495 -0.722659 0.5104687 -0.020341037 0.3336763 -0.0369161 0.2908957 0.7726547 -0.16091438 -0.23939848 0.32744533 -0.19317232
1538 -0.8381405 -0.73825127 0.1603476 -0.63045865 -0.41315943 -0.061298035 0.51156753 -0.20710273 0.3342956 0.036314324 -0.14236216 -0.034114 0.784401 0.3636749 0.27220902 -0.06605983 -0.34931424 0.6055025 -0.6730614 -0.42170334 0.55946475 -0.08101082 -0.17032394 -0.11880289 -0.0051346365 -0.8453737 0.18030712 0.2466543 0.21855125 -0.098973714 -0.17819998 -0.18026423 0.68874735 0.1210353 0.30956525 -0.85650337 -0.26886898 0.20710875 0.5853092 0.535453 0.077813 0.379228 -0.30313933 -0.88051206 -0.124455795 -0.7985853 0.24392381 -0.067129575 -0.69073826 -0.29237998 1.2540369 -0.4178568 -0.0053547705 -0.7352809 0.35106117 -0.29798374 -0.276929 -0.41412586 0.069100246 1.2627212 -0.2399059 0.03741453 0.28585088 -0.1753353
126 -0.27811813 0.18832521 0.13997413 -0.13725992 -0.318011 0.6806857 -0.2833392 0.40303487 0.778303 0.5767419 0.09197875 -0.112937964 -0.46405402 -0.46168423 -0.08041192 -0.23404974 0.8585869 -0.33482012 -1.2520448 -0.4771659 -0.366767 -0.0014643177 0.7158771 -0.046878852 0.045106366 -0.21809861 -0.092003465 -0.65267235 -0.024843697 -0.043252308 0.57717454 0.175826 0.74218893 -0.45417514 -0.5210538 -0.2457009 0.14539361 -0.25870234 0.2580243 -0.10209457 -0.16121009 -0.0771079 -0.40612602 0.55042136 0.5639557 -0.4425407 0.43870193 0.23496498 -0.010348068 -0.26389772 0.34012842 0.22778156 0.43189433 -0.5987563 0.08502872 0.13091305 -0.6808501 -0.5918906 0.00566615 0.95207715 0.009685787 -0.45888397 -0.2631759 0.0784913
1602 0.40279308 0.1754113 -0.52695405 -0.029757267 -0.30992064 -0.1162374 -0.11402682 0.4229989 -0.2236983 -0.31455988 0.077400684 -0.37942383 -0.14342684 0.40406856 0.023028785 -0.13706149 -0.14995089 -0.5363861 -0.053530578 -0.03534823 0.5754188 0.5926585 -0.70559 -0.29228964 -0.8552913 0.13380408 -0.42969558 0.37130633 0.794958 0.04137798 0.14809975 -0.2911634 0.5923924 0.024782091 0.39330953 -0.58533853 0.2410231 0.48282114 -0.14063352 -0.1322986 -0.23763634 0.6595266 0.27159408 0.036458053 0.03704444 0.073856734 0.16367069 0.7059811 0.107110344 -0.60365295 0.5127659 0.7324264 -0.13078147 -0.09214419 0.91582334 0.38059816 -0.8838446 -0.35884637 -0.4508474 0.26309037 -1.0005953 0.15498698 1.1873626 -0.058326565
