2708 64
1358 0.7917495 0.2741691 -0.12140613 0.14225204 -0.2075604 -0.33035368 0.09843329 -0.15724547 -0.57694995 -0.018285211 0.07005585 -0.13668497 0.0627568 -0.12935948 0.05925351 -0.47377 -0.09723079 0.105127715 -0.09711027 0.06707737 -0.07420954 0.4369146 -0.048113916 -0.017165953 0.24448913 -0.013380268 -0.05068753 0.360142 0.20725906 0.04759981 -0.20395865 -0.259475 0.031269923 0.13995406 -0.17716661 0.36289552 0.18828012 0.5103433 0.18916032 0.19843185 -0.10455598 -0.01568926 0.6845828 0.14517969 -0.049995705 -0.11579646 -0.0011391048 0.14949076 0.017337078 -0.4977292 -0.32858038 0.21310142 -0.17750132 -0.16919453 0.2130951 -0.2882916 -0.4922556 0.443756 0.15554887 -0.060400635 -0.07898259 -0.062292367 0.17985085 0.050942495
306 -0.12555967 -0.296186 -0.1449534 0.3865303 0.25501484 0.29248458 0.18028727 -0.29496828 -0.19245939 -0.20494752 0.15097284 -0.100906804 0.08485644 -0.014914341 0.59338087 -0.37929457 0.006366562 0.6729077 -0.2386245 0.02068982 -0.45948228 0.40121844 0.37069392 0.032489948 -0.394553 -0.27192602 0.3383884 0.2986362 -0.1962367 0.4607372 0.12845938 -0.002129131 0.33314362 -0.36002383 -0.32876167 0.044879757 -0.4752663 0.16879834 -0.109539345 0.22694425 -0.07012546 -0.13707483 0.33975214 -0.1661159 0.22329147 0.012644413 -0.06814508 0.5048973 0.52782756 -0.38397735 -0.07665064 -0.29900107 0.61913663 0.022189174 -0.1610664 0.12186593 -0.66200525 -0.17660715 -0.27327454 0.5334601 -0.22742939 -0.40042868 -0.0048276293 -0.48631582
1701 0.51187146 -0.18272619 -0.18845326 0.110846825 0.71259236 0.21931325 -0.23917039 -0.2380837 0.1346213 -0.33464214 -0.33709955 -0.35129288 0.044634398 -0.0045679873 0.03324866 0.23795435 -0.06258539 0.4989834 0.3240266 0.48142424 0.10854914 0.33556953 0.036570963 0.25671315 -0.450274 -0.11208739 -0.42375407 -0.09008779 -0.6321863 0.41591874 -0.24101087 0.057368618 -0.45621648 -0.23250744 0.013206281 -0.36955 0.32350218 0.35081905 0.50692266 -0.056367047 0.5949 0.46914312 0.33905023 -0.0828369 0.39993563 -0.093147375 0.12077401 0.06731416 0.13097575 0.3504992 -0.44992825 -0.34797448 -0.0696011 -0.70967144 0.43592048 0.43640235 -0.099851474 0.33570686 0.027751911 -0.24154994 -0.53196496 -0.36765087 0.022566324 0.26043293
1986 0.36523288 0.12557338 -0.19500276 -0.5461483 0.12126866 0.7641195 -0.07623169 -0.6193948 0.1564621 0.2671895 -0.20288453 -0.31917992 -0.33945334 0.3140869 0.49213457 0.028032897 -0.08558032 0.3169799 0.39472362 0.3485744 -0.5545802 0.5928414 0.36935493 0.28545687 0.004658685 -0.33783197 -0.17711402 0.18871368 -0.017097102 0.314093 0.012458651 0.25080076 -0.34635225 -0.5528676 -0.09482816 0.08263131 -0.12592214 0.76394266 0.51131827 -0.36259502 0.38177365 0.20019285 0.24777089 -0.090583816 0.02956736 -0.005512513 0.22097246 -0.29158512 -0.2642872 -0.33654103 0.03408287 -0.32221603 0.14155781 -0.13739814 -0.05713868 -0.2811614 0.41629905 0.0745626 0.54467905 -0.10398751 -0.02269088 -0.40990654 -0.46747744 0.33701235
1623 0.1267723 -0.20505077 -0.17560473 0.51884127 0.49187073 -0.047643162 0.0901568 -0.00257848 -0.029022984 -0.012320323 -0.2668002 0.16555636 -0.11288907 0.10937817 0.41489124 -0.395592 0.02392753 0.68667567 -0.64515424 0.06942358 -0.4532638 0.091005184 0.14161716 0.28158477 -0.36846736 -0.4476686 0.6578209 0.4684655 -0.16582991 0.67463124 -0.14027354 0.11414517 0.27088395 -0.7508754 0.100349635 0.10451396 -0.3786058 0.07438141 0.06803555 0.13727401 -0.013954505 0.28985742 0.17176121 -0.4569707 0.40947306 0.043349564 -0.33923307 0.016002467 0.112858675 -0.77065796 0.054559186 -0.008892326 -0.0866207 0.0760825 -0.0076663606 0.06822978 -0.42391786 -0.3946264 -0.61214757 0.6616806 0.07357921 -0.3840123 0.07773459 -0.2511278
2034 0.425651 -0.22801594 0.36758363 -0.23105535 0.20894131 -0.5854962 -0.026884094 -0.7888071 0.20153861 0.09302123 0.12204358 -0.09167569 -0.39668345 -0.29978448 -0.25597003 -0.1420485 0.30093825 0.38773966 0.30367815 0.48301837 0.41792074 0.19506463 0.20372994 0.45074168 0.17643535 -0.7314658 -0.39638102 -0.024594024 0.23811193 0.63716704 0.29478362 0.24049595 -0.07619363 0.21615498 -0.7427937 0.3383487 -0.2472787 0.23583 0.83961606 0.55160844 0.036869142 0.5193724 -0.016526949 0.09437389 0.30311558 0.11592341 0.09386725 0.20587444 0.26590976 0.56989 0.0044190893 -0.15943177 -0.09453676 0.5397115 0.2927284 -0.21349402 0.09778032 -1.0003862 0.08803753 0.30970114 -0.12350739 -0.2744539 -0.03395584 -0.55824935
1013 0.41152063 0.14689673 -0.6147391 0.5501099 0.19684093 -0.032307338 -0.3443616 0.05359587 0.54236025 -0.2882238 0.09247232 0.08245902 0.11549917 0.4059157 -0.21217492 0.22868335 0.2982295 0.58448356 0.20830524 -0.28147078 0.035977386 0.5352945 0.005482933 -0.4856189 0.18556003 -0.44040102 0.049276885 -0.25104108 -0.06629516 0.11821056 -0.535091 0.13360548 -0.24389333 -0.075114 0.17102703 0.08128084 -0.05800699 0.25445572 0.5063789 0.69197464 0.8399915 -0.274977 0.5335367 -0.36205813 -0.51915044 0.27483168 0.46390098 0.17035879 -0.26621163 -0.4947558 0.24868824 -0.033825558 0.34703702 0.13430843 -0.17157847 -0.03300905 -0.05224506 0.33543044 -0.33624387 0.3396124 0.01781668 0.12963697 0.015348387 -0.2629384
1810 0.036942273 -0.88041496 0.110586375 0.054630816 0.42757633 -0.10763714 -0.39261195 0.021700865 -0.30090228 0.28313467 -0.2224904 0.17653199 0.0046377066 -0.106744625 0.20329547 -0.09941906 -0.47573975 0.46040586 0.056093574 0.8200504 0.2397738 0.70954096 -0.0958169 0.30829197 -0.064870045 -0.6616995 -0.8735745 0.5514737 -0.46535495 0.5750186 -0.13970688 -0.25339204 0.1389474 -0.066384345 -0.93101317 -0.37698686 0.5095902 -0.19751856 0.16244985 0.61726445 0.21617013 0.5581069 0.16302171 -0.18216711 -0.36778507 -0.23898765 0.120559365 -0.25459737 -0.15593238 -0.5056031 0.35698923 -0.16231106 -0.20244707 -0.41354954 0.588895 -0.12638439 0.4818755 -0.4928306 0.116715625 0.004068703 -0.4809808 -0.05278585 -0.28150898 -0.41495872
2045 -0.10999783 -0.47157392 -0.21764131 0.55076367 0.28608686 0.21321343 0.4672564 -0.45535985 0.20068994 -0.27149102 -0.48438632 0.18905213 0.10414175 -0.20361856 0.37000307 -0.6397909 0.19390766 0.31828392 0.19565809 0.26012287 -0.00045499188 0.4975802 -0.29891202 0.15424153 -0.44430554 -0.0417909 0.45252377 0.26801515 -0.02794684 0.4550808 0.004415952 -0.40160313 -0.18163751 -0.5969373 -0.46587938 0.075967655 -0.30234867 0.42757124 0.26386926 0.38246015 0.30076993 -0.44134006 0.39629355 -0.5707286 0.46855226 -0.26663163 0.51036865 0.3822443 0.48951176 -0.32532385 0.24679817 -0.20930105 -0.14443539 -0.3805898 0.013495578 -0.12153893 -0.28573355 0.40144992 -0.3368169 0.2799879 -0.28171745 -0.115568325 0.15860984 -0.117357254
1072 0.82311785 0.23211627 0.4081428 0.35278377 0.4582108 0.076477036 0.091127425 -0.7917506 -0.29282364 -0.6030089 -0.25238657 -0.36321586 -0.12414156 -0.17373312 0.28100273 -0.16325158 0.030342909 0.80838895 -0.27317008 -0.2447623 -0.45526496 -0.062556624 0.034594905 0.18462719 -0.120394886 -0.32063904 0.319726 0.14512753 -0.12126548 -0.09386346 0.09923638 -0.27470654 -0.19715124 0.12283062 0.041643705 0.02722643 0.12441354 -0.05239368 0.33433655 0.07866927 -0.17382835 -0.0001899976 -0.15065214 0.012160586 0.2728676 -0.11834451 0.018484002 0.2615805 0.18984844 -0.5974215 -0.3500606 0.2590094 0.95730245 -0.016154861 0.15334475 0.072199665 -0.63460076 -0.28662455 0.35756794 0.26825342 -0.24535848 -0.07397934 0.29396203 -0.28278458
109 0.23232101 -0.31333694 -0.049050007 0.48747995 0.46182907 0.17546134 0.17580967 -0.18929781 0.29216567 -0.06328123 -0.42436814 0.60256094 -0.21802886 0.19874501 0.31909207 0.01093264 -0.35527602 0.6753138 0.0974648 0.07550568 -0.26899362 0.5286252 -0.034909014 0.16769022 -0.69322467 -0.23880702 0.37469456 0.16591553 -0.17792596 0.35495007 0.11550331 -0.41938493 0.11068631 -0.37623215 -0.014883075 -0.16723326 0.23109302 0.26912603 0.55312407 0.01277818 0.23072502 0.41031128 0.31374538 -0.68625945 0.011884855 -0.4072648 0.11400263 0.43917894 0.49856004 -0.23334606 0.30866304 -0.33390206 -0.16284777 -0.21656124 -0.5026754 0.06838498 -0.5620573 0.12211746 -0.050502032 0.2910854 0.03254403 -0.804357 -0.0354484 -0.34473568
88 0.76229596 -0.18872069 0.025290398 -0.26417083 -0.3269079 -0.27843493 -0.11483784 0.21354654 -0.08178658 0.13269778 0.50197357 0.19301584 -0.2577052 1.138204 0.63955885 -0.06122852 0.3767524 0.37788567 0.72990465 -0.0959204 -0.0046995897 0.482885 -0.58379614 -0.23989098 -0.32344887 -0.041024316 -0.0521391 0.10921524 0.31112057 0.76898885 0.022039188 0.7621505 -0.14493312 0.36587763 -0.013222585 0.37282094 0.21985888 0.09726491 0.44898355 0.18696994 -0.042306002 -0.033809092 0.28980485 -0.033413015 -0.4821767 0.06603509 0.45143342 -0.12873189 -0.26119632 -0.45745185 -0.08823335 0.12237954 -0.05985844 -0.07233924 0.094447635 -0.14127316 -0.25266004 -0.22183499 -0.16459648 0.45279965 -0.13338035 0.33398166 0.54263127 -0.5307705
598 0.74032736 -0.21036366 0.19492471 -0.5824664 0.19293316 0.04277811 0.03766706 0.06175488 0.5708958 0.16560544 -0.16531153 -0.41171306 0.075224034 0.42483857 0.35710308 0.20614532 -0.38714105 0.41067973 0.08856549 0.660449 -0.39325258 -0.15150179 0.22923885 -0.16005032 -0.053717 -0.80825686 -0.4976873 -0.25590464 -0.33044994 0.05464788 0.0019515275 0.28370976 0.13550189 0.23614635 -0.40598625 -0.28719166 0.27100182 0.78612304 -0.0148037225 -0.56676245 0.39076585 -0.06268159 0.6969741 0.239668 0.9961044 0.25856742 0.3490333 0.24473405 0.5653313 0.23384021 -0.84921503 0.08711733 -0.24758047 -0.17507708 0.35882178 0.17813529 -0.13365383 0.4261434 -0.16128914 0.08036269 -0.89861965 -0.5545276 -0.3552465 -0.021547612
1542 0.78226614 -0.30995685 -0.45811036 -0.74134076 -0.27012092 0.24796754 -0.26287383 0.26853037 0.066313066 0.06340949 -0.3159671 -0.30225322 0.714879 -0.3046676 -0.7348544 0.037236016 0.29118708 0.6306051 0.39157736 0.5346582 -1.1237102 -0.0934706 -0.22573745 0.12712505 0.015201803 -0.17040786 -0.46288767 -0.26634222 -0.17639586 0.36944807 0.16845712 0.17234512 -0.48648715 0.22706316 -0.20756972 0.2743565 0.5413593 0.62316364 0.5482086 0.5292389 0.6720336 -0.06602087 0.015072035 0.20966524 0.6578244 -0.37129092 -0.98272926 0.8506347 0.39534152 -0.41975 -0.595328 -0.41634163 -0.22556344 -0.20707545 0.05703868 0.18548359 0.41359133 -0.44919118 0.41782477 0.3135323 0.34479693 -0.35513523 0.40643382 0.03716276
1224 0.19009477 -0.5337653 -0.07013947 -0.059997212 -0.41745144 -0.26231644 -0.5220262 -0.33451664 0.7864482 -0.58306265 -0.04458331 0.239097 0.018218657 0.40089798 -0.34965867 0.108361945 0.1451552 0.66738206 -0.24445711 0.099973015 -0.19240761 0.4535722 -0.48961872 -1.010426 -0.34872004 -0.2920044 0.38828802 0.10132356 0.49085543 0.14515664 -0.42279854 -0.07473279 -0.22805744 -0.046201754 -0.3043132 -0.23140329 -0.55214286 0.20343183 0.394624 0.14015374 -0.02602481 -0.14766486 0.25683725 -0.09342462 0.04644037 -0.63269347 0.33058426 0.24236335 0.22434708 -0.51940197 0.31840172 -0.5563538 -0.32066342 -0.1907472 0.29768622 -0.2825536 -0.11413604 -0.10216832 0.25168496 0.21932963 0.4483491 -0.2746024 -0.23532663 0.42157486
733 0.7256581 -0.8409132 0.25549895 -0.12511721 -0.5135596 0.35053405 0.21839842 -0.16589376 -0.524723 0.42237964 -0.015493164 0.5385003 -0.02715416 -0.078636095 0.06311617 0.43445322 -0.038715567 0.45794767 -0.18762036 0.39840597 0.13444497 0.29524654 0.5776294 -0.23778677 0.30981526 -0.32339215 -0.4215043 0.53439844 0.6596441 -0.18779148 -0.23625143 -0.19876999 0.31621453 -0.2590969 -0.24750474 -0.43666053 0.029529776 0.40687034 0.32161105 0.88401973 0.5402602 -0.10385722 0.31755465 -0.09739001 -0.07633064 0.14628497 -0.067046486 -0.32865018 -0.2274773 -0.10678261 0.28507715 -0.17442892 -0.14421096 0.38936833 -0.011934635 0.2652546 0.66743004 -0.93630147 0.119367175 -0.46353677 -0.59020597 -0.57362205 -0.41767398 0.24960302
1169 1.4966601 0.24886753 -0.096222624 0.0007008527 -0.23482004 -0.50978434 0.03290089 -0.3294436 -0.047436655 0.3517641 0.23570187 -0.30803335 -0.08566387 -0.7273428 -0.4131153 -0.15629712 -0.44613662 0.27853772 0.1186893 0.17786285 -0.05670301 0.32507828 -0.5979691 -0.28479335 0.14728794 -0.020194214 -0.34416255 0.6093481 0.44437706 -0.2667028 0.05245683 -0.4177409 0.3491084 -0.29258367 -0.2381728 0.40243173 0.0075345063 0.5301628 0.11035198 -0.3087504 -0.42324573 -0.085916676 0.9448239 -0.16844045 0.16511947 -0.3637401 -0.39168245 0.46793425 -0.38336578 -0.68362164 -0.09830906 0.08792227 -0.4114517 -0.15048803 0.49560264 -0.010058941 -0.30870828 0.2770706 -0.11438298 0.17754562 -0.35368642 0.17713535 -0.014902283 -0.40609673
1914 0.44529596 -0.26007023 0.13818645 -0.47596246 0.22424366 0.5914547 0.23584707 0.33249873 0.51490694 -0.025861617 -0.37443537 0.63470644 0.42777276 0.05669617 -0.5734646 -0.101716675 0.11433068 0.11562893 -0.012792518 -0.30899334 0.008257436 0.21865104 0.12506041 -0.5768997 0.12049981 -0.8803886 -0.039703943 -0.41920936 0.25933358 0.034719367 -0.61920583 0.1341521 -0.55577576 -0.050605137 0.038380306 0.105833516 -0.586761 0.74530965 0.058499973 0.2891931 0.11788438 -0.32858288 0.5230867 -0.5708699 -0.67813665 0.2900312 0.24303596 0.051834337 -0.4410514 -0.24642216 0.34732157 -0.5879697 0.38802895 -0.12713382 0.053155076 0.30139923 -0.47482952 0.22304823 1.0108548 0.78614914 -0.15275846 -0.4280231 0.23706174 -0.64832485
1441 0.5861188 -0.36157346 0.29115868 0.08875995 0.91781026 -1.1795845 0.15607949 -0.06838247 0.023690859 -0.20349044 0.04035137 -0.77689976 0.18000413 0.15015839 -0.0033346624 0.22379231 -0.69909424 0.24634874 0.029239373 0.13079725 -0.63449347 -0.5898255 -0.14188431 -0.37678123 -0.802363 -0.4286099 0.78457755 0.8086707 0.5637517 -0.078056425 -0.17592175 0.51355547 -0.15392879 -0.5864682 -0.15821984 -0.06012813 -0.46045068 1.3240643 -0.27150738 0.58982974 0.13461144 0.9577293 0.39054966 -0.36279282 -0.9761916 -0.12057146 0.4914258 0.88492286 -0.46314532 -0.18566531 0.23221734 -0.2201014 0.45865914 0.19515625 -0.27791223 0.57375586 0.2076374 -0.082263686 0.2280671 -0.6134126 0.06480334 -0.04864508 0.6597487 0.24631368
415 0.9920916 0.24998751 -0.20799926 0.10783415 -0.38785034 -0.24950841 -0.15683267 0.34295136 0.027736742 0.41310933 0.34471262 0.4097631 0.27762875 0.9293941 0.36576334 0.16096754 0.090163514 0.437067 0.5294745 0.029126476 0.12140693 0.6307521 -0.56597805 -0.32152864 -0.4068868 0.05121048 0.252252 -0.45269465 0.29639262 0.9181601 -0.43000808 0.7138661 0.08972346 0.54176956 0.2662509 0.5382478 0.0759561 0.17650187 -0.08786082 -0.16271769 0.5165151 -0.2697986 0.6246397 -0.15498294 -0.11420991 0.22630608 0.36384115 -0.4553462 -0.104372896 -0.10683337 -0.24065408 0.17905544 0.03365722 0.2547612 0.031927466 0.22461279 0.06854399 -0.6540033 -0.33417818 0.5781577 -0.0074147303 0.15685572 0.3707157 0.00013606108
1624 0.36979273 -0.43084538 0.013041113 1.2494246 0.119984984 -0.07620302 0.31464812 0.2500077 -0.25435972 0.48411667 -0.48081148 0.2221623 0.056462955 -0.02256654 0.160496 0.1389984 0.00093318964 0.7150194 -0.18387261 0.013199069 -0.112238556 0.3899667 0.14343067 0.2585016 -0.5895635 -0.47283196 0.19880815 0.11486794 -0.5032024 0.24364415 -0.6047996 0.18861848 0.39613366 -0.8823365 -0.33666936 -0.41712266 0.3606422 0.2527382 -0.42895243 0.21520098 0.03951345 0.6895652 0.22052026 -0.5485118 -0.032723036 -0.12591696 -0.58365303 0.15025993 0.37889495 -0.15290073 0.17584404 -0.02515701 -0.22338144 0.16124696 -0.3631225 0.067481875 -0.26732612 -0.25448564 0.097020894 -0.053850166 -0.018842591 -0.69249815 0.114484645 -0.38756186
2182 1.0119654 0.39660582 0.61192036 0.29257542 0.098104306 0.3447913 0.31313717 0.63834774 0.56944084 -0.2685073 0.30216727 -0.10443281 -0.04760357 -0.40634513 0.65560853 0.13976981 0.01961181 0.2820116 0.33170584 -0.36426812 -0.36606044 0.2704991 -0.010644194 0.109013885 0.2827571 0.2579061 0.5075251 -0.10688997 -0.1496091 0.6858411 -0.38560936 0.10236869 -0.38086423 -0.24267097 0.035087485 -0.4101072 -0.28192925 0.3692321 -0.34749797 0.32092345 0.1841482 -0.25400963 0.81079584 -0.2979671 0.1028797 0.25715062 0.60109526 0.029663282 -0.14620994 -0.20633633 -0.3793074 -0.053992793 -0.28273872 0.1877168 0.35496408 0.84758973 0.3001005 -1.4015967 0.12927784 0.3215504 0.11115089 0.16547732 -0.40583253 -0.11075915
1131 -0.07918243 0.06700669 -0.17158805 -0.21900715 0.110211946 0.054563317 -0.18727484 -0.09340193 -0.10949214 -0.06654436 -0.022612091 0.14003748 0.5612659 0.12196975 -0.08066711 0.733867 -0.4651023 0.6448347 -0.34306428 0.5857579 -0.32973865 0.50269765 -0.277659 -0.2632077 0.07167424 -0.14781663 0.104701936 -0.043576002 -0.4846617 0.6038966 -0.7602791 -0.09055735 -0.093731806 -0.58740914 -0.7843325 0.22640195 0.019649925 -0.033655692 -0.17597887 0.5771284 0.009670955 0.19094205 0.046921104 -0.29856393 -0.058380328 -0.060991902 0.43834943 0.55250806 -0.35423207 -0.6538947 -0.2505684 0.16201887 -0.20547137 0.6026052 0.12982985 -0.16519979 0.33794844 0.28856155 0.4371139 0.6925868 -0.43408486 0.73461723 -0.49201605 -0.20662554
963 -0.018439349 -0.0030521592 0.40964872 0.11949528 -0.3915018 0.047494356 -0.1759668 -0.5764074 -0.359688 -0.43923905 -0.29960704 0.6886016 0.6082984 1.0607008 -0.7298668 0.17197827 -0.14964353 0.59351456 -0.46015793 0.8990062 -0.2939169 0.20552948 0.012891978 -0.06674026 -0.7772973 0.45781434 -0.21669261 -0.20613934 0.3332238 0.22265984 -0.15809844 -0.049779046 -0.4902435 -0.9005886 -0.60018015 0.22710547 0.5896684 0.46660075 -0.43444234 -0.23703156 0.69698936 -0.46564445 1.4792998 -0.7878869 0.5666736 -0.1307957 -0.20870465 -0.43309087 -0.11977396 0.8557424 -0.10518533 0.21583411 0.112624876 0.5470264 -0.10108536 0.49814484 0.014714291 -0.32843897 0.31540328 0.5898935 -0.25888315 -0.4018855 0.785121 -0.6190265
973 0.35518804 -0.38785788 -0.37279555 0.08073581 0.14223379 0.192588 -0.67922634 -0.46120837 0.05958739 -0.67667043 -0.27833512 -0.020326316 -0.53008705 0.63280934 0.33177745 0.6189509 -0.19885075 0.7015411 -0.12707321 -0.21021697 -0.16027766 -0.058193885 0.08908214 -0.9517155 -0.090255834 -0.40923226 0.5725918 0.28903297 0.1683675 0.3428359 0.15839921 0.28770542 -0.07829788 -0.2876742 -0.3757548 0.15741214 0.0815392 0.40146485 0.50208515 0.18072732 0.18215632 0.076926015 -0.35466874 0.117438525 0.17079662 0.13328488 0.6613929 0.24411139 0.117755614 -0.8478678 -0.43376046 -0.5537379 0.45051175 -0.06708583 -0.6299472 0.28173134 -1.0032938 -0.048721652 0.065147944 -0.1403094 0.36147404 -0.44807813 0.36487323 -0.29656875
1483 0.17625783 -0.017554421 0.014238516 0.5045558 -0.5517063 -0.20368937 0.60017926 0.21067093 -0.61204964 -0.60354924 -0.6598378 -0.1994366 -0.16026479 -0.20123811 0.28181526 0.07826532 -0.26076767 0.4507291 0.13861038 -0.22786218 0.051675595 0.44079593 0.3770869 0.44249085 0.36826646 -0.1766103 0.49004042 0.17795609 0.29202476 0.682017 -0.5905815 -0.33406168 0.089853615 0.3182929 -0.24298322 0.49239194 -0.17629872 -0.22303046 0.42139012 -0.060241427 -0.039386153 -0.39053616 0.47396725 0.35013756 0.47998413 -0.15104818 0.3627637 0.7729492 0.027539399 -0.41668412 -0.41167304 -0.09401689 0.65982205 0.22245999 0.21702947 0.15963197 -0.1341186 -0.03164413 0.73222834 -0.051191688 -0.30447164 -0.7477606 0.3850004 -0.03838117
1042 -0.00293203 -0.41576883 0.12645242 -0.10501101 -0.09194134 0.23222516 0.38660127 0.18914428 0.17126392 0.13002868 0.5531025 0.64662206 -0.045262028 -0.34272727 -0.49545214 0.32138547 -0.5682101 1.1983917 0.7302421 -0.24427538 -0.3509498 0.410029 0.09595628 -0.2925712 -0.05034469 -0.00613842 0.34842718 -0.39458773 0.10921611 0.34754673 -0.531788 0.12603255 -0.7555794 -0.31753004 -0.23868214 -0.6297989 0.58923167 -0.10554679 -0.11888325 0.5416485 -0.4619324 -0.21425454 0.67871517 -0.54881305 -0.012688574 0.69191843 0.42852545 -0.024571726 -0.062979706 -0.53798485 0.23832233 0.3344261 -0.24514468 -0.008137602 0.64665097 0.90028584 -0.6560189 -0.7059415 0.1304137 -0.8674821 -0.27814487 -0.99139273 -0.6790512 -0.32036418
1725 0.952853 0.63438356 0.3930128 0.18197775 0.24675135 0.1740146 -0.091712475 -0.365673 -0.3513644 -0.22368947 0.028517189 -0.21900453 0.19955082 -0.04031923 -0.06425739 -0.51922536 -0.2389668 0.68055266 -0.13964407 -0.17006095 -0.24227998 -0.080873944 -0.4199963 -0.113249265 0.21244985 -0.6129289 0.010572116 0.5842767 0.3280009 0.08172426 -0.5279102 -0.5191337 -0.38226002 0.10723291 0.039641377 0.49403387 -0.05807192 0.17827782 -0.13550214 -0.077452235 -0.058680084 0.16174857 0.58643055 0.46930772 0.15001336 -0.087993495 -0.25630903 -0.5185198 -0.22801434 -0.27674204 -0.21496035 -0.013379859 0.4541522 0.47726384 0.46129602 -0.6541264 -0.9549793 0.046205416 -0.4700323 0.32267612 -0.25152186 0.04707568 0.21007378 0.039956503
95 0.54474694 0.24233359 0.30227843 0.56385285 0.14779209 -0.10957169 -0.10383885 0.19554251 0.69600856 -0.44542852 0.60880566 -0.101308435 0.5092704 -0.24498522 -0.08087797 0.37594587 -0.31519997 0.4834395 -0.061864074 -0.10686567 -0.42136303 -0.03429894 0.01649831 0.3653871 0.017895892 -0.009268888 -0.016446922 0.102824315 0.30692697 0.010434668 -0.066573076 0.31546417 -0.44093743 0.26344827 -0.45925966 0.19968419 -0.096135646 -0.03564111 -0.0041139023 -0.1452659 0.23399478 -0.5421702 0.9140205 -0.72688854 -0.21610112 0.65390205 0.5181886 0.2904004 -0.46603066 -0.5067052 0.109365635 -0.20528576 -0.33647847 -0.13958144 0.72862214 0.5968674 -0.19773646 -0.96098423 0.24308796 -0.291672 -0.012077724 0.20629312 -0.4566335 0.0067785103
1765 1.2175666 0.13626064 0.09884649 0.14128958 0.37364358 -0.28354967 0.33715972 -0.24379185 -0.2903396 -0.05577228 -0.1796325 -0.8418553 -0.062477365 -0.43343464 -0.38800317 -0.17613026 -0.33898064 0.3225342 -0.4392943 0.07438748 -0.09494373 0.6939421 -0.37008664 -0.06349148 0.1891516 0.056502823 -0.555936 1.0750417 0.3519047 -0.012704061 -0.01982058 -0.28398994 0.071304426 -0.28048432 -0.19915718 0.8247809 -0.3004883 0.64717704 0.01681622 0.35539728 0.068869226 0.1622848 0.5440393 -0.07890827 0.76911104 0.0796263 0.42861006 0.31195605 -0.74556494 -0.77719855 -0.3275619 0.15911944 -0.6708634 -0.42524382 0.16802473 -0.15885267 -0.22691058 0.54900587 0.030797781 -0.43266466 0.009251099 0.101293154 0.44812256 0.05798834
1692 -0.31679705 -0.39567515 -0.5350867 -0.47805622 -0.82382524 -0.24959147 0.56038094 0.27908632 -0.1195767 0.097816326 -0.03226341 -0.10525421 0.36312482 0.42754188 0.39799625 -0.024037836 -0.18879336 1.3794324 0.13916557 -0.2422154 -0.020063477 -0.097877614 0.7638196 0.8580514 -0.18597925 -0.43767187 -0.2539327 -0.13049877 0.45048317 -0.8406361 0.64780533 -0.26720124 -0.32538688 -0.41382542 -0.8182724 0.7090341 0.42734057 1.2245532 0.044555448 0.37897855 0.8500351 -0.3734954 0.46431163 0.16722651 0.1622473 0.25884753 0.3019509 -0.3482077 -1.0592201 -0.51957875 1.2186899 -0.52040386 0.21532668 -0.16466615 0.21239838 0.3132825 0.2850948 -0.759991 -0.3901336 0.21054578 -1.1341836 -0.59082276 0.44736177 -0.366536
507 1.0005683 -0.14419372 0.047497526 -0.008406885 -0.012368298 0.074056 0.014464202 0.78873295 -0.5266467 0.15833192 0.39691207 0.48237863 0.2060175 -0.12887797 0.13830505 -0.24325557 0.51846504 0.92557883 0.693178 -0.113392435 -1.1452816 -0.4645584 0.2311907 0.66911495 -0.26594907 0.21382184 -0.31079483 0.56645346 -0.15067662 0.5618548 -0.68296295 -0.056192942 -1.4240614 -0.095217325 -0.6213486 0.72664696 0.076075606 0.7631438 0.498428 0.69312495 0.5937809 -0.262458 -0.09949515 0.70026034 0.57216376 -0.81421465 -0.92704564 0.114260435 0.090986736 -0.16988836 -0.5537575 -0.6199994 -0.06214657 -0.5812641 0.19451706 -0.0992507 -0.69596833 -0.5895915 0.3121234 0.7876546 1.1304413 0.25460798 0.36500877 0.23835503
118 0.23096183 -0.83557475 -0.0070767445 0.27934253 0.27435198 -0.47904754 -0.41251364 -0.20213258 0.10272903 -0.762657 -0.13514525 0.14057355 -0.41265038 0.43408725 0.8305768 0.30506614 0.029108802 0.10953278 -0.46227682 0.465216 -0.94027257 0.10910706 -0.32606593 0.15313941 0.026896548 -0.35448432 -0.010649331 0.083942525 -0.25815496 0.16967975 -0.38244268 0.49548063 -0.11159089 0.22739671 -0.3493515 -0.12002801 0.0028169495 0.5313279 -0.03130815 0.05950888 -0.4735113 -0.4352707 0.6669003 -0.0003784825 0.04199745 -0.09679605 0.198017 0.30749726 -0.108946875 -0.87961537 0.60672307 -0.031514414 1.1437072 0.56315637 0.63079274 0.27687326 0.3635207 -0.015900249 -0.18127878 0.6635295 0.37182075 0.519122 -0.036204476 -0.37930027
525 0.82321686 0.3896804 0.18194197 0.14549695 0.3248482 -0.05840644 0.097917676 0.1503801 0.27604288 -0.061640985 0.33485082 -0.3032878 0.21540187 -0.08752098 0.322211 -0.01578357 -0.43906277 0.73721987 0.16965637 -0.267504 0.001234502 0.2947351 0.03952951 0.29099733 -0.29145655 -0.2137628 0.40413877 -0.7315359 -0.07003956 0.42480418 -0.41719484 0.40187168 -0.59530354 0.35976022 0.033792328 0.67134887 -0.1978712 0.0041885157 -0.68381 -0.16544966 0.23151721 -0.38688546 0.6650741 -0.74687016 -0.12316341 0.036422525 0.6202406 0.24008459 0.010724644 -0.76129794 0.036794264 0.011047609 -0.5265228 0.089870416 0.391491 0.35495442 -0.06487711 -1.4834014 -0.23450916 0.23298231 -0.12092613 0.4319728 -0.43034166 0.56468695
1416 0.44655553 -0.0070181713 -0.22416463 0.19356948 -0.74218655 0.3608767 0.02225893 0.31983566 0.27217817 -0.01840312 -0.46215197 0.29388162 -0.58880585 0.52519125 -0.5895138 0.28732142 0.09666547 0.93806833 -0.072687395 0.3444751 0.5157032 0.9559018 0.13115056 -0.4472805 0.039483897 -0.2357341 0.49429086 -0.31322962 -0.17538975 1.2027345 0.22982222 -0.20540155 -0.6222093 -0.034460686 -0.5238372 -0.1838775 0.18215199 0.21764842 0.10875113 0.56239957 -1.074035 -0.2061202 0.23693797 -0.20983043 0.4624984 0.48400882 0.44630858 -0.2228959 -0.30567828 -0.7278414 0.009895834 0.44141784 0.18494278 -0.22349416 0.106207795 0.55344677 0.17375004 -0.80937624 0.19851558 -0.93395895 -0.41574627 0.54935265 0.21038145 -0.17186987
2155 -0.055814557 -0.783737 -0.46477434 -0.33406153 -0.7662872 0.23206967 -0.8867773 -0.17451106 0.38231555 0.007493776 -0.09306524 0.21094775 -0.065234244 0.14764614 -0.61186206 0.6294014 -0.23417707 0.88241297 -0.59722304 0.642694 -0.34118265 -0.0839693 -0.40365395 -0.56689334 -0.025720978 -0.31399468 0.38769045 0.3353656 -0.34560558 0.06984612 -0.71815294 0.16735588 -0.46279556 0.003923312 0.06568299 -0.22890604 -0.5119933 0.23520638 0.029111987 0.32813013 -0.53448087 -0.04291468 0.5011772 0.0014889686 0.37902218 0.44585377 0.1391933 0.11314092 -0.036581945 -0.5361445 -0.10745582 -0.5528257 -0.3327026 0.4621715 0.34516808 0.24952918 -0.33805478 -0.3931087 0.29383954 0.2043457 -0.24504082 0.5031773 -0.027407125 -0.35348183
1257 0.8796398 -0.69219166 -0.07020239 -0.28102067 -0.08008277 0.7375739 0.13352677 -0.04503472 -0.12865387 -0.5287604 -0.030814605 -0.2210165 0.085607715 -1.0676128 0.09779079 -0.00590069 0.16697098 0.8674091 0.99633044 0.764717 -0.89555055 0.077451915 -0.0026094145 0.025618594 0.96923345 -0.5656561 1.3995804 -0.09109741 0.20118116 0.5364626 0.12080293 0.79734546 0.19472028 0.66454244 -0.79874283 0.56875336 -0.22573206 0.22064275 -0.33585948 -0.4696218 0.3819634 0.6560411 0.8020503 0.12283171 -0.08637802 0.20716906 0.22377391 -0.57180566 -0.43149745 0.7297248 0.004781932 0.041261666 -0.0077847433 -0.19288886 0.90291303 0.643421 -0.13149579 0.93466 0.034393203 0.19783291 -0.0020885456 0.48002017 0.411722 -0.82607627
2394 0.47314334 -0.08640971 -0.8545909 -0.24008617 0.5901135 -0.11313471 -0.19560665 0.4915729 0.52039415 0.045602854 0.410881 0.72315866 -0.08811547 0.46814856 0.20436774 0.20478983 0.3536073 0.4850904 0.4635668 -0.2961467 0.30222648 0.3018906 -0.63950616 0.35182983 -0.4968564 -0.64908785 -0.09042862 -0.2146924 0.13244568 0.35871264 0.024482893 0.8079878 0.0074179703 0.089481875 0.0013470874 0.88208175 0.07826628 -0.100265056 0.1463833 0.41482723 -0.573984 -0.09354967 1.5739604 0.06801043 -0.49720526 -0.22996444 -0.116244234 0.28296906 -0.17780653 -0.43111932 -0.16842753 -0.35341525 -0.7464938 -0.35234705 -0.050519634 -0.3129312 0.5443591 0.24073158 -0.4214345 0.15078448 -0.30595282 -0.29053822 0.91205144 -0.031939924
1103 0.99700016 0.9842801 -0.22833368 0.054216377 -0.26566702 -0.016348718 0.188022 -0.31454465 -1.0559404 -0.07352912 -0.46920347 -0.5257281 -0.47926325 0.4546729 0.35442048 -1.1539031 -0.28810325 0.709613 -0.65039223 0.00616453 0.23619114 -0.10979969 0.024459837 -0.5738912 0.26358715 0.13974053 0.31325385 0.40435994 0.3770032 -0.13019636 0.049500536 0.22908689 0.46742088 0.103018716 0.08750732 0.9149358 -0.47676304 0.7314925 -0.35564485 0.9217463 0.16747646 -0.07160362 1.3206902 -0.11205575 -0.10507517 -0.14113152 -0.34079513 0.3173929 0.4845261 -0.6321665 0.02489664 0.116138466 -0.18618475 -0.60030377 0.57348406 0.5831284 -0.25053212 0.55329484 0.41313913 -0.5682467 -0.51043636 0.10346309 0.301919 0.42018512
1703 0.59947777 -0.03486194 0.6902411 0.07094416 0.27091476 -0.1301483 1.0818454 -0.053226274 -0.32436693 0.41399276 0.23032025 0.080356814 -0.14797583 0.68434846 -0.30915233 -0.041443925 0.951517 0.9794923 0.10597487 0.63946354 0.32706767 0.30485272 -0.3640356 -0.64967096 0.34399888 0.4049301 -0.16887593 -0.8503642 0.25269914 -0.16385524 -0.02698787 0.9150308 -0.08211443 -0.5126287 -0.7380071 0.41420203 -0.29545164 0.5153697 -0.0566972 -0.12807083 0.30793452 -0.5947663 0.7468691 -0.47471058 0.67080057 0.32545945 -0.84700817 -0.25739458 0.26118928 -0.3854018 0.4689971 -0.19127166 0.22221527 0.39184162 0.34261256 -0.17360005 0.6880843 0.12784442 0.14836684 0.28187314 -0.87764937 -0.20478527 -0.18069313 0.45052534
310 0.48226216 -1.0237843 -0.6137996 -1.0306282 0.24312495 0.2957825 -0.03550887 -0.42099285 -1.262327 -0.7185947 0.59552383 0.37154126 -0.023993265 0.22764163 -0.41593456 -0.3926753 0.12894714 0.9687451 0.16437846 0.6309929 0.0035701366 0.6919606 0.08545546 0.09427062 0.61036444 -1.1380515 -0.783558 0.23556928 -0.2544209 -0.1467946 -0.14490925 -0.08380434 -0.57245713 -0.79107153 0.6877708 -0.1260058 0.71582323 0.067773886 0.08013538 -0.35548344 0.4815454 0.740276 0.5657238 0.31674755 0.29912817 0.06216735 -0.14321852 0.9790519 0.38200068 -0.02227588 -0.0027178158 -0.19420743 0.13886829 -1.1078628 0.2504718 0.3413627 -0.050758854 -1.0297148 -0.10727597 0.16222881 0.01560737 -0.43467152 0.6458066 0.09434028
1413 1.1843592 -0.50866985 -0.1385438 -0.3393954 0.168849 0.7372627 -0.28373566 0.89564073 -0.24855715 0.8026778 -0.33544824 0.21364252 0.73841983 -0.36267418 -0.776033 -0.14502719 0.62275416 0.61584055 0.69366175 0.27518255 -1.4503381 -0.09882797 -0.14708596 0.3686704 -0.11821673 -0.076946445 -0.54442865 -0.013268559 0.1135105 0.9072076 -0.32260948 0.91588694 -0.99069345 0.06246396 -0.49135435 0.5718519 0.30089304 0.37814826 1.0051676 0.5798661 0.66086084 -0.04613148 0.021570886 0.32857063 0.6594976 -0.6711377 -0.96006733 0.4296232 0.6221655 -0.4303517 -0.25987744 -0.39491528 0.15247947 -0.2246609 0.08631187 0.155264 -0.28404012 -1.0129037 0.17215338 0.7071987 0.9302321 -0.06902854 0.4540863 -0.081810206
1973 0.45498022 -0.22069192 0.015945226 -0.06483054 0.032641146 -0.2615481 0.11808226 -0.19978042 0.11315465 0.2319923 -0.6253497 0.6391353 0.28862506 0.42322665 -0.1061527 -0.2104636 -0.015104664 0.45787314 -0.21792966 -0.9393833 0.0072521395 -0.09780116 -0.51319027 -0.57351387 -0.03467996 -0.15104273 0.69448704 0.08864036 -0.40943542 0.20924798 -0.47201857 0.55810326 -0.27632415 0.3386264 -0.54631996 0.20789368 0.16411476 -0.009880629 0.12860417 0.38238767 -0.092510074 0.73607105 0.90193385 -0.167244 0.22940025 0.24669255 0.43740532 0.9317699 -0.59742755 -0.37463814 -0.18440866 -1.3639766 -0.35152376 0.077840954 0.8867023 0.13492918 0.7570996 -0.1918896 0.46669018 0.4119493 0.3250584 0.19190165 0.3880304 -0.026075277
2671 0.53441656 -0.29194257 0.24340804 0.1615496 0.025532076 0.85479695 -0.23721638 -0.34068805 -0.6294519 -0.5661079 0.09703355 0.011866621 -0.34039745 -0.8623047 0.22018386 0.0054914625 -0.17741019 1.1949596 0.52421016 0.5323246 -0.5555652 0.4390689 0.05748377 0.06349289 0.62245727 -0.36461052 1.5152966 -0.39372772 0.9570057 0.23122388 -0.010880588 0.83759844 0.122217044 0.5578809 -1.277268 0.39345407 -0.36926588 -0.04939192 -0.5682552 -0.32976997 0.26915428 0.8137891 0.1621159 0.4495617 -0.6194421 -0.4686931 0.4094224 -0.31581596 0.08206699 0.782748 -0.108345024 -0.28252408 0.1157308 -0.2583704 0.7932631 0.9818342 0.3176908 0.85631955 0.04559938 0.39081267 -0.29566902 -0.08536555 0.763752 -0.48646173
2248 0.7464458 -0.79875875 -0.0050529963 -0.36107308 0.46875113 0.067315064 0.3863239 0.11178805 -0.67208266 -0.6334613 0.4701419 -0.2161058 -0.15562066 -0.54989225 -0.2954152 -0.2784723 -0.4461414 0.9212314 0.81063396 -0.5319082 -0.8740878 0.51385635 -0.1814236 -0.56249195 0.519732 -0.6763543 1.897431 -0.08330996 -0.21212745 0.6102908 -0.10785515 0.43666172 0.64953214 0.33467802 -0.38101673 0.74494874 -0.23567948 0.052289806 -0.025227338 -0.2254926 -0.28341863 0.970903 0.8406697 -0.028230617 0.16004191 -0.07850822 0.2339572 -0.49347878 -0.2502069 1.0497627 -0.3899452 -0.14286344 0.18624158 -0.47512788 0.7320905 0.30257037 0.3751927 0.45828664 0.3189219 0.11233162 -0.45553038 -0.064046174 0.8108831 -0.53196955
1309 1.1424431 -0.55092 0.41377527 -0.16881737 -0.56224704 -0.016277483 -0.36889476 -0.2586668 -0.0047623846 0.09157348 0.35865864 0.32491 -0.3253416 1.0402606 0.51183903 0.4242816 -0.35980883 0.49128127 0.35762778 -0.15777789 0.44895765 0.78083813 -0.03159299 -0.83252996 -0.29560634 0.46282712 0.11920426 -0.30565196 -0.343339 1.1501755 -0.051176984 0.19190589 0.04139168 -0.04097636 -0.13716203 0.74643135 0.20765 0.2065475 0.42235586 0.08697207 0.40895942 -0.39156616 0.14269964 0.03743722 -0.022797234 0.12628335 0.30011955 -0.07938475 0.05394804 0.13740021 -0.038351394 -0.01071923 -0.46027327 -0.22013178 0.84457076 -0.3021635 -0.2658924 -0.006660714 -0.101151 0.21765614 0.07539609 0.36051628 0.550734 0.1305618
1628 0.20077313 0.023119468 0.09833702 0.3019674 0.17742725 0.18181962 -0.2805021 0.39592585 -0.22868624 -0.27534956 0.2702353 -0.20458849 -0.0439032 -0.32094455 -0.11064622 0.04312368 -0.5580607 0.81549233 0.52632123 -0.24353632 -0.37917474 0.5517821 0.15243557 0.30101752 0.07704835 0.11258605 -0.15628013 -1.2941697 0.074362464 0.17624693 -0.62488693 0.40794158 -0.72177726 -0.077815905 -0.2626236 0.12814279 0.039985497 0.41830128 -0.5049462 0.5626331 -0.2691745 -0.2465612 0.7649031 -0.7498367 0.041547965 0.36642882 0.26829746 0.2630284 -0.037915707 -0.39627105 -0.07154693 0.19779149 -0.19606405 -0.058527596 0.27249068 0.40389377 -0.33787858 -1.0067741 -0.2186814 -0.3740616 -0.51981527 0.0012561599 -0.6049546 0.21212731
436 0.17496651 -0.25338385 0.81911516 -0.7288671 -0.21255305 0.22103654 0.23948923 -0.2273965 0.206314 -0.56445754 0.30815837 -0.2315245 0.8290996 0.68625724 -0.058595844 1.1588598 0.4043407 1.3304863 -0.38990766 -0.040544283 -0.10515565 0.27861553 -0.7890515 0.032038603 -0.65775996 -0.21394627 0.20899552 -0.25084108 0.37892377 0.5378319 -0.40131158 -0.28741795 0.0464095 -0.644162 -0.3982001 0.5435143 -0.31135508 0.1054197 -0.26644808 0.7348658 0.40731153 0.20228726 -0.25695485 0.17518216 -0.33936772 0.64274657 -0.10778143 0.49919516 -0.51504654 -0.2025225 -0.4070579 0.32032233 -0.6643976 0.115301 0.3887544 -0.35049206 0.12707773 0.076813065 0.3625367 0.5423324 0.009693655 0.1621561 0.18911874 -0.39088413
687 0.9770351 0.7174553 0.12454927 0.6285338 0.2815957 0.24967031 0.33336538 -0.01586873 -0.60124695 0.1011539 0.33243895 -0.6037063 0.63282406 -0.04442937 0.20625903 -0.16643353 0.20808475 0.630674 -0.35626125 0.6632642 -0.24642815 0.29524136 0.36372453 -0.07685738 0.2935122 -0.62173396 -0.09978582 0.7457402 0.38357437 0.3679745 -0.585505 0.40635973 -0.41210002 -0.26497746 -0.24744746 0.100430824 0.070206165 -0.010840931 0.6252389 -0.23333508 -0.1786572 -0.48956725 0.37357756 0.6456347 0.44475856 0.1275137 0.57095623 0.16209882 -0.40714595 -0.289266 -0.26965752 0.027931705 -0.43982983 0.097678415 -0.21953838 -0.087786585 -0.70025885 0.5697248 -0.21040796 -0.165631 -0.53154767 0.48354778 -0.5013421 -0.3215494
239 1.0159317 0.38341007 -0.65725857 0.43459317 -0.34972462 0.207333 0.4671765 0.41575333 0.5540219 -0.9214866 0.24875754 -0.3119989 -0.20547399 0.3022944 0.7708856 0.31568074 -0.593954 0.9041277 -0.2402308 -0.5660637 0.13391675 0.3829934 0.024763502 0.11992584 0.17915869 -0.23407118 -0.10040578 -0.090971015 -0.15332864 0.45017833 -0.9586644 0.14636643 -0.047918383 -0.5200048 -0.5415415 -1.1279846 -0.53999716 0.61314607 -0.6120131 0.4862931 -0.46984142 -0.4548397 0.5379291 -0.0198969 0.538078 -0.75346535 0.3322364 0.21439685 -0.17193502 -0.16314235 0.007874753 0.5113652 0.2172945 0.28752422 -0.68091667 0.7077197 -0.23277792 -1.0378642 -0.6847229 0.57429385 -0.1173948 -0.3158568 -0.3615048 -0.48331168
1927 0.45395374 -0.44929916 0.18685222 -0.6981193 0.61917686 0.11515994 0.08241703 0.39066246 0.11014928 0.2644077 0.26923886 -0.08593332 -0.3866526 -0.014770518 -0.7263602 0.26574293 0.8303165 0.9271856 0.38181588 0.8939619 0.4688464 0.2125631 0.3868655 -0.102232076 -0.08802234 0.16456746 0.35834923 0.19176225 -0.2377852 0.8454595 0.31912142 -0.33859757 -0.9636414 -0.6422519 -0.30274817 1.044525 -0.816382 0.07518033 0.09529723 0.7072405 -0.6039613 -0.18711784 -0.3820117 -0.57847404 0.07516066 -0.41208655 1.0991027 -0.52519083 0.081043735 -0.73545724 -0.018578807 0.08007664 0.42301705 -0.12193442 -0.012187159 0.4288199 0.24698868 -0.31358242 0.59086597 -0.02021489 -0.39961994 0.21841009 0.20456345 -0.019360146
279 0.46694347 0.035611883 -0.5655203 -0.24470764 0.39128956 0.35729685 -0.74833906 -0.03364709 -0.16364932 -0.52168876 0.051737923 0.28136215 0.63080746 0.8717728 -0.21842028 -0.25719914 -0.628158 0.45159814 -0.4764994 0.44988555 0.082526654 0.71407217 0.27221793 -0.13751806 0.46950448 -0.22546522 -0.13730109 -0.04945833 -0.6118307 0.25627923 -0.94557697 0.81957287 0.70880914 -0.09321478 -0.8076667 0.34759524 0.1405795 0.20415643 0.2515182 0.61288416 0.31832442 1.0132966 0.30297586 -0.04230388 0.10663493 -0.32761848 0.71981853 1.031556 -0.41653007 -0.17540583 -0.88488424 0.23228355 0.834824 1.1203827 0.86400324 -0.17815806 0.7660492 -0.47958863 0.55484235 0.97867775 0.26434746 0.208482 -0.1046678 0.14856835
1015 0.63225234 -0.23810773 -0.50147045 0.7389853 -0.41995192 0.40524572 -0.81784517 -0.59847456 0.13229738 0.49093616 -0.27699575 0.722991 -0.24267252 0.20086701 -0.12938358 0.24371237 -0.14214937 1.3521572 0.31094867 0.11634054 0.08582101 -0.07374544 0.35513967 0.26384693 0.06186136 0.33669052 0.01908294 0.31692684 0.17219083 -0.85235876 -1.2440709 0.6468834 0.38166192 -0.89879024 -0.3209977 0.5666334 -0.4028483 0.7802983 1.1121745 0.119614504 -0.40384817 0.00053203513 0.24348776 0.47173506 -0.99320626 0.5043171 -0.24890938 -0.15060693 0.3916234 0.09556436 -0.25444403 0.23391317 -0.14745542 0.45221037 0.09178461 1.3135612 -0.070670776 -0.47502747 0.011851472 -0.38492507 -0.2791968 0.43230695 -0.041639853 -0.5164469
1742 0.29541323 -0.32993135 0.7134382 -0.38045543 0.09829912 0.006430483 -0.118229434 -0.44929284 -0.38289288 0.010914817 0.2090224 -0.20998786 0.6912447 -0.26568416 0.33538136 -0.7740013 -0.30921373 0.038972706 0.009219424 0.4974599 -0.046385273 0.28491452 -0.08627549 -0.5494972 -0.4230837 -0.3192691 -0.0008610157 -0.03954394 0.2734891 0.1929672 -0.35553432 -0.3030113 -0.4659541 -0.23245692 -0.062787 0.40820327 -0.023501445 0.52897847 0.1874794 0.042300466 -0.08599507 -0.259088 1.0162188 0.9166922 0.38526657 -0.5042405 0.21408035 -0.32952473 -1.0014687 -0.7615856 0.22297211 0.2086098 0.1050308 0.21593495 0.53423977 -0.42926484 -0.70208675 0.19649892 -0.16259652 -0.51558226 -0.026171723 -0.31343147 0.86252725 0.34893262
73 0.2906477 0.37975976 -0.69509906 0.548015 -0.40907493 0.29195172 0.17165 -0.19457813 -0.57507133 0.4145481 0.16562676 -0.33828548 0.67008156 0.3257296 0.4405308 -0.30776802 0.62568593 0.4275913 0.33147618 0.4627639 -0.40404722 -0.15497106 0.4915602 0.1749176 -0.09745044 0.29604736 0.38664868 0.3555185 0.20428635 -0.14157851 0.195233 -0.5829058 -0.5749389 -0.0017361329 -0.6656342 -0.073040456 -0.13195917 0.6730208 0.3770077 0.24762356 -0.07681587 0.29393792 0.9572577 0.11610534 0.06805933 0.010461337 0.7325108 -0.047867544 0.3592547 -0.37247527 -0.77976197 0.20542715 0.057020746 0.031454097 0.18981367 -0.7393266 -0.7041004 -0.11424577 0.2452028 0.13699709 0.10410935 0.35305923 0.062457632 -0.19720986
1950 0.15313135 -0.74505246 -0.6913557 -0.7207975 0.43858036 0.1362665 -0.27806666 0.12999651 -0.9123944 -0.8390359 0.88631684 0.7898015 0.22963005 -0.21219382 -0.6616936 0.10897973 -0.114506885 1.4673107 0.36952808 0.36730334 0.32975337 1.1542284 0.09501611 -0.2508609 0.37602937 -0.53378624 -0.5964699 0.6413201 -0.5137968 0.1017296 -0.09508255 -0.06211667 -0.11740169 -0.7215645 -0.1397822 -0.14491718 0.02943827 -0.21426214 -0.07774355 -0.62801635 0.91000193 1.0489445 0.26961318 0.31246093 0.5910814 0.14379577 -0.4837562 0.8111904 0.14247462 -0.26965132 -0.23883532 -0.2656085 0.34474015 -0.73957145 0.39057222 0.37646586 -0.1709483 -1.2389586 -0.22461417 0.16722852 -0.27129534 -0.032797735 0.75037783 0.28157407
565 0.94563186 0.24404413 0.5334558 0.13027667 -0.014364679 -0.112147614 0.22232415 -0.5732985 -0.59977293 -0.23517507 0.29319975 -0.4303873 0.35949036 0.32832617 0.23764238 -0.23819791 0.6958027 0.720365 -0.64496607 0.69661164 0.11266722 0.34482318 0.8387744 0.05794987 0.45767754 -0.38051116 0.20818163 -0.22761641 0.054840077 0.32278603 -0.27622625 -0.18835086 -0.44072637 -0.13014616 -0.55066127 0.28632537 0.06490548 -0.44250464 0.84998524 -0.9002646 -0.011030608 -0.2359122 0.22370936 0.6904199 -0.49617 -0.49502856 0.7240985 0.41799212 -0.3253246 -0.5589812 -0.23480436 -0.18291129 -0.11122282 0.65428925 0.1712153 0.28975004 -0.23806095 0.19340594 0.07593511 -0.69740975 0.031519227 0.06747537 0.1947318 -0.15079574
2025 0.45211607 -0.4390134 -0.3976834 0.26266915 -1.1957492 0.16558121 0.14607333 -0.312599 0.3240593 -0.5712618 0.029867874 0.31850222 -0.48929372 0.16014509 -0.15573265 0.29170516 0.09411511 0.33050293 0.09395702 0.12450904 -0.36244062 0.58010167 0.09228336 -0.38270783 0.39224228 -0.3257632 0.32987422 0.18012847 0.508124 0.6640679 0.33335683 0.4938279 0.3482648 -0.5207753 -0.83199257 -0.42084244 -0.11132059 1.177085 0.6144098 0.182336 -0.26923755 0.07101387 -0.51107216 -0.017085975 -0.16275764 -0.49016201 0.27764058 0.068385206 -0.6497239 -0.72676665 0.23001723 0.2184813 0.40209645 -0.6909279 0.3868486 0.70265615 -0.02833375 0.14292705 -0.26852053 0.08681203 0.08955813 -0.0029969153 -0.2132278 0.2365455
1229 1.152763 0.10032664 -0.3924495 0.16249946 0.4584317 -0.30291292 -0.07185632 -0.018537669 -0.044535104 0.24278046 0.43025762 -0.49189383 0.1283853 0.42434844 -0.15908179 -0.40944898 0.6935371 0.16454846 -0.9160821 0.54523414 -0.23630865 1.0654027 0.050873376 0.40592274 0.018817319 -0.094992235 0.7344385 0.120643005 -0.16769332 -0.058532197 0.24467264 -0.1766335 -0.25275114 0.38898712 -0.18688221 0.28763345 0.62815344 1.12705 -0.3250711 0.29603395 0.13604192 -0.29189536 0.57040983 0.9512795 -0.060621437 -0.5272042 -0.139861 -0.12070343 0.26210716 -0.32450408 0.4405467 0.95828015 -0.48813194 0.534723 0.56101096 0.004545636 -0.7125588 -0.3565557 -0.37194738 -0.3711871 0.14081745 -0.5142848 -0.09669135 0.031566545
1894 0.7400451 -0.021036789 0.015270863 -0.05622806 0.014265943 0.011869713 0.11013629 -0.7284966 -0.37872145 0.28058168 -0.19152232 -0.2902162 0.19780846 -0.32911867 -0.15586762 0.4701296 0.17502734 0.43183607 0.80750525 0.75353277 0.13077058 0.24346769 -0.38212964 0.13436382 0.1108924 -0.40660352 -0.25380787 -0.57105494 -0.6059883 0.5464441 -0.22927742 0.07436113 0.31242675 0.036610804 -0.9480005 0.31834853 -0.16809109 0.50219 0.54953074 0.09074614 0.094714925 -0.06540276 -0.14675057 -0.85821307 0.2872021 0.50879586 -0.324484 0.41645285 -0.3957479 -0.022594918 -0.023923397 0.1645307 -0.25578535 0.42887267 0.093839124 -0.6063157 -0.54656816 -0.32450625 -0.6884211 0.2640421 -0.5214415 0.507116 0.23388585 0.4077975
735 0.1215353 -0.4697778 -0.1839306 0.31014824 1.5065354 -0.43734527 -0.3772624 0.45639238 -0.53200763 0.19047032 -0.3626354 0.03964317 0.1536012 0.5891613 0.74416494 0.47738388 -0.34042764 0.90656304 -0.19652826 0.74969643 -0.015328564 -0.53945583 -0.09198224 0.2808124 0.95546883 -0.14338745 -0.14925545 0.18718849 0.92185956 0.5119783 -0.8791012 0.12185939 -0.18205887 0.5585888 -0.51989526 0.8276471 0.08918447 0.5040849 -0.10577453 0.028995002 -0.827426 0.76711184 0.96313345 0.03357847 0.18323945 -0.02039004 1.2026126 0.83905387 -0.5699141 1.0840569 0.74632984 0.15161 0.013487371 -0.6982936 -0.30327114 0.63704085 -0.4584301 -0.64458895 0.069218956 0.7342906 -0.2110455 -0.10282805 0.2031088 0.8477115
661 0.27369365 -0.8835191 -0.2372422 0.25641578 0.6983197 0.016747436 0.23195975 -0.21535733 -0.56443083 0.4137658 -0.22306383 -0.2097548 -0.02325328 -0.20775118 0.4102113 0.4600608 0.024959227 1.2268571 0.046165477 0.18500027 0.57493067 -0.12990798 -0.86016256 0.07287549 0.7529548 -0.12295598 0.31633762 -0.14270586 0.35025877 0.5030642 -0.013548136 -0.34006143 -0.23262689 -0.16712944 -0.61633426 -0.05675723 -0.025315542 0.5347095 -0.084553115 -0.17834789 -0.21979797 0.491324 0.583679 0.10020164 -0.8327499 0.48743185 0.269938 0.83341736 0.4832713 0.1280275 0.014383509 -0.95045686 0.8879558 -0.09447579 -0.7553311 0.7079402 -0.41997337 -0.2347246 -0.25497615 -0.84867173 0.4888132 -0.89973056 0.5470898 0.36052585
1869 0.623082 -0.4140822 -0.32496175 -0.13050394 0.5197778 0.5528584 -0.81492835 0.09576352 -0.35707057 0.17503545 -0.5387245 -0.089285955 0.053735886 0.47231552 -0.046276055 -0.0034394795 0.22997206 0.20654447 -0.30753022 0.73235685 0.4965824 -0.43650392 -0.287531 0.07929165 -0.45082447 -0.4256023 -0.31477934 0.08624284 0.2367934 1.040473 0.14188689 -0.5406496 -0.47492054 -0.61401343 -0.9339342 -0.34127322 0.4338182 0.018559866 0.696728 0.18766911 0.71803766 -0.0073517933 0.14869444 -0.7251673 -0.23381346 0.18944359 0.027702147 -0.08245562 -0.4719157 -0.24256518 -0.53999114 -0.19232398 0.8053309 -0.27987966 0.22863173 -0.3704137 -0.1291624 -0.21940854 0.080072306 -0.19764411 -0.14017354 -0.23449156 0.18129508 -0.39996937
603 0.121411465 -1.502312 -0.13215019 0.33121654 0.5974927 0.52627605 -0.2887964 -0.46927753 0.4576535 0.4710372 -0.71121913 -0.06140861 0.53435117 -0.18059169 0.41510555 -0.42641908 0.27964917 -0.056171443 0.19194561 0.8723658 0.022934875 0.29068854 -0.39445877 -0.06302103 0.2607403 -0.7349721 0.1571309 -0.27487144 -0.5374309 0.22823992 -0.48738483 -0.51156646 -0.4550425 -0.101836614 -1.1556805 -0.44584197 0.48386034 0.028153908 0.3525548 0.12421689 0.29630435 -0.41195577 0.49218577 -0.82218844 0.87778306 0.3717165 0.620784 -0.2475538 -0.00044346714 -0.4043923 -0.17471987 -0.19524539 -0.529358 -0.48047784 0.18964131 0.09813733 -0.63958645 0.13480051 -0.6303577 0.135453 -0.1602867 -0.58408046 -0.056004796 0.01080259
2367 0.25993553 0.0038374998 0.13027191 -0.4182725 0.73287666 1.4011567 -0.34447682 -0.29577813 0.21468224 0.08895841 -0.08873049 0.7797349 0.112543344 0.021659192 -0.6372953 0.45383197 -0.5178622 0.877525 -0.881944 0.537755 0.193027 0.07899621 0.23382902 0.76384807 -0.20714885 -0.8186525 -0.19272083 -0.4515999 1.0318315 1.1248538 -0.24933623 0.0030045137 0.10212397 0.031888716 0.43643734 0.20990738 -0.5987123 -0.32379976 -0.028492576 -0.27417806 -0.5220909 -0.2007479 1.8683248 1.0006422 0.046310235 -0.6347428 -0.19628645 0.18940362 0.47441146 -1.3516757 0.07132225 -1.2002025 -0.21364598 -0.6938178 0.026135068 0.2785057 0.15729709 -0.7211894 -0.9472599 -0.063204095 0.113165066 -0.12015985 0.46307662 -0.3245881
1273 0.28088596 -0.21905853 0.17103562 -0.011093713 0.97265995 -0.48554757 0.54189366 -0.34077907 0.76562685 0.22779863 0.47025517 0.073141925 -0.46428093 0.5182231 0.079006165 0.15349899 -0.024501815 0.9359406 0.032720212 0.738887 0.6051804 -0.4289979 0.49618036 0.4536369 0.47899273 -0.6173036 -0.047686778 0.81363773 0.29274464 0.052639555 -0.10537677 0.42615443 0.042466175 0.40020418 -0.7932452 0.65116113 0.42066333 0.3368565 0.05224533 0.23986691 -0.42523712 0.084574275 0.7293709 -0.12951016 -0.16571581 -0.424347 0.05852418 0.83048457 -0.5947733 0.83871794 0.45359465 0.059313864 -0.086132355 -0.34193474 -0.024255186 -0.46164086 -0.23679237 -0.14595237 0.59303033 0.75693053 -0.23192059 -0.47215384 0.24729133 0.24542278
350 0.064936265 -0.5669301 0.033071235 0.6665062 0.018465258 0.44217652 -0.3931774 0.36916316 0.11832888 -0.11782532 0.13235949 -0.07433528 0.108292036 0.3850957 0.2557677 -0.13460344 0.447668 0.27037582 -0.41319242 0.06268064 -0.15579191 0.51572466 0.43957582 0.3322507 -0.32648146 -0.5843783 0.4052632 -0.17698821 0.16871998 0.38398433 0.044797946 0.45627236 0.8732385 -0.5749781 -0.56916666 0.18234937 -0.7256292 0.24165839 -0.22266307 0.117098436 0.2067008 0.32570773 0.5802245 -0.2260293 0.5370324 -0.47650582 -0.52494794 0.5770518 0.3273282 -0.59592795 -0.43149972 0.09702754 0.3830529 0.01692425 -0.058564957 -0.057918515 -0.35979074 -0.5902418 -0.6547427 0.7715784 -0.26080298 -0.66006273 0.2446487 -0.69071925
645 0.87805843 -0.09216486 0.32437506 -0.5828915 -0.041303605 -1.0122327 0.2522937 0.22974396 0.06274634 0.32062212 -0.54169387 0.27231577 0.20022792 0.19027069 0.14089839 -1.1303664 -0.7708079 1.00815 -0.5980169 -0.02730745 -0.5274577 0.20079756 -0.065398574 -0.018397741 -0.014565763 0.1440071 0.19291584 0.0482294 0.76009166 0.049705952 -0.10952549 -0.022938 -0.17302014 -0.10055732 -0.8655084 0.3083408 0.22218907 -0.11842994 0.5155637 0.79433286 -0.3607221 0.16285774 0.45750082 0.37085587 -0.07608163 0.030516552 0.6446814 -0.27055216 0.963649 0.03696614 -0.70905113 0.07401167 -0.012262969 0.36060527 0.17063776 0.20509732 0.11355478 0.35668585 -0.19954796 0.08011237 0.5130597 0.43353462 0.20671245 0.55266833
218 0.7259889 -0.5514212 0.6289847 0.073263586 0.41478527 0.2176493 -0.2556428 -0.29021955 -0.5225027 0.15494718 0.054151442 0.06963072 0.22104143 0.3068396 0.00941814 0.1614414 -0.28529766 0.17127852 -0.092208765 1.0794476 -0.1868702 0.6848266 0.56459033 0.20022851 -0.25396824 0.10158496 0.048049532 0.4400423 0.5326983 -0.51162106 0.27363545 -0.33519852 0.58780205 -0.24983792 -0.5994184 0.2596819 -0.76385206 0.11659653 0.20767917 0.56178594 -0.30519077 0.3639432 0.35780206 0.8654421 -0.21982847 0.42061627 -0.1496103 -0.78196394 -0.61218554 -0.68158805 0.20632784 -0.83474195 0.14633273 0.14395018 -0.19000481 -0.13886167 0.80843824 -1.2039727 0.7489465 -0.017967518 -0.3605547 -0.42734787 -0.20840819 -0.14519832
2130 0.8535372 -0.7187553 0.17154844 0.5107085 -0.113001965 -0.49451625 0.42267856 -0.5837493 0.44107446 0.023483276 0.49579608 -0.062060826 0.06877735 -0.43783355 -0.13178435 -0.49796924 -0.09779552 0.40016386 0.18533728 0.43332526 -0.21520346 0.07351643 0.22382174 0.8437251 0.46251687 -0.5517434 -0.09060838 -0.6678471 0.756579 0.9582836 0.20871708 0.39183113 0.24852082 -0.37988043 -0.11410956 0.82629055 -0.07383411 0.28039747 0.54705584 0.7628891 0.109869085 1.5874025 0.44099152 0.47069883 -0.23310463 -0.124495015 0.83440673 -0.02561361 0.95829105 0.62019217 -0.3679751 -0.14351353 0.05302168 0.24319777 0.036285974 -0.07060118 0.5359476 -0.334149 -0.069446914 0.2074689 -0.32825032 -0.426957 -0.39983755 -0.92438096
94 0.5231336 -0.9641369 0.5836613 0.45650515 0.42786047 0.20114951 -0.5718592 -0.007977726 -0.16379642 -0.4964883 -0.04847367 0.968277 -0.3629734 0.52202266 -0.7849437 0.34041962 -0.051295135 1.542569 -0.58148384 0.24489616 0.2065427 -0.6430899 0.44773963 -0.41729715 0.7067686 0.45238057 1.1141611 0.12595606 -0.20489183 -0.08341481 -0.59838593 0.3210957 0.5691169 -0.87224495 -0.20917088 -0.32883325 -0.34161013 0.5529527 0.51906943 0.761564 -0.036402274 -0.21815005 0.71188635 0.4570304 0.29012814 -0.0281251 -0.37479308 -0.96610504 -0.467647 -0.15900873 0.10273079 -0.2247153 -0.33710036 0.24962462 0.42105517 -0.058136906 0.39998898 -0.39612052 -0.5946529 -0.5835855 -0.54325783 -0.35847285 -0.2810363 -0.1475614
231 0.29097283 0.12641658 -0.5269356 0.05306125 -0.25082448 -0.21327507 -0.08853847 0.22701202 -0.07710722 -0.5074697 -0.7018487 -0.31312564 -0.41033664 0.013194395 0.73288053 0.33490002 -0.25268853 0.5533161 0.83236265 0.675822 0.275144 0.12059171 0.08939823 -0.4441133 -1.3797084 -0.56563395 0.14897648 -0.69902766 -0.059148286 0.5493556 -0.068368524 -0.1772 -0.31127822 0.18180145 -0.2523866 -0.221782 0.62260383 0.55822945 0.5531772 -0.30191833 -0.1665767 0.24805926 0.4917541 0.23321427 0.033792827 0.51156336 -0.040358305 0.14040849 -0.20443808 -0.35165343 -0.16211982 -0.21652049 0.14207038 -0.52907187 -0.74387354 0.65928555 0.071476184 -0.284643 0.61016923 -0.4524782 -0.8086335 -0.8527799 -0.1813327 0.74393946
1655 0.32913095 -0.14906952 -0.14523612 -0.07103471 -0.1847444 0.038445458 0.13985392 -0.1809799 0.26819718 -0.23804826 -0.6750357 0.18811043 0.24824227 -0.13821568 -0.19442558 0.69054127 -0.35795707 0.7796188 0.5277313 0.37414113 0.25959244 0.55663747 -0.73442876 0.0063229594 0.6445555 -0.84895754 0.04080435 -0.11181639 -0.4644729 0.9814809 -0.34958538 -0.064330004 0.0118758455 -0.86964726 -0.8202317 0.13434783 -0.016189083 0.11224504 -0.17403837 0.57857203 -0.3732634 -0.0026731617 -0.39650312 -0.05031581 -0.0025384093 0.25195178 -0.1313995 0.2580983 -0.8847352 -0.36576685 -0.31057155 0.5324961 -0.13993092 0.16540752 -0.24605678 -0.14921881 0.11162677 -0.27394727 0.045756172 0.5725555 -0.3621686 0.6715095 -0.037491437 0.19094329
1050 1.1182712 -0.61154354 -0.49083883 -0.42359534 0.9166837 -0.73357195 0.027163206 0.09397755 -0.70009756 -1.2232332 -0.9135854 -0.26883852 -0.7598053 0.12160131 -0.702628 0.07175375 0.05166678 1.0114757 0.3769448 0.2806257 -0.36962298 -0.6223561 -0.16177942 -0.14210433 0.21423386 -0.18461995 0.8507564 -0.7393002 0.16511945 -0.12817523 -0.665242 1.1151216 0.72474885 -0.20708881 0.19444323 -0.19231515 -0.41799116 0.76747155 0.035696145 0.7677293 -0.44998512 -0.40288073 0.6906798 0.52652174 0.10374622 -0.06168061 -0.2661148 -0.52529377 -0.21496814 -0.09234788 0.9660324 -0.45979097 0.06366452 0.063361436 0.83592236 -0.67942405 -0.31246987 0.13220622 0.2971638 -0.36385655 -0.12912002 -0.14238867 -0.16842468 0.14254604
1505 0.7672462 -0.5563009 0.51838624 1.0773718 0.48063788 0.22788736 -0.25845802 -0.29706413 0.12057468 0.43798053 -0.3731117 -0.058955293 -0.42568755 0.3011455 -0.053972542 0.28878438 0.34973395 0.692752 0.017761333 0.3729589 -0.36242455 0.27086458 0.24822715 0.93267965 -0.51351106 -0.856858 0.5618991 -0.14299506 -0.1540881 -0.38061294 0.15485571 -0.112458006 0.25577566 -0.24231863 0.07333112 -0.4217276 0.77359825 0.039482184 0.24534556 0.61635166 -0.04122139 0.6030815 0.1564269 0.09748393 0.24658427 -1.0508806 -0.11985993 0.2848884 0.69686675 -0.37855288 -0.35462537 -0.14841951 0.499285 0.522994 -0.23602764 0.119042456 -0.9348928 -0.6423275 0.6790074 0.1188792 -0.41083294 -0.098556705 -0.16128469 0.040258493
577 -0.11504492 -0.86055315 -0.7303466 0.13056903 0.98964804 -0.9940353 -0.36486053 0.10541648 -0.14593448 0.17362884 0.0802791 -0.030547688 -0.42754748 -0.032966137 -0.09015643 -0.76807195 0.31401786 1.4250255 0.63983774 -0.59410805 -0.31914708 0.61865264 0.12370171 0.35512823 0.77056867 -0.82536775 0.21634935 -0.5188384 -0.22362147 0.67328405 -0.07362242 -0.35603553 1.0639396 -0.09146829 -0.49908796 0.15432374 0.9310377 1.0603034 -0.6311921 -0.16278014 -0.08886682 -0.8135039 0.37536862 -0.004565623 0.006726922 -0.2668616 0.5640193 -0.035223722 0.04379668 -0.06666066 -0.5007262 0.75054646 -0.6767163 -0.09538544 0.5687915 -0.62294394 1.0310929 -0.39912882 1.5636889 0.3603263 0.11775956 -0.62174386 -0.0045369267 0.5845323
1602 1.2629514 0.5763664 0.16917159 0.524353 -0.10269676 0.34814665 0.49938342 0.07723536 0.44366378 0.16989022 0.16975473 -0.287991 0.1651639 -0.64417785 -0.43000233 0.606053 -0.47616646 0.52473384 -0.084162995 -0.46333846 -0.14763547 0.4296772 0.4863999 -0.31898633 -0.37333438 -0.31498966 -0.099651664 -0.24999774 -0.20946278 0.8456024 0.04448915 -0.35285735 -0.19143173 -0.08610176 -0.27499762 -0.6436486 0.5093711 0.30844924 0.25855377 -0.12349315 -0.43154165 -0.028961195 0.6731091 -0.28282693 0.5128411 0.27317742 0.61837566 0.14323351 -0.45716408 -0.014948498 -0.16102825 -0.30689728 -0.56467927 -0.060470693 0.67167026 0.2284913 -0.376366 -0.5398447 0.24773231 -0.52453667 -0.28464213 0.7944838 0.17443362 0.3625033
553 0.27348706 -0.23556463 -0.3000233 0.30249086 -0.44265515 0.531675 -0.42244822 -1.191011 0.19508973 -0.51304257 -0.07494947 0.12555988 -0.04970974 0.7411334 0.16417001 0.19603188 0.18330203 -0.018070634 0.17484626 -0.45998502 -0.3977379 0.3542732 0.13738386 -0.19335873 -0.42719933 -0.12669902 0.29068452 0.45770907 0.09591776 1.1432316 0.23548223 0.6389839 -0.37092033 -0.61607635 -1.1188996 0.10988804 0.021512896 0.9251361 0.6891076 0.20852447 0.41345978 0.17990361 -0.08914619 -0.24382772 -0.15790601 -0.2436308 0.43068478 -0.6072274 -1.0400244 -1.1074098 -0.25138712 -0.29962483 0.23815598 -0.04707899 0.27808467 0.09873334 -0.473726 0.065610155 0.24653402 -0.4124578 0.032192692 -0.5510999 -0.12572253 0.5322076
1119 0.25945115 0.2792683 0.27080005 0.046576094 0.9151611 -0.013372681 0.96837544 -0.3056794 0.72826505 0.39699468 0.6172358 0.14408517 -0.87568384 0.27384236 0.30168432 0.79780036 0.2851067 1.1560676 0.41745776 1.0140282 0.774574 -0.016716946 0.74089736 0.4706952 0.55157936 -0.94192326 0.23359437 0.67425436 0.0032040575 -0.18753916 -0.063736096 0.34399894 0.17131335 0.08572103 -0.74743444 0.9120518 1.0980396 0.3949523 -0.061055742 0.24621837 -0.6839486 0.3710291 1.330158 -0.46985254 0.024483431 -0.72236025 -0.00284999 0.884277 -0.82820886 0.6310122 0.7594593 0.88188505 0.1974733 -0.28651688 0.5112094 -0.49948886 0.12443059 -0.2630595 0.04280745 1.2689793 -0.10935342 -0.66139185 1.194257 0.74303615
2001 -0.62727606 0.58571684 -0.39995223 -0.6844698 -0.065216616 0.22766767 0.17787364 -0.14001563 0.27130246 0.85882664 -0.2220497 -0.57543534 0.019569905 0.08852868 0.5340039 -0.2868083 0.55766964 1.2706581 0.73859024 0.27481818 -0.36322957 0.01807415 0.24763866 0.34198773 -0.114464514 0.31212446 -0.22670822 0.29720145 0.13725281 -0.638713 0.17776497 0.06558206 0.012246765 -0.6058199 -1.1111972 0.3932652 0.0869797 1.0977389 0.5934271 -0.29099217 -0.1727658 0.28907558 0.45539248 0.2776907 -0.1723299 0.11359023 0.65429175 -0.1244536 -0.05858568 -0.580922 -0.11426209 0.31020093 0.44841787 -0.029228011 0.03317955 -0.07771697 -0.29576614 -0.57982135 0.030617153 -0.20443381 -0.13693546 -0.44079742 0.13735533 -0.3481267
1300 0.64407563 -0.6545298 0.2162844 -0.4453243 0.41254786 0.5336873 0.0030007176 0.44081524 -0.3543907 -0.42712048 0.71227664 0.71217793 0.30395985 -0.07049044 -0.017900983 -0.5067227 0.40087533 1.0570254 0.54174674 0.06125612 -1.309618 -0.10130969 -0.27293935 0.4096531 0.085841164 0.3787286 -0.95186543 -0.048301436 -0.044049174 0.44501695 -0.31273168 0.6304595 -1.148864 -0.05030831 -0.9030888 0.9378627 0.27076346 -0.25362274 0.49677268 0.29628187 0.083407395 -0.386537 0.23893334 0.2850176 0.4553243 -0.95963275 -0.7041222 0.014344506 -0.09262214 -0.36152267 -0.75105006 -0.8624258 -0.55450684 -0.35340038 -0.09173484 0.51203597 -0.12623356 -0.7416982 0.4073309 0.8645694 0.9953132 -0.09235227 0.3979244 -0.02243821
444 -0.64137846 0.24351832 -0.25374556 -0.0774462 0.2551131 0.7174046 0.18436995 0.36680323 -0.7289645 -0.36121035 0.3931926 -0.22767651 -1.2405527 -0.2893331 0.85213953 0.582692 0.36718145 0.73809814 -1.0295433 -0.7369999 -0.45436004 -0.26319057 -0.45867983 -0.9873759 -0.47288775 -1.4343518 -0.092045896 0.40109384 0.5258984 0.4218073 -0.075329274 -0.39063892 -0.32644764 -0.6717272 -0.9576275 0.22376181 0.3664718 0.44456446 0.11843643 -0.50837505 0.7123926 0.39423367 1.9735174 0.14038974 0.2880001 0.10189407 0.032217246 -0.031050911 0.49783486 -0.6849667 0.30023766 0.3017424 -0.28562894 -0.009465606 0.34877434 0.81977487 0.23179065 -0.3725796 1.2974882 0.31081706 0.07098286 0.8962413 0.8166256 0.13844405
1336 0.63112897 -0.8621317 0.82376474 0.2578778 0.023582662 -0.16971092 -0.1341311 -0.7245776 0.07679984 0.23129481 0.6608618 0.15834603 -0.40482822 -0.91626865 0.11656788 -0.20118962 0.03851199 1.2120676 0.14083691 0.16651517 0.67510694 0.5315554 0.23747158 -0.2689043 0.527658 -0.4378564 -0.10644481 0.4436261 -0.3854782 0.14903106 0.3230622 0.4559093 -0.006753008 0.11113241 -0.051927656 0.37710688 -0.0025182136 0.39144495 0.07106718 0.5897895 0.0005416625 0.51057583 -0.03918768 0.012895469 0.47526702 -0.06419313 -0.5185121 0.87778014 0.66712534 0.47691512 -0.014983515 -0.19860142 0.53702456 -0.032979354 0.07876135 0.47333315 -0.2715738 -0.8911806 0.5788419 0.39391586 -0.1486164 -0.17483243 0.36502406 -0.5710921
2385 1.2700896 -0.7992087 0.16194837 -0.41672763 -0.6808875 -0.029801507 -0.51745975 -0.771775 0.6313978 -0.0006922543 0.020695465 0.1364794 -0.31321508 0.4657909 0.78059345 0.75149965 -0.17188758 0.8221253 -0.25216755 -0.3705313 0.8703856 0.60981286 0.8546703 -0.45438883 -0.41766962 0.8772675 -0.25416625 0.605611 0.09797804 1.1693265 -0.093942784 0.48713663 -0.15399502 -0.6732773 -0.41872293 0.4190607 0.057708163 0.8650547 0.2334568 -0.027118016 0.32289648 -0.26614454 -0.1509772 -0.03088065 -0.050026383 -0.42662758 0.48135582 -0.6879579 0.45819232 -0.11345792 0.4631515 -0.6086376 -0.1952556 0.748603 0.84442693 -0.44900185 -0.21473488 -0.039301757 -0.024571134 0.34297556 0.035354234 -0.36400917 0.24740899 0.33098048
89 -0.3454098 0.11928625 0.10384105 0.3069108 0.2310817 -0.25849 -0.58346736 -0.5436495 0.29519925 -0.1313525 0.3610561 -0.0707378 0.16727082 1.3687738 -1.2843987 0.43288887 -1.0633074 0.3807468 -0.9138557 0.41466734 -0.29518747 0.9011135 0.30680618 -0.13672914 -0.12279571 0.24396555 -0.28385562 0.14642328 0.10566589 0.5335658 -0.05807367 -0.43086854 -0.31512848 -1.0033848 -0.77842534 1.2495575 0.71363276 1.0191659 -0.48612893 -0.32259732 0.6151033 -0.76154935 1.2656174 -0.3684955 0.34487492 -0.9560346 -0.20175014 -0.9515691 0.40198043 0.0100761065 -0.5039954 -0.042193536 0.11958411 0.06678894 0.20466591 1.0953048 0.10205168 -1.1258119 0.6509062 0.4278906 -0.70617753 0.708421 0.91060954 -0.17662443
748 1.4422714 0.096306965 -0.33875695 0.12504615 -0.6569004 -0.3143775 -0.49788076 -0.2710553 -0.4070882 -0.005504275 0.038623504 -0.07830387 -0.023511896 -0.4463028 -0.279269 -0.30533743 -0.15400629 0.060939535 0.04658017 -0.008240339 0.12761769 -0.31251806 -0.7020389 -0.5823913 0.42500713 0.09089028 -0.11584701 0.52083087 -0.27326295 0.25690147 0.57628477 -0.13450651 0.3677051 0.19576724 -0.19113304 0.9594925 0.2386233 0.9768238 -0.04812328 0.6073697 0.35545018 -0.16862974 1.0378265 0.051637616 -0.43492728 -0.16828807 -0.29877162 0.59783006 0.355432 -1.1673014 -0.07722739 0.018818136 -0.23631352 -0.57804227 0.5810303 0.0917895 -0.5928505 0.17876756 0.3741913 0.06278751 -0.5531364 0.44149986 0.016912512 0.17346486
836 -0.24225228 0.023416566 -0.4697859 0.1115818 0.5162799 -0.036978472 -0.43419394 -0.39046955 0.5243824 -0.4968805 -0.08704576 -0.05849087 0.39175597 0.21973367 0.44253567 0.05391028 -0.55827165 0.61868703 0.3646443 0.27887183 -0.06393966 0.5252235 0.22143498 -0.2313401 0.40709692 0.45922542 0.23429567 -0.03782571 -0.44333375 -0.057848018 0.08279577 -0.45282945 0.02486278 -0.8206983 -0.4844222 0.3503317 -0.25541124 0.14953989 0.26901305 0.45613387 -0.036940075 -0.3109696 0.8264268 -0.3172178 -0.3382373 0.33950537 0.14231919 0.843814 -0.2521854 -0.58470285 -0.35503826 -0.12359263 0.3655691 0.27873188 -0.04359347 0.06303831 0.15230773 0.49866605 -0.36836588 0.94561464 -0.17405838 -0.100974426 -0.07681114 -0.8150445
2126 0.27711812 -0.48753366 -0.28954726 0.116177924 0.84780425 -0.23081703 0.62679935 -0.08662228 0.6547382 0.46902704 0.41415262 0.64715606 -0.30765623 0.4431018 0.279488 0.4491564 0.36437663 1.053799 -0.07319623 0.39098674 1.0899887 0.16395539 0.39271814 0.6293272 0.55705607 -1.3312854 0.032882787 0.03743905 0.39857292 0.017158283 0.03574999 0.29472056 -0.11806829 0.1781275 -0.09761004 0.7729064 1.1168451 0.4535648 -0.15577915 -0.08557083 -0.66574085 0.033304527 1.1776785 -0.13872942 -0.058799535 -0.8768984 -0.51117235 0.7646333 -0.69051236 0.34585467 0.6735425 0.2532537 -0.0724693 -0.3138072 0.3113403 -0.376711 0.27854195 0.025459731 0.1931124 0.92619497 -0.3922555 -0.39975002 0.89826417 0.5522287
154 0.62007034 0.5333497 -0.8131216 -0.30229434 0.018523524 -0.5987994 0.26664904 -0.6221862 -0.77952296 0.49784783 0.5071685 -0.56029266 0.014322689 0.10298451 -0.105136134 -0.725848 0.21925782 -0.5257433 0.18231672 -0.36372572 -0.84419876 0.8951995 -0.14710817 0.32291558 0.36809632 -0.5691251 -0.038979325 -0.41297284 -0.38658187 0.006590635 -1.064512 -0.15887105 -0.028592708 0.0412884 -0.47788858 0.8411221 -0.31890473 1.0011163 0.15447491 0.7438167 0.08150165 -0.3364234 0.48141724 0.33114696 -0.7780935 -0.033493508 -0.2552685 0.1939769 0.22930992 -0.66051966 -0.09778586 0.13149121 -0.7263875 -0.4390147 0.29206714 -0.01372563 -0.22288452 -0.42468178 0.2443587 0.08283884 0.08669052 -0.14614758 0.6578928 0.08523957
657 1.3409864 0.072541356 -0.65531945 0.32523298 0.5731946 -0.21193723 0.0902396 -0.18153547 -0.095056735 0.4723618 0.8137918 -0.42882612 0.44997066 0.5057613 0.012730415 -0.35394138 0.502664 0.39102948 -1.3564444 0.59336704 -0.15626277 0.9637848 0.33800918 0.01517531 0.04204904 -0.18610224 0.94118893 0.3739964 -0.40106088 0.24006909 0.43073195 0.36347178 -0.49780217 0.7669838 -0.60022783 0.79254156 0.83067805 0.67110103 0.16562805 -0.49018145 0.5663403 -0.44130436 0.48142686 0.8256071 -0.479852 -0.53552854 -0.122222856 -0.15163082 0.17476091 -0.26201496 0.106815726 0.896962 -0.00020807129 0.24991316 0.6234719 0.52862 -0.25834122 -0.6307618 -0.33222213 -0.48048273 0.6939888 -0.832907 -0.1335384 0.05039456
492 0.81529856 -0.33202702 -0.13328494 -0.16037676 0.19481125 0.81398124 0.48017597 -0.35281703 0.17305799 -0.57865113 0.022052709 -0.13906038 0.55514884 -0.82005 0.05251595 0.23835373 -0.32243443 1.1713097 0.8890822 1.1527821 -0.5948829 0.5608853 0.37036756 0.24959238 1.137952 -0.41476837 1.4777399 -0.30392256 0.34931928 -0.14816694 0.027558073 1.0041366 0.014626505 0.3465025 -0.7416094 -0.37660018 -0.41834277 -0.2361002 -0.5649391 -0.5612622 0.5445448 0.7492968 1.1480728 0.41505477 -0.500156 0.053826567 0.55431765 -0.5279441 -0.5420958 0.6848691 0.12833254 -0.41475806 -0.31980336 -0.7499294 0.7152868 0.60060585 -0.5499826 0.61523914 -0.19200963 0.20207407 0.51013756 0.51306635 0.41221744 0.24452032
734 1.068712 0.38521567 0.08214752 0.4861437 0.40618065 0.04291399 -0.82041806 0.29873464 0.568194 -0.07993017 0.93091655 -0.65787756 0.59893966 -0.50308096 -0.2512344 -0.21228722 -0.39751846 0.86869377 0.21448708 -0.12901431 0.311703 0.3862593 -0.039366607 0.56719416 -0.7523813 -0.35704467 0.24605718 -0.5107768 -0.35059237 -0.02570515 -0.3928588 -0.13976294 -0.35378152 0.21573384 -0.7643461 -0.22828689 -0.5185405 -0.15946683 0.57361335 -0.47609076 0.8998384 -0.33489245 1.1750585 -0.7965361 0.13716267 0.8893614 0.76576394 0.4040666 -0.24190712 -0.34962788 0.24447188 0.18244088 -0.25695917 -0.72458106 0.78352714 0.58994174 -0.19903538 -0.99030864 0.38816836 -0.4035943 0.20617984 0.1153465 -0.5669557 0.13860679
711 0.7093967 -0.53477263 0.079407595 0.49357343 -0.25977966 0.07623409 0.44177994 -0.3342319 -0.6303694 0.21132363 -0.8370445 0.8174367 0.27487707 -1.1522716 0.059675355 0.3378635 -0.2948782 0.657858 0.1397336 0.196816 -0.22579938 0.39926913 -0.7820314 0.28930572 -0.078972034 -0.58273244 0.47642663 0.35722846 -0.5317901 0.90906745 -0.65748405 0.84344876 0.84450096 0.69801986 0.1527607 -0.048165414 -0.030985935 1.2051983 -0.27193615 0.32724395 -0.52716655 -1.4127784 -0.18676414 0.5010672 -0.90806323 0.2524575 0.52879083 0.9413475 -0.33292994 -0.49335715 0.083511464 -0.5535882 0.31063783 0.17902187 0.36841342 0.8660332 0.6381889 -0.33338067 0.9495122 0.22844847 -0.06513331 -0.15816654 0.6879549 -0.036679458
441 0.45861578 -0.43217152 -0.6186974 -0.48757586 -0.6548201 -0.46017984 -0.16060135 -0.36302152 0.0128460685 0.011566795 -1.0776602 -0.13698451 -0.48905388 0.13318166 0.510214 1.1185452 -0.3435159 0.9996963 -0.7191297 0.5558398 0.3222903 -0.18772635 -1.0772812 -0.3856407 0.027599778 -0.37802294 0.0010774643 0.09118379 0.71977687 0.09526387 -0.018389028 0.31976867 -0.17884792 -0.39538452 -0.5516001 0.5831196 0.11076881 0.67122126 -0.20602152 0.34688726 0.47496945 0.2645362 -0.357158 0.34041736 -0.70128554 0.3333434 0.9461896 0.33757833 -0.038933933 0.6076084 0.5303617 0.1700278 0.24371158 -0.16636167 0.8029368 0.7037103 -0.54835325 -0.28759578 0.028857604 0.23974709 1.2440225 -0.45407188 0.6429836 -0.32622936
1966 0.68358845 0.14687441 0.53440636 0.36805984 0.64606124 -0.3307217 0.8394383 -0.06152472 -0.022376057 -0.015252434 -0.31804156 0.83899206 0.026704418 0.4710774 -0.39514613 0.3876761 0.8426989 1.2181443 -0.111522734 0.7787381 0.25828704 -0.29920885 -0.07477679 -0.40833125 0.5877981 0.48291755 0.7275669 -1.1936439 0.05458591 -0.26716363 -0.4829715 1.0975008 0.27183706 -0.73278373 -0.34463394 0.5215974 0.08142421 0.9299251 0.16981822 0.53564245 -0.27533254 -0.14194436 0.84527975 0.14240961 1.0836215 0.1693325 -0.49448934 -0.75020295 -0.3057866 -0.072633825 0.22845896 -0.33856016 0.46745187 0.0043871407 0.6184102 -0.31448734 0.56406957 0.121928945 -0.5171739 -0.082194574 -0.54122776 -0.40290073 -0.40252188 0.19647184
1681 0.2506013 -0.9396137 0.12952058 0.9942879 -0.007834036 0.13168098 0.084365375 -0.18208894 0.24999276 0.40820464 0.044611264 0.119383916 -0.31701553 -0.5148491 -0.03771958 -0.011663997 -0.061792746 1.6773095 -0.4131056 0.43149024 0.22362393 0.76920986 1.0133661 -0.18661691 -0.21057431 -0.59782875 1.0477068 0.089425676 -0.56222904 -0.2308805 -0.16714916 0.78512365 0.34088865 0.31867853 0.30021608 0.23314309 -0.28606576 0.9326725 0.10819175 0.8109343 0.52366275 0.6080856 -0.068560384 -0.53657955 0.5487198 0.27911788 -0.40673885 0.45843276 -0.49321234 0.12620105 0.80712366 0.30459478 -0.1307657 -0.49573252 -0.4655747 0.058717232 0.10847818 -0.5639662 0.36390257 0.8222433 0.4404019 -0.43423662 0.59826034 -0.79664457
1776 -0.25495413 0.012443228 -0.65885615 0.56438273 0.13363864 -0.46243843 0.40277103 -0.6234986 -0.251176 -0.28663266 -0.40051255 0.31161958 0.026245588 -0.30128577 0.4507175 -0.47699907 0.13325533 0.4133189 -0.011665572 -0.05173919 0.2527888 0.50177133 0.30066666 0.7900281 -0.22159022 0.16677377 0.7037566 0.4377014 0.085300945 0.69787765 0.04830216 -0.651733 0.012339696 -0.55906403 -0.1616379 0.23678489 -0.53393114 0.16154301 0.07506938 0.5429592 -0.014030918 -0.17132494 1.1545166 -0.17859668 0.65735537 0.6680015 -0.28944883 0.3178074 0.10238359 -0.5091359 -0.3915927 0.010640857 0.17922893 0.4110058 0.22167069 -0.061505333 -0.28362805 0.24290127 0.38274387 0.62543386 -0.34518194 -0.16827148 -0.11322288 0.006332948
1269 0.7612292 0.07378809 -0.1866196 -0.5014789 0.48241663 0.39034232 1.4124637 0.19786859 -0.4127983 -0.13197939 0.10460352 0.8485279 0.6920656 0.23773076 0.42695388 0.44807753 -0.8224278 1.2749143 0.4382476 0.28014272 0.5181926 0.19187094 -0.8661433 -0.8718179 0.473219 -0.46964774 0.090958685 0.65843457 -0.10533418 0.32849833 -0.13655567 0.6675971 -0.20253007 0.84049666 -0.14876747 0.08074446 0.040702 0.24773714 0.56928706 0.5528729 0.11858757 -0.33320734 0.57017374 0.04242102 -0.052824624 -0.74421805 0.26763144 -0.48160532 -0.0003797843 0.008617078 -1.4113114 -0.2411978 0.03691453 -0.42954105 -0.82382077 -0.07371954 0.05549458 -0.91081154 -0.16137725 0.2642466 0.342464 -0.48635787 0.85490596 -0.08928791
2464 -0.51432693 0.45948097 0.34450218 -0.63979685 0.69103825 0.7658242 0.22455768 0.7494928 -0.5453969 -0.6519488 0.24007054 -0.0037761151 -1.3398852 0.19204152 0.69907755 0.04494329 0.64209497 0.3356932 -0.5993088 -0.79493755 -0.5626766 -0.3493825 -0.5404794 -1.1301146 -0.023205768 -1.6128948 -0.23838761 0.5297487 0.3830291 0.5142414 0.12386111 -0.032733887 -0.6023419 -0.55268556 -1.4027299 0.020312004 0.74473315 0.88510096 0.07009893 -0.24545357 0.933802 0.79858094 2.2606804 0.20809096 -0.385619 0.14896573 -0.1747257 0.20050201 0.36953872 -0.42062497 -0.027185112 0.48933375 -0.08786571 -0.41242385 0.51029444 1.333488 0.10389236 -0.3327686 1.4391328 0.66390437 -0.15793958 0.46898374 0.7006341 0.30528948
1154 0.5153829 -0.015391217 -0.07368725 0.07176524 0.07029605 0.12691678 -0.28457087 -0.003703765 -1.0252289 -0.071950376 0.20704348 -0.8795406 0.6034466 -0.3298974 -0.16036782 -0.35660207 -0.19952916 -0.46280077 0.38695377 0.28345212 0.37067226 0.77836883 -0.20179974 -0.065862164 0.10498106 -0.08752183 0.3248306 0.22632769 0.49974418 0.17807963 -0.24704713 0.17006941 0.4170873 -0.1486098 -0.27919003 0.10916739 0.547289 0.69752544 0.46198994 -0.034977913 -0.45202377 -0.25935212 1.1569384 0.9694479 0.24860962 -0.09245943 -0.4020846 0.009813265 -0.3920197 -0.69335806 0.18614072 0.21781407 -0.37261 -0.34061623 0.8711905 0.7460829 -0.43702042 0.6278367 0.3033387 0.15698072 0.41229415 -0.26548702 0.11938965 -0.69332886
59 0.5116611 0.14440079 0.62674576 0.005746306 0.5557737 -0.34194338 -0.49023733 -0.7426837 -0.68403685 -0.07094449 0.11345637 -0.4782933 0.14094064 0.13045813 -0.17627448 -0.6928775 -0.04928641 0.42527625 0.6126529 0.16098784 -0.023408819 -0.010971377 -0.46293095 -0.13079183 0.07806116 -0.8111639 -0.13405597 0.17699794 0.412528 0.109554745 0.04748747 -0.65917 -0.53828114 -0.58697337 0.41307408 0.19560817 -0.040213007 0.5522597 -0.02479697 0.10379091 -0.6745628 -0.75920963 0.49028775 0.4924233 0.6433276 -0.1363305 -0.28023753 -0.3257735 -0.49333087 -0.57906353 -0.22363885 0.13304827 -0.0687966 0.22422752 1.0825182 -0.23170991 -0.8562584 0.13425009 -0.027413033 -0.25985098 -0.24853064 -0.19811904 0.41865966 -0.29328045
186 0.5279246 0.12607393 -0.3684588 0.08950329 0.59039897 -0.3654478 -0.89818907 -0.3473974 0.26077062 -1.1049492 -0.14067554 0.36371636 0.2163893 0.8149674 0.8323007 0.32766056 -0.30726448 0.6678831 0.6942643 0.21660398 0.095296726 0.3921773 0.1348337 0.18974361 0.9657425 -0.9660701 0.53782755 0.20172672 0.8083309 -0.3965896 0.44416013 -0.79363954 -0.28764638 0.8135801 -0.4833305 1.1845982 0.5113704 0.91172576 -0.094964564 0.6165113 0.008216052 0.29733875 0.7008321 -0.2346651 0.18914466 0.32562932 -0.6567726 -0.44839954 0.45652443 0.31879467 -0.14327466 -0.95508665 -0.25743914 1.007307 0.75575686 -0.2217404 -0.4251851 -0.23623726 -0.05703084 -0.48806235 0.1877055 0.80261785 -0.5219292 0.15242049
1135 0.67064005 -0.6382668 0.27346605 -0.17623983 -0.35613844 1.0611755 -0.039320398 -0.094252765 -0.330248 -0.8658633 -0.15971814 -0.19008292 -0.2483119 -0.87827516 0.275251 -0.013171405 0.58203834 1.1297728 1.301751 0.6272519 -0.47139692 0.67887634 0.3177387 0.2723482 0.65065336 -0.45734528 0.9753063 -0.2912005 0.85170865 0.4932836 0.3977106 0.9263969 0.11073443 0.5162725 -0.80941004 0.6244869 0.121854216 -0.5312173 -0.5302802 0.11886018 0.4181097 0.106376566 0.48362914 0.13807638 -0.4924394 0.11590016 -0.13811372 -0.27770352 -0.35057628 0.13154139 -0.120522164 0.19438817 0.37531552 -0.173446 0.62564605 0.7427312 -0.060050134 0.66681504 0.1357107 0.23005559 0.061963167 0.13625167 -0.21443298 -0.67166185
904 0.83890843 0.30748132 0.1979081 0.23862329 0.21796586 -0.43335828 0.107464135 -0.6210417 -0.67524225 0.21616201 -0.5908509 0.43161732 -0.24984764 0.52162796 -0.14045794 0.37045285 0.04353473 1.0746521 0.6005659 -0.43669015 -0.017748663 0.12883238 0.8490737 -0.12131911 0.58329207 -0.9974521 0.37947932 0.12490659 -0.04811617 0.17541982 0.10103718 -0.028280377 -0.87742877 -0.098247446 -0.91017896 -0.2185239 -0.02977506 -0.30779874 0.56078553 -0.5741767 -0.23230101 0.04651913 -0.25674036 0.87514377 -0.36374968 -0.4660744 0.567479 -0.14525092 0.18266404 -0.85736334 -0.471313 -0.2162088 -0.5734792 0.7244188 0.30109775 0.00815313 -0.056432173 0.7408373 0.10808117 -0.049857046 0.41712892 -0.33007225 0.31148434 0.36144567
316 0.68194485 -0.36485952 -0.15985094 -0.37204635 -0.08729188 -0.42801267 -0.003321249 -0.42111716 0.7009944 -0.24483538 -0.26081532 -0.21645156 -0.22767414 0.12940763 0.05167187 0.5398934 0.07888294 0.2648969 0.3889911 1.6440012 -0.5288472 -0.012885835 -0.17170925 0.41022593 -0.29625112 -1.879595 -0.27934855 -0.6713084 0.005278982 -0.27008495 0.197141 0.339353 0.1528007 0.21833469 -1.0465173 -0.24301185 0.5118569 0.84086317 0.34984866 -0.6816039 -0.04638772 0.28457394 0.87300694 0.40681562 1.1463344 0.19721992 0.67428684 -0.23571314 0.15904674 -0.120674446 -0.7290586 -0.36595586 -0.3452171 -0.5559989 -0.72927 -0.09602551 -0.3851818 0.26690766 0.0933282 0.11747437 -0.7931928 -1.0630405 -0.63855976 -0.14314204
741 1.244279 0.5917131 0.07323795 -0.15121223 -0.10730833 -1.3690276 0.46259594 -1.3636281 -0.668939 -0.630707 -0.5362453 1.0117719 -0.23002042 0.047380928 0.5068355 -0.74306756 0.9108883 0.4834072 -0.34989712 0.26627758 0.9929815 0.27012786 0.49465188 0.45780012 0.053731672 0.061861776 1.2016336 -1.0558002 0.20390792 0.14039375 -0.09904962 -1.0739049 -0.7201195 -0.50685793 -0.48142633 0.04983102 0.09264062 0.30575752 0.056991857 -0.7173709 0.104438804 0.14414872 1.0566626 0.13611014 0.8452263 -0.11628406 0.1836192 0.5761813 0.008504993 -1.1428598 0.5786335 -0.19122654 0.19831325 0.014744764 -0.2706792 1.1541848 -0.29332036 0.5732618 0.39353988 0.1620446 -0.057044182 -0.6090415 0.32224423 -0.715853
1775 0.28276983 -0.26240453 0.045657005 0.2790042 0.113015555 0.4082108 -0.3967452 -0.13332489 -0.097746745 0.13378789 0.22063363 0.14387728 -0.15668869 0.2924299 0.6427345 -0.31181288 -0.16473506 0.63959813 -0.645782 0.11321972 -0.26678103 -0.3747044 0.5169878 0.09685156 -0.5491653 -0.7982624 0.38707775 0.06125285 -0.32665724 0.4778814 -0.06912567 0.45797113 0.810067 -0.48614663 -0.10280877 0.040372152 -0.78732115 -0.34458327 -0.13628674 0.17479342 -0.26380056 -0.45723355 1.076813 0.720266 0.5348513 -0.3568011 0.021018555 0.11661962 -0.22141673 -0.7684518 0.12793587 -0.43545094 0.31357637 -0.47192565 -0.067614414 0.183528 -0.35396245 -0.4208166 -0.81520796 0.5384436 -0.05151494 -0.3120422 -0.10377073 -0.30577344
1740 0.96647394 0.46952617 0.2244479 0.7396369 -0.12195461 0.002343499 0.1756323 -0.6528368 -0.49972683 -0.7117409 0.039460152 -0.4109113 0.31884396 0.17331773 -0.14376143 -0.3055198 -0.12160784 0.41538206 -0.46340728 0.21671881 -0.42431065 0.21390536 0.5057368 0.1478601 -0.060546134 -0.7079018 0.5220542 0.6098752 0.57796705 0.48808885 0.8462602 -0.07862306 -0.13915631 0.03447541 0.35443252 0.072622776 0.13653782 0.8849324 0.31676185 0.47675717 -0.58893764 -0.29293805 0.16219035 0.40947917 0.23369421 0.2291427 -0.15870841 0.29247734 0.093852565 -0.44387814 -0.14906003 0.4573967 0.5395603 -0.13440572 0.73461205 -0.74451286 -0.90291363 -0.3278951 0.4454067 -0.16676462 -0.109776504 -0.16114354 -0.16804092 -0.36811432
284 0.30588618 -1.3060179 0.56322193 1.2408191 -0.7454451 0.9123881 0.6371416 -0.15151751 0.45532587 0.20981441 -0.6396513 -0.12548092 0.6259923 0.4262634 0.02681925 -1.2210203 0.32534945 0.39055812 1.1857214 0.13384372 0.6276896 -0.69746995 -0.94465977 0.28647575 -0.21456842 -1.2776294 -0.35930684 0.4342807 0.6933723 0.73946255 -1.2777861 -0.47540933 -0.35337028 -0.43823728 -1.047805 1.2325296 0.62808007 1.1725472 -1.2984776 0.9991489 0.1816385 -0.32373658 0.53452754 0.36858612 0.45516032 0.33655193 -0.021799412 0.061557267 0.086363606 -0.6228978 0.27716145 0.162761 0.4445061 -0.13648802 0.034914285 -0.31022304 0.69824916 -0.20316136 -0.13270934 -0.04329364 0.30390874 0.19070308 0.2086428 -0.852679
490 0.74182653 0.16397113 0.042005748 0.3058723 0.2746921 0.008018447 -0.06768055 -0.2087253 0.03582967 0.16489358 0.8002311 0.5831952 0.17559855 0.007766868 0.25691834 0.60127074 -0.28217083 0.6575819 -0.13344759 -0.50745183 0.1920899 -0.31289846 -0.4482776 -0.5034786 -0.57989365 0.18794297 0.51496655 -0.5110858 -0.5585199 0.4525146 -0.26467514 -0.20822583 -0.24537113 -0.052074462 -0.980413 -0.09281144 -0.10994901 -0.123370096 0.3738511 0.85672903 0.010871535 0.6060409 0.41360268 0.03844934 0.44716924 -0.24013641 0.47493726 1.3094548 -0.408365 -0.029347286 -0.03881721 -0.15938438 -0.08683691 -0.2683134 0.8881506 0.039271686 0.5099822 -0.20838742 0.65406764 0.78594494 -0.17708293 0.5432251 -0.32006434 -0.08158592
1735 0.37778476 0.46485534 -0.25378898 0.3665575 -0.7915476 -0.51189834 0.46555588 -0.11936807 -0.40918443 -0.3363436 -0.43911657 0.009835393 -0.19493584 -0.2631545 -0.12900762 -0.07250588 -0.2839723 0.23410563 0.17980424 -0.1804292 0.2880774 0.618784 0.1339008 0.7006982 0.29165345 -0.29563883 1.0626618 0.034118492 0.33764306 0.3773896 -0.23421155 -0.7783044 0.012177792 0.22087799 -0.26276553 0.675037 -0.33996785 -0.013210413 0.29755372 0.2553239 -0.1737837 0.034728266 1.2112364 0.110842906 0.7550839 0.057781782 0.011903071 0.74900335 -0.48532474 -0.4628144 -0.13844876 -0.055684038 0.013331869 0.35568407 0.16983263 -0.11261098 -0.38676465 0.44508633 0.6636365 0.022305673 -0.5725722 -0.51230365 0.12050596 -0.17364962
1367 0.22412987 -0.66524917 -0.113336354 0.3236726 0.111121446 0.085484505 0.68253964 0.44615963 -0.86417085 0.74451596 0.3062544 0.021180369 0.7414753 0.021726953 1.0255418 0.32026127 -0.009354165 0.47935328 -0.20262124 -0.0967051 -0.24693754 0.52778095 0.16827396 0.30778936 -0.45142236 -0.4719074 0.36642495 0.3799676 -0.53082126 0.5736538 -0.26821858 -0.008503459 0.34919223 -0.5744034 -0.24940377 0.5083581 -0.7130894 -0.052663915 0.0028835558 0.5337194 0.38635397 -0.24468166 0.5943208 -0.12128301 -0.2728916 -0.44863555 -0.30315807 -0.19272107 0.6751486 0.01885239 0.00022166807 -0.6097675 0.8774409 0.20459223 0.030448861 0.38857496 -0.35209486 0.0026290806 -0.03773601 0.16495922 0.15185721 -0.538121 -0.30256966 -0.12882295
1908 0.8319902 0.5202324 -0.13659765 0.05674144 -1.1571304 -0.41103867 -0.13118112 0.119480304 -0.16857252 0.3693486 0.33154184 0.28601387 -0.5480655 0.6155965 0.22340986 0.44359428 0.18856178 0.56988543 0.21339934 0.21059464 0.15821448 0.38894954 -0.98590857 -0.08289886 -0.76745486 -0.27821082 -0.050296344 -0.48293677 0.35044417 0.24361366 -0.20194711 0.62021893 0.2937602 0.75917035 -0.048409503 0.07917418 -0.08436088 -0.08609909 0.47744712 -0.11351569 0.30537674 0.060684994 0.47288573 -0.17177321 0.101870075 -0.16672833 0.0043315147 -0.29666886 -0.25258943 -0.27078855 0.114131026 0.19748735 0.28695744 0.037019636 0.49961793 0.4128793 -0.49345905 -0.6710062 0.02849579 0.6464004 -0.67871135 -0.13345134 0.4737035 -0.2020757
1463 0.83872664 0.19670147 0.07982655 0.17679521 0.3434467 0.052341186 -0.41830942 -0.32560518 0.31183392 0.070944555 1.3185768 0.08130533 0.7922109 -0.1257867 0.13365285 -0.052239943 -0.24607229 1.0653619 0.36627498 -0.56976056 -0.1760152 -0.20245348 -0.11284424 -0.14306049 -0.47203118 0.67490935 0.59878415 -0.7518603 -0.9608713 0.25419474 -0.8850203 -0.3644242 0.07096657 0.15518115 -1.1211833 -0.3218525 0.3147387 -0.03404619 0.12491338 0.9312269 -0.36968726 0.6880219 0.37562397 0.35159153 0.8199097 -0.302292 0.31628227 0.38838884 -0.35667324 -0.1206851 0.7949235 -1.0320529 0.8093889 -0.6943452 1.0027006 0.551776 -0.39233375 -0.28412914 0.5610526 0.3414524 -0.13123827 0.10077155 -0.615269 -0.15300311
2122 -0.18421113 0.37266025 -0.19694547 -0.16855921 0.583509 -0.123140976 0.11600947 -0.7475357 0.28305954 0.54195935 -0.72977066 -0.878674 0.3524906 -0.03478013 -0.01096033 0.0032908616 0.65947825 1.1620837 0.43319735 0.05544355 -0.05401249 0.01585125 0.22819215 -0.13235456 -0.19965237 0.59708995 0.12692916 0.42661777 0.09993237 -0.6283006 0.09016388 0.2924401 -0.12580596 0.041708834 -0.8845013 0.6985706 -0.21339215 0.6630306 0.16188782 -0.16848211 0.06648681 0.35510457 0.013507702 0.99175227 -0.58010644 -0.031412892 -0.070926785 0.26665542 0.48981097 -0.19777879 0.31400496 0.3587394 -0.42813918 0.21254428 0.88354206 0.3161471 -0.24348767 -0.97118264 -0.2646044 0.4170882 -0.19392097 -0.95089746 0.3823266 -0.51993597
2129 -0.23518084 0.16696744 0.8175149 -0.3134737 0.775425 0.120952025 1.411757 -0.16748674 0.6506553 0.45947543 0.27325973 -0.245579 -1.1701791 0.14871873 0.2591444 0.40499893 0.38388819 1.1624919 0.34538275 1.0358247 0.44113836 0.14244226 0.63644516 0.2871331 0.15407784 -0.91233844 -0.49004242 0.5269516 0.23450425 0.062454443 -0.88013506 0.9751063 -0.049336653 -0.33242768 -0.7553975 0.17483486 0.91143805 0.8668109 -0.50155884 0.21730036 -0.44235954 0.70870066 1.3398248 -0.44095185 0.4414068 -0.21458712 0.052110944 0.84711695 -0.52555925 1.0203846 0.05834251 0.6542101 -0.0032221703 -0.42320696 0.5636861 -0.4488685 0.09889565 -0.197419 0.5665223 1.1947095 -0.016204936 -0.45052812 0.32145947 0.48689032
833 0.6308344 1.3028247 0.14846165 1.2306314 -0.01366839 0.21068725 -0.24335264 -0.33614177 -0.16469102 1.1056497 -0.47817442 -0.31770885 0.1974928 -0.25666034 -0.037837744 0.5214303 -0.3007362 1.6000047 0.56637037 0.9625111 -0.7155759 -1.0242338 -0.5734926 -0.42409548 0.40724614 0.36998454 -0.6146318 -0.5923914 0.3449722 0.6988287 -0.75255984 -1.0888344 1.0826796 0.65547156 -0.04157543 -0.16200922 0.041392345 1.0861733 0.5392601 0.11644699 0.46790975 1.0027939 1.0490456 -0.0071025286 1.331322 -0.33412424 -0.08197157 0.15106419 0.30658692 -0.81611896 -0.023827257 0.7243881 -0.096304975 -0.09274903 0.6317671 0.7544564 -0.28792804 0.5503646 0.36504763 0.6245608 0.85471153 -0.61152714 0.844706 -1.0800363
2160 0.6588058 -0.02346212 -0.5520978 -0.05465671 1.3015809 -0.99817616 -0.3706626 -0.22621171 0.6366086 0.4310253 -0.15019158 0.1163925 0.7022379 0.71220565 1.5306376 1.4348985 0.05492521 0.613469 0.1364245 0.53082037 -1.1626825 1.0359144 -0.25983182 -0.73048556 0.7879367 0.50485504 0.13260074 0.07398267 0.9038061 0.25891817 -1.4871774 -1.2002127 -0.10574349 0.56293297 -0.27738652 0.7859755 0.70527184 -0.8701661 0.3260909 0.68311185 0.51043785 -0.17139742 0.5961099 0.5157113 0.4051443 -0.37539247 -0.13497831 -0.0043539465 -0.5061 -0.8174469 0.49870488 -0.4638642 0.4210055 0.3298145 0.35797682 0.9496389 -0.4941618 0.5504511 0.00071745605 0.46217299 -0.31671813 -0.19268458 -0.19065316 -0.3149429
1067 -0.05097563 -0.25253463 1.023045 0.018080704 -0.2613959 0.054253407 -0.78484887 -0.25855717 -0.42327717 0.19688703 -0.2245402 -0.4646046 -0.326747 0.14127749 -0.79855806 -0.121682376 0.37052968 0.3269852 0.40479055 0.96201843 0.18193509 0.30179748 -0.42314023 -0.7030211 -0.47580305 -0.3425032 0.08375119 -0.1492375 0.1809868 0.04871806 0.57274425 -0.66935515 -0.08956369 -0.9778639 -0.49335033 0.41719672 -0.058529716 0.31064487 -0.14743413 1.1148766 -0.3386269 -0.21561322 0.71873146 0.2720373 0.65388876 -0.96858615 0.5992984 -0.5478435 -0.1514576 -0.6066805 0.1596022 -0.5426916 -0.1404297 0.104362845 0.658737 -0.32290676 -0.894079 0.056785896 -0.016958304 -0.6775643 -0.37991175 -0.15297474 0.3369326 -0.33884037
429 -0.22362426 0.17966595 0.2650314 0.14604224 0.09320648 0.3257655 -0.48409444 -0.064705096 -0.07362543 1.1231937 -0.3118196 -0.3366836 -0.20854875 -0.9149511 -0.6445568 0.40913847 0.30577645 1.2945287 0.44143578 -0.050000504 0.9458399 0.43775514 -0.0084878085 -0.052493643 0.3870264 -0.3862971 0.38136512 0.81549275 0.4254021 0.056216877 -0.08617054 0.7693243 -0.12749386 -0.74412334 -0.6422812 0.07934795 -0.593009 0.57664025 0.25371814 0.3291605 -0.10902547 -0.09245508 0.21030593 0.62798434 -0.17131513 0.55256474 0.25260395 0.30273047 0.8075789 0.37936497 -0.10857606 -0.50791675 0.024159057 0.63362116 0.6119396 0.8848936 -0.252422 -1.2926446 -0.75839853 0.0156135885 -0.38475555 -0.17171703 0.5371321 0.047220763
1902 1.0592582 0.016209194 0.33344135 0.25902635 0.8757747 -0.85250646 0.47141436 -0.6048943 -0.2284474 0.25902638 -0.84649235 0.3178652 -0.08663642 0.32035676 -0.20249543 -0.076510236 -0.5947562 1.0433362 -0.11538819 -0.70568365 -1.4567299 0.3253513 0.37152407 -0.19659741 -0.34443694 -1.0548255 1.044009 0.20813003 0.10527333 -0.6068368 -0.2308027 0.22243603 -0.7435936 -0.7267724 -0.597598 -0.30053735 0.29542646 -0.652086 0.44720006 0.71183467 0.42454192 -0.42214862 0.3353549 0.7352462 -0.16811094 0.3345659 0.32730958 -0.74131656 0.83325726 -0.46485856 -0.005712442 0.5535738 0.8744082 -0.24695382 0.504655 -0.2471492 0.28148317 0.12724465 -0.39497352 0.40578493 0.48846903 0.6291362 0.48585972 -0.18849942
236 -0.22946094 -0.46822134 -0.23028344 0.13258791 0.10584408 0.13196303 0.32513258 -0.39473355 0.460184 -0.27315605 -0.4973773 0.21385224 -0.1831767 0.062460743 0.46710768 -0.3064589 0.045743022 0.61712235 -0.29086366 0.014079265 -0.42703113 0.49128908 -0.120762296 -0.6095368 -0.622486 -0.39005795 0.5221985 0.6505947 0.11643198 0.6745235 -0.13362162 -0.43949795 -0.17021134 -0.40571797 -0.40065682 0.17590441 -0.11998797 -0.083868146 0.18500894 0.1927156 0.21725316 -0.50292975 0.48072952 -0.4595031 0.29292184 -0.5353237 0.008473997 0.4523777 0.8017686 -0.48557773 0.3396735 -0.5098326 -0.08462278 0.0073626223 0.14444368 0.03204111 -0.51555455 0.33228913 -0.17831196 0.63731843 -0.23571084 -0.23968832 -0.14975227 0.10532489
1848 0.5391122 -0.28595173 -0.7514374 0.42013764 -0.29868603 -0.452821 -0.09567977 0.044874053 1.0413682 -1.2072146 0.32442218 0.08763415 0.34686485 0.42973024 -0.476268 0.1659412 -0.11055093 1.1810415 0.52060574 -0.47437516 -0.13333993 0.46447355 -0.08766212 -0.281896 -0.21515508 -0.6719501 -0.696451 -0.04318084 -0.06622854 0.041180182 -0.22105986 -0.010508105 -0.6482781 -0.18840373 -0.23112078 -0.87201345 -0.31377256 -0.057098724 0.08009391 0.6967739 -0.07674374 -0.56264025 0.14379363 -0.20184302 -0.46400625 -0.12173169 0.15592022 0.23423693 0.047544014 -0.3846632 -0.1578958 0.29857242 -0.26682296 0.3635354 0.15019119 0.20330665 -0.20975971 -0.31659365 -0.2597212 0.06670785 0.0070358277 -0.37311536 0.030987056 -0.22591202
519 0.22231288 0.2643043 -0.20796463 0.032190353 0.17618588 0.3993066 -0.33930802 -0.31287852 0.57311547 0.036810614 -0.4504056 0.042305365 -0.3246912 0.45316532 0.64787656 0.075284354 -0.9419244 0.42064407 0.3224837 0.44319022 -0.36433205 0.43568105 0.070717745 0.41355082 -0.28283578 -0.1972606 -0.080617964 0.18823995 -0.45658478 0.31391066 0.2212698 -0.04218882 -0.16279022 -0.34903076 0.029331334 0.24629866 0.34413156 0.51985544 0.63113016 -0.20672911 0.21694005 0.036073312 0.77377135 -0.4174498 -0.14379187 0.065796725 0.2852116 0.61070955 0.35136414 -0.3862254 -0.23251714 -0.6949503 -0.24891251 -0.091886014 -0.26553774 -0.16754071 0.09548901 0.69715446 -0.015123142 0.4310958 -0.63878953 -0.8238628 -0.33334014 -0.66413856
737 1.0019637 0.36813492 0.075209185 -0.013473499 0.06897333 -0.20688848 0.19037811 0.22511348 -0.339039 0.051224045 0.0012886644 0.78475916 0.5299799 0.8071312 0.35825068 0.3041963 -0.44395313 0.8299528 0.7550737 -0.032241996 0.4652677 0.58434623 -1.4165525 -0.43890986 0.13164106 -0.3095465 0.31658596 -0.01241989 0.115051106 1.216714 0.18391177 0.4008237 -0.03909773 0.30830362 0.21351351 0.4915453 0.11819591 -0.009057248 0.4714645 0.16340372 -0.026275586 0.03305023 0.33672485 0.48859632 0.13656859 0.21703343 0.48644692 -0.62609553 -0.28059584 -0.05407841 -0.5888204 -0.25468832 -0.2379308 0.11606575 -0.23739077 -0.17773214 0.15126911 -0.5948145 -0.097740516 0.87414026 0.29555547 0.1686265 0.5152863 0.29629737
1583 0.50532347 -0.031449255 -0.5043115 0.20617531 -0.41229507 0.18779363 -0.20055555 -0.9133955 0.67154527 -0.64196014 -0.013890942 0.2620884 0.013928672 0.48357987 -0.14974104 0.3894455 0.29007766 0.24337476 0.27366802 -0.19259147 -0.4804167 0.59864634 0.10515294 -0.82111895 -0.15991612 -0.2630744 0.36180618 0.060851917 0.22859383 0.39572018 0.0629161 0.35920057 -0.22881874 -0.41268933 -0.6275059 -0.21348499 -0.033508055 0.8970121 0.7167297 0.118343286 0.40303102 -0.20007095 -0.27286735 0.049132828 -0.2219083 -0.47606468 0.43445212 -0.0829209 -0.58746135 -1.0334988 0.06594382 -0.45569625 0.32693955 -0.32951647 0.011237462 0.24920276 -0.13582219 0.2183166 -0.04805826 0.09031691 0.29593694 -0.14484344 -0.18452936 0.33997053
623 -0.08233365 -0.25886908 -0.10824777 -0.86011416 0.2517462 0.39332387 -0.15168029 1.0822977 -0.18041998 -0.30045882 1.2709436 -0.09833561 -0.9538878 -0.13362661 0.7310603 0.35145882 0.10092975 0.46227834 -0.48882136 -0.44576743 0.018911107 -0.20584887 -1.1979022 -1.2060516 -0.3888483 -1.0371156 -0.23419495 -0.011857832 -0.023245508 0.52993613 -0.10871778 -0.44758692 -0.21982506 -1.0275686 -1.3170549 0.061867002 0.4258025 0.6992276 0.6556343 -0.64327914 0.6112483 0.6579126 1.5232313 0.4454188 -0.3168371 0.048534308 -0.14405358 -0.253012 0.8969623 -1.1040752 0.35830754 0.22111289 -0.65843767 0.062114645 -0.020303227 1.1568948 0.092943385 -0.3184013 1.0155137 0.21641423 -0.3439723 0.8274234 0.6127155 0.046789754
704 0.45443347 -0.51823723 -0.111743845 0.5276926 -0.9848711 -0.51013196 0.32537168 0.28059027 -0.5659001 -0.54659665 -0.52580386 -0.44870406 -0.07101247 0.08441997 0.3882128 -0.11749912 -0.37160122 0.29719323 0.21379162 -0.2086245 0.30501777 0.68941635 -0.031376053 0.34102193 0.49370086 -0.38798591 0.25729087 0.055384155 0.2557452 0.6301106 -0.7119 -0.1987737 0.31239742 0.5930206 -0.6337955 0.4770653 -0.35095137 0.03857326 0.37889257 -0.0999713 -0.3392304 -0.7610564 0.497107 0.5654235 0.3858048 -0.11789764 0.54702234 1.0703262 -0.37658778 -0.44739386 -0.01974334 -0.24244973 1.0166717 0.62551355 0.4455374 0.4608761 -0.085099496 0.084335856 0.5945588 -0.10037797 -0.0653187 -0.67079693 0.8405408 -0.16718149
48 0.12453497 0.40587035 0.746508 -0.99982405 0.16159903 -0.277969 -0.03183079 -0.17390765 0.4081866 0.6759816 -0.2540583 0.25570384 0.16901761 0.34975535 -0.032926224 -0.76893276 0.2059654 1.0410885 -0.026982859 0.45777515 -0.025119504 0.49928942 -0.1936124 0.8148187 0.43773863 -0.78080666 -0.11487608 0.7233091 -0.220983 0.6434716 0.71202374 0.9254493 0.5815464 -0.31892395 -0.5701556 -0.26395875 -0.31253496 0.8972692 1.0522151 0.088542864 -0.4323929 0.10573758 0.6912006 0.2644993 0.49792573 0.319179 0.29811004 0.33298886 0.44310343 0.8080895 -1.0758547 0.17512496 -0.46923512 0.66762716 0.2535169 1.2221792 0.468114 -0.30974272 -0.184152 0.10448794 -0.6244794 -0.1027587 0.15150397 -0.18188983
515 -0.18011552 0.01795019 -0.13529254 -0.37177068 1.0180689 0.26522186 0.15998003 0.6164601 -0.28264642 -0.7495217 0.46693197 0.29583475 -1.4261146 -0.12078012 1.0187796 0.63612765 0.287236 0.4056865 -0.38700655 -0.9822867 -0.5114009 -0.17665577 -0.88274693 -1.0722864 0.05301359 -0.98806065 -0.10792806 0.37057382 0.22587739 1.0054424 0.23218615 0.13813145 -0.30175027 -0.69683814 -0.44404033 -0.15420455 0.28962702 0.7837166 0.073078886 -0.5460157 0.5657674 0.5815044 2.3862958 0.34917888 -0.23827377 0.25571036 -0.045090333 -0.04731826 -0.02731015 -0.6268616 -0.061151724 0.409218 -0.5556043 0.37070382 0.07015033 0.93502754 0.33478367 -0.53248423 0.8441261 0.45987314 0.033469494 0.48246592 0.7230481 0.09850405
544 -0.049715884 -0.56377363 -0.6164529 0.885064 -0.69712454 0.49209937 -0.08786968 -0.3626396 0.6087079 0.56603914 0.25795224 -0.070084885 -0.13445926 0.20799157 -0.4091169 0.709408 -0.31224597 0.37640417 -0.0016220148 -0.58720636 -0.32159534 0.08612694 -0.19205885 0.06546104 -0.10400939 -0.46024242 0.73484117 0.13795897 -0.44742706 0.9751422 0.28735223 -0.118253425 -0.43286973 -0.50338566 -0.27788678 0.21418458 0.5248352 0.23010485 0.22765571 0.43667188 -0.23825051 -0.069944434 0.25021556 -0.37146798 0.0367712 0.38924763 0.46228507 -0.5032599 -0.74012524 -0.91149545 -0.3123886 -0.12394756 0.029786227 0.00907867 0.48438463 0.5302396 -0.7507632 -0.4523029 0.631546 -0.075069316 -0.67515707 -0.65194046 -0.104233906 0.63293934
1743 0.6689907 -0.27500868 -0.20740189 0.59030235 -0.919712 -0.48680785 0.40162024 0.3140015 -0.5944286 -0.4286169 -0.6213856 -0.47785997 -0.023788966 -0.1949866 0.23247671 0.03155841 -0.23516354 0.03130012 0.20278992 -0.25382105 0.23327805 0.7977076 0.02272446 0.61513925 0.6872827 -0.41475636 0.3557132 0.061274607 0.029724099 0.5265634 -0.783921 -0.31235495 0.05155892 0.32333118 -0.39333975 0.39928856 -0.1712018 0.19892474 0.27174395 -0.31357628 -0.2904903 -0.591848 0.7399228 0.5655326 0.12708236 -0.14636889 0.38070747 0.8676405 0.12958895 -0.35903952 -0.06587133 -0.14595775 0.7836244 0.27950865 0.38710496 0.23358622 -0.023755446 0.20343241 0.22989771 -0.29463103 0.104725644 -0.617586 0.6355918 -0.027923396
65 0.6165368 -0.27422005 -0.61244935 0.4562565 -0.4994653 0.4554212 -0.33601478 0.39445072 0.32218936 -0.84163225 0.31983864 -0.25426912 -0.1506138 0.5266841 -0.5595023 0.18818527 -0.54803205 1.0311794 -0.0016164841 0.08250614 -0.16785187 0.58820665 -0.22627509 0.42580482 0.17092676 0.2696146 -0.12028206 -0.5363228 -0.11087412 0.22597067 -0.41547063 0.3674468 -0.8378534 -0.042309947 -1.1064978 -0.42044157 -0.30088282 0.19671296 -0.7636336 0.82830596 -0.27467862 -0.1839853 0.69380516 -0.14920251 -0.013743932 0.13951775 0.355341 0.751713 -0.23384355 0.024483742 -0.19688681 0.39028248 0.45063135 -0.15941267 -0.85378563 0.48165438 -0.14571808 -0.5177524 -0.8088901 0.1796018 -0.5080813 -0.34147102 -0.31771895 0.07331747
2054 0.07165104 0.08349222 0.5344916 -0.04860491 0.1720995 -0.021141725 0.054094415 -0.060907133 0.2414446 -0.119608104 0.57352203 -0.100715525 0.45665044 -0.23952124 0.37133402 -0.06894467 -0.51850575 0.82611424 0.4629976 -0.42540494 -0.6760659 0.10537572 0.18368351 0.21262062 0.13726915 0.16698319 0.01519556 -0.68860686 -0.31305945 0.34922317 -0.6238304 0.4089032 -0.49471036 0.0436943 -0.22503074 0.18912025 0.22249055 0.24864125 -0.3716009 0.12873554 -0.1200239 -0.13576351 0.86590314 -0.7844997 -0.160274 0.34768385 0.2678109 0.15448487 -0.19478041 -0.8224753 0.38118237 -0.11546109 0.08670071 0.22574818 0.8021045 0.8608999 -0.5153428 -1.1083206 -0.30058408 -0.25756684 -0.5439015 0.087608725 -0.49622232 0.2513347
2335 -0.0381409 0.75173753 -0.030420596 0.09263356 -0.10651973 0.03536676 -0.034194008 -0.5065343 0.1925247 0.6541051 0.39528078 0.3273029 -0.13324219 0.09090783 0.9570228 0.08173882 0.54658234 1.0228859 0.44654137 0.5437482 0.23340988 0.627131 -0.06848049 -0.31889012 -0.12507004 0.38324186 -0.13617222 -0.54909426 0.16794547 -0.955236 -0.6595092 0.71016407 -0.16718581 -0.8887771 -0.6220656 0.43652752 -0.17823884 0.9251361 1.1250311 0.20620492 -0.412188 0.43130875 0.4390061 0.3044275 -0.72915053 0.14424054 0.11370356 -0.38517755 0.62692887 0.30922258 -0.23619522 0.6177577 0.79732776 0.041476164 0.5925397 0.6436926 -0.14404741 -0.4942483 0.22829297 -0.41104856 -0.033161856 0.20478462 0.5692238 -0.523256
1824 0.89571667 -0.71931607 0.50497675 -0.013404401 -0.32378948 -1.1973588 0.3247685 -0.23921463 0.14174898 0.51956815 0.0967701 0.1916678 0.034104664 0.15952449 0.0061435113 -0.6423081 -0.08135231 0.38272327 -0.30772328 0.13467394 -1.0219089 0.022047032 0.38170007 -0.027622817 0.49024093 -0.448056 0.36091572 -0.20015527 0.59903103 0.42083278 -0.455859 -0.15841949 -0.16473325 -0.51036286 -0.19317815 0.1068519 0.48197383 -0.21835181 0.65293217 0.8206828 -0.7183873 0.64068735 0.6569221 0.30126998 0.16464414 -0.1426109 1.179468 -0.3439516 1.2502182 0.22177672 -0.66074336 0.025864452 -0.34258935 0.027819462 0.05044267 0.24973078 0.2497783 0.14433336 -0.04080594 0.7919746 0.10227562 0.48690805 0.9611143 0.9113884
1782 0.118287005 -0.35331687 -0.20813194 0.60757107 0.24233378 0.10735061 0.2557455 0.06491409 0.03128516 -0.20305815 -0.1691185 0.18896668 0.2181856 0.13498925 1.0164689 -0.06381351 0.6138373 0.7623014 -0.49763647 0.06049927 -0.5557571 0.25892696 0.44859776 0.063488334 -0.50141746 -0.19458994 0.34112507 0.12050534 0.12297645 0.8966071 0.3333941 0.032189284 0.9194343 -0.18565784 -0.39897093 0.19625548 -0.66550845 0.578612 -0.10527946 0.054727115 -0.048353985 0.06553877 0.26077592 -0.40479153 0.05469674 -0.022272829 -0.345797 -0.23844706 0.49744123 -0.7591614 -0.6046708 0.22656892 0.64264125 0.07115686 0.16376436 0.31132695 -0.44917947 -0.4169307 -0.87186176 0.1925027 -0.31027186 -0.5849826 0.21443123 -0.45419466
1702 0.7799426 0.032279693 0.5156853 0.051320385 0.44976333 -0.13735555 1.1414285 -0.0015293058 -0.47921354 -0.044361465 -0.13692094 -0.023241673 0.21907257 0.3433287 -0.25113103 0.0864557 1.2502286 1.1279825 0.062022235 0.6439855 0.36666498 -0.06453585 -0.18148583 -0.930113 0.18686804 0.7642584 0.04682073 -0.91260314 0.058382615 -0.4283457 -0.20984812 1.0015819 -0.08475913 -0.655934 -0.96416914 0.21163823 -0.29828748 0.6500529 0.38336194 -0.13024211 -0.08396593 -0.25871342 0.593906 -0.33899626 0.69243807 0.5791886 -0.8564729 -0.28836387 0.27367446 -0.29623088 0.6846426 -0.26131898 0.009749934 0.27587718 0.74262244 -0.33932927 0.6290379 0.23528618 0.16781501 0.55535734 -0.8458059 -0.10713619 0.09041549 0.5105993
